FANN_FLO_2.1
num_layers=3
learning_rate=0.700000
connection_rate=1.000000
network_type=0
learning_momentum=0.000000
training_algorithm=2
train_error_function=1
train_stop_function=0
cascade_output_change_fraction=0.010000
quickprop_decay=-0.000100
quickprop_mu=1.750000
rprop_increase_factor=1.150000
rprop_decrease_factor=0.600000
rprop_delta_min=0.000000
rprop_delta_max=20.000000
rprop_delta_zero=0.050000
cascade_output_stagnation_epochs=12
cascade_candidate_change_fraction=0.010000
cascade_candidate_stagnation_epochs=12
cascade_max_out_epochs=150
cascade_min_out_epochs=1
cascade_max_cand_epochs=150
cascade_min_cand_epochs=1
cascade_num_candidate_groups=2
bit_fail_limit=1.49999999999999994449e-01
cascade_candidate_limit=1.00000000000000000000e+03
cascade_weight_multiplier=4.00000000000000022204e-01
cascade_activation_functions_count=10
cascade_activation_functions=3 5 7 8 10 11 14 15 16 17 
cascade_activation_steepnesses_count=4
cascade_activation_steepnesses=2.50000000000000000000e-01 5.00000000000000000000e-01 7.50000000000000000000e-01 1.00000000000000000000e+00 
layer_sizes=15 22 4 
scale_included=0
neurons (num_inputs, activation_function, activation_steepness)=(0, 0, 0.00000000000000000000e+00) (0, 0, 0.00000000000000000000e+00) (0, 0, 0.00000000000000000000e+00) (0, 0, 0.00000000000000000000e+00) (0, 0, 0.00000000000000000000e+00) (0, 0, 0.00000000000000000000e+00) (0, 0, 0.00000000000000000000e+00) (0, 0, 0.00000000000000000000e+00) (0, 0, 0.00000000000000000000e+00) (0, 0, 0.00000000000000000000e+00) (0, 0, 0.00000000000000000000e+00) (0, 0, 0.00000000000000000000e+00) (0, 0, 0.00000000000000000000e+00) (0, 0, 0.00000000000000000000e+00) (0, 0, 0.00000000000000000000e+00) (15, 10, 5.50000000000000044409e-01) (15, 10, 5.50000000000000044409e-01) (15, 10, 5.50000000000000044409e-01) (15, 10, 5.50000000000000044409e-01) (15, 10, 5.50000000000000044409e-01) (15, 10, 5.50000000000000044409e-01) (15, 10, 5.50000000000000044409e-01) (15, 10, 5.50000000000000044409e-01) (15, 10, 5.50000000000000044409e-01) (15, 10, 5.50000000000000044409e-01) (15, 10, 5.50000000000000044409e-01) (15, 10, 5.50000000000000044409e-01) (15, 10, 5.50000000000000044409e-01) (15, 10, 5.50000000000000044409e-01) (15, 10, 5.50000000000000044409e-01) (15, 10, 5.50000000000000044409e-01) (15, 10, 5.50000000000000044409e-01) (15, 10, 5.50000000000000044409e-01) (15, 10, 5.50000000000000044409e-01) (15, 10, 5.50000000000000044409e-01) (15, 10, 5.50000000000000044409e-01) (0, 10, 5.50000000000000044409e-01) (22, 10, 5.50000000000000044409e-01) (22, 10, 5.50000000000000044409e-01) (22, 10, 5.50000000000000044409e-01) (0, 10, 5.50000000000000044409e-01) 
connections (connected_to_neuron, weight)=(0, -6.57941222056593767037e-03) (1, 2.26965168771157888017e+00) (2, 1.11134363398200353146e+00) (3, 8.23807010451858223732e-01) (4, -3.01356281300252992761e-01) (5, 2.40826281426925692397e-01) (6, -1.35879423524653830668e+00) (7, 1.28835892394057438537e+00) (8, 1.01288696253743681908e+00) (9, -9.07507810665236502867e-02) (10, 2.38417338961247882168e+00) (11, -6.95749829593474267142e+00) (12, 2.37043310988192734712e+00) (13, -1.82056857838718411102e+00) (14, 5.02121738141706019931e-01) (0, -1.25866652539334666905e+00) (1, 8.76608028020780527534e-01) (2, 3.20867843880134617773e-01) (3, 5.87299086313842533258e-01) (4, 1.22181814350127582181e+00) (5, 1.79289094078452060366e+00) (6, 1.86650736591238208817e+00) (7, 4.22865177692335225679e-01) (8, 7.51006062419680570086e-02) (9, 5.17086877289006582870e-02) (10, -5.58049080869753133527e+00) (11, -3.75792407444189002774e+00) (12, 2.41694217192912530479e+00) (13, 3.31621706935416016293e+00) (14, 3.89561340121575672146e-01) (0, -3.83664286408438859333e-01) (1, -1.25984912025287054682e+00) (2, -1.05950620459016375818e+00) (3, 1.19301071516917556181e+00) (4, 1.13394092588517159115e+00) (5, 2.65829464138462956413e+00) (6, 1.41069272029530989876e+00) (7, 1.00068764450517808107e-01) (8, -1.37667553802290454357e+00) (9, -1.03653027157977484229e+00) (10, 4.38831286591686264842e+00) (11, 6.41738815234919490749e-01) (12, -2.08333709990233417741e+00) (13, -1.83620292038864807438e+00) (14, -9.24372672352999580347e-01) (0, -8.99703930918140493134e-01) (1, -1.28519071572658405422e+00) (2, 9.91005388837244538536e-01) (3, 3.24868741808932171011e+00) (4, 2.12787922028089626636e+00) (5, 1.81743926095575991653e+00) (6, -1.73939237456083239941e+00) (7, -2.13620614670707864580e-01) (8, -6.91955903342471728701e-02) (9, 3.10883388537042115729e+00) (10, -5.11355527216425365111e+00) (11, -1.05659018006423877090e+00) (12, -1.23409315364676461235e-01) (13, -1.26991163314807975482e+00) (14, -3.58343618558974452704e-01) (0, 4.18899234710666945602e+00) (1, 1.20627883130322177685e+00) (2, 3.23627442786083197035e+00) (3, -1.37215862808179100973e+00) (4, -8.02198475281248546409e-01) (5, -2.87008333610550803172e+00) (6, 3.28508729526081788563e+00) (7, 1.61391916298840132349e+00) (8, 4.76431026778127719723e+00) (9, 3.27316618219416044511e-01) (10, 8.35563997505152977752e-01) (11, 1.03367077545814756157e+00) (12, -2.25739765907300382608e+00) (13, -7.11459888675003959690e+00) (14, -3.11029845892075829106e-01) (0, -1.46248008997941575382e-01) (1, 1.36486616047431508214e+00) (2, 3.29185932258933178218e+00) (3, -2.77902338704167295447e+00) (4, -2.13948871150436925603e+00) (5, -2.24896997314637214771e+00) (6, -1.68014232128272689160e+00) (7, 7.97106677778719796557e-01) (8, 1.23631443470565773879e+01) (9, -1.66507695332454908055e+00) (10, 2.24299420657544112956e+00) (11, 9.19858098945347757436e-01) (12, -3.70583625396725446777e+00) (13, 1.07637188709136721876e+00) (14, 2.46157649944328371650e-01) (0, 1.48845084376194258802e-01) (1, -4.72181456908250485327e+00) (2, -5.28566739971206978055e+00) (3, 2.85165349884815733095e-01) (4, 7.36959408622011591383e-01) (5, 1.17894133419922853001e+00) (6, 3.94991798520360620772e-02) (7, -4.64138526023430308953e+00) (8, 1.56780401729409457623e+00) (9, 1.89478898594860445392e-01) (10, 1.84072079790826115264e+00) (11, 4.93623242065955147861e-01) (12, 3.31004343592985605937e+00) (13, 1.48241363371825563000e+00) (14, 2.91919469535361464363e-01) (0, -1.05876903047887571674e+00) (1, -4.08720103208801166517e+00) (2, -3.21397476846263563388e+00) (3, 1.21892654464136485082e+00) (4, 1.16376360592702288166e+00) (5, 4.97050464541991088296e-01) (6, 3.95319286116548762600e-01) (7, 2.39182252132584260984e-01) (8, 7.64482132332357355864e+00) (9, -2.74563622563024001266e+00) (10, 2.51032092468754308712e+00) (11, 3.20392070477117707483e-01) (12, 8.84700845315708250816e-01) (13, 1.00429696748351560132e+00) (14, 6.17487361720505334439e-01) (0, -1.42188228569378649624e+00) (1, -1.76638302156649706909e+00) (2, -6.95289678985062331584e-01) (3, 8.60256735032050690037e-01) (4, 6.57992645591957581175e-01) (5, -5.14852351672503649738e-01) (6, 7.91586795232055218108e-01) (7, -4.73329095696940690963e-02) (8, 1.49583141425026044935e+00) (9, 6.44503787077364553859e-01) (10, 1.68431845753242392938e+00) (11, -2.07235194768368602425e+00) (12, 5.92796622990216959259e-01) (13, 1.63038134391759492736e+00) (14, -1.32296870849675807236e+00) (0, 1.49863938362549142802e+00) (1, -2.76999329468377020191e+00) (2, -2.06883503487150299804e+00) (3, 1.62490686818275442693e-01) (4, 1.76866933765392753131e-01) (5, 8.97732450853682806269e-01) (6, -9.21182066684949063529e-01) (7, -3.02088423958518315082e-01) (8, -2.44735685575931771751e+00) (9, 7.37234283821891073218e-02) (10, 7.87580143971406854142e-01) (11, 5.51394773001285587455e-01) (12, 9.07068225993166499244e-01) (13, 4.02008297095145028521e+00) (14, -1.20108137219095523207e+00) (0, 6.16496189429999286169e-01) (1, -2.27847766468649748361e+00) (2, -2.40433327528358553593e+00) (3, -9.62806283154144959546e-01) (4, 9.98710344217568907199e-02) (5, 3.92942790830411309289e-02) (6, 5.74181886651154549384e-01) (7, -1.33923082399582371593e+00) (8, 9.78905090678103917412e+00) (9, -1.86846782154593077374e-01) (10, 1.92212343657079753889e+00) (11, 5.95982644505141725966e-02) (12, -2.75502810004420384260e+00) (13, 5.19088888395101699658e-02) (14, -1.06454386857629601515e+00) (0, 2.39791424034332470439e-02) (1, 4.60186722238828727072e-01) (2, 1.19522987248483120171e-01) (3, 2.94082861381878624130e+00) (4, 8.93352254140201695876e-01) (5, -1.50129968866808538586e+00) (6, 1.14917595851914122740e+00) (7, 8.02687021272310397002e-01) (8, -2.16569356877353652591e-01) (9, 5.93655617947488223329e-01) (10, -1.50087486245930024076e+00) (11, -1.91973524183181254443e+00) (12, 7.75599342544303405056e-01) (13, -2.39276196231900240008e+00) (14, 7.49680221649968392406e-01) (0, -2.66291806961614785365e+00) (1, -6.89155766158876481597e+00) (2, -5.43182743868477224680e+00) (3, 8.68443735793795634770e-01) (4, -2.22673906246319774915e-01) (5, 1.53346119867410934923e+00) (6, -4.78736333319266549324e+00) (7, 8.18454446283323089339e-01) (8, 2.21111058964882634115e+00) (9, 4.07715515714453374585e+02) (10, 1.41085874529517507625e+00) (11, 4.73351347529233379419e+00) (12, -2.56723121586660596449e+00) (13, 5.98139280672308171205e+00) (14, -9.36595189798312410812e-02) (0, 2.55407569291196301364e+00) (1, -2.70206904681677295699e+00) (2, -3.14547287599864278107e+00) (3, 3.06945943051825231862e+00) (4, 2.35108788602968887815e+00) (5, 2.75017422566561098307e+00) (6, 2.58228222035866750161e+00) (7, -6.03883030175068480361e+00) (8, -1.92789898445288909734e+00) (9, -9.29301804090329031105e-01) (10, -1.88995320080197481971e-01) (11, -3.44887995231013599895e-01) (12, 3.24949546589939153307e+00) (13, 6.97022066380313054523e-01) (14, -1.42607647171653173501e+00) (0, 4.88625882018803414653e-01) (1, -1.72242500170898016343e+00) (2, -3.48087071468359798843e+00) (3, -6.15272066584163002112e-01) (4, -2.04715640838830781334e+00) (5, -1.51896833286589372225e-01) (6, 7.99086549112590027732e-01) (7, 5.25620332547271015833e-02) (8, 3.98393256932386252700e-01) (9, 9.83556114908870737779e-01) (10, 4.62652180075469710019e-01) (11, 3.19434834834427405781e+00) (12, -2.11248449857501713334e-01) (13, 3.49583971993115305565e+00) (14, -1.31769172902654796431e+00) (0, -3.65004342346409904607e+00) (1, -7.67638449170656156362e-01) (2, 2.47233407311957892327e-01) (3, 5.14598216866446556139e+00) (4, 3.56567490949059839878e+00) (5, 2.44830389069838139093e+00) (6, -3.46732514800266944377e+00) (7, -6.55774164643895374205e-01) (8, 8.03241669051438789140e-01) (9, -3.54945483591529908907e+00) (10, 1.47593863263199831515e+00) (11, 2.01789697291342129404e+00) (12, 1.85825855002242068537e+00) (13, -9.75532174758029846373e+00) (14, -2.57767955753763378102e-01) (0, -2.05824744397714498589e+00) (1, -6.66844764394024791532e-02) (2, 3.04682816046983107050e-01) (3, 8.23423528241088886759e-01) (4, 1.15876647623556672251e+00) (5, -2.04547641801931662231e-01) (6, -2.62396630128590402364e+00) (7, 1.21901834935056074816e-01) (8, 9.35124557499630582047e-02) (9, -1.39616745091366678544e-01) (10, -1.37273684911618265581e+00) (11, 4.76131850442153936598e+00) (12, -2.12683623433396595814e+00) (13, 3.55306633712736130715e-01) (14, 2.90927695102699522545e-02) (0, -1.95031405434986071512e+00) (1, 9.10504510071450168240e-01) (2, 2.45016142852068607993e+00) (3, 1.61840071827701015295e+00) (4, 7.78034888054411455371e-01) (5, -6.96838050158980260029e-01) (6, 3.62304451685894549073e-02) (7, -2.53775925061428164753e+00) (8, 1.96699186136799197833e+00) (9, -8.69430500189350974338e-01) (10, 1.14342980712823272249e+00) (11, -3.41323077292084997580e+00) (12, 3.35138544441259833562e+00) (13, 8.55792000321605850210e-01) (14, -1.22638119676892265453e+00) (0, -1.46330636039300632234e-01) (1, -3.59622362160747111037e-01) (2, -4.51616775927399904944e-01) (3, 3.05271440362018288417e-02) (4, -2.73211804465395169395e-01) (5, -3.84557536962533419445e-01) (6, -1.03366706544370801080e-01) (7, 4.20154226000848174394e-01) (8, 3.39097391662217861885e-01) (9, -4.65198247594186750642e-02) (10, 5.34049326715347927319e+00) (11, 2.56007273225879972145e+00) (12, 3.58344838387747721686e-01) (13, -6.21807216045477395561e-01) (14, -8.75022177049051830267e-01) (0, 2.47585766795345652014e+00) (1, 2.45785975299612546863e+00) (2, 2.80531154572839058758e+00) (3, 1.89045814785279819858e+00) (4, 1.97770702326964853413e+00) (5, 2.11940001905052355369e+00) (6, 2.43627003864018965018e+00) (7, 4.84887791824752181769e-02) (8, 1.35021037756985706757e-01) (9, 1.50468848726074161393e-01) (10, -8.82671950562260398954e+00) (11, -2.99534913552933979020e+00) (12, -5.25272065555084100019e-01) (13, 1.49855254182995167866e+00) (14, 2.31223068756070848639e-01) (0, 2.86403011055786638206e-01) (1, -2.15670838096424372088e-02) (2, -2.65323089876032480738e-01) (3, 2.02673619692046980134e+00) (4, 2.32072159428890367749e+00) (5, -1.82770766202614537432e-01) (6, 6.34181570686993767438e-01) (7, -1.18702196882904753572e+00) (8, 8.59245468970086356819e-01) (9, -2.15800587615319783286e-01) (10, -3.35952794536263077418e+00) (11, -1.82276618875898410721e+00) (12, 3.74980536309145573437e-01) (13, 6.90166720847403714068e-01) (14, -1.42575011606959332379e-03) (15, -6.63339717206255785609e-02) (16, -2.09552967863588270048e-02) (17, -1.70181532123092088549e-01) (18, -1.53976818424936756635e+00) (19, -8.38778578323007173445e-01) (20, -1.00888386901840920729e+00) (21, 4.51046922708008946046e+00) (22, -2.80421004410763119452e+00) (23, 3.61009213748327173477e-01) (24, 1.05720257363688924235e-01) (25, 3.57489544990893826082e+00) (26, 1.37558476628349213300e+00) (27, 4.56524961729884715123e-01) (28, 4.79372423967648408905e+00) (29, -1.33809957663461220889e+00) (30, -1.14228996951409578209e+00) (31, 1.87760098390561913639e+00) (32, 1.38099800823595808552e+00) (33, -1.12786252007839338241e+00) (34, 5.74468782281434053871e-01) (35, -3.63455196790756929204e+00) (36, -1.27029259070932154518e-01) (15, -3.89173693569040912710e-01) (16, 9.57960202502137092573e-01) (17, 1.24121319381140637894e+00) (18, -6.64661447613514200228e-01) (19, 4.58445921722142768484e-01) (20, 7.81954556757686436441e-01) (21, -1.48348981436355664698e-01) (22, -3.71741334067590578627e-01) (23, -3.01978584726911136737e-01) (24, 2.28917636520851397464e+00) (25, 3.73337434980324123224e-01) (26, 8.00273838334497722435e-01) (27, 3.08263308562360838216e-01) (28, -4.87612337984508370514e-01) (29, 7.69296294549126902229e-02) (30, -6.41475920859358672566e-01) (31, 4.10030910129525250074e-01) (32, 1.52763341533499774627e+00) (33, 3.04004239567512790643e+00) (34, -6.47361939022758203777e+00) (35, -1.32384349835674930418e+00) (36, -1.20981999978118204275e+00) (15, -4.99638314365094160507e+00) (16, 3.28461685544330883602e+00) (17, -3.40862833582699575885e+00) (18, 4.75873534145555510122e+00) (19, 1.59584623591311003388e+00) (20, 2.51354943523743101785e-01) (21, -3.95627363234180351448e-01) (22, -3.56868529577255511054e-01) (23, -3.98011601153797034414e+00) (24, 3.19869693130128363023e-01) (25, 5.21063383226432641493e-01) (26, 5.95429547545814563669e-01) (27, -1.78824712685165021497e+00) (28, -8.69566743047490819940e-01) (29, 2.23635649986818663137e+00) (30, 3.73052075664350502038e+00) (31, 7.03954287706083387671e-03) (32, -3.08680672498073960242e-01) (33, -8.27388960843145326862e+00) (34, 1.22757818786823644785e+01) (35, 6.68904625073627689957e-01) (36, -7.58447161405926689737e-02) 
