<?xml version="1.0"?>
<!-- DTD for the XMLBIF 0.3 format -->
<!DOCTYPE BIF [
	<!ELEMENT BIF ( NETWORK )*>
	      <!ATTLIST BIF VERSION CDATA #REQUIRED>
	<!ELEMENT NETWORK ( NAME, ( PROPERTY | VARIABLE | DEFINITION )* )>
	<!ELEMENT NAME (#PCDATA)>
	<!ELEMENT VARIABLE ( NAME, ( OUTCOME |  PROPERTY )* ) >
	      <!ATTLIST VARIABLE TYPE (nature|decision|utility) "nature">
	<!ELEMENT OUTCOME (#PCDATA)>
	<!ELEMENT DEFINITION ( FOR | GIVEN | TABLE | PROPERTY )* >
	<!ELEMENT FOR (#PCDATA)>
	<!ELEMENT GIVEN (#PCDATA)>
	<!ELEMENT TABLE (#PCDATA)>
	<!ELEMENT PROPERTY (#PCDATA)>
]>


<BIF VERSION="0.3">
<NETWORK>
<NAME>RandomNet</NAME>
<VARIABLE TYPE="nature">
<NAME>Node1</NAME>
<OUTCOME>Value1</OUTCOME>
<OUTCOME>Value2</OUTCOME>
<PROPERTY>position = (180,0)</PROPERTY>
</VARIABLE>
<VARIABLE TYPE="nature">
<NAME>Node2</NAME>
<OUTCOME>Value1</OUTCOME>
<OUTCOME>Value2</OUTCOME>
<PROPERTY>position = (120,90)</PROPERTY>
</VARIABLE>
<VARIABLE TYPE="nature">
<NAME>Node3</NAME>
<OUTCOME>Value1</OUTCOME>
<OUTCOME>Value2</OUTCOME>
<PROPERTY>position = (240,180)</PROPERTY>
</VARIABLE>
<VARIABLE TYPE="nature">
<NAME>Node4</NAME>
<OUTCOME>Value1</OUTCOME>
<OUTCOME>Value2</OUTCOME>
<PROPERTY>position = (300,270)</PROPERTY>
</VARIABLE>
<VARIABLE TYPE="nature">
<NAME>Node5</NAME>
<OUTCOME>Value1</OUTCOME>
<OUTCOME>Value2</OUTCOME>
<PROPERTY>position = (120,180)</PROPERTY>
</VARIABLE>
<VARIABLE TYPE="nature">
<NAME>Node6</NAME>
<OUTCOME>Value1</OUTCOME>
<OUTCOME>Value2</OUTCOME>
<PROPERTY>position = (180,180)</PROPERTY>
</VARIABLE>
<VARIABLE TYPE="nature">
<NAME>Node7</NAME>
<OUTCOME>Value1</OUTCOME>
<OUTCOME>Value2</OUTCOME>
<PROPERTY>position = (60,270)</PROPERTY>
</VARIABLE>
<VARIABLE TYPE="nature">
<NAME>Node8</NAME>
<OUTCOME>Value1</OUTCOME>
<OUTCOME>Value2</OUTCOME>
<PROPERTY>position = (180,270)</PROPERTY>
</VARIABLE>
<VARIABLE TYPE="nature">
<NAME>Node9</NAME>
<OUTCOME>Value1</OUTCOME>
<OUTCOME>Value2</OUTCOME>
<PROPERTY>position = (180,360)</PROPERTY>
</VARIABLE>
<VARIABLE TYPE="nature">
<NAME>Node10</NAME>
<OUTCOME>Value1</OUTCOME>
<OUTCOME>Value2</OUTCOME>
<PROPERTY>position = (300,360)</PROPERTY>
</VARIABLE>
<DEFINITION>
<FOR>Node1</FOR>
<TABLE>
0.45204795204795206 0.547952047952048 
</TABLE>
</DEFINITION>
<DEFINITION>
<FOR>Node2</FOR>
<GIVEN>Node1</GIVEN>
<TABLE>
0.37512487512487513 0.6248751248751249 
0.15334665334665334 0.8466533466533467 
</TABLE>
</DEFINITION>
<DEFINITION>
<FOR>Node3</FOR>
<GIVEN>Node1</GIVEN>
<GIVEN>Node2</GIVEN>
<TABLE>
0.8336663336663337 0.16633366633366634 
0.534965034965035 0.46503496503496505 
0.1863136863136863 0.8136863136863137 
0.7477522477522478 0.25224775224775225 
</TABLE>
</DEFINITION>
<DEFINITION>
<FOR>Node4</FOR>
<GIVEN>Node3</GIVEN>
<GIVEN>Node1</GIVEN>
<TABLE>
0.8416583416583416 0.15834165834165834 
0.6428571428571429 0.35714285714285715 
0.9495504495504495 0.05044955044955045 
0.014485514485514486 0.9855144855144855 
</TABLE>
</DEFINITION>
<DEFINITION>
<FOR>Node5</FOR>
<GIVEN>Node2</GIVEN>
<TABLE>
0.23626373626373626 0.7637362637362637 
0.44305694305694304 0.5569430569430569 
</TABLE>
</DEFINITION>
<DEFINITION>
<FOR>Node6</FOR>
<GIVEN>Node2</GIVEN>
<TABLE>
0.8496503496503497 0.15034965034965034 
0.7677322677322678 0.23226773226773226 
</TABLE>
</DEFINITION>
<DEFINITION>
<FOR>Node7</FOR>
<GIVEN>Node1</GIVEN>
<GIVEN>Node5</GIVEN>
<TABLE>
0.8896103896103896 0.11038961038961038 
0.7057942057942058 0.2942057942057942 
0.3141858141858142 0.6858141858141859 
0.5499500499500499 0.4500499500499501 
</TABLE>
</DEFINITION>
<DEFINITION>
<FOR>Node8</FOR>
<GIVEN>Node6</GIVEN>
<GIVEN>Node3</GIVEN>
<TABLE>
0.5539460539460539 0.44605394605394605 
0.33316683316683315 0.6668331668331668 
0.8206793206793207 0.17932067932067933 
0.17232767232767232 0.8276723276723277 
</TABLE>
</DEFINITION>
<DEFINITION>
<FOR>Node9</FOR>
<GIVEN>Node2</GIVEN>
<GIVEN>Node4</GIVEN>
<GIVEN>Node3</GIVEN>
<TABLE>
0.1983016983016983 0.8016983016983017 
0.05144855144855145 0.9485514485514486 
0.11738261738261738 0.8826173826173827 
0.33916083916083917 0.6608391608391608 
0.8426573426573427 0.15734265734265734 
0.7287712287712288 0.2712287712287712 
0.7997002997002997 0.2002997002997003 
0.3971028971028971 0.6028971028971029 
</TABLE>
</DEFINITION>
<DEFINITION>
<FOR>Node10</FOR>
<GIVEN>Node4</GIVEN>
<TABLE>
0.7977022977022977 0.2022977022977023 
0.5179820179820179 0.482017982017982 
</TABLE>
</DEFINITION>
</NETWORK>
</BIF>
