FANN_FLO_2.1
num_layers=3
learning_rate=0.700000
connection_rate=0.700000
network_type=0
learning_momentum=0.000000
training_algorithm=2
train_error_function=1
train_stop_function=0
cascade_output_change_fraction=0.010000
quickprop_decay=-0.000100
quickprop_mu=1.750000
rprop_increase_factor=1.200000
rprop_decrease_factor=0.500000
rprop_delta_min=0.000000
rprop_delta_max=50.000000
rprop_delta_zero=0.100000
cascade_output_stagnation_epochs=12
cascade_candidate_change_fraction=0.010000
cascade_candidate_stagnation_epochs=12
cascade_max_out_epochs=150
cascade_max_cand_epochs=150
cascade_num_candidate_groups=2
bit_fail_limit=3.49999994039535522461e-01
cascade_candidate_limit=1.00000000000000000000e+03
cascade_weight_multiplier=4.00000005960464477539e-01
cascade_activation_functions_count=10
cascade_activation_functions=3 5 7 8 10 11 14 15 16 17 
cascade_activation_steepnesses_count=4
cascade_activation_steepnesses=2.50000000000000000000e-01 5.00000000000000000000e-01 7.50000000000000000000e-01 1.00000000000000000000e+00 
layer_sizes=157 103 2 
scale_included=0
neurons (num_inputs, activation_function, activation_steepness)=(0, 0, 0.00000000000000000000e+00) (0, 0, 0.00000000000000000000e+00) (0, 0, 0.00000000000000000000e+00) (0, 0, 0.00000000000000000000e+00) (0, 0, 0.00000000000000000000e+00) (0, 0, 0.00000000000000000000e+00) (0, 0, 0.00000000000000000000e+00) (0, 0, 0.00000000000000000000e+00) (0, 0, 0.00000000000000000000e+00) (0, 0, 0.00000000000000000000e+00) (0, 0, 0.00000000000000000000e+00) (0, 0, 0.00000000000000000000e+00) (0, 0, 0.00000000000000000000e+00) (0, 0, 0.00000000000000000000e+00) (0, 0, 0.00000000000000000000e+00) (0, 0, 0.00000000000000000000e+00) (0, 0, 0.00000000000000000000e+00) (0, 0, 0.00000000000000000000e+00) (0, 0, 0.00000000000000000000e+00) (0, 0, 0.00000000000000000000e+00) (0, 0, 0.00000000000000000000e+00) (0, 0, 0.00000000000000000000e+00) (0, 0, 0.00000000000000000000e+00) (0, 0, 0.00000000000000000000e+00) (0, 0, 0.00000000000000000000e+00) (0, 0, 0.00000000000000000000e+00) (0, 0, 0.00000000000000000000e+00) (0, 0, 0.00000000000000000000e+00) (0, 0, 0.00000000000000000000e+00) (0, 0, 0.00000000000000000000e+00) (0, 0, 0.00000000000000000000e+00) (0, 0, 0.00000000000000000000e+00) (0, 0, 0.00000000000000000000e+00) (0, 0, 0.00000000000000000000e+00) (0, 0, 0.00000000000000000000e+00) (0, 0, 0.00000000000000000000e+00) (0, 0, 0.00000000000000000000e+00) (0, 0, 0.00000000000000000000e+00) (0, 0, 0.00000000000000000000e+00) (0, 0, 0.00000000000000000000e+00) (0, 0, 0.00000000000000000000e+00) (0, 0, 0.00000000000000000000e+00) (0, 0, 0.00000000000000000000e+00) (0, 0, 0.00000000000000000000e+00) (0, 0, 0.00000000000000000000e+00) (0, 0, 0.00000000000000000000e+00) (0, 0, 0.00000000000000000000e+00) (0, 0, 0.00000000000000000000e+00) (0, 0, 0.00000000000000000000e+00) (0, 0, 0.00000000000000000000e+00) (0, 0, 0.00000000000000000000e+00) (0, 0, 0.00000000000000000000e+00) (0, 0, 0.00000000000000000000e+00) (0, 0, 0.00000000000000000000e+00) (0, 0, 0.00000000000000000000e+00) (0, 0, 0.00000000000000000000e+00) (0, 0, 0.00000000000000000000e+00) (0, 0, 0.00000000000000000000e+00) (0, 0, 0.00000000000000000000e+00) (0, 0, 0.00000000000000000000e+00) (0, 0, 0.00000000000000000000e+00) (0, 0, 0.00000000000000000000e+00) (0, 0, 0.00000000000000000000e+00) (0, 0, 0.00000000000000000000e+00) (0, 0, 0.00000000000000000000e+00) (0, 0, 0.00000000000000000000e+00) (0, 0, 0.00000000000000000000e+00) (0, 0, 0.00000000000000000000e+00) (0, 0, 0.00000000000000000000e+00) (0, 0, 0.00000000000000000000e+00) (0, 0, 0.00000000000000000000e+00) (0, 0, 0.00000000000000000000e+00) (0, 0, 0.00000000000000000000e+00) (0, 0, 0.00000000000000000000e+00) (0, 0, 0.00000000000000000000e+00) (0, 0, 0.00000000000000000000e+00) (0, 0, 0.00000000000000000000e+00) (0, 0, 0.00000000000000000000e+00) (0, 0, 0.00000000000000000000e+00) (0, 0, 0.00000000000000000000e+00) (0, 0, 0.00000000000000000000e+00) (0, 0, 0.00000000000000000000e+00) (0, 0, 0.00000000000000000000e+00) (0, 0, 0.00000000000000000000e+00) (0, 0, 0.00000000000000000000e+00) (0, 0, 0.00000000000000000000e+00) (0, 0, 0.00000000000000000000e+00) (0, 0, 0.00000000000000000000e+00) (0, 0, 0.00000000000000000000e+00) (0, 0, 0.00000000000000000000e+00) (0, 0, 0.00000000000000000000e+00) (0, 0, 0.00000000000000000000e+00) (0, 0, 0.00000000000000000000e+00) (0, 0, 0.00000000000000000000e+00) (0, 0, 0.00000000000000000000e+00) (0, 0, 0.00000000000000000000e+00) (0, 0, 0.00000000000000000000e+00) (0, 0, 0.00000000000000000000e+00) (0, 0, 0.00000000000000000000e+00) (0, 0, 0.00000000000000000000e+00) (0, 0, 0.00000000000000000000e+00) (0, 0, 0.00000000000000000000e+00) (0, 0, 0.00000000000000000000e+00) (0, 0, 0.00000000000000000000e+00) (0, 0, 0.00000000000000000000e+00) (0, 0, 0.00000000000000000000e+00) (0, 0, 0.00000000000000000000e+00) (0, 0, 0.00000000000000000000e+00) (0, 0, 0.00000000000000000000e+00) (0, 0, 0.00000000000000000000e+00) (0, 0, 0.00000000000000000000e+00) (0, 0, 0.00000000000000000000e+00) (0, 0, 0.00000000000000000000e+00) (0, 0, 0.00000000000000000000e+00) (0, 0, 0.00000000000000000000e+00) (0, 0, 0.00000000000000000000e+00) (0, 0, 0.00000000000000000000e+00) (0, 0, 0.00000000000000000000e+00) (0, 0, 0.00000000000000000000e+00) (0, 0, 0.00000000000000000000e+00) (0, 0, 0.00000000000000000000e+00) (0, 0, 0.00000000000000000000e+00) (0, 0, 0.00000000000000000000e+00) (0, 0, 0.00000000000000000000e+00) (0, 0, 0.00000000000000000000e+00) (0, 0, 0.00000000000000000000e+00) (0, 0, 0.00000000000000000000e+00) (0, 0, 0.00000000000000000000e+00) (0, 0, 0.00000000000000000000e+00) (0, 0, 0.00000000000000000000e+00) (0, 0, 0.00000000000000000000e+00) (0, 0, 0.00000000000000000000e+00) (0, 0, 0.00000000000000000000e+00) (0, 0, 0.00000000000000000000e+00) (0, 0, 0.00000000000000000000e+00) (0, 0, 0.00000000000000000000e+00) (0, 0, 0.00000000000000000000e+00) (0, 0, 0.00000000000000000000e+00) (0, 0, 0.00000000000000000000e+00) (0, 0, 0.00000000000000000000e+00) (0, 0, 0.00000000000000000000e+00) (0, 0, 0.00000000000000000000e+00) (0, 0, 0.00000000000000000000e+00) (0, 0, 0.00000000000000000000e+00) (0, 0, 0.00000000000000000000e+00) (0, 0, 0.00000000000000000000e+00) (0, 0, 0.00000000000000000000e+00) (0, 0, 0.00000000000000000000e+00) (0, 0, 0.00000000000000000000e+00) (0, 0, 0.00000000000000000000e+00) (0, 0, 0.00000000000000000000e+00) (0, 0, 0.00000000000000000000e+00) (0, 0, 0.00000000000000000000e+00) (0, 0, 0.00000000000000000000e+00) (0, 0, 0.00000000000000000000e+00) (0, 0, 0.00000000000000000000e+00) (0, 0, 0.00000000000000000000e+00) (110, 4, 5.00000000000000000000e-01) (110, 4, 5.00000000000000000000e-01) (110, 4, 5.00000000000000000000e-01) (110, 4, 5.00000000000000000000e-01) (110, 4, 5.00000000000000000000e-01) (111, 4, 5.00000000000000000000e-01) (110, 4, 5.00000000000000000000e-01) (110, 4, 5.00000000000000000000e-01) (110, 4, 5.00000000000000000000e-01) (110, 4, 5.00000000000000000000e-01) (111, 4, 5.00000000000000000000e-01) (110, 4, 5.00000000000000000000e-01) (110, 4, 5.00000000000000000000e-01) (110, 4, 5.00000000000000000000e-01) (110, 4, 5.00000000000000000000e-01) (111, 4, 5.00000000000000000000e-01) (110, 4, 5.00000000000000000000e-01) (110, 4, 5.00000000000000000000e-01) (110, 4, 5.00000000000000000000e-01) (110, 4, 5.00000000000000000000e-01) (111, 4, 5.00000000000000000000e-01) (110, 4, 5.00000000000000000000e-01) (110, 4, 5.00000000000000000000e-01) (110, 4, 5.00000000000000000000e-01) (110, 4, 5.00000000000000000000e-01) (111, 4, 5.00000000000000000000e-01) (110, 4, 5.00000000000000000000e-01) (110, 4, 5.00000000000000000000e-01) (110, 4, 5.00000000000000000000e-01) (110, 4, 5.00000000000000000000e-01) (111, 4, 5.00000000000000000000e-01) (110, 4, 5.00000000000000000000e-01) (110, 4, 5.00000000000000000000e-01) (110, 4, 5.00000000000000000000e-01) (110, 4, 5.00000000000000000000e-01) (111, 4, 5.00000000000000000000e-01) (110, 4, 5.00000000000000000000e-01) (110, 4, 5.00000000000000000000e-01) (110, 4, 5.00000000000000000000e-01) (110, 4, 5.00000000000000000000e-01) (111, 4, 5.00000000000000000000e-01) (110, 4, 5.00000000000000000000e-01) (110, 4, 5.00000000000000000000e-01) (110, 4, 5.00000000000000000000e-01) (110, 4, 5.00000000000000000000e-01) (111, 4, 5.00000000000000000000e-01) (110, 4, 5.00000000000000000000e-01) (110, 4, 5.00000000000000000000e-01) (110, 4, 5.00000000000000000000e-01) (110, 4, 5.00000000000000000000e-01) (111, 4, 5.00000000000000000000e-01) (110, 4, 5.00000000000000000000e-01) (110, 4, 5.00000000000000000000e-01) (110, 4, 5.00000000000000000000e-01) (110, 4, 5.00000000000000000000e-01) (110, 4, 5.00000000000000000000e-01) (111, 4, 5.00000000000000000000e-01) (110, 4, 5.00000000000000000000e-01) (110, 4, 5.00000000000000000000e-01) (110, 4, 5.00000000000000000000e-01) (110, 4, 5.00000000000000000000e-01) (111, 4, 5.00000000000000000000e-01) (110, 4, 5.00000000000000000000e-01) (110, 4, 5.00000000000000000000e-01) (110, 4, 5.00000000000000000000e-01) (110, 4, 5.00000000000000000000e-01) (111, 4, 5.00000000000000000000e-01) (110, 4, 5.00000000000000000000e-01) (110, 4, 5.00000000000000000000e-01) (110, 4, 5.00000000000000000000e-01) (110, 4, 5.00000000000000000000e-01) (111, 4, 5.00000000000000000000e-01) (110, 4, 5.00000000000000000000e-01) (110, 4, 5.00000000000000000000e-01) (110, 4, 5.00000000000000000000e-01) (110, 4, 5.00000000000000000000e-01) (111, 4, 5.00000000000000000000e-01) (110, 4, 5.00000000000000000000e-01) (110, 4, 5.00000000000000000000e-01) (110, 4, 5.00000000000000000000e-01) (110, 4, 5.00000000000000000000e-01) (111, 4, 5.00000000000000000000e-01) (110, 4, 5.00000000000000000000e-01) (110, 4, 5.00000000000000000000e-01) (110, 4, 5.00000000000000000000e-01) (110, 4, 5.00000000000000000000e-01) (111, 4, 5.00000000000000000000e-01) (110, 4, 5.00000000000000000000e-01) (110, 4, 5.00000000000000000000e-01) (110, 4, 5.00000000000000000000e-01) (110, 4, 5.00000000000000000000e-01) (111, 4, 5.00000000000000000000e-01) (110, 4, 5.00000000000000000000e-01) (110, 4, 5.00000000000000000000e-01) (110, 4, 5.00000000000000000000e-01) (110, 4, 5.00000000000000000000e-01) (111, 4, 5.00000000000000000000e-01) (110, 4, 5.00000000000000000000e-01) (110, 4, 5.00000000000000000000e-01) (110, 4, 5.00000000000000000000e-01) (110, 4, 5.00000000000000000000e-01) (111, 4, 5.00000000000000000000e-01) (0, 0, 0.00000000000000000000e+00) (103, 4, 5.00000000000000000000e-01) (0, 0, 0.00000000000000000000e+00) 
connections (connected_to_neuron, weight)=(156, -2.01162844896316528320e-01) (34, -1.05567614746093750000e+03) (110, 1.48730383300781250000e+03) (74, 4.07589965820312500000e+02) (140, 7.22505509853363037109e-01) (85, -4.60001922607421875000e+02) (130, 4.59194824218750000000e+02) (61, -1.17508447265625000000e+03) (146, 1.47590673828125000000e+03) (143, 1.70957870483398437500e+02) (62, 1.41719262695312500000e+03) (112, 5.08475341796875000000e+01) (103, 1.49937170410156250000e+03) (70, 1.48133813476562500000e+03) (64, -1.58150939941406250000e+02) (95, 1.21310351562500000000e+03) (139, 1.13712322711944580078e+00) (81, -1.30682556152343750000e+02) (43, 8.68648132324218750000e+02) (28, -7.84393798828125000000e+02) (20, -1.19627380371093750000e+03) (50, 1.49997436523437500000e+03) (80, -6.45356018066406250000e+02) (47, 1.48801037597656250000e+03) (122, 1.48520751953125000000e+03) (56, -4.11676971435546875000e+02) (109, 1.49999987792968750000e+03) (150, 7.80974149703979492188e-01) (3, -1.02070288085937500000e+03) (106, -1.46923803710937500000e+03) (73, -1.49189562988281250000e+03) (59, 1.45230163574218750000e+03) (129, 1.47851782226562500000e+03) (10, -1.17347326660156250000e+03) (11, 9.32282653808593750000e+02) (39, -6.99080505371093750000e+02) (126, 1.49999719238281250000e+03) (88, 1.49951770019531250000e+03) (86, 1.50000000000000000000e+03) (41, 1.43973974609375000000e+03) (42, -1.47090295410156250000e+03) (113, -1.43479602050781250000e+03) (40, 1.48068127441406250000e+03) (94, 1.46066076660156250000e+03) (127, -6.28013671875000000000e+02) (55, -1.40778662109375000000e+03) (65, -1.05730578613281250000e+03) (138, 5.64348638057708740234e-01) (124, -1.49613562011718750000e+03) (108, -1.42255834960937500000e+03) (78, 1.49807836914062500000e+03) (29, -1.77894012451171875000e+02) (7, -1.09353894042968750000e+03) (63, -1.49999621582031250000e+03) (97, 6.32688476562500000000e+02) (137, 1.29462349414825439453e+00) (23, -4.70973114013671875000e+02) (21, 1.44160473632812500000e+03) (148, 5.16663789749145507812e-01) (155, 1.50000000000000000000e+03) (104, -1.49893457031250000000e+03) (151, 8.72479796409606933594e-01) (142, 1.49999951171875000000e+03) (135, 7.88897460937500000000e+02) (144, 1.49886975097656250000e+03) (131, 1.06689826965332031250e+02) (93, 1.49046008300781250000e+03) (123, 6.74243713378906250000e+02) (90, -4.82024871826171875000e+02) (12, 1.39764416503906250000e+03) (96, -1.02545312500000000000e+03) (141, 6.11993253231048583984e-01) (147, 1.08855426311492919922e+00) (79, 1.26340832519531250000e+03) (75, -4.53660095214843750000e+02) (82, 1.66146347045898437500e+02) (58, 1.49998571777343750000e+03) (154, 1.50000000000000000000e+03) (9, -1.14893981933593750000e+03) (68, -8.78923217773437500000e+02) (1, 1.23738293457031250000e+03) (53, -9.24995422363281250000e+02) (87, 2.61902038574218750000e+02) (83, 4.71476409912109375000e+02) (19, 1.47336779785156250000e+03) (100, 4.94301910400390625000e+02) (26, 1.11221020507812500000e+03) (27, 1.28051660156250000000e+03) (101, -1.04917517089843750000e+03) (102, -6.82734252929687500000e+02) (15, -1.49273937988281250000e+03) (18, -1.47722570800781250000e+03) (145, -1.50000000000000000000e+03) (45, 3.95418121337890625000e+02) (66, 4.38972473144531250000e+02) (84, 1.49886242675781250000e+03) (30, -1.01394189453125000000e+03) (57, 7.65703308105468750000e+02) (0, 4.57200889587402343750e+01) (133, 8.60383377075195312500e+01) (99, 1.37762475585937500000e+03) (92, -1.47382299804687500000e+03) (115, -1.19632092285156250000e+03) (8, 1.49904028320312500000e+03) (48, -8.67255371093750000000e+02) (17, -1.38271557617187500000e+03) (118, 1.35536889648437500000e+03) (120, 1.08425976562500000000e+03) (14, 2.54893432617187500000e+02) (136, -1.43131994628906250000e+03) (156, 1.21976875305175781250e+02) (71, -1.29512304687500000000e+03) (42, 1.49683813476562500000e+03) (135, -1.49987817382812500000e+03) (116, -6.03928794860839843750e+01) (89, -1.49674499511718750000e+03) (3, -1.33344519042968750000e+03) (4, 1.47797570800781250000e+03) (123, 1.23255699157714843750e+02) (63, 1.50000000000000000000e+03) (115, -2.64423950195312500000e+02) (70, -9.93951354980468750000e+02) (41, -5.50040588378906250000e+02) (103, -1.49980664062500000000e+03) (101, 9.48888549804687500000e+02) (152, 1.22726409912109375000e+02) (94, 1.01400329589843750000e+03) (78, -9.58602294921875000000e+02) (151, 1.22696937561035156250e+02) (111, -1.49655480957031250000e+03) (153, 1.22874938964843750000e+02) (90, 3.56696319580078125000e+02) (56, -1.49991491699218750000e+03) (114, 1.22823425292968750000e+03) (59, -9.51804504394531250000e+02) (147, 1.22957359313964843750e+02) (33, 1.27149401855468750000e+03) (38, 1.49917150878906250000e+03) (9, 1.09783447265625000000e+03) (45, -2.76678619384765625000e+02) (1, -1.39445214843750000000e+03) (121, 8.31553283691406250000e+02) (72, 5.50781066894531250000e+02) (113, 1.44900769042968750000e+03) (29, 9.20055419921875000000e+02) (19, -1.44688635253906250000e+03) (104, 1.49992883300781250000e+03) (99, -1.49999291992187500000e+03) (150, 1.22191947937011718750e+02) (61, 7.22722106933593750000e+02) (108, -2.09856430053710937500e+02) (32, 1.40890783691406250000e+03) (143, 1.50000000000000000000e+03) (53, 1.50000000000000000000e+03) (86, -1.49272888183593750000e+03) (54, 1.81378067016601562500e+02) (124, 1.49591467285156250000e+03) (47, -1.47705798339843750000e+03) (50, -1.49924536132812500000e+03) (69, 1.49996533203125000000e+03) (35, 1.49784973144531250000e+03) (154, 1.50000000000000000000e+03) (122, 9.18253417968750000000e+02) (91, 1.48904528808593750000e+03) (126, -1.38777258300781250000e+03) (127, 1.48669384765625000000e+03) (97, -3.42641220092773437500e+01) (144, -1.41605847167968750000e+03) (10, 3.97229614257812500000e+01) (75, 1.29591162109375000000e+03) (83, 3.39137573242187500000e+02) (60, 5.53634704589843750000e+02) (49, 1.14597204589843750000e+03) (17, 1.49094042968750000000e+03) (88, -1.20847387695312500000e+03) (77, 1.49968518066406250000e+03) (31, 1.49812109375000000000e+03) (85, 8.47714904785156250000e+02) (146, 1.48589758300781250000e+03) (24, 9.49418090820312500000e+02) (16, 5.30407104492187500000e+02) (28, 7.69874877929687500000e+02) (46, 1.41311743164062500000e+03) (55, -2.77397552490234375000e+02) (100, -6.05255310058593750000e+02) (76, 8.40095458984375000000e+02) (125, 1.34193566894531250000e+03) (117, 6.73609069824218750000e+02) (148, 1.23047424316406250000e+02) (142, -1.49998242187500000000e+03) (149, 1.23022720336914062500e+02) (130, 1.40291833496093750000e+03) (98, -4.98859130859375000000e+02) (106, 1.48041772460937500000e+03) (51, -5.47868164062500000000e+02) (145, 1.50000000000000000000e+03) (140, 1.22982582092285156250e+02) (107, 1.24378532409667968750e+02) (44, 3.72729278564453125000e+02) (119, 8.27770233154296875000e+01) (95, -8.65638610839843750000e+02) (39, 1.38001965332031250000e+03) (34, 1.50000000000000000000e+03) (118, -7.86399658203125000000e+02) (57, 1.49175305175781250000e+03) (40, -1.47942089843750000000e+03) (36, 6.43587280273437500000e+02) (102, 1.23383642578125000000e+03) (73, 1.49424584960937500000e+03) (66, 1.48735290527343750000e+03) (58, -1.49990039062500000000e+03) (48, 1.50000000000000000000e+03) (134, 1.35658715820312500000e+03) (79, 1.19635754394531250000e+03) (136, 1.50000000000000000000e+03) (7, 1.49878442382812500000e+03) (6, -1.30550427246093750000e+03) (68, 1.48174267578125000000e+03) (105, 5.22950439453125000000e+02) (141, 1.22447677612304687500e+02) (156, 4.27924871444702148438e+00) (105, 1.10538366699218750000e+03) (17, -3.33207733154296875000e+02) (14, -6.71035156250000000000e+02) (36, 1.49999987792968750000e+03) (77, -2.07369079589843750000e+02) (137, 4.63994026184082031250e+00) (134, -1.48282946777343750000e+03) (2, 5.62937744140625000000e+02) (31, 1.49861035156250000000e+03) (82, 2.60292243957519531250e+01) (87, 1.52677856445312500000e+02) (33, 1.42099609375000000000e+03) (11, 1.48207885742187500000e+03) (30, 1.35475915527343750000e+03) (43, 1.28079760742187500000e+03) (154, 1.50000000000000000000e+03) (62, -5.20717529296875000000e+02) (23, -1.40616235351562500000e+03) (112, 1.02049554443359375000e+03) (51, -6.73305969238281250000e+01) (46, 1.42550646972656250000e+03) (132, 9.59795989990234375000e+01) (19, -1.37533312988281250000e+03) (151, 4.67330312728881835938e+00) (142, 9.03824340820312500000e+02) (49, -1.43440185546875000000e+03) (39, 1.48299902343750000000e+03) (104, 1.49997998046875000000e+03) (29, -1.45327722167968750000e+03) (72, -1.28391516113281250000e+03) (10, -1.09816101074218750000e+03) (120, -1.41195666503906250000e+03) (124, 1.49989404296875000000e+03) (138, 5.31940078735351562500e+00) (91, 8.38370910644531250000e+02) (75, 1.46975537109375000000e+03) (149, 5.43287515640258789062e+00) (143, -7.34165954589843750000e+02) (96, -1.21046264648437500000e+03) (116, 1.50000000000000000000e+03) (35, -2.21399707794189453125e+01) (139, 5.65155410766601562500e+00) (44, 7.55329406738281250000e+02) (117, 6.78038146972656250000e+02) (22, 7.19181030273437500000e+02) (28, -1.17289868164062500000e+03) (60, 1.48095385742187500000e+03) (153, 5.42308521270751953125e+00) (89, -1.48566601562500000000e+03) (79, -5.25946044921875000000e+02) (121, 1.40643640136718750000e+03) (115, 1.49053332519531250000e+03) (38, -1.43941345214843750000e+02) (95, 1.49992187500000000000e+03) (102, -1.06229431152343750000e+03) (65, -4.79954650878906250000e+02) (66, 1.40469458007812500000e+03) (136, 1.09900976562500000000e+03) (74, -1.31044445800781250000e+03) (4, -5.11500305175781250000e+02) (64, 2.41135223388671875000e+02) (107, 1.06449414062500000000e+03) (76, -9.05763610839843750000e+02) (1, -1.34823864746093750000e+03) (83, -1.49752148437500000000e+03) (119, 1.27528564453125000000e+03) (94, -1.48468859863281250000e+03) (20, 1.13698876953125000000e+03) (133, 1.48725244140625000000e+03) (97, -7.26501342773437500000e+02) (148, 5.46883153915405273438e+00) (88, -6.09317810058593750000e+02) (9, 1.38659875488281250000e+03) (68, 1.49847204589843750000e+03) (42, -1.16464880371093750000e+03) (67, -1.40613012695312500000e+03) (111, -1.49674218750000000000e+03) (86, -1.24115637207031250000e+03) (63, 1.49952270507812500000e+03) (128, 1.26763305664062500000e+03) (55, 5.68688598632812500000e+02) (125, 1.41275549316406250000e+03) (58, -1.49973461914062500000e+03) (52, -1.19259863281250000000e+03) (108, -9.54991821289062500000e+02) (56, 1.26975964355468750000e+03) (110, 4.25174011230468750000e+02) (152, 5.49504899978637695312e+00) (32, 7.76560668945312500000e+02) (130, 1.31706311035156250000e+03) (54, 8.15252563476562500000e+02) (24, 1.21361254882812500000e+03) (81, 1.04384411621093750000e+03) (59, -9.51804504394531250000e+02) (47, -8.75086364746093750000e+02) (155, 1.50000000000000000000e+03) (99, -1.49785644531250000000e+03) (48, 1.41511767578125000000e+03) (114, -6.21173828125000000000e+02) (26, -1.46354040527343750000e+03) (146, -1.11720390319824218750e+01) (8, 1.00703643798828125000e+03) (118, 1.37355114746093750000e+03) (101, -1.41665454101562500000e+03) (78, -1.30805676269531250000e+03) (92, 5.50001525878906250000e+02) (98, -4.60925384521484375000e+02) (113, -2.47605697631835937500e+02) (145, -1.16882629394531250000e+03) (156, 1.21789939880371093750e+02) (114, 1.22823425292968750000e+03) (49, 1.14609997558593750000e+03) (77, 1.34573327636718750000e+03) (37, 1.18139282226562500000e+03) (64, 4.88750732421875000000e+02) (85, 8.47789001464843750000e+02) (58, -1.49990039062500000000e+03) (14, 1.15874438476562500000e+03) (70, -2.88599365234375000000e+02) (101, 9.44556884765625000000e+02) (25, 1.50000000000000000000e+03) (8, -1.48487500000000000000e+03) (111, -1.49655480957031250000e+03) (135, -1.49987817382812500000e+03) (146, 1.48589758300781250000e+03) (66, 1.30766296386718750000e+03) (132, -1.03489770507812500000e+03) (102, 1.02605895996093750000e+03) (80, 1.30677307128906250000e+03) (26, -1.36375378417968750000e+03) (145, 1.50000000000000000000e+03) (122, 9.18248291015625000000e+02) (50, -1.49924536132812500000e+03) (20, 4.81956817626953125000e+02) (72, 7.50631958007812500000e+02) (62, -1.35893676757812500000e+03) (116, 7.35248947143554687500e+01) (79, 1.19633679199218750000e+03) (24, 9.47009033203125000000e+02) (95, -8.65663024902343750000e+02) (56, -1.49991491699218750000e+03) (119, 8.27737274169921875000e+01) (83, 3.38906494140625000000e+02) (131, 1.02640295410156250000e+03) (86, -1.49272888183593750000e+03) (106, 1.48041772460937500000e+03) (92, -6.52880981445312500000e+02) (125, 1.34193566894531250000e+03) (98, -3.59939788818359375000e+02) (127, 1.48669384765625000000e+03) (27, -1.78613357543945312500e+02) (91, 1.48904528808593750000e+03) (88, -1.20847436523437500000e+03) (53, 1.50000000000000000000e+03) (73, 1.49424584960937500000e+03) (126, -1.38783068847656250000e+03) (7, 1.49878442382812500000e+03) (21, -7.02456848144531250000e+02) (42, 1.49683813476562500000e+03) (67, 1.15071887207031250000e+03) (130, 1.40291638183593750000e+03) (45, -2.75991424560546875000e+02) (5, 1.49259570312500000000e+03) (31, 1.49812109375000000000e+03) (52, 1.25711718750000000000e+03) (109, -8.22268981933593750000e+02) (6, -1.30541687011718750000e+03) (48, 1.50000000000000000000e+03) (99, -1.49999291992187500000e+03) (30, 1.35501660156250000000e+03) (17, 1.49094042968750000000e+03) (78, -9.58627685546875000000e+02) (120, -4.62575073242187500000e+01) (115, -2.58756378173828125000e+02) (4, 1.47797521972656250000e+03) (47, -1.47705798339843750000e+03) (71, -5.42124084472656250000e+02) (155, 1.50000000000000000000e+03) (76, -7.43813476562500000000e+02) (82, -7.94958068847656250000e+02) (75, 1.29574572753906250000e+03) (35, 1.49784973144531250000e+03) (134, 1.28590478515625000000e+03) (140, 1.22316276550292968750e+02) (2, 1.18784667968750000000e+03) (39, 1.38001965332031250000e+03) (57, 1.49175305175781250000e+03) (142, -1.49998242187500000000e+03) (11, -3.81393829345703125000e+02) (148, 1.21613143920898437500e+02) (149, 1.21943092346191406250e+02) (28, 7.69793579101562500000e+02) (1, -1.39445214843750000000e+03) (141, 1.21776199340820312500e+02) (107, 1.24371940612792968750e+02) (81, 1.01775170898437500000e+03) (44, 3.58184997558593750000e+02) (147, 1.22142280578613281250e+02) (36, 8.45941040039062500000e+02) (138, 1.22514663696289062500e+02) (23, 6.91331405639648437500e+01) (40, -1.47942089843750000000e+03) (69, 1.49996533203125000000e+03) (55, -2.77397552490234375000e+02) (43, -1.30056005859375000000e+03) (104, 1.49992883300781250000e+03) (151, 1.22013809204101562500e+02) (96, 1.16338342285156250000e+03) (128, 1.48931408691406250000e+03) (33, 1.27149401855468750000e+03) (136, 1.50000000000000000000e+03) (108, -1.10170141601562500000e+03) (46, 1.41044946289062500000e+03) (15, -5.95799682617187500000e+02) (32, 1.24712475585937500000e+03) (68, 1.48174267578125000000e+03) (65, 1.50000000000000000000e+03) (93, -1.40531591796875000000e+03) (18, 1.49999768066406250000e+03) (156, 1.21706642150878906250e+02) (13, 8.73783386230468750000e+02) (141, 1.22573944091796875000e+02) (72, 7.50629272460937500000e+02) (19, -1.44688659667968750000e+03) (91, 1.48904528808593750000e+03) (40, -1.47942089843750000000e+03) (78, -9.58625244140625000000e+02) (41, -2.32670078277587890625e+01) (42, 1.49683813476562500000e+03) (79, 1.19633679199218750000e+03) (48, 1.50000000000000000000e+03) (10, 4.53101272583007812500e+01) (39, 1.38001965332031250000e+03) (139, 1.22703712463378906250e+02) (127, 1.48669384765625000000e+03) (4, 1.47797521972656250000e+03) (30, 1.35501660156250000000e+03) (144, -1.41605895996093750000e+03) (108, -1.10170068359375000000e+03) (123, 1.17734901428222656250e+02) (60, 5.53634704589843750000e+02) (140, 1.23115020751953125000e+02) (117, -9.01207214355468750000e+02) (152, 1.22745246887207031250e+02) (131, 1.02640222167968750000e+03) (24, 9.47009155273437500000e+02) (49, 1.14610314941406250000e+03) (84, -1.25878759765625000000e+03) (146, 1.48589758300781250000e+03) (23, 6.91331405639648437500e+01) (46, 1.41043322753906250000e+03) (34, 1.50000000000000000000e+03) (93, -1.40533789062500000000e+03) (138, 1.23067291259765625000e+02) (85, 8.47788513183593750000e+02) (149, 1.22927528381347656250e+02) (96, 1.16337915039062500000e+03) (3, -1.33344531250000000000e+03) (148, 1.22482696533203125000e+02) (29, 1.03324853515625000000e+03) (145, 1.50000000000000000000e+03) (56, -1.49991491699218750000e+03) (130, 1.40291638183593750000e+03) (115, -2.58741851806640625000e+02) (53, 1.50000000000000000000e+03) (99, -1.49999291992187500000e+03) (83, 3.38906524658203125000e+02) (12, -8.04716247558593750000e+02) (121, 8.56620788574218750000e+02) (88, -1.20847436523437500000e+03) (75, 1.29574511718750000000e+03) (69, 1.49996533203125000000e+03) (74, -1.43918420410156250000e+03) (47, -1.47705798339843750000e+03) (22, 6.84456481933593750000e+02) (25, 1.50000000000000000000e+03) (0, 2.02108688354492187500e+02) (66, 1.30771020507812500000e+03) (150, 1.22170578002929687500e+02) (8, -1.48487500000000000000e+03) (104, 1.49992883300781250000e+03) (35, 1.49784973144531250000e+03) (33, 1.27149438476562500000e+03) (80, 1.30720983886718750000e+03) (82, -7.94958068847656250000e+02) (32, 1.24712475585937500000e+03) (107, 7.18595352172851562500e+01) (51, -5.47875976562500000000e+02) (70, -2.88600769042968750000e+02) (31, 1.49812109375000000000e+03) (18, 1.49999768066406250000e+03) (54, 1.36835098266601562500e+02) (1, -1.39445214843750000000e+03) (113, 1.44900744628906250000e+03) (142, -1.49998242187500000000e+03) (28, 7.69783081054687500000e+02) (26, -1.36375378417968750000e+03) (134, 1.28591931152343750000e+03) (100, -6.05813537597656250000e+02) (105, 9.71946777343750000000e+02) (86, -1.49272888183593750000e+03) (132, -1.03377880859375000000e+03) (136, 1.50000000000000000000e+03) (89, -1.49674499511718750000e+03) (143, 1.47134582519531250000e+03) (125, 1.34193566894531250000e+03) (50, -1.49924536132812500000e+03) (114, 1.22823425292968750000e+03) (68, 1.48174267578125000000e+03) (6, -1.30544934082031250000e+03) (95, -8.65675720214843750000e+02) (27, -1.78613357543945312500e+02) (17, 1.49094042968750000000e+03) (126, -1.38783068847656250000e+03) (122, 9.18511779785156250000e+02) (147, 1.23139732360839843750e+02) (81, 1.01775170898437500000e+03) (55, -2.77397552490234375000e+02) (112, 8.21323669433593750000e+02) (137, 1.22270431518554687500e+02) (44, 3.58204528808593750000e+02) (2, 1.18780029296875000000e+03) (14, 1.15876403808593750000e+03) (63, 1.50000000000000000000e+03) (73, 1.49424584960937500000e+03) (133, 1.48455871582031250000e+03) (62, -1.35893981933593750000e+03) (61, 5.80546325683593750000e+02) (52, 1.25691528320312500000e+03) (156, 3.60486483573913574219e+00) (8, -4.88506317138671875000e+02) (81, -1.26610961914062500000e+03) (92, -1.48065759277343750000e+03) (138, 5.35528516769409179688e+00) (62, 1.49952819824218750000e+03) (88, 1.49515661621093750000e+03) (82, 1.27318518066406250000e+03) (136, -5.38141052246093750000e+02) (36, -4.09766754150390625000e+02) (32, -1.45530114746093750000e+03) (93, 6.84619934082031250000e+02) (45, 1.47556542968750000000e+03) (101, -1.38139599609375000000e+03) (122, 9.01622314453125000000e+02) (144, 1.49152795410156250000e+03) (12, -6.55387634277343750000e+02) (106, 1.47180065917968750000e+03) (67, 1.74866226196289062500e+02) (113, -1.47424438476562500000e+03) (57, 1.39291894531250000000e+03) (139, 4.70422744750976562500e+00) (48, 1.46290600585937500000e+03) (46, 8.94903564453125000000e+01) (110, 1.49455651855468750000e+03) (150, 5.59782266616821289062e+00) (27, 1.49645263671875000000e+03) (66, 6.65514648437500000000e+02) (85, -1.06006726074218750000e+03) (94, -4.63071380615234375000e+02) (118, 1.48821972656250000000e+03) (78, 1.42128234863281250000e+03) (15, 4.44318817138671875000e+02) (3, 1.47704968261718750000e+03) (120, -1.35219421386718750000e+03) (18, -5.01684600830078125000e+02) (80, -1.39208813476562500000e+03) (73, -9.40024291992187500000e+02) (55, 1.49998828125000000000e+03) (44, 1.11909960937500000000e+03) (116, 1.49712707519531250000e+03) (40, -6.64174728393554687500e+01) (6, 9.53727600097656250000e+02) (155, 1.50000000000000000000e+03) (127, -9.39255371093750000000e+01) (72, -1.47554528808593750000e+03) (132, 1.26709289550781250000e+03) (114, 6.45940612792968750000e+02) (145, 2.57755218505859375000e+02) (63, 1.26972021484375000000e+03) (68, -1.34174118041992187500e+02) (153, 5.44066047668457031250e+00) (100, 1.31253405761718750000e+03) (108, -4.86448913574218750000e+02) (31, -1.49627661132812500000e+03) (137, 4.64438438415527343750e+00) (130, 1.43614855957031250000e+03) (115, -1.49926550292968750000e+03) (60, 1.05577001953125000000e+03) (99, -1.37668542480468750000e+03) (135, -1.40352783203125000000e+03) (13, 3.60190765380859375000e+02) (111, -8.61613464355468750000e+01) (39, -3.02687744140625000000e+02) (37, -1.49617077636718750000e+03) (84, 1.49860986328125000000e+03) (49, -1.46021984863281250000e+03) (20, 1.49822509765625000000e+03) (51, -1.49997619628906250000e+03) (148, 5.59763765335083007812e+00) (134, -1.27996081542968750000e+03) (154, 1.50000000000000000000e+03) (10, -1.10538122558593750000e+03) (109, 6.79448913574218750000e+02) (75, 6.07384155273437500000e+02) (90, 1.15244287109375000000e+03) (129, -1.48435778808593750000e+03) (35, -1.14093688964843750000e+03) (7, -1.67968025207519531250e+01) (16, -5.06345458984375000000e+02) (79, 1.09881494140625000000e+03) (21, 1.18842309570312500000e+03) (69, 3.36638366699218750000e+02) (117, 1.20745385742187500000e+03) (22, -1.31975537109375000000e+03) (29, -1.15672229003906250000e+03) (149, 4.58521699905395507812e+00) (59, 1.45233459472656250000e+03) (70, 6.55490173339843750000e+02) (77, -1.49912597656250000000e+03) (105, 1.44769348144531250000e+02) (17, -1.14570202636718750000e+03) (147, 4.98673248291015625000e+00) (71, 1.45862658691406250000e+03) (131, 1.50097869873046875000e+02) (28, -2.97132759094238281250e+01) (143, -1.48773425292968750000e+03) (126, 1.37640380859375000000e+03) (34, 1.40922307968139648438e+01) (123, -5.46303520202636718750e+01) (102, 1.39205578613281250000e+03) (86, -1.13861120605468750000e+03) (2, -1.08653735351562500000e+03) (24, -1.27723522949218750000e+03) (33, 1.41042944335937500000e+03) (9, -1.42159912109375000000e+03) (56, 1.49995751953125000000e+03) (107, -3.78752655029296875000e+02) (133, 8.76599426269531250000e+02) (64, -1.59860992431640625000e+02) (128, -1.93060089111328125000e+02) (156, -2.21761608123779296875e+00) (10, 2.52658752441406250000e+02) (130, -1.07122021484375000000e+03) (51, 1.06711315917968750000e+03) (140, -1.84536564350128173828e+00) (128, -1.41853674316406250000e+03) (24, -1.09332165527343750000e+03) (27, 5.52528320312500000000e+02) (12, 1.23011340332031250000e+03) (54, 1.31957870483398437500e+02) (98, 5.93364318847656250000e+02) (121, 9.41226501464843750000e+02) (68, -3.89555725097656250000e+02) (14, 1.99587142944335937500e+02) (59, 1.45233459472656250000e+03) (38, -1.49789062500000000000e+03) (65, -1.49844299316406250000e+03) (78, 1.49908361816406250000e+03) (91, 1.01337554931640625000e+03) (28, 7.56168579101562500000e+02) (46, -1.38606372070312500000e+03) (139, -1.53924345970153808594e+00) (133, -7.45508239746093750000e+02) (64, 1.49757434082031250000e+03) (41, 2.44438598632812500000e+02) (40, 1.49999987792968750000e+03) (113, -1.33402490234375000000e+03) (17, -1.48602001953125000000e+03) (0, 5.81615722656250000000e+02) (32, -1.14540039062500000000e+03) (135, 1.49999353027343750000e+03) (58, 1.49998986816406250000e+03) (4, -1.27135620117187500000e+03) (74, 6.50330322265625000000e+02) (141, -1.32086610794067382812e+00) (49, -8.70060974121093750000e+02) (122, 1.41707556152343750000e+03) (8, 1.48154455566406250000e+03) (67, -9.09293457031250000000e+02) (31, -1.49646655273437500000e+03) (52, -1.33088024902343750000e+03) (71, 9.13283752441406250000e+02) (48, -1.02497448730468750000e+03) (146, 4.17046936035156250000e+02) (110, 1.48733325195312500000e+03) (120, 1.08427575683593750000e+03) (111, 1.49788281250000000000e+03) (55, 1.49999206542968750000e+03) (29, -7.91227905273437500000e+02) (115, 1.01322540283203125000e+03) (148, -9.70134377479553222656e-01) (114, -3.34897644042968750000e+02) (15, 1.07702319335937500000e+03) (82, 1.04365808105468750000e+03) (6, 1.49890856933593750000e+03) (150, -1.80811452865600585938e+00) (90, 9.74470153808593750000e+02) (76, 1.40284997558593750000e+03) (23, 1.46574707031250000000e+03) (22, -3.97442138671875000000e+02) (57, 8.59354248046875000000e+01) (39, -1.32898986816406250000e+03) (107, 1.24851855468750000000e+03) (79, -4.53407516479492187500e+01) (94, 3.62056823730468750000e+02) (47, 1.48802990722656250000e+03) (92, 1.48564392089843750000e+03) (84, 1.49836511230468750000e+03) (26, 1.43529248046875000000e+03) (118, 1.41102526855468750000e+03) (66, -1.13716027832031250000e+03) (5, -1.48697973632812500000e+03) (81, -7.57978942871093750000e+02) (69, -5.64807861328125000000e+02) (132, 1.49999926757812500000e+03) (154, 1.50000000000000000000e+03) (142, 1.49999987792968750000e+03) (125, -1.23654711914062500000e+03) (62, 1.49508044433593750000e+03) (73, -1.05944799804687500000e+03) (155, 1.50000000000000000000e+03) (151, -1.15451467037200927734e+00) (99, 1.49999987792968750000e+03) (112, 4.03462341308593750000e+02) (7, -1.49733874511718750000e+03) (85, -7.05643798828125000000e+02) (50, 1.49999462890625000000e+03) (25, -1.51565811157226562500e+02) (124, -1.49748413085937500000e+03) (11, 1.49965002441406250000e+03) (126, 1.49982165527343750000e+03) (134, -8.60189086914062500000e+02) (63, -1.49914782714843750000e+03) (19, 1.46258032226562500000e+03) (35, -1.47272265625000000000e+03) (109, 1.49999987792968750000e+03) (117, 1.14879907226562500000e+03) (43, 1.35753982543945312500e+02) (143, -8.86237548828125000000e+02) (33, 1.38314355468750000000e+03) (105, -6.15375671386718750000e+02) (60, -1.29120947265625000000e+03) (56, 1.49997973632812500000e+03) (13, 4.86843414306640625000e+02) (100, 1.41401965332031250000e+03) (87, -1.00644683837890625000e+03) (75, 7.29212036132812500000e+01) (34, -1.49702331542968750000e+03) (102, -6.30747619628906250000e+02) (72, 8.60460266113281250000e+02) (156, 1.22633201599121093750e+02) (25, 1.50000000000000000000e+03) (39, 1.38001965332031250000e+03) (122, 9.18248291015625000000e+02) (126, -1.38783068847656250000e+03) (86, -1.49272888183593750000e+03) (110, -1.47540002441406250000e+03) (132, -1.03147460937500000000e+03) (127, 1.48669384765625000000e+03) (82, -7.94958068847656250000e+02) (144, -1.41605895996093750000e+03) (123, 1.22246955871582031250e+02) (68, 1.48174267578125000000e+03) (14, 1.07116479492187500000e+03) (75, 1.28257629394531250000e+03) (7, 1.49878442382812500000e+03) (149, 1.22825408935546875000e+02) (94, 1.01400329589843750000e+03) (41, -5.50058410644531250000e+02) (62, -1.35893676757812500000e+03) (153, 1.22680541992187500000e+02) (114, 1.22823425292968750000e+03) (21, -7.02456848144531250000e+02) (106, 1.48041772460937500000e+03) (95, -8.65663024902343750000e+02) (121, -3.26441436767578125000e+02) (1, -1.39445214843750000000e+03) (15, -5.95799682617187500000e+02) (100, -6.05253112792968750000e+02) (10, 4.46678390502929687500e+01) (72, 7.50631958007812500000e+02) (64, 4.88750732421875000000e+02) (70, -2.88599365234375000000e+02) (76, -1.18402221679687500000e+03) (74, -1.43918005371093750000e+03) (35, 1.49784973144531250000e+03) (155, 1.50000000000000000000e+03) (119, 8.27737274169921875000e+01) (37, 1.18139282226562500000e+03) (22, 6.84456481933593750000e+02) (48, 1.50000000000000000000e+03) (148, 1.23336395263671875000e+02) (134, 1.28590478515625000000e+03) (73, 1.49424584960937500000e+03) (88, -1.20847436523437500000e+03) (53, 1.50000000000000000000e+03) (5, 1.49259570312500000000e+03) (78, -9.58627685546875000000e+02) (40, -1.47942089843750000000e+03) (3, -1.33344531250000000000e+03) (67, 1.15069921875000000000e+03) (9, 1.09782250976562500000e+03) (129, 3.47080445289611816406e+00) (131, 1.02640295410156250000e+03) (130, 1.40291638183593750000e+03) (51, -5.47884277343750000000e+02) (135, -1.49987817382812500000e+03) (124, 1.49591467285156250000e+03) (143, 1.47135009765625000000e+03) (63, 1.50000000000000000000e+03) (77, 1.34573327636718750000e+03) (38, 1.49917150878906250000e+03) (56, -1.49991491699218750000e+03) (96, 1.10565539550781250000e+03) (8, -1.48487500000000000000e+03) (145, 1.50000000000000000000e+03) (42, 1.49683813476562500000e+03) (128, 1.48931408691406250000e+03) (118, -1.13164147949218750000e+03) (23, 6.91331405639648437500e+01) (18, 1.49999768066406250000e+03) (102, 1.02606237792968750000e+03) (137, 1.22730316162109375000e+02) (85, 8.47789001464843750000e+02) (92, -6.52880981445312500000e+02) (24, 9.47009033203125000000e+02) (32, 1.24712475585937500000e+03) (20, 4.81956817626953125000e+02) (47, -1.47705798339843750000e+03) (101, 9.59738586425781250000e+02) (43, -1.30056005859375000000e+03) (141, 1.23349815368652343750e+02) (104, 1.49992883300781250000e+03) (33, 1.27149401855468750000e+03) (83, 3.38906494140625000000e+02) (13, 8.73462585449218750000e+02) (105, 9.71940917968750000000e+02) (60, 5.53634704589843750000e+02) (58, -1.49990039062500000000e+03) (136, 1.50000000000000000000e+03) (150, 1.23619857788085937500e+02) (133, 1.48455871582031250000e+03) (79, 1.19633679199218750000e+03) (152, 1.23675743103027343750e+02) (154, 1.50000000000000000000e+03) (84, -1.34200610351562500000e+03) (11, -3.81393829345703125000e+02) (71, -5.42124084472656250000e+02) (142, -1.49998242187500000000e+03) (97, 7.38247680664062500000e+00) (87, 1.48891369628906250000e+03) (27, -1.78613357543945312500e+02) (31, 1.49812109375000000000e+03) (69, 1.49996533203125000000e+03) (125, 1.34193566894531250000e+03) (108, -1.10170141601562500000e+03) (4, 1.47797521972656250000e+03) (120, -4.62575073242187500000e+01) (29, 1.03324853515625000000e+03) (17, 1.49094042968750000000e+03) (156, 7.95863914489746093750e+00) (117, 1.41941406250000000000e+02) (112, 6.30784423828125000000e+02) (93, 1.01059301757812500000e+03) (126, 1.49999914550781250000e+03) (10, 1.68021316528320312500e+02) (104, -1.49906140136718750000e+03) (99, 1.49999987792968750000e+03) (129, 6.15640625000000000000e+02) (77, -1.05334667968750000000e+03) (138, 7.88140296936035156250e+00) (150, 8.09604549407958984375e+00) (52, 8.99737731933593750000e+02) (3, 1.38829650878906250000e+03) (18, -1.49890710449218750000e+03) (67, -1.80335449218750000000e+02) (40, 1.49999987792968750000e+03) (14, -3.95434631347656250000e+02) (116, 5.80313476562500000000e+02) (59, 1.45233459472656250000e+03) (50, 1.49999462890625000000e+03) (128, -1.12735803222656250000e+03) (51, 1.06707714843750000000e+03) (141, 7.30074262619018554688e+00) (123, 1.36921447753906250000e+03) (45, 1.11063940429687500000e+03) (96, -8.49630371093750000000e+02) (131, -1.08790917968750000000e+03) (149, 8.18458938598632812500e+00) (118, 1.37539880371093750000e+03) (153, 7.28134870529174804688e+00) (66, -1.27501684570312500000e+03) (101, -5.04582519531250000000e+02) (145, -6.39744262695312500000e+02) (1, 1.42674450683593750000e+03) (98, 1.49594714355468750000e+03) (148, 7.39286375045776367188e+00) (154, 1.50000000000000000000e+03) (113, -1.39086560058593750000e+03) (91, -1.42385205078125000000e+03) (64, 7.91686218261718750000e+02) (17, -1.48302246093750000000e+03) (34, -1.49702331542968750000e+03) (33, -7.67943542480468750000e+02) (31, -1.49643640136718750000e+03) (151, 7.70472145080566406250e+00) (103, 1.49992004394531250000e+03) (88, 1.31999560546875000000e+03) (7, -1.49805371093750000000e+03) (20, -2.02069412231445312500e+02) (133, -5.36501831054687500000e+02) (142, 1.49999987792968750000e+03) (79, -3.28003479003906250000e+02) (90, 1.22453710937500000000e+03) (48, -8.44156127929687500000e+02) (53, -1.49994506835937500000e+03) (49, -9.68925231933593750000e+02) (152, 7.57969903945922851562e+00) (147, 7.97939968109130859375e+00) (87, -1.48141406250000000000e+03) (62, 1.49893725585937500000e+03) (43, 1.47025744628906250000e+03) (22, -3.98289367675781250000e+02) (125, -1.26079650878906250000e+03) (21, 1.48112194824218750000e+03) (134, -8.62463439941406250000e+02) (39, -1.32898022460937500000e+03) (143, -9.55080566406250000000e+02) (82, 1.04373425292968750000e+03) (26, 1.43636059570312500000e+03) (106, -1.06245397949218750000e+03) (107, 2.52937942504882812500e+02) (29, -3.33791900634765625000e+02) (23, 5.76421142578125000000e+02) (115, 1.00877374267578125000e+03) (94, -5.47344421386718750000e+02) (46, -1.35662902832031250000e+03) (68, 3.50767578125000000000e+02) (9, -1.06923095703125000000e+03) (72, -1.04718798828125000000e+03) (137, 7.54819822311401367188e+00) (69, -8.54848205566406250000e+02) (120, 1.08442199707031250000e+03) (44, 1.27996508789062500000e+03) (54, 1.31965530395507812500e+02) (30, -1.00894909667968750000e+03) (130, 1.25692468261718750000e+03) (61, 1.29612670898437500000e+03) (63, -1.49999987792968750000e+03) (15, 8.91198669433593750000e+02) (84, 1.49834143066406250000e+03) (80, -9.85492797851562500000e+02) (11, 1.49965002441406250000e+03) (100, 1.43307958984375000000e+03) (105, -8.88045578002929687500e+01) (2, -4.39784210205078125000e+02) (6, 1.48569873046875000000e+03) (86, 1.50000000000000000000e+03) (41, 1.43528381347656250000e+03) (56, 1.49997973632812500000e+03) (74, 1.48693347167968750000e+03) (47, 1.48800622558593750000e+03) (136, -1.49999975585937500000e+03) (58, 1.49998901367187500000e+03) (139, 7.97787237167358398438e+00) (76, 7.52472045898437500000e+02) (12, 9.16563537597656250000e+02) (146, -3.26101776123046875000e+02) (109, 1.49999987792968750000e+03) (89, 1.49997851562500000000e+03) (156, 9.70051040649414062500e+01) (17, 1.49094042968750000000e+03) (148, 9.83791427612304687500e+01) (139, 9.83199996948242187500e+01) (40, -1.47942089843750000000e+03) (4, 1.47797521972656250000e+03) (30, 1.35501660156250000000e+03) (137, 9.77858123779296875000e+01) (66, 1.30766296386718750000e+03) (96, -3.23952911376953125000e+02) (9, 1.09782250976562500000e+03) (110, -1.37972375488281250000e+03) (5, 1.49259570312500000000e+03) (83, 3.38906494140625000000e+02) (61, 5.80545349121093750000e+02) (29, 1.03324853515625000000e+03) (127, 1.48669384765625000000e+03) (130, 1.40291638183593750000e+03) (140, 9.80100021362304687500e+01) (154, 1.50000000000000000000e+03) (3, -1.33344531250000000000e+03) (34, 1.50000000000000000000e+03) (57, 1.49175305175781250000e+03) (141, 9.87143249511718750000e+01) (149, 9.81862869262695312500e+01) (31, 1.49812109375000000000e+03) (115, -2.58756378173828125000e+02) (135, -1.49987817382812500000e+03) (122, 9.18248291015625000000e+02) (112, 8.66850158691406250000e+02) (145, 1.50000000000000000000e+03) (37, 1.18139282226562500000e+03) (60, 5.53634704589843750000e+02) (109, -8.22268981933593750000e+02) (155, 1.50000000000000000000e+03) (6, -3.00472503662109375000e+02) (63, 1.50000000000000000000e+03) (86, -1.49272888183593750000e+03) (22, 6.84456481933593750000e+02) (132, -9.81349487304687500000e+02) (13, -6.34507385253906250000e+02) (43, -1.30056005859375000000e+03) (117, 4.78855438232421875000e+02) (10, 4.46678390502929687500e+01) (71, -5.42124084472656250000e+02) (108, -1.10170141601562500000e+03) (55, -2.77397552490234375000e+02) (103, -1.49980664062500000000e+03) (146, 1.48589758300781250000e+03) (51, -5.47884277343750000000e+02) (68, 1.11435314941406250000e+03) (90, 3.56696319580078125000e+02) (125, 1.34193566894531250000e+03) (114, 1.22823425292968750000e+03) (106, 1.48041772460937500000e+03) (116, 7.35248947143554687500e+01) (41, -5.97349853515625000000e+02) (70, -2.88599365234375000000e+02) (97, 7.38247680664062500000e+00) (74, -1.43918005371093750000e+03) (153, 9.79788818359375000000e+01) (26, -1.36375378417968750000e+03) (120, -4.62575073242187500000e+01) (118, -1.13158679199218750000e+03) (88, -1.20847436523437500000e+03) (52, 1.48776611328125000000e+03) (126, -1.38783068847656250000e+03) (56, -1.49991491699218750000e+03) (65, 1.50000000000000000000e+03) (39, 1.38001965332031250000e+03) (32, 1.24712475585937500000e+03) (77, 1.34573327636718750000e+03) (16, 5.30407104492187500000e+02) (136, 1.50000000000000000000e+03) (99, -1.49999291992187500000e+03) (152, 9.78559112548828125000e+01) (33, 1.27149401855468750000e+03) (150, 9.83784255981445312500e+01) (54, 1.36835098266601562500e+02) (36, 8.45941040039062500000e+02) (75, 1.29574719238281250000e+03) (18, 1.49999768066406250000e+03) (113, 1.44900744628906250000e+03) (48, 1.50000000000000000000e+03) (44, 1.18634178161621093750e+02) (87, 1.48891369628906250000e+03) (42, 1.49683813476562500000e+03) (25, 5.85016113281250000000e+02) (93, -1.40531494140625000000e+03) (147, 9.82054595947265625000e+01) (101, 9.44556884765625000000e+02) (28, 7.69793579101562500000e+02) (2, 1.18784667968750000000e+03) (78, -9.58627685546875000000e+02) (98, -3.59939788818359375000e+02) (95, -8.65663024902343750000e+02) (50, -1.49924536132812500000e+03) (91, -1.38013961791992187500e+02) (107, 1.24371940612792968750e+02) (124, 1.49591467285156250000e+03) (19, -1.44688659667968750000e+03) (111, -1.49655480957031250000e+03) (67, 1.15072045898437500000e+03) (38, 1.49917150878906250000e+03) (94, 1.01400329589843750000e+03) (14, 7.81401611328125000000e+02) (123, 1.17744300842285156250e+02) (64, 4.88750732421875000000e+02) (134, 1.28590478515625000000e+03) (35, 1.49784973144531250000e+03) (156, 6.50936889648437500000e+00) (141, 6.33416461944580078125e+00) (42, -1.48198535156250000000e+03) (137, 5.87179136276245117188e+00) (150, 6.44519424438476562500e+00) (134, -9.69295654296875000000e+02) (133, 5.77883056640625000000e+02) (99, 1.43539831542968750000e+03) (31, 1.76903972625732421875e+01) (14, 1.30467086791992187500e+02) (90, 1.47848693847656250000e+03) (13, 3.60738006591796875000e+02) (86, -5.53349227905273437500e+01) (138, 5.85193014144897460938e+00) (117, -1.27943566894531250000e+03) (21, -1.01990850830078125000e+03) (102, -1.02690344238281250000e+03) (92, -1.06664111328125000000e+03) (29, -1.88213882446289062500e+02) (25, 1.36440820312500000000e+03) (11, 1.47986901855468750000e+03) (40, -1.49172631835937500000e+03) (30, -6.76961242675781250000e+02) (107, 1.14872399902343750000e+03) (24, -1.47065429687500000000e+03) (62, 1.41743200683593750000e+03) (15, -3.36084472656250000000e+02) (124, -1.34195324707031250000e+03) (143, 1.47254895019531250000e+03) (115, -1.47026086425781250000e+03) (131, 4.33787689208984375000e+02) (51, -2.81667236328125000000e+02) (101, -1.38699023437500000000e+03) (106, -1.25562792968750000000e+03) (144, 1.47420288085937500000e+03) (152, 5.53363466262817382812e+00) (67, 6.71497985839843750000e+02) (71, 1.37026513671875000000e+03) (121, 1.13980308532714843750e+02) (61, 1.22672814941406250000e+03) (77, -1.49391162109375000000e+03) (75, 7.42246826171875000000e+02) (57, -4.53564208984375000000e+02) (114, -1.80715728759765625000e+02) (45, -9.22140502929687500000e+02) (55, -1.44892175292968750000e+03) (91, -1.48302929687500000000e+03) (64, 3.44932220458984375000e+02) (79, 1.31394262695312500000e+03) (49, -1.48130224609375000000e+03) (113, -1.42253247070312500000e+03) (10, 3.03589752197265625000e+02) (72, -1.46333813476562500000e+03) (39, -7.61423034667968750000e+02) (130, 1.41629138183593750000e+03) (68, 2.84409179687500000000e+02) (43, -4.81743072509765625000e+02) (98, 8.98432434082031250000e+02) (147, 6.35364437103271484375e+00) (44, 1.31697485351562500000e+03) (145, -1.45338586425781250000e+03) (1, 1.43020288085937500000e+03) (78, 5.54744750976562500000e+02) (89, 1.49058630371093750000e+03) (83, -6.49270935058593750000e+01) (23, 1.11513763427734375000e+02) (17, -1.48155090332031250000e+03) (2, -1.49044323730468750000e+03) (100, 1.23607397460937500000e+03) (84, 1.49989099121093750000e+03) (103, 1.49987207031250000000e+03) (97, 9.54951660156250000000e+02) (19, 1.46876110839843750000e+03) (38, 1.84272796630859375000e+02) (41, 1.48184582519531250000e+03) (119, 4.84377532958984375000e+02) (127, -1.11080310058593750000e+03) (73, -1.06395031738281250000e+03) (34, 4.42289886474609375000e+02) (20, -1.35570874023437500000e+03) (109, 7.60989807128906250000e+02) (139, 6.36151695251464843750e+00) (3, 1.43129980468750000000e+03) (82, 1.05054846191406250000e+03) (16, 5.80107421875000000000e+02) (32, -1.35681689453125000000e+03) (66, -1.24987561035156250000e+03) (47, 1.49987243652343750000e+03) (140, 6.09338569641113281250e+00) (58, 1.41584191894531250000e+03) (69, -1.52011169433593750000e+02) (151, 6.36567783355712890625e+00) (118, 1.49488537597656250000e+03) (54, 1.65314239501953125000e+02) (27, 1.49972412109375000000e+03) (146, 1.49980444335937500000e+03) (36, 3.73590507507324218750e+01) (111, 1.49983386230468750000e+03) (96, 1.49977868652343750000e+03) (93, 5.16983581542968750000e+02) (7, -1.16207116699218750000e+03) (94, 1.49990698242187500000e+03) (81, -9.18446716308593750000e+02) (70, 5.25174743652343750000e+02) (65, -4.69753540039062500000e+02) (136, 7.47338790893554687500e+01) (126, -2.17401229858398437500e+02) (135, -7.92246887207031250000e+02) (142, 1.49797631835937500000e+03) (120, -7.07732116699218750000e+02) (123, -8.22254028320312500000e+02) (156, 9.77478027343750000000e+01) (54, 1.36835098266601562500e+02) (104, 1.49992883300781250000e+03) (110, -1.47540002441406250000e+03) (124, 1.49591467285156250000e+03) (98, -3.59939788818359375000e+02) (151, 9.78935470581054687500e+01) (11, -3.81393829345703125000e+02) (78, -9.58627685546875000000e+02) (5, 1.49259570312500000000e+03) (138, 9.79887161254882812500e+01) (116, 7.42349700927734375000e+01) (68, 1.48174267578125000000e+03) (56, -1.49991491699218750000e+03) (13, 1.04858947753906250000e+03) (70, -2.88417480468750000000e+02) (17, 1.49094042968750000000e+03) (57, 1.49175305175781250000e+03) (134, 1.28590478515625000000e+03) (150, 9.70061874389648437500e+01) (112, 8.21444152832031250000e+02) (108, -1.10170141601562500000e+03) (145, 1.50000000000000000000e+03) (80, 1.30677307128906250000e+03) (136, 1.50000000000000000000e+03) (71, -5.42054748535156250000e+02) (90, 3.56696319580078125000e+02) (39, 1.38001965332031250000e+03) (38, 1.49917150878906250000e+03) (45, -2.75991180419921875000e+02) (33, 1.27149401855468750000e+03) (12, -6.66983825683593750000e+02) (62, -1.35893676757812500000e+03) (86, -1.49272888183593750000e+03) (94, 1.01400329589843750000e+03) (1, -1.39445214843750000000e+03) (14, 1.08790393066406250000e+03) (55, -2.77397552490234375000e+02) (121, 8.56995178222656250000e+02) (122, 9.18248291015625000000e+02) (107, 1.24371940612792968750e+02) (43, -1.30056005859375000000e+03) (125, 1.34193566894531250000e+03) (127, 1.48669384765625000000e+03) (29, 1.03324853515625000000e+03) (123, 1.18185249328613281250e+02) (48, 1.50000000000000000000e+03) (133, 1.48455871582031250000e+03) (96, 6.66430725097656250000e+02) (32, 1.24712475585937500000e+03) (31, 1.49812109375000000000e+03) (27, -1.78613357543945312500e+02) (131, 1.02640295410156250000e+03) (4, 1.47797521972656250000e+03) (153, 9.76884689331054687500e+01) (154, 1.50000000000000000000e+03) (37, 1.18139282226562500000e+03) (36, 8.46124023437500000000e+02) (25, 1.03154187011718750000e+03) (83, 3.38961425781250000000e+02) (106, 1.48041772460937500000e+03) (23, 6.91331405639648437500e+01) (109, -8.22268981933593750000e+02) (49, 1.14619201660156250000e+03) (85, 8.47893249511718750000e+02) (2, 1.18784667968750000000e+03) (117, 4.78855438232421875000e+02) (92, -6.52880981445312500000e+02) (60, 5.53634704589843750000e+02) (19, -1.44688659667968750000e+03) (34, 1.50000000000000000000e+03) (53, 1.50000000000000000000e+03) (61, 6.53424621582031250000e+02) (6, -1.30540246582031250000e+03) (21, -7.02456848144531250000e+02) (120, -4.62575073242187500000e+01) (65, 1.50000000000000000000e+03) (97, 7.38247680664062500000e+00) (44, 3.52078094482421875000e+02) (46, 1.41044946289062500000e+03) (74, -1.43918005371093750000e+03) (87, 1.48891369628906250000e+03) (114, 1.22823425292968750000e+03) (101, 1.04313427734375000000e+03) (115, -2.58756378173828125000e+02) (144, -1.41605895996093750000e+03) (103, -1.49980664062500000000e+03) (66, 1.30766296386718750000e+03) (130, 1.40291638183593750000e+03) (63, 1.50000000000000000000e+03) (139, 9.80040435791015625000e+01) (30, 1.35501660156250000000e+03) (132, -1.05469445800781250000e+03) (76, -7.43793701171875000000e+02) (42, 1.49683813476562500000e+03) (119, 8.27737274169921875000e+01) (100, -6.05711303710937500000e+02) (22, 6.84456481933593750000e+02) (99, -1.49999291992187500000e+03) (77, 1.34573327636718750000e+03) (69, 1.49996533203125000000e+03) (105, 9.72029541015625000000e+02) (50, -1.49924536132812500000e+03) (81, 1.01775170898437500000e+03) (152, 9.79697952270507812500e+01) (9, 1.09782250976562500000e+03) (118, -1.13155163574218750000e+03) (40, -1.47942089843750000000e+03) (111, -1.49655480957031250000e+03) (47, -1.47705798339843750000e+03) (156, 2.35478448867797851562e+00) (81, -6.60620910644531250000e+02) (110, 1.44788610839843750000e+03) (68, -7.01457901000976562500e+01) (112, 6.28550231933593750000e+02) (142, 1.49887414550781250000e+03) (9, -1.17397338867187500000e+03) (132, 1.23574816894531250000e+03) (36, -1.01300170898437500000e+02) (134, -1.46591210937500000000e+03) (133, 1.01874114990234375000e+02) (52, -8.27396423339843750000e+02) (61, 3.46480255126953125000e+02) (45, 1.16332031250000000000e+03) (141, 1.85367619991302490234e+00) (34, 7.60133361816406250000e+02) (2, -1.07549560546875000000e+03) (27, 1.49927160644531250000e+03) (60, -8.81645690917968750000e+02) (69, 8.01625900268554687500e+01) (150, 2.33234000205993652344e+00) (76, -7.30831909179687500000e+02) (145, -6.31237243652343750000e+02) (98, 9.80965881347656250000e+02) (21, 6.37474914550781250000e+02) (106, -1.06245190429687500000e+03) (5, -4.31332733154296875000e+02) (82, 1.49246679687500000000e+03) (114, -4.88111968994140625000e+02) (19, 1.49977001953125000000e+03) (53, 1.48474243164062500000e+03) (100, 1.22013391113281250000e+03) (28, -1.49898461914062500000e+03) (54, 9.96216918945312500000e+02) (3, 1.38806726074218750000e+03) (51, -7.20350585937500000000e+02) (13, 6.05422241210937500000e+02) (111, 1.49935375976562500000e+03) (12, 1.46936706542968750000e+03) (85, -1.08587292480468750000e+03) (103, 1.42140039062500000000e+03) (140, 2.16008830070495605469e+00) (87, -8.11067443847656250000e+02) (20, 8.52571716308593750000e+01) (29, -1.30111022949218750000e+03) (42, -1.35827783203125000000e+03) (80, -7.64286193847656250000e+02) (153, 2.11608409881591796875e+00) (49, -1.45671911621093750000e+03) (89, 1.49997851562500000000e+03) (8, 1.10502062988281250000e+03) (24, -1.13706835937500000000e+03) (131, -9.65831359863281250000e+02) (92, -3.43825592041015625000e+02) (123, 1.43909814453125000000e+03) (118, 1.46466162109375000000e+03) (138, 2.27171373367309570312e+00) (105, 7.05050277709960937500e+01) (146, 4.67883575439453125000e+02) (152, 2.49287724494934082031e+00) (73, -1.48988769531250000000e+03) (148, 2.43062520027160644531e+00) (1, 4.91107482910156250000e+01) (95, 1.31147753906250000000e+03) (46, -1.31939843750000000000e+03) (124, 1.33003527832031250000e+03) (125, -1.21230590820312500000e+03) (4, -7.68073501586914062500e+01) (71, 1.34599645996093750000e+03) (99, 1.48357592773437500000e+03) (15, -1.49983056640625000000e+03) (121, 1.42790771484375000000e+03) (33, 1.31897900390625000000e+03) (120, -1.45636645507812500000e+03) (116, 1.38688208007812500000e+03) (56, 4.49877838134765625000e+02) (14, -2.88611755371093750000e+02) (66, 6.70342895507812500000e+02) (35, -9.79567626953125000000e+02) (108, 1.29608049392700195312e+01) (38, -1.32989770507812500000e+03) (144, 1.41888708496093750000e+03) (94, 1.39749487304687500000e+03) (86, -1.45135571289062500000e+03) (107, 1.49997131347656250000e+03) (74, -6.22489685058593750000e+02) (126, 1.49972167968750000000e+03) (84, 1.49910876464843750000e+03) (31, -1.44879669189453125000e+02) (117, -1.11914086914062500000e+03) (78, 1.41795996093750000000e+03) (37, -1.46678295898437500000e+03) (41, 1.41560888671875000000e+03) (119, -2.18895645141601562500e+02) (6, -1.59760284423828125000e+02) (44, 7.29840393066406250000e+02) (11, -4.14968109130859375000e+02) (25, 1.04758032226562500000e+03) (101, -1.38919470214843750000e+03) (88, 1.31999267578125000000e+03) (139, 2.20940995216369628906e+00) (70, 9.15428649902343750000e+02) (96, -1.17100036621093750000e+03) (17, -1.49865588378906250000e+03) (16, -9.57793640136718750000e+02) (93, 3.50082702636718750000e+02) (143, -1.00018499755859375000e+03) (75, -5.20878723144531250000e+02) (77, -1.43150280761718750000e+03) (104, 7.20571228027343750000e+02) (156, -4.31016397476196289062e+00) (42, -1.01571685791015625000e+03) (116, 5.36602722167968750000e+02) (82, 1.04373168945312500000e+03) (108, 7.37655517578125000000e+02) (142, 1.49999987792968750000e+03) (97, 9.14892944335937500000e+02) (10, 1.16408264160156250000e+03) (28, -4.86610107421875000000e+02) (26, 1.10130737304687500000e+03) (27, 5.52512023925781250000e+02) (113, -1.39974450683593750000e+03) (6, 1.48569873046875000000e+03) (21, 1.40841992187500000000e+03) (115, 5.63365234375000000000e+02) (153, -4.54494190216064453125e+00) (140, -4.71674299240112304688e+00) (37, -9.43502426147460937500e+01) (68, -1.26072607421875000000e+03) (51, 6.03856079101562500000e+02) (24, -6.89470214843750000000e+02) (110, 1.48739990234375000000e+03) (128, -8.94892395019531250000e+02) (62, 1.41988867187500000000e+03) (145, -1.50000000000000000000e+03) (90, 1.13739807128906250000e+03) (66, -1.15217163085937500000e+03) (87, -1.47174890136718750000e+03) (143, -8.85924316406250000000e+02) (31, -1.49648779296875000000e+03) (132, 1.49999926757812500000e+03) (25, -1.51590377807617187500e+02) (13, 3.65299346923828125000e+02) (56, 1.49997973632812500000e+03) (74, 1.46321740722656250000e+03) (22, -3.98340332031250000000e+02) (15, 8.91197387695312500000e+02) (47, 1.48800622558593750000e+03) (52, 2.90485473632812500000e+02) (86, 1.50000000000000000000e+03) (18, -1.49890844726562500000e+03) (54, 1.31962203979492187500e+02) (117, 7.42887756347656250000e+02) (120, 7.81139709472656250000e+02) (75, 1.22325952148437500000e+03) (79, -6.28858909606933593750e+01) (89, 1.49997851562500000000e+03) (150, -4.71654605865478515625e+00) (57, -8.44352722167968750000e+02) (104, -1.49906372070312500000e+03) (3, 1.38804357910156250000e+03) (49, -9.91948242187500000000e+02) (106, -1.06245935058593750000e+03) (129, 6.19162841796875000000e+02) (130, 1.21609704589843750000e+03) (98, 7.33959777832031250000e+02) (109, 1.49999987792968750000e+03) (43, 1.47025585937500000000e+03) (85, -4.58368469238281250000e+02) (69, -8.43759643554687500000e+02) (91, -1.32198425292968750000e+03) (41, 1.43528149414062500000e+03) (45, 9.65368530273437500000e+02) (94, -5.47349121093750000000e+02) (81, -7.77730041503906250000e+02) (114, -6.56327880859375000000e+02) (103, 1.49992004394531250000e+03) (125, -1.26095166015625000000e+03) (131, -1.04054492187500000000e+03) (151, -5.07018661499023437500e+00) (38, 1.83967803955078125000e+02) (123, 8.76319396972656250000e+02) (147, -4.28438901901245117188e+00) (50, 1.49999462890625000000e+03) (46, -1.36596752929687500000e+03) (124, -1.49391430664062500000e+03) (93, 1.47651794433593750000e+03) (48, -8.33630493164062500000e+02) (111, 1.49786962890625000000e+03) (12, 1.22005871582031250000e+03) (9, -8.75025695800781250000e+02) (119, 4.56990417480468750000e+02) (92, 1.48515808105468750000e+03) (65, -1.49203601074218750000e+03) (5, -1.48698144531250000000e+03) (84, 1.49833837890625000000e+03) (155, 1.50000000000000000000e+03) (44, 1.27996203613281250000e+03) (67, 1.12100463867187500000e+02) (63, -1.49999987792968750000e+03) (121, 8.51158691406250000000e+02) (78, 1.49905615234375000000e+03) (146, -3.26121307373046875000e+02) (19, 1.46260314941406250000e+03) (127, -1.47465185546875000000e+03) (101, -5.58373046875000000000e+02) (138, -4.85454034805297851562e+00) (20, 8.78754821777343750000e+02) (60, 3.81016998291015625000e+01) (149, -5.01639318466186523438e+00) (102, -9.58640930175781250000e+02) (139, -4.96112394332885742188e+00) (39, -1.32899316406250000000e+03) (144, 1.47687463378906250000e+03) (40, 1.49999987792968750000e+03) (33, -1.00142791748046875000e+03) (2, -1.07494628906250000000e+03) (118, 1.37714685058593750000e+03) (7, -1.49806689453125000000e+03) (70, 1.35244567871093750000e+03) (156, 1.09369688034057617188e+01) (79, -6.28874015808105468750e+01) (136, -1.49999975585937500000e+03) (127, -1.47482910156250000000e+03) (70, 1.48140881347656250000e+03) (142, 1.49999096679687500000e+03) (15, 8.91178100585937500000e+02) (143, -8.90559326171875000000e+02) (86, 1.50000000000000000000e+03) (111, 1.49788977050781250000e+03) (52, -1.33466735839843750000e+03) (123, 6.21193420410156250000e+02) (77, -9.14526733398437500000e+02) (21, 1.40843908691406250000e+03) (104, -1.49912988281250000000e+03) (102, -5.98008117675781250000e+02) (149, 1.04334611892700195312e+01) (37, -1.14217414855957031250e+02) (2, -1.07484582519531250000e+03) (6, 1.48578125000000000000e+03) (45, 9.77596130371093750000e+02) (22, -3.98351074218750000000e+02) (91, -1.32146203613281250000e+03) (67, -1.77894989013671875000e+02) (59, 1.45233459472656250000e+03) (134, -8.60784729003906250000e+02) (83, -1.81281631469726562500e+02) (51, 1.06705419921875000000e+03) (108, 7.75692321777343750000e+02) (26, 1.09296337890625000000e+03) (82, 1.04372058105468750000e+03) (153, 1.00433712005615234375e+01) (57, 1.23742724609375000000e+03) (23, 5.73212524414062500000e+02) (68, 9.01620330810546875000e+01) (29, 2.82514678955078125000e+02) (101, 3.70194061279296875000e+02) (117, 7.42826721191406250000e+02) (35, 9.53521423339843750000e+01) (5, -1.48700244140625000000e+03) (92, 1.48516113281250000000e+03) (78, 1.49901147460937500000e+03) (109, 1.31634619140625000000e+03) (72, -1.10494384765625000000e+03) (154, 1.50000000000000000000e+03) (64, 1.49733581542968750000e+03) (103, 1.49992004394531250000e+03) (141, 9.91257667541503906250e+00) (54, 1.31780609130859375000e+02) (99, 1.49999987792968750000e+03) (122, -7.88672424316406250000e+02) (66, -1.27586096191406250000e+03) (110, 1.48740393066406250000e+03) (119, 4.57010650634765625000e+02) (24, -6.78439392089843750000e+02) (137, 1.05819940567016601562e+01) (53, -1.49997705078125000000e+03) (146, -3.31461120605468750000e+02) (55, 1.03438220214843750000e+03) (65, -1.49974035644531250000e+03) (58, 1.49997998046875000000e+03) (69, -7.74039550781250000000e+02) (144, 1.47685388183593750000e+03) (46, -1.36597875976562500000e+03) (61, 5.20851501464843750000e+02) (63, -1.49999987792968750000e+03) (87, -1.48141906738281250000e+03) (16, -1.75333267211914062500e+02) (74, 1.49770361328125000000e+03) (128, -4.12907623291015625000e+02) (90, 1.16120971679687500000e+03) (84, 1.49832324218750000000e+03) (155, 1.50000000000000000000e+03) (85, -4.59751495361328125000e+02) (148, 1.04078750610351562500e+01) (80, -9.85497314453125000000e+02) (145, -1.50000000000000000000e+03) (114, -6.56336853027343750000e+02) (139, 1.04465847015380859375e+01) (76, 1.40285742187500000000e+03) (43, 1.47018444824218750000e+03) (11, 1.49822009277343750000e+03) (31, -1.49648706054687500000e+03) (97, -5.28813133239746093750e+01) (48, -8.31837707519531250000e+02) (81, -7.77753479003906250000e+02) (42, -1.46727673339843750000e+03) (112, 6.93387573242187500000e+02) (131, -1.05570593261718750000e+03) (130, -1.10026708984375000000e+03) (12, 1.22082189941406250000e+03) (14, -3.14338378906250000000e+02) (20, 7.00842529296875000000e+02) (8, 1.49744714355468750000e+03) (3, 1.38603674316406250000e+03) (50, 9.90229309082031250000e+02) (93, 1.47649511718750000000e+03) (60, 3.80796775817871093750e+01) (36, -1.56598754882812500000e+02) (34, -1.49702331542968750000e+03) (19, 1.46260339355468750000e+03) (9, -8.75018188476562500000e+02) (32, -1.34881518554687500000e+03) (129, 6.19191650390625000000e+02) (105, -8.89490051269531250000e+01) (7, -1.49813464355468750000e+03) (40, 1.49999987792968750000e+03) (100, 1.40652880859375000000e+03) (121, 8.39944458007812500000e+02) (0, 5.81836059570312500000e+02) (156, -2.53898549079895019531e+00) (141, -1.21895098686218261719e+00) (95, 1.46299279785156250000e+03) (123, 7.40533142089843750000e+02) (20, -1.41017715454101562500e+02) (122, -3.53389801025390625000e+02) (51, 1.39167297363281250000e+03) (132, 1.36962658691406250000e+03) (88, 1.49905273437500000000e+03) (78, 9.08309082031250000000e+02) (24, -1.48285852050781250000e+03) (90, -9.40465270996093750000e+02) (28, -1.42765515136718750000e+03) (80, -7.61457580566406250000e+02) (46, -1.11293505859375000000e+03) (149, -1.65275120735168457031e+00) (93, 1.49914038085937500000e+03) (68, -3.43568939208984375000e+02) (96, -9.60109497070312500000e+02) (83, 4.68809356689453125000e+02) (142, 1.49902758789062500000e+03) (9, -1.49329895019531250000e+03) (31, -3.05040252685546875000e+02) (125, -2.34614562988281250000e+02) (119, -1.43128784179687500000e+03) (15, -1.49689770507812500000e+03) (87, 5.65703186035156250000e+02) (21, 1.49402062988281250000e+03) (118, 1.49004711914062500000e+03) (116, 1.45340954589843750000e+03) (114, 1.35263134765625000000e+03) (72, -8.37959228515625000000e+02) (12, 1.23427978515625000000e+03) (4, -1.83526321411132812500e+02) (153, -1.48634374141693115234e+00) (42, -1.13001696777343750000e+03) (101, -9.38905456542968750000e+02) (85, -1.09327746582031250000e+03) (71, 8.44886047363281250000e+02) (7, -1.47948937988281250000e+03) (91, -1.31486645507812500000e+03) (52, 7.60204956054687500000e+02) (54, 1.35458569335937500000e+03) (105, 9.77160949707031250000e+02) (30, -1.06014355468750000000e+03) (10, 7.79487792968750000000e+02) (94, 1.49458190917968750000e+03) (108, 1.39105651855468750000e+03) (53, -6.62034301757812500000e+01) (104, 8.66893981933593750000e+02) (107, 1.87191104888916015625e+01) (43, -3.45198089599609375000e+02) (100, 1.40343212890625000000e+03) (98, 1.37475646972656250000e+03) (60, -1.39302932739257812500e+02) (115, -1.41189074707031250000e+03) (110, 1.48341003417968750000e+03) (48, -8.14632934570312500000e+02) (69, 6.85324890136718750000e+02) (61, 1.49838427734375000000e+03) (50, 1.49999401855468750000e+03) (2, -1.48126367187500000000e+03) (147, -1.87086141109466552734e+00) (40, -1.49746228027343750000e+03) (140, -1.28875088691711425781e+00) (86, -1.49171545410156250000e+03) (111, -1.01508386230468750000e+03) (145, 6.50391296386718750000e+02) (38, 1.91540756225585937500e+02) (124, 1.43351501464843750000e+03) (65, 6.69775573730468750000e+02) (103, 1.49971374511718750000e+03) (56, -3.27705963134765625000e+02) (112, 1.17273144531250000000e+03) (151, -1.54180479049682617188e+00) (133, -1.06219734191894531250e+02) (136, -1.49648400878906250000e+03) (150, -1.26567900180816650391e+00) (154, 1.50000000000000000000e+03) (59, 1.45233459472656250000e+03) (64, -1.46071029663085937500e+02) (70, 8.04722167968750000000e+02) (79, 1.46688854980468750000e+03) (67, 1.61022781372070312500e+02) (1, 1.48292065429687500000e+03) (89, 1.47879174804687500000e+03) (134, -1.22274877929687500000e+03) (47, 9.35705078125000000000e+02) (44, 1.19884301757812500000e+03) (75, -3.71145080566406250000e+02) (146, 1.41284289550781250000e+03) (39, -5.09109588623046875000e+02) (135, 9.36260742187500000000e+02) (92, -1.46277001953125000000e+03) (33, -5.31146179199218750000e+02) (49, -1.46792810058593750000e+03) (121, 9.92260253906250000000e+02) (32, -1.44377160644531250000e+03) (63, 5.35687675476074218750e+01) (6, 1.49955419921875000000e+03) (66, -1.14528918457031250000e+03) (99, 1.49707019042968750000e+03) (37, -8.01323120117187500000e+02) (126, 9.21626953125000000000e+02) (29, -8.49511291503906250000e+02) (127, -4.95904655456542968750e+01) (35, -5.60690917968750000000e+02) (11, -1.00974432373046875000e+03) (138, -1.24190545082092285156e+00) (14, -2.92786426544189453125e+01) (113, -1.42225842285156250000e+03) (156, 6.53948516845703125000e+01) (22, 6.84456481933593750000e+02) (62, -1.35893676757812500000e+03) (120, -4.62575073242187500000e+01) (51, -5.47884277343750000000e+02) (97, 7.38247680664062500000e+00) (127, 1.48669384765625000000e+03) (60, 5.53634704589843750000e+02) (80, 1.30677307128906250000e+03) (33, 1.27149401855468750000e+03) (1, -1.39445214843750000000e+03) (65, 1.50000000000000000000e+03) (26, -1.36375378417968750000e+03) (103, -1.49980664062500000000e+03) (144, -1.41605895996093750000e+03) (79, 1.19633679199218750000e+03) (138, 6.67039642333984375000e+01) (17, 1.49094042968750000000e+03) (125, 1.34193566894531250000e+03) (105, 9.71934204101562500000e+02) (100, -6.05797729492187500000e+02) (95, -8.65663024902343750000e+02) (19, -1.44688659667968750000e+03) (154, 1.50000000000000000000e+03) (39, 1.38001965332031250000e+03) (53, 1.50000000000000000000e+03) (124, 1.49591467285156250000e+03) (55, -2.77397552490234375000e+02) (141, 6.62452774047851562500e+01) (46, 1.41044946289062500000e+03) (121, 8.56611145019531250000e+02) (104, 1.49992883300781250000e+03) (115, -2.58756378173828125000e+02) (132, -1.03489770507812500000e+03) (2, 1.18784667968750000000e+03) (128, 1.48931408691406250000e+03) (139, 6.66661911010742187500e+01) (99, -1.49999291992187500000e+03) (133, 1.48455871582031250000e+03) (42, 1.49683813476562500000e+03) (49, 1.14609997558593750000e+03) (6, -1.30542541503906250000e+03) (50, -1.49924536132812500000e+03) (68, 1.48174267578125000000e+03) (38, 4.24660858154296875000e+02) (45, -2.75991424560546875000e+02) (98, -3.59939788818359375000e+02) (110, -1.47540002441406250000e+03) (66, 1.30766296386718750000e+03) (25, 1.50000000000000000000e+03) (54, 1.36835098266601562500e+02) (119, 8.27737274169921875000e+01) (76, -7.43813476562500000000e+02) (14, 1.15946520996093750000e+03) (78, -9.58627685546875000000e+02) (117, 4.78855438232421875000e+02) (151, 6.65443725585937500000e+01) (118, -1.13158679199218750000e+03) (44, 3.68000915527343750000e+02) (147, 6.65544357299804687500e+01) (82, -7.94958068847656250000e+02) (83, 3.38906494140625000000e+02) (140, 6.67178344726562500000e+01) (28, 7.69793579101562500000e+02) (92, -6.52880981445312500000e+02) (41, -5.50104797363281250000e+02) (134, 1.28590478515625000000e+03) (40, -1.47942089843750000000e+03) (9, 1.09782250976562500000e+03) (48, 1.50000000000000000000e+03) (16, 5.30407104492187500000e+02) (116, 7.35248947143554687500e+01) (86, -1.49272888183593750000e+03) (102, 1.02605895996093750000e+03) (87, 1.48891369628906250000e+03) (58, -1.49990039062500000000e+03) (36, 8.45941040039062500000e+02) (64, 4.88750732421875000000e+02) (72, 7.50631958007812500000e+02) (150, 6.62561569213867187500e+01) (52, 1.47950720214843750000e+03) (69, 1.49996533203125000000e+03) (114, 1.22823425292968750000e+03) (74, -1.43918005371093750000e+03) (67, 1.15071887207031250000e+03) (153, 6.66900711059570312500e+01) (84, -1.34200610351562500000e+03) (3, -1.33344531250000000000e+03) (131, 1.02640295410156250000e+03) (129, 3.47080445289611816406e+00) (107, 1.24371940612792968750e+02) (149, 6.64619064331054687500e+01) (123, 1.17743324279785156250e+02) (109, -8.22268981933593750000e+02) (146, 1.48589758300781250000e+03) (75, 1.29574572753906250000e+03) (113, 1.44900744628906250000e+03) (15, -5.95799682617187500000e+02) (4, 1.47797521972656250000e+03) (8, -1.48487500000000000000e+03) (63, 1.50000000000000000000e+03) (155, 1.50000000000000000000e+03) (111, -1.49655480957031250000e+03) (135, -1.49987817382812500000e+03) (71, -5.42124084472656250000e+02) (112, 8.21323669433593750000e+02) (10, 4.46678390502929687500e+01) (73, 1.49424584960937500000e+03) (5, 1.49259570312500000000e+03) (91, 1.48904528808593750000e+03) (156, 1.19540962219238281250e+02) (116, 2.55914703369140625000e+02) (146, 1.48589758300781250000e+03) (99, -1.49999291992187500000e+03) (41, -4.96982818603515625000e+02) (138, 1.20247657775878906250e+02) (27, -1.78613357543945312500e+02) (58, -1.49990039062500000000e+03) (114, 1.22823425292968750000e+03) (33, 1.27149401855468750000e+03) (140, 1.20249725341796875000e+02) (21, -7.02450561523437500000e+02) (152, 1.20216148376464843750e+02) (68, 1.48174267578125000000e+03) (32, 1.24912072753906250000e+03) (44, 1.19478355407714843750e+02) (127, 1.48669384765625000000e+03) (37, 1.18139282226562500000e+03) (35, 1.49784973144531250000e+03) (36, 1.49998962402343750000e+03) (31, 1.49812109375000000000e+03) (53, 1.50000000000000000000e+03) (115, -2.58756378173828125000e+02) (13, 8.73858032226562500000e+02) (77, 1.34572644042968750000e+03) (6, -1.02466479492187500000e+03) (4, 1.47797741699218750000e+03) (30, 1.35501660156250000000e+03) (94, 1.01400329589843750000e+03) (80, 1.30677307128906250000e+03) (109, -8.22268981933593750000e+02) (74, -1.43918005371093750000e+03) (47, -1.47705798339843750000e+03) (39, 1.38001965332031250000e+03) (134, 1.28590478515625000000e+03) (141, 1.20377281188964843750e+02) (155, 1.50000000000000000000e+03) (70, -2.02658752441406250000e+02) (91, 1.48904528808593750000e+03) (96, 1.16339477539062500000e+03) (110, -1.47540002441406250000e+03) (97, 7.38247680664062500000e+00) (130, 1.40291638183593750000e+03) (34, 1.50000000000000000000e+03) (92, -6.52880981445312500000e+02) (143, 1.47135986328125000000e+03) (137, 1.19839294433593750000e+02) (120, -4.62575073242187500000e+01) (90, 3.56696319580078125000e+02) (55, -2.77397552490234375000e+02) (51, -5.47882690429687500000e+02) (10, 4.46678390502929687500e+01) (101, 9.44729675292968750000e+02) (2, 1.18784667968750000000e+03) (100, -2.44697723388671875000e+02) (26, -1.36375378417968750000e+03) (29, 1.03264575195312500000e+03) (48, 1.50000000000000000000e+03) (72, 7.46858764648437500000e+02) (49, 1.14613574218750000000e+03) (104, 1.49992883300781250000e+03) (75, 1.29989514160156250000e+03) (136, 1.50000000000000000000e+03) (64, 4.88750732421875000000e+02) (83, 3.39508544921875000000e+02) (89, -1.49674499511718750000e+03) (87, 1.48891369628906250000e+03) (124, 1.49591467285156250000e+03) (78, -9.58627685546875000000e+02) (142, -1.49998242187500000000e+03) (128, 1.48931408691406250000e+03) (56, -1.49991491699218750000e+03) (60, 5.53634704589843750000e+02) (153, 1.20827247619628906250e+02) (126, -1.38783068847656250000e+03) (24, 9.47009033203125000000e+02) (106, 1.48041772460937500000e+03) (125, 1.34193566894531250000e+03) (28, 7.69796264648437500000e+02) (8, -1.48487500000000000000e+03) (46, 1.41044946289062500000e+03) (112, 8.22266052246093750000e+02) (148, 1.19888587951660156250e+02) (76, -9.42914123535156250000e+02) (18, 1.49999768066406250000e+03) (103, -1.49980664062500000000e+03) (69, 1.49996533203125000000e+03) (19, -1.44688659667968750000e+03) (122, 9.18248291015625000000e+02) (12, -8.04991271972656250000e+02) (65, 1.50000000000000000000e+03) (108, -1.10168310546875000000e+03) (57, 1.49175305175781250000e+03) (121, 8.57389343261718750000e+02) (43, -1.24711108398437500000e+03) (15, -5.95799682617187500000e+02) (50, -1.49924536132812500000e+03) (14, 1.15812109375000000000e+03) (123, 1.17795051574707031250e+02) (61, 6.47269348144531250000e+02) (82, -7.94958068847656250000e+02) (98, -3.59938446044921875000e+02) (150, 1.19995849609375000000e+02) (25, 1.50000000000000000000e+03) (81, 1.01775170898437500000e+03) (88, -1.20847436523437500000e+03) (9, 1.09782250976562500000e+03) (132, -7.80202087402343750000e+02) (62, -1.35893676757812500000e+03) (95, -8.65663024902343750000e+02) (156, 7.68931732177734375000e+01) (68, 1.48174267578125000000e+03) (148, 7.73052749633789062500e+01) (154, 1.50000000000000000000e+03) (104, 1.49992883300781250000e+03) (35, 1.49784973144531250000e+03) (34, 1.50000000000000000000e+03) (55, -2.77397552490234375000e+02) (15, -2.74554687500000000000e+02) (19, -1.44688659667968750000e+03) (60, 5.53634704589843750000e+02) (7, 1.49878564453125000000e+03) (81, 1.08673950195312500000e+03) (14, 9.56217285156250000000e+02) (18, 1.49999768066406250000e+03) (117, 4.78851776123046875000e+02) (30, 1.35501660156250000000e+03) (155, 1.50000000000000000000e+03) (147, 7.73321380615234375000e+01) (140, 7.62704315185546875000e+01) (122, 9.18237365722656250000e+02) (22, 6.84456481933593750000e+02) (73, 1.49424584960937500000e+03) (133, 1.48455871582031250000e+03) (75, 1.29584179687500000000e+03) (23, 6.91355514526367187500e+01) (11, -3.81386505126953125000e+02) (76, -4.69694671630859375000e+02) (78, -9.58618957519531250000e+02) (101, 9.44556030273437500000e+02) (135, -1.49987817382812500000e+03) (63, 1.50000000000000000000e+03) (139, 7.72396316528320312500e+01) (90, 3.93765167236328125000e+02) (129, 2.28734756469726562500e+02) (47, -1.47705786132812500000e+03) (17, 1.49093762207031250000e+03) (51, -5.47896484375000000000e+02) (41, -5.41851989746093750000e+02) (71, -5.42118408203125000000e+02) (149, 7.71865463256835937500e+01) (1, -1.39451940917968750000e+03) (126, -1.38774426269531250000e+03) (143, 1.47136157226562500000e+03) (93, -1.40528344726562500000e+03) (124, 1.49591467285156250000e+03) (99, -1.49999291992187500000e+03) (28, 7.69799194335937500000e+02) (2, 1.18785913085937500000e+03) (97, 7.37844848632812500000e+00) (45, 4.13659545898437500000e+02) (74, -1.43917053222656250000e+03) (115, -2.58746490478515625000e+02) (85, 8.47788024902343750000e+02) (100, -6.05774414062500000000e+02) (151, 7.65477142333984375000e+01) (49, 1.14611169433593750000e+03) (142, -1.49998242187500000000e+03) (64, 4.88757965087890625000e+02) (127, 1.48669384765625000000e+03) (145, 1.50000000000000000000e+03) (95, -8.65658508300781250000e+02) (62, -1.35891064453125000000e+03) (67, 1.16266271972656250000e+03) (24, 9.47034057617187500000e+02) (4, 1.47797521972656250000e+03) (27, -1.78611129760742187500e+02) (128, 1.48931347656250000000e+03) (70, -2.88292144775390625000e+02) (8, -1.48487475585937500000e+03) (84, -1.34196557617187500000e+03) (77, 1.34575000000000000000e+03) (10, 4.46633453369140625000e+01) (21, -7.02438110351562500000e+02) (83, 3.38901428222656250000e+02) (118, -1.13182482910156250000e+03) (26, -1.36370764160156250000e+03) (80, 1.30688476562500000000e+03) (110, -1.47540002441406250000e+03) (111, -1.49655480957031250000e+03) (72, 7.50635009765625000000e+02) (87, 1.48891369628906250000e+03) (40, -1.45985522460937500000e+03) (59, -9.51804504394531250000e+02) (69, 1.49996533203125000000e+03) (91, 1.48904614257812500000e+03) (113, 1.44900781250000000000e+03) (116, 7.36358566284179687500e+01) (141, 7.67321701049804687500e+01) (66, 1.30765832519531250000e+03) (44, 5.33806823730468750000e+02) (146, 1.48589758300781250000e+03) (88, -1.20847436523437500000e+03) (3, -1.33745532226562500000e+03) (137, 7.73374252319335937500e+01) (144, -1.41605200195312500000e+03) (96, 1.17256774902343750000e+03) (82, -7.94962097167968750000e+02) (86, -1.49268884277343750000e+03) (152, 7.67074508666992187500e+01) (46, 1.41044506835937500000e+03) (50, -1.49924536132812500000e+03) (52, 1.27803759765625000000e+03) (109, -7.03851928710937500000e+02) (105, 9.71873779296875000000e+02) (102, 1.02607189941406250000e+03) (108, -1.10160852050781250000e+03) (48, 1.50000000000000000000e+03) (119, 8.27748565673828125000e+01) (123, 1.17751121520996093750e+02) (156, -3.75610847473144531250e+01) (65, 1.09767189025878906250e+01) (71, 7.36484575271606445312e+00) (43, 3.57429671287536621094e+00) (14, 3.15493965148925781250e+00) (2, 1.09836578369140625000e+00) (139, -3.70740585327148437500e+01) (73, -4.44213438034057617188e+00) (115, 5.52927827835083007812e+00) (126, 8.52056121826171875000e+00) (104, 5.94949388504028320312e+00) (16, 6.76267433166503906250e+00) (136, -3.73792231082916259766e-01) (124, -3.86958926916122436523e-01) (80, 2.46351170539855957031e+00) (90, 5.38169240951538085938e+00) (137, -3.79023971557617187500e+01) (11, -3.40561437606811523438e+00) (82, 1.44766473770141601562e+01) (79, -2.84584474563598632812e+00) (88, -8.61810028553009033203e-01) (67, -1.31341791152954101562e+00) (92, 8.50551033020019531250e+00) (89, 6.55300140380859375000e+00) (9, 5.23290574550628662109e-01) (113, 4.68191909790039062500e+00) (59, 1.01722053527832031250e+02) (60, 1.37434368133544921875e+01) (87, 3.44076704978942871094e+00) (107, -4.14010667800903320312e+00) (38, 4.86612379550933837891e-01) (148, -3.76616897583007812500e+01) (17, 7.11258828639984130859e-01) (105, 1.52392220497131347656e+00) (127, 2.78163695335388183594e+00) (112, 1.07640743255615234375e+01) (122, 4.47238779067993164062e+00) (29, 5.26922559738159179688e+00) (96, 7.40498542785644531250e+00) (155, 1.50000000000000000000e+03) (95, 5.43225812911987304688e+00) (27, -3.25169515609741210938e+00) (98, 1.01394157409667968750e+01) (147, -3.74808540344238281250e+01) (140, -3.79612731933593750000e+01) (56, 1.88524079322814941406e+00) (53, -4.32286405563354492188e+00) (143, -1.13026618957519531250e+00) (129, 1.14302625656127929688e+01) (3, 2.86617493629455566406e+00) (0, 2.89384826660156250000e+02) (1, 2.11279621124267578125e+01) (83, 8.55989837646484375000e+00) (131, 2.86002397537231445312e-01) (123, 8.45830857753753662109e-01) (108, 7.93586075305938720703e-01) (116, -3.66307616233825683594e+00) (62, 9.44194889068603515625e+00) (50, 1.83157289028167724609e+00) (135, 1.17148682475090026855e-01) (40, -8.20943713188171386719e-02) (74, 4.16306877136230468750e+00) (117, 4.12902641296386718750e+00) (42, -7.93650865554809570312e+00) (85, -6.19700622558593750000e+00) (52, 3.73835492134094238281e+00) (152, -3.74008483886718750000e+01) (6, 5.28555059432983398438e+00) (146, 9.68579959869384765625e+00) (109, 4.45092630386352539062e+00) (49, 2.02451419830322265625e+00) (15, 3.57640957832336425781e+00) (47, 4.26598167419433593750e+00) (4, -1.57608115673065185547e+00) (23, 3.02951025962829589844e+00) (10, 6.59204626083374023438e+00) (144, -3.44637155532836914062e+00) (110, -6.48033842444419860840e-02) (37, -3.59691023826599121094e+00) (111, 6.60899353027343750000e+00) (54, -1.13686943054199218750e+00) (20, 1.31875598430633544922e+00) (125, -3.36529433727264404297e-01) (151, -3.75423698425292968750e+01) (19, 9.90538311004638671875e+00) (118, 6.03070163726806640625e+00) (119, 2.28012061119079589844e+00) (103, 5.10946989059448242188e+00) (45, -3.09279990196228027344e+00) (7, 1.64768069982528686523e-01) (128, -4.39099836349487304688e+00) (35, 7.67345523834228515625e+00) (30, 2.27055716514587402344e+00) (25, -3.25346374511718750000e+00) (101, 1.65004634857177734375e+00) (28, -6.75544977188110351562e-01) (26, 5.09109830856323242188e+00) (21, 8.62828063964843750000e+00) (99, 7.42866706848144531250e+00) (69, 7.59161281585693359375e+00) (46, 2.28260421752929687500e+00) (91, -2.20219898223876953125e+00) (34, -6.68296277523040771484e-01) (121, -3.79026234149932861328e-01) (63, 7.09453582763671875000e+00) (55, -7.32634127140045166016e-01) (77, 9.44250583648681640625e-01) (13, -3.08073425292968750000e+00) (86, 4.14565515518188476562e+00) (120, 6.17466497421264648438e+00) (156, -1.15883243083953857422e+00) (30, -1.00895141601562500000e+03) (37, -4.45616027832031250000e+02) (128, -9.84208496093750000000e+02) (133, -9.26171447753906250000e+02) (114, -6.56327880859375000000e+02) (55, 1.03447924804687500000e+03) (26, 1.43634094238281250000e+03) (96, -8.17266540527343750000e+02) (144, 1.47687463378906250000e+03) (9, -1.14230908203125000000e+03) (86, 1.50000000000000000000e+03) (126, 1.49999914550781250000e+03) (74, 1.49890710449218750000e+03) (95, 1.11779406738281250000e+03) (20, -1.98420120239257812500e+02) (29, -4.62618865966796875000e+02) (94, -5.47349121093750000000e+02) (32, -1.13809094238281250000e+03) (80, -9.85264587402343750000e+02) (103, 1.49992004394531250000e+03) (134, -8.66594848632812500000e+02) (52, 2.21483413696289062500e+02) (149, -1.99276316165924072266e+00) (123, 8.43888061523437500000e+02) (54, 1.31962203979492187500e+02) (125, -1.26086621093750000000e+03) (39, -1.32899316406250000000e+03) (145, -1.50000000000000000000e+03) (56, 1.49997973632812500000e+03) (60, 3.81016998291015625000e+01) (154, 1.50000000000000000000e+03) (11, 1.49965002441406250000e+03) (3, 1.38804370117187500000e+03) (13, 2.64546783447265625000e+02) (16, -1.75333999633789062500e+02) (4, -1.29154345703125000000e+03) (88, 1.31999267578125000000e+03) (119, 4.57929443359375000000e+02) (102, -6.42046325683593750000e+02) (19, 1.46260314941406250000e+03) (104, -1.49906372070312500000e+03) (12, 1.21989135742187500000e+03) (65, -1.49203601074218750000e+03) (112, 6.73113403320312500000e+02) (107, 1.42143005371093750000e+02) (73, -1.49180664062500000000e+03) (21, 1.48110925292968750000e+03) (138, -1.08489906787872314453e+00) (118, 1.38367687988281250000e+03) (51, 1.06707189941406250000e+03) (141, -1.15314555168151855469e+00) (35, -1.28038464355468750000e+03) (116, 5.35542907714843750000e+02) (41, 4.05927551269531250000e+02) (1, 1.42660546875000000000e+03) (5, -1.48698144531250000000e+03) (57, -6.13020668029785156250e+01) (99, 1.49999987792968750000e+03) (70, 1.32924353027343750000e+03) (124, -1.49391430664062500000e+03) (14, -2.06341049194335937500e+02) (64, 8.73791625976562500000e+02) (24, -6.78262817382812500000e+02) (75, -3.68183959960937500000e+02) (120, 1.08426916503906250000e+03) (130, -1.09044970703125000000e+03) (136, -1.49999975585937500000e+03) (91, -1.30669372558593750000e+03) (129, 6.19706176757812500000e+02) (148, -1.82424521446228027344e+00) (152, -1.91293549537658691406e+00) (43, 1.47025585937500000000e+03) (139, -2.01305460929870605469e+00) (127, -1.47465185546875000000e+03) (36, -1.56868301391601562500e+02) (63, -1.49999987792968750000e+03) (68, -3.12701934814453125000e+02) (50, 1.49999462890625000000e+03) (66, -1.15245788574218750000e+03) (100, 1.36961999511718750000e+03) (25, -1.51590377807617187500e+02) (155, 1.50000000000000000000e+03) (143, -8.85807739257812500000e+02) (82, 1.04373168945312500000e+03) (142, 1.49999987792968750000e+03) (72, -4.59731689453125000000e+02) (121, 8.39240600585937500000e+02) (31, -1.49648803710937500000e+03) (131, -7.84745056152343750000e+02) (58, 1.49998901367187500000e+03) (117, 1.50000000000000000000e+03) (147, -1.46983134746551513672e+00) (111, 1.49786962890625000000e+03) (98, 1.40463256835937500000e+03) (92, 1.48515808105468750000e+03) (151, -1.30685877799987792969e+00) (81, -7.57946350097656250000e+02) (27, 5.52512023925781250000e+02) (47, 1.48800622558593750000e+03) (61, 1.34100854492187500000e+03) (97, 5.77352050781250000000e+02) (45, 9.51218750000000000000e+02) (93, 1.47652490234375000000e+03) (62, 1.41957653808593750000e+03) (44, 9.72826599121093750000e+02) (90, 1.99049804687500000000e+02) (59, 1.45233459472656250000e+03) (71, 9.12553100585937500000e+02) (84, 1.49833837890625000000e+03) (115, 1.01282110595703125000e+03) (156, 1.23947616577148437500e+02) (150, 1.23434967041015625000e+02) (97, 7.33535766601562500000e+00) (85, 8.47756164550781250000e+02) (23, 6.91331405639648437500e+01) (86, -1.49272888183593750000e+03) (118, -1.13150231933593750000e+03) (56, -1.49991491699218750000e+03) (12, -7.95971862792968750000e+02) (137, 1.23941947937011718750e+02) (149, 1.23590522766113281250e+02) (103, -1.49980664062500000000e+03) (73, 1.49424584960937500000e+03) (152, 1.23711845397949218750e+02) (21, -7.01019165039062500000e+02) (120, 3.28950073242187500000e+02) (4, 1.47797521972656250000e+03) (3, -1.33344531250000000000e+03) (9, 1.09781201171875000000e+03) (95, -8.65655090332031250000e+02) (144, -1.41604174804687500000e+03) (25, 1.50000000000000000000e+03) (81, 1.01780041503906250000e+03) (6, -9.21787170410156250000e+02) (41, -5.50104492187500000000e+02) (132, -1.08496337890625000000e+03) (153, 1.23114097595214843750e+02) (116, 7.46362152099609375000e+01) (65, 1.50000000000000000000e+03) (122, 9.18230285644531250000e+02) (117, 4.96444335937500000000e+02) (32, 1.24710205078125000000e+03) (88, -1.20847436523437500000e+03) (51, -1.45978408813476562500e+02) (74, -1.38900280761718750000e+03) (11, -3.81407501220703125000e+02) (107, 1.24364257812500000000e+02) (94, 1.01400329589843750000e+03) (100, -6.04973632812500000000e+02) (61, 1.49978515625000000000e+03) (104, 1.49992883300781250000e+03) (62, -1.35895690917968750000e+03) (93, -1.40530688476562500000e+03) (60, 5.57283996582031250000e+02) (24, 9.35747558593750000000e+02) (66, 1.30767761230468750000e+03) (101, 9.44944702148437500000e+02) (44, 3.58492187500000000000e+02) (30, 1.35501660156250000000e+03) (123, 1.34782669067382812500e+02) (68, 1.48174267578125000000e+03) (1, -1.39439721679687500000e+03) (39, 1.38001965332031250000e+03) (55, -2.77397552490234375000e+02) (14, 1.15909887695312500000e+03) (76, -7.12990478515625000000e+02) (105, 9.88456542968750000000e+02) (127, 1.48669384765625000000e+03) (46, 1.41049572753906250000e+03) (75, 1.29574316406250000000e+03) (99, -1.49999291992187500000e+03) (38, 1.49917150878906250000e+03) (19, -1.44688659667968750000e+03) (70, -2.88292785644531250000e+02) (143, 1.45520886230468750000e+03) (119, 8.27670440673828125000e+01) (8, -1.48482238769531250000e+03) (35, 1.49784973144531250000e+03) (126, -1.38784875488281250000e+03) (17, 1.49999255371093750000e+03) (69, 1.49996533203125000000e+03) (36, 8.28550537109375000000e+02) (136, 1.50000000000000000000e+03) (90, 3.57018341064453125000e+02) (133, 1.48455871582031250000e+03) (29, 1.03327844238281250000e+03) (83, 3.38894836425781250000e+02) (67, 1.15077282714843750000e+03) (79, 1.19633508300781250000e+03) (89, -1.49674499511718750000e+03) (34, 1.50000000000000000000e+03) (16, 5.30407104492187500000e+02) (108, -1.10149108886718750000e+03) (2, 1.18787145996093750000e+03) (82, -8.43793395996093750000e+02) (10, 4.46315536499023437500e+01) (18, 1.49999768066406250000e+03) (50, -1.49924536132812500000e+03) (20, 4.82078155517578125000e+02) (140, 1.23384719848632812500e+02) (111, -1.49655480957031250000e+03) (71, -5.42115112304687500000e+02) (155, 1.50000000000000000000e+03) (77, 1.34573059082031250000e+03) (28, 7.69767700195312500000e+02) (78, -9.58293823242187500000e+02) (109, -8.22268981933593750000e+02) (53, -1.40172485351562500000e+02) (48, 1.50000000000000000000e+03) (52, 1.25702600097656250000e+03) (142, -1.49998242187500000000e+03) (92, -6.52880981445312500000e+02) (40, -1.47942089843750000000e+03) (58, -1.49990039062500000000e+03) (63, 1.50000000000000000000e+03) (42, 1.49683813476562500000e+03) (7, 1.49878442382812500000e+03) (31, 1.49812109375000000000e+03) (54, 1.36835098266601562500e+02) (106, 1.48041772460937500000e+03) (156, 6.66602373123168945312e-01) (73, -1.30064624023437500000e+03) (94, 1.47193603515625000000e+03) (32, -1.41702539062500000000e+03) (55, 1.49997290039062500000e+03) (23, -1.00399493408203125000e+03) (123, 5.56119201660156250000e+02) (138, 2.04567503929138183594e+00) (154, 1.50000000000000000000e+03) (48, -8.19312927246093750000e+02) (62, 5.32911437988281250000e+02) (113, -1.47567785644531250000e+03) (54, 1.11194628906250000000e+03) (6, 1.49936242675781250000e+03) (103, 1.49878552246093750000e+03) (121, 2.96513641357421875000e+02) (21, 1.42916198730468750000e+03) (53, -1.46930944824218750000e+03) (126, 1.49999841308593750000e+03) (61, 1.49956213378906250000e+03) (140, 2.27381992340087890625e+00) (90, 6.73706970214843750000e+01) (1, 1.07884069824218750000e+03) (115, -1.48379736328125000000e+03) (150, 1.72722280025482177734e+00) (114, 1.32785913085937500000e+03) (31, -2.36792999267578125000e+02) (45, 1.48765771484375000000e+03) (151, 1.89579606056213378906e+00) (106, -5.37950866699218750000e+02) (97, 3.89312286376953125000e+02) (91, -1.29974597167968750000e+03) (16, -2.62178649902343750000e+02) (57, 1.49883898925781250000e+03) (34, 3.72139038085937500000e+02) (136, -1.49974633789062500000e+03) (18, -1.48284130859375000000e+03) (13, 4.00218780517578125000e+02) (117, 1.50000000000000000000e+03) (27, -2.19900846481323242188e+00) (107, 1.39051562500000000000e+03) (98, 7.10037475585937500000e+02) (58, 1.49999877929687500000e+03) (125, 1.63031799316406250000e+02) (39, -1.48287854003906250000e+03) (145, -9.35064758300781250000e+02) (142, 1.49936523437500000000e+03) (71, 8.47756591796875000000e+02) (105, 5.79045288085937500000e+02) (8, 1.49397485351562500000e+03) (76, 7.98160156250000000000e+02) (14, 2.56011413574218750000e+02) (64, -1.15952133178710937500e+02) (2, -1.47664868164062500000e+03) (60, -1.48747167968750000000e+03) (77, -1.28171740722656250000e+03) (43, -3.06617980957031250000e+02) (130, 1.03817407226562500000e+03) (81, -5.23550781250000000000e+02) (40, -6.39070861816406250000e+02) (20, -1.37726806640625000000e+03) (66, -1.29164807128906250000e+03) (63, -9.71447082519531250000e+02) (139, 1.54802691936492919922e+00) (89, 1.48567858886718750000e+03) (152, 1.66397845745086669922e+00) (155, 1.50000000000000000000e+03) (38, 1.91701522827148437500e+02) (24, -1.31586010742187500000e+03) (29, -6.92093444824218750000e+02) (4, -1.70853805541992187500e+02) (51, 1.04243176269531250000e+03) (30, -1.40410388183593750000e+03) (17, -1.49884643554687500000e+03) (79, 8.88644653320312500000e+02) (96, -9.71743408203125000000e+02) (93, 1.49970361328125000000e+03) (65, -2.28837677001953125000e+02) (36, 1.39431616210937500000e+03) (137, 2.04779601097106933594e+00) (11, -2.38691543579101562500e+02) (15, -1.49637512207031250000e+03) (111, -2.34102188110351562500e+02) (68, -3.80067352294921875000e+02) (108, 9.25264587402343750000e+02) (133, -6.71464721679687500000e+02) (74, 1.26912683105468750000e+03) (12, 1.22431140136718750000e+03) (80, -1.02460400390625000000e+03) (116, 1.20838513183593750000e+03) (5, -1.49747143554687500000e+03) (149, 1.97456121444702148438e+00) (47, 1.14847094726562500000e+03) (85, -1.09030102539062500000e+03) (56, -2.51878005981445312500e+02) (33, 8.43571594238281250000e+02) (128, 5.09507232666015625000e+02) (148, 1.49269390106201171875e+00) (35, -7.14414167404174804688e+00) (83, 4.66906219482421875000e+02) (129, 1.49435095214843750000e+03) (146, 8.00355102539062500000e+02) (42, -1.33545166015625000000e+03) (75, 2.73918853759765625000e+02) (49, -1.47938916015625000000e+03) (22, -3.77257843017578125000e+02) (59, 1.45233459472656250000e+03) (88, 1.49413195800781250000e+03) (144, 1.13601074218750000000e+03) (102, -1.55819869995117187500e+02) (156, 9.84381790161132812500e+01) (145, 1.50000000000000000000e+03) (131, 1.02640295410156250000e+03) (71, -5.42124084472656250000e+02) (68, 1.48174267578125000000e+03) (53, 1.50000000000000000000e+03) (32, 1.24712475585937500000e+03) (51, -5.47884277343750000000e+02) (110, -1.47540002441406250000e+03) (49, 1.14609997558593750000e+03) (148, 9.93245086669921875000e+01) (4, 1.47797521972656250000e+03) (5, 1.49259570312500000000e+03) (65, 1.50000000000000000000e+03) (46, 1.41044946289062500000e+03) (97, 7.38247680664062500000e+00) (1, -1.39445214843750000000e+03) (15, -5.95799682617187500000e+02) (98, -3.59939788818359375000e+02) (55, -2.77397552490234375000e+02) (87, 1.48891369628906250000e+03) (44, 3.58177185058593750000e+02) (111, -1.49655480957031250000e+03) (40, -1.47942089843750000000e+03) (37, 1.18139282226562500000e+03) (153, 9.97623596191406250000e+01) (85, 8.47789001464843750000e+02) (151, 9.92779617309570312500e+01) (117, 4.78855438232421875000e+02) (118, -1.13158679199218750000e+03) (30, 1.35501660156250000000e+03) (64, 4.88750732421875000000e+02) (119, 8.27737274169921875000e+01) (23, 6.91331405639648437500e+01) (136, 1.50000000000000000000e+03) (43, -1.30056005859375000000e+03) (29, 1.03324853515625000000e+03) (125, 1.34193566894531250000e+03) (76, -7.43813476562500000000e+02) (21, -7.02456848144531250000e+02) (91, 1.48904528808593750000e+03) (137, 9.90997085571289062500e+01) (82, -7.94958068847656250000e+02) (26, -1.36375378417968750000e+03) (62, -1.35893676757812500000e+03) (127, 1.48669384765625000000e+03) (56, -1.49991491699218750000e+03) (132, -1.03489770507812500000e+03) (9, 1.09782250976562500000e+03) (72, 7.50631958007812500000e+02) (114, 1.22823425292968750000e+03) (42, 1.49683813476562500000e+03) (81, 1.01775170898437500000e+03) (59, -9.51804504394531250000e+02) (36, 8.45941040039062500000e+02) (18, 1.49999768066406250000e+03) (134, 1.28590478515625000000e+03) (107, 1.24371940612792968750e+02) (24, 9.47009033203125000000e+02) (48, 1.50000000000000000000e+03) (155, 1.50000000000000000000e+03) (103, -1.49980664062500000000e+03) (86, -1.49272888183593750000e+03) (75, 1.29574572753906250000e+03) (50, -1.49924536132812500000e+03) (113, 1.44900744628906250000e+03) (39, 1.38001965332031250000e+03) (112, 8.21323669433593750000e+02) (106, 1.48041772460937500000e+03) (108, -1.10170141601562500000e+03) (70, -2.88599365234375000000e+02) (94, 1.01400329589843750000e+03) (84, -1.34200610351562500000e+03) (13, 8.73756225585937500000e+02) (150, 9.95003585815429687500e+01) (133, 1.48455871582031250000e+03) (28, 7.69793579101562500000e+02) (130, 1.40291638183593750000e+03) (83, 3.38906494140625000000e+02) (34, 1.50000000000000000000e+03) (67, 1.15071887207031250000e+03) (52, 1.31808679199218750000e+03) (135, -1.49987817382812500000e+03) (100, -6.05797729492187500000e+02) (10, 4.46678390502929687500e+01) (14, 1.15874438476562500000e+03) (19, -1.44688659667968750000e+03) (146, 1.48589758300781250000e+03) (101, 9.44556884765625000000e+02) (80, 1.30677307128906250000e+03) (147, 9.96964111328125000000e+01) (2, 1.18784667968750000000e+03) (104, 1.49992883300781250000e+03) (78, -9.58627685546875000000e+02) (33, 1.27149401855468750000e+03) (149, 9.95902786254882812500e+01) (6, -1.30542541503906250000e+03) (90, 3.56696319580078125000e+02) (116, 7.35248947143554687500e+01) (93, -1.40531591796875000000e+03) (11, -3.81393829345703125000e+02) (3, -1.33344531250000000000e+03) (63, 1.50000000000000000000e+03) (8, -1.48487500000000000000e+03) (88, -1.20847436523437500000e+03) (128, 1.48931408691406250000e+03) (152, 9.90285491943359375000e+01) (58, -1.49990039062500000000e+03) (25, 1.50000000000000000000e+03) (95, -8.65663024902343750000e+02) (156, 1.23336357116699218750e+02) (44, 3.58191070556640625000e+02) (74, -1.43915209960937500000e+03) (121, 8.79509582519531250000e+02) (50, -1.49924536132812500000e+03) (68, 1.48174267578125000000e+03) (60, 5.53634704589843750000e+02) (35, 1.49784973144531250000e+03) (83, 3.38906494140625000000e+02) (17, 1.49094042968750000000e+03) (18, 