FANN_FLO_2.1
num_layers=3
learning_rate=0.200000
connection_rate=1.000000
network_type=0
learning_momentum=0.000500
training_algorithm=0
train_error_function=1
train_stop_function=1
cascade_output_change_fraction=0.010000
quickprop_decay=-0.000100
quickprop_mu=1.750000
rprop_increase_factor=1.200000
rprop_decrease_factor=0.500000
rprop_delta_min=0.000000
rprop_delta_max=50.000000
rprop_delta_zero=0.100000
cascade_output_stagnation_epochs=12
cascade_candidate_change_fraction=0.010000
cascade_candidate_stagnation_epochs=12
cascade_max_out_epochs=150
cascade_min_out_epochs=1
cascade_max_cand_epochs=150
cascade_min_cand_epochs=1
cascade_num_candidate_groups=2
bit_fail_limit=2.99999999999999988898e-02
cascade_candidate_limit=1.00000000000000000000e+03
cascade_weight_multiplier=4.00000000000000022204e-01
cascade_activation_functions_count=10
cascade_activation_functions=3 5 7 8 10 11 14 15 16 17 
cascade_activation_steepnesses_count=4
cascade_activation_steepnesses=2.50000000000000000000e-01 5.00000000000000000000e-01 7.50000000000000000000e-01 1.00000000000000000000e+00 
layer_sizes=61 21 2 
scale_included=0
neurons (num_inputs, activation_function, activation_steepness)=(0, 0, 0.00000000000000000000e+00) (0, 0, 0.00000000000000000000e+00) (0, 0, 0.00000000000000000000e+00) (0, 0, 0.00000000000000000000e+00) (0, 0, 0.00000000000000000000e+00) (0, 0, 0.00000000000000000000e+00) (0, 0, 0.00000000000000000000e+00) (0, 0, 0.00000000000000000000e+00) (0, 0, 0.00000000000000000000e+00) (0, 0, 0.00000000000000000000e+00) (0, 0, 0.00000000000000000000e+00) (0, 0, 0.00000000000000000000e+00) (0, 0, 0.00000000000000000000e+00) (0, 0, 0.00000000000000000000e+00) (0, 0, 0.00000000000000000000e+00) (0, 0, 0.00000000000000000000e+00) (0, 0, 0.00000000000000000000e+00) (0, 0, 0.00000000000000000000e+00) (0, 0, 0.00000000000000000000e+00) (0, 0, 0.00000000000000000000e+00) (0, 0, 0.00000000000000000000e+00) (0, 0, 0.00000000000000000000e+00) (0, 0, 0.00000000000000000000e+00) (0, 0, 0.00000000000000000000e+00) (0, 0, 0.00000000000000000000e+00) (0, 0, 0.00000000000000000000e+00) (0, 0, 0.00000000000000000000e+00) (0, 0, 0.00000000000000000000e+00) (0, 0, 0.00000000000000000000e+00) (0, 0, 0.00000000000000000000e+00) (0, 0, 0.00000000000000000000e+00) (0, 0, 0.00000000000000000000e+00) (0, 0, 0.00000000000000000000e+00) (0, 0, 0.00000000000000000000e+00) (0, 0, 0.00000000000000000000e+00) (0, 0, 0.00000000000000000000e+00) (0, 0, 0.00000000000000000000e+00) (0, 0, 0.00000000000000000000e+00) (0, 0, 0.00000000000000000000e+00) (0, 0, 0.00000000000000000000e+00) (0, 0, 0.00000000000000000000e+00) (0, 0, 0.00000000000000000000e+00) (0, 0, 0.00000000000000000000e+00) (0, 0, 0.00000000000000000000e+00) (0, 0, 0.00000000000000000000e+00) (0, 0, 0.00000000000000000000e+00) (0, 0, 0.00000000000000000000e+00) (0, 0, 0.00000000000000000000e+00) (0, 0, 0.00000000000000000000e+00) (0, 0, 0.00000000000000000000e+00) (0, 0, 0.00000000000000000000e+00) (0, 0, 0.00000000000000000000e+00) (0, 0, 0.00000000000000000000e+00) (0, 0, 0.00000000000000000000e+00) (0, 0, 0.00000000000000000000e+00) (0, 0, 0.00000000000000000000e+00) (0, 0, 0.00000000000000000000e+00) (0, 0, 0.00000000000000000000e+00) (0, 0, 0.00000000000000000000e+00) (0, 0, 0.00000000000000000000e+00) (0, 0, 0.00000000000000000000e+00) (61, 5, 5.00000000000000000000e-01) (61, 5, 5.00000000000000000000e-01) (61, 5, 5.00000000000000000000e-01) (61, 5, 5.00000000000000000000e-01) (61, 5, 5.00000000000000000000e-01) (61, 5, 5.00000000000000000000e-01) (61, 5, 5.00000000000000000000e-01) (61, 5, 5.00000000000000000000e-01) (61, 5, 5.00000000000000000000e-01) (61, 5, 5.00000000000000000000e-01) (61, 5, 5.00000000000000000000e-01) (61, 5, 5.00000000000000000000e-01) (61, 5, 5.00000000000000000000e-01) (61, 5, 5.00000000000000000000e-01) (61, 5, 5.00000000000000000000e-01) (61, 5, 5.00000000000000000000e-01) (61, 5, 5.00000000000000000000e-01) (61, 5, 5.00000000000000000000e-01) (61, 5, 5.00000000000000000000e-01) (61, 5, 5.00000000000000000000e-01) (0, 5, 5.00000000000000000000e-01) (21, 5, 5.00000000000000000000e-01) (0, 5, 5.00000000000000000000e-01) 
connections (connected_to_neuron, weight)=(0, 5.82572329360980023516e-01) (1, 8.80543852691841433256e-01) (2, 1.33112025268241462861e+00) (3, 1.17509464132127017244e+00) (4, 1.20988868718426090254e+00) (5, 2.81791292480270627596e-01) (6, 4.47888588064788817356e-01) (7, -5.98705363167245374623e-02) (8, 2.34942201888178381353e-01) (9, -7.87580666054537720244e-02) (10, 5.52179955447183123951e-01) (11, 2.31349871888127361919e-01) (12, -2.54590515648930704184e-01) (13, -2.10882983911794774645e-01) (14, 9.17494567895246637690e-01) (15, -2.29279125649195260339e-02) (16, 8.08697094087314383160e-01) (17, 1.05714732628287996774e-01) (18, -7.09541444975490986913e-01) (19, -3.00842037552345564766e-01) (20, 2.78091187696294539489e-01) (21, 1.03872239637687949210e-01) (22, 2.99403488426914388132e-01) (23, 1.73618506623415025381e+00) (24, 3.38008768054690877936e-01) (25, -5.11919052261559981432e-01) (26, -8.12971594811838116357e-01) (27, -4.45780593762338750441e-01) (28, -4.01687500577176448413e-01) (29, 8.31063391960692232630e-01) (30, -1.42330320925853426317e+00) (31, 2.12357763559546608434e-01) (32, 2.73222929742108766593e-01) (33, -3.12316704101577136132e-01) (34, 1.61152181909134495363e-01) (35, -1.59517179189648672377e+00) (36, -1.79297515930840645204e+00) (37, 6.72087679631253598345e-01) (38, 8.67836110517728132052e-01) (39, -7.69147997316970921666e-01) (40, -3.07652021192433705599e-02) (41, 5.30234125454288829360e-01) (42, 1.25512139432477132228e-01) (43, 3.51085969388295171534e-01) (44, 1.03762119929871698965e+00) (45, 7.57310764735666941405e-01) (46, 5.14727519015771850519e-01) (47, 9.57965460768683496617e-01) (48, 9.32487393323322311112e-01) (49, -1.55176611034531203304e-01) (50, 1.83832462129358276126e-01) (51, 4.19885713411039945830e-02) (52, 2.25689154851704210092e-01) (53, 2.00653563252232158831e-01) (54, 2.26670648112284392472e-02) (55, 2.82849654660334536016e-02) (56, -1.12695815921107542201e-01) (57, 1.07044274134047240343e-01) (58, 7.77864985482856347021e-02) (59, 5.64909654955874432347e-02) (60, -6.57103975616040614227e-01) (0, 9.08390247870184852630e-01) (1, 1.36068779559024299886e+00) (2, 2.64479898845017746822e+00) (3, 2.18932246245057093859e+00) (4, 1.91064869012754612321e+00) (5, 1.50201198060572554960e-01) (6, 3.16764358664338885330e-01) (7, -7.32268425152997393113e-01) (8, 1.07947509935260987923e+00) (9, 1.90289716724562607553e+00) (10, 2.94433957826953074388e+00) (11, 1.61545429607447910136e+00) (12, 4.58020241207638179048e-01) (13, -4.85088705902587347119e-01) (14, -1.91645808052291755086e-02) (15, -3.13827205966293609762e+00) (16, -1.64299550332290755783e+00) (17, -2.09782485763610937468e+00) (18, 3.05754486559905391818e-01) (19, 3.46209644572782382355e+00) (20, 3.87940509871091565586e+00) (21, 8.21262151443872046030e-01) (22, 6.14153299223167636889e-01) (23, 3.28526812196928830190e+00) (24, 1.72389874305875490101e-01) (25, 1.03160047271961263782e+00) (26, -6.72047502326103118192e-03) (27, -2.10748411978366201325e+00) (28, -2.27791598628127456294e+00) (29, 3.39060792852235115546e-01) (30, -4.74947593494525310831e+00) (31, -2.58257390784944140805e+00) (32, -1.36515871868141092094e+00) (33, 4.31287701906218123860e-01) (34, 1.61421311614099138865e+00) (35, -3.01677382249093062327e+00) (36, -3.15239139230991272100e+00) (37, 9.79188060815640470835e-01) (38, 9.59499376832501860157e-01) (39, -1.86747979087757931538e+00) (40, -9.67807069606420378172e-01) (41, -7.44759642365768637084e-01) (42, -9.22994180432317956608e-01) (43, 1.24682385718785829209e-01) (44, 1.89801204510757126620e+00) (45, 1.45537862194896483459e+00) (46, 9.10415997975526525288e-01) (47, 1.92108838835669670786e+00) (48, 1.70838312412537240981e+00) (49, -3.13082649054409078992e-01) (50, 1.94079611398101814501e-01) (51, 2.94385371113917881924e-01) (52, 1.77612371308384558999e-01) (53, 3.12354235295151161367e-01) (54, -1.32123329325480265428e-01) (55, -3.15694053540180458173e-02) (56, -2.80755853122723261772e-02) (57, 1.06145921543128199382e-01) (58, 2.37165336743578619716e-01) (59, -3.94092092898353160701e-02) (60, -1.11070633676378571764e+00) (0, 4.44292626043291394300e-01) (1, 4.85424080569702265375e-01) (2, 6.79845893302932213764e-01) (3, 6.08920364483522380539e-01) (4, 6.09108626693976806799e-01) (5, 3.24714595533799110783e-01) (6, 2.59696551324926749871e-01) (7, -6.36209379369211514010e-01) (8, -2.18900928655345355933e-01) (9, -2.11078311948033281453e-01) (10, -4.43567643527474242404e-01) (11, 1.94101031013741501252e-02) (12, -3.44453650398872102123e-01) (13, 9.89221576812729375128e-02) (14, 6.90754924432461892003e-01) (15, -6.85642737352588627076e-02) (16, 1.64133929076617696152e-01) (17, 2.43567085242746894647e-01) (18, -4.03573676620166410522e-01) (19, -5.11743009208505461594e-01) (20, 8.48503939874488827266e-02) (21, -3.51354761138987850555e-02) (22, -3.79838366700458396341e-01) (23, 6.95992732216648701815e-01) (24, 6.42525721692837281651e-01) (25, -7.00372165268473234612e-01) (26, -6.29545939655697384119e-01) (27, 1.23303334581213994148e-01) (28, 4.86072704309608860651e-01) (29, 3.55394923987597366466e-01) (30, -8.91225676001231703616e-01) (31, 5.24276947287863337444e-01) (32, 2.43767273930295652606e-01) (33, 6.39365565631022387399e-03) (34, 6.72553427853804786096e-01) (35, 5.23044517011042667254e-02) (36, -3.70193009501071979006e-01) (37, -1.50337957889400269940e-01) (38, 1.24072597757729760626e-01) (39, -8.76557867070786533858e-01) (40, 7.27920671039955224924e-02) (41, 1.41987860154073247676e-01) (42, -2.26756116641333160810e-01) (43, -2.13100049740701513734e-01) (44, -2.15349243934007422707e-01) (45, 2.81192611492869393164e-01) (46, 4.16676897857517380963e-01) (47, 9.40485724197853367734e-01) (48, 5.21091578488489304277e-01) (49, 3.99626837372817136917e-02) (50, 8.50897407492809537688e-02) (51, 1.40170181974865137864e-01) (52, 9.29324141016819177397e-02) (53, 8.93811446821920624339e-02) (54, -5.72063368896648175022e-02) (55, -1.10481651630620347770e-02) (56, 2.09536065045433754495e-02) (57, 3.17277094253398742052e-02) (58, 1.60673891125473422559e-01) (59, 7.80965507417078347308e-02) (60, -1.49462665068630391058e-02) (0, -4.02428749525169549006e-01) (1, -4.39921464190653588311e-01) (2, -5.55118525679129226624e-01) (3, -4.43398490981404935773e-01) (4, -1.66534229411016476696e-01) (5, -6.05344266690061444391e-02) (6, -1.57264011987328124198e-02) (7, 7.65698927593463807284e-01) (8, 4.92196569656267512993e-01) (9, 7.23703365193702818914e-01) (10, 5.45871859741190901261e-01) (11, 4.42965599689685241014e-01) (12, 4.09457593023249466491e-01) (13, 5.68980053821596040708e-02) (14, -6.83699598483059500786e-01) (15, 1.36804986232886255371e-01) (16, -1.03871147340737934872e-01) (17, -3.30259141585137250274e-01) (18, 4.08845867140903707071e-01) (19, 5.46471669817011784787e-01) (20, -4.88447969736693389520e-03) (21, 1.84574393734399100353e-02) (22, 2.09327408368661260774e-01) (23, -8.48099699677893448246e-01) (24, -8.03035374390011824630e-01) (25, 4.75218314327172930422e-01) (26, 7.94230282347514138230e-01) (27, -3.67045295107999505757e-02) (28, -9.55768270475832903976e-01) (29, -1.05442457782652221354e+00) (30, 1.48669982493833896520e-01) (31, -8.47748112279194332430e-01) (32, -3.93217524963192510690e-01) (33, -8.84536420934495110080e-02) (34, -7.53669342605349013020e-01) (35, -2.65298860493590082932e-01) (36, -6.31071854767780437978e-02) (37, -1.74706299400096964902e-01) (38, -1.69319977190259124411e-01) (39, 3.95526009770091890871e-01) (40, -5.21171239569498193078e-02) (41, -5.92886419758239413547e-01) (42, -1.76395764106654723280e-01) (43, -1.72677336251550683777e-01) (44, -1.34954492288578392634e-01) (45, -2.65501868556444753366e-01) (46, -4.30665724917302816799e-01) (47, -7.81005843200843874463e-01) (48, -5.47308113167147336497e-01) (49, 3.76620438049830030813e-02) (50, -6.45965736840343474068e-02) (51, -1.08799842018317355352e-01) (52, -1.74377878405680974971e-01) (53, -1.28366689457190180645e-01) (54, 8.60124809602567791389e-02) (55, -1.03613525913413231927e-01) (56, -7.65816246970708602859e-02) (57, -4.58541574393430198531e-03) (58, -4.08169581666340750004e-02) (59, -3.71705724811848894906e-02) (60, -2.05197563158445728249e-01) (0, -5.03851324789797661019e-01) (1, -7.40806523349099244058e-01) (2, -1.07176250358490610104e+00) (3, -1.07458486149016430033e+00) (4, -9.79411296152668309212e-01) (5, -5.45721875075503293218e-01) (6, -6.04951925331986828382e-01) (7, 8.08924600407013083547e-01) (8, 2.19261637368135975379e-01) (9, 1.05149867197228130689e-01) (10, 1.63442352429365833633e-01) (11, -1.81666106633585872077e-01) (12, 4.72156084186665714331e-01) (13, -1.19775139605487024319e-01) (14, -1.11317707045744151984e+00) (15, -4.84266013143660259410e-02) (16, -3.06936095719160695339e-01) (17, -1.73342227498722134538e-01) (18, 6.99764705723909585799e-01) (19, 7.65223883525512071913e-01) (20, -1.62564455706893096210e-02) (21, 5.38494565734660354805e-02) (22, 4.96690793206205849497e-01) (23, -9.78199273682211822845e-01) (24, -5.43631104489310068573e-01) (25, 1.02194036750384920076e+00) (26, 1.13447441101935520003e+00) (27, 1.39304704014878100171e-01) (28, -9.20314743876680940726e-03) (29, -4.33905416119482523207e-01) (30, 1.45073313260962977189e+00) (31, -6.41317157063834297759e-01) (32, -4.24225857021078456288e-01) (33, 5.88856864316452052743e-02) (34, -7.75172092737314799571e-01) (35, 4.38445774375292307568e-01) (36, 8.78767202835371241676e-01) (37, -2.56328197116510669851e-01) (38, -3.19654165297279746483e-01) (39, 9.82113790344284698364e-01) (40, -1.18371860446790256455e-02) (41, -2.24031408811064786102e-01) (42, 3.58369619526216820482e-01) (43, 1.28586529108856428838e-01) (44, -2.56073529165429136789e-01) (45, -4.41330899465096460066e-01) (46, -7.17460930001896812769e-01) (47, -1.33303136383338616255e+00) (48, -8.48367751445895934559e-01) (49, 8.71912783961477921846e-02) (50, -1.15832996032575227807e-01) (51, -1.61036042935333689741e-01) (52, -5.61727925911169739814e-02) (53, -2.00625445674466773571e-01) (54, 1.50524098111245258069e-01) (55, -1.59174092676121425871e-01) (56, -9.15029733342410944719e-02) (57, 5.67605648822799933179e-03) (58, -8.87877212207843075076e-02) (59, -8.54183428053608001518e-02) (60, 3.01658783953133835531e-01) (0, 5.38241392991684497460e-01) (1, 7.52923665525928709208e-01) (2, 1.01120065480996146334e+00) (3, 7.11444984529603363654e-01) (4, 4.13484738987968614143e-01) (5, 6.42575465694502218073e-02) (6, 2.31410305648889272345e-02) (7, -1.00938872182882533046e+00) (8, -5.90140194800059414426e-01) (9, -9.66347661313921135751e-01) (10, -5.87904915722899046315e-01) (11, -5.78917974474145502484e-01) (12, -6.76254548326233440037e-01) (13, -7.10828389198763233026e-02) (14, 9.35429557849798753999e-01) (15, -1.40590686087088079237e-01) (16, 3.15677914391988168052e-01) (17, 5.68641685240768413045e-01) (18, -4.53394055787523675427e-01) (19, -7.85859628659285935903e-01) (20, 2.12169542842719806297e-02) (21, -8.63314013322556417229e-02) (22, -2.39221295174286419094e-01) (23, 1.40571202955056273609e+00) (24, 9.96650292552614502917e-01) (25, -7.24846797868473502469e-01) (26, -1.17734242020270452045e+00) (27, -1.22003834963787208268e-01) (28, 1.05469922332906373974e+00) (29, 1.56120310713639542932e+00) (30, -5.38796165347626976327e-01) (31, 1.17888896555712130443e+00) (32, 5.16627996240110021198e-01) (33, 2.77100157325279768117e-02) (34, 1.03232580562527886947e+00) (35, -4.32329648975895985963e-02) (36, -3.54957486940117694640e-01) (37, 4.32180246699937931076e-01) (38, 6.12585681286294758685e-01) (39, -6.48086032470692519070e-01) (40, 1.37940066207345113369e-01) (41, 8.00737852949991335549e-01) (42, 2.28308486471419186392e-01) (43, 3.97121295902483295581e-01) (44, 2.78733828973691144526e-01) (45, 5.19587753564744514456e-01) (46, 6.24810387953518731052e-01) (47, 1.23431615956309492788e+00) (48, 7.62073238481482451157e-01) (49, 1.22346399666777693599e-02) (50, 1.15109560162147767093e-01) (51, 1.59250992890762027576e-01) (52, 2.43550624397523562958e-01) (53, 1.85488991163797856121e-01) (54, -5.21380505761996002057e-02) (55, 1.66499043053780465540e-01) (56, -8.46028745182410141235e-02) (57, 5.33868192946302250190e-02) (58, 1.75320677279531572657e-01) (59, 5.13705752736847154338e-02) (60, -1.38848187798066811938e-02) (0, -1.70060937341010437462e-01) (1, -4.39544308518347998094e-02) (2, -2.34916832058828156660e-01) (3, -2.29279457096432243146e-01) (4, -1.67420087322767946469e-01) (5, -1.68109748675659365080e-01) (6, 2.41366871653249034924e-02) (7, 1.91268208476048445776e-01) (8, 1.54614780628638426307e-01) (9, 2.03249670529282618070e-02) (10, 1.35455674592869973472e-01) (11, 1.21067447875198557633e-02) (12, 1.52514355406483365085e-01) (13, -5.15295278901719555620e-02) (14, -1.36725696168793042773e-01) (15, 1.35382219776516043996e-01) (16, 2.27768152760292677539e-02) (17, -1.83084936977277873416e-02) (18, 1.06143421227723189215e-01) (19, 1.86667885665916299942e-01) (20, 1.36283152554125375211e-01) (21, -2.64108354533016051469e-02) (22, 1.53934571609469383890e-01) (23, -1.04639160480307330525e-01) (24, -9.56292707126696617248e-02) (25, 1.62999123787205574265e-01) (26, 2.18055300890840936257e-01) (27, -1.08515107618333161987e-01) (28, -1.48404969774259654081e-01) (29, 6.86689796714660127819e-02) (30, 2.08748810631154579909e-01) (31, -2.01122119418384398548e-01) (32, -1.99534612380409008200e-03) (33, 9.45309845335376430775e-03) (34, -1.28863483527996924849e-01) (35, -5.83093466378387104143e-02) (36, 7.54482890343151912926e-02) (37, 4.15774435988568377698e-02) (38, 3.01897439294142796995e-02) (39, 2.52303264864632559306e-01) (40, -8.14483672479184434012e-02) (41, -3.44263073810959982501e-02) (42, 2.78483940771355048538e-02) (43, -1.35634951206447355865e-02) (44, -5.63926491437074170476e-02) (45, -5.08503677446773259298e-04) (46, -7.73155211126443642211e-02) (47, -2.27722996516564329950e-01) (48, -1.42493170588667172893e-01) (49, -5.10813673506154627968e-02) (50, -9.57143247166644395296e-02) (51, -8.25701225317333406539e-03) (52, -6.31406833171832410079e-02) (53, -8.07726259556484395274e-03) (54, -5.62468430796880455858e-02) (55, 7.75363552117642323980e-02) (56, 8.45287911763845795088e-02) (57, 5.46042678872139947144e-02) (58, -1.32230918151919785153e-01) (59, -1.13501996599328941473e-01) (60, 3.96930079879817196420e-02) (0, -8.49322498432155237325e-01) (1, -1.66014999946595231961e+00) (2, -2.01691447024304437718e+00) (3, -2.18059885898803251791e+00) (4, -2.44797820594941439865e+00) (5, -1.23839626870088892474e+00) (6, -1.35028379884594129656e+00) (7, -4.76771578999736433957e-01) (8, -1.07994665118021027084e+00) (9, -1.46541485619464162404e+00) (10, -2.15802344571254511862e+00) (11, -2.22880423900943558380e+00) (12, -9.42912835827345086059e-01) (13, 2.30136534398934861079e-01) (14, -4.69405080221612300284e-02) (15, 1.09123198231397222635e+00) (16, 3.36400134765292790906e-01) (17, -1.63556534683649057449e+00) (18, -1.12143479867779349846e+00) (19, 1.60029915868254590805e+00) (20, 4.59102995785890644065e-01) (21, -1.71711569527159912951e+00) (22, -1.50027789938970124162e+00) (23, -1.36802676036595949327e+00) (24, 1.03109232593334088079e+00) (25, 3.37155479220129450368e+00) (26, 2.37426293207803462693e+00) (27, -1.27031831437812936514e+00) (28, -2.23399892601217731070e-01) (29, -2.27451967311042846376e+00) (30, 5.81463963665126870595e-01) (31, -1.51771895881708007714e+00) (32, -4.21936291296051146915e-01) (33, 2.07647576114119258861e+00) (34, 9.20843508770773144789e-01) (35, 2.04918935987094608109e+00) (36, 1.64616976625103683674e+00) (37, -2.11903450427612760620e+00) (38, -2.91538924659803200257e+00) (39, -2.13507145943328557891e+00) (40, -3.77539749124957024762e+00) (41, -2.62123324857755468642e+00) (42, -2.03575102149681397279e+00) (43, -1.38975310941519825114e+00) (44, -6.19147027749320288947e-01) (45, -1.39001118487973085447e-01) (46, -9.74828360097509616367e-01) (47, -1.67688385101136261390e+00) (48, -1.52966947176106482509e+00) (49, 4.32881255833083733453e-01) (50, -3.82528801979989507842e-01) (51, -2.21357648775452747758e-01) (52, -3.09482797663732656090e-01) (53, -1.69614901239140553058e-01) (54, 2.43907919684237223246e-01) (55, -1.72350213937234215955e-02) (56, -1.00837930885638617229e-02) (57, -3.23373686016388481312e-02) (58, -1.25394306177368797250e-01) (59, -8.41984270033623548313e-04) (60, 4.37252652524994012140e+00) (0, -2.32360501252160317476e-01) (1, -2.89818457112671068465e-01) (2, -5.24833397220813013817e-01) (3, -4.72174352532108820846e-01) (4, -4.45181194594860996094e-01) (5, -2.26476538054632720032e-01) (6, -2.89061175673940240483e-01) (7, 5.51682663617638846532e-01) (8, 2.51602208699757801114e-01) (9, 1.25467093635520998696e-01) (10, 3.22443341806190941767e-01) (11, -7.07559173088294218745e-02) (12, 2.77332470870152669740e-01) (13, -1.87470548664629504954e-01) (14, -6.45399824519916953669e-01) (15, 4.02329634130251592716e-02) (16, 8.25370840119017817882e-02) (17, -1.97564754443427609276e-01) (18, 4.18032625416656755668e-01) (19, 5.65304958856196138051e-01) (20, 2.85197147811702966802e-02) (21, 1.75504465533975445579e-01) (22, 6.18273845151082190874e-01) (23, -3.01812613493194048520e-01) (24, -4.51684926461891678162e-01) (25, 4.57621925189499290099e-01) (26, 3.95388038985978462758e-01) (27, -2.51846518183542755764e-01) (28, -3.78467150635290516814e-01) (29, -1.69265367134854780029e-02) (30, 7.15410698952982371246e-01) (31, -3.34714161992155589953e-01) (32, -1.46252264009465893224e-01) (33, -1.02778190785075274061e-01) (34, -5.86565285533930724782e-01) (35, -2.04469546189354478560e-01) (36, 5.77773822358905939089e-02) (37, 2.06990285650356042879e-01) (38, 5.35155555532214471937e-02) (39, 5.85743887813332642089e-01) (40, -1.32849410108623472437e-01) (41, 1.61735128311527059930e-01) (42, 3.95772712504893653396e-01) (43, 3.34606790481735305587e-01) (44, 3.11178574762884019300e-01) (45, -1.49581973297646914078e-01) (46, -2.89256646219006874343e-01) (47, -7.16294033567006493968e-01) (48, -4.78142919381296271908e-01) (49, -1.65704772587824886165e-02) (50, 4.54201508387395893468e-03) (51, -8.51046494873890779775e-02) (52, 1.65619536595696115189e-02) (53, -3.09017643513518937282e-02) (54, -4.66484130786256334655e-02) (55, -3.06058129448418328455e-02) (56, -1.14697062941685107296e-01) (57, -1.03608184805972017295e-01) (58, -4.61643335164322529685e-02) (59, -1.86164697443824161960e-01) (60, -9.96972425577344611991e-02) (0, 6.39614606831279242094e-01) (1, 8.01012632806246793749e-01) (2, 1.31680389676589837400e+00) (3, 1.37328304656132482719e+00) (4, 1.19388666452766956105e+00) (5, 3.77005566269696335002e-01) (6, 4.96318792394835062165e-01) (7, -1.35174928230967966725e-01) (8, 3.54497051886870140347e-01) (9, -9.02240283099671989964e-03) (10, 5.53056050990721970173e-01) (11, 2.38281162821417591413e-01) (12, -2.30600055251672764189e-01) (13, -2.27523337079175769215e-01) (14, 8.97606978052840398519e-01) (15, 1.38816473290566372301e-01) (16, 9.40402475551088912198e-01) (17, 2.36111750159227473667e-01) (18, -6.29154363954076090160e-01) (19, -1.88355923884734488549e-01) (20, 4.17164872595637670205e-01) (21, 1.90490240095202295612e-01) (22, 4.91946840414796582319e-01) (23, 1.83663001969782002654e+00) (24, 3.43734607149747906085e-01) (25, -4.21457892231259068083e-01) (26, -1.06894378338354645308e+00) (27, -4.09674014454926960216e-01) (28, -5.25678853703684501042e-01) (29, 8.83044678871368504680e-01) (30, -1.48151811472789907143e+00) (31, 1.19488008197097650420e-01) (32, 2.47234656013835318866e-01) (33, -4.00429268911990932089e-01) (34, 4.92456236146900233619e-02) (35, -1.64243896041418380172e+00) (36, -1.93017885094712648986e+00) (37, 8.43930563699370139830e-01) (38, 8.37427205701919419312e-01) (39, -8.00414738517298163245e-01) (40, -1.06554374310160848704e-01) (41, 5.87000879576736633858e-01) (42, 1.32891540228300658599e-01) (43, 5.22793157676241793119e-01) (44, 1.12600972809770660810e+00) (45, 8.45205600278241764300e-01) (46, 7.20135575640969083366e-01) (47, 1.09900182744752594743e+00) (48, 1.00490704807957564881e+00) (49, -1.48415761025654180383e-01) (50, 9.18728936175876309544e-02) (51, 2.38687769615149841806e-01) (52, 2.03885956730099959788e-01) (53, 1.82804296176838493304e-01) (54, 1.80055669634778779675e-02) (55, 5.25761214057045012105e-02) (56, -3.09526141737460278036e-02) (57, 1.23545105807893212946e-01) (58, 4.37646915276284839691e-02) (59, -8.95219569519136032509e-02) (60, -7.55772649506944338427e-01) (0, 2.15400433926199369461e-01) (1, 3.47413038192541823168e-01) (2, 4.64990248134442119010e-01) (3, 3.74113586287750043979e-01) (4, 2.94575538046837559492e-01) (5, 3.17090505791646271039e-01) (6, 1.87914838157712982269e-01) (7, -6.25057417610919041628e-01) (8, -3.04961293565821300877e-01) (9, -4.08923603152717252129e-01) (10, -3.77301506048860146869e-01) (11, -1.44296371128070477496e-01) (12, -3.09470746356301840141e-01) (13, 1.86047599912534417088e-01) (14, 5.60426800024465654460e-01) (15, -1.22832151232546191166e-01) (16, 3.50848263245011823819e-02) (17, 2.71872471525626990818e-01) (18, -3.89914887709897184376e-01) (19, -3.74555087092641791902e-01) (20, 8.72494260927842713027e-02) (21, -4.43836474345245535211e-02) (22, -2.91389379155625738438e-01) (23, 5.89459053639718955075e-01) (24, 5.70059191851822633090e-01) (25, -4.37093028681471151842e-01) (26, -4.57681161732910846140e-01) (27, 2.95276468554645843412e-01) (28, 6.63670408632971664531e-01) (29, 5.70999452602419022007e-01) (30, -5.60926837178521320304e-01) (31, 5.37903295669363123999e-01) (32, 1.57183097428192142253e-01) (33, 4.31615210845206070944e-02) (34, 6.93116161801065722159e-01) (35, 2.68410446142468062103e-01) (36, -1.53186513319098216446e-01) (37, -1.89433578469079016982e-01) (38, 2.72705532973647468697e-02) (39, -6.49447727374050320925e-01) (40, 2.86088111983070249311e-02) (41, 8.16775852999167967239e-02) (42, -1.97140017981627807542e-01) (43, -2.20958758233965157913e-01) (44, -3.11627993639804201642e-01) (45, 1.09468980271883564725e-01) (46, 2.43310492294429081550e-01) (47, 7.55940700676357102417e-01) (48, 4.06377577355817198868e-01) (49, -6.81159115902979367396e-02) (50, 1.56208039196920001057e-01) (51, 1.38843813872131065235e-02) (52, 1.08705594093203239403e-01) (53, 1.28398165223330112950e-01) (54, 2.07956658335983063379e-02) (55, 8.69545647337311572445e-02) (56, 1.28149720729591742874e-01) (57, 6.44489505540182250343e-02) (58, 1.36170243227456022606e-01) (59, 1.10963704179777938874e-01) (60, 1.22492059538681904995e-01) (0, 5.74364705245936080225e-01) (1, 1.06118387221131293963e+00) (2, 1.83576318854744569009e+00) (3, 1.75083120004436287864e+00) (4, 2.14921173805939913493e+00) (5, 8.51868588647940905290e-01) (6, 7.15871490469525917355e-01) (7, -6.81961081424138026996e-01) (8, 1.05860018985106729694e+00) (9, 2.18966454804065602247e+00) (10, 2.32800543371584378605e+00) (11, 2.37774614702197695237e+00) (12, 5.94109027934268896232e-01) (13, -4.39327020332638817912e-01) (14, 7.61529374339281139861e-01) (15, -1.63257609618585902700e-01) (16, -8.83569579271599875314e-02) (17, -3.86554915470413651413e-01) (18, 1.87408481642665636357e+00) (19, 6.32605386802413738323e-01) (20, 4.87753168069439912991e-01) (21, 1.29461879145429636928e+00) (22, -3.19725398761944223924e-01) (23, 3.90231077503056855704e-01) (24, -6.02751475754110588312e-01) (25, -7.31021019834948604377e-01) (26, 6.63369678277373697739e-01) (27, 4.67958029045510925936e-01) (28, -1.28281058826112759341e+00) (29, 8.33310174249633911492e-02) (30, -1.97611770622582771928e+00) (31, 1.83335701348713575598e-01) (32, -8.37892216368767761558e-01) (33, -7.52800905224124239368e-01) (34, -9.00771710723242025054e-01) (35, -2.42150826388969075964e+00) (36, -1.77895942883816299274e-01) (37, 1.72491287482594701785e+00) (38, 1.96442841607114404567e+00) (39, 1.28011077279123974826e+00) (40, 2.32381793265158043127e+00) (41, 8.92766780303987483869e-01) (42, -3.50536430357980821615e-01) (43, 2.98169936879407515562e-01) (44, 1.66997704920313760901e+00) (45, 1.51229241502893652083e+00) (46, 1.45858957869048833089e+00) (47, 2.05611204728703000910e+00) (48, 1.50184125753677744086e+00) (49, -2.22681082195668011980e-01) (50, 1.39481982763888068266e-01) (51, 1.79052582825473954875e-01) (52, 5.67662858201236769640e-02) (53, 2.92781201476335906086e-01) (54, -2.01362698117826567634e-02) (55, -8.01884334153687844404e-02) (56, -6.34452397107938825815e-02) (57, 3.82145965107676954808e-02) (58, 1.24566507984192498260e-01) (59, 1.51198581203515793059e-02) (60, -2.87137547297876905006e+00) (0, -3.74148767797143178004e-01) (1, -1.98140828678448377431e+00) (2, -2.33876033600539789958e+00) (3, -2.96221113784089729037e+00) (4, -3.21004595266318926150e+00) (5, -5.91363603538324733577e-01) (6, 1.07312516921710776607e+00) (7, 2.96423205962637315025e+00) (8, -1.84537574740529941586e+00) (9, -3.15255307173544530031e+00) (10, -2.99313702557618999123e+00) (11, -3.75053675369481620550e+00) (12, -6.00630783111879118508e-01) (13, 2.45970474795534604917e-01) (14, 1.99534903114175943273e+00) (15, 3.56525604960811737243e+00) (16, 1.57961061734793051237e+00) (17, 2.04550025018531611565e+00) (18, -2.88461941007550848326e-01) (19, 3.46362265058359897196e+00) (20, 1.17697047398012033526e+00) (21, -2.10967836635497807407e+00) (22, 1.34329862648318454355e+00) (23, 4.57478067923234199554e-01) (24, -4.60940934777960276136e-01) (25, -2.91276078754673095617e+00) (26, -3.10952406317773455413e+00) (27, -2.59056544037132807645e+00) (28, -1.73093647607690859225e+00) (29, -1.43224222921093380378e+00) (30, 1.89731243726371179292e+00) (31, -2.13188550655768782605e+00) (32, 6.05270060798606471253e-02) (33, 1.59117688129408452191e+00) (34, 1.54039358943712123562e+00) (35, -4.80004015735062475323e-02) (36, -9.68433766876977242255e-01) (37, 3.01151359039640792795e-03) (38, -4.73921893130394122906e-01) (39, 5.92273591423775225273e-01) (40, -2.10590745267941548136e+00) (41, 2.72124270991216477000e+00) (42, 2.18666678348183030067e+00) (43, -3.48390386729023893153e-01) (44, -2.30277372048391670845e+00) (45, -2.34635674332813648491e+00) (46, -2.00306594294902584608e+00) (47, -2.98012799940349237815e+00) (48, -2.92169343143261750484e+00) (49, 3.70446553544685530657e-01) (50, -4.66592750646103948675e-01) (51, -3.41823541259282326354e-01) (52, -8.13820386874063439464e-02) (53, -1.69779366605418369218e-01) (54, 3.02176174103469696863e-01) (55, 1.09921429693952230067e-01) (56, 1.67241348381261756284e-01) (57, 8.01560625298662482452e-02) (58, -1.94666854009047457508e-01) (59, -2.00271165719382387982e-01) (60, 6.58888098595937332647e+00) (0, 8.35071470157341289031e-01) (1, 9.41957599743467599573e-01) (2, 1.65159686821662954337e+00) (3, 1.85098778206592173845e+00) (4, 1.72768330947300285949e+00) (5, 6.06038159941397536201e-01) (6, 9.34387084287435665253e-01) (7, -4.87375699761798883425e-02) (8, 7.49399142239520088538e-01) (9, 7.16431346145172898154e-01) (10, 1.06131660867569865836e+00) (11, 7.68723492085662707396e-01) (12, -1.19870088796524328772e-02) (13, 1.04842439747230509184e-01) (14, 1.44785383416133139889e+00) (15, 8.74530512237535889719e-02) (16, 8.50101853378311456133e-01) (17, -1.61329630802390516786e-01) (18, -8.22346424772356088262e-01) (19, -3.85174231979604986265e-01) (20, 4.37107181631657515375e-01) (21, 4.24492424816962157785e-02) (22, 3.09905851286813582846e-01) (23, 2.23071216866091681652e+00) (24, 7.45460604908231960763e-01) (25, -2.80136265726324329428e-01) (26, -3.86284074184125303386e-01) (27, 1.45027532109172158092e-01) (28, -7.28220901276948828773e-01) (29, 4.43568237126764353118e-01) (30, -2.26713689319767874863e+00) (31, 3.18723977621928819537e-02) (32, 2.86522724670614514775e-01) (33, -2.94493112886329067024e-01) (34, 2.47638765297357621442e-01) (35, -1.65974634536720411226e+00) (36, -1.97251065533631475546e+00) (37, 9.02549309587665660182e-01) (38, 1.06306776046598927543e+00) (39, -1.09000668294233427069e+00) (40, -6.39494880015632899406e-02) (41, 2.74908288427395952613e-01) (42, -1.26195181685909346703e-01) (43, 1.71225562117814256169e-01) (44, 8.56565314085606210881e-01) (45, 8.84422826784301285841e-01) (46, 6.14062888500781833834e-01) (47, 1.47433953337245626791e+00) (48, 1.10600892940950878973e+00) (49, -2.23154588167960715728e-01) (50, 1.03989327552400784294e-01) (51, 1.26535392046242506359e-01) (52, 2.25888915528576483815e-01) (53, 2.78979103084388113665e-01) (54, -1.52572766317522146018e-01) (55, 5.12034923339214562144e-02) (56, 3.60471201100096699799e-02) (57, -3.11916417807009856145e-02) (58, 9.82549883060250262012e-02) (59, 6.85406030297995433331e-02) (60, -4.73838110782346555450e-01) (0, -4.09364106664092397558e-01) (1, -6.50883056851436436752e-01) (2, -8.22045092434762425526e-01) (3, -7.69763561438684962290e-01) (4, -6.22906016669095174976e-01) (5, -3.71603840760731718440e-01) (6, -4.52665818434036748563e-01) (7, 8.20681389347948875290e-01) (8, 2.42680464498574999244e-01) (9, 2.74256170860793402344e-01) (10, 3.54179345427448388772e-01) (11, 1.03556389254118239029e-01) (12, 4.14622204398013449733e-01) (13, -2.46504686378330395424e-01) (14, -9.17154713934930421182e-01) (15, 2.38499192975451385079e-02) (16, -2.41895856905175982154e-01) (17, -3.61710092042882347396e-01) (18, 4.97976236497865820674e-01) (19, 6.38804355846967708565e-01) (20, -6.69642094899808026920e-02) (21, 7.91621387985400604137e-02) (22, 3.95679681925357851213e-01) (23, -9.58698755728715656943e-01) (24, -5.66185173857907675377e-01) (25, 7.42142772345357859543e-01) (26, 8.14999176842782335761e-01) (27, -5.14489755353079157053e-04) (28, -2.37368881322092217800e-01) (29, -1.46537502176720568769e-01) (30, 1.06429129360849517028e+00) (31, -6.43282078396418488531e-01) (32, -3.46920497783603232200e-01) (33, 1.68722769237073827453e-01) (34, -6.71147216902881815770e-01) (35, 1.16464887807155456634e-01) (36, 3.62481812169567818582e-01) (37, -1.53638184425843645625e-02) (38, -1.77264158577541103279e-01) (39, 9.26566264741493061941e-01) (40, -1.04753357250959910907e-01) (41, -1.11016292405979419278e-01) (42, 3.18953097000183150023e-01) (43, 3.08889842651721868716e-01) (44, 1.78714290549197879487e-01) (45, -2.93520912906961028987e-01) (46, -5.22123714116203285762e-01) (47, -1.13960817606472408769e+00) (48, -6.39021375022567728053e-01) (49, 1.72224856397567120669e-02) (50, -7.83145102173070095652e-02) (51, -1.58970075807304739302e-01) (52, -1.98870164185181608207e-01) (53, -2.26445953680065009683e-01) (54, -3.63879728942788222001e-02) (55, -1.50601099773888469358e-01) (56, -1.33585461427869825468e-03) (57, -3.94857740171176835320e-02) (58, -6.01094645156632009786e-02) (59, -1.45319432121834124505e-01) (60, 2.93655469927026589738e-03) (0, -1.19898488455957685783e-01) (1, -8.43904910241853878361e-02) (2, 5.50780777952365047101e-03) (3, 3.21491551539486025701e-02) (4, 5.26094346727958364629e-03) (5, -1.33512538213883171639e-02) (6, -1.17450185394431749764e-01) (7, -5.45108855846982744142e-03) (8, 1.12950563654359681376e-01) (9, 6.58763388434555757778e-02) (10, 5.31876151339595870660e-02) (11, 4.93500688119085095806e-02) (12, -3.16927318699256055368e-02) (13, -3.43005483153902210325e-02) (14, -4.69803794035551086639e-02) (15, 3.03697850063818046429e-02) (16, -3.86315393602430709463e-02) (17, 7.01478665145477547904e-02) (18, 1.37998940001168891867e-02) (19, 8.61750763340646819266e-02) (20, 5.60867075504459661195e-02) (21, 9.41395937589025420811e-03) (22, 1.07172817431988920411e-01) (23, -2.66245104397965226539e-02) (24, -8.66312988231883879253e-02) (25, 1.05181230134017811295e-01) (26, 6.37638178169986358235e-02) (27, -9.84444779856676194241e-02) (28, -3.19049095364185991697e-02) (29, 3.83929670506111334061e-02) (30, 7.93705788725804772810e-02) (31, 2.40566627281957913509e-02) (32, -4.45093977282717684352e-02) (33, -1.33503266824908425198e-02) (34, -4.65502675921185965491e-02) (35, 6.54306064234082135345e-02) (36, -4.25595354933083896976e-02) (37, 7.92034941027982414274e-02) (38, -7.85725164446838542087e-02) (39, 1.38397979437011348081e-01) (40, -5.89818285658174623620e-02) (41, 6.25808781045814575827e-03) (42, 4.30511552867833963143e-02) (43, -2.88596673603461507940e-02) (44, 1.03160549529094772159e-01) (45, -5.55806889355012767595e-02) (46, 4.75330116610394662335e-02) (47, -1.31079364143147192312e-01) (48, -1.02356489740577996650e-01) (49, -3.15568046664642665178e-02) (50, 5.24902259572060519988e-02) (51, 7.22303113627560111620e-02) (52, 4.67846365587831491961e-02) (53, 1.22060987331243267322e-03) (54, 2.60465985892988916017e-02) (55, -4.86929859488170607706e-02) (56, -4.20588047246559654235e-02) (57, -9.72939894758023671173e-02) (58, -3.32229781030512968942e-02) (59, 7.94708631944542193137e-02) (60, -3.71535470776970730422e-02) (0, 4.24640473688649766615e-01) (1, 6.67519596440986462405e-01) (2, 8.68470790854999674657e-01) (3, 9.37525211344016118353e-01) (4, 7.20147183360570708466e-01) (5, 3.34956165489829982285e-01) (6, 4.35746427860560003875e-01) (7, -7.68032836401528640202e-01) (8, -3.12307402482417839629e-01) (9, -1.95488008961944598196e-01) (10, -3.57183839606956099466e-01) (11, 1.08807525752997402702e-01) (12, -4.46883895989995116871e-01) (13, 1.59091116492092010670e-01) (14, 9.78465386273124737571e-01) (15, -1.02783032148590067201e-01) (16, 2.49994978692583053048e-01) (17, 3.77120739181470432388e-01) (18, -5.69150906970205539004e-01) (19, -6.78852935687247693863e-01) (20, 3.66584319476783021541e-02) (21, -7.53287334550023779389e-02) (22, -5.66766027248040038522e-01) (23, 7.62738079777970923168e-01) (24, 4.61370175164953877367e-01) (25, -8.01774485036623407730e-01) (26, -9.35513284926448140943e-01) (27, -6.05969514796665525980e-02) (28, 1.40043572878968569650e-01) (29, 2.93529996797488534899e-01) (30, -1.29584197765232711497e+00) (31, 6.01799845738540728490e-01) (32, 2.47608381558015844259e-01) (33, -7.75902033877962915565e-02) (34, 8.14578047010042549658e-01) (35, -3.53978952260949122910e-02) (36, -4.80153234950949747706e-01) (37, 5.51791205458110195492e-02) (38, 1.43377500032933563601e-01) (39, -9.53177524118721475332e-01) (40, 6.88697772706045319158e-02) (41, 7.42415221756395626862e-02) (42, -4.02121784635176615641e-01) (43, -1.71704421084227676353e-01) (44, 2.13666756290866802215e-02) (45, 4.35399977074269084465e-01) (46, 5.52539672268994030979e-01) (47, 1.26173290405361604449e+00) (48, 7.77978209583316315801e-01) (49, -2.33398212428144631592e-02) (50, 1.58525223939105619486e-01) (51, 1.78544798072287347335e-03) (52, 4.47265796060308598592e-02) (53, 2.44240821658551571227e-01) (54, -1.02229991474540718444e-01) (55, -1.94268717811940279383e-02) (56, 7.08010903237279304312e-02) (57, 1.06693414859917193316e-01) (58, 8.63888451519069650031e-02) (59, 1.96603347015096407979e-01) (60, -1.14465208162661646885e-01) (0, 5.15810967979514978232e-01) (1, 7.76914860854338362728e-01) (2, 9.90912142150233155036e-01) (3, 1.07515666727289893601e+00) (4, 8.84598327574858345201e-01) (5, 4.02496873135547661438e-01) (6, 5.32981716309383179997e-01) (7, -7.37056400093780039739e-01) (8, -1.47929385460929235796e-01) (9, -2.21385489958272063671e-01) (10, -2.21891544347381092228e-01) (11, 1.60479628155030501491e-01) (12, -3.96490094230568634881e-01) (13, 6.23990772243307040279e-02) (14, 9.61930977999315817151e-01) (15, -1.66041776697604143154e-01) (16, 3.50640870638532664572e-01) (17, 2.06291104953575665792e-01) (18, -6.02270024758380762009e-01) (19, -7.43629155844286238164e-01) (20, -3.94601883086685284452e-02) (21, -1.45449828621138838036e-01) (22, -3.92427751920312595235e-01) (23, 1.03079367564817658831e+00) (24, 5.46010138892416008183e-01) (25, -7.69945014982556741323e-01) (26, -9.28146088862842444378e-01) (27, -8.70275305900554407845e-02) (28, 2.27053172260731156440e-01) (29, 5.19942839258367595079e-01) (30, -1.39930453156232359468e+00) (31, 5.07079421704766053480e-01) (32, 2.42229036426571148199e-01) (33, -1.47630065798665999210e-01) (34, 7.06430716455392793129e-01) (35, -4.19731242181927532986e-01) (36, -8.07472436045093000523e-01) (37, 2.47764428038037026747e-01) (38, 4.83222787966939071325e-01) (39, -9.55834006285863346797e-01) (40, 9.87137949132351616433e-02) (41, 2.76183022453957927045e-01) (42, -3.03184049933824140144e-01) (43, -6.57054629779930260414e-02) (44, 2.66149454595183632133e-01) (45, 5.55283431280316208678e-01) (46, 7.43650848144573051179e-01) (47, 1.22164131000254072568e+00) (48, 8.26442086834755396119e-01) (49, 6.48179710580186734664e-03) (50, 6.05566345917174370106e-02) (51, 9.69973396916652963462e-02) (52, 5.03178517281524032012e-02) (53, 1.86064999802424385633e-01) (54, -2.97336714638476960759e-02) (55, 6.26234078269320010302e-02) (56, -1.82387892422640925105e-02) (57, 4.80017399131870761697e-02) (58, 1.71153728960532464098e-01) (59, 5.76060940421905046116e-02) (60, -2.87251187128559348771e-01) (0, -4.58684423684915132391e-01) (1, -8.04593652764371003450e-01) (2, -1.21222640731633979350e+00) (3, -1.14179280271353023046e+00) (4, -8.87482829918302851269e-01) (5, -2.55916163519083583733e-01) (6, -4.62243463254648156990e-01) (7, 3.15902940291353628854e-01) (8, -3.53000746292059658371e-02) (9, 1.81952682209759047938e-01) (10, -2.23315541693115876543e-01) (11, -7.56450302907999139190e-02) (12, 3.38279248281984357138e-01) (13, 3.44308283116761426612e-01) (14, -8.38474140795750222388e-01) (15, 6.25518204740698000738e-03) (16, -6.10792461025426502985e-01) (17, -1.53168365399357020440e-01) (18, 7.66633509965418236121e-01) (19, 5.19689521173460455827e-01) (20, -5.72087947601854079904e-02) (21, 2.30836909468503954229e-03) (22, -4.20840120997117289603e-02) (23, -1.32688663770297576860e+00) (24, -3.91333686686395065824e-01) (25, 6.22142116197180516934e-01) (26, 1.02318725320383485666e+00) (27, 2.62624640614480320266e-01) (28, 2.59639972577820732358e-01) (29, -7.45591606260959549601e-01) (30, 1.22433184103990044811e+00) (31, -3.82004777084559377087e-01) (32, -4.90310718670070866398e-01) (33, 1.43128470277397001897e-01) (34, -2.54318850538826080054e-01) (35, 1.16504477796851557692e+00) (36, 1.45509572125524266895e+00) (37, -4.04107644095453633071e-01) (38, -5.92316302529025895396e-01) (39, 7.57872487110238801655e-01) (40, 1.70674748036707853160e-02) (41, -3.12120365141858202573e-01) (42, 9.83287260189370931895e-02) (43, -3.30300075776610080336e-01) (44, -6.83855614708430703530e-01) (45, -7.23281768417336934363e-01) (46, -5.68031689496797720373e-01) (47, -1.03708529622976675100e+00) (48, -7.57151886996229483984e-01) (49, 6.69753152000661933219e-02) (50, -2.45837943854554624723e-01) (51, -9.03878789231344764721e-02) (52, -6.67333618576951143053e-02) (53, -1.13061288344463967137e-01) (54, -4.02963439205103815532e-02) (55, 1.37134125153252038609e-02) (56, 9.29137950762917996794e-02) (57, -8.89922675798396692337e-03) (58, -1.32847564059831252381e-01) (59, 2.19463136440639049185e-02) (60, 5.92561668061296398236e-01) (0, -1.91447876005071210281e-01) (1, -2.43725072404901266232e-01) (2, -3.82083855401404881569e-01) (3, -2.82612008458531072108e-01) (4, -3.03994138995383467172e-01) (5, -2.23613354105554995588e-01) (6, -1.38940768919304985518e-01) (7, 4.34684490104521648046e-01) (8, 2.34362927973841395080e-01) (9, 8.20608292739394840076e-02) (10, 3.53387472383719869473e-01) (11, 2.88944436747807370525e-02) (12, 1.67217921303666694488e-01) (13, -1.92954510311264884614e-02) (14, -5.24843431879350785785e-01) (15, -1.25175991127982159934e-02) (16, -6.98144887276014869393e-02) (17, -1.03893480453238193362e-01) (18, 4.06925615454954481276e-01) (19, 4.49872462948715579056e-01) (20, 8.11111859227255649341e-02) (21, 1.16840600480941206318e-01) (22, 3.99861704995024824782e-01) (23, -3.36820720289383312984e-01) (24, -2.80936310848196091339e-01) (25, 4.04044821187225289272e-01) (26, 3.17870234682955721262e-01) (27, -2.03604658562357376805e-01) (28, -1.70298249854064775999e-01) (29, -1.57418594203042189195e-02) (30, 5.32750973413140815893e-01) (31, -3.65337309591479919568e-01) (32, -1.41136535190953399388e-01) (33, -6.72389774063526929337e-02) (34, -4.48751696578207626143e-01) (35, -1.75381299100783871747e-02) (36, 1.93839900826125399735e-01) (37, 2.78045312806401330452e-02) (38, -3.75253080376526451656e-02) (39, 4.40157418693588986525e-01) (40, -5.13479032084696446203e-02) (41, -4.31499997341203075929e-02) (42, 1.74071922907964748983e-01) (43, 2.47343793343816870101e-01) (44, 1.30466379479402511121e-01) (45, -9.41039073550220817044e-02) (46, -2.10790623850292874186e-01) (47, -5.11131261439336848085e-01) (48, -2.48694026944054347172e-01) (49, 3.84778034719605657732e-02) (50, -1.03875584388152419901e-01) (51, -6.12905824124822667942e-02) (52, -1.37193717181017915685e-01) (53, 5.60948775545490937317e-03) (54, 4.52790578308656585516e-02) (55, 1.43877831830649133976e-02) (56, -7.50809722154811426398e-02) (57, 2.74453194128497779403e-02) (58, 2.61701980083319483972e-02) (59, -1.84328678154928427002e-01) (60, 4.22595654536709539051e-02) (61, 3.61423001872011095958e-01) (62, -6.86156840752312291443e+00) (63, -1.66887159978711419051e+00) (64, 2.28519010027707825117e+00) (65, 1.75042966103471164807e+00) (66, -2.97849775200943112097e+00) (67, 4.80647610551244275356e-01) (68, 5.79499079755283741378e+00) (69, 1.67213249600837787767e+00) (70, 5.75695012352719803772e-01) (71, -1.68400999647430626993e+00) (72, -4.71309276245058761390e+00) (73, 9.21300812866563489933e+00) (74, -1.26835778785109498656e+00) (75, 1.85490913685040070824e+00) (76, 2.03259255506560820859e-01) (77, -1.87366077883155490724e+00) (78, -1.49812042447011317670e+00) (79, 2.42379238633213811571e-01) (80, 1.08810379225356435029e+00) (81, 1.65201193676433533142e+00) 
