FANN_FLO_2.1
num_layers=47
learning_rate=0.700000
connection_rate=1.000000
network_type=1
learning_momentum=0.000000
training_algorithm=2
train_error_function=1
train_stop_function=0
cascade_output_change_fraction=0.010000
quickprop_decay=-0.000100
quickprop_mu=1.750000
rprop_increase_factor=1.200000
rprop_decrease_factor=0.500000
rprop_delta_min=0.000000
rprop_delta_max=50.000000
rprop_delta_zero=0.100000
cascade_output_stagnation_epochs=12
cascade_candidate_change_fraction=0.010000
cascade_candidate_stagnation_epochs=12
cascade_max_out_epochs=150
cascade_max_cand_epochs=150
cascade_num_candidate_groups=2
bit_fail_limit=3.49999994039535522461e-01
cascade_candidate_limit=1.00000000000000000000e+03
cascade_weight_multiplier=4.00000005960464477539e-01
cascade_activation_functions_count=10
cascade_activation_functions=3 5 7 8 10 11 14 15 16 17 
cascade_activation_steepnesses_count=4
cascade_activation_steepnesses=2.50000000000000000000e-01 5.00000000000000000000e-01 7.50000000000000000000e-01 1.00000000000000000000e+00 
layer_sizes=157 1 1 1 1 1 1 1 1 1 1 1 1 1 1 1 1 1 1 1 1 1 1 1 1 1 1 1 1 1 1 1 1 1 1 1 1 1 1 1 1 1 1 1 1 1 10 
scale_included=0
neurons (num_inputs, activation_function, activation_steepness)=(0, 0, 0.00000000000000000000e+00) (0, 0, 0.00000000000000000000e+00) (0, 0, 0.00000000000000000000e+00) (0, 0, 0.00000000000000000000e+00) (0, 0, 0.00000000000000000000e+00) (0, 0, 0.00000000000000000000e+00) (0, 0, 0.00000000000000000000e+00) (0, 0, 0.00000000000000000000e+00) (0, 0, 0.00000000000000000000e+00) (0, 0, 0.00000000000000000000e+00) (0, 0, 0.00000000000000000000e+00) (0, 0, 0.00000000000000000000e+00) (0, 0, 0.00000000000000000000e+00) (0, 0, 0.00000000000000000000e+00) (0, 0, 0.00000000000000000000e+00) (0, 0, 0.00000000000000000000e+00) (0, 0, 0.00000000000000000000e+00) (0, 0, 0.00000000000000000000e+00) (0, 0, 0.00000000000000000000e+00) (0, 0, 0.00000000000000000000e+00) (0, 0, 0.00000000000000000000e+00) (0, 0, 0.00000000000000000000e+00) (0, 0, 0.00000000000000000000e+00) (0, 0, 0.00000000000000000000e+00) (0, 0, 0.00000000000000000000e+00) (0, 0, 0.00000000000000000000e+00) (0, 0, 0.00000000000000000000e+00) (0, 0, 0.00000000000000000000e+00) (0, 0, 0.00000000000000000000e+00) (0, 0, 0.00000000000000000000e+00) (0, 0, 0.00000000000000000000e+00) (0, 0, 0.00000000000000000000e+00) (0, 0, 0.00000000000000000000e+00) (0, 0, 0.00000000000000000000e+00) (0, 0, 0.00000000000000000000e+00) (0, 0, 0.00000000000000000000e+00) (0, 0, 0.00000000000000000000e+00) (0, 0, 0.00000000000000000000e+00) (0, 0, 0.00000000000000000000e+00) (0, 0, 0.00000000000000000000e+00) (0, 0, 0.00000000000000000000e+00) (0, 0, 0.00000000000000000000e+00) (0, 0, 0.00000000000000000000e+00) (0, 0, 0.00000000000000000000e+00) (0, 0, 0.00000000000000000000e+00) (0, 0, 0.00000000000000000000e+00) (0, 0, 0.00000000000000000000e+00) (0, 0, 0.00000000000000000000e+00) (0, 0, 0.00000000000000000000e+00) (0, 0, 0.00000000000000000000e+00) (0, 0, 0.00000000000000000000e+00) (0, 0, 0.00000000000000000000e+00) (0, 0, 0.00000000000000000000e+00) (0, 0, 0.00000000000000000000e+00) (0, 0, 0.00000000000000000000e+00) (0, 0, 0.00000000000000000000e+00) (0, 0, 0.00000000000000000000e+00) (0, 0, 0.00000000000000000000e+00) (0, 0, 0.00000000000000000000e+00) (0, 0, 0.00000000000000000000e+00) (0, 0, 0.00000000000000000000e+00) (0, 0, 0.00000000000000000000e+00) (0, 0, 0.00000000000000000000e+00) (0, 0, 0.00000000000000000000e+00) (0, 0, 0.00000000000000000000e+00) (0, 0, 0.00000000000000000000e+00) (0, 0, 0.00000000000000000000e+00) (0, 0, 0.00000000000000000000e+00) (0, 0, 0.00000000000000000000e+00) (0, 0, 0.00000000000000000000e+00) (0, 0, 0.00000000000000000000e+00) (0, 0, 0.00000000000000000000e+00) (0, 0, 0.00000000000000000000e+00) (0, 0, 0.00000000000000000000e+00) (0, 0, 0.00000000000000000000e+00) (0, 0, 0.00000000000000000000e+00) (0, 0, 0.00000000000000000000e+00) (0, 0, 0.00000000000000000000e+00) (0, 0, 0.00000000000000000000e+00) (0, 0, 0.00000000000000000000e+00) (0, 0, 0.00000000000000000000e+00) (0, 0, 0.00000000000000000000e+00) (0, 0, 0.00000000000000000000e+00) (0, 0, 0.00000000000000000000e+00) (0, 0, 0.00000000000000000000e+00) (0, 0, 0.00000000000000000000e+00) (0, 0, 0.00000000000000000000e+00) (0, 0, 0.00000000000000000000e+00) (0, 0, 0.00000000000000000000e+00) (0, 0, 0.00000000000000000000e+00) (0, 0, 0.00000000000000000000e+00) (0, 0, 0.00000000000000000000e+00) (0, 0, 0.00000000000000000000e+00) (0, 0, 0.00000000000000000000e+00) (0, 0, 0.00000000000000000000e+00) (0, 0, 0.00000000000000000000e+00) (0, 0, 0.00000000000000000000e+00) (0, 0, 0.00000000000000000000e+00) (0, 0, 0.00000000000000000000e+00) (0, 0, 0.00000000000000000000e+00) (0, 0, 0.00000000000000000000e+00) (0, 0, 0.00000000000000000000e+00) (0, 0, 0.00000000000000000000e+00) (0, 0, 0.00000000000000000000e+00) (0, 0, 0.00000000000000000000e+00) (0, 0, 0.00000000000000000000e+00) (0, 0, 0.00000000000000000000e+00) (0, 0, 0.00000000000000000000e+00) (0, 0, 0.00000000000000000000e+00) (0, 0, 0.00000000000000000000e+00) (0, 0, 0.00000000000000000000e+00) (0, 0, 0.00000000000000000000e+00) (0, 0, 0.00000000000000000000e+00) (0, 0, 0.00000000000000000000e+00) (0, 0, 0.00000000000000000000e+00) (0, 0, 0.00000000000000000000e+00) (0, 0, 0.00000000000000000000e+00) (0, 0, 0.00000000000000000000e+00) (0, 0, 0.00000000000000000000e+00) (0, 0, 0.00000000000000000000e+00) (0, 0, 0.00000000000000000000e+00) (0, 0, 0.00000000000000000000e+00) (0, 0, 0.00000000000000000000e+00) (0, 0, 0.00000000000000000000e+00) (0, 0, 0.00000000000000000000e+00) (0, 0, 0.00000000000000000000e+00) (0, 0, 0.00000000000000000000e+00) (0, 0, 0.00000000000000000000e+00) (0, 0, 0.00000000000000000000e+00) (0, 0, 0.00000000000000000000e+00) (0, 0, 0.00000000000000000000e+00) (0, 0, 0.00000000000000000000e+00) (0, 0, 0.00000000000000000000e+00) (0, 0, 0.00000000000000000000e+00) (0, 0, 0.00000000000000000000e+00) (0, 0, 0.00000000000000000000e+00) (0, 0, 0.00000000000000000000e+00) (0, 0, 0.00000000000000000000e+00) (0, 0, 0.00000000000000000000e+00) (0, 0, 0.00000000000000000000e+00) (0, 0, 0.00000000000000000000e+00) (0, 0, 0.00000000000000000000e+00) (0, 0, 0.00000000000000000000e+00) (0, 0, 0.00000000000000000000e+00) (0, 0, 0.00000000000000000000e+00) (0, 0, 0.00000000000000000000e+00) (0, 0, 0.00000000000000000000e+00) (0, 0, 0.00000000000000000000e+00) (0, 0, 0.00000000000000000000e+00) (0, 0, 0.00000000000000000000e+00) (0, 0, 0.00000000000000000000e+00) (0, 0, 0.00000000000000000000e+00) (0, 0, 0.00000000000000000000e+00) (0, 0, 0.00000000000000000000e+00) (0, 0, 0.00000000000000000000e+00) (0, 0, 0.00000000000000000000e+00) (0, 0, 0.00000000000000000000e+00) (157, 15, 1.00000000000000000000e+00) (158, 15, 7.50000000000000000000e-01) (159, 14, 7.50000000000000000000e-01) (160, 14, 7.50000000000000000000e-01) (161, 15, 7.50000000000000000000e-01) (162, 15, 5.00000000000000000000e-01) (163, 15, 7.50000000000000000000e-01) (164, 14, 7.50000000000000000000e-01) (165, 14, 2.50000000000000000000e-01) (166, 15, 7.50000000000000000000e-01) (167, 14, 7.50000000000000000000e-01) (168, 15, 1.00000000000000000000e+00) (169, 14, 7.50000000000000000000e-01) (170, 14, 2.50000000000000000000e-01) (171, 14, 7.50000000000000000000e-01) (172, 14, 5.00000000000000000000e-01) (173, 14, 5.00000000000000000000e-01) (174, 14, 5.00000000000000000000e-01) (175, 15, 2.50000000000000000000e-01) (176, 15, 1.00000000000000000000e+00) (177, 14, 1.00000000000000000000e+00) (178, 14, 7.50000000000000000000e-01) (179, 15, 2.50000000000000000000e-01) (180, 14, 7.50000000000000000000e-01) (181, 14, 7.50000000000000000000e-01) (182, 15, 5.00000000000000000000e-01) (183, 14, 5.00000000000000000000e-01) (184, 14, 2.50000000000000000000e-01) (185, 14, 5.00000000000000000000e-01) (186, 14, 7.50000000000000000000e-01) (187, 14, 2.50000000000000000000e-01) (188, 14, 7.50000000000000000000e-01) (189, 14, 1.00000000000000000000e+00) (190, 14, 1.00000000000000000000e+00) (191, 15, 5.00000000000000000000e-01) (192, 15, 2.50000000000000000000e-01) (193, 14, 1.00000000000000000000e+00) (194, 14, 1.00000000000000000000e+00) (195, 14, 7.50000000000000000000e-01) (196, 15, 5.00000000000000000000e-01) (197, 14, 7.50000000000000000000e-01) (198, 15, 1.00000000000000000000e+00) (199, 14, 1.00000000000000000000e+00) (200, 15, 1.00000000000000000000e+00) (201, 15, 2.50000000000000000000e-01) (202, 4, 5.00000000000000000000e-01) (202, 4, 5.00000000000000000000e-01) (202, 4, 5.00000000000000000000e-01) (202, 4, 5.00000000000000000000e-01) (202, 4, 5.00000000000000000000e-01) (202, 4, 5.00000000000000000000e-01) (202, 4, 5.00000000000000000000e-01) (202, 4, 5.00000000000000000000e-01) (202, 4, 5.00000000000000000000e-01) (202, 4, 5.00000000000000000000e-01) 
connections (connected_to_neuron, weight)=(0, -1.89861714839935302734e+00) (1, 6.19950950145721435547e-01) (2, -1.01670287549495697021e-01) (3, 1.48616564273834228516e+00) (4, -3.27299743890762329102e-01) (5, 2.71587371826171875000e-01) (6, 1.24057853221893310547e+00) (7, 1.13872945308685302734e+00) (8, 2.20236802101135253906e+00) (9, 4.05067324638366699219e-01) (10, 1.63871562480926513672e+00) (11, 1.00350677967071533203e+00) (12, 1.89614498615264892578e+00) (13, -5.28116598725318908691e-02) (14, 1.96551188826560974121e-01) (15, 4.31330800056457519531e-01) (16, 1.68971145153045654297e+00) (17, 9.16737973690032958984e-01) (18, -1.71718046069145202637e-01) (19, 1.47553062438964843750e+00) (20, -1.00317500531673431396e-01) (21, 1.18367218971252441406e+00) (22, 1.35871219635009765625e+00) (23, -8.06338191032409667969e-01) (24, -4.82572793960571289062e-01) (25, 1.00964319705963134766e+00) (26, 2.98176109790802001953e-01) (27, 1.22133696079254150391e+00) (28, 4.95493441820144653320e-01) (29, 1.91490650177001953125e+00) (30, 1.28563380241394042969e+00) (31, 1.92793595790863037109e+00) (32, -1.11619186401367187500e+00) (33, 8.72635364532470703125e-01) (34, -1.60351574420928955078e-01) (35, 7.01015472412109375000e-01) (36, 1.22143995761871337891e+00) (37, 8.72824192047119140625e-01) (38, 2.61493265628814697266e-01) (39, 4.25342321395874023438e-01) (40, 9.95088934898376464844e-01) (41, 5.46871609985828399658e-02) (42, 3.34176731109619140625e+00) (43, -2.65475809574127197266e-01) (44, 3.86664450168609619141e-01) (45, 1.48582792282104492188e+00) (46, 1.80170226097106933594e+00) (47, 1.18474566936492919922e+00) (48, 7.52640962600708007812e-01) (49, -6.64738833904266357422e-01) (50, -1.61149531602859497070e-01) (51, 3.21986865997314453125e+00) (52, 9.90733802318572998047e-02) (53, -6.37025594711303710938e-01) (54, -5.95090910792350769043e-02) (55, 1.56380665302276611328e+00) (56, 1.52342200279235839844e+00) (57, 3.17372530698776245117e-01) (58, 6.88736140727996826172e-01) (59, -1.04179561138153076172e+00) (60, 1.35077691078186035156e+00) (61, 4.72146958112716674805e-01) (62, 1.01806378364562988281e+00) (63, 2.45678022503852844238e-01) (64, 1.10939645767211914062e+00) (65, 8.17671298980712890625e-01) (66, 3.13982278108596801758e-01) (67, 7.63486206531524658203e-01) (68, 1.07021331787109375000e+00) (69, 2.13617825508117675781e+00) (70, 1.60177063941955566406e+00) (71, 3.07026833295822143555e-01) (72, 1.22988653182983398438e+00) (73, 6.39561235904693603516e-01) (74, -2.83634364604949951172e-01) (75, 5.42315989732742309570e-02) (76, 8.30989480018615722656e-01) (77, 2.19314599037170410156e+00) (78, 1.17296230792999267578e+00) (79, 2.43981647491455078125e+00) (80, -3.15863303840160369873e-02) (81, 1.86987161636352539062e+00) (82, 1.53376102447509765625e+00) (83, 1.62248039245605468750e+00) (84, 1.90385252237319946289e-01) (85, 3.62255483865737915039e-01) (86, 1.09072268009185791016e+00) (87, 1.39154732227325439453e+00) (88, 5.20154833793640136719e-01) (89, 4.41778153181076049805e-01) (90, 4.55153405666351318359e-01) (91, 1.00668621063232421875e+00) (92, 4.23949182033538818359e-01) (93, 1.00350892543792724609e+00) (94, 8.55856657028198242188e-01) (95, 7.23054409027099609375e-02) (96, 9.92709815502166748047e-01) (97, 4.60636675357818603516e-01) (98, 1.66895067691802978516e+00) (99, 6.47538602352142333984e-01) (100, 1.74419200420379638672e+00) (101, 3.04428756237030029297e-01) (102, 1.33850920200347900391e+00) (103, -7.05060437321662902832e-02) (104, -8.34121853113174438477e-02) (105, 1.18092155456542968750e+00) (106, 8.73642206192016601562e-01) (107, 8.41989278793334960938e-01) (108, 1.31349039077758789062e+00) (109, 5.98830878734588623047e-01) (110, 6.34158313274383544922e-01) (111, 1.33553266525268554688e+00) (112, 1.96484887599945068359e+00) (113, 5.18696963787078857422e-01) (114, 1.53051161766052246094e+00) (115, -1.18060922622680664062e+00) (116, 2.65106111764907836914e-01) (117, 9.22534644603729248047e-01) (118, 1.16361476480960845947e-01) (119, 1.95540559291839599609e+00) (120, 1.69265222549438476562e+00) (121, -6.07618130743503570557e-02) (122, -4.96850460767745971680e-01) (123, 1.76777756214141845703e+00) (124, 3.27340245246887207031e-01) (125, 2.20104598999023437500e+00) (126, 2.08923101425170898438e+00) (127, 1.32375001907348632812e+00) (128, 9.31822717189788818359e-01) (129, 7.59692132472991943359e-01) (130, -1.69977769255638122559e-01) (131, 5.83047568798065185547e-01) (132, 1.42097020149230957031e+00) (133, -2.79666855931282043457e-02) (134, 8.27187716960906982422e-01) (135, 1.64582550525665283203e+00) (136, -1.02271229028701782227e-01) (137, 4.52565789222717285156e-01) (138, 5.15943229198455810547e-01) (139, 8.47684919834136962891e-01) (140, 2.33428835868835449219e-01) (141, -3.68335843086242675781e-01) (142, 9.96639788150787353516e-01) (143, 2.54096719436347484589e-03) (144, 1.64166021347045898438e+00) (145, 2.97880977392196655273e-01) (146, 8.01648497581481933594e-01) (147, 1.40023005008697509766e+00) (148, 6.10843837261199951172e-01) (149, 2.19647631049156188965e-01) (150, 1.21558105945587158203e+00) (151, -6.14625848829746246338e-02) (152, 7.67676889896392822266e-01) (153, -2.88600057363510131836e-01) (154, 1.50000000000000000000e+03) (155, 1.50000000000000000000e+03) (156, 4.40839469432830810547e-01) (0, 2.88053274154663085938e+00) (1, -1.04542404413223266602e-01) (2, 2.38317275047302246094e+00) (3, 5.01852571964263916016e-01) (4, 1.98177564144134521484e+00) (5, 1.07195651531219482422e+00) (6, 2.11049222946166992188e+00) (7, 1.89079487323760986328e+00) (8, -1.01771607995033264160e-01) (9, 1.68535053730010986328e+00) (10, 1.27939760684967041016e+00) (11, 5.44031977653503417969e-01) (12, 5.99127471446990966797e-01) (13, 7.80740737915039062500e-01) (14, 2.03687667846679687500e+00) (15, 1.80640518665313720703e+00) (16, 1.89507871866226196289e-01) (17, 1.57877838611602783203e+00) (18, 2.10657715797424316406e+00) (19, 1.58012962341308593750e+00) (20, 5.41516952216625213623e-02) (21, -2.57702171802520751953e-01) (22, 4.82739180326461791992e-01) (23, 7.99576520919799804688e-01) (24, 3.97578001022338867188e-01) (25, 6.82270765304565429688e-01) (26, 5.59447944164276123047e-01) (27, 2.07183599472045898438e+00) (28, 2.06523704528808593750e+00) (29, 5.55328011512756347656e-01) (30, 2.06123638153076171875e+00) (31, 1.60770618915557861328e+00) (32, 8.23563098907470703125e-01) (33, 1.61061656475067138672e+00) (34, 2.31961202621459960938e+00) (35, 1.29729080200195312500e+00) (36, 1.29617273807525634766e+00) (37, 1.73926103115081787109e+00) (38, 1.56541001796722412109e+00) (39, 4.66228663921356201172e-01) (40, 8.00930261611938476562e-01) (41, 9.07828688621520996094e-01) (42, 3.09887319803237915039e-01) (43, 1.24548900127410888672e+00) (44, 2.67167806625366210938e-01) (45, 1.58017241954803466797e+00) (46, 1.06824457645416259766e+00) (47, 1.69866824150085449219e+00) (48, 1.88435554504394531250e+00) (49, 1.62926554679870605469e+00) (50, 4.10333395004272460938e-01) (51, 2.92658305168151855469e+00) (52, 2.38660192489624023438e+00) (53, -4.90222731605172157288e-03) (54, 1.73487424850463867188e+00) (55, 2.37691640853881835938e+00) (56, 1.30324339866638183594e+00) (57, 6.09356522560119628906e-01) (58, 4.79935139417648315430e-01) (59, -1.30640721321105957031e+00) (60, 5.44476687908172607422e-01) (61, 1.41922473907470703125e+00) (62, 2.69593238830566406250e+00) (63, 1.02372992038726806641e+00) (64, 8.73101353645324707031e-01) (65, 6.37440145015716552734e-01) (66, 1.58068525791168212891e+00) (67, 1.41888868808746337891e+00) (68, 3.04539942741394042969e+00) (69, 1.83128798007965087891e+00) (70, 2.89534870535135269165e-02) (71, 6.29967272281646728516e-01) (72, 5.05264699459075927734e-01) (73, 2.85187745094299316406e+00) (74, 1.47164428234100341797e+00) (75, 1.89534914493560791016e+00) (76, 9.05268847942352294922e-01) (77, 2.51230263710021972656e+00) (78, 1.69218266010284423828e+00) (79, 1.38145017623901367188e+00) (80, 1.50895535945892333984e+00) (81, 1.85633301734924316406e+00) (82, 1.61860561370849609375e+00) (83, 1.81524407863616943359e+00) (84, -9.51308906078338623047e-02) (85, 2.66371941566467285156e+00) (86, 1.80078661441802978516e+00) (87, 8.85347485542297363281e-01) (88, 1.83264482021331787109e+00) (89, -1.31020534038543701172e+00) (90, 6.81431055068969726562e-01) (91, 2.63021326065063476562e+00) (92, 1.39087390899658203125e+00) (93, 2.63708448410034179688e+00) (94, 8.68671298027038574219e-01) (95, 1.28104031085968017578e+00) (96, 1.10718190670013427734e+00) (97, 2.13813424110412597656e+00) (98, 9.47220146656036376953e-01) (99, 1.16405057907104492188e+00) (100, 1.38989448547363281250e-01) (101, 1.65851056575775146484e+00) (102, 4.69756096601486206055e-01) (103, 9.76986825466156005859e-01) (104, 1.15677082538604736328e+00) (105, 2.08334636688232421875e+00) (106, 5.69216966629028320312e-01) (107, -1.26589491963386535645e-01) (108, 1.23348712921142578125e+00) (109, 5.91904580593109130859e-01) (110, 1.34004437923431396484e+00) (111, 8.10222268104553222656e-01) (112, 2.21785569190979003906e+00) (113, 8.71020734310150146484e-01) (114, -3.29616785049438476562e-01) (115, 1.51796221733093261719e+00) (116, -3.24473232030868530273e-01) (117, 8.69071424007415771484e-01) (118, 7.17609703540802001953e-01) (119, 1.81721568107604980469e+00) (120, 1.18800866603851318359e+00) (121, 1.17248940467834472656e+00) (122, 1.90068352222442626953e+00) (123, -3.11637341976165771484e-01) (124, 7.79841542243957519531e-01) (125, 1.05917751789093017578e+00) (126, 1.41143727302551269531e+00) (127, 8.75667750835418701172e-01) (128, 2.09114909172058105469e+00) (129, 5.30589938163757324219e-01) (130, 8.27784359455108642578e-01) (131, 6.59192681312561035156e-01) (132, -2.85545527935028076172e-01) (133, 7.84404933452606201172e-01) (134, 1.94748723506927490234e+00) (135, 1.54933285713195800781e+00) (136, 4.96800631284713745117e-01) (137, 1.01245808601379394531e+00) (138, 7.37264871597290039062e-01) (139, 1.71801149845123291016e+00) (140, 1.32115185260772705078e+00) (141, 3.84392023086547851562e-01) (142, 2.15315937995910644531e+00) (143, 1.47577202320098876953e+00) (144, 2.31046646833419799805e-01) (145, 1.49309134483337402344e+00) (146, 1.93377721309661865234e+00) (147, 5.76931536197662353516e-01) (148, 4.59033489227294921875e-01) (149, 1.59543812274932861328e+00) (150, 2.26053786277770996094e+00) (151, 1.45587956905364990234e+00) (152, 5.09985566139221191406e-01) (153, 1.72706973552703857422e+00) (154, 1.50000000000000000000e+03) (155, 1.50000000000000000000e+03) (156, 1.21024632453918457031e+00) (157, -1.55219089984893798828e+00) (0, 2.90809226036071777344e+00) (1, 1.66895997524261474609e+00) (2, 2.50857400894165039062e+00) (3, 2.51468926668167114258e-01) (4, 1.06503450870513916016e+00) (5, 1.79045510292053222656e+00) (6, 1.91141116619110107422e+00) (7, 4.25152397155761718750e+00) (8, 7.16900467872619628906e-01) (9, 3.61522459983825683594e+00) (10, 2.73677754402160644531e+00) (11, 2.26423811912536621094e+00) (12, 3.60076785087585449219e+00) (13, 5.38812518119812011719e-01) (14, 1.78846561908721923828e+00) (15, 1.48407852649688720703e+00) (16, 1.56371927261352539062e+00) (17, 2.74581027030944824219e+00) (18, 3.40488457679748535156e+00) (19, 5.19516181945800781250e+00) (20, 3.05630111694335937500e+00) (21, 1.88524639606475830078e+00) (22, 2.16311454772949218750e+00) (23, 1.62419426441192626953e+00) (24, 2.33758640289306640625e+00) (25, 1.89049887657165527344e+00) (26, 2.94084095954895019531e+00) (27, 3.36240673065185546875e+00) (28, 2.52828359603881835938e+00) (29, 3.85853552818298339844e+00) (30, 4.25255250930786132812e+00) (31, 2.21752715110778808594e+00) (32, 2.58943486213684082031e+00) (33, 3.81383967399597167969e+00) (34, 6.60270357131958007812e+00) (35, 1.80732882022857666016e+00) (36, 2.46601223945617675781e+00) (37, 3.17903614044189453125e+00) (38, 1.70718073844909667969e+00) (39, 3.66762369871139526367e-01) (40, 4.81306838989257812500e+00) (41, 1.67412376403808593750e+00) (42, 3.29031896591186523438e+00) (43, 1.64522004127502441406e+00) (44, 2.38995528221130371094e+00) (45, 4.35207223892211914062e+00) (46, 1.20605111122131347656e+00) (47, 2.83845734596252441406e+00) (48, 1.06727671623229980469e+00) (49, 6.09961414337158203125e+00) (50, 2.87538719177246093750e+00) (51, 2.67250347137451171875e+00) (52, 1.70976603031158447266e+00) (53, 2.41938042640686035156e+00) (54, 2.47121787071228027344e+00) (55, 4.86684417724609375000e+00) (56, 3.45245194435119628906e+00) (57, 2.05877542495727539062e+00) (58, 2.54831361770629882812e+00) (59, 9.55689239501953125000e+00) (60, 3.71956968307495117188e+00) (61, 3.76134181022644042969e+00) (62, 1.26742851734161376953e+00) (63, 4.82434654235839843750e+00) (64, 2.24668192863464355469e+00) (65, 3.91021156311035156250e+00) (66, 1.89072155952453613281e+00) (67, 1.52880096435546875000e+00) (68, 3.47704339027404785156e+00) (69, 1.34531664848327636719e+00) (70, 7.96290814876556396484e-01) (71, 3.03761267662048339844e+00) (72, 1.72407329082489013672e+00) (73, 2.16005229949951171875e+00) (74, 1.06123030185699462891e+00) (75, 1.73700213432312011719e+00) (76, 3.55430030822753906250e+00) (77, 1.87674033641815185547e+00) (78, 1.41404521465301513672e+00) (79, 3.93627262115478515625e+00) (80, 1.96036171913146972656e+00) (81, 2.58229398727416992188e+00) (82, 1.05239999294281005859e+00) (83, 2.35684156417846679688e+00) (84, 4.77942180633544921875e+00) (85, 2.29500818252563476562e+00) (86, 1.52067887783050537109e+00) (87, 3.71794253587722778320e-01) (88, 1.60278403759002685547e+00) (89, 1.69302105903625488281e+00) (90, 5.14837384223937988281e-01) (91, 3.16780948638916015625e+00) (92, 1.91981506347656250000e+00) (93, 1.55176615715026855469e+00) (94, 3.68639945983886718750e+00) (95, 2.69987583160400390625e+00) (96, 4.82973575592041015625e+00) (97, 3.47469735145568847656e+00) (98, 1.31032514572143554688e+00) (99, 2.37765765190124511719e+00) (100, 2.14352798461914062500e+00) (101, 1.34172022342681884766e+00) (102, 1.08672702312469482422e+00) (103, 1.06675362586975097656e+00) (104, 1.60556876659393310547e+00) (105, 1.88420522212982177734e+00) (106, 1.48397147655487060547e+00) (107, 1.92420113086700439453e+00) (108, 2.11208701133728027344e+00) (109, 3.38460803031921386719e+00) (110, 2.21964287757873535156e+00) (111, 4.30697250366210937500e+00) (112, -5.20091474056243896484e-01) (113, 2.44800925254821777344e+00) (114, 3.46963334083557128906e+00) (115, 3.85387372970581054688e+00) (116, 1.96673560142517089844e+00) (117, 2.06930613517761230469e+00) (118, 4.12284755706787109375e+00) (119, 5.42536854743957519531e-01) (120, 3.06362104415893554688e+00) (121, 1.52744460105895996094e+00) (122, 6.66169941425323486328e-01) (123, 3.45938014984130859375e+00) (124, 3.52194690704345703125e+00) (125, 2.93649458885192871094e+00) (126, 3.44025349617004394531e+00) (127, 2.62456226348876953125e+00) (128, 2.12054276466369628906e+00) (129, 4.28161478042602539062e+00) (130, 1.84385323524475097656e+00) (131, 2.22437953948974609375e+00) (132, 1.89618730545043945312e+00) (133, 2.24554181098937988281e+00) (134, 2.99011468887329101562e+00) (135, 2.91942667961120605469e+00) (136, 2.34343218803405761719e+00) (137, 1.94643974304199218750e+00) (138, 2.33154129981994628906e+00) (139, 2.68548274040222167969e+00) (140, 3.36138606071472167969e+00) (141, 1.39664530754089355469e+00) (142, 4.71362161636352539062e+00) (143, 2.42885470390319824219e+00) (144, 4.97699642181396484375e+00) (145, 3.22847008705139160156e+00) (146, 1.53177416324615478516e+00) (147, 2.45400381088256835938e+00) (148, 2.92667722702026367188e+00) (149, 2.48484468460083007812e+00) (150, 2.77211284637451171875e+00) (151, 3.20560359954833984375e+00) (152, 2.73271751403808593750e+00) (153, 2.97801518440246582031e+00) (154, 1.50000000000000000000e+03) (155, 1.50000000000000000000e+03) (156, 1.56198072433471679688e+00) (157, 2.01036047935485839844e+00) (158, 2.14359092712402343750e+00) (0, 8.47501087188720703125e+00) (1, 1.73882699012756347656e+00) (2, 2.17528128623962402344e+00) (3, 9.75865185260772705078e-01) (4, 1.09272122383117675781e+00) (5, 2.50198245048522949219e+00) (6, 3.17144298553466796875e+00) (7, 4.06272143125534057617e-01) (8, 3.63382577896118164062e+00) (9, 1.96687626838684082031e+00) (10, 1.26836240291595458984e+00) (11, 1.33564114570617675781e+00) (12, -2.75127287022769451141e-03) (13, 1.34906136989593505859e+00) (14, 2.81630873680114746094e+00) (15, 1.52905476093292236328e+00) (16, 7.18652963638305664062e-01) (17, 1.36534714698791503906e+00) (18, 1.75758481025695800781e+00) (19, 2.55203366279602050781e+00) (20, 5.02552747726440429688e-01) (21, 1.19441246986389160156e+00) (22, 2.21580743789672851562e+00) (23, 2.47402119636535644531e+00) (24, 2.69741368293762207031e+00) (25, 4.88266468048095703125e-01) (26, 2.06564450263977050781e+00) (27, 3.03119993209838867188e+00) (28, 2.53626871109008789062e+00) (29, 2.86535167694091796875e+00) (30, 4.19520998001098632812e+00) (31, 1.63473176956176757812e+00) (32, 1.15583427250385284424e-01) (33, 1.16024088859558105469e+00) (34, 1.15370619297027587891e+00) (35, 1.11589682102203369141e+00) (36, 1.19413173198699951172e+00) (37, 1.84206569194793701172e+00) (38, 9.93371784687042236328e-01) (39, 1.49553012847900390625e+00) (40, 7.93983399868011474609e-01) (41, 1.30152153968811035156e+00) (42, 1.98914635181427001953e+00) (43, 6.05258762836456298828e-01) (44, 1.06527304649353027344e+00) (45, 1.19843733310699462891e+00) (46, 1.81678688526153564453e+00) (47, 4.13044595718383789062e+00) (48, 3.48424005508422851562e+00) (49, 1.26064360141754150391e+00) (50, 9.52931642532348632812e-01) (51, 1.79516720771789550781e+00) (52, 8.35495293140411376953e-01) (53, 3.81961703300476074219e-01) (54, 2.22747159004211425781e+00) (55, 1.64808690547943115234e+00) (56, 6.46783292293548583984e-01) (57, 2.12551212310791015625e+00) (58, 2.97283458709716796875e+00) (59, -3.28651618957519531250e+00) (60, 3.32558713853359222412e-03) (61, 2.11188602447509765625e+00) (62, 3.31816434860229492188e+00) (63, 1.80109238624572753906e+00) (64, 2.34592533111572265625e+00) (65, 2.53623628616333007812e+00) (66, 5.62351047992706298828e-01) (67, 8.58410060405731201172e-01) (68, 2.06844663619995117188e+00) (69, 2.36964535713195800781e+00) (70, 1.58984339237213134766e+00) (71, 1.81081509590148925781e+00) (72, 2.27015566825866699219e+00) (73, 4.44895267486572265625e-01) (74, 2.04726886749267578125e+00) (75, 5.75693035125732421875e+00) (76, 1.68289053440093994141e+00) (77, 2.72856783866882324219e+00) (78, 2.93957614898681640625e+00) (79, 2.44058203697204589844e+00) (80, -2.89601564407348632812e-01) (81, 1.77265989780426025391e+00) (82, 6.32831871509552001953e-01) (83, 2.73715353012084960938e+00) (84, 2.72045969963073730469e+00) (85, 2.67428469657897949219e+00) (86, 4.16477411985397338867e-01) (87, 1.53908717632293701172e+00) (88, 1.64783930778503417969e+00) (89, 1.62385559082031250000e+00) (90, 2.85979199409484863281e+00) (91, 2.56183028221130371094e+00) (92, 3.36085510253906250000e+00) (93, 1.93845224380493164062e+00) (94, 2.53418713808059692383e-01) (95, 1.72057831287384033203e+00) (96, 1.51489508152008056641e+00) (97, 1.00426232814788818359e+00) (98, 2.25402903556823730469e+00) (99, 1.80313217639923095703e+00) (100, 3.09344005584716796875e+00) (101, 2.08679175376892089844e+00) (102, 9.11123216152191162109e-01) (103, 2.66653871536254882812e+00) (104, 2.12608933448791503906e+00) (105, 2.00971436500549316406e+00) (106, 4.12600100040435791016e-01) (107, 1.92819333076477050781e+00) (108, 1.33705008029937744141e+00) (109, 3.00025177001953125000e+00) (110, 2.59773015975952148438e+00) (111, 2.44996488094329833984e-01) (112, 1.17011845111846923828e+00) (113, 1.55227804183959960938e+00) (114, 1.75815665721893310547e+00) (115, 1.83730971813201904297e+00) (116, 1.96321332454681396484e+00) (117, 2.72645568847656250000e+00) (118, 1.49225723743438720703e+00) (119, 1.60642194747924804688e+00) (120, 2.62435460090637207031e+00) (121, 1.07221484184265136719e+00) (122, 2.00066971778869628906e+00) (123, 2.58461976051330566406e+00) (124, 1.39616692066192626953e+00) (125, 2.76145148277282714844e+00) (126, 2.13327503204345703125e+00) (127, 2.20190930366516113281e+00) (128, 2.76470518112182617188e+00) (129, 2.34589099884033203125e+00) (130, 1.52168691158294677734e+00) (131, 1.77895855903625488281e+00) (132, 1.95797061920166015625e+00) (133, 1.70203137397766113281e+00) (134, 2.19209265708923339844e+00) (135, -1.60581588745117187500e-01) (136, 3.69104087352752685547e-01) (137, 2.39764571189880371094e+00) (138, 1.82169973850250244141e+00) (139, 1.55316865444183349609e+00) (140, 1.28419840335845947266e+00) (141, 7.78337240219116210938e-01) (142, 1.34296369552612304688e+00) (143, 1.23648214340209960938e+00) (144, 1.95188343524932861328e+00) (145, 2.15417313575744628906e+00) (146, 3.33841967582702636719e+00) (147, 1.66703867912292480469e+00) (148, 9.97707724571228027344e-01) (149, 2.46410155296325683594e+00) (150, 2.36547064781188964844e+00) (151, 2.47590422630310058594e+00) (152, 1.11048436164855957031e+00) (153, 2.22950625419616699219e+00) (154, 1.50000000000000000000e+03) (155, 1.50000000000000000000e+03) (156, 2.77938103675842285156e+00) (157, 3.12558507919311523438e+00) (158, 2.43389546871185302734e-01) (159, 1.84390532970428466797e+00) (0, 1.25070393085479736328e+00) (1, -2.65985786914825439453e-01) (2, 1.55695378780364990234e+00) (3, 8.43638360500335693359e-01) (4, 8.28150093555450439453e-01) (5, 1.03759574890136718750e+00) (6, 1.60095608234405517578e+00) (7, 2.04912543296813964844e+00) (8, -2.25124835968017578125e-01) (9, 1.41889309883117675781e+00) (10, 2.24728488922119140625e+00) (11, 1.59614875912666320801e-01) (12, 1.54247069358825683594e+00) (13, 3.56503099203109741211e-01) (14, 1.80403077602386474609e+00) (15, 1.72999501228332519531e+00) (16, 9.93201017379760742188e-01) (17, 2.46570086479187011719e+00) (18, 8.54895532131195068359e-01) (19, 2.63767862319946289062e+00) (20, 6.94661319255828857422e-01) (21, 1.16239130496978759766e+00) (22, 1.41697064042091369629e-01) (23, 1.34754133224487304688e+00) (24, 1.61841952800750732422e+00) (25, 1.40204131603240966797e+00) (26, 1.50866127014160156250e+00) (27, 1.07766258716583251953e+00) (28, 2.66973090171813964844e+00) (29, 1.22305142879486083984e+00) (30, 1.19222497940063476562e+00) (31, 2.87499499320983886719e+00) (32, 2.40774869918823242188e+00) (33, 7.17175006866455078125e-01) (34, 1.40322220325469970703e+00) (35, 2.62211871147155761719e+00) (36, -1.48956254124641418457e-01) (37, 1.98715543746948242188e+00) (38, 2.48405218124389648438e-01) (39, 2.17236948013305664062e+00) (40, 2.66303920745849609375e+00) (41, -8.86740624904632568359e-01) (42, 8.63328874111175537109e-01) (43, 2.27229642868041992188e+00) (44, 1.12625646591186523438e+00) (45, 4.85504746437072753906e-01) (46, 2.55648708343505859375e+00) (47, 3.91735649108886718750e+00) (48, 2.07889604568481445312e+00) (49, -1.55202698707580566406e+00) (50, 8.68776559829711914062e-01) (51, 2.30022358894348144531e+00) (52, 4.33634698390960693359e-01) (53, 2.26005649566650390625e+00) (54, 1.13114666938781738281e+00) (55, 1.68607831001281738281e+00) (56, 2.48458623886108398438e+00) (57, 1.90680456161499023438e+00) (58, 1.91993260383605957031e+00) (59, 2.39952564239501953125e+00) (60, 1.91515994071960449219e+00) (61, 1.65592658519744873047e+00) (62, 5.92835187911987304688e-01) (63, 1.98612821102142333984e+00) (64, 2.29300689697265625000e+00) (65, 8.20628345012664794922e-01) (66, 8.92976164817810058594e-01) (67, 3.45474219322204589844e+00) (68, 2.65263915061950683594e-01) (69, 8.07185947895050048828e-01) (70, 1.99257421493530273438e+00) (71, -7.75946617126464843750e-01) (72, 1.64799523353576660156e+00) (73, 2.25244688987731933594e+00) (74, 8.14687967300415039062e-01) (75, 2.98314952850341796875e+00) (76, 1.32257175445556640625e+00) (77, 2.99889993667602539062e+00) (78, 8.98867130279541015625e-01) (79, 1.47465157508850097656e+00) (80, 3.49117803573608398438e+00) (81, 1.89169692993164062500e+00) (82, 2.04729847609996795654e-02) (83, 1.40686917304992675781e+00) (84, 8.01704168319702148438e-01) (85, 3.57459515333175659180e-01) (86, 1.66051924228668212891e+00) (87, -1.77635145187377929688e+00) (88, 1.31325721740722656250e+00) (89, 7.03832805156707763672e-01) (90, 2.20227193832397460938e+00) (91, 8.25566351413726806641e-01) (92, 1.57699489593505859375e+00) (93, 1.64784312248229980469e+00) (94, 2.54202723503112792969e+00) (95, 1.43852281570434570312e+00) (96, 9.36414718627929687500e-01) (97, 2.81419610977172851562e+00) (98, 5.39280056953430175781e-01) (99, 1.60417526960372924805e-01) (100, 1.73407518863677978516e+00) (101, 3.08578824996948242188e+00) (102, 7.97711551189422607422e-01) (103, 7.59786009788513183594e-01) (104, 2.11833858489990234375e+00) (105, 2.46867012977600097656e+00) (106, 8.84140968322753906250e-01) (107, 2.93103384971618652344e+00) (108, -7.40297853946685791016e-01) (109, 1.20774650573730468750e+00) (110, 2.00656127929687500000e+00) (111, 2.48005414009094238281e+00) (112, 1.88090717792510986328e+00) (113, 3.97346282005310058594e+00) (114, 2.14046049118041992188e+00) (115, 1.08891141414642333984e+00) (116, 1.04710519313812255859e+00) (117, 2.41496753692626953125e+00) (118, -1.27197694778442382812e+00) (119, 4.81736451387405395508e-01) (120, 3.62313365936279296875e+00) (121, 2.05155086517333984375e+00) (122, -3.66896927356719970703e-01) (123, -1.98327040672302246094e+00) (124, 2.12361288070678710938e+00) (125, 1.35288190841674804688e+00) (126, 1.84915065765380859375e+00) (127, 7.14941143989562988281e-01) (128, 1.64753913879394531250e+00) (129, 1.66690135002136230469e+00) (130, 2.16763138771057128906e+00) (131, -3.70577335357666015625e+00) (132, 2.14236140251159667969e+00) (133, 1.31244778633117675781e+00) (134, 2.34555888175964355469e+00) (135, 4.47811216115951538086e-01) (136, -1.89710453152656555176e-01) (137, 1.88398838043212890625e+00) (138, 8.97876977920532226562e-01) (139, 5.07761836051940917969e-01) (140, 1.79155564308166503906e+00) (141, -2.06545495986938476562e+00) (142, -7.36247524619102478027e-02) (143, 2.93120175600051879883e-01) (144, 1.35666453838348388672e+00) (145, 1.41893535852432250977e-01) (146, 1.22903680801391601562e+00) (147, 1.59393966197967529297e+00) (148, 9.02389883995056152344e-01) (149, 1.07448899745941162109e+00) (150, 1.92880606651306152344e+00) (151, 8.98750543594360351562e-01) (152, 1.75698697566986083984e+00) (153, 5.11049866676330566406e-01) (154, 1.50000000000000000000e+03) (155, 1.50000000000000000000e+03) (156, -1.23160254955291748047e+00) (157, 2.31457638740539550781e+00) (158, 2.26805776357650756836e-01) (159, 3.60152930021286010742e-01) (160, 1.00326633453369140625e+00) (0, 6.85186624526977539062e+00) (1, 2.76858329772949218750e+00) (2, 1.42500686645507812500e+00) (3, 3.16464686393737792969e+00) (4, 8.94448935985565185547e-01) (5, 1.09595143795013427734e+00) (6, 2.71959042549133300781e+00) (7, 9.13983643054962158203e-01) (8, 1.92162024974822998047e+00) (9, 1.82973718643188476562e+00) (10, 4.40782642364501953125e+00) (11, -2.70254313945770263672e-02) (12, 8.61826598644256591797e-01) (13, 1.73757350444793701172e+00) (14, 3.06956601142883300781e+00) (15, 6.48488163948059082031e-01) (16, 2.40898013114929199219e+00) (17, 1.17620527744293212891e+00) (18, 1.91974604129791259766e+00) (19, 1.14744532108306884766e+00) (20, 2.07386636734008789062e+00) (21, -6.70005381107330322266e-01) (22, 2.94594216346740722656e+00) (23, 1.27872109413146972656e+00) (24, 1.14444053173065185547e+00) (25, 1.19954574108123779297e+00) (26, 7.19534516334533691406e-01) (27, 1.91559839248657226562e+00) (28, -3.22321861982345581055e-01) (29, 1.44212329387664794922e+00) (30, 1.65616536140441894531e+00) (31, 2.42374491691589355469e+00) (32, -2.66300916671752929688e-01) (33, 4.65283036231994628906e-01) (34, 1.10230422019958496094e+00) (35, 1.67869007587432861328e+00) (36, 1.49063885211944580078e+00) (37, 2.33825325965881347656e+00) (38, -4.59977872669696807861e-02) (39, 6.00450694561004638672e-01) (40, -1.26154109835624694824e-01) (41, 1.84442806243896484375e+00) (42, 1.41439437866210937500e+00) (43, 1.07155287265777587891e+00) (44, 2.45081043243408203125e+00) (45, 3.06997323036193847656e+00) (46, 3.94370555877685546875e-01) (47, 1.56619298458099365234e+00) (48, -7.64602243900299072266e-01) (49, 2.57719445228576660156e+00) (50, 1.97072887420654296875e+00) (51, 1.40330946445465087891e+00) (52, 2.42541146278381347656e+00) (53, 1.31016075611114501953e+00) (54, 2.47253298759460449219e+00) (55, 5.27111768722534179688e-01) (56, 1.09910631179809570312e+00) (57, 1.99410986900329589844e+00) (58, -1.18214321136474609375e+00) (59, -1.33969411849975585938e+01) (60, 2.12496471405029296875e+00) (61, -1.46372199058532714844e+00) (62, 1.46395874023437500000e+00) (63, 2.58624172210693359375e+00) (64, 1.88941609859466552734e+00) (65, 1.70191800594329833984e+00) (66, 3.03578758239746093750e+00) (67, 2.06454229354858398438e+00) (68, 1.88899624347686767578e+00) (69, 3.16238284111022949219e+00) (70, 3.79082620143890380859e-01) (71, 2.90656518936157226562e+00) (72, 1.16516733169555664062e+00) (73, 1.83672630786895751953e+00) (74, -4.73221212625503540039e-01) (75, 1.21116018295288085938e+00) (76, 9.61082652211189270020e-02) (77, 1.34841406345367431641e+00) (78, 1.91493785381317138672e+00) (79, 2.72734999656677246094e-01) (80, 5.09602129459381103516e-01) (81, 3.25348472595214843750e+00) (82, 2.82065272331237792969e+00) (83, -4.36097234487533569336e-02) (84, 2.73873656988143920898e-01) (85, 2.54665160179138183594e+00) (86, 8.01294982433319091797e-01) (87, -3.45428407192230224609e-01) (88, 9.37591850757598876953e-01) (89, 3.74105548858642578125e+00) (90, 1.69873452186584472656e+00) (91, 2.09903430938720703125e+00) (92, 2.62008762359619140625e+00) (93, 2.69121122360229492188e+00) (94, 9.00147140026092529297e-01) (95, 1.70573937892913818359e+00) (96, -2.36299857497215270996e-01) (97, 1.93204140663146972656e+00) (98, 7.34339356422424316406e-01) (99, 2.28351593017578125000e+00) (100, 2.27325701713562011719e+00) (101, 1.45288169384002685547e+00) (102, 2.55888295173645019531e+00) (103, 2.30673694610595703125e+00) (104, -2.45006993412971496582e-01) (105, 2.93833208084106445312e+00) (106, 3.94780349731445312500e+00) (107, 7.43997931480407714844e-01) (108, 1.48151504993438720703e+00) (109, 1.06432390213012695312e+00) (110, 3.43534016609191894531e+00) (111, 9.86773967742919921875e-01) (112, 2.34407007694244384766e-01) (113, 2.06485080718994140625e+00) (114, 2.72864151000976562500e+00) (115, 1.78045368194580078125e+00) (116, 6.51470780372619628906e-01) (117, 2.30718874931335449219e+00) (118, 2.34620785713195800781e+00) (119, 2.93805241584777832031e+00) (120, 6.03890419006347656250e-01) (121, 1.12082910537719726562e+00) (122, 3.00697445869445800781e+00) (123, 2.02870178222656250000e+00) (124, 1.69875717163085937500e+00) (125, 6.27491831779479980469e-01) (126, 1.19158554077148437500e+00) (127, 2.23897814750671386719e+00) (128, 2.24577450752258300781e+00) (129, 1.41134238243103027344e+00) (130, 2.16956400871276855469e+00) (131, 4.83825802803039550781e-01) (132, 2.18604660034179687500e+00) (133, 4.34389859437942504883e-01) (134, 4.22249317169189453125e+00) (135, 1.42718470096588134766e+00) (136, 1.37255653738975524902e-01) (137, 1.65440642833709716797e+00) (138, 9.36185002326965332031e-01) (139, 8.34735870361328125000e-01) (140, 1.02606415748596191406e+00) (141, 9.32112336158752441406e-01) (142, 2.68583154678344726562e+00) (143, 3.13349294662475585938e+00) (144, 6.10638797283172607422e-01) (145, 8.42585146427154541016e-01) (146, 1.19845533370971679688e+00) (147, 2.27966737747192382812e+00) (148, 6.19512557983398437500e-01) (149, 8.48507881164550781250e-01) (150, 9.41428899765014648438e-01) (151, 1.28195035457611083984e+00) (152, 2.03750967979431152344e+00) (153, 1.33084928989410400391e+00) (154, 1.50000000000000000000e+03) (155, 1.50000000000000000000e+03) (156, 8.84253144264221191406e-01) (157, 1.90519511699676513672e+00) (158, 1.39206218719482421875e+00) (159, 1.77378714084625244141e+00) (160, 1.23944962024688720703e+00) (161, 1.71513772010803222656e+00) (0, -3.64245629310607910156e+00) (1, 1.20911574363708496094e+00) (2, 1.23658382892608642578e+00) (3, 1.33402705192565917969e+00) (4, -2.29684233665466308594e-01) (5, 1.01886165142059326172e+00) (6, 2.32844424247741699219e+00) (7, 1.80328333377838134766e+00) (8, 1.46009039878845214844e+00) (9, 2.05166912078857421875e+00) (10, 1.59627318382263183594e+00) (11, 1.40695321559906005859e+00) (12, 9.07851576805114746094e-01) (13, 9.22266542911529541016e-01) (14, 3.02771544456481933594e+00) (15, 1.57887768745422363281e+00) (16, 2.13518810272216796875e+00) (17, 7.63909399509429931641e-01) (18, 2.23206424713134765625e+00) (19, 1.40914249420166015625e+00) (20, 1.51528477668762207031e+00) (21, 3.66793453693389892578e-01) (22, 1.69696116447448730469e+00) (23, 8.15746247768402099609e-01) (24, 1.07799696922302246094e+00) (25, 1.30249178409576416016e+00) (26, 2.32266545295715332031e+00) (27, 4.86103028059005737305e-01) (28, 8.65096926689147949219e-01) (29, 1.19483864307403564453e+00) (30, 4.65464591979980468750e-03) (31, 2.33705043792724609375e+00) (32, -3.08941572904586791992e-01) (33, 2.00166836380958557129e-01) (34, 1.70951628684997558594e+00) (35, 5.29605448246002197266e-01) (36, 5.62700867652893066406e-01) (37, 2.00878405570983886719e+00) (38, 1.88251793384552001953e+00) (39, 1.51937687397003173828e+00) (40, 1.42267048358917236328e+00) (41, 1.38368046283721923828e+00) (42, 6.04380428791046142578e-01) (43, 1.41904282569885253906e+00) (44, 1.88138401508331298828e+00) (45, 1.01547873020172119141e+00) (46, 6.03165566921234130859e-01) (47, 1.71590852737426757812e+00) (48, 2.67925238609313964844e+00) (49, 7.00306653976440429688e-01) (50, 1.54877781867980957031e+00) (51, 1.72940421104431152344e+00) (52, 1.32294118404388427734e+00) (53, 5.31200885772705078125e-01) (54, 2.29437899589538574219e+00) (55, 2.08366250991821289062e+00) (56, 1.65546679496765136719e+00) (57, 2.27261471748352050781e+00) (58, 6.44062221050262451172e-01) (59, 7.56444072723388671875e+00) (60, -1.22310221195220947266e+00) (61, 2.08467316627502441406e+00) (62, 1.62150728702545166016e+00) (63, 2.14027121663093566895e-01) (64, 3.13241362571716308594e+00) (65, 2.10656881332397460938e+00) (66, 8.35217952728271484375e-01) (67, 1.20257437229156494141e+00) (68, 1.14317965507507324219e+00) (69, 7.83140599727630615234e-01) (70, 1.92678773403167724609e+00) (71, 1.45810031890869140625e+00) (72, 3.74711298942565917969e+00) (73, 1.34283876419067382812e+00) (74, -7.00583219528198242188e-01) (75, 1.73625409603118896484e+00) (76, 6.56861245632171630859e-01) (77, 2.21996474266052246094e+00) (78, 2.94464260339736938477e-01) (79, 5.90611159801483154297e-01) (80, 1.08171653747558593750e+00) (81, 1.03768920898437500000e+00) (82, 1.84497296810150146484e+00) (83, 4.21310245990753173828e-01) (84, 6.73481285572052001953e-01) (85, 1.68303143978118896484e+00) (86, 1.96701753139495849609e+00) (87, 6.08982801437377929688e-01) (88, 8.43196988105773925781e-01) (89, 5.89925050735473632812e-01) (90, 1.64855265617370605469e+00) (91, 3.39696288108825683594e+00) (92, 2.10307312011718750000e+00) (93, 2.21415400505065917969e+00) (94, 2.83550381660461425781e+00) (95, 1.23039424419403076172e+00) (96, 1.25101697444915771484e+00) (97, 1.04310011863708496094e+00) (98, 4.70633834600448608398e-01) (99, 6.22720777988433837891e-01) (100, 1.19806504249572753906e+00) (101, 3.20584177970886230469e-01) (102, 2.43711233139038085938e+00) (103, 3.45897853374481201172e-01) (104, 7.70875751972198486328e-01) (105, -3.95405620336532592773e-01) (106, -1.14003252983093261719e+00) (107, -5.52783668041229248047e-01) (108, 1.32208898663520812988e-01) (109, 2.61451339721679687500e+00) (110, 9.06755745410919189453e-01) (111, 2.31119418144226074219e+00) (112, 2.51112008094787597656e+00) (113, 5.70038557052612304688e-01) (114, -2.61176645755767822266e-01) (115, 8.94500434398651123047e-01) (116, 2.34108328819274902344e+00) (117, 1.68561029434204101562e+00) (118, 1.58401453495025634766e+00) (119, 7.16164886951446533203e-01) (120, 6.59896671772003173828e-01) (121, 8.24481427669525146484e-01) (122, 1.12665688991546630859e+00) (123, -3.01281005144119262695e-01) (124, 6.08823537826538085938e-01) (125, 6.05505146086215972900e-02) (126, 2.12944960594177246094e+00) (127, -5.25887727737426757812e-01) (128, 2.49546095728874206543e-01) (129, 9.78449344635009765625e-01) (130, 4.99063432216644287109e-01) (131, 1.91927540302276611328e+00) (132, 1.29727900028228759766e-01) (133, 1.27780306339263916016e+00) (134, 1.48992657661437988281e+00) (135, 1.00459086894989013672e+00) (136, 1.03856348991394042969e+00) (137, 1.78487920761108398438e+00) (138, 1.23767161369323730469e+00) (139, 1.98065209388732910156e+00) (140, 8.51534426212310791016e-01) (141, 2.71919059753417968750e+00) (142, 2.15627694129943847656e+00) (143, 7.00341522693634033203e-01) (144, 2.24964213371276855469e+00) (145, 7.86019146442413330078e-01) (146, 1.52344274520874023438e+00) (147, 1.79404973983764648438e+00) (148, 1.88807225227355957031e+00) (149, 9.56119239330291748047e-01) (150, 2.07522511482238769531e+00) (151, 2.14919638633728027344e+00) (152, 1.66986179351806640625e+00) (153, 1.59849119186401367188e+00) (154, 1.50000000000000000000e+03) (155, 1.50000000000000000000e+03) (156, -3.42886686325073242188e-01) (157, 1.16536605358123779297e+00) (158, 1.35362350940704345703e+00) (159, 1.39772999286651611328e+00) (160, 1.18717920780181884766e+00) (161, 2.33336091041564941406e+00) (162, 8.99054884910583496094e-01) (0, -1.64060071110725402832e-01) (1, 1.27975070476531982422e+00) (2, 3.17638814449310302734e-01) (3, 1.64955842494964599609e+00) (4, 9.88105416297912597656e-01) (5, 7.58768916130065917969e-01) (6, 3.13245844841003417969e+00) (7, 2.63991534709930419922e-01) (8, 1.19480121135711669922e+00) (9, 1.29798913002014160156e+00) (10, 3.85775208473205566406e-01) (11, 2.13923811912536621094e+00) (12, 2.80569761991500854492e-01) (13, 1.75686240196228027344e+00) (14, 1.54276585578918457031e+00) (15, 1.07369410991668701172e+00) (16, 5.64729630947113037109e-01) (17, 2.39712429046630859375e+00) (18, 1.19992411136627197266e+00) (19, 1.60260117053985595703e+00) (20, 1.70606231689453125000e+00) (21, 7.10803449153900146484e-01) (22, 2.06903386116027832031e+00) (23, 1.30687105655670166016e+00) (24, 7.61272430419921875000e-01) (25, 1.45739090442657470703e+00) (26, 1.65905058383941650391e+00) (27, 1.11817276477813720703e+00) (28, 1.91376960277557373047e+00) (29, -2.07485437393188476562e+00) (30, -1.28521847724914550781e+00) (31, 5.65101981163024902344e-01) (32, 2.05806684494018554688e+00) (33, 3.78629118204116821289e-01) (34, 1.37828195095062255859e+00) (35, 8.35541546344757080078e-01) (36, 6.62530660629272460938e-01) (37, 8.24065566062927246094e-01) (38, 1.60163474082946777344e+00) (39, 2.66944551467895507812e+00) (40, 3.11205434799194335938e+00) (41, 2.86323189735412597656e+00) (42, 1.75352394580841064453e+00) (43, 8.32959115505218505859e-01) (44, 1.74793446063995361328e+00) (45, 5.75774848461151123047e-01) (46, 1.43980085849761962891e+00) (47, 3.61318945884704589844e-01) (48, 2.36962556838989257812e-01) (49, 8.83967041969299316406e-01) (50, 2.75918149948120117188e+00) (51, 1.39472901821136474609e+00) (52, 2.35239911079406738281e+00) (53, 1.21828532218933105469e+00) (54, -2.06892207264900207520e-01) (55, 6.36825680732727050781e-01) (56, 1.55836328864097595215e-01) (57, 2.60579824447631835938e+00) (58, 2.42474302649497985840e-01) (59, 3.68747878074645996094e+00) (60, 1.19584941864013671875e+00) (61, 1.17056512832641601562e+00) (62, -8.22456181049346923828e-02) (63, 7.06613540649414062500e-01) (64, 1.49741268157958984375e+00) (65, 5.89691698551177978516e-01) (66, 1.84404075145721435547e+00) (67, 3.74095410108566284180e-01) (68, 1.42165195941925048828e+00) (69, 1.51068413257598876953e+00) (70, 2.11938261985778808594e+00) (71, 9.24476444721221923828e-01) (72, -1.24225962162017822266e+00) (73, 2.19262838363647460938e+00) (74, 2.55896830558776855469e+00) (75, 1.08239352703094482422e+00) (76, 1.89050674438476562500e+00) (77, 1.20073235034942626953e+00) (78, 2.86949086189270019531e+00) (79, -1.00761406123638153076e-01) (80, 9.78122293949127197266e-01) (81, 9.88285005092620849609e-01) (82, 1.48166716098785400391e+00) (83, 1.62966752052307128906e+00) (84, 2.20720052719116210938e+00) (85, 3.31168699264526367188e+00) (86, 1.38865149021148681641e+00) (87, -1.97023916989564895630e-02) (88, 1.26456236839294433594e+00) (89, 7.09218025207519531250e-01) (90, 1.23467057943344116211e-01) (91, 8.85619044303894042969e-01) (92, 1.10277998447418212891e+00) (93, 8.63026976585388183594e-01) (94, 1.61764204502105712891e+00) (95, 7.25669622421264648438e-01) (96, 8.67551386356353759766e-01) (97, 1.93425393104553222656e+00) (98, 7.06406533718109130859e-01) (99, 2.98626852035522460938e+00) (100, 2.85330682992935180664e-01) (101, 7.61818110942840576172e-01) (102, 4.35593783855438232422e-01) (103, 9.01339471340179443359e-01) (104, 2.55108284950256347656e+00) (105, 3.87862056493759155273e-01) (106, 1.56856501102447509766e+00) (107, 1.62139105796813964844e+00) (108, 3.19794130325317382812e+00) (109, 6.15881204605102539062e-01) (110, 2.56777477264404296875e+00) (111, 8.54213237762451171875e-01) (112, 3.33234786987304687500e-01) (113, 1.22408509254455566406e+00) (114, 1.26425850391387939453e+00) (115, 6.02452218532562255859e-01) (116, 8.26520025730133056641e-01) (117, 1.46394991874694824219e+00) (118, -6.47865533828735351562e-01) (119, 2.37702727317810058594e+00) (120, 1.13548505306243896484e+00) (121, 8.08193027973175048828e-01) (122, 5.10696887969970703125e-01) (123, -1.39049553871154785156e+00) (124, 1.70873808860778808594e+00) (125, 1.52445232868194580078e+00) (126, -6.62161171436309814453e-01) (127, -9.36730563640594482422e-01) (128, -3.62750381231307983398e-01) (129, 3.83580923080444335938e-01) (130, 1.75885558128356933594e+00) (131, 1.98837804794311523438e+00) (132, 1.95067501068115234375e+00) (133, 1.48111307621002197266e+00) (134, 1.36772620677947998047e+00) (135, 6.69903635978698730469e-01) (136, 1.87029111385345458984e+00) (137, 8.63119244575500488281e-01) (138, 6.52289271354675292969e-01) (139, 1.41382312774658203125e+00) (140, 2.11435484886169433594e+00) (141, 7.09288775920867919922e-01) (142, 1.44852459430694580078e+00) (143, 2.96113401651382446289e-01) (144, 1.57365858554840087891e+00) (145, 1.06259977817535400391e+00) (146, 1.14183917641639709473e-01) (147, 3.97776424884796142578e-01) (148, 1.38919496536254882812e+00) (149, 6.00787103176116943359e-01) (150, 3.66028249263763427734e-01) (151, 4.59426522254943847656e-01) (152, 9.13615942001342773438e-01) (153, 1.29663419723510742188e+00) (154, 1.50000000000000000000e+03) (155, 1.50000000000000000000e+03) (156, 2.14265608787536621094e+00) (157, 1.10496535897254943848e-01) (158, 3.88470530509948730469e+00) (159, 6.14556312561035156250e-01) (160, 3.76063972711563110352e-01) (161, 7.01298892498016357422e-01) (162, 2.34319090843200683594e+00) (163, 3.32887625694274902344e+00) (0, 9.34170818328857421875e+00) (1, -6.52057945728302001953e-01) (2, 3.83521699905395507812e+00) (3, -1.29099857807159423828e+00) (4, 3.84265589714050292969e+00) (5, 2.67795652151107788086e-01) (6, 1.88223397731781005859e+00) (7, 2.67214655876159667969e+00) (8, 3.02272248268127441406e+00) (9, 5.69814682006835937500e-01) (10, 1.87847340106964111328e+00) (11, 6.29472315311431884766e-01) (12, 8.45944464206695556641e-01) (13, 1.11142992973327636719e+00) (14, -8.39601814746856689453e-01) (15, 1.82393312454223632812e+00) (16, 9.74405646324157714844e-01) (17, 1.54745054244995117188e+00) (18, 1.56267333030700683594e+00) (19, -1.91335928440093994141e+00) (20, 2.36622095108032226562e+00) (21, 2.79864525794982910156e+00) (22, 3.00093650817871093750e+00) (23, 1.05225241184234619141e+00) (24, 4.56189250946044921875e+00) (25, 2.21626305580139160156e+00) (26, 2.19543528556823730469e+00) (27, 1.94905889034271240234e+00) (28, 2.30157351493835449219e+00) (29, -1.57450127601623535156e+00) (30, 4.50043469667434692383e-01) (31, 4.02702522277832031250e+00) (32, 6.33508348464965820312e+00) (33, -1.61815762519836425781e+00) (34, -7.72780030965805053711e-02) (35, 9.46251869201660156250e-01) (36, -8.40809866786003112793e-02) (37, 2.08061742782592773438e+00) (38, 2.26395273208618164062e+00) (39, 3.33270013332366943359e-01) (40, -1.33272147178649902344e+00) (41, 3.04463410377502441406e+00) (42, 3.58183217048645019531e+00) (43, 8.35114836692810058594e-01) (44, 4.97652471065521240234e-01) (45, 1.96319770812988281250e+00) (46, -1.51042246818542480469e+00) (47, 3.28877002000808715820e-01) (48, 2.44285706430673599243e-02) (49, 3.11535388231277465820e-01) (50, 1.37715184688568115234e+00) (51, -4.56896686553955078125e+00) (52, 2.85834741592407226562e+00) (53, 1.88700664043426513672e+00) (54, 2.04685139656066894531e+00) (55, 4.24177527427673339844e-01) (56, 2.62273716926574707031e+00) (57, 2.07986903190612792969e+00) (58, -3.94296795129776000977e-01) (59, 1.55733556747436523438e+01) (60, 2.81615066528320312500e+00) (61, 9.59652781486511230469e-01) (62, 9.23433244228363037109e-01) (63, -4.95156079530715942383e-01) (64, 6.63439655303955078125e+00) (65, 2.01284122467041015625e+00) (66, 1.90415704250335693359e+00) (67, 5.24589240550994873047e-01) (68, -2.07140016555786132812e+00) (69, 9.30887281894683837891e-01) (70, 8.65604758262634277344e-01) (71, 4.68347191810607910156e-01) (72, 2.53869223594665527344e+00) (73, 8.61099421977996826172e-01) (74, 2.16525226831436157227e-01) (75, 2.04765987396240234375e+00) (76, 1.09532976150512695312e+00) (77, 1.92220866680145263672e+00) (78, 2.16499304771423339844e+00) (79, 1.93070971965789794922e+00) (80, -4.56940561532974243164e-01) (81, -7.21384108066558837891e-01) (82, 4.06715250015258789062e+00) (83, 1.79452061653137207031e+00) (84, -7.79755711555480957031e-01) (85, 3.84228229522705078125e+00) (86, 7.09950085729360580444e-03) (87, 1.75486624240875244141e+00) (88, 1.85104370117187500000e+00) (89, 2.76233583688735961914e-01) (90, 3.00539207458496093750e+00) (91, 3.52539420127868652344e+00) (92, -1.46186697483062744141e+00) (93, 3.67301464080810546875e+00) (94, 1.30975949764251708984e+00) (95, -1.60028493404388427734e+00) (96, 1.24281287193298339844e+00) (97, -3.12784612178802490234e-01) (98, -5.55852234363555908203e-01) (99, 2.12982559204101562500e+00) (100, 1.34881043434143066406e+00) (101, 1.47981011867523193359e+00) (102, 2.53506445884704589844e+00) (103, 1.17231786251068115234e+00) (104, 1.26362931728363037109e+00) (105, 1.01202726364135742188e-01) (106, 1.18776774406433105469e+00) (107, 1.97648775577545166016e+00) (108, 2.45679330825805664062e+00) (109, -1.51418721675872802734e+00) (110, 2.40570020675659179688e+00) (111, 5.38826763629913330078e-01) (112, 1.53183007240295410156e+00) (113, 1.02357177734375000000e+01) (114, 2.22977423667907714844e+00) (115, -7.80815720558166503906e-01) (116, -4.37395334243774414062e-01) (117, 1.56372725963592529297e+00) (118, 2.37787055969238281250e+00) (119, -5.78973197937011718750e+00) (120, 9.14664328098297119141e-01) (121, -4.68899458646774291992e-01) (122, 1.11157500743865966797e+00) (123, 1.57326102256774902344e+00) (124, 2.35697078704833984375e+00) (125, 3.21071219444274902344e+00) (126, 8.78825068473815917969e-01) (127, 3.29245626926422119141e-03) (128, 3.31421041488647460938e+00) (129, 1.36902952194213867188e+00) (130, 1.30977535247802734375e+00) (131, 2.13107156753540039062e+00) (132, 9.48229014873504638672e-01) (133, 4.08577060699462890625e+00) (134, 7.91147530078887939453e-01) (135, 3.77519726753234863281e+00) (136, 1.48151636123657226562e+00) (137, 1.91622853279113769531e+00) (138, 1.53517627716064453125e+00) (139, 2.30376362800598144531e+00) (140, 7.30677068233489990234e-01) (141, -1.82227146625518798828e+00) (142, 6.27803862094879150391e-01) (143, 1.18959116935729980469e+00) (144, -8.38098049163818359375e-01) (145, 2.26770424842834472656e+00) (146, 2.48900055885314941406e+00) (147, 2.36470007896423339844e+00) (148, 7.53022551536560058594e-01) (149, 2.04197525978088378906e+00) (150, 2.12286543846130371094e+00) (151, 1.46376657485961914062e+00) (152, 2.34367442131042480469e+00) (153, 1.38828516006469726562e+00) (154, 1.50000000000000000000e+03) (155, 1.50000000000000000000e+03) (156, -2.12730005383491516113e-01) (157, 1.44949841499328613281e+00) (158, -2.06628942489624023438e+00) (159, -8.34484875202178955078e-01) (160, 2.73082852363586425781e+00) (161, 3.26258945465087890625e+00) (162, 4.60729181766510009766e-01) (163, 9.00334239006042480469e-01) (164, 5.17382097244262695312e+00) (0, 2.04453253746032714844e+00) (1, 5.86925506591796875000e-01) (2, 1.52139627933502197266e+00) (3, 8.61095264554023742676e-02) (4, 1.55462372303009033203e+00) (5, 9.41260278224945068359e-01) (6, 8.89579355716705322266e-01) (7, 2.27756118774414062500e+00) (8, 1.72980582714080810547e+00) (9, 1.77261352539062500000e+00) (10, 2.95380115509033203125e+00) (11, 6.47015333175659179688e-01) (12, 3.35208237171173095703e-01) (13, 1.94895595312118530273e-01) (14, 1.82821011543273925781e+00) (15, 1.56924888491630554199e-01) (16, 4.13267374038696289062e-01) (17, 3.60577464103698730469e-01) (18, 1.11356139183044433594e+00) (19, 1.46824729442596435547e+00) (20, 4.20311421155929565430e-01) (21, 1.35631036758422851562e+00) (22, 1.30133569240570068359e+00) (23, 1.26076555252075195312e+00) (24, 2.77342557907104492188e+00) (25, -3.68756763637065887451e-02) (26, -4.00964409112930297852e-01) (27, 6.12660765647888183594e-01) (28, 8.38900804519653320312e-01) (29, 1.60711514949798583984e+00) (30, 2.09997296333312988281e+00) (31, 1.78382122516632080078e+00) (32, 6.66616857051849365234e-01) (33, 8.77553701400756835938e-01) (34, 2.30001020431518554688e+00) (35, -4.05013173818588256836e-01) (36, 1.84839653968811035156e+00) (37, 6.80197551846504211426e-02) (38, 4.76860672235488891602e-01) (39, 1.22988033294677734375e+00) (40, 2.34331035614013671875e+00) (41, 1.08170247077941894531e+00) (42, 2.68340396881103515625e+00) (43, 1.29345476627349853516e-01) (44, 2.04545307159423828125e+00) (45, 5.41858017444610595703e-01) (46, 7.53044664859771728516e-01) (47, 1.86495292186737060547e+00) (48, 8.95114779472351074219e-01) (49, 1.38201916217803955078e+00) (50, 1.80831241607666015625e+00) (51, 1.71454727649688720703e+00) (52, 7.74974375963211059570e-02) (53, 2.60938525199890136719e+00) (54, -7.82173648476600646973e-02) (55, 2.09751677513122558594e+00) (56, 4.55343753099441528320e-01) (57, 1.60832479596138000488e-01) (58, 6.24889016151428222656e-01) (59, 9.12459850311279296875e-01) (60, 2.18160533905029296875e+00) (61, -5.44343113899230957031e-01) (62, 2.34185361862182617188e+00) (63, 1.34786927700042724609e+00) (64, 1.07167887687683105469e+00) (65, 2.34487771987915039062e+00) (66, 1.22326827049255371094e+00) (67, 2.68376231193542480469e-01) (68, 2.03801822662353515625e+00) (69, 2.57814598083496093750e+00) (70, 9.07708525657653808594e-01) (71, 2.22556495666503906250e+00) (72, 1.61825323104858398438e+00) (73, 2.07602787017822265625e+00) (74, 2.34813094139099121094e+00) (75, 2.34423685073852539062e+00) (76, 8.54146420955657958984e-01) (77, -1.42046654224395751953e+00) (78, 1.08138644695281982422e+00) (79, 1.44928348064422607422e+00) (80, 1.80118167400360107422e+00) (81, 4.86444115638732910156e-01) (82, 9.17787179350852966309e-02) (83, 1.52884376049041748047e+00) (84, 2.58686423301696777344e+00) (85, 8.71838212013244628906e-01) (86, 1.30276095867156982422e+00) (87, 1.47580313682556152344e+00) (88, 1.15870118141174316406e+00) (89, 1.27645874023437500000e+00) (90, 2.48562917113304138184e-01) (91, 2.17827215790748596191e-01) (92, 1.57279646396636962891e+00) (93, 1.33160173892974853516e+00) (94, 1.52208662033081054688e+00) (95, 1.60978770256042480469e+00) (96, -4.58301901817321777344e-01) (97, 1.42333889007568359375e+00) (98, -1.15155026316642761230e-01) (99, 1.60652905702590942383e-01) (100, 1.47223579883575439453e+00) (101, 1.08848762512207031250e+00) (102, 2.54378366470336914062e+00) (103, 1.89479792118072509766e+00) (104, 1.56031155586242675781e+00) (105, 2.92375564575195312500e+00) (106, 1.30138158798217773438e+00) (107, 1.73208451271057128906e+00) (108, 1.94469404220581054688e+00) (109, 8.95116865634918212891e-01) (110, 9.40922677516937255859e-01) (111, 4.13659304380416870117e-01) (112, 1.76731455326080322266e+00) (113, 1.82074046134948730469e+00) (114, 2.08112549781799316406e+00) (115, -4.67994548380374908447e-02) (116, 3.86958569288253784180e-01) (117, 1.59537136554718017578e+00) (118, 1.09190237522125244141e+00) (119, 9.27112579345703125000e-01) (120, -9.93429481983184814453e-01) (121, 1.16242218017578125000e+00) (122, 6.82587921619415283203e-01) (123, 2.23378825187683105469e+00) (124, 2.13080811500549316406e+00) (125, 1.06791257858276367188e+00) (126, 2.18479943275451660156e+00) (127, 1.95896649360656738281e+00) (128, 3.16300839185714721680e-01) (129, 2.60444951057434082031e+00) (130, 2.67190456390380859375e+00) (131, 2.19499945640563964844e+00) (132, 8.70421826839447021484e-01) (133, 1.88169324398040771484e+00) (134, 1.98542952537536621094e+00) (135, 1.51624691486358642578e+00) (136, 7.20952451229095458984e-01) (137, 7.68465995788574218750e-01) (138, 1.12289535999298095703e+00) (139, 1.40292489528656005859e+00) (140, 1.52895474433898925781e+00) (141, 1.69537818431854248047e+00) (142, 2.80962395668029785156e+00) (143, 4.72463101148605346680e-01) (144, 6.32492303848266601562e-01) (145, 2.12986612319946289062e+00) (146, 1.54877197742462158203e+00) (147, 2.04769372940063476562e+00) (148, 1.11060965061187744141e+00) (149, 1.79040634632110595703e+00) (150, 2.10752725601196289062e+00) (151, 1.41012394428253173828e+00) (152, 1.17469394207000732422e+00) (153, 2.27018356323242187500e+00) (154, 1.50000000000000000000e+03) (155, 1.50000000000000000000e+03) (156, 7.00388193130493164062e-01) (157, 9.55553948879241943359e-01) (158, 1.18472838401794433594e+00) (159, 2.40781688690185546875e+00) (160, 1.76680755615234375000e+00) (161, -8.50411474704742431641e-01) (162, 1.60332775115966796875e+00) (163, 4.44814109802246093750e+00) (164, 4.17468369007110595703e-01) (165, -3.49108614027500152588e-02) (0, 2.26399779319763183594e-01) (1, 1.74893784523010253906e+00) (2, 1.11742758750915527344e+00) (3, 1.07380524277687072754e-01) (4, 3.47040921449661254883e-01) (5, -2.15530917048454284668e-01) (6, 2.20939874649047851562e+00) (7, 6.63994967937469482422e-01) (8, 3.78435313701629638672e-01) (9, 2.62797385454177856445e-01) (10, 1.19723665714263916016e+00) (11, 4.91114586591720581055e-01) (12, 7.64595389366149902344e-01) (13, 2.59221220016479492188e+00) (14, 1.91649115085601806641e+00) (15, 1.82631373405456542969e+00) (16, -3.68152782320976257324e-02) (17, 1.14467978477478027344e+00) (18, -1.17936289310455322266e+00) (19, 8.62032175064086914062e-01) (20, 1.38666939735412597656e+00) (21, -1.32637724280357360840e-01) (22, 8.33290278911590576172e-01) (23, 5.99455356597900390625e-01) (24, -5.72473764419555664062e-01) (25, -1.09943819046020507812e+00) (26, 1.15295445919036865234e+00) (27, 4.03185635805130004883e-01) (28, -1.36609780788421630859e+00) (29, -2.09209784865379333496e-01) (30, 1.43569338321685791016e+00) (31, -1.50792562961578369141e+00) (32, 1.36968827247619628906e+00) (33, 4.92735743522644042969e-01) (34, 5.68374454975128173828e-01) (35, -1.02587834000587463379e-01) (36, 3.66644561290740966797e-02) (37, -4.38351221382617950439e-02) (38, 7.75932252407073974609e-01) (39, -4.68147397041320800781e-01) (40, 2.79332786798477172852e-01) (41, -6.95484519004821777344e-01) (42, -1.10361671447753906250e+00) (43, 1.29971814155578613281e+00) (44, -3.17627936601638793945e-01) (45, 7.31965363025665283203e-01) (46, 5.06048798561096191406e-01) (47, 2.64240413904190063477e-01) (48, 2.00512099266052246094e+00) (49, -2.79075056314468383789e-01) (50, 1.74453020095825195312e+00) (51, 1.56014525890350341797e+00) (52, 1.11589622497558593750e+00) (53, 3.13100504875183105469e+00) (54, 1.45250046253204345703e+00) (55, 1.32509484887123107910e-01) (56, 1.98513376712799072266e+00) (57, 2.96125411987304687500e-01) (58, 1.12796819210052490234e+00) (59, 5.52452914416790008545e-03) (60, -1.32353156805038452148e-01) (61, 8.26201736927032470703e-01) (62, 3.58159691095352172852e-01) (63, -6.22420489788055419922e-01) (64, 1.65587484836578369141e+00) (65, 1.57575154304504394531e+00) (66, 4.70252603292465209961e-01) (67, 4.37256619334220886230e-02) (68, 1.10202598571777343750e+00) (69, 1.28630888462066650391e+00) (70, 3.19034159183502197266e-01) (71, 1.82699155807495117188e+00) (72, 3.01256370544433593750e+00) (73, 8.98588478565216064453e-01) (74, 3.56947183609008789062e-02) (75, 4.92365434765815734863e-02) (76, 1.77158391475677490234e+00) (77, 8.03094446659088134766e-01) (78, 9.53210070729255676270e-02) (79, 1.12120676040649414062e+00) (80, 1.49190306663513183594e+00) (81, 1.51588869094848632812e+00) (82, 9.80040907859802246094e-01) (83, -9.72474887967109680176e-02) (84, 8.45154702663421630859e-01) (85, 9.16384696960449218750e-01) (86, 1.00861918926239013672e+00) (87, 7.12515711784362792969e-01) (88, 4.43073064088821411133e-01) (89, 8.45752596855163574219e-01) (90, 2.46583208441734313965e-01) (91, 1.23781669139862060547e+00) (92, -1.01418161392211914062e+00) (93, 1.24518096446990966797e+00) (94, -1.20778536796569824219e+00) (95, 1.27506303787231445312e+00) (96, -1.31781890988349914551e-01) (97, 4.32229965925216674805e-01) (98, 8.36034953594207763672e-01) (99, 7.29842424392700195312e-01) (100, -6.84104323387145996094e-01) (101, -1.48721471428871154785e-01) (102, 9.01312172412872314453e-01) (103, 5.90722588822245597839e-03) (104, 1.11757850646972656250e+00) (105, 2.08573961257934570312e+00) (106, -4.45516556501388549805e-02) (107, 4.65070337057113647461e-01) (108, 6.37699902057647705078e-01) (109, 7.16815739870071411133e-02) (110, 1.33579087257385253906e+00) (111, -2.57218390703201293945e-01) (112, 4.82889831066131591797e-01) (113, 1.18046748638153076172e+00) (114, -9.62815821170806884766e-01) (115, 1.54909670352935791016e+00) (116, 5.02761304378509521484e-01) (117, 1.36879527568817138672e+00) (118, -1.17620348930358886719e-01) (119, 2.14538073539733886719e+00) (120, 5.05197227001190185547e-01) (121, 6.20565712451934814453e-01) (122, 1.26031136512756347656e+00) (123, 1.57464742660522460938e+00) (124, -2.88773685693740844727e-01) (125, 2.49295353889465332031e+00) (126, 4.18031662702560424805e-01) (127, 1.22457826137542724609e+00) (128, -1.82592496275901794434e-01) (129, 1.07389457523822784424e-01) (130, 1.65502834320068359375e+00) (131, 1.40396916866302490234e+00) (132, 7.03802347183227539062e-01) (133, 1.91004574298858642578e-01) (134, 2.53704875707626342773e-01) (135, 1.56279051303863525391e+00) (136, 1.14006030559539794922e+00) (137, 1.34890866279602050781e+00) (138, 1.44775778055191040039e-01) (139, -1.14369124174118041992e-01) (140, -1.14636465907096862793e-01) (141, 6.86736881732940673828e-01) (142, 9.31925237178802490234e-01) (143, 6.02098405361175537109e-01) (144, 3.23603041470050811768e-02) (145, 1.01223969459533691406e+00) (146, -7.37190127372741699219e-01) (147, 3.18221002817153930664e-01) (148, 2.23177388310432434082e-01) (149, 1.10687859356403350830e-01) (150, 6.99902325868606567383e-02) (151, 8.67843151092529296875e-01) (152, 1.38217926025390625000e+00) (153, -2.21474364399909973145e-01) (154, 1.50000000000000000000e+03) (155, 1.50000000000000000000e+03) (156, -2.18208742141723632812e+00) (157, 8.49003732204437255859e-01) (158, 2.57424759864807128906e+00) (159, 1.17273986339569091797e-01) (160, 2.63737416267395019531e+00) (161, 2.93249368667602539062e-01) (162, 3.67962408065795898438e+00) (163, 9.15972232818603515625e-01) (164, 6.75252795219421386719e-01) (165, 1.00017762184143066406e+00) (166, -4.67738866806030273438e-01) (0, -1.82470369338989257812e+00) (1, 5.11406481266021728516e-01) (2, 5.45257568359375000000e-01) (3, 8.04602742195129394531e-01) (4, 1.84415638446807861328e+00) (5, 1.17126882076263427734e+00) (6, 1.09561586380004882812e+00) (7, 2.56391137838363647461e-01) (8, 6.90756797790527343750e-01) (9, 4.20113950967788696289e-01) (10, 6.00541651248931884766e-01) (11, 1.32136249542236328125e+00) (12, -1.48742154240608215332e-01) (13, 8.61397922039031982422e-01) (14, 1.14537262916564941406e+00) (15, 1.47343075275421142578e+00) (16, 2.00358366966247558594e+00) (17, 1.22835469245910644531e+00) (18, 5.96495866775512695312e-01) (19, 1.92098879814147949219e+00) (20, 2.44488787651062011719e+00) (21, 1.09451420605182647705e-01) (22, 1.95851111412048339844e+00) (23, 1.48307108879089355469e+00) (24, 1.44622564315795898438e+00) (25, 2.49067489057779312134e-02) (26, 6.41852021217346191406e-01) (27, 7.03052222728729248047e-01) (28, 4.90245342254638671875e-01) (29, 2.56771183013916015625e+00) (30, 8.59134122729301452637e-02) (31, 3.67166459560394287109e-01) (32, -6.37409240007400512695e-02) (33, 2.89654493331909179688e-01) (34, -1.44367551803588867188e+00) (35, 1.77126204967498779297e+00) (36, 1.36091208457946777344e+00) (37, 1.99493670463562011719e+00) (38, 1.95428025722503662109e+00) (39, 2.31414914131164550781e+00) (40, 7.50822663307189941406e-01) (41, 1.37904739379882812500e+00) (42, 1.46201241016387939453e+00) (43, 1.37610316276550292969e+00) (44, 9.70938742160797119141e-01) (45, 1.10147798061370849609e+00) (46, 1.07853901386260986328e+00) (47, -1.53410941362380981445e-01) (48, 6.04399740695953369141e-01) (49, 4.37568753957748413086e-01) (50, 1.58298158645629882812e+00) (51, 8.70976686477661132812e-01) (52, 1.63135051727294921875e+00) (53, 1.28382527828216552734e+00) (54, 1.19958412647247314453e+00) (55, 1.32585656642913818359e+00) (56, 6.22877538204193115234e-01) (57, -1.26676723361015319824e-01) (58, 1.33968508243560791016e+00) (59, 7.12344741821289062500e+00) (60, 1.65217244625091552734e+00) (61, 1.46077001094818115234e+00) (62, 5.17027437686920166016e-01) (63, 1.84893023967742919922e+00) (64, 9.48368430137634277344e-01) (65, 1.39692366123199462891e+00) (66, 1.05879867076873779297e+00) (67, 1.04450011253356933594e+00) (68, 3.71577322483062744141e-01) (69, 1.37334716320037841797e+00) (70, 6.64391756057739257812e-01) (71, 1.90489864349365234375e+00) (72, 1.23705661296844482422e+00) (73, 1.01478981971740722656e+00) (74, 1.71887707710266113281e+00) (75, -2.76149094104766845703e-01) (76, 1.75064730644226074219e+00) (77, 1.39695286750793457031e+00) (78, 6.66731357574462890625e-01) (79, 2.34534549713134765625e+00) (80, 1.21405482292175292969e+00) (81, 1.82072973251342773438e+00) (82, -3.23910526931285858154e-02) (83, 8.73777806758880615234e-01) (84, 2.34113454818725585938e-01) (85, 2.14429569244384765625e+00) (86, 2.98452265560626983643e-02) (87, 9.76448059082031250000e-01) (88, 1.35974717140197753906e+00) (89, 9.38077270984649658203e-01) (90, 5.66183745861053466797e-01) (91, 2.19227766990661621094e+00) (92, 2.42733645439147949219e+00) (93, 8.17727029323577880859e-01) (94, 8.45404326915740966797e-01) (95, 1.10920917987823486328e+00) (96, 4.83763039112091064453e-01) (97, 2.27602690458297729492e-01) (98, 7.25812971591949462891e-01) (99, 5.84403693675994873047e-01) (100, 1.34309637546539306641e+00) (101, -4.15144897997379302979e-02) (102, 6.08619511127471923828e-01) (103, 1.26112759113311767578e+00) (104, 4.36513945460319519043e-02) (105, 1.17952913045883178711e-01) (106, 1.43904268741607666016e+00) (107, 1.47733640670776367188e+00) (108, 8.15771043300628662109e-01) (109, 3.03553700447082519531e-01) (110, 1.67765533924102783203e+00) (111, -8.48686695098876953125e-01) (112, 5.31609654426574707031e-01) (113, 1.38390529155731201172e+00) (114, 9.15278673171997070312e-01) (115, -6.24997377395629882812e-01) (116, 4.21401746571063995361e-02) (117, 2.44582438468933105469e+00) (118, 6.09362185001373291016e-01) (119, 7.00375378131866455078e-01) (120, 8.57032001018524169922e-01) (121, 2.06055355072021484375e+00) (122, 4.96615976095199584961e-01) (123, 1.76973211765289306641e+00) (124, 1.22385585308074951172e+00) (125, -3.04998438805341720581e-02) (126, 1.34108924865722656250e+00) (127, 1.53284442424774169922e+00) (128, -3.33071738481521606445e-01) (129, 8.91772508621215820312e-01) (130, 4.84304666519165039062e-01) (131, 1.00914812088012695312e+00) (132, 1.09863257408142089844e+00) (133, 6.20691061019897460938e-01) (134, 1.26026737689971923828e+00) (135, 1.47889912128448486328e+00) (136, 1.25266039371490478516e+00) (137, 1.48629963397979736328e-01) (138, 6.40042185783386230469e-01) (139, 1.32936441898345947266e+00) (140, 7.24228858947753906250e-01) (141, 5.93433797359466552734e-01) (142, 5.58863580226898193359e-01) (143, 1.27303469181060791016e+00) (144, 1.75652837753295898438e+00) (145, 2.52392554283142089844e+00) (146, 2.23665213584899902344e+00) (147, 5.40299952030181884766e-01) (148, 1.58456027507781982422e+00) (149, 6.70621573925018310547e-01) (150, 8.23254942893981933594e-01) (151, -2.19892129302024841309e-01) (152, 5.40355861186981201172e-01) (153, 2.43168041110038757324e-01) (154, 1.50000000000000000000e+03) (155, 1.50000000000000000000e+03) (156, -6.56222581863403320312e-01) (157, 2.62941980361938476562e+00) (158, 3.35036826133728027344e+00) (159, -2.62653827667236328125e-01) (160, 4.54005479812622070312e+00) (161, 7.82489895820617675781e-01) (162, -3.64818662405014038086e-01) (163, 4.10837709903717041016e-01) (164, 1.90921723842620849609e+00) (165, 2.17485594749450683594e+00) (166, 1.66565048694610595703e+00) (167, 7.89276838302612304688e-01) (0, 6.39930486679077148438e+00) (1, -5.04383146762847900391e-01) (2, 6.42883598804473876953e-01) (3, 1.60749208927154541016e+00) (4, 1.44845890998840332031e+00) (5, 4.33461427688598632812e-01) (6, 5.03688991069793701172e-01) (7, -4.21413540840148925781e-01) (8, 5.28826951980590820312e-01) (9, 6.22546792030334472656e-01) (10, 5.69967210292816162109e-01) (11, -3.55159133672714233398e-01) (12, 6.97886049747467041016e-01) (13, 2.95426011085510253906e-01) (14, 5.76272070407867431641e-01) (15, 1.47916424274444580078e+00) (16, 5.60557961463928222656e-01) (17, 1.71373593807220458984e+00) (18, 1.24860155582427978516e+00) (19, 7.83883452415466308594e-01) (20, 4.94159400463104248047e-01) (21, 5.97170174121856689453e-01) (22, 9.68286335468292236328e-01) (23, 5.86507320404052734375e-01) (24, 1.43600702285766601562e+00) (25, 1.56777524948120117188e+00) (26, 2.26680850982666015625e+00) (27, -9.80888605117797851562e-02) (28, 1.34904623031616210938e+00) (29, 1.23100721836090087891e+00) (30, 6.85241281986236572266e-01) (31, 1.40813124179840087891e+00) (32, 1.30447566509246826172e+00) (33, -6.83645978569984436035e-02) (34, 1.11705422401428222656e+00) (35, -3.33642005920410156250e-01) (36, 1.96848154067993164062e+00) (37, 1.79015660285949707031e+00) (38, 1.12028908729553222656e+00) (39, 2.10289144515991210938e+00) (40, 6.52029216289520263672e-01) (41, 1.88791322708129882812e+00) (42, 1.46144032478332519531e+00) (43, 6.89196586608886718750e-01) (44, -7.94788539409637451172e-01) (45, 7.23496496677398681641e-01) (46, 1.62132918834686279297e+00) (47, 1.64592668414115905762e-01) (48, 1.13651871681213378906e+00) (49, 3.95586043596267700195e-01) (50, 1.12705743312835693359e+00) (51, 7.57144033908843994141e-01) (52, 1.66963350772857666016e+00) (53, 9.81217563152313232422e-01) (54, 8.04517045617103576660e-02) (55, 2.38537475466728210449e-01) (56, 2.06810712814331054688e-01) (57, 7.93649971485137939453e-01) (58, 1.69372212886810302734e+00) (59, -1.14495267868041992188e+01) (60, -1.98253169655799865723e-01) (61, 1.92294001579284667969e+00) (62, 2.14322233200073242188e+00) (63, 3.18234145641326904297e-01) (64, 9.79300200939178466797e-01) (65, 1.41348373889923095703e+00) (66, 1.18257200717926025391e+00) (67, -1.50326520204544067383e-01) (68, 1.24694228172302246094e+00) (69, 5.95444440841674804688e-01) (70, -6.95828557014465332031e-01) (71, 8.37609529495239257812e-01) (72, 8.30779612064361572266e-01) (73, 1.78580772876739501953e+00) (74, 9.72925543785095214844e-01) (75, 1.48684346675872802734e+00) (76, 1.52876448631286621094e+00) (77, 4.15804803371429443359e-01) (78, 1.07188153266906738281e+00) (79, 6.46322011947631835938e-01) (80, 1.00310754776000976562e+00) (81, 6.91014349460601806641e-01) (82, 2.05937790870666503906e+00) (83, 6.36603951454162597656e-01) (84, 1.09935951232910156250e+00) (85, 3.71813446283340454102e-01) (86, 5.59459269046783447266e-01) (87, 2.05158543586730957031e+00) (88, 1.40200197696685791016e+00) (89, -5.01881957054138183594e-01) (90, 2.13142442703247070312e+00) (91, 1.78745448589324951172e+00) (92, 1.59335553646087646484e+00) (93, 1.02062487602233886719e+00) (94, 6.17797017097473144531e-01) (95, 1.87027722597122192383e-01) (96, 1.15715205669403076172e+00) (97, -1.45607609301805496216e-02) (98, -2.08136200904846191406e+00) (99, 1.24293923377990722656e+00) (100, 1.05871546268463134766e+00) (101, 1.01440691947937011719e+00) (102, 1.32509291172027587891e+00) (103, 3.15378397703170776367e-01) (104, -6.24770939350128173828e-01) (105, 9.38454806804656982422e-01) (106, 5.49417853355407714844e-01) (107, 1.79956388473510742188e+00) (108, 1.26450479030609130859e+00) (109, 4.47710275650024414062e-01) (110, 1.53694999217987060547e+00) (111, 2.43829345703125000000e+00) (112, 1.18074834346771240234e+00) (113, 1.32904446125030517578e+00) (114, 7.39952325820922851562e-01) (115, 4.69896137714385986328e-01) (116, 1.93988871574401855469e+00) (117, 2.23325037956237792969e+00) (118, 1.16262137889862060547e+00) (119, 9.79797422885894775391e-01) (120, -1.35468035936355590820e-01) (121, 4.47997689247131347656e-01) (122, 3.86568382382392883301e-02) (123, 2.09839797019958496094e+00) (124, 1.30751952528953552246e-01) (125, -7.01728224754333496094e-01) (126, -2.84429639577865600586e-01) (127, -5.59003241360187530518e-02) (128, 7.54374623298645019531e-01) (129, 8.83245170116424560547e-01) (130, 1.25323808193206787109e+00) (131, 4.46988306939601898193e-02) (132, 1.85986340045928955078e+00) (133, 6.59119069576263427734e-01) (134, 2.64719545841217041016e-01) (135, -7.70762920379638671875e-01) (136, 5.23355066776275634766e-01) (137, 1.37347590923309326172e+00) (138, 1.90491020679473876953e+00) (139, 1.21535313129425048828e+00) (140, 1.64077055454254150391e+00) (141, 2.29324769973754882812e+00) (142, -2.26147010922431945801e-01) (143, 7.62315869331359863281e-01) (144, 1.39958536624908447266e+00) (145, 2.01423335075378417969e+00) (146, 1.82980799674987792969e+00) (147, 1.04678213596343994141e+00) (148, 1.23200881481170654297e+00) (149, 2.06996321678161621094e+00) (150, 1.99292290210723876953e+00) (151, 1.61809098720550537109e+00) (152, 2.19519162178039550781e+00) (153, 2.19174981117248535156e+00) (154, 1.50000000000000000000e+03) (155, 1.50000000000000000000e+03) (156, -6.20039701461791992188e-01) (157, 1.42414724826812744141e+00) (158, 1.96710276603698730469e+00) (159, 1.48916447162628173828e+00) (160, -1.99136257171630859375e-01) (161, 1.76604175567626953125e+00) (162, 2.60237669944763183594e+00) (163, 1.96762359142303466797e+00) (164, 2.25868001580238342285e-01) (165, 1.32510709762573242188e+00) (166, -2.90767729282379150391e-01) (167, -5.27380645275115966797e-01) (168, 1.13265156745910644531e+00) (0, 2.12953586578369140625e+01) (1, -1.13046216964721679688e+00) (2, 2.07152485847473144531e+00) (3, 6.23204648494720458984e-01) (4, 1.84246718883514404297e+00) (5, -5.67665696144104003906e-01) (6, 1.52880513668060302734e+00) (7, 1.71166646480560302734e+00) (8, 1.22836387157440185547e+00) (9, 3.56126880645751953125e+00) (10, -2.71297633647918701172e-01) (11, 2.69478297233581542969e+00) (12, -2.17614150047302246094e+00) (13, 3.21000266075134277344e+00) (14, 1.55381929874420166016e+00) (15, 2.35850334167480468750e+00) (16, -1.08915495872497558594e+00) (17, 1.81577730178833007812e+00) (18, 1.80978822708129882812e+00) (19, 3.65235775709152221680e-01) (20, 2.77087664604187011719e+00) (21, 4.73243832588195800781e-01) (22, 1.02790188789367675781e+00) (23, 2.20599818229675292969e+00) (24, 1.20484244823455810547e+00) (25, 1.54597795009613037109e+00) (26, 8.03763747215270996094e-01) (27, 7.48981356620788574219e-01) (28, 9.62209105491638183594e-01) (29, -3.30034703016281127930e-01) (30, 3.12411284446716308594e+00) (31, 4.05424928665161132812e+00) (32, 7.98805892467498779297e-01) (33, 1.68211150169372558594e+00) (34, 4.70845043659210205078e-01) (35, 2.54412204027175903320e-01) (36, 4.87517654895782470703e-01) (37, 2.27949595451354980469e+00) (38, 1.19692087173461914062e-01) (39, 8.66657447814941406250e+00) (40, -1.56955695152282714844e+00) (41, 1.03968977928161621094e+00) (42, 1.92032241821289062500e+00) (43, 1.58543992042541503906e+00) (44, 1.17398774623870849609e+00) (45, -1.66616857051849365234e+00) (46, 2.61666417121887207031e+00) (47, -3.19490599632263183594e+00) (48, -9.55911278724670410156e-02) (49, 1.96424353122711181641e+00) (50, 1.84382617473602294922e+00) (51, -1.16361272335052490234e+00) (52, -1.66359043121337890625e+00) (53, 2.04571723937988281250e+00) (54, -3.30519556999206542969e+00) (55, 2.52407956123352050781e+00) (56, 7.16571271419525146484e-01) (57, 3.59855681657791137695e-01) (58, 1.95061731338500976562e+00) (59, -2.98073940277099609375e+01) (60, 1.50632667541503906250e+00) (61, 4.82475519180297851562e+00) (62, 4.76384639739990234375e+00) (63, 6.12724900245666503906e-01) (64, 1.30974256992340087891e+00) (65, -5.33298611640930175781e-01) (66, 7.44142532348632812500e-01) (67, 2.05498170852661132812e+00) (68, 1.03429293632507324219e+00) (69, 6.81190967559814453125e-01) (70, -1.37278211116790771484e+00) (71, 1.97544372081756591797e+00) (72, 2.93914973735809326172e-01) (73, 1.78529536724090576172e+00) (74, 2.44550541043281555176e-01) (75, -1.17374944686889648438e+00) (76, -1.00592958927154541016e+00) (77, 5.03845882415771484375e+00) (78, 1.42763423919677734375e+00) (79, 1.54318916797637939453e+00) (80, 5.87019443511962890625e+00) (81, 7.66158223152160644531e-01) (82, 1.41072881221771240234e+00) (83, 8.75190138816833496094e-01) (84, 2.83458739519119262695e-01) (85, 2.21545028686523437500e+00) (86, 5.32353830337524414062e+00) (87, 8.47612917423248291016e-01) (88, 2.35157847404479980469e+00) (89, 8.57897698879241943359e-02) (90, 5.67770195007324218750e+00) (91, -8.16197171807289123535e-02) (92, 3.42367798089981079102e-01) (93, 2.16993474960327148438e+00) (94, 1.03764057159423828125e+00) (95, -2.41726493835449218750e+00) (96, -1.69873094558715820312e+00) (97, -6.04139566421508789062e+00) (98, 1.89299464225769042969e-01) (99, 1.14662373065948486328e+00) (100, 1.36669754981994628906e+00) (101, 1.01357829570770263672e+00) (102, 2.39102888107299804688e+00) (103, -1.12065935134887695312e+00) (104, 1.06025183200836181641e+00) (105, 8.57224166393280029297e-01) (106, 2.06044226884841918945e-01) (107, 1.71936714649200439453e+00) (108, 1.91574943065643310547e+00) (109, 9.70726013183593750000e-01) (110, 2.68917226791381835938e+00) (111, -7.78037428855895996094e-01) (112, 1.18460655212402343750e+00) (113, 5.84119319915771484375e-01) (114, 2.50240373611450195312e+00) (115, 1.70688450336456298828e+00) (116, 2.16083002090454101562e+00) (117, 1.95028916001319885254e-01) (118, -3.25083196163177490234e-01) (119, 1.19847249984741210938e+00) (120, 8.60429704189300537109e-01) (121, 2.26764988899230957031e+00) (122, 1.39232134819030761719e+00) (123, 1.11958849430084228516e+00) (124, 1.20734798908233642578e+00) (125, 4.10842180252075195312e-01) (126, -1.01114816963672637939e-01) (127, 1.97390985488891601562e+00) (128, 1.12878370285034179688e+00) (129, -3.35816740989685058594e+00) (130, 1.45062124729156494141e+00) (131, 5.67715823650360107422e-01) (132, -3.19414496421813964844e+00) (133, 2.46305376291275024414e-01) (134, 2.24527788162231445312e+00) (135, 3.72904753684997558594e+00) (136, 8.61548781394958496094e-02) (137, 1.15278732776641845703e+00) (138, 9.72004950046539306641e-01) (139, -8.66230651736259460449e-02) (140, 1.32912600040435791016e+00) (141, -2.33000963926315307617e-01) (142, 3.72314286231994628906e+00) (143, 8.27973723411560058594e-01) (144, -7.05790698528289794922e-01) (145, -4.99978959560394287109e-01) (146, 1.58899128437042236328e-01) (147, 3.31445276737213134766e-01) (148, 7.62977898120880126953e-01) (149, 5.59178233146667480469e-01) (150, 1.36812961101531982422e+00) (151, 1.54875171184539794922e+00) (152, 7.26531222462654113770e-02) (153, 8.57495248317718505859e-01) (154, 1.50000000000000000000e+03) (155, 1.50000000000000000000e+03) (156, 1.04196822643280029297e+00) (157, 3.72112679481506347656e+00) (158, -1.09862780570983886719e+00) (159, -5.62820732593536376953e-01) (160, 2.76354670524597167969e+00) (161, 1.95689475536346435547e+00) (162, 3.59616369009017944336e-01) (163, 4.46387481689453125000e+00) (164, -2.37524464726448059082e-01) (165, 5.56365060806274414062e+00) (166, 9.25051033496856689453e-01) (167, -5.11938452720642089844e-01) (168, 1.03657042980194091797e+00) (169, 3.24969387054443359375e+00) (0, -1.67592678070068359375e+01) (1, 2.45643162727355957031e+00) (2, 5.53131580352783203125e-01) (3, 1.73269617557525634766e+00) (4, 1.36367034912109375000e+00) (5, 1.55284285545349121094e+00) (6, 1.06324888765811920166e-01) (7, 9.11650240421295166016e-01) (8, 1.78873434662818908691e-01) (9, 9.61513817310333251953e-01) (10, 1.03334152698516845703e+00) (11, 2.02959895133972167969e+00) (12, -1.85095763206481933594e+00) (13, -3.81949752569198608398e-01) (14, 3.43698203563690185547e-01) (15, 1.05587971210479736328e+00) (16, 5.22931754589080810547e-01) (17, -3.85529369115829467773e-01) (18, 6.36958599090576171875e-01) (19, 1.57716834545135498047e+00) (20, 6.21387541294097900391e-01) (21, 2.09809541702270507812e+00) (22, 1.71165037155151367188e+00) (23, 7.14787095785140991211e-02) (24, -1.29967242479324340820e-01) (25, 1.12469220161437988281e+00) (26, 1.92945504188537597656e+00) (27, 1.55909895896911621094e+00) (28, 1.39526557922363281250e+00) (29, 1.43740916252136230469e+00) (30, 9.58437919616699218750e-01) (31, 1.06067073345184326172e+00) (32, 1.34700250625610351562e+00) (33, 8.01038801670074462891e-01) (34, 9.34424281120300292969e-01) (35, 1.09213447570800781250e+00) (36, 1.92007744312286376953e+00) (37, 1.20256710052490234375e+00) (38, 2.72720789909362792969e+00) (39, 2.59349989891052246094e+00) (40, 7.18263924121856689453e-01) (41, 3.84132385253906250000e-01) (42, 2.36616635322570800781e+00) (43, -4.28734384477138519287e-02) (44, 1.34240210056304931641e+00) (45, 2.69953371025621891022e-03) (46, 1.12451064586639404297e+00) (47, 7.27271556854248046875e-01) (48, 1.12778842449188232422e+00) (49, 1.96230483055114746094e+00) (50, 8.97341728210449218750e-01) (51, -1.16264319419860839844e+00) (52, -7.69307315349578857422e-02) (53, 1.23350512981414794922e+00) (54, -1.80141597986221313477e-01) (55, 1.84989005327224731445e-01) (56, -4.27294135093688964844e-01) (57, 9.57793653011322021484e-01) (58, 2.13970017433166503906e+00) (59, 1.03011493682861328125e+01) (60, 3.77636849880218505859e-01) (61, 1.15160393714904785156e+00) (62, 6.92639708518981933594e-01) (63, 1.24407581984996795654e-01) (64, -2.86774486303329467773e-01) (65, 8.49323809146881103516e-01) (66, 7.00720012187957763672e-01) (67, 9.44713234901428222656e-01) (68, -6.99755728244781494141e-01) (69, 3.52616816759109497070e-01) (70, 8.80180299282073974609e-01) (71, -4.52380597591400146484e-01) (72, -1.65067982673645019531e+00) (73, 1.13416159152984619141e+00) (74, 3.03431093692779541016e-01) (75, 1.53396502137184143066e-01) (76, 9.89089906215667724609e-01) (77, -5.67273087799549102783e-02) (78, 4.73819613456726074219e-01) (79, 5.18861651420593261719e-01) (80, 1.29074060916900634766e+00) (81, 5.41898347437381744385e-02) (82, 3.74202966690063476562e-01) (83, 1.90570342540740966797e+00) (84, 1.40211153030395507812e+00) (85, 1.06764256954193115234e+00) (86, 3.32246273756027221680e-01) (87, 9.54222619533538818359e-01) (88, 5.25445938110351562500e-01) (89, -2.52679020166397094727e-01) (90, 1.22489941120147705078e+00) (91, 1.15004289150238037109e+00) (92, -7.21458554267883300781e-01) (93, 8.74078929424285888672e-01) (94, 1.75607848167419433594e+00) (95, 1.66157364845275878906e+00) (96, 1.13127171993255615234e+00) (97, -9.10205125808715820312e-01) (98, -2.44912147521972656250e-01) (99, 1.69662308692932128906e+00) (100, -1.66202202439308166504e-01) (101, 1.09574460983276367188e+00) (102, -1.83677628636360168457e-01) (103, -6.68905079364776611328e-02) (104, 6.99621289968490600586e-02) (105, 3.93279761075973510742e-01) (106, 1.79941725730895996094e+00) (107, 2.26161694526672363281e+00) (108, 1.01553142070770263672e+00) (109, 1.68921387195587158203e+00) (110, -6.25837326049804687500e-01) (111, 4.85152691602706909180e-01) (112, -9.26488637924194335938e-02) (113, -3.82496044039726257324e-02) (114, -1.79800438880920410156e+00) (115, 7.93893694877624511719e-01) (116, 3.94698709249496459961e-01) (117, 5.37739731371402740479e-02) (118, -8.43489587306976318359e-01) (119, 6.77783668041229248047e-01) (120, 3.65025073289871215820e-01) (121, 1.50048208236694335938e+00) (122, 4.07070398330688476562e-01) (123, 2.34965324401855468750e+00) (124, 2.68898487091064453125e-01) (125, 1.70228135585784912109e+00) (126, 1.52574419975280761719e+00) (127, 1.01175892353057861328e+00) (128, 1.36039626598358154297e+00) (129, 1.96016705036163330078e+00) (130, 1.61422774195671081543e-01) (131, 4.75268304347991943359e-01) (132, 1.13814806938171386719e+00) (133, 6.15300297737121582031e-01) (134, -2.42977634072303771973e-01) (135, 2.32781577110290527344e+00) (136, -9.43284273147583007812e-01) (137, 8.53963255882263183594e-01) (138, 8.82356047630310058594e-01) (139, -1.10583633184432983398e-01) (140, 7.48731672763824462891e-01) (141, -2.80541896820068359375e-01) (142, 1.13411271572113037109e+00) (143, 2.03404307365417480469e+00) (144, 2.59240078926086425781e+00) (145, 3.82395863533020019531e-01) (146, 5.61235770583152770996e-02) (147, -4.94300156831741333008e-01) (148, -4.38264638185501098633e-01) (149, -1.20236121118068695068e-01) (150, 4.95961219072341918945e-01) (151, 8.45782518386840820312e-01) (152, 1.24872601032257080078e+00) (153, 5.45407593250274658203e-01) (154, 1.50000000000000000000e+03) (155, 1.50000000000000000000e+03) (156, -2.02577900886535644531e+00) (157, 1.03584611415863037109e+00) (158, 2.18046331405639648438e+00) (159, 2.16509866714477539062e+00) (160, -1.97050094604492187500e-01) (161, 1.35155224800109863281e+00) (162, 2.24156665802001953125e+00) (163, 2.20609235763549804688e+00) (164, 1.09039819240570068359e+00) (165, 1.78616595268249511719e+00) (166, 2.81738901138305664062e+00) (167, 1.76345121860504150391e+00) (168, 1.39143872261047363281e+00) (169, -3.82544010877609252930e-01) (170, 5.23042023181915283203e-01) (0, -8.17222595214843750000e+00) (1, -3.49717378616333007812e-01) (2, 2.93248987197875976562e+00) (3, 3.29022240638732910156e+00) (4, 2.29152560234069824219e+00) (5, 1.15717673301696777344e+00) (6, 2.30167078971862792969e+00) (7, 2.15486907958984375000e+00) (8, 1.66364181041717529297e+00) (9, 1.57648587226867675781e+00) (10, 2.53540802001953125000e+00) (11, 1.49956071376800537109e+00) (12, 3.88223934173583984375e+00) (13, 3.69978666305541992188e+00) (14, 1.69410002231597900391e+00) (15, 2.07563877105712890625e+00) (16, 2.44389486312866210938e+00) (17, 1.87605226039886474609e+00) (18, 1.55125606060028076172e+00) (19, -6.48950338363647460938e-01) (20, 2.80346035957336425781e+00) (21, 2.43735218048095703125e+00) (22, 2.86156922578811645508e-01) (23, 1.54572045803070068359e+00) (24, 1.73792016506195068359e+00) (25, 1.92510426044464111328e+00) (26, 2.11712646484375000000e+00) (27, 1.68223822116851806641e+00) (28, -5.23735344409942626953e-01) (29, 9.94231700897216796875e-01) (30, 3.76599341630935668945e-01) (31, 2.08089089393615722656e+00) (32, -4.32144045829772949219e-01) (33, 1.63853955268859863281e+00) (34, 1.35846209526062011719e+00) (35, 2.25040626525878906250e+00) (36, 1.50784647464752197266e+00) (37, 2.10956215858459472656e+00) (38, 2.48266720771789550781e+00) (39, 1.84109473228454589844e+00) (40, 7.78624296188354492188e-01) (41, 7.35975503921508789062e-01) (42, 4.09389877319335937500e+00) (43, 1.89923560619354248047e+00) (44, 1.81392633914947509766e+00) (45, 1.84486591815948486328e+00) (46, 1.57129871845245361328e+00) (47, 1.02524471282958984375e+00) (48, 2.69427776336669921875e+00) (49, 2.63805723190307617188e+00) (50, 2.05757331848144531250e+00) (51, 1.76169764995574951172e+00) (52, 2.59580993652343750000e+00) (53, 1.15649282932281494141e+00) (54, 3.06707143783569335938e+00) (55, 1.35074687004089355469e+00) (56, 2.89273834228515625000e+00) (57, 1.38001489639282226562e+00) (58, -5.38707554340362548828e-01) (59, 1.09399728775024414062e+01) (60, 3.32986259460449218750e+00) (61, 1.72844898700714111328e+00) (62, 1.80570638179779052734e+00) (63, -2.25186884403228759766e-01) (64, 2.35011434555053710938e+00) (65, 1.10546731948852539062e+00) (66, 1.05301499366760253906e+00) (67, 1.32262945175170898438e+00) (68, 1.89403879642486572266e+00) (69, 2.28447651863098144531e+00) (70, 2.49073028564453125000e+00) (71, 1.48097455501556396484e+00) (72, 7.04559564590454101562e-01) (73, 2.10203552246093750000e+00) (74, 1.03484368324279785156e+00) (75, 7.44076550006866455078e-01) (76, -4.79660630226135253906e-01) (77, 2.00848698616027832031e+00) (78, 7.14343547821044921875e-01) (79, 1.33139741420745849609e+00) (80, 1.22832024097442626953e+00) (81, 2.65880560874938964844e+00) (82, 3.74394130706787109375e+00) (83, 9.29050326347351074219e-01) (84, 1.78785610198974609375e+00) (85, 1.30093920230865478516e+00) (86, 7.46985793113708496094e-01) (87, 1.50910627841949462891e+00) (88, 3.19596004486083984375e+00) (89, 9.06932950019836425781e-01) (90, 3.33089256286621093750e+00) (91, 1.49731433391571044922e+00) (92, 1.65528869628906250000e+00) (93, 1.45951759815216064453e+00) (94, 1.71506762504577636719e+00) (95, 1.63279712200164794922e+00) (96, 2.74582099914550781250e+00) (97, 9.36293482780456542969e-01) (98, 3.50813269615173339844e+00) (99, 1.75374948978424072266e+00) (100, 1.51341760158538818359e+00) (101, 7.89411723613739013672e-01) (102, 3.17060041427612304688e+00) (103, 3.54386043548583984375e+00) (104, -1.73547482490539550781e+00) (105, 1.53543424606323242188e+00) (106, 1.34281957149505615234e+00) (107, 2.15585756301879882812e+00) (108, 4.35626173019409179688e+00) (109, 3.12708616256713867188e-01) (110, 2.69496560096740722656e+00) (111, 2.03505754470825195312e+00) (112, 1.96916151046752929688e+00) (113, 1.59572494029998779297e+00) (114, 1.65973389148712158203e+00) (115, 1.25275170803070068359e+00) (116, 3.10709214210510253906e+00) (117, 2.12131953239440917969e+00) (118, 2.32074093818664550781e+00) (119, 2.62274527549743652344e+00) (120, 3.06155729293823242188e+00) (121, 9.52306926250457763672e-01) (122, 2.21210813522338867188e+00) (123, 7.87650763988494873047e-01) (124, 1.96518325805664062500e+00) (125, 6.71440839767456054688e-01) (126, 1.79288148880004882812e+00) (127, 2.64355134963989257812e+00) (128, 3.28147006034851074219e+00) (129, 5.40061414241790771484e-01) (130, 1.10672593116760253906e+00) (131, 3.23951625823974609375e+00) (132, 2.07907795906066894531e+00) (133, 1.25248289108276367188e+00) (134, 2.75826025009155273438e+00) (135, 1.97707748413085937500e+00) (136, 1.91461932659149169922e+00) (137, 2.27881407737731933594e+00) (138, 7.94202148914337158203e-01) (139, 1.77562201023101806641e+00) (140, 1.33687174320220947266e+00) (141, 1.22684645652770996094e+00) (142, 2.57520556449890136719e+00) (143, 2.17246985435485839844e+00) (144, -7.27754905819892883301e-02) (145, 2.11259269714355468750e+00) (146, 1.36812138557434082031e+00) (147, 1.46553790569305419922e+00) (148, 1.26887845993041992188e+00) (149, 2.67245721817016601562e+00) (150, 2.66307830810546875000e+00) (151, 8.12608718872070312500e-01) (152, 1.19284558296203613281e+00) (153, 2.33893823623657226562e+00) (154, 1.50000000000000000000e+03) (155, 1.50000000000000000000e+03) (156, 2.43442106246948242188e+00) (157, 1.61366391181945800781e+00) (158, 1.47108805179595947266e+00) (159, -3.26021999120712280273e-01) (160, -3.53412359952926635742e-01) (161, 5.32964289188385009766e-01) (162, 2.12056040763854980469e+00) (163, 2.22233915328979492188e+00) (164, 1.89217662811279296875e+00) (165, -3.62372189760208129883e-01) (166, 1.10893082618713378906e+00) (167, 1.59866392612457275391e+00) (168, 7.78986662626266479492e-02) (169, 1.48604965209960937500e+00) (170, 1.73585712909698486328e+00) (171, 4.21692758798599243164e-01) (0, -7.39208841323852539062e+00) (1, -7.41779565811157226562e-01) (2, 3.88013410568237304688e+00) (3, 1.04825925827026367188e+00) (4, 1.99064135551452636719e+00) (5, 2.12881922721862792969e+00) (6, 1.62692618370056152344e+00) (7, 2.21232104301452636719e+00) (8, 1.75651192665100097656e+00) (9, 2.62971019744873046875e+00) (10, 2.65281844139099121094e+00) (11, 2.52949810028076171875e+00) (12, 2.27128839492797851562e+00) (13, 1.03655242919921875000e+00) (14, 7.44843900203704833984e-01) (15, 2.80106163024902343750e+00) (16, 9.58713293075561523438e-01) (17, -3.88536602258682250977e-01) (18, 1.41664946079254150391e+00) (19, 9.11553919315338134766e-01) (20, 1.27185034751892089844e+00) (21, 8.84784519672393798828e-01) (22, 1.44854414463043212891e+00) (23, 1.76593279838562011719e+00) (24, 2.54812002182006835938e+00) (25, -1.84483063220977783203e+00) (26, 2.26225876808166503906e+00) (27, 1.26092582941055297852e-01) (28, 1.41716587543487548828e+00) (29, 4.47342276573181152344e-01) (30, 2.42579483985900878906e+00) (31, 7.40408122539520263672e-01) (32, 2.02734231948852539062e+00) (33, 1.81430327892303466797e+00) (34, 2.23578214645385742188e+00) (35, 1.56150710582733154297e+00) (36, 1.11487376689910888672e+00) (37, 1.13913202285766601562e+00) (38, 1.29839646816253662109e+00) (39, 1.61918473243713378906e+00) (40, 2.74884366989135742188e+00) (41, 2.44785642623901367188e+00) (42, 2.49059587717056274414e-01) (43, 1.33265125751495361328e+00) (44, 3.00011777877807617188e+00) (45, 7.94571876525878906250e-01) (46, 1.86041146516799926758e-02) (47, 1.12809109687805175781e+00) (48, -4.26865369081497192383e-01) (49, 3.42959952354431152344e+00) (50, 8.50960493087768554688e-01) (51, 7.95124173164367675781e-01) (52, 1.42318034172058105469e+00) (53, 2.31294035911560058594e+00) (54, 9.67675387859344482422e-01) (55, 1.50984370708465576172e+00) (56, -1.79971814155578613281e-01) (57, 2.22117853164672851562e+00) (58, 1.68763005733489990234e+00) (59, -1.01791248321533203125e+01) (60, 7.99638450145721435547e-01) (61, 2.09195566177368164062e+00) (62, -1.43846201896667480469e+00) (63, 1.16476047039031982422e+00) (64, 2.55591034889221191406e+00) (65, 2.82434821128845214844e+00) (66, 7.83457040786743164062e-01) (67, -2.25641518831253051758e-01) (68, 3.38400214910507202148e-01) (69, 1.51550400257110595703e+00) (70, 1.81156957149505615234e+00) (71, 1.16080433130264282227e-01) (72, 2.15783104300498962402e-01) (73, 2.08638930320739746094e+00) (74, 1.99205577373504638672e+00) (75, 1.87621855735778808594e+00) (76, 2.18885803222656250000e+00) (77, 1.14486634731292724609e+00) (78, 1.85932171344757080078e+00) (79, 1.18537819385528564453e+00) (80, 1.24901115894317626953e+00) (81, 5.41033208370208740234e-01) (82, 2.57689809799194335938e+00) (83, 2.05691003799438476562e+00) (84, 3.78895491361618041992e-01) (85, 2.37442660331726074219e+00) (86, 1.37933158874511718750e+00) (87, 1.10490775108337402344e+00) (88, 3.50259160995483398438e+00) (89, 2.27667570114135742188e+00) (90, 8.94104301929473876953e-01) (91, 1.17403602600097656250e+00) (92, 1.17360103130340576172e+00) (93, 2.48074606060981750488e-01) (94, 