FANN_FLO_2.1
num_layers=2
learning_rate=0.700000
connection_rate=1.000000
network_type=1
learning_momentum=0.000000
training_algorithm=2
train_error_function=0
train_stop_function=0
cascade_output_change_fraction=0.010000
quickprop_decay=-0.000100
quickprop_mu=1.750000
rprop_increase_factor=1.200000
rprop_decrease_factor=0.500000
rprop_delta_min=0.000000
rprop_delta_max=50.000000
rprop_delta_zero=0.100000
cascade_output_stagnation_epochs=12
cascade_candidate_change_fraction=0.010000
cascade_candidate_stagnation_epochs=12
cascade_max_out_epochs=150
cascade_max_cand_epochs=150
cascade_num_candidate_groups=8
bit_fail_limit=8.99999976158142089844e-01
cascade_candidate_limit=1.00000000000000000000e+03
cascade_weight_multiplier=4.00000005960464477539e-01
cascade_activation_functions_count=1
cascade_activation_functions=5 
cascade_activation_steepnesses_count=1
cascade_activation_steepnesses=1.00000000000000000000e+00 
layer_sizes=11 156 
scale_included=0
neurons (num_inputs, activation_function, activation_steepness)=(0, 0, 0.00000000000000000000e+00) (0, 0, 0.00000000000000000000e+00) (0, 0, 0.00000000000000000000e+00) (0, 0, 0.00000000000000000000e+00) (0, 0, 0.00000000000000000000e+00) (0, 0, 0.00000000000000000000e+00) (0, 0, 0.00000000000000000000e+00) (0, 0, 0.00000000000000000000e+00) (0, 0, 0.00000000000000000000e+00) (0, 0, 0.00000000000000000000e+00) (0, 0, 0.00000000000000000000e+00) (11, 0, 5.00000000000000000000e-01) (11, 0, 5.00000000000000000000e-01) (11, 0, 5.00000000000000000000e-01) (11, 0, 5.00000000000000000000e-01) (11, 0, 5.00000000000000000000e-01) (11, 0, 5.00000000000000000000e-01) (11, 0, 5.00000000000000000000e-01) (11, 0, 5.00000000000000000000e-01) (11, 0, 5.00000000000000000000e-01) (11, 0, 5.00000000000000000000e-01) (11, 0, 5.00000000000000000000e-01) (11, 0, 5.00000000000000000000e-01) (11, 0, 5.00000000000000000000e-01) (11, 0, 5.00000000000000000000e-01) (11, 0, 5.00000000000000000000e-01) (11, 0, 5.00000000000000000000e-01) (11, 0, 5.00000000000000000000e-01) (11, 0, 5.00000000000000000000e-01) (11, 0, 5.00000000000000000000e-01) (11, 0, 5.00000000000000000000e-01) (11, 0, 5.00000000000000000000e-01) (11, 0, 5.00000000000000000000e-01) (11, 0, 5.00000000000000000000e-01) (11, 0, 5.00000000000000000000e-01) (11, 0, 5.00000000000000000000e-01) (11, 0, 5.00000000000000000000e-01) (11, 0, 5.00000000000000000000e-01) (11, 0, 5.00000000000000000000e-01) (11, 0, 5.00000000000000000000e-01) (11, 0, 5.00000000000000000000e-01) (11, 0, 5.00000000000000000000e-01) (11, 0, 5.00000000000000000000e-01) (11, 0, 5.00000000000000000000e-01) (11, 0, 5.00000000000000000000e-01) (11, 0, 5.00000000000000000000e-01) (11, 0, 5.00000000000000000000e-01) (11, 0, 5.00000000000000000000e-01) (11, 0, 5.00000000000000000000e-01) (11, 0, 5.00000000000000000000e-01) (11, 0, 5.00000000000000000000e-01) (11, 0, 5.00000000000000000000e-01) (11, 0, 5.00000000000000000000e-01) (11, 0, 5.00000000000000000000e-01) (11, 0, 5.00000000000000000000e-01) (11, 0, 5.00000000000000000000e-01) (11, 0, 5.00000000000000000000e-01) (11, 0, 5.00000000000000000000e-01) (11, 0, 5.00000000000000000000e-01) (11, 0, 5.00000000000000000000e-01) (11, 0, 5.00000000000000000000e-01) (11, 0, 5.00000000000000000000e-01) (11, 0, 5.00000000000000000000e-01) (11, 0, 5.00000000000000000000e-01) (11, 0, 5.00000000000000000000e-01) (11, 0, 5.00000000000000000000e-01) (11, 0, 5.00000000000000000000e-01) (11, 0, 5.00000000000000000000e-01) (11, 0, 5.00000000000000000000e-01) (11, 0, 5.00000000000000000000e-01) (11, 0, 5.00000000000000000000e-01) (11, 0, 5.00000000000000000000e-01) (11, 0, 5.00000000000000000000e-01) (11, 0, 5.00000000000000000000e-01) (11, 0, 5.00000000000000000000e-01) (11, 0, 5.00000000000000000000e-01) (11, 0, 5.00000000000000000000e-01) (11, 0, 5.00000000000000000000e-01) (11, 0, 5.00000000000000000000e-01) (11, 0, 5.00000000000000000000e-01) (11, 0, 5.00000000000000000000e-01) (11, 0, 5.00000000000000000000e-01) (11, 0, 5.00000000000000000000e-01) (11, 0, 5.00000000000000000000e-01) (11, 0, 5.00000000000000000000e-01) (11, 0, 5.00000000000000000000e-01) (11, 0, 5.00000000000000000000e-01) (11, 0, 5.00000000000000000000e-01) (11, 0, 5.00000000000000000000e-01) (11, 0, 5.00000000000000000000e-01) (11, 0, 5.00000000000000000000e-01) (11, 0, 5.00000000000000000000e-01) (11, 0, 5.00000000000000000000e-01) (11, 0, 5.00000000000000000000e-01) (11, 0, 5.00000000000000000000e-01) (11, 0, 5.00000000000000000000e-01) (11, 0, 5.00000000000000000000e-01) (11, 0, 5.00000000000000000000e-01) (11, 0, 5.00000000000000000000e-01) (11, 0, 5.00000000000000000000e-01) (11, 0, 5.00000000000000000000e-01) (11, 0, 5.00000000000000000000e-01) (11, 0, 5.00000000000000000000e-01) (11, 0, 5.00000000000000000000e-01) (11, 0, 5.00000000000000000000e-01) (11, 0, 5.00000000000000000000e-01) (11, 0, 5.00000000000000000000e-01) (11, 0, 5.00000000000000000000e-01) (11, 0, 5.00000000000000000000e-01) (11, 0, 5.00000000000000000000e-01) (11, 0, 5.00000000000000000000e-01) (11, 0, 5.00000000000000000000e-01) (11, 0, 5.00000000000000000000e-01) (11, 0, 5.00000000000000000000e-01) (11, 0, 5.00000000000000000000e-01) (11, 0, 5.00000000000000000000e-01) (11, 0, 5.00000000000000000000e-01) (11, 0, 5.00000000000000000000e-01) (11, 0, 5.00000000000000000000e-01) (11, 0, 5.00000000000000000000e-01) (11, 0, 5.00000000000000000000e-01) (11, 0, 5.00000000000000000000e-01) (11, 0, 5.00000000000000000000e-01) (11, 0, 5.00000000000000000000e-01) (11, 0, 5.00000000000000000000e-01) (11, 0, 5.00000000000000000000e-01) (11, 0, 5.00000000000000000000e-01) (11, 0, 5.00000000000000000000e-01) (11, 0, 5.00000000000000000000e-01) (11, 0, 5.00000000000000000000e-01) (11, 0, 5.00000000000000000000e-01) (11, 0, 5.00000000000000000000e-01) (11, 0, 5.00000000000000000000e-01) (11, 0, 5.00000000000000000000e-01) (11, 0, 5.00000000000000000000e-01) (11, 0, 5.00000000000000000000e-01) (11, 0, 5.00000000000000000000e-01) (11, 0, 5.00000000000000000000e-01) (11, 0, 5.00000000000000000000e-01) (11, 0, 5.00000000000000000000e-01) (11, 0, 5.00000000000000000000e-01) (11, 0, 5.00000000000000000000e-01) (11, 0, 5.00000000000000000000e-01) (11, 0, 5.00000000000000000000e-01) (11, 0, 5.00000000000000000000e-01) (11, 0, 5.00000000000000000000e-01) (11, 0, 5.00000000000000000000e-01) (11, 0, 5.00000000000000000000e-01) (11, 0, 5.00000000000000000000e-01) (11, 0, 5.00000000000000000000e-01) (11, 0, 5.00000000000000000000e-01) (11, 0, 5.00000000000000000000e-01) (11, 0, 5.00000000000000000000e-01) (11, 0, 5.00000000000000000000e-01) (11, 0, 5.00000000000000000000e-01) (11, 0, 5.00000000000000000000e-01) (11, 0, 5.00000000000000000000e-01) (11, 0, 5.00000000000000000000e-01) (11, 0, 5.00000000000000000000e-01) (11, 0, 5.00000000000000000000e-01) (11, 0, 5.00000000000000000000e-01) (11, 0, 5.00000000000000000000e-01) (11, 0, 5.00000000000000000000e-01) (11, 0, 5.00000000000000000000e-01) (11, 0, 5.00000000000000000000e-01) (11, 0, 5.00000000000000000000e-01) (11, 0, 5.00000000000000000000e-01) 
connections (connected_to_neuron, weight)=(0, -7.64824581146240234375e+00) (1, -6.12348270416259765625e+00) (2, 3.02930068969726562500e+00) (3, 4.24862289428710937500e+00) (4, 2.37615966796875000000e+00) (5, 5.07245445251464843750e+00) (6, -8.12478733062744140625e+00) (7, -1.35436582565307617188e+00) (8, 6.18709373474121093750e+00) (9, -7.12600326538085937500e+00) (10, -2.42527198791503906250e+00) (0, 4.15996456146240234375e+00) (1, 8.82894134521484375000e+00) (2, 6.86651611328125000000e+00) (3, 5.20667934417724609375e+00) (4, 8.05001449584960937500e+00) (5, 7.71396636962890625000e+00) (6, -7.95253753662109375000e-01) (7, -1.15716075897216796875e+00) (8, -4.21667861938476562500e+00) (9, -1.84849119186401367188e+00) (10, 8.58074569702148437500e+00) (0, 6.09108448028564453125e+00) (1, 4.66570472717285156250e+00) (2, -7.44060182571411132812e+00) (3, 8.61876106262207031250e+00) (4, 1.23607444763183593750e+00) (5, -4.51245927810668945312e+00) (6, 6.91977500915527343750e+00) (7, 3.09614181518554687500e-01) (8, -1.98445558547973632812e+00) (9, 8.27153015136718750000e+00) (10, 3.18613052368164062500e+00) (0, -7.95515441894531250000e+00) (1, 3.52015304565429687500e+00) (2, -3.43770885467529296875e+00) (3, 6.11730003356933593750e+00) (4, 4.39536476135253906250e+00) (5, 4.20792484283447265625e+00) (6, 3.30439376831054687500e+00) (7, 6.26936244964599609375e+00) (8, -7.21734714508056640625e+00) (9, -1.53564167022705078125e+00) (10, 6.09830379486083984375e+00) (0, 8.64916992187500000000e+00) (1, -5.32896280288696289062e+00) (2, 5.14831733703613281250e+00) (3, 7.36313629150390625000e+00) (4, 2.87578296661376953125e+00) (5, -5.00884342193603515625e+00) (6, -5.85354280471801757812e+00) (7, -7.97270774841308593750e+00) (8, -5.42809867858886718750e+00) (9, -8.76245880126953125000e+00) (10, 5.69299697875976562500e+00) (0, -3.86870002746582031250e+00) (1, 8.85630416870117187500e+00) (2, -2.07092761993408203125e+00) (3, 6.18840217590332031250e-01) (4, 6.77607822418212890625e+00) (5, 7.23868751525878906250e+00) (6, 7.63438606262207031250e+00) (7, 6.04760932922363281250e+00) (8, 1.42481708526611328125e+00) (9, 8.67922973632812500000e+00) (10, 5.67761421203613281250e-01) (0, 6.98710823059082031250e+00) (1, 5.79653072357177734375e+00) (2, -4.03687334060668945312e+00) (3, 2.19503307342529296875e+00) (4, 1.00925445556640625000e-01) (5, -6.76751136779785156250e+00) (6, 3.97768592834472656250e+00) (7, 7.56528282165527343750e+00) (8, 8.33079147338867187500e+00) (9, 3.62685489654541015625e+00) (10, -6.76368045806884765625e+00) (0, 4.47910976409912109375e+00) (1, 1.98999118804931640625e+00) (2, 5.11210346221923828125e+00) (3, 8.47026634216308593750e+00) (4, 5.13644886016845703125e+00) (5, 6.13939476013183593750e+00) (6, -5.95783185958862304688e+00) (7, 5.37399005889892578125e+00) (8, 2.83239269256591796875e+00) (9, -8.26531410217285156250e-01) (10, 5.23029232025146484375e+00) (0, -8.23853492736816406250e+00) (1, 8.79230880737304687500e+00) (2, 3.00637149810791015625e+00) (3, 8.00015068054199218750e+00) (4, 7.42669486999511718750e+00) (5, 5.39798736572265625000e-02) (6, 4.24967765808105468750e-01) (7, 7.10592460632324218750e+00) (8, -8.37825870513916015625e+00) (9, -1.58792304992675781250e+00) (10, 3.90245532989501953125e+00) (0, -3.41513252258300781250e+00) (1, -8.39288997650146484375e+00) (2, -4.99661970138549804688e+00) (3, -1.18264341354370117188e+00) (4, 4.58479690551757812500e+00) (5, -6.43133687973022460938e+00) (6, -1.85185146331787109375e+00) (7, -7.88349151611328125000e-01) (8, -4.19501733779907226562e+00) (9, -6.37274122238159179688e+00) (10, -7.79835748672485351562e+00) (0, -8.08291435241699218750e+00) (1, -6.90247440338134765625e+00) (2, 6.33809089660644531250e+00) (3, 7.05648040771484375000e+00) (4, -3.86030578613281250000e+00) (5, 2.71208095550537109375e+00) (6, 8.88874053955078125000e-01) (7, 4.31316184997558593750e+00) (8, -1.05762624740600585938e+00) (9, 1.65033817291259765625e+00) (10, 4.10547065734863281250e+00) (0, -7.05125427246093750000e+00) (1, 6.50489807128906250000e-01) (2, 2.53216552734375000000e+00) (3, 2.00272464752197265625e+00) (4, -7.92454147338867187500e+00) (5, 6.38090133666992187500e-01) (6, 2.62446594238281250000e+00) (7, -5.12464523315429687500e-01) (8, -4.45945453643798828125e+00) (9, 8.20933532714843750000e+00) (10, 9.46455001831054687500e-02) (0, -4.56073760986328125000e-01) (1, -1.97330856323242187500e+00) (2, -4.32055854797363281250e+00) (3, 2.11258888244628906250e+00) (4, 5.17484092712402343750e+00) (5, 3.89109230041503906250e+00) (6, 6.91757202148437500000e+00) (7, 7.80209922790527343750e+00) (8, 5.09273529052734375000e+00) (9, 7.83465766906738281250e+00) (10, -8.10037517547607421875e+00) (0, 2.43082618713378906250e+00) (1, 5.89113998413085937500e+00) (2, -2.96068191528320312500e+00) (3, -3.85709333419799804688e+00) (4, -2.21998643875122070312e+00) (5, -7.64751958847045898438e+00) (6, 4.08528137207031250000e+00) (7, 8.43035125732421875000e+00) (8, 5.45795059204101562500e+00) (9, 6.03402614593505859375e+00) (10, 8.08420181274414062500e-02) (0, -1.00988388061523437500e+00) (1, -9.63247299194335937500e-01) (2, 1.15630054473876953125e+00) (3, 8.62820625305175781250e+00) (4, -7.33878087997436523438e+00) (5, -8.35616493225097656250e+00) (6, -4.83124828338623046875e+00) (7, -8.12944602966308593750e+00) (8, 7.38480567932128906250e-01) (9, 3.71267700195312500000e+00) (10, -1.10275459289550781250e+00) (0, 5.41792201995849609375e+00) (1, -3.17473316192626953125e+00) (2, -4.92791414260864257812e+00) (3, 3.09014320373535156250e-01) (4, -5.25716161727905273438e+00) (5, -6.12581539154052734375e+00) (6, -3.59825086593627929688e+00) (7, -6.42250394821166992188e+00) (8, -5.22619056701660156250e+00) (9, 7.83257484436035156250e+00) (10, 8.46863555908203125000e+00) (0, 8.13127517700195312500e-01) (1, -5.02451801300048828125e+00) (2, -2.75135135650634765625e+00) (3, 2.16560840606689453125e+00) (4, 8.06076240539550781250e+00) (5, -3.32099962234497070312e+00) (6, -1.37644052505493164062e+00) (7, 5.09478950500488281250e+00) (8, 5.75984191894531250000e+00) (9, 6.61367511749267578125e+00) (10, -4.86845874786376953125e+00) (0, -2.08385753631591796875e+00) (1, 6.24188137054443359375e+00) (2, -3.20723962783813476562e+00) (3, -1.44002246856689453125e+00) (4, -7.58936691284179687500e+00) (5, -2.33668565750122070312e+00) (6, 8.29845809936523437500e+00) (7, 5.12331104278564453125e+00) (8, 5.56055927276611328125e+00) (9, 4.71638011932373046875e+00) (10, -7.05142259597778320312e+00) (0, -8.36735439300537109375e+00) (1, -3.97460556030273437500e+00) (2, -3.30858421325683593750e+00) (3, -5.49316978454589843750e+00) (4, 1.42714309692382812500e+00) (5, -7.31087684631347656250e-01) (6, -1.71936035156250000000e+00) (7, 2.59717941284179687500e-01) (8, -1.26245260238647460938e+00) (9, 8.09376716613769531250e+00) (10, 4.23520088195800781250e+00) (0, 4.98619556427001953125e+00) (1, 1.25937557220458984375e+00) (2, 3.29596328735351562500e+00) (3, -7.33480358123779296875e+00) (4, 8.88293457031250000000e+00) (5, -6.09247207641601562500e-01) (6, 7.42503738403320312500e+00) (7, 6.49661064147949218750e+00) (8, 3.52229404449462890625e+00) (9, -3.65881919860839843750e+00) (10, 3.73849201202392578125e+00) (0, -8.68494510650634765625e+00) (1, 3.90115833282470703125e+00) (2, 5.14912605285644531250e+00) (3, -2.02163124084472656250e+00) (4, 3.19961643218994140625e+00) (5, 1.27243709564208984375e+00) (6, -5.46107149124145507812e+00) (7, -1.08400297164916992188e+00) (8, 3.22101306915283203125e+00) (9, -4.82842636108398437500e+00) (10, 3.94139099121093750000e+00) (0, 8.91242980957031250000e+00) (1, -1.32159614562988281250e+00) (2, -3.63146543502807617188e+00) (3, -8.18658828735351562500e-01) (4, 5.95904350280761718750e+00) (5, 5.62825298309326171875e+00) (6, 6.91888809204101562500e+00) (7, 5.05281066894531250000e+00) (8, 8.63453865051269531250e-01) (9, 2.90508460998535156250e+00) (10, -2.68781423568725585938e+00) (0, -4.84058380126953125000e+00) (1, 4.57028007507324218750e+00) (2, -2.80487966537475585938e+00) (3, 3.55016899108886718750e+00) (4, 2.99531936645507812500e+00) (5, -5.30826950073242187500e+00) (6, -1.92753744125366210938e+00) (7, 8.33650016784667968750e+00) (8, 7.43022346496582031250e+00) (9, -1.61248302459716796875e+00) (10, 3.23765754699707031250e+00) (0, 3.57934761047363281250e+00) (1, 5.36588573455810546875e+00) (2, -2.56272506713867187500e+00) (3, -4.14821577072143554688e+00) (4, 8.90481567382812500000e+00) (5, 5.35327148437500000000e+00) (6, 8.07279777526855468750e+00) (7, -4.92361164093017578125e+00) (8, 2.94663429260253906250e-01) (9, 7.98522758483886718750e+00) (10, 2.75479125976562500000e+00) (0, 5.66319751739501953125e+00) (1, -1.83343219757080078125e+00) (2, -2.86165237426757812500e-01) (3, 2.29145050048828125000e+00) (4, -3.91454362869262695312e+00) (5, -4.23335456848144531250e+00) (6, -5.84509563446044921875e+00) (7, 7.99054145812988281250e+00) (8, 2.07883071899414062500e+00) (9, -1.68567991256713867188e+00) (10, 3.56082153320312500000e+00) (0, 8.27395248413085937500e+00) (1, -7.13551139831542968750e+00) (2, -2.44386053085327148438e+00) (3, -6.03431797027587890625e+00) (4, -6.30483627319335937500e-02) (5, -3.10736083984375000000e+00) (6, -7.60409498214721679688e+00) (7, 7.32446861267089843750e+00) (8, -8.86970233917236328125e+00) (9, 4.97525310516357421875e+00) (10, 3.69035339355468750000e+00) (0, -2.43242788314819335938e+00) (1, -8.17296314239501953125e+00) (2, 3.59516906738281250000e+00) (3, -6.07915592193603515625e+00) (4, 8.89983558654785156250e+00) (5, 7.67155647277832031250e+00) (6, 3.21550655364990234375e+00) (7, 7.88506317138671875000e+00) (8, 1.42634868621826171875e+00) (9, -1.21294975280761718750e-01) (10, -2.94836997985839843750e+00) (0, -7.85981607437133789062e+00) (1, -6.82984447479248046875e+00) (2, 2.13708686828613281250e+00) (3, -3.09317064285278320312e+00) (4, -3.67494058609008789062e+00) (5, 1.12762737274169921875e+00) (6, 7.98566055297851562500e+00) (7, 3.63937950134277343750e+00) (8, -4.31155204772949218750e+00) (9, 7.25961303710937500000e+00) (10, 5.50386810302734375000e+00) (0, 2.24458694458007812500e+00) (1, -7.77470588684082031250e+00) (2, -3.55918025970458984375e+00) (3, 8.13722610473632812500e+00) (4, -6.37880134582519531250e+00) (5, -5.23471212387084960938e+00) (6, 8.26752471923828125000e+00) (7, 7.59645080566406250000e+00) (8, 7.45564270019531250000e+00) (9, -3.16490316390991210938e+00) (10, 8.42348861694335937500e+00) (0, 2.05081081390380859375e+00) (1, -2.44059562683105468750e-01) (2, 8.32332420349121093750e+00) (3, 7.22367286682128906250e-01) (4, -6.02855300903320312500e+00) (5, 7.20838546752929687500e+00) (6, -6.85128402709960937500e+00) (7, 2.85015201568603515625e+00) (8, -4.73998355865478515625e+00) (9, -5.71110010147094726562e+00) (10, 5.02030658721923828125e+00) (0, 6.39710235595703125000e+00) (1, 1.95729255676269531250e-01) (2, -7.65463352203369140625e+00) (3, -1.47526979446411132812e+00) (4, -8.18610191345214843750e-01) (5, 4.98474597930908203125e+00) (6, 3.21317768096923828125e+00) (7, -2.55899858474731445312e+00) (8, 1.48861408233642578125e+00) (9, -3.54223394393920898438e+00) (10, -1.33370447158813476562e+00) (0, 6.92943477630615234375e+00) (1, -4.40500688552856445312e+00) (2, 1.28749465942382812500e+00) (3, -7.30527782440185546875e+00) (4, -5.13748264312744140625e+00) (5, -1.16053581237792968750e-01) (6, -8.84963607788085937500e+00) (7, 6.97613716125488281250e-01) (8, -6.92564964294433593750e-01) (9, 2.20117568969726562500e+00) (10, -8.54644584655761718750e+00) (0, -1.36924028396606445312e+00) (1, -6.07645750045776367188e+00) (2, -5.57499885559082031250e+00) (3, -3.16085386276245117188e+00) (4, -3.92774152755737304688e+00) (5, 6.27515316009521484375e+00) (6, 1.09916305541992187500e+00) (7, -6.38841629028320312500e-01) (8, 2.29545974731445312500e+00) (9, -1.50373458862304687500e+00) (10, 8.55688667297363281250e+00) (0, 3.64082622528076171875e+00) (1, 6.02099609375000000000e+00) (2, -1.26172304153442382812e+00) (3, -3.74427795410156250000e-01) (4, 2.34173774719238281250e-01) (5, 5.17927932739257812500e+00) (6, -7.88581275939941406250e+00) (7, 5.69193935394287109375e+00) (8, -5.15442514419555664062e+00) (9, 8.04362106323242187500e+00) (10, -7.71306753158569335938e+00) (0, 5.13306999206542968750e+00) (1, -8.26165676116943359375e+00) (2, -3.85055017471313476562e+00) (3, -3.98298358917236328125e+00) (4, -8.11129188537597656250e+00) (5, 5.84706401824951171875e+00) (6, 4.32445144653320312500e+00) (7, 3.08988380432128906250e+00) (8, 6.30061817169189453125e+00) (9, -6.04478836059570312500e+00) (10, 6.01342582702636718750e+00) (0, -8.27437973022460937500e+00) (1, -2.05642700195312500000e-01) (2, -6.91431617736816406250e+00) (3, 7.00077247619628906250e+00) (4, -8.10648059844970703125e+00) (5, 1.44684219360351562500e+00) (6, 2.96233177185058593750e-01) (7, -6.10215187072753906250e-01) (8, 1.00372982025146484375e+00) (9, -5.06294107437133789062e+00) (10, -3.58921957015991210938e+00) (0, 8.74200630187988281250e+00) (1, 3.56263160705566406250e+00) (2, 5.64495468139648437500e+00) (3, 4.92128562927246093750e+00) (4, 4.67681884765625000000e+00) (5, 2.33689403533935546875e+00) (6, 8.76686096191406250000e+00) (7, 3.72043991088867187500e+00) (8, 3.62382602691650390625e+00) (9, 4.89993000030517578125e+00) (10, 4.45878410339355468750e+00) (0, 8.77327537536621093750e+00) (1, -8.08305358886718750000e+00) (2, 5.34749221801757812500e+00) (3, 5.62033939361572265625e+00) (4, 5.24139785766601562500e+00) (5, -5.62624931335449218750e-01) (6, 2.92095756530761718750e+00) (7, 8.19660949707031250000e+00) (8, -3.54920005798339843750e+00) (9, 3.64657783508300781250e+00) (10, -1.00903320312500000000e+00) (0, -1.46351575851440429688e+00) (1, 1.64735031127929687500e+00) (2, -1.15512847900390625000e-01) (3, 8.98332595825195312500e+00) (4, -7.05641651153564453125e+00) (5, 8.27427291870117187500e+00) (6, 9.87055778503417968750e-01) (7, -3.11935758590698242188e+00) (8, -4.31494712829589843750e+00) (9, 7.29063987731933593750e-01) (10, -8.55672550201416015625e+00) (0, -7.66999244689941406250e+00) (1, -3.34964990615844726562e+00) (2, 5.12009239196777343750e+00) (3, 3.66690158843994140625e+00) (4, -3.58278894424438476562e+00) (5, -1.59466743469238281250e-01) (6, -1.70927333831787109375e+00) (7, -7.68285846710205078125e+00) (8, -4.70068359375000000000e+00) (9, -1.93599700927734375000e+00) (10, -6.76591205596923828125e+00) (0, -8.35319137573242187500e+00) (1, -5.31565761566162109375e+00) (2, 7.47548675537109375000e+00) (3, 8.41827392578125000000e-02) (4, 6.60529994964599609375e+00) (5, 6.67209625244140625000e+00) (6, 5.53498363494873046875e+00) (7, 1.25187778472900390625e+00) (8, -3.33693695068359375000e+00) (9, -4.92853212356567382812e+00) (10, -6.10077095031738281250e+00) (0, 5.54755020141601562500e+00) (1, -4.94520521163940429688e+00) (2, -4.15718746185302734375e+00) (3, 4.82182216644287109375e+00) (4, 5.04185104370117187500e+00) (5, 1.72345542907714843750e+00) (6, -8.49312496185302734375e+00) (7, -3.22908496856689453125e+00) (8, 2.16672897338867187500e+00) (9, -7.16311740875244140625e+00) (10, 2.42126560211181640625e+00) (0, -1.71317768096923828125e+00) (1, 5.50378322601318359375e+00) (2, 7.83847618103027343750e+00) (3, 7.12735366821289062500e+00) (4, -5.20548915863037109375e+00) (5, -8.84438228607177734375e+00) (6, -6.57332849502563476562e+00) (7, 1.85851287841796875000e+00) (8, -6.61029434204101562500e+00) (9, -5.92652034759521484375e+00) (10, 5.54285717010498046875e+00) (0, -8.13480758666992187500e+00) (1, 3.15766239166259765625e+00) (2, 3.14815711975097656250e+00) (3, 7.53728866577148437500e+00) (4, -3.07353019714355468750e-01) (5, -4.59996509552001953125e+00) (6, -4.79964828491210937500e+00) (7, 3.76411437988281250000e+00) (8, -1.70073604583740234375e+00) (9, -8.25209808349609375000e+00) (10, 7.81890869140625000000e+00) (0, 3.14207553863525390625e+00) (1, 5.56972408294677734375e+00) (2, 3.86075973510742187500e+00) (3, -4.13446855545043945312e+00) (4, 6.07659912109375000000e+00) (5, -8.36832427978515625000e+00) (6, 7.03226089477539062500e+00) (7, 7.91348266601562500000e+00) (8, 3.05294036865234375000e+00) (9, -3.68091726303100585938e+00) (10, 4.41726684570312500000e+00) (0, 1.89141654968261718750e+00) (1, -5.55356216430664062500e+00) (2, 8.21177673339843750000e+00) (3, 2.04703426361083984375e+00) (4, -3.12689018249511718750e+00) (5, 1.07029151916503906250e+00) (6, 4.43673992156982421875e+00) (7, -5.34105300903320312500e-02) (8, -2.38685226440429687500e+00) (9, 5.30193233489990234375e+00) (10, -5.89574766159057617188e+00) (0, -8.23869514465332031250e+00) (1, 3.83922100067138671875e+00) (2, 2.79689884185791015625e+00) (3, -3.83866071701049804688e+00) (4, 8.03957366943359375000e+00) (5, -2.43898630142211914062e+00) (6, 3.46060371398925781250e+00) (7, 8.78747558593750000000e+00) (8, -3.62007713317871093750e+00) (9, -2.39732027053833007812e+00) (10, 5.35719871520996093750e+00) (0, -8.75931739807128906250e+00) (1, 2.46821022033691406250e+00) (2, 2.43379783630371093750e+00) (3, -8.12764167785644531250e+00) (4, 5.00471115112304687500e-01) (5, 1.34728145599365234375e+00) (6, 3.92529869079589843750e+00) (7, 5.81955432891845703125e+00) (8, -3.23545265197753906250e+00) (9, -3.18328475952148437500e+00) (10, -8.73400783538818359375e+00) (0, -4.02367496490478515625e+00) (1, 7.86375045776367187500e+00) (2, -2.86089801788330078125e+00) (3, 6.04661655426025390625e+00) (4, 3.30048942565917968750e+00) (5, 6.08569145202636718750e+00) (6, -5.34023618698120117188e+00) (7, -3.97578239440917968750e-01) (8, -8.81005573272705078125e+00) (9, -4.57893180847167968750e+00) (10, -5.55835723876953125000e+00) (0, 2.98684310913085937500e+00) (1, 5.82406997680664062500e-01) (2, -6.51878547668457031250e+00) (3, -8.45214271545410156250e+00) (4, -4.95698928833007812500e+00) (5, -6.73131084442138671875e+00) (6, -3.07222032546997070312e+00) (7, 1.64569091796875000000e+00) (8, 7.62588691711425781250e+00) (9, -2.83153724670410156250e+00) (10, -4.88609886169433593750e+00) (0, 1.05968570709228515625e+00) (1, -1.95917892456054687500e+00) (2, 4.61437225341796875000e+00) (3, -6.59303331375122070312e+00) (4, -7.03388023376464843750e+00) (5, 1.43392753601074218750e+00) (6, -8.28486442565917968750e-01) (7, -1.21716499328613281250e+00) (8, 1.69992065429687500000e+00) (9, 4.14783859252929687500e+00) (10, -2.35341548919677734375e+00) (0, 7.83902168273925781250e+00) (1, 1.19445419311523437500e+00) (2, -8.05292606353759765625e+00) (3, 4.92471408843994140625e+00) (4, 4.85421752929687500000e+00) (5, 5.49495697021484375000e-01) (6, 5.11465835571289062500e+00) (7, -8.72471332550048828125e+00) (8, 3.99113750457763671875e+00) (9, -8.98498535156250000000e-01) (10, 8.57694625854492187500e-01) (0, 6.47235298156738281250e+00) (1, -3.50642204284667968750e-01) (2, 4.90070533752441406250e+00) (3, 8.74104309082031250000e+00) (4, 5.57713794708251953125e+00) (5, -2.45360469818115234375e+00) (6, 7.36693000793457031250e+00) (7, -6.25440025329589843750e+00) (8, 1.66029739379882812500e+00) (9, -5.73385238647460937500e-01) (10, 7.86421775817871093750e-01) (0, -2.72533035278320312500e+00) (1, 1.83358192443847656250e+00) (2, 2.75254058837890625000e+00) (3, 7.70859718322753906250e+00) (4, -7.99490451812744140625e+00) (5, -7.46462392807006835938e+00) (6, 4.08517837524414062500e-01) (7, 5.15293407440185546875e+00) (8, -8.18038940429687500000e-01) (9, -7.52459526062011718750e-01) (10, -2.65261125564575195312e+00) (0, 1.29034996032714843750e-01) (1, -4.82774591445922851562e+00) (2, -6.79839324951171875000e+00) (3, -8.32146930694580078125e+00) (4, -8.71308803558349609375e+00) (5, -6.52310705184936523438e+00) (6, 4.66966915130615234375e+00) (7, -6.11586570739746093750e-01) (8, 3.33458709716796875000e+00) (9, 2.14202213287353515625e+00) (10, 8.03777122497558593750e+00) (0, -7.64708518981933593750e-01) (1, 1.88306427001953125000e+00) (2, 4.61490917205810546875e+00) (3, 5.78168678283691406250e+00) (4, 2.49993324279785156250e-01) (5, 7.36050987243652343750e+00) (6, -1.55801630020141601562e+00) (7, 8.67660903930664062500e+00) (8, -8.53069305419921875000e-01) (9, 4.71665287017822265625e+00) (10, 1.51019096374511718750e+00) (0, -7.10052824020385742188e+00) (1, 3.42525100708007812500e+00) (2, 2.51528644561767578125e+00) (3, -5.56515216827392578125e+00) (4, -5.16623163223266601562e+00) (5, -1.33177947998046875000e+00) (6, 2.61680889129638671875e+00) (7, 3.08130836486816406250e+00) (8, 5.01560878753662109375e+00) (9, -6.25415611267089843750e+00) (10, 7.25356292724609375000e+00) (0, 7.21721649169921875000e+00) (1, -5.57562541961669921875e+00) (2, 7.54047393798828125000e+00) (3, -8.30589103698730468750e+00) (4, 8.09404373168945312500e+00) (5, -2.07111167907714843750e+00) (6, 4.02869510650634765625e+00) (7, 1.23606586456298828125e+00) (8, -3.03334045410156250000e+00) (9, -5.73601341247558593750e+00) (10, -5.88086986541748046875e+00) (0, -7.41843080520629882812e+00) (1, -8.95432662963867187500e+00) (2, 3.36912345886230468750e+00) (3, 8.94207763671875000000e+00) (4, -1.51234340667724609375e+00) (5, 3.04573345184326171875e+00) (6, -9.10990715026855468750e-01) (7, -5.79568958282470703125e+00) (8, -4.44407653808593750000e+00) (9, 9.88480567932128906250e-01) (10, 6.62956142425537109375e+00) (0, 7.07121086120605468750e+00) (1, 4.42332839965820312500e+00) (2, -7.53667068481445312500e+00) (3, -3.26056909561157226562e+00) (4, -1.95986223220825195312e+00) (5, 4.54463768005371093750e+00) (6, -7.24495983123779296875e+00) (7, 7.85982131958007812500e-01) (8, 2.79819965362548828125e+00) (9, 8.97225570678710937500e+00) (10, 4.21035575866699218750e+00) (0, 1.33867454528808593750e+00) (1, -8.33363628387451171875e+00) (2, 3.30439949035644531250e+00) (3, 8.26756286621093750000e+00) (4, 4.69505882263183593750e+00) (5, -4.45953369140625000000e+00) (6, -3.76577758789062500000e+00) (7, 7.95904541015625000000e+00) (8, -1.34040355682373046875e+00) (9, -2.18420791625976562500e+00) (10, 8.00471878051757812500e+00) (0, -6.97127914428710937500e+00) (1, -2.24212932586669921875e+00) (2, -2.50762367248535156250e+00) (3, 5.07445430755615234375e+00) (4, 5.84687995910644531250e+00) (5, 6.96686744689941406250e-01) (6, -8.36962223052978515625e+00) (7, -2.16463994979858398438e+00) (8, -1.67375278472900390625e+00) (9, 7.70158767700195312500e+00) (10, -6.74131107330322265625e+00) (0, -2.10423469543457031250e-01) (1, -4.55898141860961914062e+00) (2, 2.98827171325683593750e-01) (3, -4.66578578948974609375e+00) (4, -2.80394172668457031250e+00) (5, -7.91519212722778320312e+00) (6, 7.13241386413574218750e+00) (7, -2.83168601989746093750e+00) (8, 5.29516410827636718750e+00) (9, -5.28911590576171875000e-01) (10, -2.16532230377197265625e+00) (0, -4.00435447692871093750e-01) (1, -1.26134872436523437500e+00) (2, -6.47026300430297851562e+00) (3, 4.14003181457519531250e+00) (4, 3.97287368774414062500e+00) (5, -7.51121711730957031250e+00) (6, -6.20037174224853515625e+00) (7, -7.21133375167846679688e+00) (8, -8.50649738311767578125e+00) (9, -4.17165088653564453125e+00) (10, -4.53463554382324218750e-01) (0, -2.01412105560302734375e+00) (1, -8.09719753265380859375e+00) (2, -3.60658407211303710938e+00) (3, 7.68256568908691406250e+00) (4, -7.46681976318359375000e+00) (5, 3.22877693176269531250e+00) (6, -2.99118661880493164062e+00) (7, -8.76523208618164062500e+00) (8, 5.48746490478515625000e+00) (9, 5.79838943481445312500e+00) (10, -4.32421350479125976562e+00) (0, -3.21370792388916015625e+00) (1, -7.86739587783813476562e+00) (2, 1.87184524536132812500e+00) (3, -2.12890005111694335938e+00) (4, 8.26501846313476562500e+00) (5, 8.04015922546386718750e+00) (6, -5.83373546600341796875e+00) (7, -1.26389408111572265625e+00) (8, -3.12516307830810546875e+00) (9, 2.76582813262939453125e+00) (10, 6.47475719451904296875e+00) (0, -5.95425605773925781250e-01) (1, -2.09414005279541015625e+00) (2, 1.44763183593750000000e+00) (3, 8.93357276916503906250e-01) (4, 7.05488204956054687500e-01) (5, 3.23629760742187500000e+00) (6, 1.38685989379882812500e+00) (7, 5.53383731842041015625e+00) (8, -6.21716594696044921875e+00) (9, 8.37273788452148437500e+00) (10, 6.43663978576660156250e+00) (0, -8.23749542236328125000e-01) (1, 7.05530548095703125000e+00) (2, 7.96982002258300781250e+00) (3, -6.59497356414794921875e+00) (4, -4.93588161468505859375e+00) (5, 8.20458793640136718750e+00) (6, 7.89249229431152343750e+00) (7, -8.13749122619628906250e+00) (8, -5.11962509155273437500e+00) (9, -4.32121610641479492188e+00) (10, -7.00488758087158203125e+00) (0, 5.75222015380859375000e+00) (1, 2.54988384246826171875e+00) (2, -7.73987007141113281250e+00) (3, 4.79238033294677734375e+00) (4, 5.71614837646484375000e+00) (5, -3.76319885253906250000e-03) (6, -7.33278322219848632812e+00) (7, -5.18023490905761718750e-01) (8, -2.52900600433349609375e+00) (9, 1.07179164886474609375e+00) (10, 6.38783740997314453125e+00) (0, 7.91862487792968750000e+00) (1, -7.03485155105590820312e+00) (2, -1.90667438507080078125e+00) (3, 2.15492343902587890625e+00) (4, 3.35200786590576171875e+00) (5, -5.37283802032470703125e+00) (6, 4.93775749206542968750e+00) (7, 2.72474670410156250000e+00) (8, -7.93619823455810546875e+00) (9, -4.88599205017089843750e+00) (10, 7.80052185058593750000e-01) (0, -8.96637821197509765625e+00) (1, -2.48096561431884765625e+00) (2, 4.84417057037353515625e+00) (3, 8.23820877075195312500e+00) (4, -3.58847379684448242188e+00) (5, 5.70667839050292968750e+00) (6, -5.88141489028930664062e+00) (7, 1.09031009674072265625e+00) (8, 7.70179176330566406250e+00) (9, 8.87080574035644531250e+00) (10, -5.35980558395385742188e+00) (0, 8.96192169189453125000e+00) (1, 4.66318416595458984375e+00) (2, -8.64365768432617187500e+00) (3, -4.18424606323242187500e-02) (4, 6.33040142059326171875e+00) (5, -1.61680221557617187500e-01) (6, 6.42915153503417968750e+00) (7, -1.59780693054199218750e+00) (8, -2.77384328842163085938e+00) (9, 5.34777736663818359375e+00) (10, 3.67341041564941406250e-01) (0, 4.31948184967041015625e+00) (1, -1.49729919433593750000e+00) (2, -5.28065061569213867188e+00) (3, 7.94664382934570312500e+00) (4, -5.55954170227050781250e+00) (5, 6.44409751892089843750e+00) (6, -8.98955345153808593750e+00) (7, -1.44553375244140625000e+00) (8, -1.77585077285766601562e+00) (9, -8.95593166351318359375e+00) (10, 5.07350063323974609375e+00) (0, -5.93168067932128906250e+00) (1, 8.28227806091308593750e+00) (2, -7.51497268676757812500e+00) (3, 8.77499771118164062500e+00) (4, -6.59913682937622070312e+00) (5, 2.57533645629882812500e+00) (6, 7.47678756713867187500e+00) (7, -6.72833156585693359375e+00) (8, 6.21553134918212890625e+00) (9, 7.43870925903320312500e+00) (10, 6.93485355377197265625e+00) (0, 6.57187366485595703125e+00) (1, -1.60313224792480468750e+00) (2, 4.26525497436523437500e+00) (3, -2.58980655670166015625e+00) (4, -4.17398071289062500000e+00) (5, -6.33255195617675781250e+00) (6, 3.63635063171386718750e+00) (7, -7.82620334625244140625e+00) (8, 3.03479003906250000000e+00) (9, -1.04416847229003906250e+00) (10, -3.23502540588378906250e-01) (0, 6.75413894653320312500e+00) (1, -2.09752368927001953125e+00) (2, 3.11695575714111328125e+00) (3, 4.19823646545410156250e+00) (4, -2.08707761764526367188e+00) (5, -7.32857799530029296875e+00) (6, -6.57761478424072265625e+00) (7, -2.04300975799560546875e+00) (8, 6.74492263793945312500e+00) (9, -3.50929546356201171875e+00) (10, -2.76073169708251953125e+00) (0, 8.22994995117187500000e+00) (1, -3.73429775238037109375e+00) (2, -3.59868049621582031250e-01) (3, 1.80528736114501953125e+00) (4, -5.25750923156738281250e+00) (5, 1.91180038452148437500e+00) (6, -9.79181289672851562500e-01) (7, -6.81879854202270507812e+00) (8, -1.53346061706542968750e-01) (9, -3.40730714797973632812e+00) (10, 5.78068733215332031250e-01) (0, -4.88809013366699218750e+00) (1, 3.00288677215576171875e+00) (2, 5.40408897399902343750e+00) (3, -2.22064208984375000000e+00) (4, -2.36076402664184570312e+00) (5, 6.57788467407226562500e+00) (6, -8.18585205078125000000e+00) (7, 5.59506797790527343750e+00) (8, -2.74561738967895507812e+00) (9, 7.56828689575195312500e+00) (10, -5.50245571136474609375e+00) (0, -8.62866115570068359375e+00) (1, 2.76652240753173828125e+00) (2, 1.41046524047851562500e+00) (3, -6.95723915100097656250e+00) (4, 5.18890857696533203125e+00) (5, 8.36745643615722656250e+00) (6, 8.78768348693847656250e+00) (7, -7.32038784027099609375e+00) (8, -3.39327526092529296875e+00) (9, 8.01763343811035156250e+00) (10, -2.05468511581420898438e+00) (0, 5.24685573577880859375e+00) (1, 8.22920799255371093750e-01) (2, 1.68780612945556640625e+00) (3, -1.84134340286254882812e+00) (4, 8.84374046325683593750e+00) (5, 3.86900711059570312500e+00) (6, 7.00531005859375000000e+00) (7, -3.56356716156005859375e+00) (8, -4.55292367935180664062e+00) (9, -6.88277912139892578125e+00) (10, 8.43931770324707031250e+00) (0, -8.14883518218994140625e+00) (1, -1.03421211242675781250e-01) (2, -2.92144489288330078125e+00) (3, 7.42905044555664062500e+00) (4, 7.10726737976074218750e-01) (5, -6.32637691497802734375e+00) (6, -4.31656742095947265625e+00) (7, -7.20986366271972656250e-01) (8, -2.82883310317993164062e+00) (9, -3.94522905349731445312e+00) (10, -6.95446348190307617188e+00) (0, 7.58163261413574218750e+00) (1, -1.90246772766113281250e+00) (2, 7.23444366455078125000e+00) (3, 6.94908905029296875000e+00) (4, -2.11478424072265625000e+00) (5, 8.91405677795410156250e+00) (6, -5.44418716430664062500e+00) (7, -3.09715080261230468750e+00) (8, -2.14062881469726562500e+00) (9, 8.80266952514648437500e+00) (10, 6.72576999664306640625e+00) (0, 8.54717636108398437500e+00) (1, -2.03867435455322265625e+00) (2, 6.56950950622558593750e+00) (3, 3.41618347167968750000e+00) (4, -4.03336334228515625000e+00) (5, -5.99405765533447265625e+00) (6, 7.86326026916503906250e+00) (7, -1.91614294052124023438e+00) (8, -6.55473899841308593750e+00) (9, 8.71442604064941406250e+00) (10, 6.98043632507324218750e+00) (0, -4.76182937622070312500e-01) (1, 7.14347457885742187500e+00) (2, -1.30883693695068359375e+00) (3, 2.19743919372558593750e+00) (4, -6.17309284210205078125e+00) (5, 6.97017574310302734375e+00) (6, 8.36860656738281250000e+00) (7, -1.11832141876220703125e+00) (8, -8.98428726196289062500e+00) (9, 6.95023918151855468750e+00) (10, 5.97920989990234375000e+00) (0, 7.25015830993652343750e+00) (1, 4.89932727813720703125e+00) (2, -5.13557338714599609375e+00) (3, 7.16421508789062500000e+00) (4, 8.45514106750488281250e+00) (5, 7.67275810241699218750e-01) (6, -3.97641420364379882812e+00) (7, 8.25781059265136718750e+00) (8, -1.50695466995239257812e+00) (9, -4.42923688888549804688e+00) (10, -2.78086423873901367188e+00) (0, -3.93744421005249023438e+00) (1, 7.98694610595703125000e+00) (2, 2.18577194213867187500e+00) (3, -9.31501388549804687500e-01) (4, 6.85020732879638671875e+00) (5, -8.73037052154541015625e+00) (6, 1.51375961303710937500e+00) (7, 6.56463241577148437500e+00) (8, 7.25006484985351562500e+00) (9, -7.96242427825927734375e+00) (10, 4.70810699462890625000e+00) (0, -3.05877113342285156250e+00) (1, 3.23501586914062500000e+00) (2, 7.53501510620117187500e+00) (3, -5.08859491348266601562e+00) (4, 2.60362148284912109375e+00) (5, -2.58330678939819335938e+00) (6, -5.07288217544555664062e+00) (7, 5.53861618041992187500e-01) (8, -5.60409593582153320312e+00) (9, -6.82272481918334960938e+00) (10, -3.54681158065795898438e+00) (0, -1.73966932296752929688e+00) (1, -8.65851020812988281250e+00) (2, -4.09167051315307617188e+00) (3, 8.02760505676269531250e+00) (4, -3.63492441177368164062e+00) (5, -4.83386087417602539062e+00) (6, -2.47934818267822265625e+00) (7, 9.35838699340820312500e-01) (8, 1.38527393341064453125e+00) (9, 2.58320808410644531250e+00) (10, -7.72151947021484375000e-02) (0, -5.42895317077636718750e+00) (1, -7.34829473495483398438e+00) (2, -2.22700738906860351562e+00) (3, -5.15932369232177734375e+00) (4, 3.16546440124511718750e+00) (5, -4.66237497329711914062e+00) (6, -6.90925788879394531250e+00) (7, 4.20304107666015625000e+00) (8, -8.95426845550537109375e+00) (9, -9.68029022216796875000e-01) (10, -1.56194400787353515625e+00) (0, 7.58074569702148437500e+00) (1, 2.94337558746337890625e+00) (2, -7.95832252502441406250e+00) (3, -4.00256013870239257812e+00) (4, 6.87049293518066406250e+00) (5, 1.59553909301757812500e+00) (6, -6.06655120849609375000e-01) (7, -8.95223140716552734375e+00) (8, 7.04872703552246093750e+00) (9, 6.65367412567138671875e+00) (10, -8.61074161529541015625e+00) (0, -6.04294395446777343750e+00) (1, 5.68128013610839843750e+00) (2, -3.24566602706909179688e+00) (3, -1.87680482864379882812e+00) (4, -5.79806804656982421875e+00) (5, 6.69017314910888671875e+00) (6, 8.50846862792968750000e+00) (7, 5.78514003753662109375e+00) (8, -2.38704204559326171875e+00) (9, -5.92048454284667968750e+00) (10, 7.43684387207031250000e+00) (0, 4.38595008850097656250e+00) (1, -2.07980775833129882812e+00) (2, 1.60230827331542968750e+00) (3, 8.72357559204101562500e+00) (4, 1.09348297119140625000e-02) (5, -3.19465065002441406250e+00) (6, 8.76930809020996093750e+00) (7, 8.04290580749511718750e+00) (8, 4.24340629577636718750e+00) (9, 7.35005378723144531250e+00) (10, 1.98628044128417968750e+00) (0, 5.28508281707763671875e+00) (1, -5.65250587463378906250e+00) (2, -1.43224716186523437500e-01) (3, -2.11937856674194335938e+00) (4, 2.74083805084228515625e+00) (5, -9.54561233520507812500e-02) (6, -4.07065200805664062500e+00) (7, 3.94513130187988281250e-01) (8, 2.93802261352539062500e-01) (9, -1.11359596252441406250e+00) (10, -2.92420673370361328125e+00) (0, 6.04813671112060546875e+00) (1, 6.00959873199462890625e+00) (2, 2.77725219726562500000e-01) (3, 3.73830986022949218750e+00) (4, 5.51806831359863281250e+00) (5, -2.93713521957397460938e+00) (6, -7.64873266220092773438e+00) (7, 8.59758377075195312500e+00) (8, -4.50029087066650390625e+00) (9, 5.73721694946289062500e+00) (10, -2.48222351074218750000e+00) (0, 6.10201835632324218750e+00) (1, 5.46079254150390625000e+00) (2, 6.52871131896972656250e+00) (3, -6.09263277053833007812e+00) (4, 5.23010063171386718750e+00) (5, 5.57161617279052734375e+00) (6, 7.15077209472656250000e+00) (7, 3.58015441894531250000e+00) (8, -1.44210243225097656250e+00) (9, 3.43585586547851562500e+00) (10, 6.92764854431152343750e+00) (0, 7.41467285156250000000e+00) (1, -7.68352270126342773438e+00) (2, 6.68485641479492187500e-01) (3, -1.68078374862670898438e+00) (4, -2.75417423248291015625e+00) (5, -7.93700075149536132812e+00) (6, 7.61301803588867187500e+00) (7, 5.13222980499267578125e+00) (8, -1.86120748519897460938e+00) (9, 4.66115570068359375000e+00) (10, 2.14182853698730468750e+00) (0, 7.41651916503906250000e+00) (1, -6.00534439086914062500e-01) (2, -1.34010314941406250000e+00) (3, -4.52061748504638671875e+00) (4, 7.50732421875000000000e-01) (5, -1.74251890182495117188e+00) (6, -2.09093093872070312500e-02) (7, -2.51204967498779296875e+00) (8, 4.77525806427001953125e+00) (9, -2.91889095306396484375e+00) (10, -6.05125713348388671875e+00) (0, 2.30396842956542968750e+00) (1, -1.15232467651367187500e-02) (2, 8.17884445190429687500e+00) (3, -1.12441539764404296875e+00) (4, -1.86075019836425781250e+00) (5, 2.75899696350097656250e+00) (6, 6.43348217010498046875e+00) (7, -7.42489433288574218750e+00) (8, 6.86645507812500000000e-01) (9, 4.84815502166748046875e+00) (10, -6.10841751098632812500e+00) (0, -7.64486789703369140625e+00) (1, -5.83262872695922851562e+00) (2, 1.37408256530761718750e-01) (3, -6.58186864852905273438e+00) (4, -7.21960926055908203125e+00) (5, -3.73036193847656250000e+00) (6, 5.56923866271972656250e-01) (7, 6.44154548645019531250e+00) (8, 7.41146659851074218750e+00) (9, -1.02655887603759765625e+00) (10, -3.15898847579956054688e+00) (0, -2.92863655090332031250e+00) (1, 3.45282363891601562500e+00) (2, 6.59174442291259765625e+00) (3, 4.32884502410888671875e+00) (4, -5.56808471679687500000e+00) (5, -4.92030572891235351562e+00) (6, 1.04102134704589843750e-01) (7, 5.13024330139160156250e-01) (8, -1.97156238555908203125e+00) (9, -6.59192943572998046875e+00) (10, -8.49849891662597656250e+00) (0, -2.79271936416625976562e+00) (1, 1.28365612030029296875e+00) (2, -1.35924959182739257812e+00) (3, 8.96627807617187500000e+00) (4, -1.28286170959472656250e+00) (5, 2.15855598449707031250e-01) (6, 6.52923583984375000000e-01) (7, -5.43470716476440429688e+00) (8, 3.10743904113769531250e+00) (9, 2.00805664062500000000e+00) (10, -2.26733589172363281250e+00) (0, -5.75515317916870117188e+00) (1, 4.42618751525878906250e+00) (2, -4.86945152282714843750e-01) (3, -4.85515594482421875000e-01) (4, -4.01688861846923828125e+00) (5, -3.04539871215820312500e+00) (6, -2.07404804229736328125e+00) (7, 3.95655345916748046875e+00) (8, 2.79561233520507812500e+00) (9, 3.99731540679931640625e+00) (10, -1.59062290191650390625e+00) (0, 3.87356758117675781250e-01) (1, -6.73839569091796875000e-01) (2, 1.84129238128662109375e+00) (3, 4.46705150604248046875e+00) (4, 8.43026161193847656250e+00) (5, -6.64568328857421875000e+00) (6, -6.50451135635375976562e+00) (7, -7.16166687011718750000e+00) (8, -6.14418268203735351562e+00) (9, -2.97230720520019531250e-01) (10, 3.12198925018310546875e+00) (0, 1.49656772613525390625e+00) (1, -3.30952644348144531250e-01) (2, -7.16087341308593750000e+00) (3, -7.28757619857788085938e+00) (4, -8.67802810668945312500e+00) (5, -3.59558057785034179688e+00) (6, 4.81986236572265625000e+00) (7, 2.33002758026123046875e+00) (8, 3.13708400726318359375e+00) (9, 8.06470870971679687500e+00) (10, -2.24378490447998046875e+00) (0, -6.34986114501953125000e+00) (1, -1.42080593109130859375e+00) (2, 2.73932647705078125000e+00) (3, -3.95259857177734375000e-01) (4, 5.50514602661132812500e+00) (5, -2.30412054061889648438e+00) (6, -6.59964752197265625000e+00) (7, 5.02461433410644531250e-01) (8, 5.10525703430175781250e+00) (9, 2.78771018981933593750e+00) (10, 8.82862091064453125000e+00) (0, -2.05345153808593750000e+00) (1, -1.74523925781250000000e+00) (2, 8.25888442993164062500e+00) (3, 3.00864219665527343750e-01) (4, 7.50248908996582031250e-01) (5, -7.90278291702270507812e+00) (6, 3.15668201446533203125e+00) (7, -8.54698085784912109375e+00) (8, 4.21920585632324218750e+00) (9, -4.34674978256225585938e+00) (10, 1.22066497802734375000e-01) (0, 6.05833339691162109375e+00) (1, -2.63432550430297851562e+00) (2, 4.44037437438964843750e-01) (3, -6.53724765777587890625e+00) (4, -6.81446361541748046875e+00) (5, -6.22593402862548828125e+00) (6, 5.59983634948730468750e+00) (7, -7.74975395202636718750e+00) (8, 5.30281066894531250000e-01) (9, 8.24997520446777343750e+00) (10, -1.70559883117675781250e-01) (0, -5.73039245605468750000e+00) (1, -1.14528512954711914062e+00) (2, -3.66541481018066406250e+00) (3, 9.65486526489257812500e-01) (4, 1.25506782531738281250e+00) (5, 5.83704662322998046875e+00) (6, -2.92925691604614257812e+00) (7, -4.95722293853759765625e+00) (8, 5.66566753387451171875e+00) (9, 4.01729106903076171875e+00) (10, 2.29753684997558593750e+00) (0, 4.92455196380615234375e+00) (1, -4.68184375762939453125e+00) (2, -5.95221233367919921875e+00) (3, 6.02176856994628906250e+00) (4, 7.47483825683593750000e+00) (5, -5.49919366836547851562e+00) (6, 1.24097442626953125000e+00) (7, -5.87191104888916015625e+00) (8, 3.62287235260009765625e+00) (9, -1.70069217681884765625e+00) (10, 4.93763923645019531250e-01) (0, -4.93308925628662109375e+00) (1, 7.62060165405273437500e-01) (2, 2.67929935455322265625e+00) (3, -2.15902328491210937500e+00) (4, -2.63810348510742187500e+00) (5, 3.92954540252685546875e+00) (6, 7.37125778198242187500e+00) (7, -3.38812828063964843750e+00) (8, -5.24101495742797851562e+00) (9, -7.35913467407226562500e+00) (10, 4.46658611297607421875e+00) (0, 9.35707092285156250000e-02) (1, 2.60635185241699218750e+00) (2, -3.27834606170654296875e+00) (3, -3.06938314437866210938e+00) (4, 8.67709541320800781250e+00) (5, 7.64430999755859375000e-01) (6, -6.40371561050415039062e+00) (7, 3.69438648223876953125e+00) (8, -5.93803119659423828125e+00) (9, 7.52083587646484375000e+00) (10, 8.01254272460937500000e+00) (0, -2.89024448394775390625e+00) (1, 4.54260444641113281250e+00) (2, 6.48738193511962890625e+00) (3, 6.10562324523925781250e-01) (4, -3.21642017364501953125e+00) (5, -8.38453006744384765625e+00) (6, -4.76656532287597656250e+00) (7, 4.08288764953613281250e+00) (8, 1.10923290252685546875e+00) (9, -6.99654579162597656250e-01) (10, -4.15505313873291015625e+00) (0, -5.21146678924560546875e+00) (1, 6.14132213592529296875e+00) (2, 2.20684432983398437500e+00) (3, 7.71807861328125000000e+00) (4, 4.51257991790771484375e+00) (5, 7.81871604919433593750e+00) (6, -6.52293682098388671875e+00) (7, 6.15344429016113281250e+00) (8, 3.28530120849609375000e+00) (9, 2.57063484191894531250e+00) (10, -2.40202903747558593750e-01) (0, -8.99304485321044921875e+00) (1, 8.50125122070312500000e+00) (2, -5.63107490539550781250e-01) (3, 7.71386146545410156250e-01) (4, -6.90246438980102539062e+00) (5, -5.86872100830078125000e+00) (6, 3.83335399627685546875e+00) (7, -8.38162803649902343750e+00) (8, -6.85617828369140625000e+00) (9, -8.05688953399658203125e+00) (10, 5.16097545623779296875e+00) (0, 8.63120269775390625000e+00) (1, 1.55367279052734375000e+00) (2, -7.05544424057006835938e+00) (3, -8.75332736968994140625e+00) (4, 5.78710746765136718750e+00) (5, 6.02744293212890625000e+00) (6, 1.35590553283691406250e+00) (7, -3.91254758834838867188e+00) (8, -7.12760972976684570312e+00) (9, 5.14443969726562500000e+00) (10, -6.77122545242309570312e+00) (0, 4.07923412322998046875e+00) (1, 3.86251735687255859375e+00) (2, 6.74135494232177734375e+00) (3, 2.89795017242431640625e+00) (4, 6.33958148956298828125e+00) (5, 3.89479923248291015625e+00) (6, -2.81674861907958984375e+00) (7, -8.97846221923828125000e-02) (8, -5.34540414810180664062e+00) (9, -2.80979299545288085938e+00) (10, -5.88533401489257812500e-01) (0, 3.09148788452148437500e+00) (1, 6.96159267425537109375e+00) (2, 1.50900268554687500000e+00) (3, 6.22276687622070312500e+00) (4, 1.79494857788085937500e+00) (5, 2.12737369537353515625e+00) (6, 8.36658859252929687500e+00) (7, 2.73805809020996093750e+00) (8, -1.71165084838867187500e+00) (9, 7.99779129028320312500e+00) (10, -4.70826959609985351562e+00) (0, 2.32904434204101562500e-01) (1, 8.24446487426757812500e+00) (2, -7.92116260528564453125e+00) (3, -2.73965167999267578125e+00) (4, 6.00370407104492187500e-01) (5, -2.83370971679687500000e+00) (6, -8.67261886596679687500e-01) (7, -3.25518989562988281250e+00) (8, -6.04935646057128906250e-01) (9, -5.78802728652954101562e+00) (10, -8.39267253875732421875e+00) (0, -2.86358118057250976562e+00) (1, 6.10992240905761718750e+00) (2, 6.94690895080566406250e+00) (3, -7.96878194808959960938e+00) (4, -5.70682621002197265625e+00) (5, -2.14287614822387695312e+00) (6, -4.31418561935424804688e+00) (7, 4.83381271362304687500e-01) (8, 6.26859092712402343750e+00) (9, 7.77730178833007812500e+00) (10, -1.55502557754516601562e+00) (0, -1.22240829467773437500e+00) (1, 5.00006866455078125000e+00) (2, -8.76007747650146484375e+00) (3, -8.09503459930419921875e+00) (4, 4.36665630340576171875e+00) (5, 2.97798061370849609375e+00) (6, -8.06685447692871093750e-01) (7, 3.36444854736328125000e+00) (8, 7.26971054077148437500e+00) (9, 8.42621994018554687500e+00) (10, 2.60891246795654296875e+00) (0, 8.34854888916015625000e+00) (1, -3.31343173980712890625e+00) (2, -5.79071712493896484375e+00) (3, -3.48516178131103515625e+00) (4, 4.81930732727050781250e+00) (5, -4.59079742431640625000e-02) (6, 4.90990352630615234375e+00) (7, 8.03127861022949218750e+00) (8, 5.61419486999511718750e-01) (9, -6.95367717742919921875e+00) (10, 5.14120101928710937500e+00) (0, -1.49167156219482421875e+00) (1, -5.92245960235595703125e+00) (2, 8.43437576293945312500e+00) (3, 5.36545181274414062500e+00) (4, -1.23664522171020507812e+00) (5, -8.22439193725585937500e-02) (6, 2.63404273986816406250e+00) (7, -2.45934295654296875000e+00) (8, 7.36273193359375000000e+00) (9, -7.58836555480957031250e+00) (10, -6.45927429199218750000e+00) (0, 7.60265350341796875000e+00) (1, -6.68340015411376953125e+00) (2, 6.90738296508789062500e+00) (3, 1.58063316345214843750e+00) (4, 1.50991535186767578125e+00) (5, 1.27183151245117187500e+00) (6, -1.49656295776367187500e-01) (7, 9.36135292053222656250e-01) (8, -5.11925601959228515625e+00) (9, -8.01107406616210937500e-01) (10, 6.62270355224609375000e+00) (0, -1.90997362136840820312e+00) (1, 4.71373176574707031250e+00) (2, 2.44201087951660156250e+00) (3, 7.04411888122558593750e+00) (4, 6.23635292053222656250e-01) (5, 1.47329044342041015625e+00) (6, -1.39446115493774414062e+00) (7, 2.66995811462402343750e+00) (8, -2.38550806045532226562e+00) (9, 6.11386775970458984375e+00) (10, 5.74749755859375000000e+00) (0, -2.95113229751586914062e+00) (1, 2.47932052612304687500e+00) (2, -4.48914718627929687500e+00) (3, 5.96662425994873046875e+00) (4, -3.88663721084594726562e+00) (5, 2.05150985717773437500e+00) (6, 4.32935523986816406250e+00) (7, -2.47500228881835937500e+00) (8, 4.59223556518554687500e+00) (9, 2.93200874328613281250e+00) (10, -1.58402442932128906250e-01) (0, 2.49961853027343750000e+00) (1, -4.48735809326171875000e+00) (2, -7.64848756790161132812e+00) (3, -5.22855043411254882812e+00) (4, 4.36298561096191406250e+00) (5, 2.28764724731445312500e+00) (6, -1.34780693054199218750e+00) (7, -5.43812179565429687500e+00) (8, -8.96482467651367187500e-02) (9, 5.74221992492675781250e+00) (10, 8.27560997009277343750e+00) (0, -6.64763784408569335938e+00) (1, 3.78633785247802734375e+00) (2, -1.00755691528320312500e-01) (3, 3.82565212249755859375e+00) (4, -6.60812234878540039062e+00) (5, -6.43079853057861328125e+00) (6, -7.55985546112060546875e+00) (7, 8.50574493408203125000e+00) (8, 8.31669998168945312500e+00) (9, -1.51098823547363281250e+00) (10, 1.98506546020507812500e+00) (0, -5.17244768142700195312e+00) (1, -4.54436349868774414062e+00) (2, 7.09842872619628906250e+00) (3, 5.87906169891357421875e+00) (4, 8.78499221801757812500e+00) (5, -4.37657451629638671875e+00) (6, 1.47129821777343750000e+00) (7, 2.71700096130371093750e+00) (8, 4.46502304077148437500e+00) (9, -5.02908420562744140625e+00) (10, 7.22964096069335937500e+00) (0, 5.81653594970703125000e+00) (1, -1.25763416290283203125e+00) (2, 2.59262752532958984375e+00) (3, -8.95816802978515625000e-01) (4, 6.39455890655517578125e+00) (5, 6.15450572967529296875e+00) (6, 8.01453399658203125000e+00) (7, 3.13677787780761718750e+00) (8, 5.43011474609375000000e+00) (9, -7.63310337066650390625e+00) (10, -2.07688331604003906250e+00) (0, -3.67064046859741210938e+00) (1, 5.19254875183105468750e+00) (2, 3.14994812011718750000e-01) (3, -1.10143947601318359375e+00) (4, 6.63269329071044921875e+00) (5, -1.79260253906250000000e-01) (6, -1.78473949432373046875e+00) (7, -3.87829494476318359375e+00) (8, -7.19419479370117187500e+00) (9, 2.04281234741210937500e+00) (10, 5.77341079711914062500e-01) (0, 8.90423393249511718750e+00) (1, -1.07812595367431640625e+00) (2, 3.62333297729492187500e-01) (3, -4.47234106063842773438e+00) (4, -8.60682773590087890625e+00) (5, -5.92066621780395507812e+00) (6, 8.99268150329589843750e+00) (7, -4.63591194152832031250e+00) (8, -7.69102478027343750000e+00) (9, 5.80921649932861328125e+00) (10, 3.10645389556884765625e+00) (0, 3.90160274505615234375e+00) (1, -4.08660030364990234375e+00) (2, 5.01011848449707031250e-01) (3, 1.05610847473144531250e+00) (4, -5.07206630706787109375e+00) (5, -5.36220932006835937500e+00) (6, -2.51377677917480468750e+00) (7, -3.70516967773437500000e+00) (8, 1.56090831756591796875e+00) (9, 2.81558227539062500000e+00) (10, -7.51262092590332031250e+00) (0, -7.12409782409667968750e+00) (1, -7.28585672378540039062e+00) (2, 8.12007141113281250000e+00) (3, 1.69664192199707031250e+00) (4, -7.05966949462890625000e-02) (5, -4.75822305679321289062e+00) (6, 3.50244808197021484375e+00) (7, -7.02778434753417968750e+00) (8, 4.81911849975585937500e+00) (9, 3.40668106079101562500e+00) (10, 8.94090652465820312500e-01) (0, -3.81854772567749023438e+00) (1, 7.93433952331542968750e+00) (2, 1.28726196289062500000e+00) (3, -7.39213943481445312500e-01) (4, 7.92702102661132812500e+00) (5, 5.65135002136230468750e+00) (6, 5.69761276245117187500e-01) (7, 4.73623847961425781250e+00) (8, -2.42196083068847656250e-01) (9, -4.52863645553588867188e+00) (10, -8.35036277770996093750e+00) (0, -8.74118423461914062500e+00) (1, 5.52747154235839843750e+00) (2, -4.42242908477783203125e+00) (3, -5.10339307785034179688e+00) (4, -5.98630475997924804688e+00) (5, 8.72401237487792968750e-01) (6, 5.45751571655273437500e+00) (7, 5.82927703857421875000e+00) (8, 2.35978031158447265625e+00) (9, 7.33341598510742187500e+00) (10, 7.54342079162597656250e+00) (0, 1.47985172271728515625e+00) (1, 3.00598144531250000000e-02) (2, -1.52717638015747070312e+00) (3, 5.72162914276123046875e+00) (4, -5.46749305725097656250e+00) (5, 4.45039749145507812500e-01) (6, 1.54074764251708984375e+00) (7, 6.93918800354003906250e+00) (8, -7.66087007522583007812e+00) (9, 6.72219944000244140625e+00) (10, 5.87352752685546875000e+00) (0, 2.62639236450195312500e+00) (1, -3.01701450347900390625e+00) (2, 4.80054855346679687500e+00) (3, -7.22257614135742187500e-01) (4, 6.55274581909179687500e+00) (5, 5.36786079406738281250e-01) (6, 8.03554534912109375000e+00) (7, -6.97589015960693359375e+00) (8, 1.18642330169677734375e+00) (9, 8.29436302185058593750e+00) (10, 7.55158233642578125000e+00) (0, 5.76399517059326171875e+00) (1, -5.80903053283691406250e+00) (2, -7.43472290039062500000e+00) (3, -2.36360263824462890625e+00) (4, 8.64848327636718750000e+00) (5, 7.39455413818359375000e+00) (6, 8.99617767333984375000e+00) (7, 6.98190116882324218750e+00) (8, 5.93797492980957031250e+00) (9, 1.47602939605712890625e+00) (10, -1.98803901672363281250e+00) (0, -4.58920097351074218750e+00) (1, -1.80234193801879882812e+00) (2, 1.54446792602539062500e+00) (3, 4.85583782196044921875e+00) (4, 8.73840522766113281250e+00) (5, -5.16344070434570312500e-01) (6, 6.19496822357177734375e+00) (7, 6.46060466766357421875e+00) (8, -3.64281702041625976562e+00) (9, -1.78639411926269531250e-01) (10, -5.55640983581542968750e+00) (0, -7.84226846694946289062e+00) (1, 8.09910202026367187500e+00) (2, -8.00366401672363281250e+00) (3, 1.69451808929443359375e+00) (4, 7.13464927673339843750e+00) (5, -5.97955417633056640625e+00) (6, -6.11905765533447265625e+00) (7, 6.42901134490966796875e+00) (8, -7.42797183990478515625e+00) (9, 8.64493751525878906250e+00) (10, -8.38001918792724609375e+00) (0, -5.86269521713256835938e+00) (1, -2.71866512298583984375e+00) (2, -8.73153495788574218750e+00) (3, -7.46814107894897460938e+00) (4, -2.72248840332031250000e+00) (5, 7.25036621093750000000e+00) (6, 7.46983337402343750000e+00) (7, 7.75354003906250000000e+00) (8, -3.73767280578613281250e+00) (9, -6.11936759948730468750e+00) (10, -3.04880094528198242188e+00) (0, 6.80679512023925781250e+00) (1, 7.73647117614746093750e+00) (2, -3.31039571762084960938e+00) (3, -2.70954942703247070312e+00) (4, 4.93143939971923828125e+00) (5, -5.84979057312011718750e+00) (6, 2.64763450622558593750e+00) (7, -4.24720001220703125000e+00) (8, -2.40620136260986328125e+00) (9, 3.80536556243896484375e+00) (10, -5.14809703826904296875e+00) (0, -1.40986442565917968750e+00) (1, -3.50011634826660156250e+00) (2, -7.01344823837280273438e+00) (3, 1.61058139801025390625e+00) (4, -6.19174003601074218750e-01) (5, 8.41556358337402343750e+00) (6, 3.18260955810546875000e+00) (7, -9.74236488342285156250e-01) (8, -8.96445655822753906250e+00) (9, 6.31991386413574218750e+00) (10, 5.30709934234619140625e+00) (0, -8.69599151611328125000e+00) (1, 7.85177230834960937500e+00) (2, -6.41538906097412109375e+00) (3, 7.55437469482421875000e+00) (4, 6.32160758972167968750e+00) (5, -7.66184806823730468750e+00) (6, -5.18329811096191406250e+00) (7, -8.79776096343994140625e+00) (8, -1.71064949035644531250e+00) (9, -7.37650346755981445312e+00) (10, 7.93871116638183593750e+00) (0, 3.97895526885986328125e+00) (1, -1.08605289459228515625e+00) (2, 3.87014961242675781250e+00) (3, 7.12916374206542968750e+00) (4, -7.43841886520385742188e+00) (5, 8.62294960021972656250e+00) (6, -4.27703714370727539062e+00) (7, 5.36694717407226562500e+00) (8, -5.52514696121215820312e+00) (9, 3.31309890747070312500e+00) (10, -7.13316965103149414062e+00) (0, -3.53859472274780273438e+00) (1, -4.07631969451904296875e+00) (2, 1.24765586853027343750e+00) (3, -4.12303209304809570312e+00) (4, 8.10628890991210937500e+00) (5, -8.72657966613769531250e+00) (6, -4.08748817443847656250e+00) (7, 5.42620277404785156250e+00) (8, 5.58051967620849609375e+00) (9, -3.78348016738891601562e+00) (10, 4.27797603607177734375e+00) (0, 8.16513061523437500000e+00) (1, -5.22910547256469726562e+00) (2, 1.59958362579345703125e+00) (3, -8.49671840667724609375e+00) (4, -1.41240406036376953125e+00) (5, 1.80182361602783203125e+00) (6, -1.20736789703369140625e+00) (7, 2.11091995239257812500e-01) (8, 7.40532875061035156250e-01) (9, -6.22841262817382812500e+00) (10, 8.12504005432128906250e+00) (0, -4.38931655883789062500e+00) (1, -8.09924888610839843750e+00) (2, -8.31337928771972656250e+00) (3, -4.76636648178100585938e+00) (4, -3.37628602981567382812e+00) (5, 6.05356788635253906250e+00) (6, -1.29151344299316406250e+00) (7, 8.93681335449218750000e+00) (8, 7.92039871215820312500e+00) (9, 4.16989135742187500000e+00) (10, -4.13950729370117187500e+00) (0, 1.68054580688476562500e-01) (1, -8.95314025878906250000e+00) (2, -5.03321838378906250000e+00) (3, 4.41475868225097656250e-01) (4, -4.04062891006469726562e+00) (5, -8.60701465606689453125e+00) (6, -2.97800588607788085938e+00) (7, 1.17589092254638671875e+00) (8, 4.67096138000488281250e+00) (9, -3.81287527084350585938e+00) (10, 4.94678497314453125000e+00) (0, -2.72945499420166015625e+00) (1, -3.30959367752075195312e+00) (2, -5.46561813354492187500e+00) (3, 8.07236862182617187500e+00) (4, 4.48303794860839843750e+00) (5, 3.74547386169433593750e+00) (6, -1.87099456787109375000e-01) (7, 7.25462532043457031250e+00) (8, 2.87051391601562500000e+00) (9, 4.42358398437500000000e+00) (10, 8.15537643432617187500e+00) (0, 3.55713462829589843750e+00) (1, 8.65721893310546875000e+00) (2, -4.22090911865234375000e+00) (3, 6.10702514648437500000e-01) (4, -1.63429546356201171875e+00) (5, -4.28409671783447265625e+00) (6, -4.68899726867675781250e-01) (7, -6.46440458297729492188e+00) (8, 5.76395988464355468750e-01) (9, 8.69915390014648437500e+00) (10, -6.41754531860351562500e+00) (0, 4.54317665100097656250e+00) (1, 1.40628814697265625000e-01) (2, -1.45817422866821289062e+00) (3, 4.93616294860839843750e+00) (4, 6.16262435913085937500e+00) (5, 8.71771621704101562500e+00) (6, 6.07124328613281250000e-01) (7, -6.65025186538696289062e+00) (8, 4.66450214385986328125e+00) (9, 6.87766838073730468750e+00) (10, -9.59845542907714843750e-01) (0, 8.19888496398925781250e+00) (1, 5.95003700256347656250e+00) (2, -5.47680759429931640625e+00) (3, 2.94435882568359375000e+00) (4, -3.23706245422363281250e+00) (5, -7.22218227386474609375e+00) (6, -3.18512821197509765625e+00) (7, -7.81347846984863281250e+00) (8, -8.06680583953857421875e+00) (9, -8.62799358367919921875e+00) (10, -8.15626049041748046875e+00) (0, -3.28771543502807617188e+00) (1, 9.82708930969238281250e-01) (2, -7.90555953979492187500e-01) (3, 1.42818737030029296875e+00) (4, -8.48619079589843750000e+00) (5, 1.74503898620605468750e+00) (6, -6.99541664123535156250e+00) (7, -8.78703689575195312500e+00) (8, 4.32749462127685546875e+00) (9, 6.54776191711425781250e+00) (10, 3.53591918945312500000e-01) (0, -6.13068008422851562500e+00) (1, 2.48392391204833984375e+00) (2, -2.48378372192382812500e+00) (3, -6.41296291351318359375e+00) (4, -5.90895175933837890625e+00) (5, -1.34035110473632812500e-01) (6, 7.25153923034667968750e+00) (7, -8.03128242492675781250e+00) (8, 7.90611839294433593750e+00) (9, 6.45042419433593750000e+00) (10, 6.91875362396240234375e+00) (0, -6.57068920135498046875e+00) (1, 3.94781112670898437500e-01) (2, -5.31830883026123046875e+00) (3, -4.79287147521972656250e+00) (4, 6.20965385437011718750e+00) (5, -4.13178730010986328125e+00) (6, -3.85967731475830078125e+00) (7, 6.58166122436523437500e+00) (8, -3.28804779052734375000e+00) (9, 1.85260677337646484375e+00) (10, -1.43563032150268554688e+00) 
