FANN_FLO_2.1
num_layers=41
learning_rate=0.700000
connection_rate=1.000000
network_type=1
learning_momentum=0.000000
training_algorithm=2
train_error_function=0
train_stop_function=0
cascade_output_change_fraction=0.010000
quickprop_decay=-0.000100
quickprop_mu=1.750000
rprop_increase_factor=1.200000
rprop_decrease_factor=0.500000
rprop_delta_min=0.000000
rprop_delta_max=50.000000
rprop_delta_zero=0.100000
cascade_output_stagnation_epochs=12
cascade_candidate_change_fraction=0.010000
cascade_candidate_stagnation_epochs=12
cascade_max_out_epochs=150
cascade_max_cand_epochs=1000
cascade_num_candidate_groups=8
bit_fail_limit=8.99999976158142089844e-01
cascade_candidate_limit=1.00000000000000000000e+03
cascade_weight_multiplier=4.00000005960464477539e-01
cascade_activation_functions_count=1
cascade_activation_functions=5 
cascade_activation_steepnesses_count=1
cascade_activation_steepnesses=1.00000000000000000000e+00 
layer_sizes=11 1 1 1 1 1 1 1 1 1 1 1 1 1 1 1 1 1 1 1 1 1 1 1 1 1 1 1 1 1 1 1 1 1 1 1 1 1 1 1 1248 
scale_included=0
neurons (num_inputs, activation_function, activation_steepness)=(0, 0, 0.00000000000000000000e+00) (0, 0, 0.00000000000000000000e+00) (0, 0, 0.00000000000000000000e+00) (0, 0, 0.00000000000000000000e+00) (0, 0, 0.00000000000000000000e+00) (0, 0, 0.00000000000000000000e+00) (0, 0, 0.00000000000000000000e+00) (0, 0, 0.00000000000000000000e+00) (0, 0, 0.00000000000000000000e+00) (0, 0, 0.00000000000000000000e+00) (0, 0, 0.00000000000000000000e+00) (11, 5, 1.00000000000000000000e+00) (12, 5, 1.00000000000000000000e+00) (13, 5, 1.00000000000000000000e+00) (14, 5, 1.00000000000000000000e+00) (15, 5, 1.00000000000000000000e+00) (16, 5, 1.00000000000000000000e+00) (17, 5, 1.00000000000000000000e+00) (18, 5, 1.00000000000000000000e+00) (19, 5, 1.00000000000000000000e+00) (20, 5, 1.00000000000000000000e+00) (21, 5, 1.00000000000000000000e+00) (22, 5, 1.00000000000000000000e+00) (23, 5, 1.00000000000000000000e+00) (24, 5, 1.00000000000000000000e+00) (25, 5, 1.00000000000000000000e+00) (26, 5, 1.00000000000000000000e+00) (27, 5, 1.00000000000000000000e+00) (28, 5, 1.00000000000000000000e+00) (29, 5, 1.00000000000000000000e+00) (30, 5, 1.00000000000000000000e+00) (31, 5, 1.00000000000000000000e+00) (32, 5, 1.00000000000000000000e+00) (33, 5, 1.00000000000000000000e+00) (34, 5, 1.00000000000000000000e+00) (35, 5, 1.00000000000000000000e+00) (36, 5, 1.00000000000000000000e+00) (37, 5, 1.00000000000000000000e+00) (38, 5, 1.00000000000000000000e+00) (39, 5, 1.00000000000000000000e+00) (40, 5, 1.00000000000000000000e+00) (41, 5, 1.00000000000000000000e+00) (42, 5, 1.00000000000000000000e+00) (43, 5, 1.00000000000000000000e+00) (44, 5, 1.00000000000000000000e+00) (45, 5, 1.00000000000000000000e+00) (46, 5, 1.00000000000000000000e+00) (47, 5, 1.00000000000000000000e+00) (48, 5, 1.00000000000000000000e+00) (49, 5, 1.00000000000000000000e+00) (50, 0, 5.00000000000000000000e-01) (50, 0, 5.00000000000000000000e-01) (50, 0, 5.00000000000000000000e-01) (50, 0, 5.00000000000000000000e-01) (50, 0, 5.00000000000000000000e-01) (50, 0, 5.00000000000000000000e-01) (50, 0, 5.00000000000000000000e-01) (50, 0, 5.00000000000000000000e-01) (50, 0, 5.00000000000000000000e-01) (50, 0, 5.00000000000000000000e-01) (50, 0, 5.00000000000000000000e-01) (50, 0, 5.00000000000000000000e-01) (50, 0, 5.00000000000000000000e-01) (50, 0, 5.00000000000000000000e-01) (50, 0, 5.00000000000000000000e-01) (50, 0, 5.00000000000000000000e-01) (50, 0, 5.00000000000000000000e-01) (50, 0, 5.00000000000000000000e-01) (50, 0, 5.00000000000000000000e-01) (50, 0, 5.00000000000000000000e-01) (50, 0, 5.00000000000000000000e-01) (50, 0, 5.00000000000000000000e-01) (50, 0, 5.00000000000000000000e-01) (50, 0, 5.00000000000000000000e-01) (50, 0, 5.00000000000000000000e-01) (50, 0, 5.00000000000000000000e-01) (50, 0, 5.00000000000000000000e-01) (50, 0, 5.00000000000000000000e-01) (50, 0, 5.00000000000000000000e-01) (50, 0, 5.00000000000000000000e-01) (50, 0, 5.00000000000000000000e-01) (50, 0, 5.00000000000000000000e-01) (50, 0, 5.00000000000000000000e-01) (50, 0, 5.00000000000000000000e-01) (50, 0, 5.00000000000000000000e-01) (50, 0, 5.00000000000000000000e-01) (50, 0, 5.00000000000000000000e-01) (50, 0, 5.00000000000000000000e-01) (50, 0, 5.00000000000000000000e-01) (50, 0, 5.00000000000000000000e-01) (50, 0, 5.00000000000000000000e-01) (50, 0, 5.00000000000000000000e-01) (50, 0, 5.00000000000000000000e-01) (50, 0, 5.00000000000000000000e-01) (50, 0, 5.00000000000000000000e-01) (50, 0, 5.00000000000000000000e-01) (50, 0, 5.00000000000000000000e-01) (50, 0, 5.00000000000000000000e-01) (50, 0, 5.00000000000000000000e-01) (50, 0, 5.00000000000000000000e-01) (50, 0, 5.00000000000000000000e-01) (50, 0, 5.00000000000000000000e-01) (50, 0, 5.00000000000000000000e-01) (50, 0, 5.00000000000000000000e-01) (50, 0, 5.00000000000000000000e-01) (50, 0, 5.00000000000000000000e-01) (50, 0, 5.00000000000000000000e-01) (50, 0, 5.00000000000000000000e-01) (50, 0, 5.00000000000000000000e-01) (50, 0, 5.00000000000000000000e-01) (50, 0, 5.00000000000000000000e-01) (50, 0, 5.00000000000000000000e-01) (50, 0, 5.00000000000000000000e-01) (50, 0, 5.00000000000000000000e-01) (50, 0, 5.00000000000000000000e-01) (50, 0, 5.00000000000000000000e-01) (50, 0, 5.00000000000000000000e-01) (50, 0, 5.00000000000000000000e-01) (50, 0, 5.00000000000000000000e-01) (50, 0, 5.00000000000000000000e-01) (50, 0, 5.00000000000000000000e-01) (50, 0, 5.00000000000000000000e-01) (50, 0, 5.00000000000000000000e-01) (50, 0, 5.00000000000000000000e-01) (50, 0, 5.00000000000000000000e-01) (50, 0, 5.00000000000000000000e-01) (50, 0, 5.00000000000000000000e-01) (50, 0, 5.00000000000000000000e-01) (50, 0, 5.00000000000000000000e-01) (50, 0, 5.00000000000000000000e-01) (50, 0, 5.00000000000000000000e-01) (50, 0, 5.00000000000000000000e-01) (50, 0, 5.00000000000000000000e-01) (50, 0, 5.00000000000000000000e-01) (50, 0, 5.00000000000000000000e-01) (50, 0, 5.00000000000000000000e-01) (50, 0, 5.00000000000000000000e-01) (50, 0, 5.00000000000000000000e-01) (50, 0, 5.00000000000000000000e-01) (50, 0, 5.00000000000000000000e-01) (50, 0, 5.00000000000000000000e-01) (50, 0, 5.00000000000000000000e-01) (50, 0, 5.00000000000000000000e-01) (50, 0, 5.00000000000000000000e-01) (50, 0, 5.00000000000000000000e-01) (50, 0, 5.00000000000000000000e-01) (50, 0, 5.00000000000000000000e-01) (50, 0, 5.00000000000000000000e-01) (50, 0, 5.00000000000000000000e-01) (50, 0, 5.00000000000000000000e-01) (50, 0, 5.00000000000000000000e-01) (50, 0, 5.00000000000000000000e-01) (50, 0, 5.00000000000000000000e-01) (50, 0, 5.00000000000000000000e-01) (50, 0, 5.00000000000000000000e-01) (50, 0, 5.00000000000000000000e-01) (50, 0, 5.00000000000000000000e-01) (50, 0, 5.00000000000000000000e-01) (50, 0, 5.00000000000000000000e-01) (50, 0, 5.00000000000000000000e-01) (50, 0, 5.00000000000000000000e-01) (50, 0, 5.00000000000000000000e-01) (50, 0, 5.00000000000000000000e-01) (50, 0, 5.00000000000000000000e-01) (50, 0, 5.00000000000000000000e-01) (50, 0, 5.00000000000000000000e-01) (50, 0, 5.00000000000000000000e-01) (50, 0, 5.00000000000000000000e-01) (50, 0, 5.00000000000000000000e-01) (50, 0, 5.00000000000000000000e-01) (50, 0, 5.00000000000000000000e-01) (50, 0, 5.00000000000000000000e-01) (50, 0, 5.00000000000000000000e-01) (50, 0, 5.00000000000000000000e-01) (50, 0, 5.00000000000000000000e-01) (50, 0, 5.00000000000000000000e-01) (50, 0, 5.00000000000000000000e-01) (50, 0, 5.00000000000000000000e-01) (50, 0, 5.00000000000000000000e-01) (50, 0, 5.00000000000000000000e-01) (50, 0, 5.00000000000000000000e-01) (50, 0, 5.00000000000000000000e-01) (50, 0, 5.00000000000000000000e-01) (50, 0, 5.00000000000000000000e-01) (50, 0, 5.00000000000000000000e-01) (50, 0, 5.00000000000000000000e-01) (50, 0, 5.00000000000000000000e-01) (50, 0, 5.00000000000000000000e-01) (50, 0, 5.00000000000000000000e-01) (50, 0, 5.00000000000000000000e-01) (50, 0, 5.00000000000000000000e-01) (50, 0, 5.00000000000000000000e-01) (50, 0, 5.00000000000000000000e-01) (50, 0, 5.00000000000000000000e-01) (50, 0, 5.00000000000000000000e-01) (50, 0, 5.00000000000000000000e-01) (50, 0, 5.00000000000000000000e-01) (50, 0, 5.00000000000000000000e-01) (50, 0, 5.00000000000000000000e-01) (50, 0, 5.00000000000000000000e-01) (50, 0, 5.00000000000000000000e-01) (50, 0, 5.00000000000000000000e-01) (50, 0, 5.00000000000000000000e-01) (50, 0, 5.00000000000000000000e-01) (50, 0, 5.00000000000000000000e-01) (50, 0, 5.00000000000000000000e-01) (50, 0, 5.00000000000000000000e-01) (50, 0, 5.00000000000000000000e-01) (50, 0, 5.00000000000000000000e-01) (50, 0, 5.00000000000000000000e-01) (50, 0, 5.00000000000000000000e-01) (50, 0, 5.00000000000000000000e-01) (50, 0, 5.00000000000000000000e-01) (50, 0, 5.00000000000000000000e-01) (50, 0, 5.00000000000000000000e-01) (50, 0, 5.00000000000000000000e-01) (50, 0, 5.00000000000000000000e-01) (50, 0, 5.00000000000000000000e-01) (50, 0, 5.00000000000000000000e-01) (50, 0, 5.00000000000000000000e-01) (50, 0, 5.00000000000000000000e-01) (50, 0, 5.00000000000000000000e-01) (50, 0, 5.00000000000000000000e-01) (50, 0, 5.00000000000000000000e-01) (50, 0, 5.00000000000000000000e-01) (50, 0, 5.00000000000000000000e-01) (50, 0, 5.00000000000000000000e-01) (50, 0, 5.00000000000000000000e-01) (50, 0, 5.00000000000000000000e-01) (50, 0, 5.00000000000000000000e-01) (50, 0, 5.00000000000000000000e-01) (50, 0, 5.00000000000000000000e-01) (50, 0, 5.00000000000000000000e-01) (50, 0, 5.00000000000000000000e-01) (50, 0, 5.00000000000000000000e-01) (50, 0, 5.00000000000000000000e-01) (50, 0, 5.00000000000000000000e-01) (50, 0, 5.00000000000000000000e-01) (50, 0, 5.00000000000000000000e-01) (50, 0, 5.00000000000000000000e-01) (50, 0, 5.00000000000000000000e-01) (50, 0, 5.00000000000000000000e-01) (50, 0, 5.00000000000000000000e-01) (50, 0, 5.00000000000000000000e-01) (50, 0, 5.00000000000000000000e-01) (50, 0, 5.00000000000000000000e-01) (50, 0, 5.00000000000000000000e-01) (50, 0, 5.00000000000000000000e-01) (50, 0, 5.00000000000000000000e-01) (50, 0, 5.00000000000000000000e-01) (50, 0, 5.00000000000000000000e-01) (50, 0, 5.00000000000000000000e-01) (50, 0, 5.00000000000000000000e-01) (50, 0, 5.00000000000000000000e-01) (50, 0, 5.00000000000000000000e-01) (50, 0, 5.00000000000000000000e-01) (50, 0, 5.00000000000000000000e-01) (50, 0, 5.00000000000000000000e-01) (50, 0, 5.00000000000000000000e-01) (50, 0, 5.00000000000000000000e-01) (50, 0, 5.00000000000000000000e-01) (50, 0, 5.00000000000000000000e-01) (50, 0, 5.00000000000000000000e-01) (50, 0, 5.00000000000000000000e-01) (50, 0, 5.00000000000000000000e-01) (50, 0, 5.00000000000000000000e-01) (50, 0, 5.00000000000000000000e-01) (50, 0, 5.00000000000000000000e-01) (50, 0, 5.00000000000000000000e-01) (50, 0, 5.00000000000000000000e-01) (50, 0, 5.00000000000000000000e-01) (50, 0, 5.00000000000000000000e-01) (50, 0, 5.00000000000000000000e-01) (50, 0, 5.00000000000000000000e-01) (50, 0, 5.00000000000000000000e-01) (50, 0, 5.00000000000000000000e-01) (50, 0, 5.00000000000000000000e-01) (50, 0, 5.00000000000000000000e-01) (50, 0, 5.00000000000000000000e-01) (50, 0, 5.00000000000000000000e-01) (50, 0, 5.00000000000000000000e-01) (50, 0, 5.00000000000000000000e-01) (50, 0, 5.00000000000000000000e-01) (50, 0, 5.00000000000000000000e-01) (50, 0, 5.00000000000000000000e-01) (50, 0, 5.00000000000000000000e-01) (50, 0, 5.00000000000000000000e-01) (50, 0, 5.00000000000000000000e-01) (50, 0, 5.00000000000000000000e-01) (50, 0, 5.00000000000000000000e-01) (50, 0, 5.00000000000000000000e-01) (50, 0, 5.00000000000000000000e-01) (50, 0, 5.00000000000000000000e-01) (50, 0, 5.00000000000000000000e-01) (50, 0, 5.00000000000000000000e-01) (50, 0, 5.00000000000000000000e-01) (50, 0, 5.00000000000000000000e-01) (50, 0, 5.00000000000000000000e-01) (50, 0, 5.00000000000000000000e-01) (50, 0, 5.00000000000000000000e-01) (50, 0, 5.00000000000000000000e-01) (50, 0, 5.00000000000000000000e-01) (50, 0, 5.00000000000000000000e-01) (50, 0, 5.00000000000000000000e-01) (50, 0, 5.00000000000000000000e-01) (50, 0, 5.00000000000000000000e-01) (50, 0, 5.00000000000000000000e-01) (50, 0, 5.00000000000000000000e-01) (50, 0, 5.00000000000000000000e-01) (50, 0, 5.00000000000000000000e-01) (50, 0, 5.00000000000000000000e-01) (50, 0, 5.00000000000000000000e-01) (50, 0, 5.00000000000000000000e-01) (50, 0, 5.00000000000000000000e-01) (50, 0, 5.00000000000000000000e-01) (50, 0, 5.00000000000000000000e-01) (50, 0, 5.00000000000000000000e-01) (50, 0, 5.00000000000000000000e-01) (50, 0, 5.00000000000000000000e-01) (50, 0, 5.00000000000000000000e-01) (50, 0, 5.00000000000000000000e-01) (50, 0, 5.00000000000000000000e-01) (50, 0, 5.00000000000000000000e-01) (50, 0, 5.00000000000000000000e-01) (50, 0, 5.00000000000000000000e-01) (50, 0, 5.00000000000000000000e-01) (50, 0, 5.00000000000000000000e-01) (50, 0, 5.00000000000000000000e-01) (50, 0, 5.00000000000000000000e-01) (50, 0, 5.00000000000000000000e-01) (50, 0, 5.00000000000000000000e-01) (50, 0, 5.00000000000000000000e-01) (50, 0, 5.00000000000000000000e-01) (50, 0, 5.00000000000000000000e-01) (50, 0, 5.00000000000000000000e-01) (50, 0, 5.00000000000000000000e-01) (50, 0, 5.00000000000000000000e-01) (50, 0, 5.00000000000000000000e-01) (50, 0, 5.00000000000000000000e-01) (50, 0, 5.00000000000000000000e-01) (50, 0, 5.00000000000000000000e-01) (50, 0, 5.00000000000000000000e-01) (50, 0, 5.00000000000000000000e-01) (50, 0, 5.00000000000000000000e-01) (50, 0, 5.00000000000000000000e-01) (50, 0, 5.00000000000000000000e-01) (50, 0, 5.00000000000000000000e-01) (50, 0, 5.00000000000000000000e-01) (50, 0, 5.00000000000000000000e-01) (50, 0, 5.00000000000000000000e-01) (50, 0, 5.00000000000000000000e-01) (50, 0, 5.00000000000000000000e-01) (50, 0, 5.00000000000000000000e-01) (50, 0, 5.00000000000000000000e-01) (50, 0, 5.00000000000000000000e-01) (50, 0, 5.00000000000000000000e-01) (50, 0, 5.00000000000000000000e-01) (50, 0, 5.00000000000000000000e-01) (50, 0, 5.00000000000000000000e-01) (50, 0, 5.00000000000000000000e-01) (50, 0, 5.00000000000000000000e-01) (50, 0, 5.00000000000000000000e-01) (50, 0, 5.00000000000000000000e-01) (50, 0, 5.00000000000000000000e-01) (50, 0, 5.00000000000000000000e-01) (50, 0, 5.00000000000000000000e-01) (50, 0, 5.00000000000000000000e-01) (50, 0, 5.00000000000000000000e-01) (50, 0, 5.00000000000000000000e-01) (50, 0, 5.00000000000000000000e-01) (50, 0, 5.00000000000000000000e-01) (50, 0, 5.00000000000000000000e-01) (50, 0, 5.00000000000000000000e-01) (50, 0, 5.00000000000000000000e-01) (50, 0, 5.00000000000000000000e-01) (50, 0, 5.00000000000000000000e-01) (50, 0, 5.00000000000000000000e-01) (50, 0, 5.00000000000000000000e-01) (50, 0, 5.00000000000000000000e-01) (50, 0, 5.00000000000000000000e-01) (50, 0, 5.00000000000000000000e-01) (50, 0, 5.00000000000000000000e-01) (50, 0, 5.00000000000000000000e-01) (50, 0, 5.00000000000000000000e-01) (50, 0, 5.00000000000000000000e-01) (50, 0, 5.00000000000000000000e-01) (50, 0, 5.00000000000000000000e-01) (50, 0, 5.00000000000000000000e-01) (50, 0, 5.00000000000000000000e-01) (50, 0, 5.00000000000000000000e-01) (50, 0, 5.00000000000000000000e-01) (50, 0, 5.00000000000000000000e-01) (50, 0, 5.00000000000000000000e-01) (50, 0, 5.00000000000000000000e-01) (50, 0, 5.00000000000000000000e-01) (50, 0, 5.00000000000000000000e-01) (50, 0, 5.00000000000000000000e-01) (50, 0, 5.00000000000000000000e-01) (50, 0, 5.00000000000000000000e-01) (50, 0, 5.00000000000000000000e-01) (50, 0, 5.00000000000000000000e-01) (50, 0, 5.00000000000000000000e-01) (50, 0, 5.00000000000000000000e-01) (50, 0, 5.00000000000000000000e-01) (50, 0, 5.00000000000000000000e-01) (50, 0, 5.00000000000000000000e-01) (50, 0, 5.00000000000000000000e-01) (50, 0, 5.00000000000000000000e-01) (50, 0, 5.00000000000000000000e-01) (50, 0, 5.00000000000000000000e-01) (50, 0, 5.00000000000000000000e-01) (50, 0, 5.00000000000000000000e-01) (50, 0, 5.00000000000000000000e-01) (50, 0, 5.00000000000000000000e-01) (50, 0, 5.00000000000000000000e-01) (50, 0, 5.00000000000000000000e-01) (50, 0, 5.00000000000000000000e-01) (50, 0, 5.00000000000000000000e-01) (50, 0, 5.00000000000000000000e-01) (50, 0, 5.00000000000000000000e-01) (50, 0, 5.00000000000000000000e-01) (50, 0, 5.00000000000000000000e-01) (50, 0, 5.00000000000000000000e-01) (50, 0, 5.00000000000000000000e-01) (50, 0, 5.00000000000000000000e-01) (50, 0, 5.00000000000000000000e-01) (50, 0, 5.00000000000000000000e-01) (50, 0, 5.00000000000000000000e-01) (50, 0, 5.00000000000000000000e-01) (50, 0, 5.00000000000000000000e-01) (50, 0, 5.00000000000000000000e-01) (50, 0, 5.00000000000000000000e-01) (50, 0, 5.00000000000000000000e-01) (50, 0, 5.00000000000000000000e-01) (50, 0, 5.00000000000000000000e-01) (50, 0, 5.00000000000000000000e-01) (50, 0, 5.00000000000000000000e-01) (50, 0, 5.00000000000000000000e-01) (50, 0, 5.00000000000000000000e-01) (50, 0, 5.00000000000000000000e-01) (50, 0, 5.00000000000000000000e-01) (50, 0, 5.00000000000000000000e-01) (50, 0, 5.00000000000000000000e-01) (50, 0, 5.00000000000000000000e-01) (50, 0, 5.00000000000000000000e-01) (50, 0, 5.00000000000000000000e-01) (50, 0, 5.00000000000000000000e-01) (50, 0, 5.00000000000000000000e-01) (50, 0, 5.00000000000000000000e-01) (50, 0, 5.00000000000000000000e-01) (50, 0, 5.00000000000000000000e-01) (50, 0, 5.00000000000000000000e-01) (50, 0, 5.00000000000000000000e-01) (50, 0, 5.00000000000000000000e-01) (50, 0, 5.00000000000000000000e-01) (50, 0, 5.00000000000000000000e-01) (50, 0, 5.00000000000000000000e-01) (50, 0, 5.00000000000000000000e-01) (50, 0, 5.00000000000000000000e-01) (50, 0, 5.00000000000000000000e-01) (50, 0, 5.00000000000000000000e-01) (50, 0, 5.00000000000000000000e-01) (50, 0, 5.00000000000000000000e-01) (50, 0, 5.00000000000000000000e-01) (50, 0, 5.00000000000000000000e-01) (50, 0, 5.00000000000000000000e-01) (50, 0, 5.00000000000000000000e-01) (50, 0, 5.00000000000000000000e-01) (50, 0, 5.00000000000000000000e-01) (50, 0, 5.00000000000000000000e-01) (50, 0, 5.00000000000000000000e-01) (50, 0, 5.00000000000000000000e-01) (50, 0, 5.00000000000000000000e-01) (50, 0, 5.00000000000000000000e-01) (50, 0, 5.00000000000000000000e-01) (50, 0, 5.00000000000000000000e-01) (50, 0, 5.00000000000000000000e-01) (50, 0, 5.00000000000000000000e-01) (50, 0, 5.00000000000000000000e-01) (50, 0, 5.00000000000000000000e-01) (50, 0, 5.00000000000000000000e-01) (50, 0, 5.00000000000000000000e-01) (50, 0, 5.00000000000000000000e-01) (50, 0, 5.00000000000000000000e-01) (50, 0, 5.00000000000000000000e-01) (50, 0, 5.00000000000000000000e-01) (50, 0, 5.00000000000000000000e-01) (50, 0, 5.00000000000000000000e-01) (50, 0, 5.00000000000000000000e-01) (50, 0, 5.00000000000000000000e-01) (50, 0, 5.00000000000000000000e-01) (50, 0, 5.00000000000000000000e-01) (50, 0, 5.00000000000000000000e-01) (50, 0, 5.00000000000000000000e-01) (50, 0, 5.00000000000000000000e-01) (50, 0, 5.00000000000000000000e-01) (50, 0, 5.00000000000000000000e-01) (50, 0, 5.00000000000000000000e-01) (50, 0, 5.00000000000000000000e-01) (50, 0, 5.00000000000000000000e-01) (50, 0, 5.00000000000000000000e-01) (50, 0, 5.00000000000000000000e-01) (50, 0, 5.00000000000000000000e-01) (50, 0, 5.00000000000000000000e-01) (50, 0, 5.00000000000000000000e-01) (50, 0, 5.00000000000000000000e-01) (50, 0, 5.00000000000000000000e-01) (50, 0, 5.00000000000000000000e-01) (50, 0, 5.00000000000000000000e-01) (50, 0, 5.00000000000000000000e-01) (50, 0, 5.00000000000000000000e-01) (50, 0, 5.00000000000000000000e-01) (50, 0, 5.00000000000000000000e-01) (50, 0, 5.00000000000000000000e-01) (50, 0, 5.00000000000000000000e-01) (50, 0, 5.00000000000000000000e-01) (50, 0, 5.00000000000000000000e-01) (50, 0, 5.00000000000000000000e-01) (50, 0, 5.00000000000000000000e-01) (50, 0, 5.00000000000000000000e-01) (50, 0, 5.00000000000000000000e-01) (50, 0, 5.00000000000000000000e-01) (50, 0, 5.00000000000000000000e-01) (50, 0, 5.00000000000000000000e-01) (50, 0, 5.00000000000000000000e-01) (50, 0, 5.00000000000000000000e-01) (50, 0, 5.00000000000000000000e-01) (50, 0, 5.00000000000000000000e-01) (50, 0, 5.00000000000000000000e-01) (50, 0, 5.00000000000000000000e-01) (50, 0, 5.00000000000000000000e-01) (50, 0, 5.00000000000000000000e-01) (50, 0, 5.00000000000000000000e-01) (50, 0, 5.00000000000000000000e-01) (50, 0, 5.00000000000000000000e-01) (50, 0, 5.00000000000000000000e-01) (50, 0, 5.00000000000000000000e-01) (50, 0, 5.00000000000000000000e-01) (50, 0, 5.00000000000000000000e-01) (50, 0, 5.00000000000000000000e-01) (50, 0, 5.00000000000000000000e-01) (50, 0, 5.00000000000000000000e-01) (50, 0, 5.00000000000000000000e-01) (50, 0, 5.00000000000000000000e-01) (50, 0, 5.00000000000000000000e-01) (50, 0, 5.00000000000000000000e-01) (50, 0, 5.00000000000000000000e-01) (50, 0, 5.00000000000000000000e-01) (50, 0, 5.00000000000000000000e-01) (50, 0, 5.00000000000000000000e-01) (50, 0, 5.00000000000000000000e-01) (50, 0, 5.00000000000000000000e-01) (50, 0, 5.00000000000000000000e-01) (50, 0, 5.00000000000000000000e-01) (50, 0, 5.00000000000000000000e-01) (50, 0, 5.00000000000000000000e-01) (50, 0, 5.00000000000000000000e-01) (50, 0, 5.00000000000000000000e-01) (50, 0, 5.00000000000000000000e-01) (50, 0, 5.00000000000000000000e-01) (50, 0, 5.00000000000000000000e-01) (50, 0, 5.00000000000000000000e-01) (50, 0, 5.00000000000000000000e-01) (50, 0, 5.00000000000000000000e-01) (50, 0, 5.00000000000000000000e-01) (50, 0, 5.00000000000000000000e-01) (50, 0, 5.00000000000000000000e-01) (50, 0, 5.00000000000000000000e-01) (50, 0, 5.00000000000000000000e-01) (50, 0, 5.00000000000000000000e-01) (50, 0, 5.00000000000000000000e-01) (50, 0, 5.00000000000000000000e-01) (50, 0, 5.00000000000000000000e-01) (50, 0, 5.00000000000000000000e-01) (50, 0, 5.00000000000000000000e-01) (50, 0, 5.00000000000000000000e-01) (50, 0, 5.00000000000000000000e-01) (50, 0, 5.00000000000000000000e-01) (50, 0, 5.00000000000000000000e-01) (50, 0, 5.00000000000000000000e-01) (50, 0, 5.00000000000000000000e-01) (50, 0, 5.00000000000000000000e-01) (50, 0, 5.00000000000000000000e-01) (50, 0, 5.00000000000000000000e-01) (50, 0, 5.00000000000000000000e-01) (50, 0, 5.00000000000000000000e-01) (50, 0, 5.00000000000000000000e-01) (50, 0, 5.00000000000000000000e-01) (50, 0, 5.00000000000000000000e-01) (50, 0, 5.00000000000000000000e-01) (50, 0, 5.00000000000000000000e-01) (50, 0, 5.00000000000000000000e-01) (50, 0, 5.00000000000000000000e-01) (50, 0, 5.00000000000000000000e-01) (50, 0, 5.00000000000000000000e-01) (50, 0, 5.00000000000000000000e-01) (50, 0, 5.00000000000000000000e-01) (50, 0, 5.00000000000000000000e-01) (50, 0, 5.00000000000000000000e-01) (50, 0, 5.00000000000000000000e-01) (50, 0, 5.00000000000000000000e-01) (50, 0, 5.00000000000000000000e-01) (50, 0, 5.00000000000000000000e-01) (50, 0, 5.00000000000000000000e-01) (50, 0, 5.00000000000000000000e-01) (50, 0, 5.00000000000000000000e-01) (50, 0, 5.00000000000000000000e-01) (50, 0, 5.00000000000000000000e-01) (50, 0, 5.00000000000000000000e-01) (50, 0, 5.00000000000000000000e-01) (50, 0, 5.00000000000000000000e-01) (50, 0, 5.00000000000000000000e-01) (50, 0, 5.00000000000000000000e-01) (50, 0, 5.00000000000000000000e-01) (50, 0, 5.00000000000000000000e-01) (50, 0, 5.00000000000000000000e-01) (50, 0, 5.00000000000000000000e-01) (50, 0, 5.00000000000000000000e-01) (50, 0, 5.00000000000000000000e-01) (50, 0, 5.00000000000000000000e-01) (50, 0, 5.00000000000000000000e-01) (50, 0, 5.00000000000000000000e-01) (50, 0, 5.00000000000000000000e-01) (50, 0, 5.00000000000000000000e-01) (50, 0, 5.00000000000000000000e-01) (50, 0, 5.00000000000000000000e-01) (50, 0, 5.00000000000000000000e-01) (50, 0, 5.00000000000000000000e-01) (50, 0, 5.00000000000000000000e-01) (50, 0, 5.00000000000000000000e-01) (50, 0, 5.00000000000000000000e-01) (50, 0, 5.00000000000000000000e-01) (50, 0, 5.00000000000000000000e-01) (50, 0, 5.00000000000000000000e-01) (50, 0, 5.00000000000000000000e-01) (50, 0, 5.00000000000000000000e-01) (50, 0, 5.00000000000000000000e-01) (50, 0, 5.00000000000000000000e-01) (50, 0, 5.00000000000000000000e-01) (50, 0, 5.00000000000000000000e-01) (50, 0, 5.00000000000000000000e-01) (50, 0, 5.00000000000000000000e-01) (50, 0, 5.00000000000000000000e-01) (50, 0, 5.00000000000000000000e-01) (50, 0, 5.00000000000000000000e-01) (50, 0, 5.00000000000000000000e-01) (50, 0, 5.00000000000000000000e-01) (50, 0, 5.00000000000000000000e-01) (50, 0, 5.00000000000000000000e-01) (50, 0, 5.00000000000000000000e-01) (50, 0, 5.00000000000000000000e-01) (50, 0, 5.00000000000000000000e-01) (50, 0, 5.00000000000000000000e-01) (50, 0, 5.00000000000000000000e-01) (50, 0, 5.00000000000000000000e-01) (50, 0, 5.00000000000000000000e-01) (50, 0, 5.00000000000000000000e-01) (50, 0, 5.00000000000000000000e-01) (50, 0, 5.00000000000000000000e-01) (50, 0, 5.00000000000000000000e-01) (50, 0, 5.00000000000000000000e-01) (50, 0, 5.00000000000000000000e-01) (50, 0, 5.00000000000000000000e-01) (50, 0, 5.00000000000000000000e-01) (50, 0, 5.00000000000000000000e-01) (50, 0, 5.00000000000000000000e-01) (50, 0, 5.00000000000000000000e-01) (50, 0, 5.00000000000000000000e-01) (50, 0, 5.00000000000000000000e-01) (50, 0, 5.00000000000000000000e-01) (50, 0, 5.00000000000000000000e-01) (50, 0, 5.00000000000000000000e-01) (50, 0, 5.00000000000000000000e-01) (50, 0, 5.00000000000000000000e-01) (50, 0, 5.00000000000000000000e-01) (50, 0, 5.00000000000000000000e-01) (50, 0, 5.00000000000000000000e-01) (50, 0, 5.00000000000000000000e-01) (50, 0, 5.00000000000000000000e-01) (50, 0, 5.00000000000000000000e-01) (50, 0, 5.00000000000000000000e-01) (50, 0, 5.00000000000000000000e-01) (50, 0, 5.00000000000000000000e-01) (50, 0, 5.00000000000000000000e-01) (50, 0, 5.00000000000000000000e-01) (50, 0, 5.00000000000000000000e-01) (50, 0, 5.00000000000000000000e-01) (50, 0, 5.00000000000000000000e-01) (50, 0, 5.00000000000000000000e-01) (50, 0, 5.00000000000000000000e-01) (50, 0, 5.00000000000000000000e-01) (50, 0, 5.00000000000000000000e-01) (50, 0, 5.00000000000000000000e-01) (50, 0, 5.00000000000000000000e-01) (50, 0, 5.00000000000000000000e-01) (50, 0, 5.00000000000000000000e-01) (50, 0, 5.00000000000000000000e-01) (50, 0, 5.00000000000000000000e-01) (50, 0, 5.00000000000000000000e-01) (50, 0, 5.00000000000000000000e-01) (50, 0, 5.00000000000000000000e-01) (50, 0, 5.00000000000000000000e-01) (50, 0, 5.00000000000000000000e-01) (50, 0, 5.00000000000000000000e-01) (50, 0, 5.00000000000000000000e-01) (50, 0, 5.00000000000000000000e-01) (50, 0, 5.00000000000000000000e-01) (50, 0, 5.00000000000000000000e-01) (50, 0, 5.00000000000000000000e-01) (50, 0, 5.00000000000000000000e-01) (50, 0, 5.00000000000000000000e-01) (50, 0, 5.00000000000000000000e-01) (50, 0, 5.00000000000000000000e-01) (50, 0, 5.00000000000000000000e-01) (50, 0, 5.00000000000000000000e-01) (50, 0, 5.00000000000000000000e-01) (50, 0, 5.00000000000000000000e-01) (50, 0, 5.00000000000000000000e-01) (50, 0, 5.00000000000000000000e-01) (50, 0, 5.00000000000000000000e-01) (50, 0, 5.00000000000000000000e-01) (50, 0, 5.00000000000000000000e-01) (50, 0, 5.00000000000000000000e-01) (50, 0, 5.00000000000000000000e-01) (50, 0, 5.00000000000000000000e-01) (50, 0, 5.00000000000000000000e-01) (50, 0, 5.00000000000000000000e-01) (50, 0, 5.00000000000000000000e-01) (50, 0, 5.00000000000000000000e-01) (50, 0, 5.00000000000000000000e-01) (50, 0, 5.00000000000000000000e-01) (50, 0, 5.00000000000000000000e-01) (50, 0, 5.00000000000000000000e-01) (50, 0, 5.00000000000000000000e-01) (50, 0, 5.00000000000000000000e-01) (50, 0, 5.00000000000000000000e-01) (50, 0, 5.00000000000000000000e-01) (50, 0, 5.00000000000000000000e-01) (50, 0, 5.00000000000000000000e-01) (50, 0, 5.00000000000000000000e-01) (50, 0, 5.00000000000000000000e-01) (50, 0, 5.00000000000000000000e-01) (50, 0, 5.00000000000000000000e-01) (50, 0, 5.00000000000000000000e-01) (50, 0, 5.00000000000000000000e-01) (50, 0, 5.00000000000000000000e-01) (50, 0, 5.00000000000000000000e-01) (50, 0, 5.00000000000000000000e-01) (50, 0, 5.00000000000000000000e-01) (50, 0, 5.00000000000000000000e-01) (50, 0, 5.00000000000000000000e-01) (50, 0, 5.00000000000000000000e-01) (50, 0, 5.00000000000000000000e-01) (50, 0, 5.00000000000000000000e-01) (50, 0, 5.00000000000000000000e-01) (50, 0, 5.00000000000000000000e-01) (50, 0, 5.00000000000000000000e-01) (50, 0, 5.00000000000000000000e-01) (50, 0, 5.00000000000000000000e-01) (50, 0, 5.00000000000000000000e-01) (50, 0, 5.00000000000000000000e-01) (50, 0, 5.00000000000000000000e-01) (50, 0, 5.00000000000000000000e-01) (50, 0, 5.00000000000000000000e-01) (50, 0, 5.00000000000000000000e-01) (50, 0, 5.00000000000000000000e-01) (50, 0, 5.00000000000000000000e-01) (50, 0, 5.00000000000000000000e-01) (50, 0, 5.00000000000000000000e-01) (50, 0, 5.00000000000000000000e-01) (50, 0, 5.00000000000000000000e-01) (50, 0, 5.00000000000000000000e-01) (50, 0, 5.00000000000000000000e-01) (50, 0, 5.00000000000000000000e-01) (50, 0, 5.00000000000000000000e-01) (50, 0, 5.00000000000000000000e-01) (50, 0, 5.00000000000000000000e-01) (50, 0, 5.00000000000000000000e-01) (50, 0, 5.00000000000000000000e-01) (50, 0, 5.00000000000000000000e-01) (50, 0, 5.00000000000000000000e-01) (50, 0, 5.00000000000000000000e-01) (50, 0, 5.00000000000000000000e-01) (50, 0, 5.00000000000000000000e-01) (50, 0, 5.00000000000000000000e-01) (50, 0, 5.00000000000000000000e-01) (50, 0, 5.00000000000000000000e-01) (50, 0, 5.00000000000000000000e-01) (50, 0, 5.00000000000000000000e-01) (50, 0, 5.00000000000000000000e-01) (50, 0, 5.00000000000000000000e-01) (50, 0, 5.00000000000000000000e-01) (50, 0, 5.00000000000000000000e-01) (50, 0, 5.00000000000000000000e-01) (50, 0, 5.00000000000000000000e-01) (50, 0, 5.00000000000000000000e-01) (50, 0, 5.00000000000000000000e-01) (50, 0, 5.00000000000000000000e-01) (50, 0, 5.00000000000000000000e-01) (50, 0, 5.00000000000000000000e-01) (50, 0, 5.00000000000000000000e-01) (50, 0, 5.00000000000000000000e-01) (50, 0, 5.00000000000000000000e-01) (50, 0, 5.00000000000000000000e-01) (50, 0, 5.00000000000000000000e-01) (50, 0, 5.00000000000000000000e-01) (50, 0, 5.00000000000000000000e-01) (50, 0, 5.00000000000000000000e-01) (50, 0, 5.00000000000000000000e-01) (50, 0, 5.00000000000000000000e-01) (50, 0, 5.00000000000000000000e-01) (50, 0, 5.00000000000000000000e-01) (50, 0, 5.00000000000000000000e-01) (50, 0, 5.00000000000000000000e-01) (50, 0, 5.00000000000000000000e-01) (50, 0, 5.00000000000000000000e-01) (50, 0, 5.00000000000000000000e-01) (50, 0, 5.00000000000000000000e-01) (50, 0, 5.00000000000000000000e-01) (50, 0, 5.00000000000000000000e-01) (50, 0, 5.00000000000000000000e-01) (50, 0, 5.00000000000000000000e-01) (50, 0, 5.00000000000000000000e-01) (50, 0, 5.00000000000000000000e-01) (50, 0, 5.00000000000000000000e-01) (50, 0, 5.00000000000000000000e-01) (50, 0, 5.00000000000000000000e-01) (50, 0, 5.00000000000000000000e-01) (50, 0, 5.00000000000000000000e-01) (50, 0, 5.00000000000000000000e-01) (50, 0, 5.00000000000000000000e-01) (50, 0, 5.00000000000000000000e-01) (50, 0, 5.00000000000000000000e-01) (50, 0, 5.00000000000000000000e-01) (50, 0, 5.00000000000000000000e-01) (50, 0, 5.00000000000000000000e-01) (50, 0, 5.00000000000000000000e-01) (50, 0, 5.00000000000000000000e-01) (50, 0, 5.00000000000000000000e-01) (50, 0, 5.00000000000000000000e-01) (50, 0, 5.00000000000000000000e-01) (50, 0, 5.00000000000000000000e-01) (50, 0, 5.00000000000000000000e-01) (50, 0, 5.00000000000000000000e-01) (50, 0, 5.00000000000000000000e-01) (50, 0, 5.00000000000000000000e-01) (50, 0, 5.00000000000000000000e-01) (50, 0, 5.00000000000000000000e-01) (50, 0, 5.00000000000000000000e-01) (50, 0, 5.00000000000000000000e-01) (50, 0, 5.00000000000000000000e-01) (50, 0, 5.00000000000000000000e-01) (50, 0, 5.00000000000000000000e-01) (50, 0, 5.00000000000000000000e-01) (50, 0, 5.00000000000000000000e-01) (50, 0, 5.00000000000000000000e-01) (50, 0, 5.00000000000000000000e-01) (50, 0, 5.00000000000000000000e-01) (50, 0, 5.00000000000000000000e-01) (50, 0, 5.00000000000000000000e-01) (50, 0, 5.00000000000000000000e-01) (50, 0, 5.00000000000000000000e-01) (50, 0, 5.00000000000000000000e-01) (50, 0, 5.00000000000000000000e-01) (50, 0, 5.00000000000000000000e-01) (50, 0, 5.00000000000000000000e-01) (50, 0, 5.00000000000000000000e-01) (50, 0, 5.00000000000000000000e-01) (50, 0, 5.00000000000000000000e-01) (50, 0, 5.00000000000000000000e-01) (50, 0, 5.00000000000000000000e-01) (50, 0, 5.00000000000000000000e-01) (50, 0, 5.00000000000000000000e-01) (50, 0, 5.00000000000000000000e-01) (50, 0, 5.00000000000000000000e-01) (50, 0, 5.00000000000000000000e-01) (50, 0, 5.00000000000000000000e-01) (50, 0, 5.00000000000000000000e-01) (50, 0, 5.00000000000000000000e-01) (50, 0, 5.00000000000000000000e-01) (50, 0, 5.00000000000000000000e-01) (50, 0, 5.00000000000000000000e-01) (50, 0, 5.00000000000000000000e-01) (50, 0, 5.00000000000000000000e-01) (50, 0, 5.00000000000000000000e-01) (50, 0, 5.00000000000000000000e-01) (50, 0, 5.00000000000000000000e-01) (50, 0, 5.00000000000000000000e-01) (50, 0, 5.00000000000000000000e-01) (50, 0, 5.00000000000000000000e-01) (50, 0, 5.00000000000000000000e-01) (50, 0, 5.00000000000000000000e-01) (50, 0, 5.00000000000000000000e-01) (50, 0, 5.00000000000000000000e-01) (50, 0, 5.00000000000000000000e-01) (50, 0, 5.00000000000000000000e-01) (50, 0, 5.00000000000000000000e-01) (50, 0, 5.00000000000000000000e-01) (50, 0, 5.00000000000000000000e-01) (50, 0, 5.00000000000000000000e-01) (50, 0, 5.00000000000000000000e-01) (50, 0, 5.00000000000000000000e-01) (50, 0, 5.00000000000000000000e-01) (50, 0, 5.00000000000000000000e-01) (50, 0, 5.00000000000000000000e-01) (50, 0, 5.00000000000000000000e-01) (50, 0, 5.00000000000000000000e-01) (50, 0, 5.00000000000000000000e-01) (50, 0, 5.00000000000000000000e-01) (50, 0, 5.00000000000000000000e-01) (50, 0, 5.00000000000000000000e-01) (50, 0, 5.00000000000000000000e-01) (50, 0, 5.00000000000000000000e-01) (50, 0, 5.00000000000000000000e-01) (50, 0, 5.00000000000000000000e-01) (50, 0, 5.00000000000000000000e-01) (50, 0, 5.00000000000000000000e-01) (50, 0, 5.00000000000000000000e-01) (50, 0, 5.00000000000000000000e-01) (50, 0, 5.00000000000000000000e-01) (50, 0, 5.00000000000000000000e-01) (50, 0, 5.00000000000000000000e-01) (50, 0, 5.00000000000000000000e-01) (50, 0, 5.00000000000000000000e-01) (50, 0, 5.00000000000000000000e-01) (50, 0, 5.00000000000000000000e-01) (50, 0, 5.00000000000000000000e-01) (50, 0, 5.00000000000000000000e-01) (50, 0, 5.00000000000000000000e-01) (50, 0, 5.00000000000000000000e-01) (50, 0, 5.00000000000000000000e-01) (50, 0, 5.00000000000000000000e-01) (50, 0, 5.00000000000000000000e-01) (50, 0, 5.00000000000000000000e-01) (50, 0, 5.00000000000000000000e-01) (50, 0, 5.00000000000000000000e-01) (50, 0, 5.00000000000000000000e-01) (50, 0, 5.00000000000000000000e-01) (50, 0, 5.00000000000000000000e-01) (50, 0, 5.00000000000000000000e-01) (50, 0, 5.00000000000000000000e-01) (50, 0, 5.00000000000000000000e-01) (50, 0, 5.00000000000000000000e-01) (50, 0, 5.00000000000000000000e-01) (50, 0, 5.00000000000000000000e-01) (50, 0, 5.00000000000000000000e-01) (50, 0, 5.00000000000000000000e-01) (50, 0, 5.00000000000000000000e-01) (50, 0, 5.00000000000000000000e-01) (50, 0, 5.00000000000000000000e-01) (50, 0, 5.00000000000000000000e-01) (50, 0, 5.00000000000000000000e-01) (50, 0, 5.00000000000000000000e-01) (50, 0, 5.00000000000000000000e-01) (50, 0, 5.00000000000000000000e-01) (50, 0, 5.00000000000000000000e-01) (50, 0, 5.00000000000000000000e-01) (50, 0, 5.00000000000000000000e-01) (50, 0, 5.00000000000000000000e-01) (50, 0, 5.00000000000000000000e-01) (50, 0, 5.00000000000000000000e-01) (50, 0, 5.00000000000000000000e-01) (50, 0, 5.00000000000000000000e-01) (50, 0, 5.00000000000000000000e-01) (50, 0, 5.00000000000000000000e-01) (50, 0, 5.00000000000000000000e-01) (50, 0, 5.00000000000000000000e-01) (50, 0, 5.00000000000000000000e-01) (50, 0, 5.00000000000000000000e-01) (50, 0, 5.00000000000000000000e-01) (50, 0, 5.00000000000000000000e-01) (50, 0, 5.00000000000000000000e-01) (50, 0, 5.00000000000000000000e-01) (50, 0, 5.00000000000000000000e-01) (50, 0, 5.00000000000000000000e-01) (50, 0, 5.00000000000000000000e-01) (50, 0, 5.00000000000000000000e-01) (50, 0, 5.00000000000000000000e-01) (50, 0, 5.00000000000000000000e-01) (50, 0, 5.00000000000000000000e-01) (50, 0, 5.00000000000000000000e-01) (50, 0, 5.00000000000000000000e-01) (50, 0, 5.00000000000000000000e-01) (50, 0, 5.00000000000000000000e-01) (50, 0, 5.00000000000000000000e-01) (50, 0, 5.00000000000000000000e-01) (50, 0, 5.00000000000000000000e-01) (50, 0, 5.00000000000000000000e-01) (50, 0, 5.00000000000000000000e-01) (50, 0, 5.00000000000000000000e-01) (50, 0, 5.00000000000000000000e-01) (50, 0, 5.00000000000000000000e-01) (50, 0, 5.00000000000000000000e-01) (50, 0, 5.00000000000000000000e-01) (50, 0, 5.00000000000000000000e-01) (50, 0, 5.00000000000000000000e-01) (50, 0, 5.00000000000000000000e-01) (50, 0, 5.00000000000000000000e-01) (50, 0, 5.00000000000000000000e-01) (50, 0, 5.00000000000000000000e-01) (50, 0, 5.00000000000000000000e-01) (50, 0, 5.00000000000000000000e-01) (50, 0, 5.00000000000000000000e-01) (50, 0, 5.00000000000000000000e-01) (50, 0, 5.00000000000000000000e-01) (50, 0, 5.00000000000000000000e-01) (50, 0, 5.00000000000000000000e-01) (50, 0, 5.00000000000000000000e-01) (50, 0, 5.00000000000000000000e-01) (50, 0, 5.00000000000000000000e-01) (50, 0, 5.00000000000000000000e-01) (50, 0, 5.00000000000000000000e-01) (50, 0, 5.00000000000000000000e-01) (50, 0, 5.00000000000000000000e-01) (50, 0, 5.00000000000000000000e-01) (50, 0, 5.00000000000000000000e-01) (50, 0, 5.00000000000000000000e-01) (50, 0, 5.00000000000000000000e-01) (50, 0, 5.00000000000000000000e-01) (50, 0, 5.00000000000000000000e-01) (50, 0, 5.00000000000000000000e-01) (50, 0, 5.00000000000000000000e-01) (50, 0, 5.00000000000000000000e-01) (50, 0, 5.00000000000000000000e-01) (50, 0, 5.00000000000000000000e-01) (50, 0, 5.00000000000000000000e-01) (50, 0, 5.00000000000000000000e-01) (50, 0, 5.00000000000000000000e-01) (50, 0, 5.00000000000000000000e-01) (50, 0, 5.00000000000000000000e-01) (50, 0, 5.00000000000000000000e-01) (50, 0, 5.00000000000000000000e-01) (50, 0, 5.00000000000000000000e-01) (50, 0, 5.00000000000000000000e-01) (50, 0, 5.00000000000000000000e-01) (50, 0, 5.00000000000000000000e-01) (50, 0, 5.00000000000000000000e-01) (50, 0, 5.00000000000000000000e-01) (50, 0, 5.00000000000000000000e-01) (50, 0, 5.00000000000000000000e-01) (50, 0, 5.00000000000000000000e-01) (50, 0, 5.00000000000000000000e-01) (50, 0, 5.00000000000000000000e-01) (50, 0, 5.00000000000000000000e-01) (50, 0, 5.00000000000000000000e-01) (50, 0, 5.00000000000000000000e-01) (50, 0, 5.00000000000000000000e-01) (50, 0, 5.00000000000000000000e-01) (50, 0, 5.00000000000000000000e-01) (50, 0, 5.00000000000000000000e-01) (50, 0, 5.00000000000000000000e-01) (50, 0, 5.00000000000000000000e-01) (50, 0, 5.00000000000000000000e-01) (50, 0, 5.00000000000000000000e-01) (50, 0, 5.00000000000000000000e-01) (50, 0, 5.00000000000000000000e-01) (50, 0, 5.00000000000000000000e-01) (50, 0, 5.00000000000000000000e-01) (50, 0, 5.00000000000000000000e-01) (50, 0, 5.00000000000000000000e-01) (50, 0, 5.00000000000000000000e-01) (50, 0, 5.00000000000000000000e-01) (50, 0, 5.00000000000000000000e-01) (50, 0, 5.00000000000000000000e-01) (50, 0, 5.00000000000000000000e-01) (50, 0, 5.00000000000000000000e-01) (50, 0, 5.00000000000000000000e-01) (50, 0, 5.00000000000000000000e-01) (50, 0, 5.00000000000000000000e-01) (50, 0, 5.00000000000000000000e-01) (50, 0, 5.00000000000000000000e-01) (50, 0, 5.00000000000000000000e-01) (50, 0, 5.00000000000000000000e-01) (50, 0, 5.00000000000000000000e-01) (50, 0, 5.00000000000000000000e-01) (50, 0, 5.00000000000000000000e-01) (50, 0, 5.00000000000000000000e-01) (50, 0, 5.00000000000000000000e-01) (50, 0, 5.00000000000000000000e-01) (50, 0, 5.00000000000000000000e-01) (50, 0, 5.00000000000000000000e-01) (50, 0, 5.00000000000000000000e-01) (50, 0, 5.00000000000000000000e-01) (50, 0, 5.00000000000000000000e-01) (50, 0, 5.00000000000000000000e-01) (50, 0, 5.00000000000000000000e-01) (50, 0, 5.00000000000000000000e-01) (50, 0, 5.00000000000000000000e-01) (50, 0, 5.00000000000000000000e-01) (50, 0, 5.00000000000000000000e-01) (50, 0, 5.00000000000000000000e-01) (50, 0, 5.00000000000000000000e-01) (50, 0, 5.00000000000000000000e-01) (50, 0, 5.00000000000000000000e-01) (50, 0, 5.00000000000000000000e-01) (50, 0, 5.00000000000000000000e-01) (50, 0, 5.00000000000000000000e-01) (50, 0, 5.00000000000000000000e-01) (50, 0, 5.00000000000000000000e-01) (50, 0, 5.00000000000000000000e-01) (50, 0, 5.00000000000000000000e-01) (50, 0, 5.00000000000000000000e-01) (50, 0, 5.00000000000000000000e-01) (50, 0, 5.00000000000000000000e-01) (50, 0, 5.00000000000000000000e-01) (50, 0, 5.00000000000000000000e-01) (50, 0, 5.00000000000000000000e-01) (50, 0, 5.00000000000000000000e-01) (50, 0, 5.00000000000000000000e-01) (50, 0, 5.00000000000000000000e-01) (50, 0, 5.00000000000000000000e-01) (50, 0, 5.00000000000000000000e-01) (50, 0, 5.00000000000000000000e-01) (50, 0, 5.00000000000000000000e-01) (50, 0, 5.00000000000000000000e-01) (50, 0, 5.00000000000000000000e-01) (50, 0, 5.00000000000000000000e-01) (50, 0, 5.00000000000000000000e-01) (50, 0, 5.00000000000000000000e-01) (50, 0, 5.00000000000000000000e-01) (50, 0, 5.00000000000000000000e-01) (50, 0, 5.00000000000000000000e-01) (50, 0, 5.00000000000000000000e-01) (50, 0, 5.00000000000000000000e-01) (50, 0, 5.00000000000000000000e-01) (50, 0, 5.00000000000000000000e-01) (50, 0, 5.00000000000000000000e-01) (50, 0, 5.00000000000000000000e-01) (50, 0, 5.00000000000000000000e-01) (50, 0, 5.00000000000000000000e-01) (50, 0, 5.00000000000000000000e-01) (50, 0, 5.00000000000000000000e-01) (50, 0, 5.00000000000000000000e-01) (50, 0, 5.00000000000000000000e-01) (50, 0, 5.00000000000000000000e-01) (50, 0, 5.00000000000000000000e-01) (50, 0, 5.00000000000000000000e-01) (50, 0, 5.00000000000000000000e-01) (50, 0, 5.00000000000000000000e-01) (50, 0, 5.00000000000000000000e-01) (50, 0, 5.00000000000000000000e-01) (50, 0, 5.00000000000000000000e-01) (50, 0, 5.00000000000000000000e-01) (50, 0, 5.00000000000000000000e-01) (50, 0, 5.00000000000000000000e-01) (50, 0, 5.00000000000000000000e-01) (50, 0, 5.00000000000000000000e-01) (50, 0, 5.00000000000000000000e-01) (50, 0, 5.00000000000000000000e-01) (50, 0, 5.00000000000000000000e-01) (50, 0, 5.00000000000000000000e-01) (50, 0, 5.00000000000000000000e-01) (50, 0, 5.00000000000000000000e-01) (50, 0, 5.00000000000000000000e-01) (50, 0, 5.00000000000000000000e-01) (50, 0, 5.00000000000000000000e-01) (50, 0, 5.00000000000000000000e-01) (50, 0, 5.00000000000000000000e-01) (50, 0, 5.00000000000000000000e-01) (50, 0, 5.00000000000000000000e-01) (50, 0, 5.00000000000000000000e-01) (50, 0, 5.00000000000000000000e-01) (50, 0, 5.00000000000000000000e-01) (50, 0, 5.00000000000000000000e-01) (50, 0, 5.00000000000000000000e-01) (50, 0, 5.00000000000000000000e-01) (50, 0, 5.00000000000000000000e-01) (50, 0, 5.00000000000000000000e-01) (50, 0, 5.00000000000000000000e-01) (50, 0, 5.00000000000000000000e-01) (50, 0, 5.00000000000000000000e-01) (50, 0, 5.00000000000000000000e-01) (50, 0, 5.00000000000000000000e-01) (50, 0, 5.00000000000000000000e-01) (50, 0, 5.00000000000000000000e-01) (50, 0, 5.00000000000000000000e-01) (50, 0, 5.00000000000000000000e-01) (50, 0, 5.00000000000000000000e-01) (50, 0, 5.00000000000000000000e-01) (50, 0, 5.00000000000000000000e-01) (50, 0, 5.00000000000000000000e-01) (50, 0, 5.00000000000000000000e-01) (50, 0, 5.00000000000000000000e-01) (50, 0, 5.00000000000000000000e-01) (50, 0, 5.00000000000000000000e-01) (50, 0, 5.00000000000000000000e-01) (50, 0, 5.00000000000000000000e-01) (50, 0, 5.00000000000000000000e-01) (50, 0, 5.00000000000000000000e-01) (50, 0, 5.00000000000000000000e-01) (50, 0, 5.00000000000000000000e-01) (50, 0, 5.00000000000000000000e-01) (50, 0, 5.00000000000000000000e-01) (50, 0, 5.00000000000000000000e-01) (50, 0, 5.00000000000000000000e-01) (50, 0, 5.00000000000000000000e-01) (50, 0, 5.00000000000000000000e-01) (50, 0, 5.00000000000000000000e-01) (50, 0, 5.00000000000000000000e-01) (50, 0, 5.00000000000000000000e-01) (50, 0, 5.00000000000000000000e-01) (50, 0, 5.00000000000000000000e-01) (50, 0, 5.00000000000000000000e-01) (50, 0, 5.00000000000000000000e-01) (50, 0, 5.00000000000000000000e-01) (50, 0, 5.00000000000000000000e-01) (50, 0, 5.00000000000000000000e-01) (50, 0, 5.00000000000000000000e-01) (50, 0, 5.00000000000000000000e-01) (50, 0, 5.00000000000000000000e-01) (50, 0, 5.00000000000000000000e-01) (50, 0, 5.00000000000000000000e-01) (50, 0, 5.00000000000000000000e-01) (50, 0, 5.00000000000000000000e-01) (50, 0, 5.00000000000000000000e-01) (50, 0, 5.00000000000000000000e-01) (50, 0, 5.00000000000000000000e-01) (50, 0, 5.00000000000000000000e-01) (50, 0, 5.00000000000000000000e-01) (50, 0, 5.00000000000000000000e-01) (50, 0, 5.00000000000000000000e-01) (50, 0, 5.00000000000000000000e-01) (50, 0, 5.00000000000000000000e-01) (50, 0, 5.00000000000000000000e-01) (50, 0, 5.00000000000000000000e-01) (50, 0, 5.00000000000000000000e-01) (50, 0, 5.00000000000000000000e-01) (50, 0, 5.00000000000000000000e-01) (50, 0, 5.00000000000000000000e-01) (50, 0, 5.00000000000000000000e-01) (50, 0, 5.00000000000000000000e-01) (50, 0, 5.00000000000000000000e-01) (50, 0, 5.00000000000000000000e-01) (50, 0, 5.00000000000000000000e-01) (50, 0, 5.00000000000000000000e-01) (50, 0, 5.00000000000000000000e-01) (50, 0, 5.00000000000000000000e-01) (50, 0, 5.00000000000000000000e-01) (50, 0, 5.00000000000000000000e-01) (50, 0, 5.00000000000000000000e-01) (50, 0, 5.00000000000000000000e-01) (50, 0, 5.00000000000000000000e-01) (50, 0, 5.00000000000000000000e-01) (50, 0, 5.00000000000000000000e-01) (50, 0, 5.00000000000000000000e-01) (50, 0, 5.00000000000000000000e-01) (50, 0, 5.00000000000000000000e-01) (50, 0, 5.00000000000000000000e-01) (50, 0, 5.00000000000000000000e-01) (50, 0, 5.00000000000000000000e-01) (50, 0, 5.00000000000000000000e-01) (50, 0, 5.00000000000000000000e-01) (50, 0, 5.00000000000000000000e-01) (50, 0, 5.00000000000000000000e-01) (50, 0, 5.00000000000000000000e-01) (50, 0, 5.00000000000000000000e-01) (50, 0, 5.00000000000000000000e-01) (50, 0, 5.00000000000000000000e-01) (50, 0, 5.00000000000000000000e-01) (50, 0, 5.00000000000000000000e-01) (50, 0, 5.00000000000000000000e-01) (50, 0, 5.00000000000000000000e-01) (50, 0, 5.00000000000000000000e-01) (50, 0, 5.00000000000000000000e-01) (50, 0, 5.00000000000000000000e-01) (50, 0, 5.00000000000000000000e-01) (50, 0, 5.00000000000000000000e-01) (50, 0, 5.00000000000000000000e-01) (50, 0, 5.00000000000000000000e-01) (50, 0, 5.00000000000000000000e-01) (50, 0, 5.00000000000000000000e-01) (50, 0, 5.00000000000000000000e-01) (50, 0, 5.00000000000000000000e-01) (50, 0, 5.00000000000000000000e-01) (50, 0, 5.00000000000000000000e-01) (50, 0, 5.00000000000000000000e-01) (50, 0, 5.00000000000000000000e-01) (50, 0, 5.00000000000000000000e-01) (50, 0, 5.00000000000000000000e-01) (50, 0, 5.00000000000000000000e-01) (50, 0, 5.00000000000000000000e-01) (50, 0, 5.00000000000000000000e-01) (50, 0, 5.00000000000000000000e-01) (50, 0, 5.00000000000000000000e-01) (50, 0, 5.00000000000000000000e-01) (50, 0, 5.00000000000000000000e-01) (50, 0, 5.00000000000000000000e-01) (50, 0, 5.00000000000000000000e-01) (50, 0, 5.00000000000000000000e-01) (50, 0, 5.00000000000000000000e-01) (50, 0, 5.00000000000000000000e-01) (50, 0, 5.00000000000000000000e-01) (50, 0, 5.00000000000000000000e-01) (50, 0, 5.00000000000000000000e-01) (50, 0, 5.00000000000000000000e-01) (50, 0, 5.00000000000000000000e-01) (50, 0, 5.00000000000000000000e-01) (50, 0, 5.00000000000000000000e-01) 
connections (connected_to_neuron, weight)=(0, -1.07038652896881103516e+00) (1, 5.63129127025604248047e-01) (2, 2.71893329918384552002e-02) (3, -8.22785645723342895508e-02) (4, -8.96679162979125976562e-02) (5, 1.63268864154815673828e-01) (6, 9.78510200977325439453e-01) (7, 6.50173574686050415039e-02) (8, -5.63545942306518554688e-01) (9, 1.90446034073829650879e-01) (10, 8.78943800926208496094e-01) (0, -6.59940779209136962891e-01) (1, -1.83432683348655700684e-01) (2, 5.19352436065673828125e-01) (3, -4.32701319456100463867e-01) (4, 7.00746774673461914062e-02) (5, 4.40218269824981689453e-01) (6, 6.24770998954772949219e-01) (7, -4.67534124851226806641e-01) (8, -9.64436531066894531250e-01) (9, 9.29577469825744628906e-01) (10, -2.69356101751327514648e-01) (11, -1.00243961811065673828e+00) (0, 6.74208939075469970703e-01) (1, 5.95318496227264404297e-01) (2, 7.71384537220001220703e-02) (3, 2.95527875423431396484e-01) (4, -5.79172432422637939453e-01) (5, 1.09098985791206359863e-01) (6, -5.81681132316589355469e-01) (7, 5.65247476100921630859e-01) (8, 5.94469249248504638672e-01) (9, -3.36762040853500366211e-01) (10, -3.30316472053527832031e+00) (11, 8.39791238307952880859e-01) (12, 2.55542063713073730469e+00) (0, -5.66743850708007812500e-01) (1, -1.23482003808021545410e-01) (2, 6.25302016735076904297e-01) (3, 1.13223004341125488281e+00) (4, 7.74131789803504943848e-02) (5, -1.52914181351661682129e-01) (6, 8.22123825550079345703e-01) (7, -8.08906853199005126953e-01) (8, 1.80962786078453063965e-01) (9, -8.59801411628723144531e-01) (10, -1.78725433349609375000e+00) (11, -8.53365182876586914062e-01) (12, 1.87324607372283935547e+00) (13, 8.62049818038940429688e-01) (0, 1.38995194435119628906e+00) (1, -1.86927452683448791504e-01) (2, 8.12710285186767578125e-01) (3, -4.87239629030227661133e-01) (4, 1.55746072530746459961e-01) (5, -6.71597778797149658203e-01) (6, -1.87186226248741149902e-01) (7, 4.15481120347976684570e-01) (8, 7.79786765575408935547e-01) (9, -3.49411010742187500000e-01) (10, -5.00345304608345031738e-02) (11, -5.96397161483764648438e-01) (12, 2.78090667724609375000e+00) (13, -6.93183720111846923828e-01) (14, -9.73019227385520935059e-02) (0, 2.56241530179977416992e-01) (1, 1.27870023250579833984e+00) (2, 4.10704702138900756836e-01) (3, 1.40762567520141601562e+00) (4, 4.54347103834152221680e-01) (5, -4.78900969028472900391e-01) (6, 1.45323118194937705994e-02) (7, -1.55411273241043090820e-01) (8, -5.09078323841094970703e-01) (9, -7.41195976734161376953e-01) (10, -2.77669739723205566406e+00) (11, -7.66039133071899414062e-01) (12, 5.37002086639404296875e-01) (13, -3.68367880582809448242e-01) (14, -3.11741375923156738281e+00) (15, -1.97138890624046325684e-01) (0, -1.24890482425689697266e+00) (1, -5.67698419094085693359e-01) (2, 3.16770225763320922852e-01) (3, 9.17749106884002685547e-02) (4, -4.47228938341140747070e-01) (5, -6.50294959545135498047e-01) (6, 3.92715223133563995361e-02) (7, 9.38939750194549560547e-02) (8, 6.70962512493133544922e-01) (9, 3.23746949434280395508e-01) (10, 1.48501217365264892578e-01) (11, -9.63178500533103942871e-02) (12, 2.53956651687622070312e+00) (13, 1.51807695627212524414e-01) (14, -8.80135059356689453125e-01) (15, 3.94195020198822021484e-01) (16, 2.33597740530967712402e-01) (0, 5.36275029182434082031e-01) (1, -4.18770819902420043945e-01) (2, -5.53849488496780395508e-02) (3, -5.94971954822540283203e-01) (4, 3.72887790203094482422e-01) (5, -7.66993641853332519531e-01) (6, 2.70931899547576904297e-01) (7, 8.92062902450561523438e-01) (8, 9.40052390098571777344e-01) (9, 2.10808500647544860840e-01) (10, -1.03920185565948486328e+00) (11, -1.79141700267791748047e-01) (12, 1.53593432903289794922e+00) (13, -7.91491687297821044922e-01) (14, -6.48909747600555419922e-01) (15, -4.23358964920043945312e+00) (16, -1.24499011039733886719e+00) (17, 1.03364062309265136719e+00) (0, -7.48413562774658203125e-01) (1, -2.45812565088272094727e-01) (2, 4.21001225709915161133e-01) (3, 3.88290360569953918457e-02) (4, 4.80660170316696166992e-01) (5, 1.10111737251281738281e+00) (6, -1.00656080245971679688e+00) (7, 3.31784158945083618164e-01) (8, 2.96018607914447784424e-02) (9, -6.83510482311248779297e-01) (10, 1.50381195545196533203e+00) (11, -2.58362859487533569336e-01) (12, 1.77017688751220703125e+00) (13, -1.31045654416084289551e-01) (14, -7.47725248336791992188e-01) (15, 1.33784246444702148438e+00) (16, 2.93293595314025878906e-01) (17, 3.69455671310424804688e+00) (18, 1.33895719051361083984e+00) (0, 5.94520986080169677734e-01) (1, 6.55643522739410400391e-01) (2, -7.48385310173034667969e-01) (3, 9.82328727841377258301e-02) (4, 3.59196722507476806641e-01) (5, -8.06407034397125244141e-01) (6, -5.38882195949554443359e-01) (7, 8.40913593769073486328e-01) (8, 1.20793855190277099609e+00) (9, -6.63253486156463623047e-01) (10, -1.85938441753387451172e+00) (11, -1.22058951854705810547e+00) (12, 3.97352743148803710938e+00) (13, 1.90908044576644897461e-01) (14, -4.02337700128555297852e-01) (15, 8.41627836227416992188e-01) (16, 2.98851858824491500854e-02) (17, -3.20083558559417724609e-01) (18, -8.40004384517669677734e-01) (19, 2.15279906988143920898e-01) (0, 1.18472707271575927734e+00) (1, 1.06931865215301513672e+00) (2, 1.01344220340251922607e-01) (3, 4.55817967653274536133e-01) (4, 3.26083600521087646484e-01) (5, 9.30260062217712402344e-01) (6, -1.08126676082611083984e+00) (7, -2.39835515618324279785e-01) (8, -3.31852883100509643555e-01) (9, -4.21598330140113830566e-02) (10, 3.71766805648803710938e-01) (11, -1.60932517051696777344e+00) (12, 1.88066765666007995605e-01) (13, 3.05640310049057006836e-01) (14, -2.49146848917007446289e-01) (15, -6.16357743740081787109e-01) (16, -7.68384337425231933594e-02) (17, 5.48926210403442382812e+00) (18, 2.29090452194213867188e+00) (19, -3.31676483154296875000e-01) (20, 1.97526085376739501953e+00) (0, 6.15387856960296630859e-01) (1, 8.84954452514648437500e-01) (2, -1.05790764093399047852e-01) (3, -5.81628859043121337891e-01) (4, 2.18806028366088867188e-01) (5, 1.32622808218002319336e-01) (6, -8.20377767086029052734e-02) (7, 4.06825616955757141113e-02) (8, 7.59710669517517089844e-01) (9, -3.56042683124542236328e-01) (10, -1.53055810928344726562e+00) (11, 2.62536197900772094727e-01) (12, 7.63951241970062255859e-01) (13, -1.52491545677185058594e+00) (14, 1.20205485820770263672e+00) (15, 4.94166582822799682617e-01) (16, -1.07694303989410400391e+00) (17, 4.87768220901489257812e+00) (18, 4.36720430850982666016e-01) (19, 4.78222429752349853516e-01) (20, 2.66423273086547851562e+00) (21, -1.56414556503295898438e+00) (0, 1.24835240840911865234e+00) (1, 9.67531383037567138672e-01) (2, -5.55055856704711914062e-01) (3, 9.04610604047775268555e-02) (4, -4.38881993293762207031e-01) (5, -1.33510336279869079590e-01) (6, 8.50550770759582519531e-01) (7, -3.73695194721221923828e-01) (8, 1.84101432561874389648e-01) (9, 6.20343945920467376709e-02) (10, -2.38235592842102050781e+00) (11, 1.15686114877462387085e-02) (12, -3.13532114028930664062e-01) (13, 3.07943284511566162109e-01) (14, 8.97203564643859863281e-01) (15, 2.69433528184890747070e-01) (16, -3.42825174331665039062e-01) (17, 1.13548898696899414062e+00) (18, -1.60592663288116455078e+00) (19, 2.40145468711853027344e+00) (20, 5.43154716491699218750e-01) (21, -3.69710683822631835938e-01) (22, -4.56379383802413940430e-01) (0, -9.33442711830139160156e-02) (1, 3.44875007867813110352e-01) (2, -5.12879490852355957031e-01) (3, -7.70191967487335205078e-01) (4, -4.43167418241500854492e-01) (5, -6.80519402027130126953e-01) (6, 8.73907744884490966797e-01) (7, 1.78672933578491210938e+00) (8, -2.77607262134552001953e-01) (9, 3.41216951608657836914e-01) (10, -1.77196741104125976562e+00) (11, 6.20085239410400390625e-01) (12, 2.68694949150085449219e+00) (13, -1.86813127994537353516e+00) (14, 5.54024517536163330078e-01) (15, -4.96873334050178527832e-02) (16, 4.04082715511322021484e-01) (17, 1.39981520175933837891e+00) (18, -4.32743835449218750000e+00) (19, -6.73841178417205810547e-01) (20, 1.38047051429748535156e+00) (21, 3.02114057540893554688e+00) (22, -5.32184183597564697266e-01) (23, -2.20371699333190917969e+00) (0, 1.99575334787368774414e-01) (1, 5.62625050544738769531e-01) (2, 1.22850954532623291016e-01) (3, -5.53920328617095947266e-01) (4, -3.43309909105300903320e-01) (5, -1.16382516920566558838e-01) (6, 6.05103731155395507812e-01) (7, -1.49746701121330261230e-01) (8, 9.52597081661224365234e-01) (9, -3.25315356254577636719e-01) (10, -6.82708323001861572266e-01) (11, 3.29538851976394653320e-01) (12, 6.65549218654632568359e-01) (13, -1.34786140918731689453e+00) (14, 1.82691261172294616699e-01) (15, -1.59157073497772216797e+00) (16, -1.68267524242401123047e+00) (17, 2.14075136184692382812e+00) (18, 3.84038478136062622070e-01) (19, 1.65281498432159423828e+00) (20, 1.69163846969604492188e+00) (21, -2.09144186973571777344e+00) (22, -2.10495352745056152344e+00) (23, -4.81066673994064331055e-01) (24, 2.42879962921142578125e+00) (0, -6.27815842628479003906e-01) (1, 2.14022308588027954102e-01) (2, 2.69590139389038085938e-01) (3, 1.80361986160278320312e-01) (4, -5.64285933971405029297e-01) (5, 4.86897766590118408203e-01) (6, -6.79944217205047607422e-01) (7, 8.48044514656066894531e-01) (8, -7.30137825012207031250e-01) (9, 5.03535687923431396484e-01) (10, -2.80296087265014648438e+00) (11, 1.19969606399536132812e+00) (12, 8.74260067939758300781e-01) (13, -1.38694834709167480469e+00) (14, 2.43230253458023071289e-01) (15, 1.10566508769989013672e+00) (16, -1.79936483502388000488e-01) (17, -1.54426872730255126953e+00) (18, 1.42559969425201416016e+00) (19, -2.21251592040061950684e-01) (20, 2.07487893104553222656e+00) (21, 1.33209788799285888672e+00) (22, 1.22439634799957275391e+00) (23, -3.13116222620010375977e-01) (24, 2.03636616468429565430e-01) (25, -5.22478640079498291016e-01) (0, 9.18879628181457519531e-01) (1, 7.11211621761322021484e-01) (2, -2.50779867172241210938e-01) (3, 3.50926443934440612793e-02) (4, -2.14014694094657897949e-01) (5, 1.77680253982543945312e-01) (6, 4.54668611288070678711e-01) (7, 6.45755112171173095703e-01) (8, -3.74982655048370361328e-01) (9, -5.50403952598571777344e-01) (10, -1.76590240001678466797e+00) (11, -1.21835902333259582520e-01) (12, 2.18719673156738281250e+00) (13, 1.12716174125671386719e+00) (14, -1.12893486022949218750e+00) (15, -1.84376740455627441406e+00) (16, 2.21907949447631835938e+00) (17, 1.91259598731994628906e+00) (18, 1.71164214611053466797e-01) (19, -1.45511195063591003418e-01) (20, 1.12134706974029541016e+00) (21, -9.89042997360229492188e-01) (22, -1.31507351994514465332e-01) (23, -2.32966557145118713379e-01) (24, -3.88727098703384399414e-01) (25, -4.94698256254196166992e-01) (26, 1.42966783046722412109e+00) (0, -3.97216439247131347656e-01) (1, 1.41574680805206298828e-01) (2, 4.15590822696685791016e-01) (3, 3.18767458200454711914e-01) (4, 8.71035754680633544922e-02) (5, 1.16923928260803222656e+00) (6, -8.94016802310943603516e-01) (7, 9.31383252143859863281e-01) (8, -2.98686753958463668823e-02) (9, -3.81396532058715820312e-01) (10, -2.43386673927307128906e+00) (11, -9.80954408645629882812e-01) (12, 2.63240122795104980469e+00) (13, -1.08729243278503417969e+00) (14, -1.54447758197784423828e+00) (15, 6.58853530883789062500e-01) (16, 5.51138997077941894531e-01) (17, 3.98668432235717773438e+00) (18, 1.61536145210266113281e+00) (19, -4.00233411788940429688e+00) (20, 2.86839175224304199219e+00) (21, -8.21410477161407470703e-01) (22, 2.66062647104263305664e-01) (23, 3.25382828712463378906e-01) (24, -2.00612568855285644531e+00) (25, -4.90102946758270263672e-01) (26, 1.25383138656616210938e-01) (27, 5.82787953317165374756e-03) (0, -1.33761405944824218750e-01) (1, 9.74316835403442382812e-01) (2, 2.43486925959587097168e-01) (3, -2.26383358240127563477e-02) (4, -6.28815352916717529297e-01) (5, 5.05090475082397460938e-01) (6, 5.68135559558868408203e-01) (7, -7.02834844589233398438e-01) (8, 7.27687656879425048828e-01) (9, 1.97464436292648315430e-01) (10, -2.23903417587280273438e+00) (11, -2.03749251365661621094e+00) (12, -9.05535370111465454102e-03) (13, -6.52596116065979003906e-01) (14, -1.03606450557708740234e+00) (15, -6.96185052394866943359e-01) (16, -9.98651921749114990234e-01) (17, 2.10490250587463378906e+00) (18, 1.87079298496246337891e+00) (19, 1.09781348705291748047e+00) (20, 1.61722636222839355469e+00) (21, -1.52762830257415771484e+00) (22, -2.93706011772155761719e+00) (23, -7.77060747146606445312e-01) (24, 1.34397315979003906250e+00) (25, -6.10934436321258544922e-01) (26, 6.81135237216949462891e-01) (27, 1.04831373691558837891e+00) (28, -2.36358571052551269531e+00) (0, -1.87843680381774902344e-01) (1, -8.73698353767395019531e-01) (2, -4.17449861764907836914e-01) (3, 5.66814184188842773438e-01) (4, 5.87551057338714599609e-01) (5, 5.86578845977783203125e-01) (6, -1.30297958850860595703e-01) (7, 4.13937330245971679688e-01) (8, 1.04303264617919921875e+00) (9, -1.01863884925842285156e+00) (10, -3.19029831886291503906e+00) (11, 1.14745712280273437500e+00) (12, 1.44674360752105712891e+00) (13, -1.91703045368194580078e+00) (14, 4.43646699190139770508e-01) (15, 6.80203258991241455078e-01) (16, 7.43126213550567626953e-01) (17, 2.82041740417480468750e+00) (18, -2.08715438842773437500e+00) (19, -2.85962726920843124390e-02) (20, 1.81144762039184570312e+00) (21, -6.42977535724639892578e-01) (22, -3.61007189750671386719e+00) (23, 2.05655217170715332031e+00) (24, 6.06215834617614746094e-01) (25, -9.70094740390777587891e-01) (26, 1.45590734481811523438e+00) (27, 3.24328780174255371094e-01) (28, -2.84306502342224121094e+00) (29, -1.56087756156921386719e-01) (0, -2.10204124450683593750e-01) (1, -1.08082382939755916595e-03) (2, 1.53776764869689941406e-01) (3, 1.34948921203613281250e+00) (4, -5.40561020374298095703e-01) (5, 1.58760789781808853149e-02) (6, -4.39926058053970336914e-01) (7, 2.72777974605560302734e-01) (8, -9.77550260722637176514e-03) (9, -1.13290333747863769531e+00) (10, -3.08034449815750122070e-01) (11, 1.37351846694946289062e+00) (12, 3.31608271598815917969e+00) (13, 2.65116065740585327148e-01) (14, -1.93634152412414550781e+00) (15, -1.57709395885467529297e+00) (16, 4.28357988595962524414e-01) (17, 2.99971365928649902344e+00) (18, 2.49111247062683105469e+00) (19, -7.71291673183441162109e-01) (20, 3.07004857063293457031e+00) (21, -1.51337608695030212402e-01) (22, 5.11308491230010986328e-01) (23, 9.43367898464202880859e-01) (24, -7.95766413211822509766e-01) (25, 2.51311600208282470703e-01) (26, 7.73506402969360351562e-01) (27, -1.27140593528747558594e+00) (28, 9.39736247062683105469e-01) (29, -1.54832768440246582031e+00) (30, 2.63289761543273925781e+00) (0, -8.04169178009033203125e-01) (1, 1.20533037185668945312e+00) (2, -9.69705581665039062500e-01) (3, -5.63732266426086425781e-01) (4, -8.71628701686859130859e-01) (5, -4.90449130535125732422e-01) (6, 7.83893406391143798828e-01) (7, 9.59270298480987548828e-01) (8, 3.34254115819931030273e-01) (9, 4.96975392103195190430e-01) (10, -3.59538555145263671875e-01) (11, -1.23464441299438476562e+00) (12, 1.75583267211914062500e+00) (13, 4.51065063476562500000e-01) (14, 1.57700106501579284668e-01) (15, -1.06080925464630126953e+00) (16, -8.62522184848785400391e-01) (17, 2.04845356941223144531e+00) (18, -3.26860737800598144531e+00) (19, 4.90584015846252441406e-01) (20, -1.25486814975738525391e+00) (21, -1.01290071010589599609e+00) (22, -3.26880328357219696045e-02) (23, -1.52021691203117370605e-01) (24, 7.28416264057159423828e-01) (25, -1.96372881531715393066e-01) (26, 1.86695039272308349609e+00) (27, -7.74840414524078369141e-02) (28, 4.87507134675979614258e-01) (29, -2.41037338972091674805e-01) (30, 3.01081848144531250000e+00) (31, -5.95560371875762939453e-02) (0, 1.08905124664306640625e+00) (1, 1.20108413696289062500e+00) (2, -1.36250937357544898987e-02) (3, -3.38868051767349243164e-01) (4, -1.12324869632720947266e+00) (5, 7.67755568027496337891e-01) (6, -1.59469142556190490723e-01) (7, 5.58964192867279052734e-01) (8, 2.86377102136611938477e-01) (9, -1.05733120441436767578e+00) (10, 6.83916211128234863281e-01) (11, -1.98417931795120239258e-01) (12, 2.48841786384582519531e+00) (13, -2.65419721603393554688e+00) (14, -1.10392367839813232422e+00) (15, 5.03240287303924560547e-01) (16, 2.23812222480773925781e+00) (17, 1.44036471843719482422e+00) (18, 2.43961170315742492676e-01) (19, -8.34754407405853271484e-01) (20, 5.92777192592620849609e-01) (21, -1.47930765151977539062e+00) (22, -1.45944976806640625000e+00) (23, 9.99318301677703857422e-01) (24, 1.03755872696638107300e-02) (25, 3.32114547491073608398e-01) (26, 1.50159633159637451172e+00) (27, -8.55596959590911865234e-01) (28, 2.75428384542465209961e-01) (29, -3.93848448991775512695e-01) (30, 1.38581979274749755859e+00) (31, 2.38007092475891113281e+00) (32, 2.20117419958114624023e-01) (0, 3.37662994861602783203e-02) (1, 1.06165409088134765625e+00) (2, 1.41314458847045898438e+00) (3, -8.63426506519317626953e-01) (4, 8.18193912506103515625e-01) (5, -8.95234107971191406250e-01) (6, -8.30385088920593261719e-01) (7, 5.76975345611572265625e-01) (8, -7.18389227986335754395e-02) (9, 4.09240633249282836914e-01) (10, -2.22116041183471679688e+00) (11, -1.00744736194610595703e+00) (12, 1.55417025089263916016e+00) (13, 6.63658916950225830078e-01) (14, 2.30586004257202148438e+00) (15, -1.93431997299194335938e+00) (16, 1.47103257477283477783e-02) (17, 6.76510691642761230469e-01) (18, 1.27188101410865783691e-01) (19, -4.03145027160644531250e+00) (20, -1.43641978502273559570e-01) (21, -5.52411861717700958252e-02) (22, -1.12767076492309570312e+00) (23, -3.68906408548355102539e-01) (24, 8.03453207015991210938e-01) (25, -1.69781684875488281250e+00) (26, -5.07344186305999755859e-01) (27, -1.70888006687164306641e+00) (28, 4.67298597097396850586e-01) (29, 4.61229324340820312500e-01) (30, 2.89155340194702148438e+00) (31, -1.93867713212966918945e-01) (32, 2.75056672096252441406e+00) (33, 1.42133140563964843750e+00) (0, 8.73354315757751464844e-01) (1, 1.28762722015380859375e-01) (2, -5.84325253963470458984e-01) (3, 4.72237825393676757812e-01) (4, 3.52456748485565185547e-01) (5, 5.94098031520843505859e-01) (6, -8.91573429107666015625e-01) (7, 3.89908045530319213867e-01) (8, 1.15003772079944610596e-01) (9, -2.00610697269439697266e-01) (10, -2.59822487831115722656e+00) (11, -6.64950728416442871094e-01) (12, 2.14311718940734863281e+00) (13, -1.08849227428436279297e+00) (14, 9.84282433986663818359e-01) (15, 9.83843743801116943359e-01) (16, -1.98312366008758544922e+00) (17, 1.07659244537353515625e+00) (18, 1.25023257732391357422e+00) (19, -5.40868401527404785156e-01) (20, 1.48268878459930419922e-01) (21, -1.09007287025451660156e+00) (22, -1.40245330333709716797e+00) (23, 9.10509884357452392578e-01) (24, 1.46638000011444091797e+00) (25, -1.17457056045532226562e+00) (26, 5.11558830738067626953e-01) (27, -1.49956035614013671875e+00) (28, 3.17318528890609741211e-01) (29, 7.77119576930999755859e-01) (30, 1.71767711639404296875e+00) (31, 5.38726449012756347656e-01) (32, 1.79107558727264404297e+00) (33, -4.20311614871025085449e-02) (34, -7.21306741237640380859e-01) (0, 7.68326997756958007812e-01) (1, 1.89416408538818359375e-01) (2, -2.59922981262207031250e-01) (3, 4.36133235692977905273e-01) (4, -6.01396501064300537109e-01) (5, -1.37617528438568115234e-01) (6, -4.42462921142578125000e-01) (7, 2.01250031590461730957e-01) (8, 8.64356160163879394531e-01) (9, -3.84554684162139892578e-01) (10, -5.21072983741760253906e-01) (11, 1.09213173389434814453e+00) (12, 2.25071930885314941406e+00) (13, 9.40396726131439208984e-01) (14, 4.10218656063079833984e-01) (15, -8.31511557102203369141e-01) (16, -8.27910482883453369141e-01) (17, 1.62810102105140686035e-01) (18, 9.12107765674591064453e-01) (19, -1.45549166202545166016e+00) (20, 1.21609902381896972656e+00) (21, -7.85090327262878417969e-01) (22, 1.56405198574066162109e+00) (23, -1.46068048477172851562e+00) (24, -6.14320397377014160156e-01) (25, -6.59331560134887695312e-01) (26, -1.09251165390014648438e+00) (27, -6.74070000648498535156e-01) (28, -2.60112732648849487305e-02) (29, -1.80883634090423583984e+00) (30, 2.58528709411621093750e+00) (31, -1.02743196487426757812e+00) (32, 1.76824402809143066406e+00) (33, -4.83924150466918945312e-01) (34, 4.69184190034866333008e-01) (35, 1.03825449943542480469e+00) (0, 9.13011655211448669434e-02) (1, -3.83976459503173828125e-01) (2, 9.96769309043884277344e-01) (3, -1.64521217346191406250e-01) (4, 7.00274705886840820312e-01) (5, 1.77675023674964904785e-01) (6, -4.66178447008132934570e-01) (7, 5.59832990169525146484e-01) (8, -1.29931867122650146484e+00) (9, -2.23595410585403442383e-01) (10, 9.01707589626312255859e-01) (11, 1.60100686550140380859e+00) (12, 3.41112673282623291016e-01) (13, 1.67417013645172119141e+00) (14, 2.51736819744110107422e-01) (15, -6.61870479583740234375e-01) (16, 1.72414913773536682129e-01) (17, 5.64767837524414062500e-01) (18, 1.66060256958007812500e+00) (19, 3.23608756065368652344e-01) (20, 2.69025301933288574219e+00) (21, -2.40902495384216308594e+00) (22, 3.97067695856094360352e-01) (23, 1.13816106319427490234e+00) (24, -6.91822469234466552734e-01) (25, 5.87591946125030517578e-01) (26, 6.39134943485260009766e-01) (27, -1.25256478786468505859e+00) (28, -1.85070431232452392578e+00) (29, 7.09003880620002746582e-02) (30, -4.94150936603546142578e-01) (31, 9.16402637958526611328e-02) (32, -7.96353369951248168945e-02) (33, -9.25649821758270263672e-01) (34, -1.48943793773651123047e+00) (35, 1.09485852718353271484e+00) (36, 2.95946693420410156250e+00) (0, 7.73741006851196289062e-01) (1, 7.76572823524475097656e-01) (2, 1.83643028140068054199e-01) (3, 4.33732986450195312500e-01) (4, -2.46665894985198974609e-01) (5, -2.48989999294281005859e-01) (6, -3.51154327392578125000e-01) (7, 8.15253019332885742188e-01) (8, 1.98798365890979766846e-02) (9, -1.10544145107269287109e+00) (10, 1.11596810817718505859e+00) (11, -3.35250228643417358398e-01) (12, 2.36398124694824218750e+00) (13, -1.75284767150878906250e+00) (14, 7.74550497531890869141e-01) (15, -7.63697206974029541016e-01) (16, 1.68445363640785217285e-01) (17, 3.32440316677093505859e-01) (18, 5.02651095390319824219e-01) (19, 7.67091691493988037109e-01) (20, -4.48091924190521240234e-02) (21, -1.93972551822662353516e+00) (22, -1.39868527650833129883e-01) (23, -8.49052131175994873047e-01) (24, 1.19732940196990966797e+00) (25, -6.39502406120300292969e-01) (26, 3.86104285717010498047e-01) (27, -2.02630114555358886719e+00) (28, 1.49612390995025634766e+00) (29, 2.29055142402648925781e+00) (30, -1.48283040523529052734e+00) (31, 1.82358533143997192383e-01) (32, 7.93668210506439208984e-01) (33, 2.75382727384567260742e-01) (34, -8.91107797622680664062e-01) (35, 1.36887562274932861328e+00) (36, 1.39505422115325927734e+00) (37, -1.14938521385192871094e+00) (0, 5.33892028033733367920e-02) (1, 4.76266771554946899414e-01) (2, 9.07234370708465576172e-01) (3, -2.68446415662765502930e-01) (4, -3.64197909832000732422e-01) (5, 5.99499762058258056641e-01) (6, -4.22946393489837646484e-01) (7, 6.15651547908782958984e-01) (8, -4.74497258663177490234e-01) (9, -7.77384996414184570312e-01) (10, 1.21585714817047119141e+00) (11, 1.11733627319335937500e+00) (12, 2.66556453704833984375e+00) (13, -1.65866839885711669922e+00) (14, 1.08280695974826812744e-01) (15, 6.64398193359375000000e-01) (16, 3.01206231117248535156e-01) (17, 6.27969026565551757812e-01) (18, 1.08250093460083007812e+00) (19, -6.81625127792358398438e-01) (20, 8.44428896903991699219e-01) (21, -9.55358088016510009766e-01) (22, -1.22296631336212158203e+00) (23, 1.55229866504669189453e-01) (24, 2.59638905525207519531e-01) (25, 1.78806507587432861328e+00) (26, 2.17397952079772949219e+00) (27, -9.71192955970764160156e-01) (28, -1.30126512050628662109e+00) (29, 6.46064341068267822266e-01) (30, -2.95368343591690063477e-01) (31, 6.68837964534759521484e-01) (32, -1.34016382694244384766e+00) (33, -3.32353524863719940186e-02) (34, 3.13088297843933105469e-01) (35, 1.06752216815948486328e+00) (36, 2.58987307548522949219e+00) (37, -2.40285110473632812500e+00) (38, -1.61681294441223144531e+00) (0, 6.50697112083435058594e-01) (1, 2.63398200273513793945e-01) (2, 4.94651585817337036133e-01) (3, 4.42743390798568725586e-01) (4, -8.17999169230461120605e-02) (5, 8.55208098888397216797e-01) (6, -4.00006473064422607422e-01) (7, -7.67061769962310791016e-01) (8, -6.17787949740886688232e-02) (9, -2.87546545267105102539e-01) (10, -3.20058608055114746094e+00) (11, 4.98196095228195190430e-01) (12, 1.42317748069763183594e+00) (13, -5.95885038375854492188e-01) (14, -5.98541438579559326172e-01) (15, -1.61924505233764648438e+00) (16, 2.22531366348266601562e+00) (17, 1.34642028808593750000e+00) (18, 9.30672287940979003906e-01) (19, -4.39637511968612670898e-01) (20, 5.59258520603179931641e-01) (21, 1.58652365207672119141e-01) (22, 1.38147544860839843750e+00) (23, 7.62181162834167480469e-01) (24, 4.95366871356964111328e-01) (25, -4.16044145822525024414e-01) (26, 2.55659008026123046875e+00) (27, -6.93519294261932373047e-01) (28, -1.88901495933532714844e+00) (29, 2.33566850423812866211e-01) (30, 7.43158638477325439453e-01) (31, 1.15924739837646484375e+00) (32, 9.07832205295562744141e-01) (33, -1.69780027866363525391e+00) (34, -1.54386043548583984375e-01) (35, 3.58037084341049194336e-01) (36, 7.84458935260772705078e-01) (37, -5.75129866600036621094e-01) (38, 1.56348323822021484375e+00) (39, -2.03218531608581542969e+00) (0, -1.58969148993492126465e-01) (1, -1.50386229157447814941e-01) (2, -5.40737628936767578125e-01) (3, -7.51774907112121582031e-02) (4, -6.27375423908233642578e-01) (5, 1.02999663352966308594e+00) (6, 5.69120705127716064453e-01) (7, -1.70708432793617248535e-01) (8, 7.55361557006835937500e-01) (9, -8.90915632247924804688e-01) (10, -1.44737112522125244141e+00) (11, 7.49262571334838867188e-01) (12, 1.10127258300781250000e+00) (13, -1.98068320751190185547e+00) (14, -4.30934727191925048828e-01) (15, 1.23067229986190795898e-01) (16, 1.61479377746582031250e+00) (17, 1.81429958343505859375e+00) (18, 9.54216718673706054688e-01) (19, 8.10534238815307617188e-01) (20, 1.34573769569396972656e+00) (21, 8.34165215492248535156e-01) (22, -1.72795486450195312500e+00) (23, 1.08965587615966796875e+00) (24, 2.08981940522789955139e-03) (25, 4.24036234617233276367e-01) (26, 2.24413323402404785156e+00) (27, -3.15685778856277465820e-01) (28, -9.01304185390472412109e-01) (29, -2.06376343965530395508e-01) (30, -7.36720323562622070312e-01) (31, 6.51106715202331542969e-01) (32, -2.36475512385368347168e-01) (33, -6.84038519859313964844e-01) (34, 2.31418800354003906250e+00) (35, -3.00713747739791870117e-01) (36, 1.08246755599975585938e+00) (37, 1.42581593990325927734e+00) (38, 3.75834524631500244141e-01) (39, 2.71426051855087280273e-01) (40, 3.81061851978302001953e-01) (0, 2.64669924974441528320e-01) (1, 1.42617440223693847656e+00) (2, 1.39997959136962890625e-01) (3, 3.41847509145736694336e-01) (4, -2.60756641626358032227e-01) (5, -4.94012832641601562500e-01) (6, 2.47548162937164306641e-01) (7, 1.03316474705934524536e-02) (8, 7.23178207874298095703e-01) (9, -1.28103458881378173828e+00) (10, -1.60084116458892822266e+00) (11, 7.01824069023132324219e-01) (12, 1.86121344566345214844e+00) (13, -4.21462148427963256836e-01) (14, -1.44761335849761962891e+00) (15, -1.14564232528209686279e-01) (16, 3.86994667351245880127e-02) (17, -1.13459134101867675781e+00) (18, 2.38772130012512207031e+00) (19, -5.16638942062854766846e-02) (20, -4.75998446345329284668e-02) (21, -1.69201314449310302734e+00) (22, -1.77664726972579956055e-01) (23, -1.80645275115966796875e+00) (24, 1.23051810264587402344e+00) (25, 1.50996291637420654297e+00) (26, 2.30315780639648437500e+00) (27, -1.62450659275054931641e+00) (28, 3.25413584709167480469e-01) (29, -1.54320463538169860840e-01) (30, 3.77226829528808593750e-01) (31, 1.07264351844787597656e+00) (32, 1.23904347419738769531e+00) (33, -2.09233188629150390625e+00) (34, -4.66236680746078491211e-01) (35, -2.13826894760131835938e-01) (36, -1.79114378988742828369e-02) (37, 1.19597876071929931641e+00) (38, -1.69452071189880371094e+00) (39, 2.51051276922225952148e-01) (40, 1.13886356353759765625e+00) (41, -9.54225957393646240234e-01) (0, -7.73904681205749511719e-01) (1, 6.58591330051422119141e-01) (2, -3.63795101642608642578e-01) (3, 6.86666071414947509766e-01) (4, -1.56809434294700622559e-01) (5, -5.58981716632843017578e-01) (6, -2.82531142234802246094e-01) (7, 5.76045215129852294922e-01) (8, 1.10149586200714111328e+00) (9, -5.38738429546356201172e-01) (10, -2.55191087722778320312e-01) (11, 2.71003156900405883789e-01) (12, 2.80209589004516601562e+00) (13, 2.25738510489463806152e-01) (14, -2.90757441520690917969e+00) (15, 4.43215757608413696289e-01) (16, 7.93269038200378417969e-01) (17, 1.02349758148193359375e+00) (18, -8.96837592124938964844e-01) (19, 8.05429100990295410156e-01) (20, -1.25740087032318115234e+00) (21, -8.10018301010131835938e-01) (22, -2.59290480613708496094e+00) (23, 5.78313052654266357422e-01) (24, 9.32465493679046630859e-01) (25, 2.00479435920715332031e+00) (26, 1.49313271045684814453e+00) (27, -1.50202572345733642578e+00) (28, 1.57890290021896362305e-01) (29, 3.91929715871810913086e-01) (30, 6.11400045454502105713e-03) (31, 1.89990967512130737305e-01) (32, -2.25449234247207641602e-01) (33, -3.09949779510498046875e+00) (34, -2.70416419953107833862e-02) (35, 1.54520702362060546875e+00) (36, 2.57135820388793945312e+00) (37, 3.26020151376724243164e-01) (38, -1.16399335861206054688e+00) (39, -1.23292729258537292480e-01) (40, 1.30607819557189941406e+00) (41, 1.18803298473358154297e+00) (42, 8.16952213644981384277e-02) (0, -1.36980271339416503906e+00) (1, -3.61262619495391845703e-01) (2, 1.04204311966896057129e-01) (3, 4.31521721184253692627e-02) (4, 4.97415661811828613281e-01) (5, 8.04966926574707031250e-01) (6, -4.76500391960144042969e-01) (7, -3.75132471323013305664e-01) (8, 9.87655222415924072266e-01) (9, 2.03430965542793273926e-01) (10, -1.34883868694305419922e+00) (11, 2.34948188066482543945e-01) (12, 9.71217095851898193359e-01) (13, 3.00658136606216430664e-01) (14, -1.07890439033508300781e+00) (15, 6.84165418148040771484e-01) (16, -1.30009555816650390625e+00) (17, -5.25864064693450927734e-01) (18, 3.07514905929565429688e-01) (19, -2.51945018768310546875e+00) (20, 2.88636732101440429688e+00) (21, -1.13341772556304931641e+00) (22, -1.97425723075866699219e+00) (23, 9.96647775173187255859e-01) (24, 6.02247059345245361328e-01) (25, 2.66630828380584716797e-01) (26, 3.62198662757873535156e+00) (27, -3.82679963111877441406e+00) (28, -7.95437872409820556641e-01) (29, 3.39793823659420013428e-02) (30, 2.56908535957336425781e+00) (31, 1.73543918132781982422e+00) (32, 2.10332012176513671875e+00) (33, -6.49964362382888793945e-02) (34, 9.90192368626594543457e-02) (35, -9.39111173152923583984e-01) (36, 1.92857313156127929688e+00) (37, 1.53074729442596435547e+00) (38, -1.08583462238311767578e+00) (39, -2.07522225379943847656e+00) (40, -2.71777719259262084961e-01) (41, 1.02123010158538818359e+00) (42, 5.19039273262023925781e-01) (43, -2.40828323364257812500e+00) (0, 2.89448976516723632812e-01) (1, -3.65606099367141723633e-01) (2, 4.16019884869456291199e-03) (3, 1.59222126007080078125e-01) (4, 9.34304237365722656250e-01) (5, -3.27099740505218505859e-01) (6, 2.65967786312103271484e-01) (7, -1.88471805304288864136e-02) (8, 4.73796874284744262695e-01) (9, -9.72873330116271972656e-01) (10, -2.69560575485229492188e+00) (11, 4.13134455680847167969e-01) (12, 7.60056972503662109375e-01) (13, 2.14691877365112304688e+00) (14, -2.44396962225437164307e-02) (15, -1.27822816371917724609e+00) (16, 1.44787624478340148926e-01) (17, 1.39458513259887695312e+00) (18, 1.03691422939300537109e+00) (19, -4.18039858341217041016e-02) (20, 6.26415193080902099609e-01) (21, 4.11385357379913330078e-01) (22, -1.46099483966827392578e+00) (23, -7.72658884525299072266e-02) (24, -3.36348861455917358398e-01) (25, 1.21430003643035888672e+00) (26, -2.11755380034446716309e-01) (27, 2.47262403368949890137e-01) (28, -4.45322632789611816406e-01) (29, -6.89705759286880493164e-02) (30, -7.54019320011138916016e-01) (31, -4.78363096714019775391e-01) (32, 6.02304756641387939453e-01) (33, 1.17476999759674072266e+00) (34, 1.94914996623992919922e+00) (35, 1.55830717086791992188e+00) (36, 1.26205980777740478516e+00) (37, 1.67407596111297607422e+00) (38, 9.94470566511154174805e-02) (39, -8.13641071319580078125e-01) (40, 7.88798093795776367188e-01) (41, 7.89136886596679687500e-01) (42, 6.50855720043182373047e-01) (43, -1.19157660007476806641e+00) (44, 1.41013813018798828125e+00) (0, 4.88339573144912719727e-01) (1, 7.95196413993835449219e-01) (2, 2.65570849180221557617e-01) (3, 2.02245116233825683594e-01) (4, 9.43807721138000488281e-01) (5, 6.28043711185455322266e-01) (6, -1.05017149448394775391e+00) (7, -3.95753264427185058594e-01) (8, 5.59693217277526855469e-01) (9, -5.68041682243347167969e-01) (10, -2.26386189460754394531e+00) (11, 9.85178589820861816406e-01) (12, -1.38383373618125915527e-01) (13, 2.09291085600852966309e-01) (14, -1.93456089496612548828e+00) (15, -1.48878681659698486328e+00) (16, -1.96561741828918457031e+00) (17, 3.26379680633544921875e+00) (18, 1.80492830276489257812e+00) (19, -1.18940281867980957031e+00) (20, -1.58973097801208496094e+00) (21, -5.05841791629791259766e-01) (22, -1.86018145084381103516e+00) (23, 2.02881836891174316406e+00) (24, 6.16894066333770751953e-01) (25, 4.10377919673919677734e-01) (26, 1.37967717647552490234e+00) (27, -1.82655239105224609375e+00) (28, -3.31598371267318725586e-01) (29, -1.55340898036956787109e+00) (30, 1.90621781349182128906e+00) (31, 8.86603415012359619141e-01) (32, 2.27207946777343750000e+00) (33, 1.03854291141033172607e-01) (34, 5.00490106642246246338e-02) (35, 3.34485679864883422852e-01) (36, -7.66985937952995300293e-02) (37, -3.95598202943801879883e-01) (38, 2.56797015666961669922e-01) (39, -7.22388982772827148438e-01) (40, 7.56704986095428466797e-01) (41, -5.80133378505706787109e-01) (42, 1.00431911647319793701e-01) (43, -2.59734964370727539062e+00) (44, -1.67334139347076416016e-01) (45, 8.17897915840148925781e-02) (0, -3.37059617042541503906e-01) (1, -3.74986678361892700195e-01) (2, 5.04583358764648437500e-01) (3, -3.55934292078018188477e-01) (4, -2.56033420562744140625e-01) (5, 6.02192580699920654297e-01) (6, -5.19588828086853027344e-01) (7, 4.91383522748947143555e-01) (8, 5.98378837108612060547e-01) (9, -2.56342738866806030273e-01) (10, -1.13003075122833251953e+00) (11, 1.61845481395721435547e+00) (12, 1.33588683605194091797e+00) (13, -2.05370903015136718750e+00) (14, -1.97534590959548950195e-01) (15, 1.72603917121887207031e+00) (16, 1.31288135051727294922e+00) (17, -5.70576153695583343506e-02) (18, 2.49513328075408935547e-01) (19, -1.00820684432983398438e+00) (20, 1.63407698273658752441e-01) (21, -3.76827985048294067383e-01) (22, -4.88505184650421142578e-01) (23, 9.49881970882415771484e-01) (24, -2.06619918346405029297e-01) (25, 4.07568007707595825195e-01) (26, -1.89715847373008728027e-01) (27, 8.11300039291381835938e-01) (28, -1.04707050323486328125e+00) (29, 1.24822862446308135986e-01) (30, -1.60602593421936035156e+00) (31, 2.01335358619689941406e+00) (32, 9.47557330131530761719e-01) (33, -8.59979018568992614746e-02) (34, 4.86510753631591796875e-01) (35, 6.89544081687927246094e-01) (36, 1.00739634037017822266e+00) (37, -3.71027886867523193359e-02) (38, -2.79471802059561014175e-04) (39, -8.27403366565704345703e-01) (40, 1.48579561710357666016e+00) (41, -2.11269125342369079590e-01) (42, -4.31393831968307495117e-01) (43, -7.26967811584472656250e-01) (44, -1.08480942249298095703e+00) (45, 6.45326495170593261719e-01) (46, 2.11829766631126403809e-01) (0, -6.57553255558013916016e-01) (1, -3.18777889013290405273e-01) (2, -1.82533860206604003906e-01) (3, 5.90909600257873535156e-01) (4, -5.98613396286964416504e-02) (5, 1.20331752300262451172e+00) (6, 1.22335478663444519043e-01) (7, -1.00077116489410400391e+00) (8, 4.33291137218475341797e-01) (9, 6.71782046556472778320e-02) (10, -9.40242707729339599609e-01) (11, 4.90748211741447448730e-02) (12, 3.34760874509811401367e-01) (13, -6.52962446212768554688e-01) (14, -1.47587493062019348145e-01) (15, -7.88734793663024902344e-01) (16, 9.36375558376312255859e-01) (17, 4.26687598228454589844e-01) (18, 8.51585030555725097656e-01) (19, -5.91960966587066650391e-01) (20, 2.82485508918762207031e+00) (21, 8.15968513488769531250e-02) (22, 3.63917946815490722656e-01) (23, -1.70480644702911376953e+00) (24, 6.93094968795776367188e-01) (25, 2.13575577735900878906e+00) (26, 7.62568652629852294922e-01) (27, -3.72887760400772094727e-01) (28, -1.10317635536193847656e+00) (29, -1.47357571125030517578e+00) (30, 2.84796535968780517578e-01) (31, -1.09408259391784667969e+00) (32, 3.18887680768966674805e-01) (33, 1.60121476650238037109e+00) (34, 1.97830879688262939453e+00) (35, 4.53983068466186523438e-01) (36, 1.67230248451232910156e+00) (37, 2.79892253875732421875e+00) (38, 1.00212097167968750000e+00) (39, -6.79938077926635742188e-01) (40, 1.83351814746856689453e+00) (41, -5.39374530315399169922e-01) (42, -1.71768951416015625000e+00) (43, -1.00223708152770996094e+00) (44, -1.22873973846435546875e+00) (45, 1.32925844192504882812e+00) (46, -2.44926542043685913086e-01) (47, -1.05718874931335449219e+00) (0, 9.87276434898376464844e-01) (1, 1.50414669513702392578e+00) (2, 1.15504610538482666016e+00) (3, 5.33400416374206542969e-01) (4, -6.85214102268218994141e-01) (5, -6.38516306877136230469e-01) (6, 1.36713922023773193359e-01) (7, 1.97790727019309997559e-01) (8, -2.78923898935317993164e-01) (9, -1.16917538642883300781e+00) (10, -1.85618162155151367188e+00) (11, 1.01438975334167480469e+00) (12, 1.57096147537231445312e+00) (13, -1.12615779042243957520e-01) (14, -1.28670656681060791016e+00) (15, -3.62228542566299438477e-01) (16, 7.09259212017059326172e-01) (17, 2.31975603103637695312e+00) (18, -2.85520292818546295166e-02) (19, 1.09505176544189453125e+00) (20, 7.33962059020996093750e-01) (21, -5.30659496784210205078e-01) (22, -8.62005054950714111328e-01) (23, 3.99660289287567138672e-01) (24, -1.89776718616485595703e+00) (25, 4.80773657560348510742e-01) (26, -2.45510339736938476562e-01) (27, -5.40271043777465820312e-01) (28, 1.41655540466308593750e+00) (29, 3.42960268259048461914e-01) (30, 6.86544895172119140625e-01) (31, -1.17082834243774414062e+00) (32, 1.22828841209411621094e+00) (33, -9.19217884540557861328e-01) (34, 2.33906126022338867188e+00) (35, 5.23074102401733398438e+00) (36, 1.34625411033630371094e+00) (37, 1.03953850269317626953e+00) (38, -1.68576145172119140625e+00) (39, -2.27714371681213378906e+00) (40, 1.27844738960266113281e+00) (41, 1.31207835674285888672e+00) (42, 1.30747020244598388672e+00) (43, 1.10498622059822082520e-01) (44, 6.19872391223907470703e-01) (45, -2.28749346733093261719e+00) (46, -1.16227877140045166016e+00) (47, -3.82214331626892089844e+00) (48, 6.89338326454162597656e-01) (0, 2.09437143057584762573e-02) (1, -3.96160483360290527344e-02) (2, 1.21876560151576995850e-01) (3, 5.62462210655212402344e-02) (4, 2.90255844593048095703e-01) (5, -2.22764182835817337036e-02) (6, -2.59544372558593750000e-01) (7, 8.05447772145271301270e-02) (8, -1.13234378397464752197e-01) (9, -6.09353035688400268555e-02) (10, -8.14228132367134094238e-02) (11, 4.59766119718551635742e-01) (12, -1.18025407195091247559e-01) (13, -3.38834375143051147461e-02) (14, 1.72384098172187805176e-01) (15, 6.49197176098823547363e-02) (16, -2.15351566672325134277e-01) (17, 2.22544535994529724121e-01) (18, 2.24775195121765136719e-01) (19, -3.31460200250148773193e-02) (20, -3.49291622638702392578e-01) (21, 1.99774637818336486816e-01) (22, 1.48969173431396484375e-01) (23, 3.71606260538101196289e-01) (24, -1.84798032045364379883e-01) (25, 2.95832790434360504150e-02) (26, -1.36481195688247680664e-01) (27, 1.52204915881156921387e-01) (28, -2.65767037868499755859e-01) (29, 2.41960093379020690918e-01) (30, -4.23724085092544555664e-01) (31, -1.90294399857521057129e-01) (32, 2.15387329459190368652e-01) (33, 5.61373054981231689453e-01) (34, -6.33861199021339416504e-02) (35, 3.14529627561569213867e-01) (36, 3.58181476593017578125e-01) (37, -1.92639783024787902832e-01) (38, 4.36224378645420074463e-02) (39, -2.41197958588600158691e-01) (40, 1.87504082918167114258e-01) (41, 2.35759183764457702637e-01) (42, 1.76891982555389404297e-02) (43, -1.46083548665046691895e-01) (44, 4.27713207900524139404e-02) (45, -2.85829186439514160156e-01) (46, 1.08092457056045532227e-01) (47, -3.87385159730911254883e-01) (48, 1.85044988989830017090e-01) (49, -3.18836659193038940430e-01) (0, 8.67422580718994140625e-01) (1, 2.05828189849853515625e+00) (2, -4.16315466165542602539e-01) (3, 3.54872792959213256836e-01) (4, -2.03288888931274414062e+00) (5, 9.73874151706695556641e-01) (6, -2.00093284249305725098e-01) (7, 1.06667220592498779297e+00) (8, 5.45413792133331298828e-01) (9, -3.18270832300186157227e-01) (10, -9.37530398368835449219e-01) (11, 3.32065987586975097656e+00) (12, 6.75701808929443359375e+00) (13, -2.24140143394470214844e+00) (14, -2.37932014465332031250e+00) (15, 2.67326331138610839844e+00) (16, 5.60425162315368652344e-01) (17, 3.44605994224548339844e+00) (18, 2.04124784469604492188e+00) (19, -4.14583325386047363281e-01) (20, 3.85509467124938964844e+00) (21, -3.11010122299194335938e+00) (22, -1.22409868240356445312e+00) (23, -3.44983887672424316406e+00) (24, 4.72158432006835937500e-01) (25, -2.94814991950988769531e+00) (26, -2.46161174774169921875e+00) (27, -1.78318583965301513672e+00) (28, -3.04975271224975585938e+00) (29, -1.42159569263458251953e+00) (30, 3.55810594558715820312e+00) (31, -1.36257982254028320312e+00) (32, -3.69503474235534667969e+00) (33, -1.11224138736724853516e+00) (34, -1.37269163131713867188e+00) (35, -3.73681426048278808594e+00) (36, -8.13347280025482177734e-01) (37, -1.95165646076202392578e+00) (38, 2.24794459342956542969e+00) (39, 1.16853425279259681702e-02) (40, 1.30113923549652099609e+00) (41, -1.59847164154052734375e+00) (42, -1.37686967849731445312e+00) (43, 1.00696253776550292969e+00) (44, 1.99518406391143798828e+00) (45, 4.54974746704101562500e+00) (46, -1.58541297912597656250e+00) (47, -3.97084690630435943604e-02) (48, -1.04737639427185058594e+00) (49, 4.46606278419494628906e-01) (0, -1.39268374443054199219e+00) (1, 3.69357019662857055664e-01) (2, 5.73405086994171142578e-01) (3, 1.48588225245475769043e-01) (4, -5.42410135269165039062e-01) (5, -3.38063180446624755859e-01) (6, 7.71535158157348632812e-01) (7, 6.48846507072448730469e-01) (8, 6.96297764778137207031e-01) (9, -3.66018712520599365234e-01) (10, 5.41958141326904296875e+00) (11, -1.59694564342498779297e+00) (12, 2.15785074234008789062e+00) (13, -2.85280275344848632812e+00) (14, -2.99040508270263671875e+00) (15, -5.83604812622070312500e-01) (16, -2.77369999885559082031e+00) (17, -8.27762722969055175781e-01) (18, -8.67107272148132324219e-01) (19, -1.33678328990936279297e+00) (20, 2.04115962982177734375e+00) (21, 3.64365249872207641602e-01) (22, -1.91282331943511962891e+00) (23, 2.02487707138061523438e+00) (24, 1.75504386425018310547e-01) (25, 9.84082996845245361328e-01) (26, 1.81166398525238037109e+00) (27, 1.41261422634124755859e+00) (28, -1.19706404209136962891e+00) (29, -3.16180729866027832031e+00) (30, 1.25552749633789062500e+00) (31, -1.28200083971023559570e-01) (32, -1.88482448458671569824e-01) (33, -3.58524870872497558594e+00) (34, 7.10231721401214599609e-01) (35, 3.34709286689758300781e-01) (36, -7.33986794948577880859e-01) (37, -1.65433436632156372070e-01) (38, 1.19395619258284568787e-02) (39, -3.34035336971282958984e-01) (40, -4.46891993284225463867e-01) (41, -3.77997338771820068359e-01) (42, -7.66687810420989990234e-01) (43, -4.60556888580322265625e+00) (44, -2.17612600326538085938e+00) (45, -8.48599910736083984375e-01) (46, 1.71573758125305175781e+00) (47, 2.31030726432800292969e+00) (48, 1.28831982612609863281e+00) (49, 1.56309092044830322266e+00) (0, 7.08165526390075683594e-01) (1, 2.90647208690643310547e-01) (2, -1.29871428012847900391e+00) (3, 3.25871020555496215820e-01) (4, -1.10455572605133056641e+00) (5, -8.08028578758239746094e-01) (6, 1.47796049714088439941e-01) (7, -7.64385819435119628906e-01) (8, 1.23674583435058593750e+00) (9, -8.30631554126739501953e-01) (10, 1.99905548095703125000e+01) (11, -1.45361912250518798828e+00) (12, 3.93111300468444824219e+00) (13, -5.79102158546447753906e-01) (14, 2.52190768718719482422e-01) (15, -2.59666979312896728516e-01) (16, -1.77327859401702880859e+00) (17, -1.05558407306671142578e+00) (18, -1.94992232322692871094e+00) (19, 1.92685401439666748047e+00) (20, -2.42048168182373046875e+00) (21, -1.87680149078369140625e+00) (22, 2.32599759101867675781e+00) (23, -2.70984745025634765625e+00) (24, 1.94947350025177001953e+00) (25, 3.44574987888336181641e-01) (26, 2.90345519781112670898e-01) (27, 3.56718230247497558594e+00) (28, 1.36889338493347167969e+00) (29, -1.25805616378784179688e+00) (30, 3.01205486059188842773e-01) (31, 1.56420445442199707031e+00) (32, -1.01757407188415527344e+00) (33, -2.09919548034667968750e+00) (34, 2.21066927909851074219e+00) (35, -2.39960837364196777344e+00) (36, -2.35249853134155273438e+00) (37, 3.22815656661987304688e-01) (38, -1.56727492809295654297e-01) (39, 1.13313242793083190918e-01) (40, 1.47924572229385375977e-01) (41, -1.03085482120513916016e+00) (42, -1.87054038047790527344e+00) (43, 3.24445939064025878906e+00) (44, 1.85247755050659179688e+00) (45, -5.75411498546600341797e-01) (46, 1.69839644432067871094e+00) (47, 5.63966274261474609375e-01) (48, -6.31969571113586425781e-01) (49, -3.90092402696609497070e-01) (0, 1.95811748504638671875e-01) (1, 1.42617428302764892578e+00) (2, -3.25501710176467895508e-01) (3, 2.17729762196540832520e-01) (4, 4.40586358308792114258e-01) (5, -7.36308842897415161133e-02) (6, 1.43942105770111083984e+00) (7, 6.87608361244201660156e-01) (8, -4.17449623346328735352e-01) (9, -3.73437762260437011719e-01) (10, -4.99290734529495239258e-01) (11, -2.45509600639343261719e+00) (12, 3.36448371410369873047e-01) (13, -1.30862757563591003418e-01) (14, -1.98422193527221679688e+00) (15, 6.15407884120941162109e-01) (16, -2.36419677734375000000e+00) (17, 5.92089354991912841797e-01) (18, -1.09529101848602294922e+00) (19, 1.66688382625579833984e+00) (20, 3.53953409194946289062e+00) (21, -1.83528864383697509766e+00) (22, -2.38305902481079101562e+00) (23, -9.82969880104064941406e-01) (24, -3.17723490297794342041e-03) (25, -1.63879585266113281250e+00) (26, 4.73464816808700561523e-01) (27, -3.84298014640808105469e+00) (28, 3.85445147752761840820e-01) (29, -1.34576213359832763672e+00) (30, -6.69223427772521972656e-01) (31, 5.54413020610809326172e-01) (32, -3.04363638162612915039e-01) (33, -4.99642521142959594727e-01) (34, 7.93161928653717041016e-01) (35, -1.75349628925323486328e+00) (36, 8.90825688838958740234e-01) (37, -5.88099658489227294922e-01) (38, 3.13113451004028320312e-01) (39, 7.07432985305786132812e-01) (40, 7.87034153938293457031e-01) (41, -1.86290657520294189453e+00) (42, -1.81134474277496337891e+00) (43, 3.69166731834411621094e-01) (44, -8.08616638183593750000e-01) (45, -1.34475457668304443359e+00) (46, -2.01461195945739746094e+00) (47, 2.69921946525573730469e+00) (48, 1.49856579303741455078e+00) (49, 1.73475897312164306641e+00) (0, -1.68127506971359252930e-01) (1, -1.32466340065002441406e+00) (2, 4.85423654317855834961e-02) (3, -8.78782719373703002930e-02) (4, 1.19848579168319702148e-01) (5, 1.13542068004608154297e+00) (6, -3.66561561822891235352e-01) (7, -2.70226806402206420898e-01) (8, 4.88645613193511962891e-01) (9, -5.61904251575469970703e-01) (10, 7.84901285171508789062e+00) (11, 2.40172004699707031250e+00) (12, 1.03831842541694641113e-01) (13, -5.77546119689941406250e-01) (14, -1.06986872851848602295e-01) (15, 3.54953145980834960938e+00) (16, 3.75047159194946289062e+00) (17, 1.95171073079109191895e-01) (18, 1.75018179416656494141e+00) (19, -5.23062288761138916016e-01) (20, 2.54083919525146484375e+00) (21, 4.26012128591537475586e-01) (22, -1.67492210865020751953e+00) (23, 2.43639349937438964844e+00) (24, -1.25150775909423828125e+00) (25, 1.87256073951721191406e+00) (26, 1.19758474826812744141e+00) (27, -1.04928135871887207031e-01) (28, -2.28122282028198242188e+00) (29, 1.53100645542144775391e+00) (30, -7.18149125576019287109e-01) (31, 1.78082180023193359375e+00) (32, 7.15194582939147949219e-01) (33, -8.11056613922119140625e-01) (34, 4.74103641510009765625e+00) (35, 8.20827603340148925781e-01) (36, 1.27944397926330566406e+00) (37, 4.52551096677780151367e-01) (38, -1.17190611362457275391e+00) (39, -7.16399610042572021484e-01) (40, 1.47707235813140869141e+00) (41, -9.59458649158477783203e-01) (42, 8.17476272583007812500e-01) (43, -5.35708308219909667969e-01) (44, -1.91991007328033447266e+00) (45, 8.54974806308746337891e-01) (46, -2.32927367091178894043e-01) (47, -3.35997104644775390625e+00) (48, -6.89545869827270507812e-01) (49, -2.38913822174072265625e+00) (0, 1.84241938591003417969e+00) (1, 1.70444428920745849609e+00) (2, -1.86910026241093873978e-03) (3, 1.12586092948913574219e+00) (4, -1.18487942218780517578e+00) (5, 1.09647668898105621338e-01) (6, 3.89640420675277709961e-01) (7, -1.33877038955688476562e+00) (8, 2.06807780265808105469e+00) (9, -6.29756689071655273438e-01) (10, -1.52399110794067382812e+00) (11, -5.15759110450744628906e-01) (12, -6.61465406417846679688e-01) (13, 4.94482100009918212891e-01) (14, -7.23514378070831298828e-01) (15, -1.01481497287750244141e+00) (16, -1.71285822987556457520e-01) (17, -2.89759516716003417969e+00) (18, 4.91862010955810546875e+00) (19, 2.69249105453491210938e+00) (20, -2.40012812614440917969e+00) (21, -1.70287561416625976562e+00) (22, 1.00774168968200683594e+00) (23, -5.76339292526245117188e+00) (24, 4.91847753524780273438e+00) (25, -1.37260258197784423828e+00) (26, 8.97740542888641357422e-01) (27, -1.85308396816253662109e+00) (28, 2.15517449378967285156e+00) (29, -1.04257464408874511719e+00) (30, 3.11221408843994140625e+00) (31, -1.14378881454467773438e+00) (32, 3.92283010482788085938e+00) (33, 1.79563510417938232422e+00) (34, 1.16546165943145751953e+00) (35, -7.96708881855010986328e-01) (36, -2.58403873443603515625e+00) (37, 2.75449705123901367188e+00) (38, -2.46684956550598144531e+00) (39, 3.23777484893798828125e+00) (40, 2.09524512290954589844e+00) (41, -1.07246661186218261719e+00) (42, -3.96201348304748535156e+00) (43, -1.48165717720985412598e-01) (44, -1.77179729938507080078e+00) (45, 1.65416383743286132812e+00) (46, 1.25867486000061035156e+00) (47, -1.22924923896789550781e+00) (48, -2.45569849014282226562e+00) (49, 6.28992080688476562500e-01) (0, 7.32656061649322509766e-01) (1, -2.01770710945129394531e+00) (2, -3.17808985710144042969e-01) (3, 4.74603325128555297852e-01) (4, 1.37679541110992431641e+00) (5, -3.36507767438888549805e-01) (6, -1.24809004366397857666e-01) (7, 5.10052263736724853516e-01) (8, -4.21735107898712158203e-01) (9, -2.08210632205009460449e-01) (10, 9.16441822052001953125e+00) (11, -1.58830463886260986328e+00) (12, 1.31437623500823974609e+00) (13, 1.27913802862167358398e-01) (14, -3.25840473175048828125e-01) (15, -3.68504858016967773438e+00) (16, -2.87839555740356445312e+00) (17, -2.22392702102661132812e+00) (18, -2.80495738983154296875e+00) (19, -1.14381179213523864746e-01) (20, 9.65382993221282958984e-01) (21, 2.14574742317199707031e+00) (22, 1.22413873672485351562e+00) (23, 3.09115028381347656250e+00) (24, -9.60277736186981201172e-01) (25, 5.47992467880249023438e-01) (26, 2.44973853230476379395e-01) (27, 3.72149944305419921875e-02) (28, 1.37599873542785644531e+00) (29, 2.58038520812988281250e+00) (30, -3.02270472049713134766e-01) (31, 7.12288022041320800781e-01) (32, 1.16597938537597656250e+00) (33, 2.32923090457916259766e-01) (34, 6.03045701980590820312e-01) (35, -3.74721050262451171875e+00) (36, 8.56506824493408203125e-01) (37, -9.21103596687316894531e-01) (38, -4.90467064082622528076e-02) (39, 3.47709846496582031250e+00) (40, -2.92564845085144042969e+00) (41, -1.68612837791442871094e+00) (42, 1.34547680616378784180e-01) (43, 1.79646027088165283203e+00) (44, -3.27868372201919555664e-01) (45, -2.67881608009338378906e+00) (46, -3.16762149333953857422e-01) (47, 1.41643607616424560547e+00) (48, -8.37736129760742187500e-01) (49, 2.19002819061279296875e+00) (0, -1.56406986713409423828e+00) (1, 