FANN_FLO_2.1
num_layers=4
learning_rate=0.700000
connection_rate=1.000000
network_type=1
learning_momentum=0.000000
training_algorithm=2
train_error_function=0
train_stop_function=0
cascade_output_change_fraction=0.010000
quickprop_decay=-0.000100
quickprop_mu=1.750000
rprop_increase_factor=1.200000
rprop_decrease_factor=0.500000
rprop_delta_min=0.000000
rprop_delta_max=50.000000
rprop_delta_zero=0.100000
cascade_output_stagnation_epochs=12
cascade_candidate_change_fraction=0.010000
cascade_candidate_stagnation_epochs=12
cascade_max_out_epochs=150
cascade_max_cand_epochs=150
cascade_num_candidate_groups=8
bit_fail_limit=8.99999976158142089844e-01
cascade_candidate_limit=1.00000000000000000000e+03
cascade_weight_multiplier=4.00000005960464477539e-01
cascade_activation_functions_count=1
cascade_activation_functions=5 
cascade_activation_steepnesses_count=1
cascade_activation_steepnesses=1.00000000000000000000e+00 
layer_sizes=11 1 1 156 
scale_included=0
neurons (num_inputs, activation_function, activation_steepness)=(0, 0, 0.00000000000000000000e+00) (0, 0, 0.00000000000000000000e+00) (0, 0, 0.00000000000000000000e+00) (0, 0, 0.00000000000000000000e+00) (0, 0, 0.00000000000000000000e+00) (0, 0, 0.00000000000000000000e+00) (0, 0, 0.00000000000000000000e+00) (0, 0, 0.00000000000000000000e+00) (0, 0, 0.00000000000000000000e+00) (0, 0, 0.00000000000000000000e+00) (0, 0, 0.00000000000000000000e+00) (11, 5, 1.00000000000000000000e+00) (12, 5, 1.00000000000000000000e+00) (13, 0, 5.00000000000000000000e-01) (13, 0, 5.00000000000000000000e-01) (13, 0, 5.00000000000000000000e-01) (13, 0, 5.00000000000000000000e-01) (13, 0, 5.00000000000000000000e-01) (13, 0, 5.00000000000000000000e-01) (13, 0, 5.00000000000000000000e-01) (13, 0, 5.00000000000000000000e-01) (13, 0, 5.00000000000000000000e-01) (13, 0, 5.00000000000000000000e-01) (13, 0, 5.00000000000000000000e-01) (13, 0, 5.00000000000000000000e-01) (13, 0, 5.00000000000000000000e-01) (13, 0, 5.00000000000000000000e-01) (13, 0, 5.00000000000000000000e-01) (13, 0, 5.00000000000000000000e-01) (13, 0, 5.00000000000000000000e-01) (13, 0, 5.00000000000000000000e-01) (13, 0, 5.00000000000000000000e-01) (13, 0, 5.00000000000000000000e-01) (13, 0, 5.00000000000000000000e-01) (13, 0, 5.00000000000000000000e-01) (13, 0, 5.00000000000000000000e-01) (13, 0, 5.00000000000000000000e-01) (13, 0, 5.00000000000000000000e-01) (13, 0, 5.00000000000000000000e-01) (13, 0, 5.00000000000000000000e-01) (13, 0, 5.00000000000000000000e-01) (13, 0, 5.00000000000000000000e-01) (13, 0, 5.00000000000000000000e-01) (13, 0, 5.00000000000000000000e-01) (13, 0, 5.00000000000000000000e-01) (13, 0, 5.00000000000000000000e-01) (13, 0, 5.00000000000000000000e-01) (13, 0, 5.00000000000000000000e-01) (13, 0, 5.00000000000000000000e-01) (13, 0, 5.00000000000000000000e-01) (13, 0, 5.00000000000000000000e-01) (13, 0, 5.00000000000000000000e-01) (13, 0, 5.00000000000000000000e-01) (13, 0, 5.00000000000000000000e-01) (13, 0, 5.00000000000000000000e-01) (13, 0, 5.00000000000000000000e-01) (13, 0, 5.00000000000000000000e-01) (13, 0, 5.00000000000000000000e-01) (13, 0, 5.00000000000000000000e-01) (13, 0, 5.00000000000000000000e-01) (13, 0, 5.00000000000000000000e-01) (13, 0, 5.00000000000000000000e-01) (13, 0, 5.00000000000000000000e-01) (13, 0, 5.00000000000000000000e-01) (13, 0, 5.00000000000000000000e-01) (13, 0, 5.00000000000000000000e-01) (13, 0, 5.00000000000000000000e-01) (13, 0, 5.00000000000000000000e-01) (13, 0, 5.00000000000000000000e-01) (13, 0, 5.00000000000000000000e-01) (13, 0, 5.00000000000000000000e-01) (13, 0, 5.00000000000000000000e-01) (13, 0, 5.00000000000000000000e-01) (13, 0, 5.00000000000000000000e-01) (13, 0, 5.00000000000000000000e-01) (13, 0, 5.00000000000000000000e-01) (13, 0, 5.00000000000000000000e-01) (13, 0, 5.00000000000000000000e-01) (13, 0, 5.00000000000000000000e-01) (13, 0, 5.00000000000000000000e-01) (13, 0, 5.00000000000000000000e-01) (13, 0, 5.00000000000000000000e-01) (13, 0, 5.00000000000000000000e-01) (13, 0, 5.00000000000000000000e-01) (13, 0, 5.00000000000000000000e-01) (13, 0, 5.00000000000000000000e-01) (13, 0, 5.00000000000000000000e-01) (13, 0, 5.00000000000000000000e-01) (13, 0, 5.00000000000000000000e-01) (13, 0, 5.00000000000000000000e-01) (13, 0, 5.00000000000000000000e-01) (13, 0, 5.00000000000000000000e-01) (13, 0, 5.00000000000000000000e-01) (13, 0, 5.00000000000000000000e-01) (13, 0, 5.00000000000000000000e-01) (13, 0, 5.00000000000000000000e-01) (13, 0, 5.00000000000000000000e-01) (13, 0, 5.00000000000000000000e-01) (13, 0, 5.00000000000000000000e-01) (13, 0, 5.00000000000000000000e-01) (13, 0, 5.00000000000000000000e-01) (13, 0, 5.00000000000000000000e-01) (13, 0, 5.00000000000000000000e-01) (13, 0, 5.00000000000000000000e-01) (13, 0, 5.00000000000000000000e-01) (13, 0, 5.00000000000000000000e-01) (13, 0, 5.00000000000000000000e-01) (13, 0, 5.00000000000000000000e-01) (13, 0, 5.00000000000000000000e-01) (13, 0, 5.00000000000000000000e-01) (13, 0, 5.00000000000000000000e-01) (13, 0, 5.00000000000000000000e-01) (13, 0, 5.00000000000000000000e-01) (13, 0, 5.00000000000000000000e-01) (13, 0, 5.00000000000000000000e-01) (13, 0, 5.00000000000000000000e-01) (13, 0, 5.00000000000000000000e-01) (13, 0, 5.00000000000000000000e-01) (13, 0, 5.00000000000000000000e-01) (13, 0, 5.00000000000000000000e-01) (13, 0, 5.00000000000000000000e-01) (13, 0, 5.00000000000000000000e-01) (13, 0, 5.00000000000000000000e-01) (13, 0, 5.00000000000000000000e-01) (13, 0, 5.00000000000000000000e-01) (13, 0, 5.00000000000000000000e-01) (13, 0, 5.00000000000000000000e-01) (13, 0, 5.00000000000000000000e-01) (13, 0, 5.00000000000000000000e-01) (13, 0, 5.00000000000000000000e-01) (13, 0, 5.00000000000000000000e-01) (13, 0, 5.00000000000000000000e-01) (13, 0, 5.00000000000000000000e-01) (13, 0, 5.00000000000000000000e-01) (13, 0, 5.00000000000000000000e-01) (13, 0, 5.00000000000000000000e-01) (13, 0, 5.00000000000000000000e-01) (13, 0, 5.00000000000000000000e-01) (13, 0, 5.00000000000000000000e-01) (13, 0, 5.00000000000000000000e-01) (13, 0, 5.00000000000000000000e-01) (13, 0, 5.00000000000000000000e-01) (13, 0, 5.00000000000000000000e-01) (13, 0, 5.00000000000000000000e-01) (13, 0, 5.00000000000000000000e-01) (13, 0, 5.00000000000000000000e-01) (13, 0, 5.00000000000000000000e-01) (13, 0, 5.00000000000000000000e-01) (13, 0, 5.00000000000000000000e-01) (13, 0, 5.00000000000000000000e-01) (13, 0, 5.00000000000000000000e-01) (13, 0, 5.00000000000000000000e-01) (13, 0, 5.00000000000000000000e-01) (13, 0, 5.00000000000000000000e-01) (13, 0, 5.00000000000000000000e-01) (13, 0, 5.00000000000000000000e-01) (13, 0, 5.00000000000000000000e-01) (13, 0, 5.00000000000000000000e-01) (13, 0, 5.00000000000000000000e-01) (13, 0, 5.00000000000000000000e-01) (13, 0, 5.00000000000000000000e-01) (13, 0, 5.00000000000000000000e-01) (13, 0, 5.00000000000000000000e-01) (13, 0, 5.00000000000000000000e-01) (13, 0, 5.00000000000000000000e-01) (13, 0, 5.00000000000000000000e-01) (13, 0, 5.00000000000000000000e-01) (13, 0, 5.00000000000000000000e-01) (13, 0, 5.00000000000000000000e-01) 
connections (connected_to_neuron, weight)=(0, -9.84074696898460388184e-02) (1, -5.89242838323116302490e-02) (2, -6.17704838514328002930e-02) (3, -6.84704706072807312012e-02) (4, -6.37453943490982055664e-02) (5, -6.45430609583854675293e-02) (6, -4.79074306786060333252e-02) (7, -4.96306866407394409180e-02) (8, -6.66739642620086669922e-02) (9, -6.44772425293922424316e-02) (10, 2.69227838516235351562e+00) (0, 9.62305486202239990234e-01) (1, 3.22957299649715423584e-02) (2, -2.05753922462463378906e-01) (3, -6.39714360237121582031e-01) (4, 2.97433108091354370117e-01) (5, 7.24275112152099609375e-01) (6, -7.54890665411949157715e-02) (7, -6.58598899841308593750e-01) (8, -1.33322924375534057617e-01) (9, 2.12041102349758148193e-02) (10, -3.77983272075653076172e-01) (11, 9.76559400558471679688e-01) (0, -1.42375200986862182617e-01) (1, -9.13985893130302429199e-02) (2, -1.06564901769161224365e-01) (3, -9.41988229751586914062e-02) (4, -9.57056581974029541016e-02) (5, -1.09592750668525695801e-01) (6, -7.02412277460098266602e-02) (7, -6.82345330715179443359e-02) (8, -1.05419062077999114990e-01) (9, -9.59576517343521118164e-02) (10, 5.23603105545043945312e+00) (11, -1.86468505859375000000e+00) (12, 4.32166904211044311523e-02) (0, 3.87761503458023071289e-01) (1, 2.00878739356994628906e-01) (2, 2.21114516258239746094e-01) (3, 2.78138756752014160156e-01) (4, 2.58188277482986450195e-01) (5, 2.62683838605880737305e-01) (6, 2.09589183330535888672e-01) (7, 1.78936868906021118164e-01) (8, 2.84017413854598999023e-01) (9, 2.29028895497322082520e-01) (10, -2.40913939476013183594e+00) (11, 4.90236616134643554688e+00) (12, 2.75647193193435668945e-02) (0, -6.15142434835433959961e-02) (1, 3.26164998114109039307e-03) (2, 3.72604914009571075439e-02) (3, 1.78445931524038314819e-02) (4, 2.54389178007841110229e-02) (5, -2.41169612854719161987e-02) (6, 2.49327328056097030640e-02) (7, -2.31128614395856857300e-02) (8, 1.62148550152778625488e-02) (9, 9.41227283328771591187e-03) (10, 8.76359081268310546875e+00) (11, 1.73884063959121704102e-01) (12, 1.72627627849578857422e-01) (0, 3.61779838800430297852e-01) (1, 1.55262082815170288086e-01) (2, 1.80734381079673767090e-01) (3, 2.26502582430839538574e-01) (4, 2.07033559679985046387e-01) (5, 1.83130621910095214844e-01) (6, 1.42772242426872253418e-01) (7, 1.48044645786285400391e-01) (8, 2.30520769953727722168e-01) (9, 1.86629250645637512207e-01) (10, 7.41167843341827392578e-01) (11, 3.73734903335571289062e+00) (12, -4.17820662260055541992e-02) (0, -1.41723871231079101562e-01) (1, -2.78225131332874298096e-02) (2, -4.42192256450653076172e-02) (3, -8.32149237394332885742e-02) (4, -6.36455044150352478027e-02) (5, -2.40810438990592956543e-02) (6, -3.36742363870143890381e-02) (7, -4.87862639129161834717e-02) (8, -8.01110565662384033203e-02) (9, -1.08401611447334289551e-01) (10, 1.16032638549804687500e+01) (11, -9.75332796573638916016e-01) (12, 1.32459308952093124390e-02) (0, 1.88099771738052368164e-01) (1, 1.37266427278518676758e-01) (2, 1.12548202276229858398e-01) (3, 1.24164775013923645020e-01) (4, 1.29952296614646911621e-01) (5, 1.33306875824928283691e-01) (6, 6.52633085846900939941e-02) (7, 2.57536079734563827515e-02) (8, 1.05821840465068817139e-01) (9, 9.10243093967437744141e-02) (10, 4.37237262725830078125e+00) (11, 1.98359441757202148438e+00) (12, -2.13566750288009643555e-01) (0, 3.02263706922531127930e-01) (1, 2.32083216309547424316e-01) (2, 2.17071071267127990723e-01) (3, 2.40949109196662902832e-01) (4, 2.43956431746482849121e-01) (5, 2.41149246692657470703e-01) (6, 1.97062984108924865723e-01) (7, 1.91735580563545227051e-01) (8, 2.58338451385498046875e-01) (9, 2.33861744403839111328e-01) (10, -1.12938141822814941406e+00) (11, 4.56337118148803710938e+00) (12, -4.75480630993843078613e-02) (0, 4.69073683023452758789e-01) (1, 3.45486193895339965820e-01) (2, 3.82957816123962402344e-01) (3, 4.60831075906753540039e-01) (4, 3.89105439186096191406e-01) (5, 3.60765129327774047852e-01) (6, 2.57226079702377319336e-01) (7, 3.22885990142822265625e-01) (8, 4.19962853193283081055e-01) (9, 4.17703986167907714844e-01) (10, -7.30145311355590820312e+00) (11, 7.31210041046142578125e+00) (12, 2.03784540295600891113e-01) (0, 4.65806603431701660156e-01) (1, 2.10032269358634948730e-01) (2, 2.72266387939453125000e-01) (3, 2.84789532423019409180e-01) (4, 2.35525429248809814453e-01) (5, 2.70464450120925903320e-01) (6, 1.53148084878921508789e-01) (7, 2.29070529341697692871e-01) (8, 2.47233808040618896484e-01) (9, 2.25702822208404541016e-01) (10, -1.47713208198547363281e+00) (11, 4.84227132797241210938e+00) (12, 6.87290430068969726562e-02) (0, 3.57970818877220153809e-02) (1, 2.05834340304136276245e-02) (2, 7.91566595435142517090e-02) (3, 3.25395017862319946289e-02) (4, 5.87417297065258026123e-02) (5, 6.59447684884071350098e-02) (6, 1.27528328448534011841e-02) (7, 2.45653074234724044800e-02) (8, 7.44500830769538879395e-02) (9, 3.81979532539844512939e-02) (10, 6.97013998031616210938e+00) (11, 1.03832173347473144531e+00) (12, 6.96635767817497253418e-02) (0, 2.81713634729385375977e-01) (1, 2.00864329934120178223e-01) (2, 2.45838835835456848145e-01) (3, 2.28644445538520812988e-01) (4, 2.39790752530097961426e-01) (5, 2.02262386679649353027e-01) (6, 1.70596659183502197266e-01) (7, 1.87378957867622375488e-01) (8, 2.40437909960746765137e-01) (9, 2.48215109109878540039e-01) (10, -5.92030823230743408203e-01) (11, 4.15775203704833984375e+00) (12, 6.19142688810825347900e-02) (0, 5.38674890995025634766e-02) (1, 2.28087007999420166016e-02) (2, 2.82997526228427886963e-02) (3, 1.65284555405378341675e-02) (4, 7.79089406132698059082e-02) (5, 5.23341633379459381104e-02) (6, 2.81446892768144607544e-02) (7, -3.43768261373043060303e-02) (8, 8.16927477717399597168e-02) (9, 2.05651111900806427002e-02) (10, 7.49552106857299804688e+00) (11, 5.89190542697906494141e-01) (12, -1.53607144951820373535e-01) (0, 1.15171507000923156738e-01) (1, 1.26394316554069519043e-01) (2, 1.81225359439849853516e-01) (3, 1.82352960109710693359e-01) (4, 1.48703709244728088379e-01) (5, 1.40322878956794738770e-01) (6, 1.13412439823150634766e-01) (7, 1.77169263362884521484e-01) (8, 1.72465145587921142578e-01) (9, 1.65420487523078918457e-01) (10, 2.33276104927062988281e+00) (11, 2.98766779899597167969e+00) (12, 2.01564475893974304199e-01) (0, -1.98783092200756072998e-02) (1, -1.86041519045829772949e-02) (2, 2.16938182711601257324e-02) (3, 4.91592148318886756897e-03) (4, 2.51114694401621818542e-03) (5, -2.70890370011329650879e-02) (6, 1.33682205341756343842e-03) (7, 3.17907482385635375977e-02) (8, -2.06082910299301147461e-02) (9, -3.60473170876502990723e-02) (10, 9.31108570098876953125e+00) (11, 7.12801292538642883301e-02) (12, 7.09219053387641906738e-02) (0, 4.86178725957870483398e-01) (1, 2.28428766131401062012e-01) (2, 2.05879390239715576172e-01) (3, 2.24988088011741638184e-01) (4, 2.54857063293457031250e-01) (5, 2.78716027736663818359e-01) (6, 1.18954770267009735107e-01) (7, 1.61994725465774536133e-01) (8, 2.46008157730102539062e-01) (9, 2.54611551761627197266e-01) (10, -1.20084249973297119141e+00) (11, 4.37149906158447265625e+00) (12, -2.28373527526855468750e-01) (0, 5.53963005542755126953e-01) (1, 2.92597174644470214844e-01) (2, 2.28491783142089843750e-01) (3, 2.36632958054542541504e-01) (4, 2.68267840147018432617e-01) (5, 2.95369118452072143555e-01) (6, 1.80002450942993164062e-01) (7, 1.58126994967460632324e-01) (8, 2.98839658498764038086e-01) (9, 2.35990822315216064453e-01) (10, -2.01240181922912597656e+00) (11, 4.74094486236572265625e+00) (12, -1.65084555745124816895e-01) (0, 4.06911820173263549805e-02) (1, 1.48042216897010803223e-02) (2, 3.65198552608489990234e-02) (3, 4.44255722686648368835e-03) (4, 7.74834910407662391663e-03) (5, 3.67044061422348022461e-02) (6, 2.65589859336614608765e-02) (7, 5.63405938446521759033e-02) (8, 7.27419788017868995667e-03) (9, 3.68161946535110473633e-02) (10, 7.87572145462036132812e+00) (11, 3.54439467191696166992e-01) (12, 1.08940646052360534668e-01) (0, 1.84990659356117248535e-01) (1, 1.09340995550155639648e-01) (2, 9.53733921051025390625e-02) (3, 1.12979277968406677246e-01) (4, 1.55640244483947753906e-01) (5, 1.03968821465969085693e-01) (6, 1.22695781290531158447e-01) (7, 8.93919020891189575195e-02) (8, 1.18214637041091918945e-01) (9, 1.22756123542785644531e-01) (10, 3.87865257263183593750e+00) (11, 2.44050288200378417969e+00) (12, 1.51232825592160224915e-02) (0, 2.46557563543319702148e-01) (1, 1.65884301066398620605e-01) (2, 1.47056087851524353027e-01) (3, 2.03184396028518676758e-01) (4, 1.58915445208549499512e-01) (5, 1.44194200634956359863e-01) (6, 1.48552030324935913086e-01) (7, 2.05043479800224304199e-01) (8, 1.70902609825134277344e-01) (9, 1.95206135511398315430e-01) (10, 1.44818878173828125000e+00) (11, 3.36511087417602539062e+00) (12, 1.47228956222534179688e-01) (0, 3.41926664113998413086e-01) (1, 2.30929136276245117188e-01) (2, 2.12191522121429443359e-01) (3, 2.71139740943908691406e-01) (4, 2.14393824338912963867e-01) (5, 2.11462303996086120605e-01) (6, 1.77861720323562622070e-01) (7, 1.96515783667564392090e-01) (8, 2.45957121253013610840e-01) (9, 2.25796893239021301270e-01) (10, -7.74073123931884765625e-01) (11, 4.28915786743164062500e+00) (12, 2.44415298104286193848e-01) (0, 4.37827974557876586914e-01) (1, 2.58890300989151000977e-01) (2, 3.05407583713531494141e-01) (3, 3.11552524566650390625e-01) (4, 2.21205174922943115234e-01) (5, 2.50085562467575073242e-01) (6, 1.35937139391899108887e-01) (7, 2.50295430421829223633e-01) (8, 2.47044175863265991211e-01) (9, 2.59827971458435058594e-01) (10, -1.96677148342132568359e+00) (11, 4.79312610626220703125e+00) (12, 2.03282982110977172852e-01) (0, 5.28684437274932861328e-01) (1, 2.83874720335006713867e-01) (2, 3.31305205821990966797e-01) (3, 3.60737353563308715820e-01) (4, 2.90191382169723510742e-01) (5, 2.90344327688217163086e-01) (6, 2.06087246537208557129e-01) (7, 2.78304219245910644531e-01) (8, 3.13666552305221557617e-01) (9, 3.10050249099731445312e-01) (10, -4.29608106613159179688e+00) (11, 5.91414737701416015625e+00) (12, 2.55476981401443481445e-02) (0, 4.92422223091125488281e-01) (1, 3.11795681715011596680e-01) (2, 3.51932108402252197266e-01) (3, 3.38880181312561035156e-01) (4, 2.94790714979171752930e-01) (5, 3.39145094156265258789e-01) (6, 2.69884467124938964844e-01) (7, 2.53018677234649658203e-01) (8, 3.53437691926956176758e-01) (9, 3.38174968957901000977e-01) (10, -4.93005132675170898438e+00) (11, 6.37674331665039062500e+00) (12, 6.05570822954177856445e-02) (0, 3.00458163022994995117e-01) (1, 2.24217385053634643555e-01) (2, 2.18816399574279785156e-01) (3, 2.32330098748207092285e-01) (4, 2.05078631639480590820e-01) (5, 1.62977278232574462891e-01) (6, 1.40434846282005310059e-01) (7, 1.81942284107208251953e-01) (8, 2.55077838897705078125e-01) (9, 2.03353777527809143066e-01) (10, 1.61117225885391235352e-01) (11, 3.81223249435424804688e+00) (12, 1.52046561241149902344e-01) (0, 5.68007469177246093750e-01) (1, 3.33282977342605590820e-01) (2, 3.52931380271911621094e-01) (3, 3.83454471826553344727e-01) (4, 3.47386837005615234375e-01) (5, 3.34797888994216918945e-01) (6, 2.66881167888641357422e-01) (7, 2.71674990653991699219e-01) (8, 3.70384842157363891602e-01) (9, 3.41776996850967407227e-01) (10, -5.90025901794433593750e+00) (11, 6.65690040588378906250e+00) (12, 1.69529840350151062012e-01) (0, 5.66588751971721649170e-02) (1, 1.51828350499272346497e-03) (2, -3.49506214261054992676e-02) (3, -5.15322983264923095703e-02) (4, -2.46264971792697906494e-02) (5, -2.77574881911277770996e-02) (6, 4.02010185644030570984e-03) (7, -3.29847447574138641357e-02) (8, 6.52955519035458564758e-03) (9, -2.09844075143337249756e-02) (10, 9.89348983764648437500e+00) (11, -5.03643393516540527344e-01) (12, -3.70780527591705322266e-02) (0, 5.78426003456115722656e-01) (1, 2.73194193840026855469e-01) (2, 3.27387899160385131836e-01) (3, 3.30279409885406494141e-01) (4, 3.67505311965942382812e-01) (5, 3.70067805051803588867e-01) (6, 3.10594588518142700195e-01) (7, 1.94267675280570983887e-01) (8, 3.24603945016860961914e-01) (9, 3.71738940477371215820e-01) (10, -5.31786251068115234375e+00) (11, 6.28965377807617187500e+00) (12, -2.77415037155151367188e-01) (0, 1.26521080732345581055e-01) (1, 3.23112644255161285400e-02) (2, 2.53521166741847991943e-02) (3, 6.79130554199218750000e-02) (4, 3.49098853766918182373e-02) (5, 5.13470955193042755127e-02) (6, 4.14022430777549743652e-02) (7, 3.16999224014580249786e-03) (8, 7.95405060052871704102e-02) (9, 2.16726828366518020630e-02) (10, 7.12374687194824218750e+00) (11, 7.75577008724212646484e-01) (12, -1.66360542178153991699e-01) (0, 5.36813676357269287109e-01) (1, 2.98374682664871215820e-01) (2, 3.13507527112960815430e-01) (3, 3.41492682695388793945e-01) (4, 3.61281007528305053711e-01) (5, 3.48387300968170166016e-01) (6, 1.97544708847999572754e-01) (7, 2.46762156486511230469e-01) (8, 2.95163035392761230469e-01) (9, 3.33534747362136840820e-01) (10, -4.65300893783569335938e+00) (11, 6.40477323532104492188e+00) (12, -2.23515808582305908203e-01) (0, -4.33398596942424774170e-02) (1, 9.23328753560781478882e-03) (2, 3.47647145390510559082e-02) (3, 2.89402380585670471191e-02) (4, -3.17220725119113922119e-02) (5, -2.08833869546651840210e-02) (6, 1.20420269668102264404e-02) (7, 4.40840683877468109131e-02) (8, 2.05906201153993606567e-02) (9, 1.57517492771148681641e-02) (10, 8.59294795989990234375e+00) (11, -1.45875200629234313965e-01) (12, 2.53979891538619995117e-01) (0, 7.85152912139892578125e-02) (1, 6.43619820475578308105e-02) (2, 2.86211241036653518677e-02) (3, 8.36868137121200561523e-02) (4, 4.51014563441276550293e-02) (5, 3.84077690541744232178e-02) (6, 7.45700076222419738770e-02) (7, 8.06548595428466796875e-02) (8, 1.04843981564044952393e-01) (9, 5.62812909483909606934e-02) (10, 6.20390701293945312500e+00) (11, 1.19675958156585693359e+00) (12, 3.66149507462978363037e-02) (0, 3.45847636461257934570e-01) (1, 1.94493189454078674316e-01) (2, 1.62797912955284118652e-01) (3, 1.91917717456817626953e-01) (4, 1.78830772638320922852e-01) (5, 1.94124847650527954102e-01) (6, 1.70911893248558044434e-01) (7, 1.53618022799491882324e-01) (8, 2.33322218060493469238e-01) (9, 1.82934522628784179688e-01) (10, 6.70364439487457275391e-01) (11, 3.71584677696228027344e+00) (12, 8.58011320233345031738e-02) (0, -1.80941130965948104858e-02) (1, 2.99630477093160152435e-03) (2, 2.04172004014253616333e-02) (3, 3.51384952664375305176e-02) (4, 4.88461181521415710449e-02) (5, 8.57602339237928390503e-03) (6, -9.25446581095457077026e-03) (7, 3.54335047304630279541e-02) (8, 3.76632772386074066162e-02) (9, 5.09715639054775238037e-02) (10, 7.97209453582763671875e+00) (11, 8.52342486381530761719e-01) (12, -5.47431893646717071533e-02) (0, 4.12586539983749389648e-01) (1, 2.68602192401885986328e-01) (2, 2.59132176637649536133e-01) (3, 2.55816429853439331055e-01) (4, 2.83324778079986572266e-01) (5, 2.76327013969421386719e-01) (6, 2.14823558926582336426e-01) (7, 2.25022017955780029297e-01) (8, 2.61571258306503295898e-01) (9, 2.37176537513732910156e-01) (10, -2.13991165161132812500e+00) (11, 4.78833007812500000000e+00) (12, 1.07403270900249481201e-01) (0, 2.51583326607942581177e-02) (1, 8.72627943754196166992e-02) (2, 8.67458358407020568848e-02) (3, 1.05846531689167022705e-01) (4, 6.68556615710258483887e-02) (5, 2.39129345864057540894e-02) (6, 5.74075542390346527100e-02) (7, 7.21159130334854125977e-02) (8, 5.59815056622028350830e-02) (9, 7.99393653869628906250e-02) (10, 6.16645336151123046875e+00) (11, 1.41735684871673583984e+00) (12, 1.62736132740974426270e-01) (0, 5.00649034976959228516e-01) (1, 2.75011688470840454102e-01) (2, 3.05184006690979003906e-01) (3, 3.29334884881973266602e-01) (4, 2.77590274810791015625e-01) (5, 3.30401003360748291016e-01) (6, 2.06990927457809448242e-01) (7, 2.17193961143493652344e-01) (8, 2.84248322248458862305e-01) (9, 2.75231271982192993164e-01) (10, -3.40107369422912597656e+00) (11, 5.71808910369873046875e+00) (12, -1.66529491543769836426e-01) (0, -2.65944041311740875244e-02) (1, 1.76661310251802206039e-03) (2, -3.90613824129104614258e-02) (3, 7.49515555799007415771e-03) (4, -1.38441566377878189087e-02) (5, -4.04086932539939880371e-02) (6, -3.04853674024343490601e-02) (7, 2.34893746674060821533e-02) (8, -9.94379166513681411743e-03) (9, -4.86366357654333114624e-03) (10, 9.59890842437744140625e+00) (11, -5.74446260929107666016e-01) (12, 1.72843426465988159180e-01) (0, 4.96007770299911499023e-01) (1, 2.38488540053367614746e-01) (2, 2.59258240461349487305e-01) (3, 2.20171540975570678711e-01) (4, 2.62343376874923706055e-01) (5, 2.88405865430831909180e-01) (6, 1.60131588578224182129e-01) (7, 1.68977558612823486328e-01) (8, 2.74462968111038208008e-01) (9, 2.70077079534530639648e-01) (10, -1.88357269763946533203e+00) (11, 4.84311437606811523438e+00) (12, -1.31299048662185668945e-01) (0, 4.23519521951675415039e-01) (1, 2.73658841848373413086e-01) (2, 2.53446847200393676758e-01) (3, 2.17700719833374023438e-01) (4, 1.96210548281669616699e-01) (5, 2.43318334221839904785e-01) (6, 1.74157440662384033203e-01) (7, 1.72295168042182922363e-01) (8, 2.45941072702407836914e-01) (9, 2.12532877922058105469e-01) (10, -9.71895098686218261719e-01) (11, 4.53173589706420898438e+00) (12, -2.06951737403869628906e-01) (0, 1.17763929069042205811e-01) (1, 8.49666520953178405762e-02) (2, 7.47579187154769897461e-02) (3, 1.11574403941631317139e-01) (4, 7.67797455191612243652e-02) (5, 7.26649388670921325684e-02) (6, 5.56990131735801696777e-02) (7, 4.97037172317504882812e-03) (8, 4.68290224671363830566e-02) (9, 2.62645576149225234985e-02) (10, 6.18324232101440429688e+00) (11, 1.45539867877960205078e+00) (12, 1.29167959094047546387e-02) (0, 1.17000832688063383102e-04) (1, 8.43492969870567321777e-02) (2, 1.37422010302543640137e-01) (3, 1.36838912963867187500e-01) (4, 8.31941887736320495605e-02) (5, 1.05103127658367156982e-01) (6, 8.84281843900680541992e-02) (7, 8.08090940117835998535e-02) (8, 8.26207175850868225098e-02) (9, 8.36348682641983032227e-02) (10, 4.90925693511962890625e+00) (11, 1.90640366077423095703e+00) (12, 1.83309912681579589844e-01) (0, 5.62589406967163085938e-01) (1, 2.94756829738616943359e-01) (2, 3.72697919607162475586e-01) (3, 3.86855006217956542969e-01) (4, 3.49700361490249633789e-01) (5, 3.21841061115264892578e-01) (6, 2.44811058044433593750e-01) (7, 2.73246318101882934570e-01) (8, 3.55044305324554443359e-01) (9, 3.37589591741561889648e-01) (10, -5.54907464981079101562e+00) (11, 6.53516387939453125000e+00) (12, 1.97440654039382934570e-01) (0, 9.82940718531608581543e-02) (1, 1.09527811408042907715e-01) (2, 1.37180522084236145020e-01) (3, 1.31912127137184143066e-01) (4, 6.26341700553894042969e-02) (5, 8.79224315285682678223e-02) (6, 7.32953995466232299805e-02) (7, 1.57678768038749694824e-01) (8, 1.28134727478027343750e-01) (9, 1.10933430492877960205e-01) (10, 4.27002477645874023438e+00) (11, 1.84048032760620117188e+00) (12, 3.08676242828369140625e-01) (0, 1.48028284311294555664e-01) (1, 9.63124558329582214355e-02) (2, 9.48914140462875366211e-02) (3, 1.11963972449302673340e-01) (4, 8.77064913511276245117e-02) (5, 8.07007849216461181641e-02) (6, 6.42953142523765563965e-02) (7, 8.51136967539787292480e-02) (8, 1.08264818787574768066e-01) (9, 1.25414192676544189453e-01) (10, 4.79137134552001953125e+00) (11, 2.10982036590576171875e+00) (12, -2.66543682664632797241e-02) (0, 1.04906186461448669434e-01) (1, 8.66083130240440368652e-02) (2, 9.51639488339424133301e-02) (3, 1.06164559721946716309e-01) (4, 7.46548026800155639648e-02) (5, 1.05015531182289123535e-01) (6, 2.25026942789554595947e-02) (7, 7.77425318956375122070e-02) (8, 8.81726965308189392090e-02) (9, 1.04656018316745758057e-01) (10, 5.23959541320800781250e+00) (11, 1.86250805854797363281e+00) (12, -1.80525913834571838379e-01) (0, 4.92980629205703735352e-01) (1, 2.91532903909683227539e-01) (2, 2.86141902208328247070e-01) (3, 3.10404747724533081055e-01) (4, 3.12569230794906616211e-01) (5, 3.63397777080535888672e-01) (6, 2.16860041022300720215e-01) (7, 2.55705237388610839844e-01) (8, 3.77924054861068725586e-01) (9, 2.66233623027801513672e-01) (10, -4.14912080764770507812e+00) (11, 5.92506361007690429688e+00) (12, -1.82173959910869598389e-02) (0, 1.54112443327903747559e-01) (1, 1.86514407396316528320e-01) (2, 1.71379297971725463867e-01) (3, 1.78828716278076171875e-01) (4, 2.36369132995605468750e-01) (5, 1.66664198040962219238e-01) (6, 1.13315083086490631104e-01) (7, 1.58536985516548156738e-01) (8, 1.70916840434074401855e-01) (9, 1.69774323701858520508e-01) (10, 1.48496127128601074219e+00) (11, 3.68247509002685546875e+00) (12, -4.41554784774780273438e-02) (0, 3.88915210962295532227e-01) (1, 1.66866853833198547363e-01) (2, 1.97035536170005798340e-01) (3, 2.64074236154556274414e-01) (4, 2.00586855411529541016e-01) (5, 2.11693510413169860840e-01) (6, 1.58694237470626831055e-01) (7, 1.52955755591392517090e-01) (8, 1.91763475537300109863e-01) (9, 1.77024543285369873047e-01) (10, 4.35130655765533447266e-01) (11, 3.87428188323974609375e+00) (12, -4.73582185804843902588e-02) (0, 3.20839762687683105469e-01) (1, 1.88563153147697448730e-01) (2, 1.86555981636047363281e-01) (3, 2.07230925559997558594e-01) (4, 2.23312437534332275391e-01) (5, 2.97387182712554931641e-01) (6, 1.36145487427711486816e-01) (7, 1.02312557399272918701e-01) (8, 2.44902551174163818359e-01) (9, 2.23778367042541503906e-01) (10, 5.87211102247238159180e-02) (11, 4.25413370132446289062e+00) (12, -1.90890014171600341797e-01) (0, 7.22741857171058654785e-02) (1, 3.04091647267341613770e-02) (2, 2.34711989760398864746e-02) (3, 1.00126601755619049072e-01) (4, 1.87304131686687469482e-02) (5, 2.10195928812026977539e-02) (6, 3.06952651590108871460e-02) (7, 4.57558184862136840820e-02) (8, 4.14098054170608520508e-02) (9, 2.72669009864330291748e-02) (10, 7.35283279418945312500e+00) (11, 7.73816943168640136719e-01) (12, 4.92323003709316253662e-02) (0, 2.50974372029304504395e-02) (1, 1.22100552543997764587e-02) (2, 3.76005955040454864502e-02) (3, 3.33790183067321777344e-02) (4, 4.42619957029819488525e-02) (5, 3.34572680294513702393e-02) (6, 5.28535023331642150879e-02) (7, 4.31652888655662536621e-02) (8, 7.47721418738365173340e-02) (9, 2.13297083973884582520e-02) (10, 7.36649036407470703125e+00) (11, 8.30843150615692138672e-01) (12, 4.75347377359867095947e-02) (0, 2.88633927702903747559e-02) (1, 1.06416223570704460144e-02) (2, 3.80500219762325286865e-02) (3, 2.87844857666641473770e-04) (4, 2.05236636102199554443e-02) (5, -1.28981210291385650635e-02) (6, 2.33454611152410507202e-02) (7, 2.98897251486778259277e-02) (8, 2.40169409662485122681e-02) (9, 5.63961155712604522705e-02) (10, 8.22331714630126953125e+00) (11, 2.75365203619003295898e-01) (12, 8.11142697930335998535e-02) (0, 4.56373989582061767578e-01) (1, 2.79307693243026733398e-01) (2, 3.08219224214553833008e-01) (3, 3.33767741918563842773e-01) (4, 3.11944752931594848633e-01) (5, 3.15800666809082031250e-01) (6, 2.18272611498832702637e-01) (7, 2.36459404230117797852e-01) (8, 2.71392762660980224609e-01) (9, 3.23364406824111938477e-01) (10, -3.76521563529968261719e+00) (11, 5.79115009307861328125e+00) (12, -7.00006410479545593262e-02) (0, 2.16652676463127136230e-01) (1, 1.73779934644699096680e-01) (2, 1.76079854369163513184e-01) (3, 1.72463491559028625488e-01) (4, 1.38417229056358337402e-01) (5, 1.69799715280532836914e-01) (6, 1.56778335571289062500e-01) (7, 1.08742438256740570068e-01) (8, 1.75519496202468872070e-01) (9, 1.63672626018524169922e-01) (10, 1.90112137794494628906e+00) (11, 3.02300071716308593750e+00) (12, 1.21611347422003746033e-02) (0, 8.90128612518310546875e-02) (1, 1.35679710656404495239e-02) (2, 3.37842851877212524414e-02) (3, 4.63807657361030578613e-02) (4, 1.76905784755945205688e-02) (5, 1.69783160090446472168e-02) (6, -5.80197125673294067383e-02) (7, 2.87554841488599777222e-02) (8, -1.70693062245845794678e-02) (9, 4.67723980545997619629e-02) (10, 8.34612369537353515625e+00) (11, 4.92270112037658691406e-01) (12, 7.78684541583061218262e-02) (0, 5.39884805679321289062e-01) (1, 3.27625364065170288086e-01) (2, 3.47269326448440551758e-01) (3, 4.18926149606704711914e-01) (4, 3.68334650993347167969e-01) (5, 4.12856370210647583008e-01) (6, 2.91181027889251708984e-01) (7, 2.80076473951339721680e-01) (8, 3.70354115962982177734e-01) (9, 3.73602688312530517578e-01) (10, -6.81268596649169921875e+00) (11, 7.10027742385864257812e+00) (12, 3.32753658294677734375e-02) (0, 6.18084892630577087402e-02) (1, 1.02477734908461570740e-02) (2, 5.11997304856777191162e-02) (3, 8.66377167403697967529e-03) (4, -1.64117035456001758575e-03) (5, 9.15749184787273406982e-03) (6, -2.28910576552152633667e-02) (7, 5.93439266085624694824e-02) (8, -1.70573722571134567261e-02) (9, 1.36353215202689170837e-03) (10, 8.60922336578369140625e+00) (11, 1.59971788525581359863e-01) (12, 1.61778822541236877441e-01) (0, 2.29406461119651794434e-01) (1, 3.17208515480160713196e-03) (2, 3.91942523419857025146e-02) (3, 5.46445101499557495117e-02) (4, 4.35429476201534271240e-02) (5, 4.75826077163219451904e-02) (6, 5.52577525377273559570e-02) (7, 2.56785191595554351807e-02) (8, 6.85724392533302307129e-02) (9, 4.72300313413143157959e-02) (10, 6.81211900711059570312e+00) (11, 8.23272228240966796875e-01) (12, -2.90484633296728134155e-03) (0, 3.60164970159530639648e-01) (1, 1.97531774640083312988e-01) (2, 1.75671786069869995117e-01) (3, 2.64900445938110351562e-01) (4, 2.21327483654022216797e-01) (5, 2.32632622122764587402e-01) (6, 2.14075118303298950195e-01) (7, 1.61855071783065795898e-01) (8, 2.53487557172775268555e-01) (9, 2.17705577611923217773e-01) (10, -7.02681243419647216797e-01) (11, 4.46943426132202148438e+00) (12, -4.55187559127807617188e-02) (0, -1.82817995548248291016e-01) (1, -1.17532871663570404053e-01) (2, -1.27070799469947814941e-01) (3, -1.44223615527153015137e-01) (4, -1.21595345437526702881e-01) (5, -1.20716102421283721924e-01) (6, -1.01588778197765350342e-01) (7, -9.83134880661964416504e-02) (8, -1.32448151707649230957e-01) (9, -1.20512358844280242920e-01) (10, 5.58312606811523437500e+00) (11, -2.40179085731506347656e+00) (12, -2.61914078146219253540e-02) (0, 2.83159613609313964844e-01) (1, 2.58499294519424438477e-01) (2, 2.86291033029556274414e-01) (3, 2.99645721912384033203e-01) (4, 2.02953547239303588867e-01) (5, 1.57432198524475097656e-01) (6, 2.33690768480300903320e-01) (7, 2.08398163318634033203e-01) (8, 2.76430726051330566406e-01) (9, 2.13665753602981567383e-01) (10, -2.37594556808471679688e+00) (11, 4.37325811386108398438e+00) (12, 4.28136885166168212891e-01) (0, 2.74629086256027221680e-01) (1, 1.45103499293327331543e-01) (2, 1.54478773474693298340e-01) (3, 1.80970191955566406250e-01) (4, 1.71854242682456970215e-01) (5, 1.67410656809806823730e-01) (6, 1.01739615201950073242e-01) (7, 1.04776747524738311768e-01) (8, 1.83706924319267272949e-01) (9, 1.47971630096435546875e-01) (10, 2.04253578186035156250e+00) (11, 2.88184285163879394531e+00) (12, -4.52198423445224761963e-02) (0, 1.72921553254127502441e-01) (1, 8.52988734841346740723e-02) (2, 2.89904996752738952637e-02) (3, 4.65346537530422210693e-02) (4, 8.61605927348136901855e-02) (5, 1.30190849304199218750e-01) (6, 4.72271032631397247314e-02) (7, 2.54775695502758026123e-02) (8, 5.27566038072109222412e-02) (9, 1.02524064481258392334e-01) (10, 5.77507877349853515625e+00) (11, 1.29963064193725585938e+00) (12, -1.74796536564826965332e-01) (0, 3.31331700086593627930e-01) (1, 2.66494512557983398438e-01) (2, 1.87240585684776306152e-01) (3, 2.67675340175628662109e-01) (4, 2.02185884118080139160e-01) (5, 1.71577528119087219238e-01) (6, 1.82396993041038513184e-01) (7, 2.34263524413108825684e-01) (8, 2.19979837536811828613e-01) (9, 2.33877882361412048340e-01) (10, -5.04597425460815429688e-01) (11, 4.33273792266845703125e+00) (12, 3.20141315460205078125e-01) (0, 1.40930771827697753906e-01) (1, 2.65281088650226593018e-02) (2, 3.86943407356739044189e-02) (3, 9.00446549057960510254e-02) (4, 3.40683683753013610840e-02) (5, 4.80741411447525024414e-02) (6, 2.61888261884450912476e-02) (7, 4.32679802179336547852e-02) (8, 5.91367036104202270508e-02) (9, 2.69962400197982788086e-02) (10, 7.06179809570312500000e+00) (11, 9.52758729457855224609e-01) (12, 9.83042567968368530273e-02) (0, 3.42920690774917602539e-01) (1, 2.12854713201522827148e-01) (2, 2.30392649769783020020e-01) (3, 2.56822049617767333984e-01) (4, 2.18550726771354675293e-01) (5, 2.34771147370338439941e-01) (6, 1.51412174105644226074e-01) (7, 2.21641093492507934570e-01) (8, 2.09933653473854064941e-01) (9, 2.36275553703308105469e-01) (10, -6.73359274864196777344e-01) (11, 4.19607686996459960938e+00) (12, 7.82772377133369445801e-02) (0, 5.41293323040008544922e-01) (1, 3.25924098491668701172e-01) (2, 3.45458120107650756836e-01) (3, 4.23277407884597778320e-01) (4, 3.45144122838973999023e-01) (5, 3.42670202255249023438e-01) (6, 2.98909813165664672852e-01) (7, 2.90362060070037841797e-01) (8, 3.97038370370864868164e-01) (9, 3.36159706115722656250e-01) (10, -6.26571655273437500000e+00) (11, 7.16616296768188476562e+00) (12, 2.35370308160781860352e-01) (0, 1.40045717358589172363e-01) (1, 1.25021174550056457520e-01) (2, 1.40140458941459655762e-01) (3, 2.06421196460723876953e-01) (4, 9.23612490296363830566e-02) (5, 2.56969816982746124268e-02) (6, 8.73431786894798278809e-02) (7, 1.35085329413414001465e-01) (8, 1.55192807316780090332e-01) (9, 9.50036048889160156250e-02) (10, 4.04356908798217773438e+00) (11, 1.94319880008697509766e+00) (12, 4.50141757726669311523e-01) (0, 3.95104624330997467041e-02) (1, 4.25544679164886474609e-02) (2, 2.96278670430183410645e-03) (3, 3.39519456028938293457e-02) (4, 2.23893783986568450928e-02) (5, 2.44174078106880187988e-02) (6, 5.05488440394401550293e-02) (7, 1.83583721518516540527e-02) (8, 4.10525407642126083374e-03) (9, 1.87220927327871322632e-02) (10, 7.89266300201416015625e+00) (11, 5.02875506877899169922e-01) (12, 4.75654639303684234619e-02) (0, 1.64256006479263305664e-01) (1, 5.71898557245731353760e-02) (2, 7.27023109793663024902e-02) (3, 4.56286557018756866455e-02) (4, 7.60432705283164978027e-02) (5, 7.51732289791107177734e-02) (6, 5.47286532819271087646e-02) (7, 7.21017494797706604004e-02) (8, 5.89134320616722106934e-02) (9, 2.01622992753982543945e-02) (10, 6.11636447906494140625e+00) (11, 1.30951666831970214844e+00) (12, -8.42591896653175354004e-02) (0, 3.80893021821975708008e-01) (1, 2.77997225522994995117e-01) (2, 2.79105544090270996094e-01) (3, 3.51197183132171630859e-01) (4, 2.95093476772308349609e-01) (5, 2.42383539676666259766e-01) (6, 2.39922747015953063965e-01) (7, 2.55304187536239624023e-01) (8, 3.10287326574325561523e-01) (9, 3.12280565500259399414e-01) (10, -3.48851728439331054688e+00) (11, 5.45468282699584960938e+00) (12, 2.16142475605010986328e-01) (0, 3.87809693813323974609e-01) (1, 2.48380750417709350586e-01) (2, 2.48299673199653625488e-01) (3, 3.01148653030395507812e-01) (4, 2.79631704092025756836e-01) (5, 2.64445036649703979492e-01) (6, 2.27879405021667480469e-01) (7, 2.22920536994934082031e-01) (8, 2.73673683404922485352e-01) (9, 2.50229507684707641602e-01) (10, -2.34737825393676757812e+00) (11, 5.30007553100585937500e+00) (12, 3.21715101599693298340e-02) (0, 2.05676063895225524902e-01) (1, 4.71296571195125579834e-02) (2, 3.74713763594627380371e-02) (3, 4.58779856562614440918e-02) (4, 4.99730370938777923584e-02) (5, 9.88641604781150817871e-02) (6, -3.30966487526893615723e-02) (7, 1.35904771741479635239e-03) (8, 4.51905466616153717041e-02) (9, 8.91356691718101501465e-02) (10, 6.82660150527954101562e+00) (11, 1.25123345851898193359e+00) (12, -2.09959223866462707520e-01) (0, 4.02530103921890258789e-01) (1, 2.05519214272499084473e-01) (2, 2.33772262930870056152e-01) (3, 2.13024631142616271973e-01) (4, 2.76049941778182983398e-01) (5, 2.85803973674774169922e-01) (6, 1.76154002547264099121e-01) (7, 1.52366250753402709961e-01) (8, 2.62115329504013061523e-01) (9, 2.25657269358634948730e-01) (10, -1.18684065341949462891e+00) (11, 4.79132604598999023438e+00) (12, -1.87441870570182800293e-01) (0, 1.28044605255126953125e-01) (1, 8.80186930298805236816e-02) (2, 9.30934473872184753418e-02) (3, 1.23388580977916717529e-01) (4, 1.42165973782539367676e-01) (5, 8.54358598589897155762e-02) (6, 9.96703058481216430664e-02) (7, 8.89940038323402404785e-02) (8, 1.28853037953376770020e-01) (9, 8.64521712064743041992e-02) (10, 4.44641971588134765625e+00) (11, 2.06802988052368164062e+00) (12, 2.56368815898895263672e-02) (0, 6.87677115201950073242e-02) (1, 5.57407960295677185059e-02) (2, 1.92876197397708892822e-02) (3, 1.30299851298332214355e-02) (4, 1.46696651354432106018e-02) (5, 5.25508681312203407288e-03) (6, 5.99393562879413366318e-04) (7, 3.00129670649766921997e-02) (8, 6.92963972687721252441e-03) (9, 1.06096817180514335632e-02) (10, 8.15733718872070312500e+00) (11, 4.75991189479827880859e-01) (12, 3.38557586073875427246e-02) (0, -6.70171752572059631348e-02) (1, 2.13160105049610137939e-02) (2, -7.97508284449577331543e-03) (3, 6.98125222697854042053e-03) (4, -3.17169949412345886230e-02) (5, -3.24315913021564483643e-02) (6, 4.11209464073181152344e-03) (7, 7.67024746164679527283e-03) (8, -1.41063611954450607300e-02) (9, 3.71269844472408294678e-02) (10, 9.15331363677978515625e+00) (11, -7.04738637432456016541e-03) (12, 2.55100540816783905029e-02) (0, 1.57502636313438415527e-01) (1, 1.02656282484531402588e-01) (2, 1.18140242993831634521e-01) (3, 1.00792668759822845459e-01) (4, 1.39992207288742065430e-01) (5, 4.44713607430458068848e-02) (6, 9.47656854987144470215e-02) (7, 8.67992416024208068848e-02) (8, 1.04535318911075592041e-01) (9, 9.93142873048782348633e-02) (10, 4.56186485290527343750e+00) (11, 2.08099746704101562500e+00) (12, 1.98252335190773010254e-01) (0, 4.87551301717758178711e-01) (1, 2.70966827869415283203e-01) (2, 3.14200520515441894531e-01) (3, 2.97666370868682861328e-01) (4, 2.69952982664108276367e-01) (5, 2.76934385299682617188e-01) (6, 1.83555155992507934570e-01) (7, 1.90618902444839477539e-01) (8, 2.66991138458251953125e-01) (9, 2.74161547422409057617e-01) (10, -2.70034527778625488281e+00) (11, 5.08534336090087890625e+00) (12, -1.26298014074563980103e-02) (0, 2.39239588379859924316e-01) (1, 2.73055732250213623047e-01) (2, 2.55894809961318969727e-01) (3, 3.16965043544769287109e-01) (4, 2.58147269487380981445e-01) (5, 1.99255332350730895996e-01) (6, 1.92954823374748229980e-01) (7, 1.89914941787719726562e-01) (8, 2.41954654455184936523e-01) (9, 2.51513630151748657227e-01) (10, -1.38697350025177001953e+00) (11, 4.70248603820800781250e+00) (12, 2.59445697069168090820e-01) (0, 4.63371783494949340820e-01) (1, 3.21518778800964355469e-01) (2, 3.89256000518798828125e-01) (3, 4.05948489904403686523e-01) (4, 3.78507882356643676758e-01) (5, 3.67186188697814941406e-01) (6, 3.02444428205490112305e-01) (7, 2.67426460981369018555e-01) (8, 3.66967052221298217773e-01) (9, 4.05223250389099121094e-01) (10, -6.56611633300781250000e+00) (11, 6.74480533599853515625e+00) (12, -1.45577862858772277832e-02) (0, -5.09157590568065643311e-02) (1, -5.47482371330261230469e-02) (2, -3.57626974582672119141e-02) (3, -2.65017077326774597168e-02) (4, -5.37831597030162811279e-02) (5, 1.77293308079242706299e-02) (6, -3.38792167603969573975e-02) (7, -4.48675185907632112503e-04) (8, -4.02129366993904113770e-02) (9, -1.44887343049049377441e-02) (10, 1.02384872436523437500e+01) (11, -4.91041690111160278320e-01) (12, -4.71881181001663208008e-02) (0, 2.38008677959442138672e-01) (1, 2.05149054527282714844e-01) (2, 2.49499827623367309570e-01) (3, 2.65143305063247680664e-01) (4, 2.05435365438461303711e-01) (5, 1.54766619205474853516e-01) (6, 1.44835785031318664551e-01) (7, 2.43907481431961059570e-01) (8, 2.01974138617515563965e-01) (9, 2.31314629316329956055e-01) (10, -8.53107795119285583496e-02) (11, 3.99361133575439453125e+00) (12, 3.19993883371353149414e-01) (0, 3.24791222810745239258e-01) (1, 1.58415570855140686035e-01) (2, 2.24648728966712951660e-01) (3, 1.90517082810401916504e-01) (4, 2.55297660827636718750e-01) (5, 2.29844674468040466309e-01) (6, 1.45312383770942687988e-01) (7, 1.58734068274497985840e-01) (8, 2.00158074498176574707e-01) (9, 1.65978699922561645508e-01) (10, 4.10253882408142089844e-01) (11, 3.81704878807067871094e+00) (12, -1.70490875840187072754e-01) (0, 5.24571359157562255859e-01) (1, 3.93865019083023071289e-01) (2, 4.03413385152816772461e-01) (3, 4.02069121599197387695e-01) (4, 3.97674947977066040039e-01) (5, 4.25039976835250854492e-01) (6, 3.36382269859313964844e-01) (7, 3.04817587137222290039e-01) (8, 4.45051193237304687500e-01) (9, 4.38093990087509155273e-01) (10, -8.35752773284912109375e+00) (11, 7.86427593231201171875e+00) (12, 4.95618432760238647461e-02) (0, 9.84603259712457656860e-03) (1, 5.40856309235095977783e-02) (2, 6.93371668457984924316e-02) (3, 6.25448971986770629883e-02) (4, -1.64759941399097442627e-02) (5, 6.97409659624099731445e-02) (6, 1.82278472930192947388e-02) (7, -3.86100783944129943848e-02) (8, 4.28449548780918121338e-02) (9, 5.00471033155918121338e-02) (10, 7.46239709854125976562e+00) (11, 6.44439995288848876953e-01) (12, -7.87600576877593994141e-02) (0, 3.82083505392074584961e-01) (1, 2.74128288030624389648e-01) (2, 2.54555195569992065430e-01) (3, 2.98098444938659667969e-01) (4, 2.60513007640838623047e-01) (5, 2.89378046989440917969e-01) (6, 1.95087358355522155762e-01) (7, 1.97129413485527038574e-01) (8, 2.72973209619522094727e-01) (9, 3.24488520622253417969e-01) (10, -2.52558612823486328125e+00) (11, 5.10079431533813476562e+00) (12, 5.92395626008510589600e-02) (0, 5.47420904040336608887e-02) (1, 6.86084926128387451172e-02) (2, 1.35023549199104309082e-01) (3, 1.02225534617900848389e-01) (4, 1.08375847339630126953e-01) (5, 1.20836384594440460205e-01) (6, 7.27458819746971130371e-02) (7, 1.24059937894344329834e-01) (8, 9.77731496095657348633e-02) (9, 1.50509610772132873535e-01) (10, 4.46385478973388671875e+00) (11, 2.15141439437866210938e+00) (12, 6.74409717321395874023e-02) (0, 3.12618985772132873535e-02) (1, 1.84189379215240478516e-02) (2, 2.87269297987222671509e-02) (3, 2.55142357200384140015e-02) (4, 3.93788777291774749756e-02) (5, 3.73506285250186920166e-02) (6, 2.37484034150838851929e-02) (7, 2.77151800692081451416e-02) (8, 6.75146728754043579102e-02) (9, 3.80957648158073425293e-02) (10, 7.53623437881469726562e+00) (11, 5.04048109054565429688e-01) (12, -1.11004382371902465820e-01) (0, 3.84294539690017700195e-01) (1, 2.48226374387741088867e-01) (2, 2.19671770930290222168e-01) (3, 2.88693428039550781250e-01) (4, 2.60517150163650512695e-01) (5, 2.23134756088256835938e-01) (6, 1.90060615539550781250e-01) (7, 2.53314077854156494141e-01) (8, 3.20376098155975341797e-01) (9, 2.96772778034210205078e-01) (10, -2.08223104476928710938e+00) (11, 4.89469337463378906250e+00) (12, 3.24406623840332031250e-01) (0, 4.55448403954505920410e-03) (1, 6.07808232307434082031e-02) (2, 4.22768034040927886963e-02) (3, 1.14691048860549926758e-01) (4, 2.74463929235935211182e-03) (5, 1.25106843188405036926e-02) (6, 3.39194238185882568359e-02) (7, 9.73635166883468627930e-02) (8, 3.75214330852031707764e-02) (9, 2.47651152312755584717e-02) (10, 7.20783901214599609375e+00) (11, 7.58578121662139892578e-01) (12, 3.45623224973678588867e-01) (0, 1.92200988531112670898e-01) (1, 1.26978710293769836426e-01) (2, 1.36810690164566040039e-01) (3, 1.62857547402381896973e-01) (4, 9.87021699547767639160e-02) (5, 7.67045766115188598633e-02) (6, 7.15332478284835815430e-02) (7, 1.44084915518760681152e-01) (8, 1.37031361460685729980e-01) (9, 7.83933177590370178223e-02) (10, 3.84788703918457031250e+00) (11, 2.20774674415588378906e+00) (12, 2.51032024621963500977e-01) (0, 2.13165692985057830811e-02) (1, -3.19521501660346984863e-03) (2, -3.74316349625587463379e-02) (3, 2.72310781292617321014e-03) (4, -3.33581529557704925537e-02) (5, 1.98273099958896636963e-02) (6, 2.02475618571043014526e-02) (7, 2.17645894736051559448e-02) (8, 4.14687171578407287598e-02) (9, -7.36996240448206663132e-04) (10, 8.84393215179443359375e+00) (11, -2.15056508779525756836e-01) (12, 7.14158043265342712402e-02) (0, 6.09494686126708984375e-01) (1, 2.92175680398941040039e-01) (2, 3.21660190820693969727e-01) (3, 3.19866150617599487305e-01) (4, 3.37947428226470947266e-01) (5, 3.35853338241577148438e-01) (6, 2.39439591765403747559e-01) (7, 2.45290324091911315918e-01) (8, 3.26872169971466064453e-01) (9, 3.36293786764144897461e-01) (10, -4.80125665664672851562e+00) (11, 6.35857200622558593750e+00) (12, -2.16794297099113464355e-01) (0, 3.00224095582962036133e-01) (1, 8.08434709906578063965e-02) (2, 5.71838319301605224609e-02) (3, -9.03242209460586309433e-04) (4, 7.12801367044448852539e-02) (5, 1.26546114683151245117e-01) (6, 3.88387106359004974365e-02) (7, 5.73613960295915603638e-03) (8, 6.08405135571956634521e-02) (9, 8.83794128894805908203e-02) (10, 5.83042478561401367188e+00) (11, 1.36828649044036865234e+00) (12, -3.36344033479690551758e-01) (0, -5.22866472601890563965e-03) (1, -2.18886900693178176880e-02) (2, -2.50511281192302703857e-02) (3, -2.42479760199785232544e-02) (4, -5.45060224831104278564e-02) (5, -2.44023911654949188232e-02) (6, -4.43120747804641723633e-02) (7, -2.16884333640336990356e-02) (8, -3.09054236859083175659e-02) (9, -9.48096904903650283813e-03) (10, 1.01300363540649414062e+01) (11, -3.73157262802124023438e-01) (12, -6.55744150280952453613e-02) (0, 3.83289128541946411133e-01) (1, 2.19233453273773193359e-01) (2, 2.37838387489318847656e-01) (3, 2.85146266222000122070e-01) (4, 2.53917634487152099609e-01) (5, 2.27261006832122802734e-01) (6, 1.67499378323554992676e-01) (7, 1.79989784955978393555e-01) (8, 2.66738325357437133789e-01) (9, 2.59046941995620727539e-01) (10, -1.41122424602508544922e+00) (11, 4.55750513076782226562e+00) (12, 2.71610021591186523438e-02) (0, 1.73551961779594421387e-01) (1, 1.64228931069374084473e-01) (2, 1.27103313803672790527e-01) (3, 1.67674690485000610352e-01) (4, 1.42941474914550781250e-01) (5, 6.96350559592247009277e-02) (6, 1.09618097543716430664e-01) (7, 1.28543749451637268066e-01) (8, 2.08144247531890869141e-01) (9, 1.28681436181068420410e-01) (10, 2.96083259582519531250e+00) (11, 2.64625430107116699219e+00) (12, 2.13830113410949707031e-01) (0, 3.77881705760955810547e-01) (1, 1.78000777959823608398e-01) (2, 1.99634805321693420410e-01) (3, 1.37488886713981628418e-01) (4, 2.12615385651588439941e-01) (5, 2.23686605691909790039e-01) (6, 1.12548358738422393799e-01) (7, 6.80860951542854309082e-02) (8, 1.92686006426811218262e-01) (9, 2.13434591889381408691e-01) (10, 1.08038961887359619141e+00) (11, 3.63975191116333007812e+00) (12, -3.98450940847396850586e-01) (0, 2.60603815317153930664e-01) (1, 1.40238583087921142578e-01) (2, 9.65359061956405639648e-02) (3, 1.46352946758270263672e-01) (4, 1.35903164744377136230e-01) (5, 1.41081511974334716797e-01) (6, 9.24258679151535034180e-02) (7, 1.19986295700073242188e-01) (8, 1.90224230289459228516e-01) (9, 1.59255072474479675293e-01) (10, 2.93761634826660156250e+00) (11, 2.87364506721496582031e+00) (12, -5.32577708363533020020e-02) (0, 2.94645011425018310547e-01) (1, 1.87305584549903869629e-01) (2, 1.45104780793190002441e-01) (3, 2.14612990617752075195e-01) (4, 1.86944603919982910156e-01) (5, 2.00191035866737365723e-01) (6, 1.34624749422073364258e-01) (7, 9.41465795040130615234e-02) (8, 1.79664686322212219238e-01) (9, 1.93109661340713500977e-01) (10, 1.33859705924987792969e+00) (11, 3.64351868629455566406e+00) (12, -2.18566432595252990723e-01) (0, 1.38845637440681457520e-01) (1, 7.60136346798390150070e-04) (2, 2.87789776921272277832e-02) (3, -3.76282706856727600098e-02) (4, 5.93152493238449096680e-02) (5, 1.68624855577945709229e-02) (6, 3.74333895742893218994e-02) (7, -6.42493739724159240723e-02) (8, 3.26683111488819122314e-02) (9, 1.09165953472256660461e-02) (10, 8.17642211914062500000e+00) (11, 2.29495108127593994141e-01) (12, -2.89636552333831787109e-01) (0, 3.77168089151382446289e-01) (1, 2.80079603195190429688e-01) (2, 2.69512891769409179688e-01) (3, 2.96069473028182983398e-01) (4, 2.84840822219848632812e-01) (5, 2.64703273773193359375e-01) (6, 2.15519502758979797363e-01) (7, 2.23407790064811706543e-01) (8, 3.21690738201141357422e-01) (9, 3.09366524219512939453e-01) (10, -2.89329791069030761719e+00) (11, 5.43882322311401367188e+00) (12, 5.27382269501686096191e-02) (0, 1.03611618280410766602e-01) (1, 4.30577807128429412842e-02) (2, 4.85437884926795959473e-02) (3, 1.26020282506942749023e-01) (4, 4.25918884575366973877e-02) (5, 5.05180470645427703857e-02) (6, 1.83983705937862396240e-02) (7, 1.04787990450859069824e-01) (8, 8.32952633500099182129e-02) (9, 4.68247197568416595459e-02) (10, 6.22625923156738281250e+00) (11, 1.29972910881042480469e+00) (12, 2.82483786344528198242e-01) (0, 5.11286139488220214844e-01) (1, 3.60693633556365966797e-01) (2, 4.13959056138992309570e-01) (3, 4.73851829767227172852e-01) (4, 3.97447019815444946289e-01) (5, 4.35244739055633544922e-01) (6, 3.07151257991790771484e-01) (7, 3.07994931936264038086e-01) (8, 3.88741016387939453125e-01) (9, 4.06192034482955932617e-01) (10, -8.01229190826416015625e+00) (11, 7.72156000137329101562e+00) (12, -2.87476315861567854881e-04) (0, 5.25151789188385009766e-01) (1, 3.20905417203903198242e-01) (2, 3.67013275623321533203e-01) (3, 3.56423288583755493164e-01) (4, 3.37569653987884521484e-01) (5, 3.43334525823593139648e-01) (6, 2.31114014983177185059e-01) (7, 2.88982331752777099609e-01) (8, 3.82108151912689208984e-01) (9, 3.24117481708526611328e-01) (10, -5.45946693420410156250e+00) (11, 6.46914768218994140625e+00) (12, 1.10937796533107757568e-01) (0, 4.54587757587432861328e-01) (1, 2.99091279506683349609e-01) (2, 2.73403495550155639648e-01) (3, 2.60261952877044677734e-01) (4, 3.16723495721817016602e-01) (5, 3.20791959762573242188e-01) (6, 2.20859184861183166504e-01) (7, 2.19227120280265808105e-01) (8, 3.03524821996688842773e-01) (9, 2.74850815534591674805e-01) (10, -3.21968960762023925781e+00) (11, 5.65159702301025390625e+00) (12, -1.02504990994930267334e-01) (0, 8.72174352407455444336e-02) (1, 5.66008277237415313721e-02) (2, 8.46002399921417236328e-02) (3, 9.99924317002296447754e-02) (4, 4.08197641372680664062e-02) (5, 4.59536723792552947998e-02) (6, 5.12134842574596405029e-02) (7, 4.91633191704750061035e-02) (8, 7.53593221306800842285e-02) (9, 3.07699684053659439087e-02) (10, 6.33166599273681640625e+00) (11, 1.17053842544555664062e+00) (12, 1.64700105786323547363e-01) (0, 5.56525468826293945312e-01) (1, 3.13470542430877685547e-01) (2, 3.11359465122222900391e-01) (3, 3.07598292827606201172e-01) (4, 2.74611145257949829102e-01) (5, 3.65413159132003784180e-01) (6, 2.11376413702964782715e-01) (7, 1.97481736540794372559e-01) (8, 3.55112046003341674805e-01) (9, 3.15575212240219116211e-01) (10, -4.25737094879150390625e+00) (11, 6.04167985916137695312e+00) (12, -1.02171093225479125977e-01) (0, 1.26906543970108032227e-01) (1, 8.66549164056777954102e-02) (2, 1.02110914885997772217e-01) (3, 9.23396870493888854980e-02) (4, 1.02909602224826812744e-01) (5, 8.97272825241088867188e-02) (6, 7.72501900792121887207e-02) (7, 4.12097983062267303467e-02) (8, 1.01248830556869506836e-01) (9, 6.30107969045639038086e-02) (10, 5.34742498397827148438e+00) (11, 1.81740498542785644531e+00) (12, 8.40290635824203491211e-02) (0, 1.16030238568782806396e-01) (1, 7.10155591368675231934e-02) (2, 8.42066705226898193359e-02) (3, 1.11056394875049591064e-01) (4, 7.17036277055740356445e-02) (5, 5.66036477684974670410e-02) (6, 6.35727718472480773926e-02) (7, 8.33241790533065795898e-02) (8, 1.26150041818618774414e-01) (9, 6.81716501712799072266e-02) (10, 5.47887372970581054688e+00) (11, 1.58157014846801757812e+00) (12, 1.96669235825538635254e-01) (0, 5.85771858692169189453e-01) (1, 3.16192179918289184570e-01) (2, 3.37656974792480468750e-01) (3, 3.73534470796585083008e-01) (4, 3.15059989690780639648e-01) (5, 3.54577064514160156250e-01) (6, 2.77612000703811645508e-01) (7, 2.75108754634857177734e-01) (8, 3.45630526542663574219e-01) (9, 3.52052360773086547852e-01) (10, -5.54009103775024414062e+00) (11, 6.35111713409423828125e+00) (12, 6.97418749332427978516e-02) (0, 2.04878360033035278320e-01) (1, 1.36864230036735534668e-01) (2, 1.99543789029121398926e-01) (3, 1.86085805296897888184e-01) (4, 1.78996339440345764160e-01) (5, 1.43522813916206359863e-01) (6, 1.33915364742279052734e-01) (7, 1.33103549480438232422e-01) (8, 1.41072824597358703613e-01) (9, 1.07369557023048400879e-01) (10, 2.34142589569091796875e+00) (11, 3.18578124046325683594e+00) (12, 1.66646197438240051270e-01) (0, 2.78803557157516479492e-01) (1, 1.98304057121276855469e-01) (2, 2.00879096984863281250e-01) (3, 2.37392857670783996582e-01) (4, 1.65555790066719055176e-01) (5, 2.02462062239646911621e-01) (6, 1.34874060750007629395e-01) (7, 1.75042361021041870117e-01) (8, 2.18085616827011108398e-01) (9, 2.38879293203353881836e-01) (10, 3.60404759645462036133e-01) (11, 3.86755728721618652344e+00) (12, 1.86264023184776306152e-01) (0, 2.42520973086357116699e-01) (1, 1.91092818975448608398e-01) (2, 1.89332246780395507812e-01) (3, 2.17801183462142944336e-01) (4, 1.87278419733047485352e-01) (5, 1.65330767631530761719e-01) (6, 1.40221074223518371582e-01) (7, 1.57667323946952819824e-01) (8, 2.55340665578842163086e-01) (9, 1.83745980262756347656e-01) (10, 8.29574167728424072266e-01) (11, 3.63983082771301269531e+00) (12, 1.42526045441627502441e-01) (0, 5.09065389633178710938e-01) (1, 2.98605740070343017578e-01) (2, 3.63108843564987182617e-01) (3, 3.87231409549713134766e-01) (4, 3.27585875988006591797e-01) (5, 3.01339477300643920898e-01) (6, 2.63412922620773315430e-01) (7, 2.71029323339462280273e-01) (8, 3.79958271980285644531e-01) (9, 3.22267234325408935547e-01) (10, -5.32468748092651367188e+00) (11, 6.40476179122924804688e+00) (12, 2.17381089925765991211e-01) (0, 1.55388623476028442383e-01) (1, 1.31149604916572570801e-01) (2, 1.16639651358127593994e-01) (3, 1.32615923881530761719e-01) (4, 1.01865172386169433594e-01) (5, 1.07262641191482543945e-01) (6, 6.99814558029174804688e-02) (7, 4.16232384741306304932e-02) (8, 1.31729304790496826172e-01) (9, 6.27409145236015319824e-02) (10, 4.64404106140136718750e+00) (11, 1.88437032699584960938e+00) (12, 1.88449472188949584961e-02) (0, 3.70282717049121856689e-02) (1, 1.84064675122499465942e-02) (2, 3.63378152251243591309e-02) (3, 1.27294465899467468262e-01) (4, 5.17092570662498474121e-02) (5, -8.18790961056947708130e-03) (6, 5.85479848086833953857e-02) (7, 5.63166812062263488770e-02) (8, 6.16744831204414367676e-02) (9, 6.11124150454998016357e-02) (10, 6.97403669357299804688e+00) (11, 1.00799083709716796875e+00) (12, 2.77159690856933593750e-01) (0, 3.60961049795150756836e-01) (1, 1.94675892591476440430e-01) (2, 2.28269070386886596680e-01) (3, 2.53153055906295776367e-01) (4, 2.48697474598884582520e-01) (5, 1.93236023187637329102e-01) (6, 1.46690532565116882324e-01) (7, 1.50130420923233032227e-01) (8, 2.25532740354537963867e-01) (9, 2.01192751526832580566e-01) (10, -1.48784909397363662720e-02) (11, 4.23727846145629882812e+00) (12, 1.20239816606044769287e-01) (0, 2.92072385549545288086e-01) (1, 1.50886669754981994629e-01) (2, 1.74864724278450012207e-01) (3, 1.96101978421211242676e-01) (4, 1.79175034165382385254e-01) (5, 1.59101217985153198242e-01) (6, 8.78889933228492736816e-02) (7, 1.32840901613235473633e-01) (8, 1.67790368199348449707e-01) (9, 1.60098433494567871094e-01) (10, 1.93356466293334960938e+00) (11, 3.19055914878845214844e+00) (12, 9.03547368943691253662e-03) (0, 1.70940488576889038086e-01) (1, 1.36357843875885009766e-01) (2, 1.55676886439323425293e-01) (3, 1.59828796982765197754e-01) (4, 1.35409638285636901855e-01) (5, 1.26359015703201293945e-01) (6, 1.11250050365924835205e-01) (7, 1.08004450798034667969e-01) (8, 1.42512887716293334961e-01) (9, 1.69387221336364746094e-01) (10, 2.98999381065368652344e+00) (11, 3.04074025154113769531e+00) (12, 5.31706027686595916748e-03) (0, 1.28557577729225158691e-01) (1, 1.24876543879508972168e-01) (2, 1.13144524395465850830e-01) (3, 1.21223114430904388428e-01) (4, 9.53532084822654724121e-02) (5, 1.27967223525047302246e-01) (6, 1.00913859903812408447e-01) (7, 8.02220031619071960449e-02) (8, 1.28543794155120849609e-01) (9, 1.70332252979278564453e-01) (10, 3.99871492385864257812e+00) (11, 2.16204261779785156250e+00) (12, 1.11272245645523071289e-01) (0, 1.80045321583747863770e-01) (1, 8.70118439197540283203e-02) (2, 9.40843448042869567871e-02) (3, 1.16012148559093475342e-01) (4, 1.52599871158599853516e-01) (5, 1.75528481602668762207e-01) (6, 7.55409300327301025391e-02) (7, 7.67406523227691650391e-02) (8, 1.30470097064971923828e-01) (9, 1.36596232652664184570e-01) (10, 3.85973072052001953125e+00) (11, 2.53493237495422363281e+00) (12, -2.73553401231765747070e-01) (0, 5.36784708499908447266e-01) (1, 3.05911540985107421875e-01) (2, 3.14093410968780517578e-01) (3, 3.39525431394577026367e-01) (4, 3.35165441036224365234e-01) (5, 3.43595325946807861328e-01) (6, 2.50639289617538452148e-01) (7, 2.52367049455642700195e-01) (8, 3.66585880517959594727e-01) (9, 3.34437638521194458008e-01) (10, -5.04302263259887695312e+00) (11, 6.44483470916748046875e+00) (12, -3.09516359120607376099e-02) (0, 1.44050031900405883789e-01) (1, 1.05368457734584808350e-01) (2, 1.38365983963012695312e-01) (3, 1.65030866861343383789e-01) (4, 7.78911411762237548828e-02) (5, 5.83241097629070281982e-02) (6, 4.60092835128307342529e-02) (7, 9.47341322898864746094e-02) (8, 1.23383663594722747803e-01) (9, 8.99877250194549560547e-02) (10, 4.66867828369140625000e+00) (11, 1.92267525196075439453e+00) (12, 1.12393446266651153564e-01) (0, 4.42462056875228881836e-01) (1, 2.65221893787384033203e-01) (2, 3.01664084196090698242e-01) (3, 3.65823298692703247070e-01) (4, 2.95249462127685546875e-01) (5, 2.82114654779434204102e-01) (6, 2.31025144457817077637e-01) (7, 2.35343202948570251465e-01) (8, 2.60146975517272949219e-01) (9, 2.73210465908050537109e-01) (10, -3.30901026725769042969e+00) (11, 5.62201261520385742188e+00) (12, 2.89180010557174682617e-01) (0, 2.76920497417449951172e-01) (1, 2.27867454290390014648e-01) (2, 2.40100935101509094238e-01) (3, 2.83633232116699218750e-01) (4, 2.21716240048408508301e-01) (5, 1.64421677589416503906e-01) (6, 1.70607611536979675293e-01) (7, 1.83184698224067687988e-01) (8, 2.36782804131507873535e-01) (9, 1.82732105255126953125e-01) (10, -1.59300222992897033691e-01) (11, 3.99225449562072753906e+00) (12, 2.28692159056663513184e-01) (0, 3.66270899772644042969e-01) (1, 2.37469702959060668945e-01) (2, 2.18268260359764099121e-01) (3, 2.35870599746704101562e-01) (4, 2.78709620237350463867e-01) (5, 2.36071124672889709473e-01) (6, 1.80919155478477478027e-01) (7, 1.90626278519630432129e-01) (8, 2.80770748853683471680e-01) (9, 2.16410025954246520996e-01) (10, -1.22563755512237548828e+00) (11, 4.46209716796875000000e+00) (12, -4.43543046712875366211e-02) (0, 2.68529981374740600586e-01) (1, 1.77213042974472045898e-01) (2, 1.86890810728073120117e-01) (3, 2.59053230285644531250e-01) (4, 1.86026066541671752930e-01) (5, 1.79825454950332641602e-01) (6, 1.96050241589546203613e-01) (7, 2.34615191817283630371e-01) (8, 2.83076733350753784180e-01) (9, 2.07473322749137878418e-01) (10, -2.57004380226135253906e-01) (11, 4.16119146347045898438e+00) (12, 4.84140187501907348633e-01) (0, 5.36909162998199462891e-01) (1, 2.69466012716293334961e-01) (2, 3.15995931625366210938e-01) (3, 3.20447057485580444336e-01) (4, 3.43844413757324218750e-01) (5, 3.29540491104125976562e-01) (6, 2.48964011669158935547e-01) (7, 2.47387096285820007324e-01) (8, 3.39255303144454956055e-01) (9, 3.03171902894973754883e-01) (10, -4.52278900146484375000e+00) (11, 6.30946969985961914062e+00) (12, -9.21472683548927307129e-02) (0, 4.26322847604751586914e-01) (1, 2.56616473197937011719e-01) (2, 2.49647915363311767578e-01) (3, 2.55279034376144409180e-01) (4, 2.83735156059265136719e-01) (5, 2.88732349872589111328e-01) (6, 1.73430413007736206055e-01) (7, 1.62729546427726745605e-01) (8, 2.62888073921203613281e-01) (9, 2.45959505438804626465e-01) (10, -1.97632849216461181641e+00) (11, 4.87371587753295898438e+00) (12, -3.10906410217285156250e-01) (0, 9.91764515638351440430e-02) (1, 8.40684697031974792480e-02) (2, 4.55651469528675079346e-02) (3, 7.66191110014915466309e-02) (4, 1.16954304277896881104e-01) (5, 1.05177238583564758301e-02) (6, 3.81085947155952453613e-02) (7, -3.26373055577278137207e-02) (8, 5.07819317281246185303e-02) (9, 7.21300616860389709473e-02) (10, 6.66317272186279296875e+00) (11, 1.16779756546020507812e+00) (12, -4.68854829668998718262e-02) (0, 9.72892791032791137695e-02) (1, 4.33508232235908508301e-02) (2, 5.33070117235183715820e-02) (3, 2.21976265311241149902e-02) (4, 7.49386101961135864258e-02) (5, 6.10521920025348663330e-02) (6, 3.55323068797588348389e-02) (7, 6.81288214400410652161e-03) (8, 2.91546303778886795044e-02) (9, 3.08273602277040481567e-02) (10, 7.19877719879150390625e+00) (11, 6.53253674507141113281e-01) (12, -1.65311753749847412109e-01) (0, 4.02957230806350708008e-01) (1, 1.64460197091102600098e-01) (2, 1.95970311760902404785e-01) (3, 2.22506195306777954102e-01) (4, 2.62950927019119262695e-01) (5, 2.05893352627754211426e-01) (6, 1.35395735502243041992e-01) (7, 1.47906035184860229492e-01) (8, 2.25820407271385192871e-01) (9, 2.45332956314086914062e-01) (10, -1.33748039603233337402e-01) (11, 4.17072248458862304688e+00) (12, -1.86262622475624084473e-01) (0, -9.60856154561042785645e-02) (1, -7.99731537699699401855e-02) (2, -1.21852859854698181152e-01) (3, -1.23897746205329895020e-01) (4, -1.00628562271595001221e-01) (5, -5.42775392532348632812e-02) (6, -6.37532398104667663574e-02) (7, -1.05797588825225830078e-01) (8, -5.44988401234149932861e-02) (9, -7.57704377174377441406e-02) (10, 1.27142972946166992188e+01) (11, -1.30924987792968750000e+00) (12, -3.30787509679794311523e-01) (0, 5.20909070968627929688e-01) (1, 3.24219912290573120117e-01) (2, 3.75567197799682617188e-01) (3, 4.32217717170715332031e-01) (4, 4.21899586915969848633e-01) (5, 3.80843371152877807617e-01) (6, 2.94965535402297973633e-01) (7, 2.71769881248474121094e-01) (8, 4.26027089357376098633e-01) (9, 3.70845139026641845703e-01) (10, -7.25779676437377929688e+00) (11, 7.07745838165283203125e+00) (12, 5.26006519794464111328e-02) (0, 3.16458553075790405273e-01) (1, 1.36918962001800537109e-01) (2, 1.77304372191429138184e-01) (3, 1.47473052144050598145e-01) (4, 1.38959497213363647461e-01) (5, 2.22498208284378051758e-01) (6, 1.11570075154304504395e-01) (7, 1.16081386804580688477e-01) (8, 1.40700072050094604492e-01) (9, 1.78710877895355224609e-01) (10, 2.03325986862182617188e+00) (11, 3.15180706977844238281e+00) (12, -1.57124817371368408203e-01) (0, 3.03663492202758789062e-01) (1, 1.82690575718879699707e-01) (2, 1.94342628121376037598e-01) (3, 2.15108484029769897461e-01) (4, 1.99095308780670166016e-01) (5, 1.98711544275283813477e-01) (6, 1.50686845183372497559e-01) (7, 1.56433045864105224609e-01) (8, 2.08545640110969543457e-01) (9, 2.00505882501602172852e-01) (10, -6.39240789413452148438e+00) (11, 3.77705454826354980469e+00) (12, 1.60467382520437240601e-02) (0, 1.68882384896278381348e-01) (1, 1.01926140487194061279e-01) (2, 1.08429603278636932373e-01) (3, 1.20158649981021881104e-01) (4, 1.11119143664836883545e-01) (5, 1.10601268708705902100e-01) (6, 8.38988795876502990723e-02) (7, 8.72886255383491516113e-02) (8, 1.16454817354679107666e-01) (9, 1.11634224653244018555e-01) (10, 1.31965100765228271484e+00) (11, 2.10191011428833007812e+00) (12, 1.06416065245866775513e-02) (0, 4.06495988368988037109e-01) (1, 2.41866052150726318359e-01) (2, 2.65956193208694458008e-01) (3, 2.82511681318283081055e-01) (4, 2.72447526454925537109e-01) (5, 2.86181032657623291016e-01) (6, 1.98838084936141967773e-01) (7, 2.03146651387214660645e-01) (8, 2.82746642827987670898e-01) (9, 2.67824828624725341797e-01) (10, 5.39238595962524414062e+00) (11, 5.11472129821777343750e+00) (12, -5.25246858596801757812e-02) (0, 2.68760472536087036133e-01) (1, 1.79512262344360351562e-01) (2, 1.20509661734104156494e-01) (3, 2.10229784250259399414e-01) (4, 1.20657198131084442139e-01) (5, 6.06009783223271369934e-03) (6, 1.50924623012542724609e-01) (7, 1.92402988672256469727e-01) (8, 1.49165645241737365723e-01) (9, 1.69025465846061706543e-01) (10, 3.62671113014221191406e+00) (11, 2.67825484275817871094e+00) (12, 6.10544741153717041016e-01) (0, 1.18833221495151519775e-01) (1, 7.60714858770370483398e-02) (2, 1.05038546025753021240e-01) (3, 5.63249997794628143311e-02) (4, 5.43803796172142028809e-02) (5, 7.59466290473937988281e-02) (6, 3.23350802063941955566e-02) (7, -3.43742780387401580811e-03) (8, 1.11577019095420837402e-01) (9, 5.02001754939556121826e-02) (10, 5.94000816345214843750e+00) (11, 1.55343902111053466797e+00) (12, -7.53329470753669738770e-02) (0, 5.73920071125030517578e-01) (1, 3.85311096906661987305e-01) (2, 3.96988034248352050781e-01) (3, 4.34186726808547973633e-01) (4, 3.73255968093872070312e-01) (5, 3.78574281930923461914e-01) (6, 2.80753791332244873047e-01) (7, 3.23212325572967529297e-01) (8, 3.78268420696258544922e-01) (9, 4.07691955566406250000e-01) (10, -7.54132843017578125000e+00) (11, 7.28137397766113281250e+00) (12, -2.32161283493041992188e-02) (0, 4.28948432207107543945e-01) (1, 2.32928186655044555664e-01) (2, 2.39379823207855224609e-01) (3, 2.92409479618072509766e-01) (4, 2.66664355993270874023e-01) (5, 2.69918084144592285156e-01) (6, 2.27180913090705871582e-01) (7, 1.71955361962318420410e-01) (8, 2.70143955945968627930e-01) (9, 2.91366994380950927734e-01) (10, -2.19163465499877929688e+00) (11, 5.10893249511718750000e+00) (12, -3.37657891213893890381e-02) (0, 6.49888634681701660156e-01) (1, 3.82122367620468139648e-01) (2, 4.19842571020126342773e-01) (3, 4.41184759140014648438e-01) (4, 4.27941143512725830078e-01) (5, 4.57484006881713867188e-01) (6, 2.98734605312347412109e-01) (7, 3.00060153007507324219e-01) (8, 4.72715973854064941406e-01) (9, 4.18420642614364624023e-01) (10, -8.85389709472656250000e+00) (11, 8.23264789581298828125e+00) (12, -1.43029615283012390137e-01) (0, 3.96396331489086151123e-02) (1, 4.44067716598510742188e-02) (2, 6.09216988086700439453e-02) (3, 6.34645596146583557129e-02) (4, 4.10488098859786987305e-02) (5, 3.24817411601543426514e-02) (6, 5.16818612813949584961e-02) (7, 3.44548411667346954346e-02) (8, 5.68285845220088958740e-02) (9, 1.13142374902963638306e-02) (10, 7.00359010696411132812e+00) (11, 8.89412641525268554688e-01) (12, -3.34471883252263069153e-03) (0, 4.81034904718399047852e-01) (1, 2.38752231001853942871e-01) (2, 2.83096373081207275391e-01) (3, 3.33803504705429077148e-01) (4, 3.06976675987243652344e-01) (5, 2.91521877050399780273e-01) (6, 2.20637872815132141113e-01) (7, 2.52042144536972045898e-01) (8, 3.12988758087158203125e-01) (9, 3.15480530261993408203e-01) (10, -3.53408789634704589844e+00) (11, 5.87473440170288085938e+00) (12, -8.38575128000229597092e-04) (0, 7.64849558472633361816e-02) (1, 4.67207133769989013672e-02) (2, 4.98584359884262084961e-02) (3, 5.61152920126914978027e-02) (4, 5.09178936481475830078e-02) (5, 5.00724874436855316162e-02) (6, 3.89739759266376495361e-02) (7, 4.11100126802921295166e-02) (8, 5.33689185976982116699e-02) (9, 5.12754172086715698242e-02) (10, 5.85190296173095703125e+00) (11, 9.63807761669158935547e-01) (12, 9.67782922089099884033e-03) (0, 1.39039354398846626282e-02) (1, 9.63174737989902496338e-03) (2, 1.09109729528427124023e-02) (3, 1.32724540308117866516e-02) (4, 9.96432639658451080322e-03) (5, 9.04953945428133010864e-03) (6, 8.15943442285060882568e-03) (7, 9.83626116067171096802e-03) (8, 1.15782078355550765991e-02) (9, 1.06059126555919647217e-02) (10, 1.54906404018402099609e+00) (11, 2.01268687844276428223e-01) (12, 1.14336637780070304871e-02) (0, 9.03397977352142333984e-01) (1, 5.39183020591735839844e-01) (2, 5.76220333576202392578e-01) (3, 6.34502708911895751953e-01) (4, 5.91733098030090332031e-01) (5, 5.92833936214447021484e-01) (6, 4.47446465492248535156e-01) (7, 4.60209727287292480469e-01) (8, 6.16326272487640380859e-01) (9, 5.94445943832397460938e-01) (10, -6.88016700744628906250e+00) (11, 1.11957635879516601562e+01) (12, 2.06143762916326522827e-02) (0, 3.11285287141799926758e-01) (1, 1.81530311703681945801e-01) (2, 1.69662222266197204590e-01) (3, 2.20273196697235107422e-01) (4, 2.05547153949737548828e-01) (5, 1.81889250874519348145e-01) (6, 1.49959966540336608887e-01) (7, 1.63551628589630126953e-01) (8, 1.96582525968551635742e-01) (9, 1.93286806344985961914e-01) (10, 3.45453286170959472656e+00) (11, 3.63724756240844726562e+00) (12, 3.77456694841384887695e-02) (0, 1.72068446874618530273e-01) (1, 6.67663142085075378418e-02) (2, 1.44693911075592041016e-01) (3, 8.69329869747161865234e-02) (4, 7.45485350489616394043e-02) (5, 1.63431778550148010254e-01) (6, 8.16385000944137573242e-02) (7, 4.09430749714374542236e-02) (8, 1.08180411159992218018e-01) (9, 1.08950965106487274170e-01) (10, 5.78258275985717773438e+00) (11, 2.08214211463928222656e+00) (12, -8.52391198277473449707e-02) (0, 4.98272478580474853516e-02) (1, 3.66953052580356597900e-02) (2, 9.01617705821990966797e-02) (3, 3.30702960491180419922e-02) (4, 6.56923139467835426331e-03) (5, 3.52803505957126617432e-02) (6, 2.42824070155620574951e-02) (7, -5.75161213055253028870e-03) (8, 8.19582119584083557129e-02) (9, 6.37686699628829956055e-02) (10, 9.68417167663574218750e+00) (11, 9.90822315216064453125e-01) (12, 3.16975434543564915657e-04) (0, 1.13248050212860107422e-01) (1, 9.85185131430625915527e-02) (2, 1.24335415661334991455e-01) (3, 1.06198929250240325928e-01) (4, 7.37916603684425354004e-02) (5, 7.46108666062355041504e-02) (6, 6.73906952142715454102e-02) (7, 6.95725902915000915527e-02) (8, 1.30912005901336669922e-01) (9, 1.15927286446094512939e-01) (10, 6.90337991714477539062e+00) (11, 1.95954775810241699219e+00) (12, 5.83971329033374786377e-02) (0, 5.19477427005767822266e-01) (1, 2.39611104130744934082e-01) (2, 2.76150137186050415039e-01) (3, 3.14073413610458374023e-01) (4, 2.93204516172409057617e-01) (5, 3.11544716358184814453e-01) (6, 2.59995520114898681641e-01) (7, 2.12523251771926879883e-01) (8, 2.39367321133613586426e-01) (9, 3.01592051982879638672e-01) (10, -2.48929786682128906250e+00) (11, 5.42511510848999023438e+00) (12, 1.21227212250232696533e-01) (0, 3.22845101356506347656e-01) (1, 1.38523310422897338867e-01) (2, 2.28882476687431335449e-01) (3, 2.05804154276847839355e-01) (4, 1.33281901478767395020e-01) (5, 2.11420223116874694824e-01) (6, 1.57095998525619506836e-01) (7, 1.05450779199600219727e-01) (8, 2.03404515981674194336e-01) (9, 2.22508236765861511230e-01) (10, -3.02224254608154296875e+00) (11, 3.76421952247619628906e+00) (12, 7.83778876066207885742e-02) 
