FANN_FLO_2.1
num_layers=302
learning_rate=0.700000
connection_rate=1.000000
network_type=1
learning_momentum=0.000000
training_algorithm=2
train_error_function=0
train_stop_function=0
cascade_output_change_fraction=0.010000
quickprop_decay=-0.000100
quickprop_mu=1.750000
rprop_increase_factor=1.200000
rprop_decrease_factor=0.500000
rprop_delta_min=0.000000
rprop_delta_max=50.000000
rprop_delta_zero=0.100000
cascade_output_stagnation_epochs=12
cascade_candidate_change_fraction=0.010000
cascade_candidate_stagnation_epochs=12
cascade_max_out_epochs=150
cascade_max_cand_epochs=1000
cascade_num_candidate_groups=8
bit_fail_limit=8.99999976158142089844e-01
cascade_candidate_limit=1.00000000000000000000e+03
cascade_weight_multiplier=4.00000005960464477539e-01
cascade_activation_functions_count=1
cascade_activation_functions=5 
cascade_activation_steepnesses_count=1
cascade_activation_steepnesses=1.00000000000000000000e+00 
layer_sizes=11 1 1 1 1 1 1 1 1 1 1 1 1 1 1 1 1 1 1 1 1 1 1 1 1 1 1 1 1 1 1 1 1 1 1 1 1 1 1 1 1 1 1 1 1 1 1 1 1 1 1 1 1 1 1 1 1 1 1 1 1 1 1 1 1 1 1 1 1 1 1 1 1 1 1 1 1 1 1 1 1 1 1 1 1 1 1 1 1 1 1 1 1 1 1 1 1 1 1 1 1 1 1 1 1 1 1 1 1 1 1 1 1 1 1 1 1 1 1 1 1 1 1 1 1 1 1 1 1 1 1 1 1 1 1 1 1 1 1 1 1 1 1 1 1 1 1 1 1 1 1 1 1 1 1 1 1 1 1 1 1 1 1 1 1 1 1 1 1 1 1 1 1 1 1 1 1 1 1 1 1 1 1 1 1 1 1 1 1 1 1 1 1 1 1 1 1 1 1 1 1 1 1 1 1 1 1 1 1 1 1 1 1 1 1 1 1 1 1 1 1 1 1 1 1 1 1 1 1 1 1 1 1 1 1 1 1 1 1 1 1 1 1 1 1 1 1 1 1 1 1 1 1 1 1 1 1 1 1 1 1 1 1 1 1 1 1 1 1 1 1 1 1 1 1 1 1 1 1 1 1 1 1 1 1 1 1 1 1 1 1 1 1 1 1 1 1 1 1 1 1 156 
scale_included=0
neurons (num_inputs, activation_function, activation_steepness)=(0, 0, 0.00000000000000000000e+00) (0, 0, 0.00000000000000000000e+00) (0, 0, 0.00000000000000000000e+00) (0, 0, 0.00000000000000000000e+00) (0, 0, 0.00000000000000000000e+00) (0, 0, 0.00000000000000000000e+00) (0, 0, 0.00000000000000000000e+00) (0, 0, 0.00000000000000000000e+00) (0, 0, 0.00000000000000000000e+00) (0, 0, 0.00000000000000000000e+00) (0, 0, 0.00000000000000000000e+00) (11, 5, 1.00000000000000000000e+00) (12, 5, 1.00000000000000000000e+00) (13, 5, 1.00000000000000000000e+00) (14, 5, 1.00000000000000000000e+00) (15, 5, 1.00000000000000000000e+00) (16, 5, 1.00000000000000000000e+00) (17, 5, 1.00000000000000000000e+00) (18, 5, 1.00000000000000000000e+00) (19, 5, 1.00000000000000000000e+00) (20, 5, 1.00000000000000000000e+00) (21, 5, 1.00000000000000000000e+00) (22, 5, 1.00000000000000000000e+00) (23, 5, 1.00000000000000000000e+00) (24, 5, 1.00000000000000000000e+00) (25, 5, 1.00000000000000000000e+00) (26, 5, 1.00000000000000000000e+00) (27, 5, 1.00000000000000000000e+00) (28, 5, 1.00000000000000000000e+00) (29, 5, 1.00000000000000000000e+00) (30, 5, 1.00000000000000000000e+00) (31, 5, 1.00000000000000000000e+00) (32, 5, 1.00000000000000000000e+00) (33, 5, 1.00000000000000000000e+00) (34, 5, 1.00000000000000000000e+00) (35, 5, 1.00000000000000000000e+00) (36, 5, 1.00000000000000000000e+00) (37, 5, 1.00000000000000000000e+00) (38, 5, 1.00000000000000000000e+00) (39, 5, 1.00000000000000000000e+00) (40, 5, 1.00000000000000000000e+00) (41, 5, 1.00000000000000000000e+00) (42, 5, 1.00000000000000000000e+00) (43, 5, 1.00000000000000000000e+00) (44, 5, 1.00000000000000000000e+00) (45, 5, 1.00000000000000000000e+00) (46, 5, 1.00000000000000000000e+00) (47, 5, 1.00000000000000000000e+00) (48, 5, 1.00000000000000000000e+00) (49, 5, 1.00000000000000000000e+00) (50, 5, 1.00000000000000000000e+00) (51, 5, 1.00000000000000000000e+00) (52, 5, 1.00000000000000000000e+00) (53, 5, 1.00000000000000000000e+00) (54, 5, 1.00000000000000000000e+00) (55, 5, 1.00000000000000000000e+00) (56, 5, 1.00000000000000000000e+00) (57, 5, 1.00000000000000000000e+00) (58, 5, 1.00000000000000000000e+00) (59, 5, 1.00000000000000000000e+00) (60, 5, 1.00000000000000000000e+00) (61, 5, 1.00000000000000000000e+00) (62, 5, 1.00000000000000000000e+00) (63, 5, 1.00000000000000000000e+00) (64, 5, 1.00000000000000000000e+00) (65, 5, 1.00000000000000000000e+00) (66, 5, 1.00000000000000000000e+00) (67, 5, 1.00000000000000000000e+00) (68, 5, 1.00000000000000000000e+00) (69, 5, 1.00000000000000000000e+00) (70, 5, 1.00000000000000000000e+00) (71, 5, 1.00000000000000000000e+00) (72, 5, 1.00000000000000000000e+00) (73, 5, 1.00000000000000000000e+00) (74, 5, 1.00000000000000000000e+00) (75, 5, 1.00000000000000000000e+00) (76, 5, 1.00000000000000000000e+00) (77, 5, 1.00000000000000000000e+00) (78, 5, 1.00000000000000000000e+00) (79, 5, 1.00000000000000000000e+00) (80, 5, 1.00000000000000000000e+00) (81, 5, 1.00000000000000000000e+00) (82, 5, 1.00000000000000000000e+00) (83, 5, 1.00000000000000000000e+00) (84, 5, 1.00000000000000000000e+00) (85, 5, 1.00000000000000000000e+00) (86, 5, 1.00000000000000000000e+00) (87, 5, 1.00000000000000000000e+00) (88, 5, 1.00000000000000000000e+00) (89, 5, 1.00000000000000000000e+00) (90, 5, 1.00000000000000000000e+00) (91, 5, 1.00000000000000000000e+00) (92, 5, 1.00000000000000000000e+00) (93, 5, 1.00000000000000000000e+00) (94, 5, 1.00000000000000000000e+00) (95, 5, 1.00000000000000000000e+00) (96, 5, 1.00000000000000000000e+00) (97, 5, 1.00000000000000000000e+00) (98, 5, 1.00000000000000000000e+00) (99, 5, 1.00000000000000000000e+00) (100, 5, 1.00000000000000000000e+00) (101, 5, 1.00000000000000000000e+00) (102, 5, 1.00000000000000000000e+00) (103, 5, 1.00000000000000000000e+00) (104, 5, 1.00000000000000000000e+00) (105, 5, 1.00000000000000000000e+00) (106, 5, 1.00000000000000000000e+00) (107, 5, 1.00000000000000000000e+00) (108, 5, 1.00000000000000000000e+00) (109, 5, 1.00000000000000000000e+00) (110, 5, 1.00000000000000000000e+00) (111, 5, 1.00000000000000000000e+00) (112, 5, 1.00000000000000000000e+00) (113, 5, 1.00000000000000000000e+00) (114, 5, 1.00000000000000000000e+00) (115, 5, 1.00000000000000000000e+00) (116, 5, 1.00000000000000000000e+00) (117, 5, 1.00000000000000000000e+00) (118, 5, 1.00000000000000000000e+00) (119, 5, 1.00000000000000000000e+00) (120, 5, 1.00000000000000000000e+00) (121, 5, 1.00000000000000000000e+00) (122, 5, 1.00000000000000000000e+00) (123, 5, 1.00000000000000000000e+00) (124, 5, 1.00000000000000000000e+00) (125, 5, 1.00000000000000000000e+00) (126, 5, 1.00000000000000000000e+00) (127, 5, 1.00000000000000000000e+00) (128, 5, 1.00000000000000000000e+00) (129, 5, 1.00000000000000000000e+00) (130, 5, 1.00000000000000000000e+00) (131, 5, 1.00000000000000000000e+00) (132, 5, 1.00000000000000000000e+00) (133, 5, 1.00000000000000000000e+00) (134, 5, 1.00000000000000000000e+00) (135, 5, 1.00000000000000000000e+00) (136, 5, 1.00000000000000000000e+00) (137, 5, 1.00000000000000000000e+00) (138, 5, 1.00000000000000000000e+00) (139, 5, 1.00000000000000000000e+00) (140, 5, 1.00000000000000000000e+00) (141, 5, 1.00000000000000000000e+00) (142, 5, 1.00000000000000000000e+00) (143, 5, 1.00000000000000000000e+00) (144, 5, 1.00000000000000000000e+00) (145, 5, 1.00000000000000000000e+00) (146, 5, 1.00000000000000000000e+00) (147, 5, 1.00000000000000000000e+00) (148, 5, 1.00000000000000000000e+00) (149, 5, 1.00000000000000000000e+00) (150, 5, 1.00000000000000000000e+00) (151, 5, 1.00000000000000000000e+00) (152, 5, 1.00000000000000000000e+00) (153, 5, 1.00000000000000000000e+00) (154, 5, 1.00000000000000000000e+00) (155, 5, 1.00000000000000000000e+00) (156, 5, 1.00000000000000000000e+00) (157, 5, 1.00000000000000000000e+00) (158, 5, 1.00000000000000000000e+00) (159, 5, 1.00000000000000000000e+00) (160, 5, 1.00000000000000000000e+00) (161, 5, 1.00000000000000000000e+00) (162, 5, 1.00000000000000000000e+00) (163, 5, 1.00000000000000000000e+00) (164, 5, 1.00000000000000000000e+00) (165, 5, 1.00000000000000000000e+00) (166, 5, 1.00000000000000000000e+00) (167, 5, 1.00000000000000000000e+00) (168, 5, 1.00000000000000000000e+00) (169, 5, 1.00000000000000000000e+00) (170, 5, 1.00000000000000000000e+00) (171, 5, 1.00000000000000000000e+00) (172, 5, 1.00000000000000000000e+00) (173, 5, 1.00000000000000000000e+00) (174, 5, 1.00000000000000000000e+00) (175, 5, 1.00000000000000000000e+00) (176, 5, 1.00000000000000000000e+00) (177, 5, 1.00000000000000000000e+00) (178, 5, 1.00000000000000000000e+00) (179, 5, 1.00000000000000000000e+00) (180, 5, 1.00000000000000000000e+00) (181, 5, 1.00000000000000000000e+00) (182, 5, 1.00000000000000000000e+00) (183, 5, 1.00000000000000000000e+00) (184, 5, 1.00000000000000000000e+00) (185, 5, 1.00000000000000000000e+00) (186, 5, 1.00000000000000000000e+00) (187, 5, 1.00000000000000000000e+00) (188, 5, 1.00000000000000000000e+00) (189, 5, 1.00000000000000000000e+00) (190, 5, 1.00000000000000000000e+00) (191, 5, 1.00000000000000000000e+00) (192, 5, 1.00000000000000000000e+00) (193, 5, 1.00000000000000000000e+00) (194, 5, 1.00000000000000000000e+00) (195, 5, 1.00000000000000000000e+00) (196, 5, 1.00000000000000000000e+00) (197, 5, 1.00000000000000000000e+00) (198, 5, 1.00000000000000000000e+00) (199, 5, 1.00000000000000000000e+00) (200, 5, 1.00000000000000000000e+00) (201, 5, 1.00000000000000000000e+00) (202, 5, 1.00000000000000000000e+00) (203, 5, 1.00000000000000000000e+00) (204, 5, 1.00000000000000000000e+00) (205, 5, 1.00000000000000000000e+00) (206, 5, 1.00000000000000000000e+00) (207, 5, 1.00000000000000000000e+00) (208, 5, 1.00000000000000000000e+00) (209, 5, 1.00000000000000000000e+00) (210, 5, 1.00000000000000000000e+00) (211, 5, 1.00000000000000000000e+00) (212, 5, 1.00000000000000000000e+00) (213, 5, 1.00000000000000000000e+00) (214, 5, 1.00000000000000000000e+00) (215, 5, 1.00000000000000000000e+00) (216, 5, 1.00000000000000000000e+00) (217, 5, 1.00000000000000000000e+00) (218, 5, 1.00000000000000000000e+00) (219, 5, 1.00000000000000000000e+00) (220, 5, 1.00000000000000000000e+00) (221, 5, 1.00000000000000000000e+00) (222, 5, 1.00000000000000000000e+00) (223, 5, 1.00000000000000000000e+00) (224, 5, 1.00000000000000000000e+00) (225, 5, 1.00000000000000000000e+00) (226, 5, 1.00000000000000000000e+00) (227, 5, 1.00000000000000000000e+00) (228, 5, 1.00000000000000000000e+00) (229, 5, 1.00000000000000000000e+00) (230, 5, 1.00000000000000000000e+00) (231, 5, 1.00000000000000000000e+00) (232, 5, 1.00000000000000000000e+00) (233, 5, 1.00000000000000000000e+00) (234, 5, 1.00000000000000000000e+00) (235, 5, 1.00000000000000000000e+00) (236, 5, 1.00000000000000000000e+00) (237, 5, 1.00000000000000000000e+00) (238, 5, 1.00000000000000000000e+00) (239, 5, 1.00000000000000000000e+00) (240, 5, 1.00000000000000000000e+00) (241, 5, 1.00000000000000000000e+00) (242, 5, 1.00000000000000000000e+00) (243, 5, 1.00000000000000000000e+00) (244, 5, 1.00000000000000000000e+00) (245, 5, 1.00000000000000000000e+00) (246, 5, 1.00000000000000000000e+00) (247, 5, 1.00000000000000000000e+00) (248, 5, 1.00000000000000000000e+00) (249, 5, 1.00000000000000000000e+00) (250, 5, 1.00000000000000000000e+00) (251, 5, 1.00000000000000000000e+00) (252, 5, 1.00000000000000000000e+00) (253, 5, 1.00000000000000000000e+00) (254, 5, 1.00000000000000000000e+00) (255, 5, 1.00000000000000000000e+00) (256, 5, 1.00000000000000000000e+00) (257, 5, 1.00000000000000000000e+00) (258, 5, 1.00000000000000000000e+00) (259, 5, 1.00000000000000000000e+00) (260, 5, 1.00000000000000000000e+00) (261, 5, 1.00000000000000000000e+00) (262, 5, 1.00000000000000000000e+00) (263, 5, 1.00000000000000000000e+00) (264, 5, 1.00000000000000000000e+00) (265, 5, 1.00000000000000000000e+00) (266, 5, 1.00000000000000000000e+00) (267, 5, 1.00000000000000000000e+00) (268, 5, 1.00000000000000000000e+00) (269, 5, 1.00000000000000000000e+00) (270, 5, 1.00000000000000000000e+00) (271, 5, 1.00000000000000000000e+00) (272, 5, 1.00000000000000000000e+00) (273, 5, 1.00000000000000000000e+00) (274, 5, 1.00000000000000000000e+00) (275, 5, 1.00000000000000000000e+00) (276, 5, 1.00000000000000000000e+00) (277, 5, 1.00000000000000000000e+00) (278, 5, 1.00000000000000000000e+00) (279, 5, 1.00000000000000000000e+00) (280, 5, 1.00000000000000000000e+00) (281, 5, 1.00000000000000000000e+00) (282, 5, 1.00000000000000000000e+00) (283, 5, 1.00000000000000000000e+00) (284, 5, 1.00000000000000000000e+00) (285, 5, 1.00000000000000000000e+00) (286, 5, 1.00000000000000000000e+00) (287, 5, 1.00000000000000000000e+00) (288, 5, 1.00000000000000000000e+00) (289, 5, 1.00000000000000000000e+00) (290, 5, 1.00000000000000000000e+00) (291, 5, 1.00000000000000000000e+00) (292, 5, 1.00000000000000000000e+00) (293, 5, 1.00000000000000000000e+00) (294, 5, 1.00000000000000000000e+00) (295, 5, 1.00000000000000000000e+00) (296, 5, 1.00000000000000000000e+00) (297, 5, 1.00000000000000000000e+00) (298, 5, 1.00000000000000000000e+00) (299, 5, 1.00000000000000000000e+00) (300, 5, 1.00000000000000000000e+00) (301, 5, 1.00000000000000000000e+00) (302, 5, 1.00000000000000000000e+00) (303, 5, 1.00000000000000000000e+00) (304, 5, 1.00000000000000000000e+00) (305, 5, 1.00000000000000000000e+00) (306, 5, 1.00000000000000000000e+00) (307, 5, 1.00000000000000000000e+00) (308, 5, 1.00000000000000000000e+00) (309, 5, 1.00000000000000000000e+00) (310, 5, 1.00000000000000000000e+00) (311, 0, 5.00000000000000000000e-01) (311, 0, 5.00000000000000000000e-01) (311, 0, 5.00000000000000000000e-01) (311, 0, 5.00000000000000000000e-01) (311, 0, 5.00000000000000000000e-01) (311, 0, 5.00000000000000000000e-01) (311, 0, 5.00000000000000000000e-01) (311, 0, 5.00000000000000000000e-01) (311, 0, 5.00000000000000000000e-01) (311, 0, 5.00000000000000000000e-01) (311, 0, 5.00000000000000000000e-01) (311, 0, 5.00000000000000000000e-01) (311, 0, 5.00000000000000000000e-01) (311, 0, 5.00000000000000000000e-01) (311, 0, 5.00000000000000000000e-01) (311, 0, 5.00000000000000000000e-01) (311, 0, 5.00000000000000000000e-01) (311, 0, 5.00000000000000000000e-01) (311, 0, 5.00000000000000000000e-01) (311, 0, 5.00000000000000000000e-01) (311, 0, 5.00000000000000000000e-01) (311, 0, 5.00000000000000000000e-01) (311, 0, 5.00000000000000000000e-01) (311, 0, 5.00000000000000000000e-01) (311, 0, 5.00000000000000000000e-01) (311, 0, 5.00000000000000000000e-01) (311, 0, 5.00000000000000000000e-01) (311, 0, 5.00000000000000000000e-01) (311, 0, 5.00000000000000000000e-01) (311, 0, 5.00000000000000000000e-01) (311, 0, 5.00000000000000000000e-01) (311, 0, 5.00000000000000000000e-01) (311, 0, 5.00000000000000000000e-01) (311, 0, 5.00000000000000000000e-01) (311, 0, 5.00000000000000000000e-01) (311, 0, 5.00000000000000000000e-01) (311, 0, 5.00000000000000000000e-01) (311, 0, 5.00000000000000000000e-01) (311, 0, 5.00000000000000000000e-01) (311, 0, 5.00000000000000000000e-01) (311, 0, 5.00000000000000000000e-01) (311, 0, 5.00000000000000000000e-01) (311, 0, 5.00000000000000000000e-01) (311, 0, 5.00000000000000000000e-01) (311, 0, 5.00000000000000000000e-01) (311, 0, 5.00000000000000000000e-01) (311, 0, 5.00000000000000000000e-01) (311, 0, 5.00000000000000000000e-01) (311, 0, 5.00000000000000000000e-01) (311, 0, 5.00000000000000000000e-01) (311, 0, 5.00000000000000000000e-01) (311, 0, 5.00000000000000000000e-01) (311, 0, 5.00000000000000000000e-01) (311, 0, 5.00000000000000000000e-01) (311, 0, 5.00000000000000000000e-01) (311, 0, 5.00000000000000000000e-01) (311, 0, 5.00000000000000000000e-01) (311, 0, 5.00000000000000000000e-01) (311, 0, 5.00000000000000000000e-01) (311, 0, 5.00000000000000000000e-01) (311, 0, 5.00000000000000000000e-01) (311, 0, 5.00000000000000000000e-01) (311, 0, 5.00000000000000000000e-01) (311, 0, 5.00000000000000000000e-01) (311, 0, 5.00000000000000000000e-01) (311, 0, 5.00000000000000000000e-01) (311, 0, 5.00000000000000000000e-01) (311, 0, 5.00000000000000000000e-01) (311, 0, 5.00000000000000000000e-01) (311, 0, 5.00000000000000000000e-01) (311, 0, 5.00000000000000000000e-01) (311, 0, 5.00000000000000000000e-01) (311, 0, 5.00000000000000000000e-01) (311, 0, 5.00000000000000000000e-01) (311, 0, 5.00000000000000000000e-01) (311, 0, 5.00000000000000000000e-01) (311, 0, 5.00000000000000000000e-01) (311, 0, 5.00000000000000000000e-01) (311, 0, 5.00000000000000000000e-01) (311, 0, 5.00000000000000000000e-01) (311, 0, 5.00000000000000000000e-01) (311, 0, 5.00000000000000000000e-01) (311, 0, 5.00000000000000000000e-01) (311, 0, 5.00000000000000000000e-01) (311, 0, 5.00000000000000000000e-01) (311, 0, 5.00000000000000000000e-01) (311, 0, 5.00000000000000000000e-01) (311, 0, 5.00000000000000000000e-01) (311, 0, 5.00000000000000000000e-01) (311, 0, 5.00000000000000000000e-01) (311, 0, 5.00000000000000000000e-01) (311, 0, 5.00000000000000000000e-01) (311, 0, 5.00000000000000000000e-01) (311, 0, 5.00000000000000000000e-01) (311, 0, 5.00000000000000000000e-01) (311, 0, 5.00000000000000000000e-01) (311, 0, 5.00000000000000000000e-01) (311, 0, 5.00000000000000000000e-01) (311, 0, 5.00000000000000000000e-01) (311, 0, 5.00000000000000000000e-01) (311, 0, 5.00000000000000000000e-01) (311, 0, 5.00000000000000000000e-01) (311, 0, 5.00000000000000000000e-01) (311, 0, 5.00000000000000000000e-01) (311, 0, 5.00000000000000000000e-01) (311, 0, 5.00000000000000000000e-01) (311, 0, 5.00000000000000000000e-01) (311, 0, 5.00000000000000000000e-01) (311, 0, 5.00000000000000000000e-01) (311, 0, 5.00000000000000000000e-01) (311, 0, 5.00000000000000000000e-01) (311, 0, 5.00000000000000000000e-01) (311, 0, 5.00000000000000000000e-01) (311, 0, 5.00000000000000000000e-01) (311, 0, 5.00000000000000000000e-01) (311, 0, 5.00000000000000000000e-01) (311, 0, 5.00000000000000000000e-01) (311, 0, 5.00000000000000000000e-01) (311, 0, 5.00000000000000000000e-01) (311, 0, 5.00000000000000000000e-01) (311, 0, 5.00000000000000000000e-01) (311, 0, 5.00000000000000000000e-01) (311, 0, 5.00000000000000000000e-01) (311, 0, 5.00000000000000000000e-01) (311, 0, 5.00000000000000000000e-01) (311, 0, 5.00000000000000000000e-01) (311, 0, 5.00000000000000000000e-01) (311, 0, 5.00000000000000000000e-01) (311, 0, 5.00000000000000000000e-01) (311, 0, 5.00000000000000000000e-01) (311, 0, 5.00000000000000000000e-01) (311, 0, 5.00000000000000000000e-01) (311, 0, 5.00000000000000000000e-01) (311, 0, 5.00000000000000000000e-01) (311, 0, 5.00000000000000000000e-01) (311, 0, 5.00000000000000000000e-01) (311, 0, 5.00000000000000000000e-01) (311, 0, 5.00000000000000000000e-01) (311, 0, 5.00000000000000000000e-01) (311, 0, 5.00000000000000000000e-01) (311, 0, 5.00000000000000000000e-01) (311, 0, 5.00000000000000000000e-01) (311, 0, 5.00000000000000000000e-01) (311, 0, 5.00000000000000000000e-01) (311, 0, 5.00000000000000000000e-01) (311, 0, 5.00000000000000000000e-01) (311, 0, 5.00000000000000000000e-01) (311, 0, 5.00000000000000000000e-01) (311, 0, 5.00000000000000000000e-01) (311, 0, 5.00000000000000000000e-01) (311, 0, 5.00000000000000000000e-01) (311, 0, 5.00000000000000000000e-01) (311, 0, 5.00000000000000000000e-01) (311, 0, 5.00000000000000000000e-01) (311, 0, 5.00000000000000000000e-01) (311, 0, 5.00000000000000000000e-01) 
connections (connected_to_neuron, weight)=(0, -1.96552112698554992676e-01) (1, -1.00459024310111999512e-01) (2, -7.21075013279914855957e-02) (3, -8.85836109519004821777e-02) (4, -6.51053860783576965332e-02) (5, -8.11951979994773864746e-02) (6, -6.83118924498558044434e-02) (7, -9.23310145735740661621e-02) (8, -7.75085613131523132324e-02) (9, -4.90631051361560821533e-02) (10, 3.52373361587524414062e+00) (0, 4.80892032384872436523e-01) (1, -6.72680854797363281250e-01) (2, 2.15929627418518066406e-01) (3, 7.38642156124114990234e-01) (4, 5.10294973850250244141e-01) (5, 5.91297745704650878906e-01) (6, -3.21407794952392578125e-01) (7, -4.44530434906482696533e-02) (8, -6.64244294166564941406e-01) (9, 4.36391204595565795898e-01) (10, -2.31548929214477539062e+00) (11, -1.24132823944091796875e+00) (0, 7.00745701789855957031e-01) (1, -5.04661917686462402344e-01) (2, 7.74458646774291992188e-02) (3, 7.06128954887390136719e-01) (4, 2.35740810632705688477e-01) (5, 3.05611174553632736206e-02) (6, 7.06499442458152770996e-02) (7, -1.99215158820152282715e-01) (8, -5.91899096965789794922e-01) (9, 1.07165300846099853516e+00) (10, -1.59945201873779296875e+00) (11, 3.86500954627990722656e-01) (12, -2.02262210845947265625e+00) (0, -5.05748629570007324219e-01) (1, -1.84771902859210968018e-02) (2, -2.79437303543090820312e-02) (3, -3.48690420389175415039e-01) (4, 2.26680651307106018066e-01) (5, 3.12646716833114624023e-01) (6, 9.39544916152954101562e-01) (7, 5.39633810520172119141e-01) (8, -8.05246293544769287109e-01) (9, -4.72543030977249145508e-01) (10, 6.37195825576782226562e-01) (11, -1.89638376235961914062e+00) (12, 6.01281881332397460938e-01) (13, -2.16729164123535156250e-01) (0, -8.93336355686187744141e-01) (1, 3.22515010833740234375e-01) (2, -5.37633955478668212891e-01) (3, -4.97039765119552612305e-01) (4, 6.02836966514587402344e-01) (5, -5.36044120788574218750e-01) (6, 3.61520230770111083984e-01) (7, 1.31084293127059936523e-01) (8, -4.34367150068283081055e-01) (9, 4.67272371053695678711e-01) (10, 2.78696328401565551758e-01) (11, 1.52087640762329101562e+00) (12, -1.19975157082080841064e-01) (13, 1.75057029724121093750e+00) (14, 7.90978193283081054688e-01) (0, 9.03436958789825439453e-01) (1, 7.53720223903656005859e-01) (2, 5.76152443885803222656e-01) (3, -5.82677602767944335938e-01) (4, 1.56110271811485290527e-01) (5, -2.68195390701293945312e-01) (6, -6.72184228897094726562e-01) (7, 3.74831631779670715332e-02) (8, -6.65959045290946960449e-02) (9, 3.74091081321239471436e-02) (10, -1.42929100990295410156e+00) (11, 3.96969294548034667969e+00) (12, 1.76588106155395507812e+00) (13, 1.18334040045738220215e-01) (14, 9.00474488735198974609e-01) (15, 1.83432078361511230469e+00) (0, -1.11652755737304687500e+00) (1, -8.68165850639343261719e-01) (2, 1.06363153457641601562e+00) (3, 1.47669628262519836426e-01) (4, 5.78287899494171142578e-01) (5, -1.56889930367469787598e-01) (6, -7.04294383525848388672e-01) (7, 6.76337406039237976074e-02) (8, 3.93088608980178833008e-01) (9, 1.53984576463699340820e-01) (10, -2.45990484952926635742e-01) (11, -4.63230252265930175781e-01) (12, -1.27016532421112060547e+00) (13, 2.50643938779830932617e-01) (14, 2.87394762039184570312e-01) (15, 3.57784366607666015625e+00) (16, -1.68040680885314941406e+00) (0, -6.94091737270355224609e-01) (1, 7.51467764377593994141e-01) (2, 6.47821947932243347168e-02) (3, 1.71115294098854064941e-01) (4, -8.58987569808959960938e-01) (5, 6.53113573789596557617e-02) (6, 3.26719820499420166016e-01) (7, 7.67285346984863281250e-01) (8, -2.95744463801383972168e-02) (9, -5.94826996326446533203e-01) (10, -3.44725823402404785156e+00) (11, 3.56214118003845214844e+00) (12, 1.38518452644348144531e-01) (13, 8.75456094741821289062e-01) (14, -2.81305909156799316406e+00) (15, 1.86788380146026611328e+00) (16, -1.73567011952400207520e-01) (17, 1.23223137855529785156e+00) (0, -1.08505594730377197266e+00) (1, -8.59177172183990478516e-01) (2, 1.00580585002899169922e+00) (3, -4.78899449110031127930e-01) (4, 6.79800331592559814453e-01) (5, 3.64120960235595703125e-01) (6, 3.98255616426467895508e-01) (7, 6.67743146419525146484e-01) (8, -4.56128537654876708984e-01) (9, -4.46803331375122070312e-01) (10, -2.09450149536132812500e+00) (11, -1.40612637996673583984e+00) (12, -4.83793497085571289062e-01) (13, 9.06681656837463378906e-01) (14, -1.90022718906402587891e+00) (15, 1.93218922615051269531e+00) (16, 1.09821367263793945312e+00) (17, -1.89579427242279052734e+00) (18, 6.08964264392852783203e-01) (0, 1.26731038093566894531e-01) (1, -1.63205295801162719727e-01) (2, -2.88848072290420532227e-01) (3, 8.18683505058288574219e-01) (4, -6.00173532962799072266e-01) (5, 5.34240901470184326172e-01) (6, -2.53024011850357055664e-01) (7, 4.75699424743652343750e-01) (8, 6.57455801963806152344e-01) (9, -7.89901196956634521484e-01) (10, 4.86022412776947021484e-01) (11, -1.24627804756164550781e+00) (12, 1.23726761341094970703e+00) (13, -1.79790228605270385742e-01) (14, -8.40959727764129638672e-01) (15, 3.54677844047546386719e+00) (16, 8.05133879184722900391e-01) (17, -2.62383937835693359375e+00) (18, 2.57463359832763671875e+00) (19, 3.30536746978759765625e+00) (0, 6.65445327758789062500e-01) (1, -1.03751850128173828125e+00) (2, -4.99608844518661499023e-01) (3, -4.13108050823211669922e-01) (4, 6.58398091793060302734e-01) (5, 8.63546967506408691406e-01) (6, 3.49058657884597778320e-01) (7, -1.36869043111801147461e-01) (8, 5.19120216369628906250e-01) (9, -3.83292615413665771484e-01) (10, -1.82062327861785888672e+00) (11, 1.70028066635131835938e+00) (12, 2.76767015457153320312e-01) (13, -1.86383888125419616699e-01) (14, -4.94086772203445434570e-01) (15, 6.83898389339447021484e-01) (16, 1.74524426460266113281e-01) (17, 4.91772294044494628906e-01) (18, 2.10032010078430175781e+00) (19, 9.86944079399108886719e-01) (20, 1.68331837654113769531e+00) (0, -1.15818095207214355469e+00) (1, -1.45546182990074157715e-01) (2, 5.87418854236602783203e-01) (3, 4.89191114902496337891e-01) (4, 5.01089334487915039062e-01) (5, -9.32699069380760192871e-02) (6, -7.60991692543029785156e-01) (7, 7.93702602386474609375e-01) (8, 5.09835660457611083984e-01) (9, -7.37276434898376464844e-01) (10, -3.72850418090820312500e-01) (11, -2.42299032211303710938e+00) (12, -9.65263962745666503906e-01) (13, 1.68849384784698486328e+00) (14, -9.98556792736053466797e-01) (15, 2.64664816856384277344e+00) (16, -6.60744607448577880859e-01) (17, -3.88467979431152343750e+00) (18, 3.50949931144714355469e+00) (19, 2.00009727478027343750e+00) (20, -2.26313328742980957031e+00) (21, 2.19346547126770019531e+00) (0, 5.26763260364532470703e-01) (1, 8.77362370491027832031e-01) (2, -5.15074968338012695312e-01) (3, 6.93110227584838867188e-02) (4, -1.07451103627681732178e-01) (5, 9.64388012886047363281e-01) (6, -7.43083775043487548828e-01) (7, 1.96074441075325012207e-01) (8, -5.38046061992645263672e-01) (9, 6.63515210151672363281e-01) (10, -9.00321066379547119141e-01) (11, -2.07212948799133300781e+00) (12, 2.95537263154983520508e-01) (13, -3.93791615962982177734e-01) (14, -1.00525375455617904663e-03) (15, 4.53274399042129516602e-01) (16, -9.84495699405670166016e-01) (17, 1.55414128303527832031e+00) (18, 4.07251024246215820312e+00) (19, 2.11430978775024414062e+00) (20, -1.04188919067382812500e+00) (21, 1.15445315837860107422e+00) (22, -4.14388656616210937500e-01) (0, 1.97282418608665466309e-01) (1, -1.02988600730895996094e-01) (2, -4.05112206935882568359e-01) (3, 3.43464136123657226562e-01) (4, -4.43676590919494628906e-01) (5, 4.53484393656253814697e-02) (6, -1.11237503588199615479e-01) (7, 7.13448524475097656250e-01) (8, 1.31184530258178710938e+00) (9, -5.28916954994201660156e-01) (10, -2.20803070068359375000e+00) (11, -5.70059597492218017578e-01) (12, 1.81797611713409423828e+00) (13, -1.37603402137756347656e-01) (14, -4.78524386882781982422e-01) (15, 2.78681516647338867188e+00) (16, 2.58737826347351074219e+00) (17, 1.02124905586242675781e+00) (18, 1.94558334350585937500e+00) (19, 2.10536766052246093750e+00) (20, -1.19191360473632812500e+00) (21, 1.87783288955688476562e+00) (22, -1.33021533489227294922e+00) (23, -3.30215543508529663086e-01) (0, 1.00338292121887207031e+00) (1, 1.55524581670761108398e-01) (2, 9.68148112297058105469e-01) (3, -4.19333994388580322266e-01) (4, 1.68721511960029602051e-01) (5, -6.07741236686706542969e-01) (6, -8.65809023380279541016e-01) (7, 1.93954333662986755371e-01) (8, 6.68735682964324951172e-01) (9, -7.67094492912292480469e-01) (10, 6.00155591964721679688e-01) (11, -1.34464848041534423828e+00) (12, 1.07694959640502929688e+00) (13, 2.56852960586547851562e+00) (14, 1.17419564723968505859e+00) (15, 1.85590147972106933594e+00) (16, -2.32946848869323730469e+00) (17, -7.24883675575256347656e-01) (18, 7.38362297415733337402e-02) (19, 1.24707973003387451172e+00) (20, 1.28135156631469726562e+00) (21, -5.31296543776988983154e-02) (22, -9.57665681838989257812e-01) (23, 1.64791071414947509766e+00) (24, 7.29341208934783935547e-01) (0, 2.38690757751464843750e+00) (1, 1.33076356723904609680e-02) (2, -4.57422465085983276367e-01) (3, 1.39023840427398681641e+00) (4, -1.45891582965850830078e+00) (5, 7.64449834823608398438e-01) (6, -6.06529712677001953125e-01) (7, 6.07085525989532470703e-01) (8, 2.93727308511734008789e-01) (9, 8.07929933071136474609e-02) (10, -2.92233872413635253906e+00) (11, -3.05752575397491455078e-01) (12, -9.66696798801422119141e-01) (13, -1.08301436901092529297e+00) (14, 8.40922772884368896484e-01) (15, 9.79207277297973632812e-01) (16, 5.74516057968139648438e-01) (17, 1.95205080509185791016e+00) (18, 2.93434739112854003906e+00) (19, 3.64438700675964355469e+00) (20, -3.77825450897216796875e+00) (21, 1.56093513965606689453e+00) (22, 3.06421309709548950195e-01) (23, 3.84441576898097991943e-03) (24, -1.94241082668304443359e+00) (25, 3.30084353685379028320e-01) (0, -7.46277987957000732422e-01) (1, 9.59913060069084167480e-02) (2, 3.11900347471237182617e-01) (3, 1.04417634010314941406e+00) (4, 1.83193042874336242676e-01) (5, -4.31327730417251586914e-01) (6, 3.15998017787933349609e-01) (7, -8.94682228565216064453e-01) (8, -3.65206003189086914062e-01) (9, -1.67845740914344787598e-01) (10, 1.15562427043914794922e+00) (11, -3.50044775009155273438e+00) (12, 1.16092182695865631104e-01) (13, -9.53186094760894775391e-01) (14, -1.15782654285430908203e+00) (15, 2.43576931953430175781e+00) (16, -2.07571125030517578125e+00) (17, -3.51750195026397705078e-01) (18, 1.38959848880767822266e+00) (19, 8.68225917220115661621e-02) (20, -1.32213711738586425781e+00) (21, 4.92096281051635742188e+00) (22, -2.14856243133544921875e+00) (23, 3.71177017688751220703e-01) (24, -1.77468609809875488281e+00) (25, 1.55088388919830322266e+00) (26, 1.13392150402069091797e+00) (0, 4.59520295262336730957e-02) (1, -1.42730876803398132324e-01) (2, -3.41439038515090942383e-01) (3, 5.32457493245601654053e-02) (4, -1.61887392401695251465e-01) (5, 6.40616893768310546875e-01) (6, -3.57149124145507812500e-01) (7, 5.47097563743591308594e-01) (8, 2.70048886537551879883e-01) (9, -1.45964726805686950684e-01) (10, 7.33994185924530029297e-01) (11, -2.25356549024581909180e-01) (12, -5.20475506782531738281e-01) (13, -1.72264575958251953125e-01) (14, 9.71378292888402938843e-03) (15, 1.48040819168090820312e+00) (16, 1.11579596996307373047e+00) (17, 4.70599174499511718750e-01) (18, 2.82029080390930175781e+00) (19, 1.96823835372924804688e+00) (20, -1.43750512599945068359e+00) (21, 2.52963232994079589844e+00) (22, -1.31732487678527832031e+00) (23, -1.67721045017242431641e+00) (24, -5.02473306655883789062e+00) (25, -3.60610842704772949219e-01) (26, -8.97841095924377441406e-01) (27, 2.60156536102294921875e+00) (0, -7.75674700736999511719e-01) (1, 7.79653370380401611328e-01) (2, 8.68249833583831787109e-01) (3, 2.03706473112106323242e-01) (4, 4.98116165399551391602e-01) (5, 5.32913386821746826172e-01) (6, -8.87516915798187255859e-01) (7, -6.14435598254203796387e-02) (8, -1.00199055671691894531e+00) (9, 3.83686870336532592773e-01) (10, -1.14722952246665954590e-01) (11, -3.64402914047241210938e+00) (12, -3.49765010178089141846e-02) (13, 9.10483121871948242188e-01) (14, -5.72551131248474121094e-01) (15, 6.87791258096694946289e-02) (16, -1.41064941883087158203e+00) (17, 8.77543240785598754883e-02) (18, 3.71606302261352539062e+00) (19, 2.78988808393478393555e-01) (20, -2.07392859458923339844e+00) (21, 9.46588337421417236328e-01) (22, 3.68971258401870727539e-01) (23, -2.08022332191467285156e+00) (24, 1.55551373958587646484e-01) (25, 3.77343565225601196289e-01) (26, -1.30562651157379150391e+00) (27, 1.77817475795745849609e+00) (28, 1.55558657646179199219e+00) (0, 3.72081130743026733398e-01) (1, 4.90615703165531158447e-02) (2, 5.87592959403991699219e-01) (3, -1.28286644816398620605e-01) (4, -5.27584373950958251953e-01) (5, 2.55593478679656982422e-01) (6, 7.46107518672943115234e-01) (7, -6.35157287120819091797e-01) (8, 5.47716736793518066406e-01) (9, -6.94842636585235595703e-01) (10, 4.43305790424346923828e-01) (11, -6.14417135715484619141e-01) (12, 1.73030817508697509766e+00) (13, 1.41196525096893310547e+00) (14, -1.11661517620086669922e+00) (15, 1.93839681148529052734e+00) (16, 9.10509347915649414062e-01) (17, -1.68447065353393554688e+00) (18, 2.18022370338439941406e+00) (19, 2.62243604660034179688e+00) (20, -1.00813996791839599609e+00) (21, 6.57993912696838378906e-01) (22, 9.55487251281738281250e-01) (23, -4.25909072160720825195e-01) (24, 1.17838943004608154297e+00) (25, 9.15333330631256103516e-02) (26, 1.24044246971607208252e-01) (27, 2.87345385551452636719e+00) (28, 1.23599335551261901855e-01) (29, -2.64101214706897735596e-02) (0, -3.92156630754470825195e-01) (1, -3.63843679428100585938e-01) (2, 5.17232537269592285156e-01) (3, 2.90324777364730834961e-01) (4, 5.88833019137382507324e-02) (5, 7.02582523226737976074e-02) (6, 7.67429709434509277344e-01) (7, -3.91395181417465209961e-01) (8, 3.56745809316635131836e-01) (9, 5.55884122848510742188e-01) (10, -1.51630842685699462891e+00) (11, -2.41186976432800292969e+00) (12, 1.04852056503295898438e+00) (13, -3.36556029319763183594e+00) (14, -1.97127568721771240234e+00) (15, 3.12239336967468261719e+00) (16, 3.79493355751037597656e-01) (17, -3.74822586774826049805e-01) (18, 3.99329614639282226562e+00) (19, 2.80043506622314453125e+00) (20, -5.81085562705993652344e-01) (21, 1.43695294857025146484e+00) (22, -3.24511706829071044922e-01) (23, -1.65134775638580322266e+00) (24, 1.18271422386169433594e+00) (25, 5.76656699180603027344e-01) (26, 1.28086209297180175781e+00) (27, 2.24807834625244140625e+00) (28, 3.20312094688415527344e+00) (29, -2.82488059997558593750e+00) (30, -4.50294733047485351562e+00) (0, 1.07093989849090576172e+00) (1, 2.11731255054473876953e-01) (2, 7.14170336723327636719e-01) (3, -6.07963562011718750000e-01) (4, 7.36532628536224365234e-01) (5, -1.12923896312713623047e+00) (6, -1.69879630208015441895e-01) (7, 5.21105766296386718750e-01) (8, 1.84036046266555786133e-01) (9, -8.60891461372375488281e-01) (10, 5.94323575496673583984e-01) (11, -7.86673963069915771484e-01) (12, 1.19941294193267822266e+00) (13, 1.01856744289398193359e+00) (14, 2.72696346044540405273e-01) (15, 2.12694811820983886719e+00) (16, -3.87384682893753051758e-01) (17, -6.99404299259185791016e-01) (18, 2.77337312698364257812e+00) (19, 1.90574944019317626953e-01) (20, -1.75086653232574462891e+00) (21, 3.29781204462051391602e-01) (22, -5.89170277118682861328e-01) (23, -1.03219732642173767090e-01) (24, 1.50963056087493896484e+00) (25, -2.93889975547790527344e+00) (26, 1.49806225299835205078e+00) (27, 8.18359613418579101562e-01) (28, 2.66686630249023437500e+00) (29, 6.98740556836128234863e-02) (30, -8.52071642875671386719e-01) (31, -7.35374033451080322266e-01) (0, 1.11090195178985595703e+00) (1, -6.64930641651153564453e-01) (2, 1.03924736380577087402e-01) (3, -5.57105422019958496094e-01) (4, -2.40742772817611694336e-01) (5, 1.27472877502441406250e+00) (6, -9.73050177097320556641e-01) (7, 3.80345821380615234375e-01) (8, 1.15104961395263671875e+00) (9, 9.73479330539703369141e-01) (10, -2.17540431022644042969e+00) (11, 2.01653599739074707031e-01) (12, 1.86803293228149414062e+00) (13, -1.22691667079925537109e+00) (14, 4.78474766016006469727e-01) (15, 2.49910593032836914062e+00) (16, 3.58163803815841674805e-01) (17, -2.32140827178955078125e+00) (18, 3.11329960823059082031e+00) (19, 1.50107872486114501953e+00) (20, 1.40635776519775390625e+00) (21, -7.84144699573516845703e-02) (22, 4.82749342918395996094e-01) (23, -1.41507649421691894531e+00) (24, -2.22225141525268554688e+00) (25, -1.97969365119934082031e+00) (26, 4.14855092763900756836e-01) (27, 1.14151823520660400391e+00) (28, 1.82170867919921875000e+00) (29, -6.79830610752105712891e-01) (30, -9.15547132492065429688e-01) (31, -4.31235980987548828125e+00) (32, 3.37143731117248535156e+00) (0, -1.07541121542453765869e-01) (1, 9.74883198738098144531e-01) (2, -4.68694269657135009766e-01) (3, 7.03264594078063964844e-01) (4, 4.90762710571289062500e-01) (5, 2.86460936069488525391e-01) (6, -1.06036877632141113281e+00) (7, -8.58789145946502685547e-01) (8, 1.09726563096046447754e-02) (9, 1.00829637050628662109e+00) (10, -1.25060439109802246094e+00) (11, -2.01777040958404541016e-01) (12, 6.42495810985565185547e-01) (13, -1.20581388473510742188e+00) (14, 9.30326700210571289062e-01) (15, 4.62338358163833618164e-01) (16, -6.57298207283020019531e-01) (17, -1.41573444008827209473e-01) (18, 3.28010559082031250000e-01) (19, 5.87463283538818359375e+00) (20, 5.67366063594818115234e-01) (21, 1.57599091529846191406e+00) (22, 1.56847059726715087891e-01) (23, 2.26696178317070007324e-01) (24, -1.52665627002716064453e+00) (25, -6.66461110115051269531e-01) (26, -5.30658602714538574219e-01) (27, 3.10809659957885742188e+00) (28, 2.37992668151855468750e+00) (29, -2.46288228034973144531e+00) (30, 7.27358683943748474121e-02) (31, -1.03658676147460937500e+00) (32, 1.25314807891845703125e+00) (33, 1.12501752376556396484e+00) (0, 8.61396864056587219238e-02) (1, 1.64033114910125732422e-01) (2, 1.19802546501159667969e+00) (3, -2.36437872052192687988e-01) (4, 4.52525243163108825684e-02) (5, -6.20848461985588073730e-02) (6, -2.83386707305908203125e-01) (7, -3.88693094253540039062e-01) (8, -6.22101351618766784668e-02) (9, 1.17389130592346191406e+00) (10, -2.79190564155578613281e+00) (11, 3.37327027320861816406e+00) (12, 1.43518710136413574219e+00) (13, -1.54814767837524414062e+00) (14, 1.15745872259140014648e-01) (15, 6.74172639846801757812e-01) (16, -2.92603278160095214844e+00) (17, -1.67209595441818237305e-01) (18, 3.05616283416748046875e+00) (19, 2.53027051687240600586e-01) (20, 9.74418282508850097656e-01) (21, 1.80241525173187255859e+00) (22, -2.88749635219573974609e-01) (23, -1.39743113517761230469e+00) (24, -6.12802624702453613281e-01) (25, 9.54975128173828125000e-01) (26, -9.17618647217750549316e-02) (27, 3.64545673131942749023e-01) (28, 2.07622170448303222656e+00) (29, -1.02530789375305175781e+00) (30, -2.49288845062255859375e+00) (31, -1.05974221229553222656e+00) (32, 1.07502913475036621094e+00) (33, 8.41603055596351623535e-02) (34, -9.83649075031280517578e-01) (0, 3.48923623561859130859e-01) (1, 4.20857369899749755859e-01) (2, 8.73881280422210693359e-01) (3, 5.72714567184448242188e-01) (4, -1.37430989742279052734e+00) (5, -5.81164419651031494141e-01) (6, -6.38882339000701904297e-01) (7, 5.25453090667724609375e-01) (8, 8.12441706657409667969e-01) (9, 2.89812326431274414062e-01) (10, 6.41466379165649414062e-01) (11, -1.43694770336151123047e+00) (12, 1.00562930107116699219e+00) (13, -5.26475429534912109375e-01) (14, -9.27742645144462585449e-02) (15, 7.30280220508575439453e-01) (16, -1.24305105209350585938e+00) (17, -1.22950005531311035156e+00) (18, 4.21020060777664184570e-01) (19, 3.74521040916442871094e+00) (20, 5.01930296421051025391e-01) (21, 2.77090191841125488281e+00) (22, -1.72148823738098144531e+00) (23, 1.51178705692291259766e+00) (24, -1.12806417047977447510e-01) (25, -7.61438131332397460938e-01) (26, -2.39675208926200866699e-01) (27, 1.21714544296264648438e+00) (28, 2.32870054244995117188e+00) (29, -6.43353700637817382812e-01) (30, -1.88042128086090087891e+00) (31, -8.38018298149108886719e-01) (32, 3.19920587539672851562e+00) (33, 6.51190221309661865234e-01) (34, 4.87371444702148437500e-01) (35, -1.41784143447875976562e+00) (0, 3.37314426898956298828e-01) (1, 3.55883896350860595703e-01) (2, 6.86039388179779052734e-01) (3, -1.55849799513816833496e-01) (4, -5.50797939300537109375e-01) (5, 9.60468724370002746582e-02) (6, 4.11017954349517822266e-01) (7, -4.11051452159881591797e-01) (8, 2.19198122620582580566e-01) (9, 5.22341668605804443359e-01) (10, -2.85079002380371093750e-01) (11, -1.97051811218261718750e+00) (12, -1.77303060889244079590e-01) (13, -4.38568472862243652344e-01) (14, -1.84048473834991455078e+00) (15, 1.49585247039794921875e+00) (16, 4.16447252035140991211e-01) (17, -1.61433804035186767578e+00) (18, 2.53159666061401367188e+00) (19, 2.62947058677673339844e+00) (20, 4.55374360084533691406e-01) (21, 2.23370575904846191406e+00) (22, -6.77957117557525634766e-01) (23, 9.06354010105133056641e-01) (24, -7.85009860992431640625e-02) (25, 1.46259486675262451172e-01) (26, 2.29698464274406433105e-01) (27, 2.37851262092590332031e+00) (28, 2.86389422416687011719e+00) (29, -2.25746440887451171875e+00) (30, -2.14273166656494140625e+00) (31, -8.87261867523193359375e-01) (32, 2.24515175819396972656e+00) (33, 9.17996346950531005859e-01) (34, 9.02506639249622821808e-04) (35, -4.82036054134368896484e-01) (36, -5.24957001209259033203e-01) (0, 7.81974568963050842285e-02) (1, 6.26435875892639160156e-02) (2, -8.55449557304382324219e-01) (3, -9.96583402156829833984e-01) (4, 5.71234285831451416016e-01) (5, -5.16739606857299804688e-01) (6, 9.61036562919616699219e-01) (7, 1.44538855552673339844e+00) (8, 1.73591583967208862305e-01) (9, -2.94416755437850952148e-01) (10, 1.36033654212951660156e+00) (11, -4.63217884302139282227e-01) (12, 8.05310070514678955078e-01) (13, -2.00442120432853698730e-01) (14, -4.03044462203979492188e+00) (15, -5.03468737006187438965e-02) (16, 8.86542558670043945312e-01) (17, 1.05338978767395019531e+00) (18, 2.06370949745178222656e+00) (19, 1.96545636653900146484e+00) (20, 3.57862770557403564453e-01) (21, 2.63210058212280273438e-01) (22, -2.25529694557189941406e+00) (23, 3.34891706705093383789e-01) (24, 1.54265210032463073730e-01) (25, 9.38950538635253906250e-01) (26, 2.50347763299942016602e-01) (27, 4.24023485183715820312e+00) (28, 3.99959659576416015625e+00) (29, -1.52385771274566650391e+00) (30, -2.87477350234985351562e+00) (31, -2.06373691558837890625e+00) (32, -1.46125829219818115234e+00) (33, 1.44433736801147460938e+00) (34, -8.45146477222442626953e-01) (35, 6.21398210525512695312e-01) (36, 3.59642580151557922363e-02) (37, -3.77664136886596679688e+00) (0, -5.51017820835113525391e-01) (1, 3.27314883470535278320e-01) (2, -1.79103203117847442627e-02) (3, 3.10912698507308959961e-01) (4, 6.85044586658477783203e-01) (5, -5.76372802257537841797e-01) (6, 9.48035955429077148438e-01) (7, -3.57374340295791625977e-01) (8, 2.48033538460731506348e-01) (9, -8.93395781517028808594e-01) (10, -3.06406044960021972656e+00) (11, -1.56683397293090820312e+00) (12, 3.27512156218290328979e-03) (13, -5.39306581020355224609e-01) (14, -2.74633121490478515625e+00) (15, 2.20578217506408691406e+00) (16, -5.54053544998168945312e-01) (17, 1.56487250328063964844e+00) (18, 5.95274567604064941406e-01) (19, 1.66264879703521728516e+00) (20, 1.60541343688964843750e+00) (21, 7.56311833858489990234e-01) (22, -9.48102414608001708984e-01) (23, 5.88276386260986328125e-01) (24, -1.00472021102905273438e+00) (25, 4.87966775894165039062e-01) (26, 2.98474454879760742188e+00) (27, -7.78130054473876953125e-01) (28, 2.47413301467895507812e+00) (29, 2.37363502383232116699e-01) (30, -4.85060185194015502930e-01) (31, 3.00355762243270874023e-01) (32, -7.11700737476348876953e-01) (33, -1.47765979170799255371e-01) (34, 6.04780077934265136719e-01) (35, 2.38085341453552246094e+00) (36, -1.90343454480171203613e-01) (37, -1.72875416278839111328e+00) (38, -8.58560264110565185547e-01) (0, 4.12331134080886840820e-01) (1, -4.48970794677734375000e-01) (2, 4.63020890951156616211e-01) (3, -3.93556177616119384766e-01) (4, -7.07019448280334472656e-01) (5, 1.43747496604919433594e+00) (6, 3.21690589189529418945e-01) (7, -4.80768263339996337891e-01) (8, 1.13213706016540527344e+00) (9, 2.42002159357070922852e-01) (10, -1.34070193767547607422e+00) (11, -3.62406301498413085938e+00) (12, 1.36909437179565429688e+00) (13, -1.01600921154022216797e+00) (14, 2.01536178588867187500e+00) (15, 3.04138803482055664062e+00) (16, 1.63988947868347167969e+00) (17, -9.21299830079078674316e-02) (18, 3.75391578674316406250e+00) (19, 1.90629899501800537109e+00) (20, -1.81247681379318237305e-01) (21, 1.73405349254608154297e+00) (22, 1.12534737586975097656e+00) (23, -1.79379796981811523438e+00) (24, -2.15319967269897460938e+00) (25, 2.42132216691970825195e-01) (26, 1.63390851020812988281e+00) (27, 9.71320569515228271484e-01) (28, 2.94034075736999511719e+00) (29, -2.51384329795837402344e+00) (30, -4.92354917526245117188e+00) (31, -3.20860552787780761719e+00) (32, 2.09432911872863769531e+00) (33, -1.69950258731842041016e+00) (34, 1.22734618186950683594e+00) (35, -2.13495001196861267090e-01) (36, 7.32985317707061767578e-01) (37, -1.86235451698303222656e+00) (38, 1.29730176925659179688e+00) (39, 1.97620487213134765625e+00) (0, 4.93680626153945922852e-01) (1, 2.47296512126922607422e-01) (2, -5.85216104984283447266e-01) (3, 2.39383146166801452637e-01) (4, -5.77286422252655029297e-01) (5, 7.84595787525177001953e-01) (6, -4.69397425651550292969e-01) (7, -4.79530155658721923828e-01) (8, 9.28304672241210937500e-01) (9, 5.78883707523345947266e-01) (10, -1.67339372634887695312e+00) (11, -3.49804013967514038086e-01) (12, -1.69067561626434326172e-01) (13, -8.72162163257598876953e-01) (14, 1.72458744049072265625e+00) (15, 1.06093120574951171875e+00) (16, -8.25875937938690185547e-01) (17, 6.85032486915588378906e-01) (18, 2.18814516067504882812e+00) (19, 3.63176870346069335938e+00) (20, -1.64038404822349548340e-01) (21, 4.37502098083496093750e+00) (22, -3.23974609375000000000e+00) (23, -2.37374752759933471680e-01) (24, -1.45848095417022705078e+00) (25, 9.00793492794036865234e-01) (26, -6.92091941833496093750e-01) (27, 8.12036931514739990234e-01) (28, -1.06671893596649169922e+00) (29, -1.48069655895233154297e+00) (30, -3.78590512275695800781e+00) (31, -5.83508908748626708984e-01) (32, 3.41804480552673339844e+00) (33, 1.21318364143371582031e+00) (34, -7.27514028549194335938e-01) (35, 7.66451537609100341797e-01) (36, 1.50587752461433410645e-01) (37, -3.22347784042358398438e+00) (38, 1.94003984332084655762e-01) (39, -6.84972763061523437500e-01) (40, -2.04714131355285644531e+00) (0, 3.23557376861572265625e-01) (1, 2.68994539976119995117e-01) (2, 5.29520571231842041016e-01) (3, -8.87750238180160522461e-02) (4, 1.02342987060546875000e+00) (5, -4.98226463794708251953e-01) (6, 7.32521176338195800781e-01) (7, -1.01571595668792724609e+00) (8, -5.91568470001220703125e-01) (9, 1.10923564434051513672e+00) (10, -2.91786861419677734375e+00) (11, -7.67729878425598144531e-01) (12, 1.42045542597770690918e-01) (13, -1.62196743488311767578e+00) (14, 3.85155677795410156250e-01) (15, 1.86532902717590332031e+00) (16, -5.88262438774108886719e-01) (17, -2.67380881309509277344e+00) (18, 4.10875368118286132812e+00) (19, 7.19158709049224853516e-01) (20, 9.31390404701232910156e-01) (21, 7.42365419864654541016e-01) (22, 1.27850341796875000000e+00) (23, -1.86708476394414901733e-02) (24, 6.00583434104919433594e-01) (25, 1.61032581329345703125e+00) (26, 4.55218672752380371094e-01) (27, 1.69313597679138183594e+00) (28, -4.18233096599578857422e-01) (29, -5.35133033990859985352e-02) (30, -2.36292076110839843750e+00) (31, -1.82837033271789550781e+00) (32, 1.30767941474914550781e+00) (33, 1.26726186275482177734e+00) (34, -6.05447411537170410156e-01) (35, -4.44254755973815917969e-01) (36, 6.47259593009948730469e-01) (37, -1.80933606624603271484e+00) (38, -1.23141312599182128906e+00) (39, -6.76900744438171386719e-01) (40, 2.09303903579711914062e+00) (41, 4.12687444686889648438e+00) (0, 2.01574668288230895996e-01) (1, 4.08524096012115478516e-01) (2, 1.46585834026336669922e+00) (3, 3.15114080905914306641e-01) (4, -3.93082320690155029297e-01) (5, 1.03255525231361389160e-01) (6, 7.24046468734741210938e-01) (7, -4.97799187898635864258e-01) (8, 1.55538380146026611328e-01) (9, 1.52295440435409545898e-01) (10, -2.71764683723449707031e+00) (11, -3.03991508483886718750e+00) (12, 2.26081919670104980469e+00) (13, -2.00539469718933105469e+00) (14, -1.94163382053375244141e+00) (15, 4.04817295074462890625e+00) (16, -7.11174547672271728516e-01) (17, -2.49165534973144531250e+00) (18, 4.20762538909912109375e+00) (19, 2.48008656501770019531e+00) (20, -8.15856084227561950684e-02) (21, 3.54354548454284667969e+00) (22, 2.25617624819278717041e-02) (23, 5.36587178707122802734e-01) (24, -6.70254290103912353516e-01) (25, 2.81937211751937866211e-01) (26, 6.29107654094696044922e-01) (27, -1.22056424617767333984e-01) (28, 3.32488489151000976562e+00) (29, -3.09797453880310058594e+00) (30, -1.93611454963684082031e+00) (31, -1.65873169898986816406e+00) (32, 2.32220697402954101562e+00) (33, 4.35374170541763305664e-01) (34, -2.67344176769256591797e-01) (35, -1.26723384857177734375e+00) (36, -8.24967443943023681641e-01) (37, -2.42764902114868164062e+00) (38, 2.76329576969146728516e-01) (39, 1.42915502190589904785e-01) (40, 3.24285507202148437500e-01) (41, 2.24748826026916503906e+00) (42, -3.24852728843688964844e+00) (0, 1.31469714641571044922e+00) (1, 3.38620036840438842773e-01) (2, 1.89496684074401855469e+00) (3, 4.36275228857994079590e-02) (4, 6.02660216391086578369e-02) (5, 5.53110055625438690186e-02) (6, 2.41376295685768127441e-01) (7, -3.07293355464935302734e-01) (8, -8.25399905443191528320e-02) (9, -1.70676693320274353027e-01) (10, -3.04520559310913085938e+00) (11, -2.31999866664409637451e-02) (12, 2.51541268080472946167e-02) (13, 1.02361941337585449219e+00) (14, 5.06323337554931640625e-01) (15, 1.21582400798797607422e+00) (16, 6.09038136899471282959e-02) (17, -1.71820342540740966797e+00) (18, 3.33695650100708007812e+00) (19, 3.03282165527343750000e+00) (20, -1.52149833738803863525e-02) (21, 4.64784115552902221680e-01) (22, 8.96404027938842773438e-01) (23, 9.75519657135009765625e-01) (24, 1.45478069782257080078e-01) (25, -2.48263502120971679688e+00) (26, 4.27647419273853302002e-02) (27, 3.38702583312988281250e+00) (28, 3.12425208091735839844e+00) (29, -1.64946758747100830078e+00) (30, -1.68369996547698974609e+00) (31, -2.99973517656326293945e-01) (32, 1.61595010757446289062e+00) (33, 1.73043429851531982422e+00) (34, -1.13025534152984619141e+00) (35, -1.54585087299346923828e+00) (36, -3.20254039764404296875e+00) (37, -1.67505621910095214844e+00) (38, 2.23946213722229003906e-01) (39, 6.94651365280151367188e-01) (40, -9.47117328643798828125e-01) (41, 3.64406061172485351562e+00) (42, -6.18518948554992675781e-01) (43, -1.25123906135559082031e+00) (0, 3.58335003256797790527e-02) (1, 8.53862892836332321167e-03) (2, 2.52257168292999267578e-01) (3, 3.62729668617248535156e-01) (4, 3.56940478086471557617e-01) (5, 7.27013945579528808594e-01) (6, 2.05511704087257385254e-01) (7, 6.31538629531860351562e-01) (8, 6.74897491931915283203e-01) (9, -8.20253014564514160156e-01) (10, -2.29714441299438476562e+00) (11, -3.22119665145874023438e+00) (12, -4.45011347532272338867e-01) (13, -7.87476360797882080078e-01) (14, 1.82030066847801208496e-01) (15, 2.52700948715209960938e+00) (16, 3.18739748001098632812e+00) (17, -1.55700528621673583984e+00) (18, 3.91376018524169921875e+00) (19, 2.50493097305297851562e+00) (20, -5.73211073875427246094e-01) (21, 1.55904042720794677734e+00) (22, -9.53655540943145751953e-01) (23, -1.08511197566986083984e+00) (24, 1.43705248832702636719e-01) (25, -4.31089371442794799805e-01) (26, -5.59163689613342285156e-01) (27, 3.22482347488403320312e+00) (28, 1.37684774398803710938e+00) (29, 4.66691195964813232422e-01) (30, -1.59298455715179443359e+00) (31, -1.93433076143264770508e-01) (32, 2.58259701728820800781e+00) (33, -3.26561272144317626953e-01) (34, 1.08763146400451660156e+00) (35, 8.11400234699249267578e-01) (36, 1.91537544131278991699e-01) (37, -1.15993332862854003906e+00) (38, -5.63314497470855712891e-01) (39, 2.04488515853881835938e+00) (40, -1.85057497024536132812e+00) (41, 3.75430440902709960938e+00) (42, -1.57047092914581298828e+00) (43, -1.53691577911376953125e+00) (44, -1.97653126716613769531e+00) (0, 6.95150971412658691406e-01) (1, 4.56869959831237792969e-01) (2, -1.25408098101615905762e-01) (3, 7.59399056434631347656e-01) (4, -1.68554913997650146484e+00) (5, 8.45597565174102783203e-01) (6, 6.45527184009552001953e-01) (7, 4.44756478071212768555e-01) (8, -4.40448433160781860352e-01) (9, 9.36855375766754150391e-01) (10, 1.08058118820190429688e+00) (11, -4.02122211456298828125e+00) (12, 1.15442645549774169922e+00) (13, -1.11563193798065185547e+00) (14, -1.22665953636169433594e+00) (15, 6.97950422763824462891e-01) (16, 5.41610002517700195312e-01) (17, -2.46336199343204498291e-02) (18, 2.69926404953002929688e+00) (19, 2.52084350585937500000e+00) (20, -4.32254791259765625000e-01) (21, 1.11153423786163330078e+00) (22, 1.57617732882499694824e-01) (23, -2.31663250923156738281e+00) (24, -8.33295583724975585938e-01) (25, 1.95232307910919189453e+00) (26, -3.09716403484344482422e-01) (27, 2.35691285133361816406e+00) (28, 1.80049943923950195312e+00) (29, -2.21580338478088378906e+00) (30, 3.74005317687988281250e-01) (31, -2.93756604194641113281e+00) (32, 4.75810861587524414062e+00) (33, -4.49012517929077148438e-01) (34, 1.68881559371948242188e+00) (35, -2.38511490821838378906e+00) (36, -2.33431553840637207031e+00) (37, -1.07091629505157470703e+00) (38, 5.50456404685974121094e-01) (39, 8.43010246753692626953e-01) (40, -1.10274446010589599609e+00) (41, 4.41248893737792968750e+00) (42, -5.41784942150115966797e-01) (43, -2.58130908012390136719e-01) (44, -1.02301704883575439453e+00) (45, -2.14611077308654785156e+00) (0, 1.31055819988250732422e+00) (1, 6.04874789714813232422e-01) (2, 1.21023826301097869873e-01) (3, 8.55640649795532226562e-01) (4, -9.31729316711425781250e-01) (5, 1.86907202005386352539e-01) (6, 5.62610328197479248047e-01) (7, 5.17571926116943359375e-01) (8, -1.10035449266433715820e-01) (9, -8.07585790753364562988e-02) (10, 9.16276037693023681641e-01) (11, -4.60997867584228515625e+00) (12, 2.40258574485778808594e+00) (13, -1.89818596839904785156e+00) (14, -6.12006187438964843750e-01) (15, 1.88259327411651611328e+00) (16, 6.13396227359771728516e-01) (17, -1.54275572299957275391e+00) (18, 3.00114369392395019531e+00) (19, 2.68901872634887695312e+00) (20, -1.05549955368041992188e+00) (21, 1.52276039123535156250e+00) (22, 6.81788563728332519531e-01) (23, -1.08365766704082489014e-01) (24, 4.20850306749343872070e-01) (25, -9.53588068485260009766e-01) (26, -1.09281790256500244141e+00) (27, 7.65543222427368164062e-01) (28, 2.04406428337097167969e+00) (29, -1.96972727775573730469e+00) (30, 6.78731262683868408203e-01) (31, -2.26280879974365234375e+00) (32, 4.60099220275878906250e+00) (33, 9.21991467475891113281e-01) (34, 1.40199971199035644531e+00) (35, 3.66569101810455322266e-01) (36, -2.04512333869934082031e+00) (37, -9.25718367099761962891e-01) (38, 3.18199425935745239258e-01) (39, 1.34800469875335693359e+00) (40, 7.32729807496070861816e-02) (41, 5.35198402404785156250e+00) (42, -2.67317771911621093750e+00) (43, -1.14306855201721191406e+00) (44, -6.94809675216674804688e-01) (45, -2.20033860206604003906e+00) (46, -2.09794735908508300781e+00) (0, 2.63187706470489501953e-01) (1, 5.70675790309906005859e-01) (2, 8.17764103412628173828e-01) (3, 5.63882850110530853271e-02) (4, 4.62860018014907836914e-01) (5, 2.16300995089113712311e-03) (6, -1.42813116312026977539e-01) (7, 2.20679879188537597656e-01) (8, 6.52151331305503845215e-02) (9, -7.58156999945640563965e-02) (10, -1.66502857208251953125e+00) (11, -1.61174261569976806641e+00) (12, 5.12059688568115234375e-01) (13, 4.89450573921203613281e-01) (14, -3.55870813131332397461e-01) (15, 3.00292444229125976562e+00) (16, 5.73064275085926055908e-02) (17, -8.21027994155883789062e-01) (18, 4.50523281097412109375e+00) (19, 1.20007312297821044922e+00) (20, -1.11939120292663574219e+00) (21, 2.19940543174743652344e+00) (22, 6.42894744873046875000e-01) (23, 1.01841557770967483521e-02) (24, -9.08788621425628662109e-01) (25, 7.89703905582427978516e-01) (26, 4.15551036596298217773e-01) (27, 1.31534981727600097656e+00) (28, 2.91832947731018066406e+00) (29, -1.35082721710205078125e+00) (30, -5.02337634563446044922e-01) (31, -1.74188947677612304688e+00) (32, 1.99254190921783447266e+00) (33, 4.49017792940139770508e-01) (34, 1.05222141742706298828e+00) (35, -1.53116512298583984375e+00) (36, -5.55378019809722900391e-01) (37, -9.87562164664268493652e-02) (38, -5.01406013965606689453e-01) (39, 1.65978646278381347656e+00) (40, -2.35257267951965332031e-01) (41, 4.18570470809936523438e+00) (42, -4.36817598342895507812e+00) (43, -5.81783354282379150391e-01) (44, -1.42577135562896728516e+00) (45, -3.25329399108886718750e+00) (46, -6.48606657981872558594e-01) (47, -6.13197803497314453125e-01) (0, 3.30066651105880737305e-01) (1, 7.56909623742103576660e-02) (2, -1.07265256345272064209e-01) (3, 3.60344290733337402344e-01) (4, -8.80070567131042480469e-01) (5, 5.80680668354034423828e-01) (6, -4.12248462438583374023e-01) (7, 8.03957581520080566406e-01) (8, 1.29594552516937255859e+00) (9, 1.04919329285621643066e-01) (10, -2.81269764900207519531e+00) (11, -2.16333889961242675781e+00) (12, 6.13800168037414550781e-01) (13, -8.97807106375694274902e-02) (14, 2.04837226867675781250e+00) (15, 3.32752299308776855469e+00) (16, 1.54835307598114013672e+00) (17, -1.25489890575408935547e+00) (18, 2.27262949943542480469e+00) (19, 2.03478264808654785156e+00) (20, -3.70801115036010742188e+00) (21, 1.27718031406402587891e+00) (22, 6.47409483790397644043e-02) (23, 1.89316555857658386230e-01) (24, 7.74782657623291015625e-01) (25, -1.12759205512702465057e-03) (26, -1.52848422527313232422e+00) (27, 1.43404138088226318359e+00) (28, 3.89352679252624511719e+00) (29, -1.13973510265350341797e+00) (30, 3.50124388933181762695e-01) (31, -1.27986788749694824219e+00) (32, 2.97265148162841796875e+00) (33, 1.14438664913177490234e+00) (34, 8.10896754264831542969e-02) (35, 1.12025821208953857422e+00) (36, -2.11616921424865722656e+00) (37, -1.34202826023101806641e+00) (38, -8.80763903260231018066e-02) (39, 2.43171000480651855469e+00) (40, -1.04017102718353271484e+00) (41, 2.29036927223205566406e+00) (42, -5.99339008331298828125e-01) (43, -5.18136844038963317871e-02) (44, -1.11259186267852783203e+00) (45, -1.52221727371215820312e+00) (46, 8.97484242916107177734e-01) (47, -3.39678853750228881836e-01) (48, -1.44759476184844970703e-01) (0, -1.29175674915313720703e+00) (1, 5.10137140750885009766e-01) (2, 1.32033705711364746094e-01) (3, -3.91989424824714660645e-02) (4, 6.79579257965087890625e-01) (5, 4.43930029869079589844e-01) (6, -5.88670015335083007812e-01) (7, 4.73694145679473876953e-01) (8, 1.13519680500030517578e+00) (9, 1.76145598292350769043e-01) (10, -1.19281375408172607422e+00) (11, -1.60908830165863037109e+00) (12, 6.76546514034271240234e-01) (13, 1.25976490974426269531e+00) (14, 1.30257451534271240234e+00) (15, 3.09843134880065917969e+00) (16, 6.23534023761749267578e-01) (17, -5.62230014801025390625e+00) (18, 4.23464727401733398438e+00) (19, 2.92222809791564941406e+00) (20, -1.27118349075317382812e+00) (21, 2.45034337043762207031e+00) (22, -2.28168368339538574219e+00) (23, -8.67410480976104736328e-01) (24, -5.33923029899597167969e-01) (25, 1.11474502086639404297e+00) (26, 1.02427847683429718018e-01) (27, 4.26725053787231445312e+00) (28, 2.97546100616455078125e+00) (29, -3.28480434417724609375e+00) (30, -2.10926342010498046875e+00) (31, -1.42148232460021972656e+00) (32, 3.33322310447692871094e+00) (33, 1.53718546032905578613e-01) (34, 3.51528048515319824219e-01) (35, 2.71379858255386352539e-01) (36, -7.55720078945159912109e-01) (37, -3.74062752723693847656e+00) (38, 4.97532218694686889648e-01) (39, 2.91240668296813964844e+00) (40, -6.64433479309082031250e-01) (41, 2.37461614608764648438e+00) (42, -1.23490107059478759766e+00) (43, -1.22012400627136230469e+00) (44, 3.05090397596359252930e-01) (45, -7.98999845981597900391e-01) (46, -1.61771848797798156738e-01) (47, -1.65907478332519531250e+00) (48, -1.49187088012695312500e+00) (49, -1.48978364467620849609e+00) (0, 1.55549907684326171875e+00) (1, 3.01615983247756958008e-01) (2, 1.03113003075122833252e-01) (3, 6.16440810263156890869e-02) (4, -6.35705351829528808594e-01) (5, 5.04899203777313232422e-01) (6, -2.20971435308456420898e-01) (7, 6.66409492492675781250e-01) (8, 1.71694242954254150391e+00) (9, -7.82460510730743408203e-01) (10, -1.84625017642974853516e+00) (11, -2.21397829055786132812e+00) (12, 9.16462063789367675781e-01) (13, 1.13499224185943603516e+00) (14, -1.67776072025299072266e+00) (15, 2.14003467559814453125e+00) (16, 1.49384105205535888672e+00) (17, -1.22157961130142211914e-01) (18, 2.93897962570190429688e+00) (19, 5.01914453506469726562e+00) (20, -2.88025259971618652344e+00) (21, 1.12129545211791992188e+00) (22, -8.90671968460083007812e-01) (23, 7.66131579875946044922e-01) (24, -2.65500545501708984375e+00) (25, 4.17055010795593261719e-01) (26, -1.02997338771820068359e+00) (27, 2.38524198532104492188e+00) (28, 2.24576449394226074219e+00) (29, -9.28862810134887695312e-01) (30, -1.39518547058105468750e+00) (31, -9.19249534606933593750e-01) (32, 2.47190809249877929688e+00) (33, -1.56447362899780273438e+00) (34, 3.62000882625579833984e-01) (35, 8.81006121635437011719e-01) (36, -8.74270379543304443359e-01) (37, -1.98966908454895019531e+00) (38, -1.52742302417755126953e+00) (39, 8.89969527721405029297e-01) (40, -5.32605171203613281250e-01) (41, 3.24322819709777832031e+00) (42, -9.27555620670318603516e-01) (43, -2.54883670806884765625e+00) (44, -3.13432186841964721680e-01) (45, -1.84201538562774658203e+00) (46, 7.04305768013000488281e-01) (47, -1.02202057838439941406e+00) (48, 1.26731789112091064453e+00) (49, -8.72812509536743164062e-01) (50, 9.52293351292610168457e-02) (0, 1.14112889766693115234e+00) (1, 1.21226000785827636719e+00) (2, 3.85089069604873657227e-01) (3, -4.19433265924453735352e-01) (4, -1.42391815781593322754e-01) (5, -1.07068669795989990234e+00) (6, 5.96268177032470703125e-01) (7, -8.94598290324211120605e-02) (8, -1.05261847376823425293e-01) (9, 1.16321110725402832031e+00) (10, -2.55338191986083984375e+00) (11, 1.05951273441314697266e+00) (12, 1.93063628673553466797e+00) (13, 9.38600376248359680176e-02) (14, -1.19802832603454589844e+00) (15, -5.56607484817504882812e-01) (16, 1.10438740253448486328e+00) (17, -1.67477166652679443359e+00) (18, 1.66671001911163330078e+00) (19, 1.67782580852508544922e+00) (20, -6.56502647325396537781e-03) (21, 2.17604017257690429688e+00) (22, -6.71834111213684082031e-01) (23, -1.25659716129302978516e+00) (24, 2.04423069953918457031e-02) (25, 5.46423733234405517578e-01) (26, 1.62201297283172607422e+00) (27, 1.90887486934661865234e+00) (28, 2.56853675842285156250e+00) (29, 8.97487640380859375000e-01) (30, -1.38208854198455810547e+00) (31, -1.48577928543090820312e+00) (32, 2.76615762710571289062e+00) (33, 3.96362632513046264648e-01) (34, 2.00532102584838867188e+00) (35, -1.54851901531219482422e+00) (36, -1.50439989566802978516e+00) (37, -3.87226843833923339844e+00) (38, 1.52630805969238281250e-02) (39, 2.13882851600646972656e+00) (40, 5.85959851741790771484e-01) (41, 3.81165957450866699219e+00) (42, -4.09808111190795898438e+00) (43, -1.57184171676635742188e+00) (44, -3.09918045997619628906e-01) (45, 3.96320968866348266602e-01) (46, 1.63609370589256286621e-01) (47, 5.06365358829498291016e-01) (48, -5.85290968418121337891e-01) (49, 1.27798724174499511719e+00) (50, -1.41971573233604431152e-01) (51, -3.92175495624542236328e-01) (0, 3.91664087772369384766e-01) (1, 5.46027481555938720703e-01) (2, -8.11420261859893798828e-01) (3, 1.82486679404973983765e-02) (4, 3.82396072149276733398e-01) (5, -1.95686426013708114624e-02) (6, 8.68041098117828369141e-01) (7, 1.22110240161418914795e-01) (8, 1.04645359516143798828e+00) (9, -2.06799700856208801270e-01) (10, -8.41444015502929687500e-01) (11, -1.03954851627349853516e+00) (12, 1.65963804721832275391e+00) (13, -5.77875912189483642578e-01) (14, -1.05445757508277893066e-02) (15, 1.46259665489196777344e-01) (16, -4.80046808719635009766e-01) (17, -5.38174986839294433594e-01) (18, 2.57530379295349121094e+00) (19, 3.12896585464477539062e+00) (20, 1.20000588893890380859e+00) (21, 1.34157180786132812500e+00) (22, -8.73289227485656738281e-01) (23, 1.28685259819030761719e+00) (24, -1.95500361919403076172e+00) (25, 6.39255523681640625000e-01) (26, -6.12900674343109130859e-01) (27, 2.45673084259033203125e+00) (28, 3.01360654830932617188e+00) (29, 2.74046242237091064453e-01) (30, -2.14363440871238708496e-01) (31, -1.22870624065399169922e+00) (32, 4.25350189208984375000e+00) (33, -1.41835463047027587891e+00) (34, 4.02591098099946975708e-03) (35, 1.28140532970428466797e+00) (36, -1.03038060665130615234e+00) (37, -1.84831130504608154297e+00) (38, -2.06484866142272949219e+00) (39, 1.37656295299530029297e+00) (40, -9.28697705268859863281e-01) (41, 6.36919736862182617188e+00) (42, -1.11150085926055908203e+00) (43, 6.14568293094635009766e-01) (44, -2.96348190307617187500e+00) (45, -5.72799491882324218750e+00) (46, -1.28981328010559082031e+00) (47, -9.24055576324462890625e-01) (48, 4.27085101604461669922e-01) (49, -1.00307691097259521484e+00) (50, -9.04752194881439208984e-01) (51, -1.88677966594696044922e+00) (52, -2.03711938858032226562e+00) (0, -1.93121865391731262207e-01) (1, 6.13789781928062438965e-02) (2, -2.23146229982376098633e-02) (3, 8.06202650070190429688e-01) (4, -8.47829878330230712891e-01) (5, 9.40064251422882080078e-01) (6, -9.31706845760345458984e-01) (7, -1.72438070178031921387e-01) (8, 1.11605668067932128906e+00) (9, 6.89504981040954589844e-01) (10, -2.63973212242126464844e+00) (11, -4.83718067407608032227e-01) (12, 1.09969544410705566406e+00) (13, -8.42744827270507812500e-01) (14, 1.07996821403503417969e+00) (15, 1.62537872791290283203e+00) (16, 1.51805996894836425781e+00) (17, -2.74844980239868164062e+00) (18, 2.39906096458435058594e+00) (19, 1.33091866970062255859e+00) (20, -3.01609635353088378906e+00) (21, 1.61615443229675292969e+00) (22, 1.18959748744964599609e+00) (23, -2.65275049209594726562e+00) (24, -1.58533871173858642578e-01) (25, 1.01056706905364990234e+00) (26, -5.46420931816101074219e-01) (27, 1.02820062637329101562e+00) (28, 2.04293203353881835938e+00) (29, -1.41450202465057373047e+00) (30, 4.49350088834762573242e-01) (31, 1.66994881629943847656e+00) (32, 3.56563282012939453125e+00) (33, 2.77408599853515625000e-01) (34, 7.73684382438659667969e-01) (35, -1.98933672904968261719e+00) (36, -8.83885085582733154297e-01) (37, -1.75995028018951416016e+00) (38, -6.03944696485996246338e-02) (39, 2.20553278923034667969e+00) (40, -1.41519105434417724609e+00) (41, 2.81669330596923828125e+00) (42, 9.37835633754730224609e-01) (43, -6.11954808235168457031e-01) (44, -2.74359643459320068359e-01) (45, 3.36533099412918090820e-01) (46, 8.47975671291351318359e-01) (47, -1.94677218794822692871e-01) (48, 2.01782673597335815430e-01) (49, -2.38950777053833007812e+00) (50, 2.87024583667516708374e-02) (51, 3.17276000976562500000e-01) (52, 5.62943100929260253906e-01) (53, -1.26931333541870117188e+00) (0, 4.43934589624404907227e-01) (1, 7.52725362777709960938e-01) (2, 7.13254451751708984375e-01) (3, 1.85883089900016784668e-01) (4, -1.19891691207885742188e+00) (5, 1.00477564334869384766e+00) (6, 9.55765664577484130859e-01) (7, -4.95533436536788940430e-01) (8, -5.19284367561340332031e-01) (9, 1.62974312901496887207e-01) (10, -3.70382332801818847656e+00) (11, -9.20147180557250976562e-01) (12, 1.74015390872955322266e+00) (13, -1.45247176289558410645e-01) (14, -1.07893729209899902344e+00) (15, 2.18006849288940429688e+00) (16, 3.20382237434387207031e-01) (17, -1.06758451461791992188e+00) (18, 1.83164942264556884766e+00) (19, 5.14093995094299316406e-01) (20, -1.32566380500793457031e+00) (21, 2.59888267517089843750e+00) (22, 1.11250117421150207520e-01) (23, -1.18933653831481933594e+00) (24, 2.59646862745285034180e-01) (25, 1.79697144031524658203e+00) (26, 1.09713208675384521484e+00) (27, 2.32194733619689941406e+00) (28, 1.44919550418853759766e+00) (29, -1.30602777004241943359e+00) (30, -3.35255408287048339844e+00) (31, 1.24847956001758575439e-01) (32, 2.20362186431884765625e+00) (33, 1.13256382942199707031e+00) (34, 1.48580658435821533203e+00) (35, -8.65497767925262451172e-01) (36, -6.95257186889648437500e-01) (37, -1.88594138622283935547e+00) (38, 1.05706655979156494141e+00) (39, 1.81597328186035156250e+00) (40, -1.14487409591674804688e+00) (41, 2.92695021629333496094e+00) (42, -3.46311479806900024414e-01) (43, -1.88553035259246826172e+00) (44, -8.49783793091773986816e-02) (45, -4.15339565277099609375e+00) (46, -3.91520947217941284180e-01) (47, 1.47083127498626708984e+00) (48, 1.92758178710937500000e+00) (49, -6.97321176528930664062e-01) (50, 3.73075395822525024414e-01) (51, 1.39591324329376220703e+00) (52, -2.19306516647338867188e+00) (53, 2.17394798994064331055e-01) (54, 3.28721618652343750000e+00) (0, 2.95241415500640869141e-01) (1, 3.08255612850189208984e-01) (2, -2.27139398455619812012e-01) (3, 7.33627200126647949219e-01) (4, 3.74591469764709472656e-01) (5, 3.08351874351501464844e-01) (6, -3.40604275465011596680e-01) (7, 9.55080538988113403320e-02) (8, 1.47321796417236328125e+00) (9, -8.44552397727966308594e-01) (10, -2.79805803298950195312e+00) (11, 1.44057556986808776855e-01) (12, 2.70222902297973632812e-01) (13, 1.75753846764564514160e-01) (14, -1.84486955404281616211e-01) (15, 3.05436849594116210938e+00) (16, -8.91737341880798339844e-01) (17, 1.72855347394943237305e-01) (18, 2.15258049964904785156e+00) (19, 3.34957861900329589844e+00) (20, -1.76946967840194702148e-01) (21, 2.37450391054153442383e-01) (22, -2.76270937919616699219e+00) (23, 1.67185425758361816406e-01) (24, -7.07251787185668945312e-01) (25, 5.16195416450500488281e-01) (26, -1.46127045154571533203e-01) (27, 9.94307398796081542969e-01) (28, 1.43708646297454833984e+00) (29, -1.47246107459068298340e-01) (30, -1.10797894001007080078e+00) (31, -3.90207499265670776367e-01) (32, 1.11793375015258789062e+00) (33, -9.03783500194549560547e-01) (34, -1.21551585197448730469e+00) (35, 2.52023994922637939453e-01) (36, 5.86723759770393371582e-02) (37, 6.05220198631286621094e-02) (38, -1.15287518501281738281e+00) (39, -1.05365765094757080078e+00) (40, 5.99549114704132080078e-01) (41, 2.43241572380065917969e+00) (42, -4.49486702680587768555e-01) (43, -9.45752143859863281250e-01) (44, 3.50940763950347900391e-01) (45, -2.64314126968383789062e+00) (46, 5.33878862857818603516e-01) (47, -1.91284191608428955078e+00) (48, 1.82341647148132324219e+00) (49, -9.33979451656341552734e-01) (50, -1.16831790655851364136e-02) (51, -3.45686078071594238281e+00) (52, -3.81686866283416748047e-01) (53, -8.31553518772125244141e-01) (54, -5.64417064189910888672e-01) (55, 1.42611432075500488281e+00) (0, 7.02846646308898925781e-02) (1, 3.38067978620529174805e-01) (2, 1.16917729377746582031e+00) (3, -1.24763906002044677734e-01) (4, -2.91327208280563354492e-01) (5, 3.95978957414627075195e-01) (6, -2.19219252467155456543e-01) (7, 4.08461511135101318359e-01) (8, 4.56956326961517333984e-02) (9, 4.86638128757476806641e-01) (10, -2.25714063644409179688e+00) (11, -1.58562749624252319336e-01) (12, -5.62324047088623046875e-01) (13, 5.49281299114227294922e-01) (14, 5.94551622867584228516e-01) (15, 2.24561882019042968750e+00) (16, 1.12621033191680908203e+00) (17, -1.20414876937866210938e+00) (18, 1.77527022361755371094e+00) (19, 6.17919504642486572266e-01) (20, 2.87321865558624267578e-01) (21, 4.96302038431167602539e-01) (22, -1.48370969295501708984e+00) (23, -1.04528129100799560547e+00) (24, 9.47300065308809280396e-03) (25, -1.34996211528778076172e+00) (26, 4.38818365335464477539e-01) (27, 2.45271039009094238281e+00) (28, 1.63015794754028320312e+00) (29, -1.19549691677093505859e+00) (30, 2.49423850327730178833e-02) (31, -3.26272702217102050781e+00) (32, 1.10737860202789306641e+00) (33, -8.69987308979034423828e-02) (34, 1.83064150810241699219e+00) (35, 6.11231923103332519531e-01) (36, -1.77996814250946044922e+00) (37, -2.61637520790100097656e+00) (38, 1.27693378925323486328e+00) (39, 6.77926719188690185547e-01) (40, -1.27075305208563804626e-02) (41, 3.84877276420593261719e+00) (42, -1.44697582721710205078e+00) (43, -7.36937522888183593750e-01) (44, 4.79184091091156005859e-01) (45, -3.64767938852310180664e-01) (46, -1.27563074231147766113e-01) (47, -1.91423761844635009766e+00) (48, 2.12173879146575927734e-01) (49, -8.15930068492889404297e-01) (50, 4.99078601598739624023e-01) (51, -8.48045051097869873047e-01) (52, -8.88875007629394531250e-01) (53, 1.15098130702972412109e+00) (54, 2.25819444656372070312e+00) (55, 4.12203431129455566406e-01) (56, -1.61254787445068359375e+00) (0, 2.80522286891937255859e-01) (1, -7.49222218990325927734e-01) (2, 1.42730188369750976562e+00) (3, 4.48969192802906036377e-02) (4, -8.88707190752029418945e-02) (5, -3.52824404835700988770e-02) (6, 9.61249291896820068359e-01) (7, -1.79961204528808593750e-01) (8, -1.67081922292709350586e-01) (9, -7.36831665039062500000e-01) (10, 1.03282928466796875000e+00) (11, 2.37040892243385314941e-01) (12, 1.52934885025024414062e+00) (13, 7.27482795715332031250e-01) (14, -1.84887742996215820312e+00) (15, 1.77946949005126953125e+00) (16, -4.92599248886108398438e-01) (17, -2.78598499298095703125e+00) (18, 1.32875430583953857422e+00) (19, 6.87174797058105468750e-01) (20, -1.32368415594100952148e-01) (21, -3.06343495845794677734e-01) (22, 1.13554453849792480469e+00) (23, 2.54668533802032470703e-01) (24, 2.47785195708274841309e-01) (25, -1.04119014739990234375e+00) (26, 1.07687687873840332031e+00) (27, 1.71528950333595275879e-01) (28, 3.44740796089172363281e+00) (29, -1.20115637779235839844e+00) (30, -2.07913255691528320312e+00) (31, -3.07497763633728027344e+00) (32, 1.12748324871063232422e+00) (33, -1.56459093093872070312e+00) (34, 9.04562830924987792969e-01) (35, -2.12780952453613281250e+00) (36, 9.03896212577819824219e-01) (37, -4.72822338342666625977e-01) (38, 7.34941840171813964844e-01) (39, 2.78693199157714843750e+00) (40, -5.48429131507873535156e-01) (41, 3.07515168190002441406e+00) (42, -1.13920152187347412109e+00) (43, -6.79870963096618652344e-01) (44, 1.24638879299163818359e+00) (45, -9.38382446765899658203e-01) (46, -4.82321798801422119141e-01) (47, -9.03661906719207763672e-01) (48, 5.25877714157104492188e-01) (49, -1.19207167625427246094e+00) (50, -4.82336997985839843750e-01) (51, -4.54301834106445312500e-01) (52, -7.98183917999267578125e-01) (53, 3.85037660598754882812e-01) (54, 1.93631422519683837891e+00) (55, 7.14712738990783691406e-01) (56, 7.84858465194702148438e-01) (57, -5.66422641277313232422e-01) (0, 1.21763028204441070557e-01) (1, -7.36346125602722167969e-01) (2, 5.08387126028537750244e-02) (3, 4.78082031011581420898e-01) (4, 2.35050201416015625000e-01) (5, -3.64329129457473754883e-01) (6, 1.60606920719146728516e-01) (7, -3.08335795998573303223e-02) (8, -3.35346132516860961914e-01) (9, 9.02931511402130126953e-01) (10, 8.35325598716735839844e-01) (11, -8.92744779586791992188e-01) (12, -6.20304763317108154297e-01) (13, -3.98794203996658325195e-01) (14, -3.85971367359161376953e-01) (15, -1.59416347742080688477e-01) (16, 1.03457510471343994141e+00) (17, -4.11895900964736938477e-01) (18, 1.82242441177368164062e+00) (19, 8.81455898284912109375e-01) (20, 7.19317495822906494141e-01) (21, 6.47220253944396972656e-01) (22, 7.25639998912811279297e-01) (23, -7.15498447418212890625e-01) (24, -6.37038469314575195312e-01) (25, 2.08874511718750000000e+00) (26, -8.82249176502227783203e-02) (27, 1.35067546367645263672e+00) (28, 1.49295723438262939453e+00) (29, 2.66665592789649963379e-02) (30, -3.18017937242984771729e-02) (31, -5.83757579326629638672e-01) (32, 1.44010293483734130859e+00) (33, 2.81309962272644042969e-01) (34, 1.20424938201904296875e+00) (35, -1.41926026344299316406e+00) (36, -1.78762471675872802734e+00) (37, -6.10675513744354248047e-01) (38, -2.31218799948692321777e-01) (39, 9.78845894336700439453e-01) (40, 3.63106101751327514648e-01) (41, 3.82235646247863769531e+00) (42, -1.32391619682312011719e+00) (43, -4.03189137578010559082e-02) (44, -1.96228349208831787109e+00) (45, -2.01053857803344726562e+00) (46, -2.60221987962722778320e-01) (47, -9.62017893791198730469e-01) (48, -1.73075124621391296387e-01) (49, -1.69095671176910400391e+00) (50, -5.28023779392242431641e-01) (51, 8.13777506351470947266e-01) (52, -1.55136430263519287109e+00) (53, 7.16903388500213623047e-01) (54, 1.20023953914642333984e+00) (55, 4.13045376539230346680e-01) (56, -1.68685421347618103027e-01) (57, 6.98710381984710693359e-01) (58, -5.06910204887390136719e-01) (0, -1.08356833457946777344e+00) (1, 1.48123371601104736328e+00) (2, 7.38272443413734436035e-02) (3, 1.24663114547729492188e+00) (4, -4.48189735412597656250e-01) (5, 6.06770873069763183594e-01) (6, -1.32336959242820739746e-01) (7, 3.64165604114532470703e-01) (8, 6.11967071890830993652e-02) (9, 1.39818459749221801758e-01) (10, -3.99117422103881835938e+00) (11, -2.23305630683898925781e+00) (12, -7.11632788181304931641e-01) (13, -4.11485284566879272461e-01) (14, 1.91883158683776855469e+00) (15, 5.91822803020477294922e-01) (16, -1.37694448232650756836e-01) (17, 3.67777884006500244141e-01) (18, 3.04185366630554199219e+00) (19, 3.29192280769348144531e+00) (20, -2.06977128982543945312e+00) (21, 2.87653493881225585938e+00) (22, -3.73182713985443115234e-01) (23, -1.30836808681488037109e+00) (24, 1.68600249290466308594e+00) (25, 4.00069743394851684570e-01) (26, 6.51994422078132629395e-02) (27, 2.17875599861145019531e+00) (28, 2.89649558067321777344e+00) (29, -1.77114617824554443359e+00) (30, -2.08789324760437011719e+00) (31, -8.14193725585937500000e-01) (32, 2.68928289413452148438e+00) (33, 2.08807781338691711426e-01) (34, 2.05389499664306640625e+00) (35, 3.15028354525566101074e-02) (36, -4.73481833934783935547e-01) (37, -1.19156777858734130859e+00) (38, -1.50413557887077331543e-01) (39, 1.72699642181396484375e+00) (40, -2.07447743415832519531e+00) (41, 4.61120986938476562500e+00) (42, -5.03717005252838134766e-01) (43, 3.80496196448802947998e-02) (44, -4.16873432695865631104e-02) (45, -2.68766570091247558594e+00) (46, -1.48649168014526367188e+00) (47, -1.10595202445983886719e+00) (48, -1.77988812327384948730e-01) (49, -5.42877852916717529297e-01) (50, -1.66986703872680664062e+00) (51, 1.87170577049255371094e+00) (52, -2.35766559839248657227e-01) (53, 5.95797717571258544922e-01) (54, 1.32740151882171630859e+00) (55, -7.38684535026550292969e-01) (56, -3.22034865617752075195e-01) (57, 2.29440554976463317871e-01) (58, -5.52445530891418457031e-01) (59, 1.65012335777282714844e+00) (0, 7.10357606410980224609e-01) (1, 1.08777105808258056641e+00) (2, 1.43288031220436096191e-01) (3, 1.21806092560291290283e-01) (4, -7.19216525554656982422e-01) (5, 1.69082748889923095703e+00) (6, 5.67423760890960693359e-01) (7, 1.17714643478393554688e+00) (8, -3.39114576578140258789e-01) (9, -9.60709333419799804688e-01) (10, -3.35020351409912109375e+00) (11, -1.40190887451171875000e+00) (12, 5.95919907093048095703e-01) (13, -5.05685567855834960938e-01) (14, -1.23030233383178710938e+00) (15, 2.96304512023925781250e+00) (16, 1.45581459999084472656e+00) (17, 2.39535069465637207031e+00) (18, 2.31727099418640136719e+00) (19, 9.62768316268920898438e-01) (20, -2.43515992164611816406e+00) (21, 7.06582844257354736328e-01) (22, 1.81290850043296813965e-01) (23, -2.66814780235290527344e+00) (24, 3.62489044666290283203e-01) (25, -6.64302229881286621094e-01) (26, -2.50467085838317871094e+00) (27, 2.90757346153259277344e+00) (28, 2.42471194267272949219e+00) (29, -9.47535574436187744141e-01) (30, -5.34784853458404541016e-01) (31, -1.33710551261901855469e+00) (32, 2.85802531242370605469e+00) (33, 9.74433004856109619141e-01) (34, 8.97965073585510253906e-01) (35, 2.15371990203857421875e+00) (36, -4.80467438697814941406e-01) (37, -1.98095285892486572266e+00) (38, -3.79622012376785278320e-01) (39, 2.20918703079223632812e+00) (40, -1.50078070163726806641e+00) (41, 2.17281103134155273438e+00) (42, 1.01045739650726318359e+00) (43, -5.34414827823638916016e-01) (44, -2.33399534225463867188e+00) (45, -2.36563277244567871094e+00) (46, -2.28398299217224121094e+00) (47, 1.21886692941188812256e-01) (48, -3.09854783117771148682e-02) (49, -2.03068113327026367188e+00) (50, 5.24351537227630615234e-01) (51, 1.07478249073028564453e+00) (52, -7.16952741146087646484e-01) (53, -6.75194621086120605469e-01) (54, 2.47354841232299804688e+00) (55, 2.22569870948791503906e+00) (56, -6.15322351455688476562e-01) (57, -1.00879311561584472656e+00) (58, 9.32806551456451416016e-01) (59, 1.34249448776245117188e-01) (60, -4.39410448074340820312e-01) (0, 8.41740310192108154297e-01) (1, 2.85747230052947998047e-01) (2, -5.27279198169708251953e-01) (3, 1.28193676471710205078e+00) (4, -9.76392805576324462891e-01) (5, -2.28105410933494567871e-01) (6, 1.22089838981628417969e+00) (7, -5.49852801486849784851e-03) (8, 1.10977363586425781250e+00) (9, -5.17949223518371582031e-01) (10, -3.64229351282119750977e-01) (11, -1.86310970783233642578e+00) (12, 1.92230761051177978516e+00) (13, 5.66072285175323486328e-01) (14, -5.36416232585906982422e-01) (15, 2.68967223167419433594e+00) (16, 2.28644752502441406250e+00) (17, 2.18294858932495117188e-01) (18, 1.49616456031799316406e+00) (19, 4.02209472656250000000e+00) (20, -1.47297966480255126953e+00) (21, 1.12845706939697265625e+00) (22, -3.53371888399124145508e-01) (23, -1.47014904022216796875e+00) (24, -2.62578797340393066406e+00) (25, 1.68006026744842529297e+00) (26, 3.85954201221466064453e-01) (27, 7.90465235710144042969e-01) (28, 3.06175899505615234375e+00) (29, 1.06760394573211669922e+00) (30, -1.94412040710449218750e+00) (31, 5.29425799846649169922e-01) (32, 2.63776373863220214844e+00) (33, 1.27740645408630371094e+00) (34, 2.31819367408752441406e+00) (35, -9.28811967372894287109e-01) (36, -4.50821399688720703125e-01) (37, -3.05885583162307739258e-01) (38, 2.73430496454238891602e-01) (39, 2.25452661514282226562e+00) (40, -8.98198902606964111328e-01) (41, 5.21717643737792968750e+00) (42, -3.18694621324539184570e-01) (43, -1.47925901412963867188e+00) (44, 4.60096538066864013672e-01) (45, 1.21186427772045135498e-01) (46, -2.74705386161804199219e+00) (47, 6.74851834774017333984e-01) (48, 1.74303114414215087891e-01) (49, -2.40350365638732910156e+00) (50, -7.44845807552337646484e-01) (51, 1.28894686698913574219e-01) (52, -1.23028504848480224609e+00) (53, 8.07700037956237792969e-01) (54, 1.64546087384223937988e-01) (55, 1.55219864845275878906e+00) (56, -1.12380564212799072266e+00) (57, 1.40514001250267028809e-01) (58, 5.48723280429840087891e-01) (59, 1.38558638095855712891e+00) (60, -7.98157811164855957031e-01) (61, -7.83138632774353027344e-01) (0, 1.73679304122924804688e+00) (1, 1.32166492938995361328e+00) (2, 3.83721500635147094727e-01) (3, -5.55171370506286621094e-01) (4, 2.56867915391921997070e-01) (5, -9.48949575424194335938e-01) (6, -3.20392340421676635742e-01) (7, 1.27577066421508789062e+00) (8, 1.05078697204589843750e+00) (9, -3.01842838525772094727e-01) (10, -3.79513001441955566406e+00) (11, -2.36371493339538574219e+00) (12, 7.01272130012512207031e-01) (13, 4.77016985416412353516e-01) (14, 1.74012959003448486328e-01) (15, 2.06427526473999023438e+00) (16, -1.13218104839324951172e+00) (17, -7.56000757217407226562e-01) (18, 3.78517889976501464844e+00) (19, 1.74701523780822753906e+00) (20, -2.15402436256408691406e+00) (21, 1.81224751472473144531e+00) (22, -1.64097166061401367188e+00) (23, 2.94681906700134277344e+00) (24, 8.23852345347404479980e-02) (25, -1.16643977165222167969e+00) (26, -5.25180339813232421875e-01) (27, 1.77858638763427734375e+00) (28, 2.42829251289367675781e+00) (29, -1.00262022018432617188e+00) (30, -4.10515010356903076172e-01) (31, 2.00885266065597534180e-01) (32, 1.32648324966430664062e+00) (33, -1.23601309955120086670e-01) (34, 9.22512412071228027344e-01) (35, 8.57567071914672851562e-01) (36, -7.32846975326538085938e-01) (37, -1.68418824672698974609e+00) (38, -3.59243679046630859375e+00) (39, 3.28060197830200195312e+00) (40, 7.83601820468902587891e-01) (41, 3.46489405632019042969e+00) (42, -9.45348978042602539062e-01) (43, -6.21514976024627685547e-01) (44, -4.15123403072357177734e-01) (45, -3.21860766410827636719e+00) (46, 2.29519486427307128906e-01) (47, -7.40835666656494140625e-01) (48, -9.18039739131927490234e-01) (49, -1.66430640220642089844e+00) (50, 1.67316257953643798828e-01) (51, -2.83650112152099609375e+00) (52, -1.24193198978900909424e-01) (53, 9.13106441497802734375e-01) (54, 1.72954368591308593750e+00) (55, -1.79673641920089721680e-01) (56, -2.13476872444152832031e+00) (57, 1.56205070018768310547e+00) (58, 2.75695109367370605469e+00) (59, 1.90982532501220703125e+00) (60, -2.05114364624023437500e+00) (61, -9.03404712677001953125e-01) (62, -7.96903669834136962891e-01) (0, 8.81293594837188720703e-01) (1, -9.11792069673538208008e-02) (2, 9.62902069091796875000e-01) (3, -5.41805177927017211914e-02) (4, -3.88512343168258666992e-01) (5, 1.38901317119598388672e+00) (6, -6.75151407718658447266e-01) (7, 1.15968799591064453125e+00) (8, -3.66300679743289947510e-02) (9, -1.31301447749137878418e-01) (10, 7.75914371013641357422e-01) (11, -6.05224132537841796875e+00) (12, -1.93651056289672851562e+00) (13, 1.11732470989227294922e+00) (14, 6.65010750293731689453e-01) (15, 2.51874971389770507812e+00) (16, 1.73191916942596435547e+00) (17, 2.16731160879135131836e-01) (18, 4.42460155487060546875e+00) (19, 1.45314776897430419922e+00) (20, -4.01645803451538085938e+00) (21, 1.77240848541259765625e+00) (22, -8.73437821865081787109e-01) (23, -1.87482404708862304688e+00) (24, -8.99312376976013183594e-01) (25, 1.50947546958923339844e+00) (26, 1.68622285127639770508e-01) (27, 3.37644696235656738281e+00) (28, 2.37792968750000000000e+00) (29, -8.77281486988067626953e-01) (30, -7.81865715980529785156e-01) (31, -1.77261948585510253906e+00) (32, 1.54333472251892089844e+00) (33, -7.14334011077880859375e-01) (34, 9.72394764423370361328e-01) (35, 8.84743750095367431641e-01) (36, -1.27335643768310546875e+00) (37, -5.67773997783660888672e-01) (38, -1.29334509372711181641e+00) (39, 2.45038247108459472656e+00) (40, -2.46963000297546386719e+00) (41, 3.84083271026611328125e+00) (42, 3.62383902072906494141e-01) (43, -2.59199619293212890625e+00) (44, -1.98918843269348144531e+00) (45, -7.51873314380645751953e-01) (46, -1.38973915576934814453e+00) (47, 7.82835900783538818359e-01) (48, -9.47128891944885253906e-01) (49, -1.12394833564758300781e+00) (50, -3.72299700975418090820e-01) (51, -1.16731822490692138672e+00) (52, 1.91951143741607666016e+00) (53, 7.45073258876800537109e-01) (54, -1.61795586347579956055e-01) (55, 8.98232161998748779297e-01) (56, -2.52965033054351806641e-01) (57, 5.40912866592407226562e-01) (58, 1.76579189300537109375e+00) (59, 1.52108657360076904297e+00) (60, -2.01037406921386718750e+00) (61, -1.23064100742340087891e+00) (62, -1.89473879337310791016e+00) (63, -1.61591637134552001953e+00) (0, -4.37016576528549194336e-01) (1, 8.09271097183227539062e-01) (2, -3.40179741382598876953e-01) (3, 4.78688180446624755859e-01) (4, -1.30481421947479248047e+00) (5, 1.27730250358581542969e+00) (6, -8.76641422510147094727e-02) (7, 9.70873832702636718750e-01) (8, -1.46008342504501342773e-01) (9, 7.56162524223327636719e-01) (10, 7.58317559957504272461e-02) (11, -8.48608672618865966797e-01) (12, -6.75320684909820556641e-01) (13, 1.16342341899871826172e+00) (14, 1.39041423797607421875e+00) (15, 3.33808660507202148438e+00) (16, 1.68529760837554931641e+00) (17, 1.46592867374420166016e+00) (18, 8.28543424606323242188e-01) (19, 2.11896586418151855469e+00) (20, -1.19446599483489990234e+00) (21, 3.63116455078125000000e+00) (22, 6.33854687213897705078e-01) (23, -2.98364305496215820312e+00) (24, -4.84191387891769409180e-01) (25, 6.39667510986328125000e-01) (26, -9.19011294841766357422e-01) (27, 1.94728970527648925781e+00) (28, 3.50795149803161621094e+00) (29, -3.33962708711624145508e-01) (30, -1.10187865793704986572e-01) (31, -1.59409594535827636719e+00) (32, 1.72370803356170654297e+00) (33, 1.26149320602416992188e+00) (34, 7.01833546161651611328e-01) (35, -3.91482114791870117188e-01) (36, -9.99946177005767822266e-01) (37, -2.53980422019958496094e+00) (38, -1.95211395621299743652e-01) (39, 3.26190662384033203125e+00) (40, -1.35274791717529296875e+00) (41, 2.33283782005310058594e+00) (42, 8.29276084899902343750e-01) (43, -1.49136972427368164062e+00) (44, -1.65195643901824951172e+00) (45, 1.02590620517730712891e+00) (46, -1.67419373989105224609e+00) (47, -1.99096173048019409180e-01) (48, 9.63757872581481933594e-01) (49, -3.43385529518127441406e+00) (50, -1.77932238578796386719e+00) (51, 1.97385656833648681641e+00) (52, -1.35460972785949707031e+00) (53, 7.51169681549072265625e-01) (54, 2.32978248596191406250e+00) (55, 8.86975228786468505859e-01) (56, 3.51247638463973999023e-01) (57, -7.08704411983489990234e-01) (58, 5.79869389533996582031e-01) (59, 2.57441192865371704102e-01) (60, -1.20148503780364990234e+00) (61, -1.87550151348114013672e+00) (62, -2.17482733726501464844e+00) (63, 1.66174018383026123047e+00) (64, -2.53167659044265747070e-01) (0, -4.17345523834228515625e-01) (1, 6.73678159713745117188e-01) (2, 1.42553436756134033203e+00) (3, 2.69596338272094726562e-01) (4, 1.61617711186408996582e-01) (5, 4.90704357624053955078e-01) (6, -7.08734989166259765625e-01) (7, 1.61666631698608398438e-01) (8, 1.68986946344375610352e-01) (9, -4.37526643276214599609e-01) (10, -2.69359850883483886719e+00) (11, -9.07005548477172851562e-01) (12, -5.36900639533996582031e-01) (13, 2.02417898178100585938e+00) (14, 1.98022150993347167969e+00) (15, 1.26167607307434082031e+00) (16, 2.32027268409729003906e+00) (17, -5.59658586978912353516e-01) (18, 4.39179897308349609375e+00) (19, 3.61878943443298339844e+00) (20, -2.06537461280822753906e+00) (21, 6.04672670364379882812e-01) (22, 5.84040164947509765625e-01) (23, -5.83844959735870361328e-01) (24, 6.52286648750305175781e-01) (25, 2.09594339132308959961e-01) (26, 1.05376243591308593750e+00) (27, 2.31471037864685058594e+00) (28, 2.85957765579223632812e+00) (29, -1.50190818309783935547e+00) (30, -3.22013974189758300781e+00) (31, -5.79880356788635253906e-01) (32, 1.44162833690643310547e+00) (33, 1.21009618043899536133e-01) (34, 1.13110087811946868896e-01) (35, -3.58443632721900939941e-02) (36, -1.29182505607604980469e+00) (37, 6.55169785022735595703e-01) (38, 1.91058516502380371094e+00) (39, 2.33183765411376953125e+00) (40, -1.47263491153717041016e+00) (41, 3.36602067947387695312e+00) (42, -2.22146362066268920898e-01) (43, -2.15789389610290527344e+00) (44, -3.93873266875743865967e-02) (45, -2.07321333885192871094e+00) (46, -1.79725274443626403809e-01) (47, -7.76051521301269531250e-01) (48, 3.87893348932266235352e-01) (49, -2.31551006436347961426e-02) (50, 4.69095796346664428711e-01) (51, -2.23470166325569152832e-01) (52, -1.48376524448394775391e+00) (53, 1.60254287719726562500e+00) (54, 4.89693671464920043945e-01) (55, 9.64714527130126953125e-01) (56, 2.90005087852478027344e-01) (57, -1.25211656093597412109e+00) (58, 8.28270554542541503906e-01) (59, 1.04752290248870849609e+00) (60, -1.67203712463378906250e+00) (61, 6.81444227695465087891e-01) (62, -8.76379191875457763672e-01) (63, 6.26093745231628417969e-01) (64, -9.86260548233985900879e-02) (65, -8.61968100070953369141e-01) (0, -4.38081324100494384766e-01) (1, 3.46153676509857177734e-01) (2, -7.59725391864776611328e-01) (3, 4.21290434896945953369e-02) (4, -7.43313789367675781250e-01) (5, -6.98015272617340087891e-01) (6, 2.93723493814468383789e-01) (7, 1.01124286651611328125e+00) (8, 1.25384545326232910156e+00) (9, 1.46887886524200439453e+00) (10, 1.02779245376586914062e+00) (11, -5.38379669189453125000e-01) (12, 1.35091435909271240234e+00) (13, -9.52700912952423095703e-01) (14, 1.38512635231018066406e+00) (15, 1.11163866519927978516e+00) (16, 2.20350790023803710938e+00) (17, -9.84542667865753173828e-01) (18, 2.84766626358032226562e+00) (19, 1.84587228298187255859e+00) (20, -1.05684995651245117188e+00) (21, 2.30686712265014648438e+00) (22, -7.53164589405059814453e-01) (23, 7.74587333202362060547e-01) (24, -7.78346419334411621094e-01) (25, -1.82134300470352172852e-01) (26, -7.06122875213623046875e-01) (27, 2.37565255165100097656e+00) (28, 3.36066412925720214844e+00) (29, -1.54525935649871826172e+00) (30, -8.18859040737152099609e-01) (31, -9.35157179832458496094e-01) (32, 2.59505748748779296875e+00) (33, 1.68491077423095703125e+00) (34, 3.59179913997650146484e-01) (35, -1.26327872276306152344e+00) (36, -2.19347238540649414062e+00) (37, -3.22638225555419921875e+00) (38, 2.87588685750961303711e-01) (39, 7.85780131816864013672e-01) (40, 7.99835264682769775391e-01) (41, 3.62782645225524902344e+00) (42, -4.47367429733276367188e-01) (43, 1.77730828523635864258e-01) (44, 3.32309246063232421875e-01) (45, -4.61354583501815795898e-01) (46, -2.33955574035644531250e+00) (47, -5.12432515621185302734e-01) (48, 5.18534898757934570312e-01) (49, -2.65273451805114746094e+00) (50, -1.12408399581909179688e+00) (51, 4.92007315158843994141e-01) (52, -1.15597450733184814453e+00) (53, 5.98309576511383056641e-01) (54, -2.63644844293594360352e-01) (55, 1.55924057960510253906e+00) (56, -1.50487446784973144531e+00) (57, -1.86072659492492675781e+00) (58, 7.16543197631835937500e-01) (59, 1.13822293281555175781e+00) (60, -2.03109121322631835938e+00) (61, -1.06278467178344726562e+00) (62, -9.66503560543060302734e-01) (63, 1.17970776557922363281e+00) (64, 8.14852535724639892578e-01) (65, -1.17174899578094482422e+00) (66, 1.56514179706573486328e+00) (0, -1.31530687212944030762e-01) (1, -1.39789968729019165039e-01) (2, 7.99592852592468261719e-01) (3, -1.04385292530059814453e+00) (4, -2.52625018358230590820e-01) (5, 7.73561775684356689453e-01) (6, -1.69057533144950866699e-01) (7, 6.83090746402740478516e-01) (8, 1.19972336292266845703e+00) (9, 5.36371409893035888672e-01) (10, -9.25391614437103271484e-01) (11, -2.92543560266494750977e-01) (12, 1.71657100319862365723e-01) (13, -1.79198719561100006104e-02) (14, 9.04042005538940429688e-01) (15, 1.25251317024230957031e+00) (16, 1.39594995975494384766e+00) (17, -1.24947416782379150391e+00) (18, 2.45817613601684570312e+00) (19, 8.47651362419128417969e-01) (20, -1.97406136989593505859e+00) (21, 1.32044196128845214844e+00) (22, -2.25806906819343566895e-01) (23, -1.62025308609008789062e+00) (24, -1.83675372600555419922e+00) (25, 1.72694027423858642578e-01) (26, 8.55267196893692016602e-02) (27, 3.31765413284301757812e+00) (28, 2.17720365524291992188e+00) (29, 1.00231066346168518066e-01) (30, -1.97051870822906494141e+00) (31, -3.69403409957885742188e+00) (32, 1.15160393714904785156e+00) (33, 5.52132904529571533203e-01) (34, -9.62834358215332031250e-02) (35, -7.20225811004638671875e-01) (36, -1.67473649978637695312e+00) (37, -3.04937338829040527344e+00) (38, -1.27540123462677001953e+00) (39, 1.81088399887084960938e+00) (40, -1.99349176883697509766e+00) (41, 5.26976764202117919922e-01) (42, -1.13347277045249938965e-01) (43, 6.86126351356506347656e-01) (44, -1.15089344978332519531e+00) (45, 7.01442897319793701172e-01) (46, -2.51249577850103378296e-02) (47, 9.72189486026763916016e-01) (48, 4.38884168863296508789e-01) (49, -1.62904942035675048828e+00) (50, 1.12389838695526123047e+00) (51, -7.84917593002319335938e-01) (52, -4.12216693162918090820e-01) (53, 1.63076853752136230469e+00) (54, 1.69808244705200195312e+00) (55, 1.84389770030975341797e-01) (56, 9.33027923107147216797e-01) (57, -3.33995175361633300781e+00) (58, 1.43002080917358398438e+00) (59, 1.82661044597625732422e+00) (60, -2.41905316710472106934e-01) (61, -2.17169380187988281250e+00) (62, -3.45113277435302734375e-01) (63, 1.34032976627349853516e+00) (64, -2.70545005798339843750e-01) (65, -1.22923862934112548828e+00) (66, 2.33591270446777343750e+00) (67, -6.86623096466064453125e-01) (0, 9.14767742156982421875e-01) (1, -5.10285079479217529297e-01) (2, 3.22177618741989135742e-01) (3, 3.66718620061874389648e-01) (4, -7.58007049560546875000e-01) (5, 1.34877693653106689453e+00) (6, -7.46432125568389892578e-01) (7, 3.80146920680999755859e-01) (8, 1.47044742107391357422e+00) (9, 1.76025837659835815430e-01) (10, 1.64337325096130371094e+00) (11, -2.16045331954956054688e+00) (12, -1.03035584092140197754e-01) (13, 2.66944915056228637695e-01) (14, 2.44633269309997558594e+00) (15, 1.14583981037139892578e+00) (16, 1.75904119014739990234e+00) (17, 2.42694926261901855469e+00) (18, 4.95056581497192382812e+00) (19, 2.20475125312805175781e+00) (20, -2.09865641593933105469e+00) (21, 5.50289928913116455078e-01) (22, -2.05666589736938476562e+00) (23, -1.36203896999359130859e+00) (24, -7.86151587963104248047e-01) (25, -8.45204293727874755859e-01) (26, -4.23934268951416015625e+00) (27, 1.57114946842193603516e+00) (28, 3.32608819007873535156e+00) (29, -6.79900050163269042969e-01) (30, -2.42862391471862792969e+00) (31, -1.86766266822814941406e+00) (32, 3.49016523361206054688e+00) (33, 2.00425945222377777100e-02) (34, 1.84350423514842987061e-02) (35, -4.01777410507202148438e+00) (36, -1.99597448110580444336e-01) (37, -1.23193883895874023438e+00) (38, -1.54883533716201782227e-01) (39, 2.82051110267639160156e+00) (40, -2.16713666915893554688e+00) (41, 2.65403676033020019531e+00) (42, 1.87243223190307617188e-01) (43, 1.06002902984619140625e+00) (44, -1.82051157951354980469e+00) (45, -3.21332991123199462891e-01) (46, 3.78641575574874877930e-01) (47, 2.23929375410079956055e-01) (48, 1.29539752006530761719e+00) (49, -2.48626136779785156250e+00) (50, 4.17048275470733642578e-01) (51, -9.71587717533111572266e-01) (52, -1.37018978595733642578e+00) (53, 7.98376202583312988281e-01) (54, 2.35072135925292968750e+00) (55, 2.50951457023620605469e+00) (56, -2.96378827095031738281e+00) (57, -9.62031841278076171875e-01) (58, 3.80833119153976440430e-01) (59, 5.83958208560943603516e-01) (60, -2.20789599418640136719e+00) (61, -1.25857126712799072266e+00) (62, -2.89176464080810546875e+00) (63, 1.98220312595367431641e+00) (64, 7.37707495689392089844e-01) (65, 4.04259040951728820801e-02) (66, 1.64809238910675048828e+00) (67, -2.06609201431274414062e+00) (68, -2.66588807106018066406e+00) (0, 1.38689234852790832520e-01) (1, 3.90311062335968017578e-01) (2, -9.79387238621711730957e-02) (3, 7.83984661102294921875e-02) (4, -4.42264854907989501953e-01) (5, 8.71792316436767578125e-01) (6, 7.06279277801513671875e-01) (7, -6.66389882564544677734e-01) (8, 6.03745520114898681641e-01) (9, 5.39430379867553710938e-01) (10, 4.01500403881072998047e-01) (11, -1.04162311553955078125e+00) (12, -4.66832578182220458984e-01) (13, -2.10509324073791503906e+00) (14, 1.00986170768737792969e+00) (15, 2.09201765060424804688e+00) (16, 8.46945166587829589844e-01) (17, -1.65120851993560791016e+00) (18, 2.83919334411621093750e+00) (19, 3.10123252868652343750e+00) (20, 3.76731008291244506836e-01) (21, 1.51099646091461181641e+00) (22, 1.52360463142395019531e+00) (23, 5.66862702369689941406e-01) (24, -3.11303324997425079346e-02) (25, 1.07178795337677001953e+00) (26, 2.27707818150520324707e-01) (27, 3.29918861389160156250e+00) (28, 3.16153597831726074219e+00) (29, -1.04917979240417480469e+00) (30, -2.75240540504455566406e+00) (31, -2.70358276367187500000e+00) (32, 1.63549089431762695312e+00) (33, 2.69882351160049438477e-01) (34, -7.16151177883148193359e-01) (35, 8.60745549201965332031e-01) (36, -1.16445827484130859375e+00) (37, -3.10603165626525878906e+00) (38, 8.65507066249847412109e-01) (39, 1.37873339653015136719e+00) (40, -7.95891046524047851562e-01) (41, 4.60110139846801757812e+00) (42, -1.11617481708526611328e+00) (43, -1.59198260307312011719e+00) (44, -7.39974141120910644531e-01) (45, -9.97877359390258789062e-01) (46, 2.21596121788024902344e-01) (47, -2.78580307960510253906e-01) (48, 1.26585042476654052734e+00) (49, -1.88509416580200195312e+00) (50, -3.27350586652755737305e-01) (51, -9.38358083367347717285e-02) (52, -1.81760072708129882812e-01) (53, 5.85737168788909912109e-01) (54, 1.64669013023376464844e+00) (55, 7.49179363250732421875e-01) (56, -2.85747081041336059570e-01) (57, -1.24602210521697998047e+00) (58, 1.62262511253356933594e+00) (59, 2.75430023670196533203e-01) (60, -2.01293730735778808594e+00) (61, -1.74578249454498291016e+00) (62, -2.16266036033630371094e+00) (63, 1.22522568702697753906e+00) (64, 1.00377440452575683594e+00) (65, -1.25394368171691894531e+00) (66, 6.10193490982055664062e-01) (67, -1.15524029731750488281e+00) (68, -6.67109131813049316406e-01) (69, 1.61553275585174560547e+00) (0, 3.82195085287094116211e-01) (1, -5.69114148616790771484e-01) (2, -2.55165286362171173096e-02) (3, -3.29721301794052124023e-01) (4, 4.02247812598943710327e-03) (5, 1.15338802337646484375e+00) (6, -4.75218623876571655273e-01) (7, 4.55112636089324951172e-01) (8, 6.73074960708618164062e-01) (9, 2.24275484681129455566e-01) (10, 4.80098813772201538086e-01) (11, 7.19364345073699951172e-01) (12, 8.06433200836181640625e-01) (13, 