FANN_FLO_2.1
num_layers=2
learning_rate=0.700000
connection_rate=1.000000
network_type=1
learning_momentum=0.000000
training_algorithm=2
train_error_function=0
train_stop_function=0
cascade_output_change_fraction=0.010000
quickprop_decay=-0.000100
quickprop_mu=1.750000
rprop_increase_factor=1.200000
rprop_decrease_factor=0.500000
rprop_delta_min=0.000000
rprop_delta_max=50.000000
rprop_delta_zero=0.100000
cascade_output_stagnation_epochs=12
cascade_candidate_change_fraction=0.010000
cascade_candidate_stagnation_epochs=12
cascade_max_out_epochs=150
cascade_max_cand_epochs=150
cascade_num_candidate_groups=8
bit_fail_limit=8.99999976158142089844e-01
cascade_candidate_limit=1.00000000000000000000e+03
cascade_weight_multiplier=4.00000005960464477539e-01
cascade_activation_functions_count=1
cascade_activation_functions=5 
cascade_activation_steepnesses_count=1
cascade_activation_steepnesses=1.00000000000000000000e+00 
layer_sizes=11 156 
scale_included=0
neurons (num_inputs, activation_function, activation_steepness)=(0, 0, 0.00000000000000000000e+00) (0, 0, 0.00000000000000000000e+00) (0, 0, 0.00000000000000000000e+00) (0, 0, 0.00000000000000000000e+00) (0, 0, 0.00000000000000000000e+00) (0, 0, 0.00000000000000000000e+00) (0, 0, 0.00000000000000000000e+00) (0, 0, 0.00000000000000000000e+00) (0, 0, 0.00000000000000000000e+00) (0, 0, 0.00000000000000000000e+00) (0, 0, 0.00000000000000000000e+00) (11, 0, 5.00000000000000000000e-01) (11, 0, 5.00000000000000000000e-01) (11, 0, 5.00000000000000000000e-01) (11, 0, 5.00000000000000000000e-01) (11, 0, 5.00000000000000000000e-01) (11, 0, 5.00000000000000000000e-01) (11, 0, 5.00000000000000000000e-01) (11, 0, 5.00000000000000000000e-01) (11, 0, 5.00000000000000000000e-01) (11, 0, 5.00000000000000000000e-01) (11, 0, 5.00000000000000000000e-01) (11, 0, 5.00000000000000000000e-01) (11, 0, 5.00000000000000000000e-01) (11, 0, 5.00000000000000000000e-01) (11, 0, 5.00000000000000000000e-01) (11, 0, 5.00000000000000000000e-01) (11, 0, 5.00000000000000000000e-01) (11, 0, 5.00000000000000000000e-01) (11, 0, 5.00000000000000000000e-01) (11, 0, 5.00000000000000000000e-01) (11, 0, 5.00000000000000000000e-01) (11, 0, 5.00000000000000000000e-01) (11, 0, 5.00000000000000000000e-01) (11, 0, 5.00000000000000000000e-01) (11, 0, 5.00000000000000000000e-01) (11, 0, 5.00000000000000000000e-01) (11, 0, 5.00000000000000000000e-01) (11, 0, 5.00000000000000000000e-01) (11, 0, 5.00000000000000000000e-01) (11, 0, 5.00000000000000000000e-01) (11, 0, 5.00000000000000000000e-01) (11, 0, 5.00000000000000000000e-01) (11, 0, 5.00000000000000000000e-01) (11, 0, 5.00000000000000000000e-01) (11, 0, 5.00000000000000000000e-01) (11, 0, 5.00000000000000000000e-01) (11, 0, 5.00000000000000000000e-01) (11, 0, 5.00000000000000000000e-01) (11, 0, 5.00000000000000000000e-01) (11, 0, 5.00000000000000000000e-01) (11, 0, 5.00000000000000000000e-01) (11, 0, 5.00000000000000000000e-01) (11, 0, 5.00000000000000000000e-01) (11, 0, 5.00000000000000000000e-01) (11, 0, 5.00000000000000000000e-01) (11, 0, 5.00000000000000000000e-01) (11, 0, 5.00000000000000000000e-01) (11, 0, 5.00000000000000000000e-01) (11, 0, 5.00000000000000000000e-01) (11, 0, 5.00000000000000000000e-01) (11, 0, 5.00000000000000000000e-01) (11, 0, 5.00000000000000000000e-01) (11, 0, 5.00000000000000000000e-01) (11, 0, 5.00000000000000000000e-01) (11, 0, 5.00000000000000000000e-01) (11, 0, 5.00000000000000000000e-01) (11, 0, 5.00000000000000000000e-01) (11, 0, 5.00000000000000000000e-01) (11, 0, 5.00000000000000000000e-01) (11, 0, 5.00000000000000000000e-01) (11, 0, 5.00000000000000000000e-01) (11, 0, 5.00000000000000000000e-01) (11, 0, 5.00000000000000000000e-01) (11, 0, 5.00000000000000000000e-01) (11, 0, 5.00000000000000000000e-01) (11, 0, 5.00000000000000000000e-01) (11, 0, 5.00000000000000000000e-01) (11, 0, 5.00000000000000000000e-01) (11, 0, 5.00000000000000000000e-01) (11, 0, 5.00000000000000000000e-01) (11, 0, 5.00000000000000000000e-01) (11, 0, 5.00000000000000000000e-01) (11, 0, 5.00000000000000000000e-01) (11, 0, 5.00000000000000000000e-01) (11, 0, 5.00000000000000000000e-01) (11, 0, 5.00000000000000000000e-01) (11, 0, 5.00000000000000000000e-01) (11, 0, 5.00000000000000000000e-01) (11, 0, 5.00000000000000000000e-01) (11, 0, 5.00000000000000000000e-01) (11, 0, 5.00000000000000000000e-01) (11, 0, 5.00000000000000000000e-01) (11, 0, 5.00000000000000000000e-01) (11, 0, 5.00000000000000000000e-01) (11, 0, 5.00000000000000000000e-01) (11, 0, 5.00000000000000000000e-01) (11, 0, 5.00000000000000000000e-01) (11, 0, 5.00000000000000000000e-01) (11, 0, 5.00000000000000000000e-01) (11, 0, 5.00000000000000000000e-01) (11, 0, 5.00000000000000000000e-01) (11, 0, 5.00000000000000000000e-01) (11, 0, 5.00000000000000000000e-01) (11, 0, 5.00000000000000000000e-01) (11, 0, 5.00000000000000000000e-01) (11, 0, 5.00000000000000000000e-01) (11, 0, 5.00000000000000000000e-01) (11, 0, 5.00000000000000000000e-01) (11, 0, 5.00000000000000000000e-01) (11, 0, 5.00000000000000000000e-01) (11, 0, 5.00000000000000000000e-01) (11, 0, 5.00000000000000000000e-01) (11, 0, 5.00000000000000000000e-01) (11, 0, 5.00000000000000000000e-01) (11, 0, 5.00000000000000000000e-01) (11, 0, 5.00000000000000000000e-01) (11, 0, 5.00000000000000000000e-01) (11, 0, 5.00000000000000000000e-01) (11, 0, 5.00000000000000000000e-01) (11, 0, 5.00000000000000000000e-01) (11, 0, 5.00000000000000000000e-01) (11, 0, 5.00000000000000000000e-01) (11, 0, 5.00000000000000000000e-01) (11, 0, 5.00000000000000000000e-01) (11, 0, 5.00000000000000000000e-01) (11, 0, 5.00000000000000000000e-01) (11, 0, 5.00000000000000000000e-01) (11, 0, 5.00000000000000000000e-01) (11, 0, 5.00000000000000000000e-01) (11, 0, 5.00000000000000000000e-01) (11, 0, 5.00000000000000000000e-01) (11, 0, 5.00000000000000000000e-01) (11, 0, 5.00000000000000000000e-01) (11, 0, 5.00000000000000000000e-01) (11, 0, 5.00000000000000000000e-01) (11, 0, 5.00000000000000000000e-01) (11, 0, 5.00000000000000000000e-01) (11, 0, 5.00000000000000000000e-01) (11, 0, 5.00000000000000000000e-01) (11, 0, 5.00000000000000000000e-01) (11, 0, 5.00000000000000000000e-01) (11, 0, 5.00000000000000000000e-01) (11, 0, 5.00000000000000000000e-01) (11, 0, 5.00000000000000000000e-01) (11, 0, 5.00000000000000000000e-01) (11, 0, 5.00000000000000000000e-01) (11, 0, 5.00000000000000000000e-01) (11, 0, 5.00000000000000000000e-01) (11, 0, 5.00000000000000000000e-01) (11, 0, 5.00000000000000000000e-01) (11, 0, 5.00000000000000000000e-01) (11, 0, 5.00000000000000000000e-01) (11, 0, 5.00000000000000000000e-01) (11, 0, 5.00000000000000000000e-01) (11, 0, 5.00000000000000000000e-01) (11, 0, 5.00000000000000000000e-01) (11, 0, 5.00000000000000000000e-01) (11, 0, 5.00000000000000000000e-01) (11, 0, 5.00000000000000000000e-01) (11, 0, 5.00000000000000000000e-01) (11, 0, 5.00000000000000000000e-01) (11, 0, 5.00000000000000000000e-01) (11, 0, 5.00000000000000000000e-01) (11, 0, 5.00000000000000000000e-01) (11, 0, 5.00000000000000000000e-01) (11, 0, 5.00000000000000000000e-01) 
connections (connected_to_neuron, weight)=(0, 5.94745826721191406250e+00) (1, 6.94265460968017578125e+00) (2, 8.74696731567382812500e+00) (3, -4.88408088684082031250e-01) (4, -6.53747272491455078125e+00) (5, 3.64462184906005859375e+00) (6, -2.71402645111083984375e+00) (7, 3.77694606781005859375e+00) (8, 4.82736778259277343750e+00) (9, -8.48954200744628906250e-01) (10, 8.68954658508300781250e+00) (0, -7.08643388748168945312e+00) (1, 4.04074096679687500000e+00) (2, 2.89274311065673828125e+00) (3, -3.20220994949340820312e+00) (4, -3.80715370178222656250e-01) (5, 5.32495021820068359375e+00) (6, -3.54109525680541992188e+00) (7, 4.59424781799316406250e+00) (8, -2.46951198577880859375e+00) (9, -6.22019624710083007812e+00) (10, -5.20316362380981445312e+00) (0, 5.60085296630859375000e+00) (1, 2.45740222930908203125e+00) (2, -1.43289136886596679688e+00) (3, -3.20460319519042968750e+00) (4, 4.04957675933837890625e+00) (5, 5.99047660827636718750e+00) (6, 3.94206047058105468750e-01) (7, 6.44922828674316406250e+00) (8, 2.71469497680664062500e+00) (9, -2.65833568572998046875e+00) (10, 4.39188098907470703125e+00) (0, 2.46166229248046875000e+00) (1, 5.85325622558593750000e+00) (2, 6.85440826416015625000e+00) (3, -2.89371490478515625000e+00) (4, -5.86077022552490234375e+00) (5, 1.63135623931884765625e+00) (6, -7.06634712219238281250e+00) (7, 2.29027462005615234375e+00) (8, 1.32090282440185546875e+00) (9, -5.15278100967407226562e+00) (10, -2.66898345947265625000e+00) (0, -4.78635454177856445312e+00) (1, 6.45009040832519531250e-01) (2, 5.95030021667480468750e+00) (3, -8.46140480041503906250e+00) (4, 6.10391426086425781250e+00) (5, 1.54454803466796875000e+00) (6, -1.93091630935668945312e+00) (7, 8.88371849060058593750e+00) (8, 5.34138393402099609375e+00) (9, -5.33006381988525390625e+00) (10, 2.34111976623535156250e+00) (0, -5.09150695800781250000e+00) (1, 4.65332984924316406250e-01) (2, -2.60930395126342773438e+00) (3, -8.10103034973144531250e+00) (4, -8.14046096801757812500e+00) (5, -5.16007614135742187500e+00) (6, 3.61366462707519531250e+00) (7, -1.79879665374755859375e+00) (8, 8.23180580139160156250e+00) (9, -2.92467260360717773438e+00) (10, -4.94554042816162109375e+00) (0, 6.08621406555175781250e+00) (1, 3.18161201477050781250e+00) (2, -1.80631065368652343750e+00) (3, -1.28243017196655273438e+00) (4, 5.11526489257812500000e+00) (5, -8.51603507995605468750e+00) (6, -8.96152782440185546875e+00) (7, 8.96248245239257812500e+00) (8, -2.18501901626586914062e+00) (9, -4.74788188934326171875e+00) (10, 6.07492446899414062500e-01) (0, -5.23471832275390625000e+00) (1, -4.20928621292114257812e+00) (2, -2.28859376907348632812e+00) (3, 5.30982971191406250000e+00) (4, 2.85979652404785156250e+00) (5, -2.40487623214721679688e+00) (6, 1.65121459960937500000e+00) (7, 6.52973365783691406250e+00) (8, 8.93624305725097656250e+00) (9, 5.55970764160156250000e+00) (10, -2.00493288040161132812e+00) (0, -2.67306041717529296875e+00) (1, 6.45867729187011718750e+00) (2, -1.14539384841918945312e+00) (3, 1.16686248779296875000e+00) (4, 1.07234287261962890625e+00) (5, 6.05580902099609375000e+00) (6, 3.98668289184570312500e-01) (7, 7.14766883850097656250e+00) (8, -7.88973140716552734375e+00) (9, -2.51511716842651367188e+00) (10, 1.32928276062011718750e+00) (0, -6.96042060852050781250e-01) (1, 5.20245265960693359375e+00) (2, -2.55545330047607421875e+00) (3, -2.12077140808105468750e-01) (4, 5.24092483520507812500e+00) (5, -2.59296941757202148438e+00) (6, 6.60290336608886718750e+00) (7, -8.50695610046386718750e+00) (8, 7.01452445983886718750e+00) (9, -7.63181447982788085938e+00) (10, -3.71624279022216796875e+00) (0, -4.27406978607177734375e+00) (1, 6.67801570892333984375e+00) (2, 8.14355468750000000000e+00) (3, 2.32105350494384765625e+00) (4, -6.70769691467285156250e-01) (5, 5.67328834533691406250e+00) (6, 2.25729656219482421875e+00) (7, -4.11106157302856445312e+00) (8, -5.33164501190185546875e+00) (9, 8.58423614501953125000e+00) (10, -6.65238332748413085938e+00) (0, 2.52296066284179687500e+00) (1, 7.51098632812500000000e-01) (2, 3.41995906829833984375e+00) (3, -4.21229362487792968750e-01) (4, -7.85023260116577148438e+00) (5, 1.56762981414794921875e+00) (6, 6.89039230346679687500e-01) (7, -1.36534976959228515625e+00) (8, -6.10308837890625000000e+00) (9, 8.99299812316894531250e+00) (10, -5.16289710998535156250e+00) (0, 3.41459274291992187500e-01) (1, -2.19079971313476562500e-01) (2, -8.92197132110595703125e+00) (3, 6.74848937988281250000e+00) (4, -2.61617612838745117188e+00) (5, -8.42892837524414062500e+00) (6, 4.76301288604736328125e+00) (7, -1.24799060821533203125e+00) (8, -3.14517116546630859375e+00) (9, -8.51105690002441406250e+00) (10, -3.56997442245483398438e+00) (0, -4.00161647796630859375e+00) (1, 2.80999565124511718750e+00) (2, 4.75925636291503906250e+00) (3, -7.32832860946655273438e+00) (4, -3.93270683288574218750e+00) (5, -8.35180568695068359375e+00) (6, -3.65997362136840820312e+00) (7, -4.34847068786621093750e+00) (8, -6.00418949127197265625e+00) (9, 7.86298751831054687500e+00) (10, 5.40262889862060546875e+00) (0, 6.41576957702636718750e+00) (1, -1.55824232101440429688e+00) (2, 6.55239677429199218750e+00) (3, -1.01660013198852539062e+00) (4, 8.13079643249511718750e+00) (5, -3.81295394897460937500e+00) (6, 1.88031196594238281250e+00) (7, 8.12379455566406250000e+00) (8, 2.41498947143554687500e-02) (9, -6.77822971343994140625e+00) (10, -1.09528589248657226562e+00) (0, 1.02176666259765625000e-01) (1, 8.97026062011718750000e+00) (2, 5.28853797912597656250e+00) (3, 6.73249244689941406250e-01) (4, 4.73327255249023437500e+00) (5, -4.95945215225219726562e+00) (6, 6.52807807922363281250e+00) (7, 5.22221565246582031250e+00) (8, 4.70573425292968750000e-01) (9, -6.47353887557983398438e+00) (10, -9.67787742614746093750e-01) (0, -3.77017116546630859375e+00) (1, -4.80186748504638671875e+00) (2, 4.09950542449951171875e+00) (3, -3.12197685241699218750e+00) (4, 5.38158416748046875000e-01) (5, 8.75103378295898437500e+00) (6, -1.26165390014648437500e-01) (7, -5.98854064941406250000e-01) (8, 5.15366268157958984375e+00) (9, -2.71039581298828125000e+00) (10, 6.84290409088134765625e+00) (0, 2.70605850219726562500e+00) (1, 5.27300453186035156250e+00) (2, 5.97370147705078125000e+00) (3, 7.89310455322265625000e+00) (4, -1.84668350219726562500e+00) (5, 5.09749412536621093750e+00) (6, -1.08274602890014648438e+00) (7, 3.75086784362792968750e-01) (8, -4.99779129028320312500e+00) (9, 8.01943206787109375000e+00) (10, 3.45346450805664062500e-01) (0, -8.70925235748291015625e+00) (1, -3.07319641113281250000e-01) (2, -3.92138051986694335938e+00) (3, -4.66870498657226562500e+00) (4, -2.77924203872680664062e+00) (5, -7.69916439056396484375e+00) (6, 4.80186843872070312500e+00) (7, -2.52780914306640625000e-01) (8, 3.33047866821289062500e-01) (9, -7.96830272674560546875e+00) (10, 3.94535160064697265625e+00) (0, -4.56744623184204101562e+00) (1, -2.09027957916259765625e+00) (2, -4.51648950576782226562e+00) (3, -4.81641197204589843750e+00) (4, 6.78355407714843750000e+00) (5, 3.88465690612792968750e+00) (6, -8.66274929046630859375e+00) (7, -4.92684125900268554688e+00) (8, 1.72756004333496093750e+00) (9, 3.04330921173095703125e+00) (10, -8.65383720397949218750e+00) (0, -1.29873847961425781250e+00) (1, 1.93641471862792968750e+00) (2, -1.50052070617675781250e+00) (3, -5.20124387741088867188e+00) (4, -8.14633178710937500000e+00) (5, 7.87456512451171875000e+00) (6, -1.19903469085693359375e+00) (7, 8.87310028076171875000e+00) (8, -7.80087471008300781250e-01) (9, -9.08288002014160156250e-01) (10, -4.34220314025878906250e-01) (0, 4.29853153228759765625e+00) (1, 3.42300701141357421875e+00) (2, 5.78653717041015625000e+00) (3, 5.59936809539794921875e+00) (4, -7.75124549865722656250e-01) (5, -3.46624326705932617188e+00) (6, -3.06758403778076171875e+00) (7, 2.56572723388671875000e-01) (8, -8.52089214324951171875e+00) (9, 1.36496925354003906250e+00) (10, 7.16629219055175781250e+00) (0, -4.03738117218017578125e+00) (1, 5.54855823516845703125e+00) (2, 4.94984722137451171875e+00) (3, 8.84727668762207031250e+00) (4, 5.88580799102783203125e+00) (5, -8.97699356079101562500e+00) (6, 1.57483673095703125000e+00) (7, -7.08818435668945312500e-02) (8, -8.63082981109619140625e+00) (9, -8.72390174865722656250e+00) (10, -7.13446712493896484375e+00) (0, -1.13135099411010742188e+00) (1, -4.92514610290527343750e+00) (2, -6.28079891204833984375e+00) (3, -2.25678539276123046875e+00) (4, 2.87581825256347656250e+00) (5, -6.40769958496093750000e+00) (6, 5.96312713623046875000e+00) (7, -7.03246879577636718750e+00) (8, 2.15807914733886718750e+00) (9, 1.26165866851806640625e+00) (10, 5.39053821563720703125e+00) (0, -1.05538225173950195312e+00) (1, -2.13897323608398437500e+00) (2, -4.38458633422851562500e+00) (3, 4.47837352752685546875e+00) (4, 3.79344272613525390625e+00) (5, 4.87198734283447265625e+00) (6, 4.95748329162597656250e+00) (7, -3.84158754348754882812e+00) (8, 3.03827953338623046875e+00) (9, -8.07989883422851562500e+00) (10, -7.29302978515625000000e+00) (0, -1.01187229156494140625e+00) (1, -8.23262310028076171875e+00) (2, 7.59277915954589843750e+00) (3, -9.88865852355957031250e-01) (4, 2.34221363067626953125e+00) (5, -1.47810268402099609375e+00) (6, -6.19695663452148437500e-01) (7, 2.61831092834472656250e+00) (8, 3.87430191040039062500e-01) (9, 7.24895286560058593750e+00) (10, 6.69316482543945312500e+00) (0, 3.10663223266601562500e+00) (1, -4.00783252716064453125e+00) (2, 5.68984985351562500000e-01) (3, 5.69893264770507812500e+00) (4, -7.04470539093017578125e+00) (5, 2.53651428222656250000e+00) (6, -1.14298725128173828125e+00) (7, 3.21695327758789062500e+00) (8, -1.07294702529907226562e+00) (9, 6.80163002014160156250e+00) (10, -7.92201995849609375000e+00) (0, 3.54246711730957031250e+00) (1, 2.28000450134277343750e+00) (2, 4.87142276763916015625e+00) (3, -5.85546493530273437500e-01) (4, -1.76251316070556640625e+00) (5, -7.97016429901123046875e+00) (6, -6.54726600646972656250e+00) (7, -8.42411994934082031250e-01) (8, -6.26319408416748046875e+00) (9, 1.44086074829101562500e+00) (10, -7.50350952148437500000e-02) (0, -7.67041492462158203125e+00) (1, -8.54800415039062500000e+00) (2, -6.73282146453857421875e+00) (3, -1.48517608642578125000e-01) (4, -1.67699813842773437500e-01) (5, 4.88549041748046875000e+00) (6, -8.76108646392822265625e+00) (7, -1.91874694824218750000e+00) (8, 2.57865524291992187500e+00) (9, 3.34554481506347656250e+00) (10, 3.07342147827148437500e+00) (0, -5.85236072540283203125e+00) (1, 4.44774627685546875000e-02) (2, 5.02871513366699218750e+00) (3, 5.68415451049804687500e+00) (4, 7.90148925781250000000e+00) (5, -7.54330635070800781250e-01) (6, -4.38879203796386718750e+00) (7, 5.70312023162841796875e+00) (8, 3.23649406433105468750e-01) (9, 8.15367507934570312500e+00) (10, -1.01687622070312500000e+00) (0, -3.80492734909057617188e+00) (1, -1.43187093734741210938e+00) (2, 6.22061061859130859375e+00) (3, -2.77509164810180664062e+00) (4, 1.02086257934570312500e+00) (5, -3.62180185317993164062e+00) (6, -3.82862091064453125000e-02) (7, -6.53827571868896484375e+00) (8, 5.30316257476806640625e+00) (9, 1.29129886627197265625e+00) (10, -6.08627986907958984375e+00) (0, 7.57034111022949218750e+00) (1, -7.85721778869628906250e+00) (2, 2.74601936340332031250e+00) (3, 3.45583248138427734375e+00) (4, -7.61830425262451171875e+00) (5, -8.17272663116455078125e+00) (6, -2.96551227569580078125e+00) (7, 4.72723960876464843750e+00) (8, 3.90069389343261718750e+00) (9, 1.82126998901367187500e-01) (10, -4.22828245162963867188e+00) (0, -7.05909729003906250000e-02) (1, -3.13371849060058593750e+00) (2, -5.32679271697998046875e+00) (3, 8.17507743835449218750e+00) (4, 1.47748947143554687500e+00) (5, -8.62367343902587890625e+00) (6, -5.01272201538085937500e-01) (7, 6.31164550781250000000e-01) (8, -6.40549659729003906250e-01) (9, 4.69379901885986328125e+00) (10, 8.19929504394531250000e+00) (0, -3.41993951797485351562e+00) (1, -7.08129215240478515625e+00) (2, 2.20156669616699218750e-01) (3, 1.95825958251953125000e+00) (4, 1.88042163848876953125e+00) (5, 2.68188095092773437500e+00) (6, -1.73857736587524414062e+00) (7, -5.82827854156494140625e+00) (8, 5.59560203552246093750e+00) (9, -3.16823530197143554688e+00) (10, -4.68549680709838867188e+00) (0, -6.58378601074218750000e-01) (1, -8.71240329742431640625e+00) (2, -3.30380153656005859375e+00) (3, 1.68894767761230468750e-01) (4, -2.67791604995727539062e+00) (5, -7.57656097412109375000e+00) (6, -4.93041181564331054688e+00) (7, 6.50421142578125000000e+00) (8, -2.80484342575073242188e+00) (9, 3.99899768829345703125e+00) (10, -5.62950801849365234375e+00) (0, 8.68364334106445312500e-01) (1, 3.17407417297363281250e+00) (2, 4.84798145294189453125e+00) (3, 1.24469089508056640625e+00) (4, -6.32719755172729492188e+00) (5, -3.52085351943969726562e+00) (6, -8.39585876464843750000e+00) (7, 7.36660194396972656250e+00) (8, -4.32155990600585937500e+00) (9, -2.81579732894897460938e+00) (10, -8.71469020843505859375e+00) (0, 4.89859676361083984375e+00) (1, 8.14246177673339843750e+00) (2, 2.16573143005371093750e+00) (3, -1.41952228546142578125e+00) (4, -2.59611606597900390625e+00) (5, 5.33745288848876953125e+00) (6, -4.82392072677612304688e+00) (7, 3.23564815521240234375e+00) (8, -8.34804344177246093750e+00) (9, 3.51770114898681640625e+00) (10, 3.52324485778808593750e+00) (0, -2.65184497833251953125e+00) (1, -5.31340456008911132812e+00) (2, -8.15467071533203125000e+00) (3, -1.22840547561645507812e+00) (4, -1.24381637573242187500e+00) (5, 7.34953880310058593750e+00) (6, 4.96675109863281250000e+00) (7, -6.24481916427612304688e+00) (8, -7.27996826171875000000e+00) (9, -3.16488504409790039062e+00) (10, 5.92925548553466796875e+00) (0, 6.56801319122314453125e+00) (1, 7.07980728149414062500e+00) (2, 8.60205841064453125000e+00) (3, -5.95283985137939453125e+00) (4, 7.68394660949707031250e+00) (5, 6.96866130828857421875e+00) (6, -1.27440023422241210938e+00) (7, -4.13185024261474609375e+00) (8, 7.25397109985351562500e+00) (9, -5.37580347061157226562e+00) (10, -4.98938846588134765625e+00) (0, 4.19702529907226562500e-01) (1, 2.20467472076416015625e+00) (2, 1.41449546813964843750e+00) (3, -3.24284458160400390625e+00) (4, 6.38075447082519531250e+00) (5, -4.34985637664794921875e+00) (6, -2.59088802337646484375e+00) (7, 8.98455619812011718750e-01) (8, 8.17338752746582031250e+00) (9, 3.75726699829101562500e+00) (10, 4.58505058288574218750e+00) (0, -8.98128223419189453125e+00) (1, -6.47113800048828125000e+00) (2, -5.65876579284667968750e+00) (3, 7.36825752258300781250e+00) (4, 7.49561309814453125000e+00) (5, -2.90358448028564453125e+00) (6, -8.91171073913574218750e+00) (7, -4.66927146911621093750e+00) (8, -5.97432899475097656250e+00) (9, 6.65630340576171875000e+00) (10, -6.58946514129638671875e+00) (0, -6.37227010726928710938e+00) (1, -8.29653739929199218750e+00) (2, -7.90551757812500000000e+00) (3, -8.40360927581787109375e+00) (4, -5.70937156677246093750e-01) (5, -3.03736782073974609375e+00) (6, 7.85036087036132812500e+00) (7, 3.05325889587402343750e+00) (8, 9.73243713378906250000e-01) (9, -7.29935646057128906250e-01) (10, -3.74206638336181640625e+00) (0, -6.61226081848144531250e+00) (1, 5.02722072601318359375e+00) (2, -6.36131191253662109375e+00) (3, -1.96211671829223632812e+00) (4, -6.56366729736328125000e+00) (5, 3.53714275360107421875e+00) (6, -2.78872823715209960938e+00) (7, 6.19360065460205078125e+00) (8, -8.77806663513183593750e-01) (9, -2.77001094818115234375e+00) (10, 8.72246170043945312500e+00) (0, 2.46342754364013671875e+00) (1, -4.40175390243530273438e+00) (2, 7.21807479858398437500e+00) (3, 8.55984306335449218750e+00) (4, -4.31346464157104492188e+00) (5, -6.45119571685791015625e+00) (6, -6.41448593139648437500e+00) (7, -6.65716171264648437500e+00) (8, -4.04066085815429687500e+00) (9, -3.78675603866577148438e+00) (10, -5.95369911193847656250e+00) (0, -2.94617843627929687500e+00) (1, -3.19036531448364257812e+00) (2, 2.47536373138427734375e+00) (3, 3.01645278930664062500e+00) (4, -4.34000396728515625000e+00) (5, -3.47137641906738281250e+00) (6, -5.01030254364013671875e+00) (7, 3.93005943298339843750e+00) (8, 1.78655719757080078125e+00) (9, -2.62256383895874023438e+00) (10, -4.27198410034179687500e-02) (0, 4.42524528503417968750e+00) (1, 4.41531944274902343750e+00) (2, 2.39361286163330078125e+00) (3, -1.03761196136474609375e+00) (4, -7.37340927124023437500e+00) (5, -4.12787437438964843750e-01) (6, 7.08458137512207031250e+00) (7, -1.14341974258422851562e+00) (8, -6.90324783325195312500e-01) (9, 5.48008918762207031250e-01) (10, 3.45482635498046875000e+00) (0, -2.47224950790405273438e+00) (1, 1.07851982116699218750e-01) (2, 8.14136123657226562500e+00) (3, 7.65542984008789062500e-02) (4, 2.69336509704589843750e+00) (5, -7.51579999923706054688e+00) (6, 5.03589344024658203125e+00) (7, 7.90660858154296875000e+00) (8, -4.46949911117553710938e+00) (9, -6.91028547286987304688e+00) (10, -4.28375673294067382812e+00) (0, 7.00586509704589843750e+00) (1, 5.10616874694824218750e+00) (2, 3.76239776611328125000e-01) (3, -5.46551179885864257812e+00) (4, -8.90413475036621093750e+00) (5, -4.69370079040527343750e+00) (6, 5.32104587554931640625e+00) (7, -2.52669811248779296875e+00) (8, 4.26357936859130859375e+00) (9, 7.46290206909179687500e-01) (10, -7.11137914657592773438e+00) (0, -2.34280776977539062500e+00) (1, 8.70867919921875000000e+00) (2, -5.48478841781616210938e+00) (3, 6.24440479278564453125e+00) (4, 6.79325962066650390625e+00) (5, 2.37179183959960937500e+00) (6, -3.44591999053955078125e+00) (7, -1.65873098373413085938e+00) (8, -3.17338228225708007812e+00) (9, 3.08183002471923828125e+00) (10, 7.44911956787109375000e+00) (0, -4.03202009201049804688e+00) (1, -5.84161472320556640625e+00) (2, 1.14248561859130859375e+00) (3, -2.54782009124755859375e+00) (4, 8.19427871704101562500e+00) (5, 4.90951538085937500000e-02) (6, 1.98268032073974609375e+00) (7, -7.71600675582885742188e+00) (8, 4.76533794403076171875e+00) (9, -1.14545822143554687500e-02) (10, 6.39016151428222656250e+00) (0, -3.85842275619506835938e+00) (1, 3.52303314208984375000e+00) (2, 6.48602676391601562500e+00) (3, 4.47877883911132812500e-01) (4, -1.55920982360839843750e-01) (5, -5.04067182540893554688e+00) (6, -4.28854322433471679688e+00) (7, -8.40963077545166015625e+00) (8, -3.15205097198486328125e+00) (9, 2.36864948272705078125e+00) (10, -8.70095157623291015625e+00) (0, 3.63160133361816406250e-01) (1, -3.86945724487304687500e-01) (2, 7.09230804443359375000e+00) (3, -6.26504755020141601562e+00) (4, 5.16713428497314453125e+00) (5, -3.56642293930053710938e+00) (6, -4.38429832458496093750e-01) (7, -7.51035690307617187500e-01) (8, -5.11730289459228515625e+00) (9, 4.52955055236816406250e+00) (10, 2.40735054016113281250e+00) (0, 5.02518272399902343750e+00) (1, -7.01827001571655273438e+00) (2, 1.60162830352783203125e+00) (3, -3.92572259902954101562e+00) (4, 3.96441078186035156250e+00) (5, 2.88562107086181640625e+00) (6, -8.16038417816162109375e+00) (7, -5.04704380035400390625e+00) (8, 2.75782585144042968750e-01) (9, -3.01880693435668945312e+00) (10, 7.47599029541015625000e+00) (0, -2.23819065093994140625e+00) (1, 6.42907047271728515625e+00) (2, -1.67993068695068359375e+00) (3, 1.72113704681396484375e+00) (4, -6.85947322845458984375e+00) (5, -1.08956146240234375000e+00) (6, 7.56908607482910156250e+00) (7, 4.50917530059814453125e+00) (8, -7.90513038635253906250e-01) (9, -1.06775379180908203125e+00) (10, -4.87777042388916015625e+00) (0, -2.69820499420166015625e+00) (1, 1.66719913482666015625e+00) (2, -8.71063613891601562500e+00) (3, 2.73537254333496093750e+00) (4, -7.77123069763183593750e+00) (5, -4.61671829223632812500e-01) (6, 6.61806964874267578125e+00) (7, 5.75831985473632812500e+00) (8, -7.05432224273681640625e+00) (9, 2.64325237274169921875e+00) (10, 7.74004936218261718750e+00) (0, 3.54730606079101562500e+00) (1, 7.71752929687500000000e+00) (2, 2.70446014404296875000e+00) (3, -2.56707239151000976562e+00) (4, 8.55714607238769531250e+00) (5, 6.65741729736328125000e+00) (6, 6.70870971679687500000e+00) (7, -3.46166181564331054688e+00) (8, 5.13340663909912109375e+00) (9, -4.52948093414306640625e+00) (10, -6.03259134292602539062e+00) (0, -5.54652404785156250000e+00) (1, 6.19165611267089843750e+00) (2, -3.89206457138061523438e+00) (3, 2.36391448974609375000e+00) (4, 4.76074218750000000000e+00) (5, -8.38288879394531250000e+00) (6, -7.42659854888916015625e+00) (7, -5.30701160430908203125e+00) (8, -4.26065921783447265625e+00) (9, -1.12480306625366210938e+00) (10, 5.36018753051757812500e+00) (0, -3.97129583358764648438e+00) (1, -7.38943099975585937500e+00) (2, 6.58895683288574218750e+00) (3, 4.56703281402587890625e+00) (4, 8.22863769531250000000e+00) (5, 3.34727668762207031250e+00) (6, 6.51271057128906250000e+00) (7, 1.87189006805419921875e+00) (8, 2.08732604980468750000e+00) (9, 1.06001663208007812500e+00) (10, 5.89419364929199218750e-01) (0, -4.20821285247802734375e+00) (1, 7.49294471740722656250e+00) (2, 1.46565437316894531250e-01) (3, -6.55079555511474609375e+00) (4, 5.20165443420410156250e+00) (5, 5.68490314483642578125e+00) (6, 7.58261108398437500000e+00) (7, -8.32782649993896484375e+00) (8, 8.65231323242187500000e+00) (9, -6.96391201019287109375e+00) (10, 6.86382865905761718750e+00) (0, -4.23975229263305664062e+00) (1, 4.40000343322753906250e+00) (2, 2.62457180023193359375e+00) (3, -3.62264060974121093750e+00) (4, 5.97340393066406250000e+00) (5, 6.31755924224853515625e+00) (6, 1.11670017242431640625e+00) (7, -4.15139913558959960938e+00) (8, 2.67774677276611328125e+00) (9, 6.14540481567382812500e+00) (10, -2.54083013534545898438e+00) (0, 2.66703605651855468750e-01) (1, 1.71243667602539062500e+00) (2, -3.31219244003295898438e+00) (3, -5.38601970672607421875e+00) (4, -7.74852752685546875000e-01) (5, 7.55969810485839843750e+00) (6, 5.70130634307861328125e+00) (7, -8.71483612060546875000e+00) (8, -8.50881576538085937500e-01) (9, -7.50690603256225585938e+00) (10, 7.77810859680175781250e+00) (0, 8.29568290710449218750e+00) (1, -5.05770158767700195312e+00) (2, 3.97976207733154296875e+00) (3, 4.98058700561523437500e+00) (4, -6.47509002685546875000e+00) (5, 4.65193557739257812500e+00) (6, 4.63290023803710937500e+00) (7, -4.43900203704833984375e+00) (8, 2.51576423645019531250e+00) (9, -8.60685253143310546875e+00) (10, 8.96100044250488281250e+00) (0, -3.85966491699218750000e+00) (1, -3.22949266433715820312e+00) (2, 5.93440437316894531250e+00) (3, -6.54210519790649414062e+00) (4, 6.88720703125000000000e+00) (5, -7.21699428558349609375e+00) (6, 5.13564205169677734375e+00) (7, 4.03261089324951171875e+00) (8, -7.57824897766113281250e-01) (9, -3.59765434265136718750e+00) (10, -3.25495195388793945312e+00) (0, 4.92998313903808593750e+00) (1, 1.63259506225585937500e-02) (2, 4.97019577026367187500e+00) (3, 3.48968029022216796875e+00) (4, -3.28236770629882812500e+00) (5, 5.25535964965820312500e+00) (6, -6.36120080947875976562e+00) (7, -1.78927373886108398438e+00) (8, 4.03346729278564453125e+00) (9, -7.06551742553710937500e+00) (10, 2.15302562713623046875e+00) (0, -9.86770629882812500000e-01) (1, 6.91506958007812500000e+00) (2, 4.67793464660644531250e+00) (3, -5.33483600616455078125e+00) (4, 2.54796981811523437500e+00) (5, -8.76106739044189453125e+00) (6, 6.18092823028564453125e+00) (7, 2.94111728668212890625e+00) (8, -8.80006694793701171875e+00) (9, -6.67873668670654296875e+00) (10, 8.71162414550781250000e+00) (0, 6.13433742523193359375e+00) (1, -4.22084140777587890625e+00) (2, 6.59883213043212890625e+00) (3, 7.91734313964843750000e+00) (4, -8.08519935607910156250e+00) (5, 1.63144302368164062500e+00) (6, -1.84048128128051757812e+00) (7, -2.68285417556762695312e+00) (8, 7.37649154663085937500e+00) (9, -5.91049861907958984375e+00) (10, 6.33347129821777343750e+00) (0, 3.34668636322021484375e+00) (1, 6.57918262481689453125e+00) (2, -5.94889593124389648438e+00) (3, -3.97954940795898437500e-01) (4, -8.78201866149902343750e+00) (5, 1.26183032989501953125e+00) (6, -5.36448717117309570312e+00) (7, -6.84753608703613281250e+00) (8, -5.58514499664306640625e+00) (9, 2.64874172210693359375e+00) (10, -8.93246650695800781250e+00) (0, 8.09279060363769531250e+00) (1, 6.31390571594238281250e+00) (2, 2.61550331115722656250e+00) (3, 8.33172416687011718750e+00) (4, 3.49483489990234375000e+00) (5, -3.44337940216064453125e+00) (6, 8.53165626525878906250e+00) (7, 5.81609916687011718750e+00) (8, -3.73175477981567382812e+00) (9, 5.66599369049072265625e+00) (10, -7.40474319458007812500e+00) (0, -6.13292312622070312500e+00) (1, 4.58333778381347656250e+00) (2, -6.48994255065917968750e+00) (3, 4.49851989746093750000e+00) (4, -6.25714349746704101562e+00) (5, -1.72797203063964843750e-01) (6, 2.87501049041748046875e+00) (7, -3.16764211654663085938e+00) (8, -2.83932542800903320312e+00) (9, -2.77830362319946289062e+00) (10, -5.58845949172973632812e+00) (0, 2.11778640747070312500e-01) (1, 5.82374191284179687500e+00) (2, -5.37047767639160156250e+00) (3, -7.52639102935791015625e+00) (4, -8.54074478149414062500e+00) (5, -3.21801424026489257812e+00) (6, -4.11153554916381835938e+00) (7, 3.10799694061279296875e+00) (8, -3.15048027038574218750e+00) (9, -5.01874542236328125000e+00) (10, 4.21902656555175781250e-01) (0, 8.46502304077148437500e+00) (1, -5.68702316284179687500e+00) (2, -5.08326244354248046875e+00) (3, -3.97835636138916015625e+00) (4, -6.15536689758300781250e+00) (5, -8.26716423034667968750e+00) (6, 1.28988933563232421875e+00) (7, 8.51062774658203125000e+00) (8, -6.67190694808959960938e+00) (9, 4.15696620941162109375e+00) (10, 4.09396553039550781250e+00) (0, -4.16184949874877929688e+00) (1, -3.44514846801757812500e-01) (2, 6.83682250976562500000e+00) (3, 4.66535377502441406250e+00) (4, -6.46950483322143554688e+00) (5, -5.33082008361816406250e+00) (6, -7.17397165298461914062e+00) (7, -2.47808456420898437500e-01) (8, -1.91928005218505859375e+00) (9, 2.03780746459960937500e+00) (10, -3.42406606674194335938e+00) (0, 1.71024227142333984375e+00) (1, 3.51141643524169921875e+00) (2, -2.96481132507324218750e+00) (3, 7.49222755432128906250e+00) (4, 8.39987945556640625000e+00) (5, -8.85681533813476562500e+00) (6, -4.65825176239013671875e+00) (7, -5.61886548995971679688e+00) (8, 5.65088272094726562500e-01) (9, -5.19322872161865234375e+00) (10, -2.30588817596435546875e+00) (0, 4.48182487487792968750e+00) (1, -1.71586036682128906250e-01) (2, 5.38744926452636718750e-01) (3, 5.21466159820556640625e+00) (4, -7.88169670104980468750e+00) (5, 4.93717193603515625000e-02) (6, 7.54275512695312500000e+00) (7, 5.27526855468750000000e+00) (8, -4.85666227340698242188e+00) (9, -5.61909484863281250000e+00) (10, -4.06924581527709960938e+00) (0, -7.01984071731567382812e+00) (1, 8.04625892639160156250e+00) (2, -1.53875064849853515625e+00) (3, -3.35066127777099609375e+00) (4, -8.12771320343017578125e+00) (5, 7.21344184875488281250e+00) (6, 3.73005867004394531250e+00) (7, 2.91009330749511718750e+00) (8, -5.21062469482421875000e+00) (9, -3.55969858169555664062e+00) (10, -2.57849073410034179688e+00) (0, 8.24563980102539062500e-01) (1, -5.06746959686279296875e+00) (2, -3.17861032485961914062e+00) (3, 9.67748641967773437500e-01) (4, -7.25722312927246093750e-01) (5, 2.02524185180664062500e-01) (6, -7.46716356277465820312e+00) (7, 3.08104896545410156250e+00) (8, 6.89663505554199218750e+00) (9, 6.01466178894042968750e+00) (10, -6.09053659439086914062e+00) (0, -1.56461954116821289062e+00) (1, 2.22932434082031250000e+00) (2, -4.97223281860351562500e+00) (3, 7.48475265502929687500e+00) (4, 7.72079467773437500000e-01) (5, -8.69696426391601562500e+00) (6, -6.37190914154052734375e+00) (7, 4.15298461914062500000e+00) (8, -3.76620960235595703125e+00) (9, -4.39174985885620117188e+00) (10, 3.19924354553222656250e+00) (0, 3.69503974914550781250e+00) (1, 1.25758934020996093750e+00) (2, 4.07153034210205078125e+00) (3, 1.90848064422607421875e+00) (4, -4.01235151290893554688e+00) (5, -2.01837635040283203125e+00) (6, 5.69785594940185546875e+00) (7, 1.42794990539550781250e+00) (8, 4.40313339233398437500e+00) (9, -2.47758102416992187500e+00) (10, 5.36048030853271484375e+00) (0, -7.77547740936279296875e+00) (1, 7.49016761779785156250e+00) (2, -4.36524152755737304688e+00) (3, 1.42704677581787109375e+00) (4, -8.97699642181396484375e+00) (5, 7.71580696105957031250e+00) (6, -6.76317214965820312500e-01) (7, 6.03766632080078125000e+00) (8, -7.37472867965698242188e+00) (9, 6.75906372070312500000e+00) (10, -7.33009338378906250000e-01) (0, -3.34696197509765625000e+00) (1, 5.24381732940673828125e+00) (2, -8.96093082427978515625e+00) (3, -3.04392576217651367188e+00) (4, 7.87190818786621093750e+00) (5, 4.19205379486083984375e+00) (6, 2.18986511230468750000e+00) (7, -5.51984214782714843750e+00) (8, -1.60870409011840820312e+00) (9, -3.11509561538696289062e+00) (10, 4.73774719238281250000e+00) (0, -6.53717422485351562500e+00) (1, 7.79338455200195312500e+00) (2, -8.27460384368896484375e+00) (3, 4.44449424743652343750e-01) (4, 4.49124145507812500000e+00) (5, 2.15334606170654296875e+00) (6, -4.15241718292236328125e+00) (7, -6.98633956909179687500e+00) (8, -1.48617362976074218750e+00) (9, -2.92789459228515625000e+00) (10, -8.49617195129394531250e+00) (0, 3.14858531951904296875e+00) (1, 7.49915313720703125000e+00) (2, -8.47316837310791015625e+00) (3, 1.86439323425292968750e+00) (4, -2.17716503143310546875e+00) (5, 6.56449699401855468750e+00) (6, 3.48966407775878906250e+00) (7, -4.41810131072998046875e+00) (8, -3.16851234436035156250e+00) (9, -8.85729789733886718750e+00) (10, -8.17428493499755859375e+00) (0, -3.12944316864013671875e+00) (1, -2.90122318267822265625e+00) (2, 8.69762229919433593750e+00) (3, -7.93739032745361328125e+00) (4, 8.28864097595214843750e+00) (5, -5.82221889495849609375e+00) (6, -5.46093940734863281250e-01) (7, -3.82645416259765625000e+00) (8, 7.91552734375000000000e+00) (9, 1.91673278808593750000e+00) (10, -5.03306961059570312500e+00) (0, 8.64092445373535156250e+00) (1, -6.63881874084472656250e+00) (2, 8.45817184448242187500e+00) (3, 1.79427051544189453125e+00) (4, -1.79123592376708984375e+00) (5, -7.52816820144653320312e+00) (6, -8.69190311431884765625e+00) (7, 4.28087043762207031250e+00) (8, -7.02434062957763671875e+00) (9, 3.45668220520019531250e+00) (10, 2.78002166748046875000e+00) (0, -6.49750900268554687500e+00) (1, -3.67892551422119140625e+00) (2, -8.39714336395263671875e+00) (3, -8.93301105499267578125e+00) (4, 8.81073951721191406250e+00) (5, -3.81524467468261718750e+00) (6, -3.10152339935302734375e+00) (7, 8.95344161987304687500e+00) (8, -2.98952960968017578125e+00) (9, 2.76903343200683593750e+00) (10, -2.94778203964233398438e+00) (0, -3.29190635681152343750e+00) (1, 3.83164310455322265625e+00) (2, -3.65914106369018554688e+00) (3, -1.14125251770019531250e-01) (4, -5.71445083618164062500e+00) (5, 1.51440525054931640625e+00) (6, -1.19859695434570312500e+00) (7, 5.20228099822998046875e+00) (8, 5.48133563995361328125e+00) (9, -1.55767250061035156250e+00) (10, 7.56346321105957031250e+00) (0, 4.93950653076171875000e+00) (1, -8.76340293884277343750e+00) (2, -3.22777414321899414062e+00) (3, 6.41133880615234375000e+00) (4, -8.45530605316162109375e+00) (5, -7.94690465927124023438e+00) (6, 8.38699913024902343750e+00) (7, 4.00137615203857421875e+00) (8, 3.83311653137207031250e+00) (9, -7.11051130294799804688e+00) (10, -8.67754936218261718750e+00) (0, 4.43597316741943359375e+00) (1, -7.04352283477783203125e+00) (2, -8.86680984497070312500e+00) (3, -8.37927055358886718750e+00) (4, -1.14504623413085937500e+00) (5, -8.91336917877197265625e+00) (6, -2.36879968643188476562e+00) (7, -7.37601327896118164062e+00) (8, -2.86115026473999023438e+00) (9, 3.33929347991943359375e+00) (10, 5.45562934875488281250e+00) (0, 2.47970867156982421875e+00) (1, -5.77483177185058593750e+00) (2, 8.74117851257324218750e+00) (3, -5.00588655471801757812e+00) (4, 2.02657127380371093750e+00) (5, 4.94345951080322265625e+00) (6, -8.52455139160156250000e+00) (7, -8.53110122680664062500e+00) (8, 3.50692081451416015625e+00) (9, 5.41495609283447265625e+00) (10, -8.29450416564941406250e+00) (0, -8.72085285186767578125e+00) (1, 2.82629394531250000000e+00) (2, -7.74980974197387695312e+00) (3, -7.66775751113891601562e+00) (4, 2.21329212188720703125e+00) (5, 5.25156688690185546875e+00) (6, 5.16535949707031250000e+00) (7, 4.10278129577636718750e+00) (8, 5.57401752471923828125e+00) (9, 6.01332664489746093750e-01) (10, 6.05925846099853515625e+00) (0, 5.70720767974853515625e+00) (1, 1.22206306457519531250e+00) (2, -4.08578777313232421875e+00) (3, 5.79383850097656250000e+00) (4, 7.85326194763183593750e+00) (5, -2.46180105209350585938e+00) (6, -6.06731224060058593750e+00) (7, 2.19255638122558593750e+00) (8, -6.00617170333862304688e+00) (9, 5.41239643096923828125e+00) (10, 5.41772460937500000000e+00) (0, -6.26499319076538085938e+00) (1, -8.59348964691162109375e+00) (2, -1.55570363998413085938e+00) (3, 7.67846679687500000000e+00) (4, -8.11804103851318359375e+00) (5, -1.08680534362792968750e+00) (6, 2.18538665771484375000e+00) (7, 6.29691505432128906250e+00) (8, -3.81309509277343750000e-01) (9, 2.46453380584716796875e+00) (10, 1.23208999633789062500e-01) (0, 8.68881225585937500000e-01) (1, 3.79677581787109375000e+00) (2, -6.66349840164184570312e+00) (3, -2.87955188751220703125e+00) (4, -3.78646850585937500000e-02) (5, 6.43928337097167968750e+00) (6, -6.30553483963012695312e+00) (7, -8.43653106689453125000e+00) (8, 3.49854183197021484375e+00) (9, 8.40167236328125000000e+00) (10, 1.78553199768066406250e+00) (0, 8.41275405883789062500e+00) (1, 5.19551086425781250000e+00) (2, 6.38793945312500000000e-01) (3, -3.04904794692993164062e+00) (4, 8.12819862365722656250e+00) (5, -6.16864967346191406250e+00) (6, -5.52196502685546875000e-02) (7, 4.54059600830078125000e+00) (8, 8.24907493591308593750e+00) (9, 2.67978763580322265625e+00) (10, 4.94710636138916015625e+00) (0, -2.30662918090820312500e+00) (1, 1.35825252532958984375e+00) (2, 5.82906436920166015625e+00) (3, 5.60656547546386718750e+00) (4, -5.45636081695556640625e+00) (5, 3.12597846984863281250e+00) (6, -3.77474355697631835938e+00) (7, 6.00817298889160156250e+00) (8, -5.75081253051757812500e+00) (9, 6.09413719177246093750e+00) (10, 8.04948806762695312500e-01) (0, -3.41431093215942382812e+00) (1, -5.78541469573974609375e+00) (2, -8.23291587829589843750e+00) (3, -5.97502803802490234375e+00) (4, -3.09094905853271484375e+00) (5, -7.66944694519042968750e+00) (6, 6.52351284027099609375e+00) (7, -3.68927669525146484375e+00) (8, 3.11608409881591796875e+00) (9, 5.93626689910888671875e+00) (10, -7.49376535415649414062e+00) (0, -5.24512100219726562500e+00) (1, -6.11278057098388671875e+00) (2, -8.36556625366210937500e+00) (3, -2.41377067565917968750e+00) (4, 2.83199977874755859375e+00) (5, 5.17502975463867187500e+00) (6, -3.16469573974609375000e+00) (7, -3.48821258544921875000e+00) (8, 1.12213516235351562500e+00) (9, 3.52867507934570312500e+00) (10, 6.87003993988037109375e+00) (0, -2.04880046844482421875e+00) (1, 1.35241508483886718750e-01) (2, -7.58632040023803710938e+00) (3, -7.92282199859619140625e+00) (4, 5.36049747467041015625e+00) (5, 7.42185211181640625000e+00) (6, -4.67363452911376953125e+00) (7, 2.45463562011718750000e+00) (8, -7.73199081420898437500e-01) (9, 9.12055015563964843750e-01) (10, 5.66922092437744140625e+00) (0, -6.11495971679687500000e-03) (1, 3.93702697753906250000e+00) (2, -6.42172813415527343750e+00) (3, 1.32443809509277343750e+00) (4, 1.46053981781005859375e+00) (5, -1.11100482940673828125e+00) (6, -4.55947732925415039062e+00) (7, -1.60319375991821289062e+00) (8, 3.95230293273925781250e-01) (9, -8.04598808288574218750e-01) (10, 1.28402519226074218750e+00) (0, 1.02966308593750000000e+00) (1, 5.78163051605224609375e+00) (2, -4.88397502899169921875e+00) (3, -2.79530715942382812500e+00) (4, -6.38306522369384765625e+00) (5, 6.27811431884765625000e-01) (6, 7.32682800292968750000e+00) (7, 6.14561080932617187500e+00) (8, -1.50214767456054687500e+00) (9, -3.72197246551513671875e+00) (10, -2.71914768218994140625e+00) (0, -8.84685516357421875000e-02) (1, -2.64479494094848632812e+00) (2, -6.35865020751953125000e+00) (3, -1.66661596298217773438e+00) (4, 1.68157005310058593750e+00) (5, 5.09598541259765625000e+00) (6, 6.56018543243408203125e+00) (7, -6.40637493133544921875e+00) (8, 1.76520729064941406250e+00) (9, -2.44593000411987304688e+00) (10, 6.53065204620361328125e+00) (0, 4.34347915649414062500e+00) (1, 7.87850761413574218750e+00) (2, -1.00880908966064453125e+00) (3, -5.76752614974975585938e+00) (4, -5.68096923828125000000e+00) (5, 6.38799762725830078125e+00) (6, 3.62770366668701171875e+00) (7, 2.51443290710449218750e+00) (8, -1.32797718048095703125e+00) (9, -4.34263277053833007812e+00) (10, -7.03937530517578125000e-01) (0, 2.78804779052734375000e+00) (1, 1.86206054687500000000e+00) (2, 1.91299724578857421875e+00) (3, -5.58413982391357421875e+00) (4, 1.88887596130371093750e-01) (5, -9.41391944885253906250e-01) (6, 1.91371250152587890625e+00) (7, 5.46691513061523437500e+00) (8, 5.33946037292480468750e+00) (9, -7.17475557327270507812e+00) (10, -6.17788028717041015625e+00) (0, 7.98081016540527343750e+00) (1, 1.58628463745117187500e-01) (2, 4.50369071960449218750e+00) (3, 4.07679557800292968750e+00) (4, -2.28118658065795898438e+00) (5, 7.09731674194335937500e+00) (6, -3.15799713134765625000e+00) (7, 4.27288341522216796875e+00) (8, 4.62796688079833984375e+00) (9, -7.81451845169067382812e+00) (10, 3.15139198303222656250e+00) (0, -5.38084125518798828125e+00) (1, -4.58204460144042968750e+00) (2, 6.47042274475097656250e+00) (3, -7.99284362792968750000e+00) (4, 8.04566001892089843750e+00) (5, -1.51453018188476562500e-02) (6, -3.20820808410644531250e-01) (7, -5.29697418212890625000e+00) (8, 8.28091812133789062500e+00) (9, -6.53277301788330078125e+00) (10, 5.56508636474609375000e+00) (0, 1.19391536712646484375e+00) (1, -3.11691236495971679688e+00) (2, -3.24602603912353515625e+00) (3, -8.74747562408447265625e+00) (4, 7.79680061340332031250e+00) (5, -6.77911138534545898438e+00) (6, 5.59198379516601562500e+00) (7, -8.37795543670654296875e+00) (8, -3.95699167251586914062e+00) (9, 4.57279491424560546875e+00) (10, 7.80673027038574218750e-01) (0, -8.45330142974853515625e+00) (1, -3.50408554077148437500e-01) (2, 7.49948692321777343750e+00) (3, 7.64401435852050781250e+00) (4, 5.49159431457519531250e+00) (5, 2.77237129211425781250e+00) (6, 3.27198219299316406250e+00) (7, 6.67707633972167968750e+00) (8, -3.07623720169067382812e+00) (9, 6.89114093780517578125e+00) (10, -6.90496826171875000000e+00) (0, -5.60581493377685546875e+00) (1, 7.89829635620117187500e+00) (2, -7.85930919647216796875e+00) (3, 3.37904071807861328125e+00) (4, -1.42252349853515625000e+00) (5, -4.15628337860107421875e+00) (6, 2.65995788574218750000e+00) (7, 1.04470348358154296875e+00) (8, -7.59119701385498046875e+00) (9, -5.14612674713134765625e+00) (10, 6.92779064178466796875e+00) (0, -1.83722352981567382812e+00) (1, -4.89360284805297851562e+00) (2, 5.72459125518798828125e+00) (3, 3.83665084838867187500e-01) (4, -8.30161857604980468750e+00) (5, 6.34663677215576171875e+00) (6, 5.42667293548583984375e+00) (7, 5.27117729187011718750e+00) (8, -1.87269020080566406250e+00) (9, 5.97337245941162109375e+00) (10, -4.07923173904418945312e+00) (0, -3.37320327758789062500e+00) (1, 4.61738777160644531250e+00) (2, -7.58763694763183593750e+00) (3, 8.39916610717773437500e+00) (4, -1.11063098907470703125e+00) (5, 8.08943939208984375000e+00) (6, -3.67707061767578125000e+00) (7, -3.21949005126953125000e+00) (8, -7.81552982330322265625e+00) (9, -2.82884597778320312500e-01) (10, -4.32119274139404296875e+00) (0, -6.67483901977539062500e+00) (1, -5.90384483337402343750e+00) (2, 3.25628280639648437500e+00) (3, -1.83112192153930664062e+00) (4, 5.75611305236816406250e+00) (5, -4.69901275634765625000e+00) (6, -4.22319412231445312500e-01) (7, -8.39001369476318359375e+00) (8, -6.77122163772583007812e+00) (9, 6.74045658111572265625e+00) (10, -4.28361701965332031250e+00) (0, 7.95336914062500000000e+00) (1, -1.87587738037109375000e+00) (2, -3.58523511886596679688e+00) (3, 5.30000686645507812500e+00) (4, -5.44920396804809570312e+00) (5, -7.31405830383300781250e+00) (6, -5.57268428802490234375e+00) (7, -8.47583103179931640625e+00) (8, -2.39328956604003906250e+00) (9, 5.41114807128906250000e-02) (10, 5.14155578613281250000e+00) (0, -9.80926513671875000000e-01) (1, -5.46720504760742187500e-01) (2, -4.96907472610473632812e+00) (3, -1.89148712158203125000e+00) (4, 4.77620887756347656250e+00) (5, 8.11434745788574218750e-01) (6, -7.07016944885253906250e-01) (7, -4.50667619705200195312e+00) (8, 5.49024295806884765625e+00) (9, 1.61814498901367187500e+00) (10, -1.41052103042602539062e+00) (0, -2.53474235534667968750e-01) (1, 8.78702163696289062500e+00) (2, -4.65440845489501953125e+00) (3, 4.04751205444335937500e+00) (4, -6.35297775268554687500e-01) (5, -4.04442262649536132812e+00) (6, 6.27629089355468750000e+00) (7, -2.89484071731567382812e+00) (8, 6.71960830688476562500e-01) (9, 5.22966098785400390625e+00) (10, 4.22928142547607421875e+00) (0, 6.08672523498535156250e+00) (1, 1.52966690063476562500e+00) (2, 7.78007698059082031250e+00) (3, 7.77266693115234375000e+00) (4, 4.95698261260986328125e+00) (5, 8.30424690246582031250e+00) (6, -3.62062263488769531250e+00) (7, -3.98890447616577148438e+00) (8, 4.44580268859863281250e+00) (9, 4.39845085144042968750e+00) (10, 4.46437454223632812500e+00) (0, 8.47672843933105468750e+00) (1, -6.49303674697875976562e+00) (2, 2.40583419799804687500e-01) (3, 2.88162231445312500000e-01) (4, 1.79994583129882812500e+00) (5, 4.73390674591064453125e+00) (6, -3.22159528732299804688e+00) (7, -5.58191013336181640625e+00) (8, -5.67661380767822265625e+00) (9, 5.52493095397949218750e+00) (10, -5.79488849639892578125e+00) (0, -1.33102226257324218750e+00) (1, 5.72443008422851562500e-01) (2, 2.56981372833251953125e+00) (3, 3.62455463409423828125e+00) (4, -2.15126562118530273438e+00) (5, 8.67497444152832031250e+00) (6, -4.70348405838012695312e+00) (7, -5.92160463333129882812e+00) (8, 3.90425586700439453125e+00) (9, -7.61675882339477539062e+00) (10, 4.60806274414062500000e+00) (0, 2.68433380126953125000e+00) (1, -8.84409141540527343750e+00) (2, 5.65046310424804687500e-01) (3, 1.98857975006103515625e+00) (4, -3.46471405029296875000e+00) (5, 5.57614231109619140625e+00) (6, -2.56561756134033203125e+00) (7, -8.06626319885253906250e+00) (8, 1.04051589965820312500e+00) (9, -3.08889055252075195312e+00) (10, -5.55930042266845703125e+00) (0, -7.71890068054199218750e+00) (1, 6.19927310943603515625e+00) (2, 5.24064636230468750000e+00) (3, 6.01500701904296875000e+00) (4, -6.02232265472412109375e+00) (5, 8.65873527526855468750e+00) (6, -8.66160774230957031250e+00) (7, 8.50260734558105468750e+00) (8, -6.13615226745605468750e+00) (9, -9.92630004882812500000e-01) (10, 7.50513076782226562500e-02) (0, 5.43366241455078125000e+00) (1, -6.36807441711425781250e+00) (2, 6.92378616333007812500e+00) (3, 5.10863494873046875000e+00) (4, -2.07155847549438476562e+00) (5, -7.99781894683837890625e+00) (6, 1.28917694091796875000e-02) (7, -6.88317298889160156250e-01) (8, 5.61024379730224609375e+00) (9, -6.30277538299560546875e+00) (10, -5.32408714294433593750e-01) (0, -2.82471036911010742188e+00) (1, 4.68580532073974609375e+00) (2, 5.00287628173828125000e+00) (3, -6.24856853485107421875e+00) (4, -6.87981224060058593750e+00) (5, 5.93661403656005859375e+00) (6, 3.79194736480712890625e+00) (7, -9.68702316284179687500e-01) (8, -8.62268733978271484375e+00) (9, 5.07304668426513671875e+00) (10, -3.76943016052246093750e+00) (0, 5.61795902252197265625e+00) (1, 2.08805370330810546875e+00) (2, -7.91752815246582031250e-01) (3, 5.27669525146484375000e+00) (4, 2.42644691467285156250e+00) (5, -1.28914546966552734375e+00) (6, 8.14054107666015625000e+00) (7, -7.56618356704711914062e+00) (8, 7.78590583801269531250e+00) (9, 4.57420349121093750000e+00) (10, -4.93425798416137695312e+00) (0, 5.70969104766845703125e+00) (1, 6.82840347290039062500e-01) (2, 1.99418354034423828125e+00) (3, 6.71187305450439453125e+00) (4, -8.30426979064941406250e+00) (5, -7.69413375854492187500e+00) (6, 3.32211685180664062500e+00) (7, -5.60704421997070312500e+00) (8, 7.73457527160644531250e-01) (9, -8.50259399414062500000e+00) (10, 8.07876014709472656250e+00) (0, -3.22366523742675781250e+00) (1, -5.75116300582885742188e+00) (2, -7.80105161666870117188e+00) (3, -6.28705215454101562500e+00) (4, 7.04078483581542968750e+00) (5, 2.30246543884277343750e-01) (6, -5.90973901748657226562e+00) (7, 3.11383152008056640625e+00) (8, 5.46081638336181640625e+00) (9, 8.70821952819824218750e+00) (10, -3.79811573028564453125e+00) (0, -4.33093643188476562500e+00) (1, 4.98491477966308593750e+00) (2, 7.62833023071289062500e+00) (3, 3.37991809844970703125e+00) (4, 4.12545585632324218750e+00) (5, -8.93785381317138671875e+00) (6, 2.16582393646240234375e+00) (7, -3.00339698791503906250e-01) (8, -4.87211132049560546875e+00) (9, -1.12448453903198242188e+00) (10, -8.61750030517578125000e+00) (0, 6.12207221984863281250e+00) (1, -3.41261196136474609375e+00) (2, -7.92176914215087890625e+00) (3, 7.42793846130371093750e+00) (4, 8.90950393676757812500e+00) (5, -4.52881336212158203125e+00) (6, -7.98604011535644531250e-01) (7, -8.59309005737304687500e+00) (8, -5.45005273818969726562e+00) (9, 4.97773075103759765625e+00) (10, -5.34425258636474609375e+00) (0, -4.25110387802124023438e+00) (1, 7.69067764282226562500e+00) (2, -7.30346870422363281250e+00) (3, 4.97914218902587890625e+00) (4, -7.21906089782714843750e+00) (5, 4.81036281585693359375e+00) (6, 1.43995761871337890625e+00) (7, -7.51084089279174804688e+00) (8, -7.98775339126586914062e+00) (9, 6.10902214050292968750e+00) (10, 6.47407341003417968750e+00) (0, 8.64057731628417968750e+00) (1, 4.88940238952636718750e-01) (2, 1.59953022003173828125e+00) (3, 8.70272254943847656250e+00) (4, -6.34523582458496093750e+00) (5, -7.70080900192260742188e+00) (6, -5.16938877105712890625e+00) (7, 1.53027915954589843750e+00) (8, -7.31830883026123046875e+00) (9, -8.04731655120849609375e+00) (10, 7.11766815185546875000e+00) (0, -6.24007797241210937500e+00) (1, 8.38062286376953125000e+00) (2, 7.02717208862304687500e+00) (3, -1.76889133453369140625e+00) (4, -1.41798210144042968750e+00) (5, 7.43408203125000000000e+00) (6, 1.78105640411376953125e+00) (7, -5.44025135040283203125e+00) (8, -6.91017103195190429688e+00) (9, 6.52995109558105468750e+00) (10, -6.74957370758056640625e+00) (0, -5.21363973617553710938e+00) (1, 2.50909423828125000000e+00) (2, -4.96863412857055664062e+00) (3, 8.59672164916992187500e+00) (4, -5.05094718933105468750e+00) (5, -3.47947502136230468750e+00) (6, -8.39103126525878906250e+00) (7, -7.94192600250244140625e+00) (8, -6.00540161132812500000e+00) (9, -8.75045394897460937500e+00) (10, 1.54701328277587890625e+00) (0, 4.59412956237792968750e+00) (1, 8.95226860046386718750e+00) (2, 4.20177841186523437500e+00) (3, 5.89332008361816406250e+00) (4, -5.21711921691894531250e+00) (5, -3.26794290542602539062e+00) (6, 7.57501029968261718750e+00) (7, -4.26443624496459960938e+00) (8, -5.15027523040771484375e+00) (9, -7.66506671905517578125e+00) (10, -4.88381385803222656250e+00) (0, -7.12310314178466796875e+00) (1, -4.33958053588867187500e-01) (2, 2.69820499420166015625e+00) (3, -8.68902111053466796875e+00) (4, -7.65290164947509765625e+00) (5, 6.25795173645019531250e+00) (6, -6.59919214248657226562e+00) (7, 7.87705039978027343750e+00) (8, 8.50837898254394531250e+00) (9, -2.81283187866210937500e+00) (10, 1.38614463806152343750e+00) (0, -5.46025514602661132812e+00) (1, -3.21610975265502929688e+00) (2, 5.33519744873046875000e+00) (3, 6.02703094482421875000e-02) (4, -2.60714054107666015625e+00) (5, 6.39327144622802734375e+00) (6, 3.05486869812011718750e+00) (7, -2.35759449005126953125e+00) (8, -1.05971527099609375000e+00) (9, -1.35100221633911132812e+00) (10, -2.40532588958740234375e+00) (0, -5.85793781280517578125e+00) (1, -4.45768213272094726562e+00) (2, 1.37755489349365234375e+00) (3, -1.25880241394042968750e-01) (4, -5.88267087936401367188e+00) (5, 6.11311912536621093750e+00) (6, 3.72384357452392578125e+00) (7, -4.54773759841918945312e+00) (8, -7.77069520950317382812e+00) (9, 5.60074138641357421875e+00) (10, 4.01830482482910156250e+00) (0, 3.92750930786132812500e+00) (1, 5.91171932220458984375e+00) (2, 5.36540317535400390625e+00) (3, 1.18546104431152343750e+00) (4, 8.31252670288085937500e+00) (5, 4.24245452880859375000e+00) (6, 6.93840026855468750000e-01) (7, -3.50030469894409179688e+00) (8, -3.37140178680419921875e+00) (9, 4.23358535766601562500e+00) (10, 2.28358554840087890625e+00) (0, -7.03620433807373046875e+00) (1, -4.70614480972290039062e+00) (2, 8.67644500732421875000e+00) (3, 8.35706710815429687500e+00) (4, 7.34872436523437500000e+00) (5, -2.68114900588989257812e+00) (6, -1.70264863967895507812e+00) (7, -3.00227880477905273438e+00) (8, 3.91352558135986328125e+00) (9, 1.43941402435302734375e+00) (10, 1.54003906250000000000e+00) (0, -3.70892047882080078125e+00) (1, -7.68646669387817382812e+00) (2, 4.65736865997314453125e+00) (3, -6.59580135345458984375e+00) (4, 5.03737735748291015625e+00) (5, -8.89036941528320312500e+00) (6, -5.36649703979492187500e+00) (7, 1.63811874389648437500e+00) (8, 4.12793540954589843750e+00) (9, 7.56101226806640625000e+00) (10, -1.45016145706176757812e+00) (0, 4.93338584899902343750e-01) (1, -2.53525733947753906250e-01) (2, -2.13763427734375000000e+00) (3, -4.26420736312866210938e+00) (4, -8.55968475341796875000e+00) (5, 3.36206054687500000000e+00) (6, 1.36439037322998046875e+00) (7, 4.67390060424804687500e+00) (8, -3.35435295104980468750e+00) (9, 3.32818698883056640625e+00) (10, 8.96775627136230468750e+00) (0, -3.67790699005126953125e+00) (1, 2.68525314331054687500e+00) (2, 7.31647872924804687500e+00) (3, 2.64094352722167968750e+00) (4, -8.01739501953125000000e+00) (5, -4.68579912185668945312e+00) (6, -2.44553136825561523438e+00) (7, 2.42201900482177734375e+00) (8, 5.85423946380615234375e+00) (9, 2.84554767608642578125e+00) (10, 3.73555183410644531250e+00) (0, 1.51160812377929687500e+00) (1, 5.24974632263183593750e+00) (2, -2.27070808410644531250e-01) (3, 1.62123870849609375000e+00) (4, 8.88324928283691406250e+00) (5, -7.58895158767700195312e+00) (6, -3.25082683563232421875e+00) (7, 7.44426155090332031250e+00) (8, -3.91130447387695312500e-02) (9, 6.24251174926757812500e+00) (10, -1.80926418304443359375e+00) (0, 6.82325363159179687500e+00) (1, -7.02169513702392578125e+00) (2, -1.36894941329956054688e+00) (3, 1.18531417846679687500e+00) (4, 3.34269523620605468750e+00) (5, -5.69504928588867187500e+00) (6, 6.83096122741699218750e+00) (7, -2.32911825180053710938e+00) (8, -5.72729301452636718750e+00) (9, -5.84694576263427734375e+00) (10, -8.64386558532714843750e+00) (0, -7.41081380844116210938e+00) (1, 5.79399776458740234375e+00) (2, -7.66126060485839843750e+00) (3, -3.09661245346069335938e+00) (4, -5.65153408050537109375e+00) (5, 3.76075744628906250000e+00) (6, -6.24237251281738281250e+00) (7, 6.19401359558105468750e+00) (8, -1.50369024276733398438e+00) (9, 4.26923561096191406250e+00) (10, 2.44376087188720703125e+00) (0, 7.26923942565917968750e+00) (1, -3.10952615737915039062e+00) (2, 2.32700920104980468750e+00) (3, 8.68028831481933593750e+00) (4, 2.63964748382568359375e+00) (5, 7.71271705627441406250e-01) (6, -3.58824729919433593750e-01) (7, -1.17840766906738281250e-01) (8, 7.96200561523437500000e+00) (9, -2.53557205200195312500e+00) (10, 1.86046409606933593750e+00) (0, -2.40694236755371093750e+00) (1, 7.64974212646484375000e+00) (2, -3.79684066772460937500e+00) (3, 8.98008346557617187500e-01) (4, 5.48070335388183593750e+00) (5, 2.87404060363769531250e+00) (6, 4.17071533203125000000e+00) (7, 8.63375663757324218750e+00) (8, 3.23017597198486328125e+00) (9, 5.75990104675292968750e+00) (10, 5.42775535583496093750e+00) (0, 4.56891536712646484375e+00) (1, -6.33671092987060546875e+00) (2, 8.77622032165527343750e+00) (3, -6.70327186584472656250e-01) (4, -3.57908391952514648438e+00) (5, 5.97023582458496093750e+00) (6, 6.82598304748535156250e+00) (7, -8.30984878540039062500e+00) (8, -5.86004257202148437500e-01) (9, 5.09522151947021484375e+00) (10, -2.41937446594238281250e+00) (0, -7.25899505615234375000e+00) (1, 4.77550983428955078125e+00) (2, -8.77972698211669921875e+00) (3, 2.51227569580078125000e+00) (4, -4.58331441879272460938e+00) (5, 1.02432250976562500000e-01) (6, 1.47428226470947265625e+00) (7, 1.88111400604248046875e+00) (8, -7.03710365295410156250e+00) (9, 8.06734085083007812500e+00) (10, 5.30855178833007812500e-01) (0, -1.83394432067871093750e+00) (1, -3.46508026123046875000e-02) (2, -2.98844051361083984375e+00) (3, -7.95990371704101562500e+00) (4, -4.86393594741821289062e+00) (5, -3.35468292236328125000e+00) (6, 4.27027225494384765625e+00) (7, -8.10403442382812500000e+00) (8, -6.92692756652832031250e+00) (9, -1.60812377929687500000e-01) (10, -5.44074535369873046875e+00) (0, -7.15070629119873046875e+00) (1, 8.16886138916015625000e+00) (2, -1.98287963867187500000e-02) (3, 7.81953048706054687500e+00) (4, 5.99484348297119140625e+00) (5, 6.70322418212890625000e-01) (6, -1.76647472381591796875e+00) (7, 2.09006500244140625000e+00) (8, 7.25094795227050781250e+00) (9, -2.54707336425781250000e-02) (10, -2.13442373275756835938e+00) (0, 7.47122001647949218750e+00) (1, -6.51319408416748046875e+00) (2, 2.28226184844970703125e+00) (3, -1.42634773254394531250e+00) (4, 3.96108913421630859375e+00) (5, -4.83662462234497070312e+00) (6, 5.36547660827636718750e-01) (7, 3.02842998504638671875e+00) (8, 4.69423103332519531250e+00) (9, 7.70260429382324218750e+00) (10, -6.00622081756591796875e+00) (0, -7.29420948028564453125e+00) (1, 8.74270057678222656250e+00) (2, -1.87015676498413085938e+00) (3, -1.64889287948608398438e+00) (4, 4.01297283172607421875e+00) (5, -9.74191665649414062500e-01) (6, 4.24179077148437500000e-01) (7, -5.14783954620361328125e+00) (8, 2.58506298065185546875e+00) (9, 2.27347373962402343750e+00) (10, -5.97897911071777343750e+00) (0, -6.43476581573486328125e+00) (1, 1.09300231933593750000e+00) (2, -8.98413562774658203125e+00) (3, 3.23555660247802734375e+00) (4, 8.32652664184570312500e+00) (5, 2.10593032836914062500e+00) (6, 1.48650360107421875000e+00) (7, -6.98942184448242187500e-01) (8, 8.97150611877441406250e+00) (9, -4.22763824462890625000e-02) (10, 1.78786373138427734375e+00) (0, 2.25376796722412109375e+00) (1, 7.53137588500976562500e+00) (2, -3.25104713439941406250e+00) (3, 6.41714286804199218750e+00) (4, -9.32075500488281250000e-01) (5, 8.77738380432128906250e+00) (6, 2.11137390136718750000e+00) (7, -2.22947120666503906250e+00) (8, -6.22883796691894531250e+00) (9, 3.81716442108154296875e+00) (10, -2.48677110671997070312e+00) (0, 9.01004791259765625000e-01) (1, -6.83172845840454101562e+00) (2, -7.47379827499389648438e+00) (3, 8.92681312561035156250e+00) (4, 2.59245109558105468750e+00) (5, -3.62163829803466796875e+00) (6, 2.51187705993652343750e+00) (7, -4.13407516479492187500e+00) (8, -6.00617408752441406250e-01) (9, 5.07711029052734375000e+00) (10, 5.95892715454101562500e+00) (0, -5.84753036499023437500e-01) (1, -6.87334060668945312500e-01) (2, 5.28545475006103515625e+00) (3, -7.47882366180419921875e+00) (4, -8.20082950592041015625e+00) (5, -4.41348791122436523438e+00) (6, -7.50731754302978515625e+00) (7, 7.56893157958984375000e-01) (8, 6.37437629699707031250e+00) (9, 3.74644947052001953125e+00) (10, -7.11729049682617187500e-01) (0, -5.87667131423950195312e+00) (1, 1.16359233856201171875e+00) (2, 7.35619354248046875000e+00) (3, -6.09928798675537109375e+00) (4, -5.72503280639648437500e+00) (5, -3.87327671051025390625e+00) (6, -3.32812690734863281250e+00) (7, 7.09213256835937500000e+00) (8, 2.63995265960693359375e+00) (9, 6.57287883758544921875e+00) (10, -8.73959732055664062500e+00) (0, 4.16615390777587890625e+00) (1, 6.49969196319580078125e+00) (2, 2.85285472869873046875e+00) (3, -8.45548439025878906250e+00) (4, 1.15680694580078125000e-02) (5, 7.71877861022949218750e+00) (6, -5.61017990112304687500e-02) (7, -3.91132116317749023438e+00) (8, 4.67770576477050781250e+00) (9, 8.35914611816406250000e+00) (10, 4.40134525299072265625e+00) 
