FANN_FLO_2.1
num_layers=102
learning_rate=0.700000
connection_rate=1.000000
network_type=1
learning_momentum=0.000000
training_algorithm=2
train_error_function=0
train_stop_function=0
cascade_output_change_fraction=0.010000
quickprop_decay=-0.000100
quickprop_mu=1.750000
rprop_increase_factor=1.200000
rprop_decrease_factor=0.500000
rprop_delta_min=0.000000
rprop_delta_max=50.000000
rprop_delta_zero=0.100000
cascade_output_stagnation_epochs=12
cascade_candidate_change_fraction=0.010000
cascade_candidate_stagnation_epochs=12
cascade_max_out_epochs=150
cascade_max_cand_epochs=1000
cascade_num_candidate_groups=8
bit_fail_limit=8.99999976158142089844e-01
cascade_candidate_limit=1.00000000000000000000e+03
cascade_weight_multiplier=4.00000005960464477539e-01
cascade_activation_functions_count=1
cascade_activation_functions=5 
cascade_activation_steepnesses_count=1
cascade_activation_steepnesses=1.00000000000000000000e+00 
layer_sizes=15 1 1 1 1 1 1 1 1 1 1 1 1 1 1 1 1 1 1 1 1 1 1 1 1 1 1 1 1 1 1 1 1 1 1 1 1 1 1 1 1 1 1 1 1 1 1 1 1 1 1 1 1 1 1 1 1 1 1 1 1 1 1 1 1 1 1 1 1 1 1 1 1 1 1 1 1 1 1 1 1 1 1 1 1 1 1 1 1 1 1 1 1 1 1 1 1 1 1 1 1 39 
scale_included=0
neurons (num_inputs, activation_function, activation_steepness)=(0, 0, 0.00000000000000000000e+00) (0, 0, 0.00000000000000000000e+00) (0, 0, 0.00000000000000000000e+00) (0, 0, 0.00000000000000000000e+00) (0, 0, 0.00000000000000000000e+00) (0, 0, 0.00000000000000000000e+00) (0, 0, 0.00000000000000000000e+00) (0, 0, 0.00000000000000000000e+00) (0, 0, 0.00000000000000000000e+00) (0, 0, 0.00000000000000000000e+00) (0, 0, 0.00000000000000000000e+00) (0, 0, 0.00000000000000000000e+00) (0, 0, 0.00000000000000000000e+00) (0, 0, 0.00000000000000000000e+00) (0, 0, 0.00000000000000000000e+00) (15, 5, 1.00000000000000000000e+00) (16, 5, 1.00000000000000000000e+00) (17, 5, 1.00000000000000000000e+00) (18, 5, 1.00000000000000000000e+00) (19, 5, 1.00000000000000000000e+00) (20, 5, 1.00000000000000000000e+00) (21, 5, 1.00000000000000000000e+00) (22, 5, 1.00000000000000000000e+00) (23, 5, 1.00000000000000000000e+00) (24, 5, 1.00000000000000000000e+00) (25, 5, 1.00000000000000000000e+00) (26, 5, 1.00000000000000000000e+00) (27, 5, 1.00000000000000000000e+00) (28, 5, 1.00000000000000000000e+00) (29, 5, 1.00000000000000000000e+00) (30, 5, 1.00000000000000000000e+00) (31, 5, 1.00000000000000000000e+00) (32, 5, 1.00000000000000000000e+00) (33, 5, 1.00000000000000000000e+00) (34, 5, 1.00000000000000000000e+00) (35, 5, 1.00000000000000000000e+00) (36, 5, 1.00000000000000000000e+00) (37, 5, 1.00000000000000000000e+00) (38, 5, 1.00000000000000000000e+00) (39, 5, 1.00000000000000000000e+00) (40, 5, 1.00000000000000000000e+00) (41, 5, 1.00000000000000000000e+00) (42, 5, 1.00000000000000000000e+00) (43, 5, 1.00000000000000000000e+00) (44, 5, 1.00000000000000000000e+00) (45, 5, 1.00000000000000000000e+00) (46, 5, 1.00000000000000000000e+00) (47, 5, 1.00000000000000000000e+00) (48, 5, 1.00000000000000000000e+00) (49, 5, 1.00000000000000000000e+00) (50, 5, 1.00000000000000000000e+00) (51, 5, 1.00000000000000000000e+00) (52, 5, 1.00000000000000000000e+00) (53, 5, 1.00000000000000000000e+00) (54, 5, 1.00000000000000000000e+00) (55, 5, 1.00000000000000000000e+00) (56, 5, 1.00000000000000000000e+00) (57, 5, 1.00000000000000000000e+00) (58, 5, 1.00000000000000000000e+00) (59, 5, 1.00000000000000000000e+00) (60, 5, 1.00000000000000000000e+00) (61, 5, 1.00000000000000000000e+00) (62, 5, 1.00000000000000000000e+00) (63, 5, 1.00000000000000000000e+00) (64, 5, 1.00000000000000000000e+00) (65, 5, 1.00000000000000000000e+00) (66, 5, 1.00000000000000000000e+00) (67, 5, 1.00000000000000000000e+00) (68, 5, 1.00000000000000000000e+00) (69, 5, 1.00000000000000000000e+00) (70, 5, 1.00000000000000000000e+00) (71, 5, 1.00000000000000000000e+00) (72, 5, 1.00000000000000000000e+00) (73, 5, 1.00000000000000000000e+00) (74, 5, 1.00000000000000000000e+00) (75, 5, 1.00000000000000000000e+00) (76, 5, 1.00000000000000000000e+00) (77, 5, 1.00000000000000000000e+00) (78, 5, 1.00000000000000000000e+00) (79, 5, 1.00000000000000000000e+00) (80, 5, 1.00000000000000000000e+00) (81, 5, 1.00000000000000000000e+00) (82, 5, 1.00000000000000000000e+00) (83, 5, 1.00000000000000000000e+00) (84, 5, 1.00000000000000000000e+00) (85, 5, 1.00000000000000000000e+00) (86, 5, 1.00000000000000000000e+00) (87, 5, 1.00000000000000000000e+00) (88, 5, 1.00000000000000000000e+00) (89, 5, 1.00000000000000000000e+00) (90, 5, 1.00000000000000000000e+00) (91, 5, 1.00000000000000000000e+00) (92, 5, 1.00000000000000000000e+00) (93, 5, 1.00000000000000000000e+00) (94, 5, 1.00000000000000000000e+00) (95, 5, 1.00000000000000000000e+00) (96, 5, 1.00000000000000000000e+00) (97, 5, 1.00000000000000000000e+00) (98, 5, 1.00000000000000000000e+00) (99, 5, 1.00000000000000000000e+00) (100, 5, 1.00000000000000000000e+00) (101, 5, 1.00000000000000000000e+00) (102, 5, 1.00000000000000000000e+00) (103, 5, 1.00000000000000000000e+00) (104, 5, 1.00000000000000000000e+00) (105, 5, 1.00000000000000000000e+00) (106, 5, 1.00000000000000000000e+00) (107, 5, 1.00000000000000000000e+00) (108, 5, 1.00000000000000000000e+00) (109, 5, 1.00000000000000000000e+00) (110, 5, 1.00000000000000000000e+00) (111, 5, 1.00000000000000000000e+00) (112, 5, 1.00000000000000000000e+00) (113, 5, 1.00000000000000000000e+00) (114, 5, 1.00000000000000000000e+00) (115, 0, 5.00000000000000000000e-01) (115, 0, 5.00000000000000000000e-01) (115, 0, 5.00000000000000000000e-01) (115, 0, 5.00000000000000000000e-01) (115, 0, 5.00000000000000000000e-01) (115, 0, 5.00000000000000000000e-01) (115, 0, 5.00000000000000000000e-01) (115, 0, 5.00000000000000000000e-01) (115, 0, 5.00000000000000000000e-01) (115, 0, 5.00000000000000000000e-01) (115, 0, 5.00000000000000000000e-01) (115, 0, 5.00000000000000000000e-01) (115, 0, 5.00000000000000000000e-01) (115, 0, 5.00000000000000000000e-01) (115, 0, 5.00000000000000000000e-01) (115, 0, 5.00000000000000000000e-01) (115, 0, 5.00000000000000000000e-01) (115, 0, 5.00000000000000000000e-01) (115, 0, 5.00000000000000000000e-01) (115, 0, 5.00000000000000000000e-01) (115, 0, 5.00000000000000000000e-01) (115, 0, 5.00000000000000000000e-01) (115, 0, 5.00000000000000000000e-01) (115, 0, 5.00000000000000000000e-01) (115, 0, 5.00000000000000000000e-01) (115, 0, 5.00000000000000000000e-01) (115, 0, 5.00000000000000000000e-01) (115, 0, 5.00000000000000000000e-01) (115, 0, 5.00000000000000000000e-01) (115, 0, 5.00000000000000000000e-01) (115, 0, 5.00000000000000000000e-01) (115, 0, 5.00000000000000000000e-01) (115, 0, 5.00000000000000000000e-01) (115, 0, 5.00000000000000000000e-01) (115, 0, 5.00000000000000000000e-01) (115, 0, 5.00000000000000000000e-01) (115, 0, 5.00000000000000000000e-01) (115, 0, 5.00000000000000000000e-01) (115, 0, 5.00000000000000000000e-01) 
connections (connected_to_neuron, weight)=(0, -7.14250564575195312500e-01) (1, -3.19699347019195556641e-02) (2, 8.23249965906143188477e-02) (3, -4.68010097742080688477e-01) (4, 1.64366245269775390625e-01) (5, -5.61043396592140197754e-02) (6, -3.40575933456420898438e+00) (7, 5.84723377227783203125e+00) (8, 8.04265594482421875000e+00) (9, -8.52907299995422363281e-01) (10, 1.34434819221496582031e+00) (11, -5.46892595291137695312e+00) (12, 2.28561475872993469238e-01) (13, -4.77278739213943481445e-01) (14, -7.34757065773010253906e-01) (0, 6.81518018245697021484e-01) (1, -9.86915603280067443848e-02) (2, -2.73712903261184692383e-01) (3, -1.10090203583240509033e-01) (4, 8.72729942202568054199e-02) (5, -1.02496027946472167969e+00) (6, -4.64255392551422119141e-01) (7, 2.94205427169799804688e-01) (8, -4.30073589086532592773e-01) (9, 1.01671934127807617188e+00) (10, 2.20286563038825988770e-01) (11, 9.23554241657257080078e-01) (12, -2.27276936173439025879e-01) (13, 1.01365279406309127808e-02) (14, -5.29077410697937011719e-01) (15, -2.70558863878250122070e-01) (0, -3.48340600728988647461e-01) (1, 7.02455818653106689453e-01) (2, -1.94654837250709533691e-01) (3, -4.05581705272197723389e-02) (4, 1.06045091524720191956e-02) (5, -2.93019264936447143555e-01) (6, 8.45124244689941406250e-01) (7, -1.51760011911392211914e-01) (8, 1.91289260983467102051e-02) (9, 4.10372614860534667969e-01) (10, -3.87037456035614013672e-01) (11, 6.73307418823242187500e-01) (12, -8.31940233707427978516e-01) (13, -3.23501884937286376953e-01) (14, -2.99173802137374877930e-01) (15, 1.36309444904327392578e+00) (16, 2.75688910484313964844e+00) (0, 4.60458964109420776367e-01) (1, 4.31520998477935791016e-01) (2, 3.29868942499160766602e-01) (3, 7.74435177445411682129e-02) (4, 1.67900264263153076172e-01) (5, 6.80969059467315673828e-01) (6, 5.57921469211578369141e-01) (7, -1.82851076126098632812e-01) (8, -9.30842101573944091797e-01) (9, -4.78198498487472534180e-01) (10, -1.38809847831726074219e+00) (11, 7.42184817790985107422e-01) (12, 1.15487784147262573242e-01) (13, -1.69660910964012145996e-01) (14, -1.78528153896331787109e+00) (15, 2.99744343757629394531e+00) (16, 7.24479436874389648438e-01) (17, 1.81150937080383300781e+00) (0, 1.73233926296234130859e-01) (1, -7.62033581733703613281e-01) (2, 2.25612983107566833496e-01) (3, -3.00278484821319580078e-01) (4, 1.17842070758342742920e-01) (5, -5.19403576850891113281e-01) (6, 8.65488171577453613281e-01) (7, -2.73706823587417602539e-01) (8, -9.56437468528747558594e-01) (9, 4.64014738798141479492e-01) (10, 4.47337180376052856445e-01) (11, 1.77470564842224121094e-01) (12, -3.79437863826751708984e-01) (13, 9.23063695430755615234e-01) (14, -4.91560310125350952148e-01) (15, 5.40841579437255859375e-01) (16, -7.40608155727386474609e-01) (17, -3.44918459653854370117e-01) (18, 5.45651078224182128906e-01) (0, -6.11035704612731933594e-01) (1, 1.01665005087852478027e-01) (2, 2.63486849144101142883e-03) (3, -1.50263711810111999512e-01) (4, -1.99386656284332275391e-01) (5, -1.71750485897064208984e-01) (6, -6.12823665142059326172e-01) (7, -6.48152649402618408203e-01) (8, 3.57426494359970092773e-01) (9, 8.14740717411041259766e-01) (10, 1.68856412172317504883e-01) (11, 2.19288840889930725098e-01) (12, -8.97531956434249877930e-02) (13, 6.52616083621978759766e-01) (14, -5.23737668991088867188e-01) (15, -6.95412814617156982422e-01) (16, -6.25746369361877441406e-01) (17, 1.14246404170989990234e+00) (18, 6.22146904468536376953e-01) (19, -6.46010637283325195312e-01) (0, -8.44327270984649658203e-01) (1, -5.48243403434753417969e-01) (2, -5.48389375209808349609e-01) (3, 3.39755773544311523438e-01) (4, 7.96351134777069091797e-01) (5, 4.87323820590972900391e-01) (6, 8.69480729103088378906e-01) (7, 1.86689555644989013672e-01) (8, 2.47923269867897033691e-01) (9, 5.54394423961639404297e-01) (10, -6.05746150016784667969e-01) (11, -9.27899479866027832031e-01) (12, -5.40315732359886169434e-02) (13, 8.71466025710105895996e-02) (14, -1.54624128341674804688e+00) (15, -8.33089172840118408203e-01) (16, -1.26846641302108764648e-01) (17, -1.74294853210449218750e+00) (18, -2.50566601753234863281e-01) (19, 1.07185375690460205078e+00) (20, 2.17314338684082031250e+00) (0, -6.74740131944417953491e-03) (1, 6.47474706172943115234e-01) (2, 2.31983140110969543457e-01) (3, -5.57424187660217285156e-01) (4, 4.22334671020507812500e-01) (5, -3.09477299451828002930e-01) (6, -3.16565662622451782227e-01) (7, 4.84442949295043945312e-01) (8, -5.26748657226562500000e-01) (9, -7.15068995952606201172e-01) (10, 6.29542887210845947266e-01) (11, -2.78385490179061889648e-01) (12, 2.99302756786346435547e-01) (13, 5.20135939121246337891e-01) (14, -7.17895030975341796875e-01) (15, 1.50813305377960205078e+00) (16, -4.34697866439819335938e-01) (17, -3.71696919202804565430e-01) (18, 1.35572707653045654297e+00) (19, -6.42012000083923339844e-01) (20, -2.70402371883392333984e-01) (21, 1.23634600639343261719e+00) (0, 8.58222424983978271484e-01) (1, -3.29140424728393554688e-01) (2, 6.83117747306823730469e-01) (3, -8.76574367284774780273e-02) (4, -1.39897453784942626953e+00) (5, -4.58255499601364135742e-01) (6, 9.89573359489440917969e-01) (7, 8.24775218963623046875e-01) (8, 7.08689838647842407227e-02) (9, -1.03925013542175292969e+00) (10, 8.01935195922851562500e-01) (11, 4.39471334218978881836e-01) (12, 7.48755395412445068359e-01) (13, -6.07052803039550781250e-01) (14, -2.65407299995422363281e+00) (15, -3.91666710376739501953e-01) (16, 1.68775868415832519531e+00) (17, 5.67820012569427490234e-01) (18, 1.29792296886444091797e+00) (19, -5.64122200012207031250e-01) (20, 2.14989781379699707031e+00) (21, 4.28599405288696289062e+00) (22, 2.84202671051025390625e+00) (0, -4.00543242692947387695e-01) (1, -1.56987696886062622070e-01) (2, 6.78291141986846923828e-01) (3, -3.97566646337509155273e-01) (4, 7.00159147381782531738e-02) (5, -4.96971219778060913086e-01) (6, -3.55663113296031951904e-02) (7, -7.78884887695312500000e-02) (8, -9.42496582865715026855e-03) (9, 3.80054980516433715820e-01) (10, 4.20340776443481445312e-01) (11, 1.20421802997589111328e+00) (12, 1.46769583225250244141e-01) (13, -2.68875598907470703125e-01) (14, -2.85043859481811523438e+00) (15, 2.32458800077438354492e-01) (16, -1.10867023468017578125e+00) (17, 1.05554163455963134766e+00) (18, 2.77640402317047119141e-01) (19, 2.67638355493545532227e-01) (20, 1.12719357013702392578e+00) (21, 1.71465122699737548828e+00) (22, 2.28338932991027832031e+00) (23, -1.78245818614959716797e+00) (0, -8.44297468662261962891e-01) (1, -7.46702134609222412109e-01) (2, 5.45059621334075927734e-01) (3, 1.20310699939727783203e+00) (4, 3.86288672685623168945e-01) (5, 3.96614789962768554688e-01) (6, 6.22203707695007324219e-01) (7, 4.95577007532119750977e-02) (8, 1.03417706489562988281e+00) (9, -1.23738479614257812500e+00) (10, 2.87241339683532714844e-01) (11, 1.97766739875078201294e-02) (12, -3.13599497079849243164e-01) (13, -1.03950333595275878906e+00) (14, 3.14027428627014160156e-01) (15, 5.29726624488830566406e-01) (16, 1.59393930435180664062e+00) (17, 1.40289795398712158203e+00) (18, 1.43917834758758544922e+00) (19, 3.53018999099731445312e-01) (20, 1.96862423419952392578e+00) (21, 1.38252449035644531250e+00) (22, -1.34992074966430664062e+00) (23, -5.28775334358215332031e-01) (24, 8.45844686031341552734e-01) (0, 1.15929782390594482422e+00) (1, 5.82076430320739746094e-01) (2, -3.26825827360153198242e-01) (3, -4.74557012319564819336e-01) (4, -3.72987866401672363281e-01) (5, 3.98789286613464355469e-01) (6, -1.25454619526863098145e-01) (7, -5.04152178764343261719e-01) (8, -1.66031539440155029297e-01) (9, 2.23263829946517944336e-01) (10, -4.30020809173583984375e-01) (11, 1.54704988002777099609e-01) (12, -7.63149082660675048828e-01) (13, -4.12380129098892211914e-01) (14, 1.25594949722290039062e+00) (15, -1.20978362858295440674e-01) (16, 1.09329152107238769531e+00) (17, -5.39504766464233398438e-01) (18, 1.69833242893218994141e+00) (19, 3.33335369825363159180e-01) (20, -1.76644527912139892578e+00) (21, 2.63297438621520996094e+00) (22, -3.66258502006530761719e-01) (23, 2.04987907409667968750e+00) (24, 9.39726054668426513672e-01) (25, 1.89390778541564941406e+00) (0, 2.37532943487167358398e-01) (1, 8.65158736705780029297e-01) (2, 3.38632240891456604004e-02) (3, 4.58744078874588012695e-01) (4, -1.41753107309341430664e-01) (5, -1.80598035454750061035e-01) (6, -4.04475003480911254883e-01) (7, -3.23762327432632446289e-01) (8, 8.47374081611633300781e-01) (9, -5.53104698657989501953e-01) (10, -4.23460602760314941406e-01) (11, 6.72434985637664794922e-01) (12, -2.51624435186386108398e-02) (13, 8.46556484699249267578e-01) (14, -3.13600206375122070312e+00) (15, 5.26019096374511718750e-01) (16, 4.14425402879714965820e-01) (17, -4.26218926906585693359e-01) (18, -2.59651136398315429688e+00) (19, -1.76610326766967773438e+00) (20, 1.29275417327880859375e+00) (21, 3.67956709861755371094e+00) (22, 9.15883243083953857422e-01) (23, -5.54100811481475830078e-01) (24, -7.08153173327445983887e-02) (25, 8.63328203558921813965e-02) (26, 2.64933514595031738281e+00) (0, -1.00135338306427001953e+00) (1, -8.68471562862396240234e-02) (2, 1.11353874206542968750e+00) (3, 8.97621273994445800781e-01) (4, 3.86232361197471618652e-02) (5, -3.46983224153518676758e-01) (6, -2.46798753738403320312e-01) (7, -4.61941748857498168945e-01) (8, -2.13505819439888000488e-01) (9, -9.72539007663726806641e-01) (10, 6.98343396186828613281e-01) (11, 9.40246641635894775391e-01) (12, 6.96880161762237548828e-01) (13, -6.82720661163330078125e-01) (14, -1.60458898544311523438e+00) (15, 8.78107190132141113281e-01) (16, 1.22272825241088867188e+00) (17, -3.96120548248291015625e-01) (18, 5.93012571334838867188e-01) (19, 6.90562784671783447266e-01) (20, 1.28984522819519042969e+00) (21, -3.13170492649078369141e-01) (22, 4.69995886087417602539e-01) (23, -2.05164313316345214844e+00) (24, -1.04091799259185791016e+00) (25, -9.13748979568481445312e-01) (26, 3.70873451232910156250e+00) (27, 1.22585952281951904297e+00) (0, 3.02692621946334838867e-01) (1, -1.71517685055732727051e-01) (2, -5.28030097484588623047e-01) (3, 2.20173344016075134277e-01) (4, -8.11622500419616699219e-01) (5, 3.41720700263977050781e-01) (6, 5.35966813564300537109e-01) (7, 2.42180779576301574707e-01) (8, 2.40974932909011840820e-01) (9, -9.20327901840209960938e-01) (10, -9.90023687481880187988e-02) (11, 5.56601166725158691406e-01) (12, 3.27717244625091552734e-01) (13, -4.09920036792755126953e-01) (14, 3.50019991397857666016e-01) (15, 3.65105539560317993164e-01) (16, 1.59799098968505859375e+00) (17, 3.07316970825195312500e+00) (18, -1.42474269866943359375e+00) (19, 1.05707041919231414795e-01) (20, 1.96725690364837646484e+00) (21, 3.16983199119567871094e+00) (22, 2.73283028602600097656e+00) (23, -1.33512854576110839844e-01) (24, -2.71225124597549438477e-01) (25, 1.74598324298858642578e+00) (26, 8.10556113719940185547e-01) (27, -5.76282441616058349609e-01) (28, 1.38366663455963134766e+00) (0, 7.16426447033882141113e-02) (1, 9.65368688106536865234e-01) (2, -5.05648612976074218750e-01) (3, 3.26464116573333740234e-01) (4, -9.03498977422714233398e-02) (5, 7.02174305915832519531e-01) (6, 7.22046494483947753906e-01) (7, -1.50421059131622314453e+00) (8, 6.69232159852981567383e-02) (9, -7.62936055660247802734e-01) (10, -5.33581256866455078125e-01) (11, 1.24885118007659912109e+00) (12, 3.42712908983230590820e-01) (13, -2.20586076378822326660e-01) (14, -2.90779948234558105469e+00) (15, 1.66312301158905029297e+00) (16, 1.12857663631439208984e+00) (17, 3.25102269649505615234e-01) (18, 7.07863390445709228516e-01) (19, 1.10014438629150390625e+00) (20, 9.25502181053161621094e-01) (21, 1.14082670211791992188e+00) (22, 9.48692619800567626953e-01) (23, 1.28497326374053955078e+00) (24, 9.07059967517852783203e-01) (25, -3.37679362297058105469e+00) (26, 4.58941906690597534180e-01) (27, -4.79069620370864868164e-01) (28, -6.23816132545471191406e-01) (29, -4.24415975809097290039e-01) (0, 1.45768612623214721680e-01) (1, -1.07360132038593292236e-01) (2, 3.99855673313140869141e-02) (3, 1.51971504092216491699e-01) (4, 1.24661102890968322754e-02) (5, -2.05250233411788940430e-02) (6, -4.45463657379150390625e-01) (7, 1.08926385641098022461e-01) (8, -4.72030133008956909180e-01) (9, 7.04803168773651123047e-01) (10, 5.61983764171600341797e-01) (11, 1.87234908342361450195e-01) (12, 5.09300649166107177734e-01) (13, -7.78220176696777343750e-01) (14, -8.41222167015075683594e-01) (15, -2.73987371474504470825e-02) (16, 8.55450212955474853516e-01) (17, -3.44997549057006835938e+00) (18, 2.25777411460876464844e+00) (19, -1.09793925285339355469e+00) (20, 1.57973849773406982422e+00) (21, 3.43842720985412597656e+00) (22, 8.76513421535491943359e-01) (23, -1.29871511459350585938e+00) (24, -1.95581305027008056641e+00) (25, -2.90292000770568847656e+00) (26, 2.27420592308044433594e+00) (27, -1.02998375892639160156e-01) (28, 3.01578474044799804688e+00) (29, 2.39422178268432617188e+00) (30, -1.82092833518981933594e+00) (0, -4.14271533489227294922e-01) (1, 1.11485505104064941406e+00) (2, 6.79745078086853027344e-01) (3, -1.68074572086334228516e+00) (4, 7.48016178607940673828e-01) (5, 5.47007918357849121094e-01) (6, 6.44392251968383789062e-01) (7, 9.29710984230041503906e-01) (8, 1.11112260818481445312e+00) (9, -8.49426016211509704590e-02) (10, -4.82962101697921752930e-01) (11, -7.70646572113037109375e-01) (12, -1.64653331041336059570e-01) (13, -3.22197116911411285400e-02) (14, -2.13679957389831542969e+00) (15, -1.14885342121124267578e+00) (16, 9.86452162265777587891e-01) (17, 1.61697506904602050781e+00) (18, -1.73926067352294921875e+00) (19, 5.83078503608703613281e-01) (20, 2.83481335639953613281e+00) (21, 9.18903470039367675781e-01) (22, 1.00433278083801269531e+00) (23, 1.04830729961395263672e+00) (24, -9.21113669872283935547e-01) (25, 6.18586421012878417969e-01) (26, 2.35399103164672851562e+00) (27, -2.24872469902038574219e+00) (28, 2.02912163734436035156e+00) (29, 1.16221332550048828125e+00) (30, 6.32232844829559326172e-01) (31, 7.93640673160552978516e-01) (0, -1.12123739719390869141e+00) (1, 4.08592969179153442383e-01) (2, 2.92968183755874633789e-01) (3, 1.85377985239028930664e-01) (4, 3.70409190654754638672e-01) (5, 9.54838871955871582031e-01) (6, 6.53706848621368408203e-01) (7, 1.31473407149314880371e-01) (8, 2.10291996598243713379e-01) (9, 9.39341068267822265625e-01) (10, -7.36685693264007568359e-01) (11, -3.09748560190200805664e-01) (12, -1.09377062320709228516e+00) (13, 1.62401482462882995605e-01) (14, 3.92380468547344207764e-02) (15, 1.95822477340698242188e+00) (16, -1.27217042446136474609e+00) (17, 7.81506240367889404297e-01) (18, -2.32125592231750488281e+00) (19, -6.84056222438812255859e-01) (20, 1.09616613388061523438e+00) (21, 1.96581792831420898438e+00) (22, -7.06421077251434326172e-01) (23, -7.00426220893859863281e-01) (24, -1.64511346817016601562e+00) (25, -8.69654774665832519531e-01) (26, 3.39117097854614257812e+00) (27, -4.17501121759414672852e-01) (28, 2.97847485542297363281e+00) (29, 3.44822287559509277344e+00) (30, -7.07936465740203857422e-01) (31, 2.10198807716369628906e+00) (32, -2.73349881172180175781e+00) (0, 1.04355871677398681641e+00) (1, -1.11098933219909667969e+00) (2, 9.36772525310516357422e-01) (3, 1.64505138993263244629e-01) (4, 9.68731939792633056641e-02) (5, -1.09274935722351074219e+00) (6, -1.46814987063407897949e-01) (7, 1.10518288612365722656e+00) (8, -7.39083528518676757812e-01) (9, -3.61882120370864868164e-01) (10, 5.74329078197479248047e-01) (11, 1.55487731099128723145e-01) (12, -2.18662559986114501953e-01) (13, 1.42275199294090270996e-01) (14, 5.63429109752178192139e-02) (15, 1.92627644538879394531e+00) (16, 2.29574203491210937500e-01) (17, -1.60149447619915008545e-02) (18, 2.06093811988830566406e+00) (19, -7.36077666282653808594e-01) (20, 1.02446901798248291016e+00) (21, 2.38804078102111816406e+00) (22, 7.95669138431549072266e-01) (23, -3.85219395160675048828e-01) (24, -4.02878373861312866211e-02) (25, -7.74220764636993408203e-01) (26, 1.84350776672363281250e+00) (27, -6.27948164939880371094e-01) (28, 1.34571301937103271484e+00) (29, 2.36538067460060119629e-01) (30, -2.71979309618473052979e-02) (31, -1.95416480302810668945e-01) (32, -7.69679307937622070312e-01) (33, 1.62206804752349853516e+00) (0, 6.74822032451629638672e-01) (1, -1.83248668909072875977e-01) (2, 7.31858849525451660156e-01) (3, 1.80820658802986145020e-01) (4, 9.71617162227630615234e-01) (5, -7.40468084812164306641e-01) (6, -3.11581999063491821289e-01) (7, 4.99655902385711669922e-01) (8, 1.08381152153015136719e+00) (9, 2.80615657567977905273e-01) (10, -3.52653771638870239258e-01) (11, -3.28625559806823730469e-01) (12, -3.53610187768936157227e-01) (13, 1.37033700942993164062e-01) (14, -2.15904331207275390625e+00) (15, 4.36046838760375976562e-01) (16, 6.94384872913360595703e-02) (17, -1.09989833831787109375e+00) (18, 5.51868140697479248047e-01) (19, 1.49792349338531494141e+00) (20, 2.86298489570617675781e+00) (21, 4.84926313161849975586e-01) (22, 1.26056671142578125000e+00) (23, 1.67473047971725463867e-01) (24, 5.47724545001983642578e-01) (25, -1.14199042320251464844e+00) (26, 3.42153096199035644531e+00) (27, 3.14029566943645477295e-02) (28, 1.52974653244018554688e+00) (29, 1.22393548488616943359e+00) (30, -2.48313229531049728394e-03) (31, 2.27488946914672851562e+00) (32, -2.23466658592224121094e+00) (33, 2.56122171878814697266e-01) (34, -1.81960809230804443359e+00) (0, -5.69971621036529541016e-01) (1, 4.24732059240341186523e-01) (2, -8.94965589046478271484e-01) (3, 2.89816898293793201447e-03) (4, -2.75881677865982055664e-01) (5, 6.83188319206237792969e-01) (6, -2.40992084145545959473e-01) (7, 8.40202212333679199219e-01) (8, 1.07216320931911468506e-01) (9, 2.02063605189323425293e-01) (10, 9.55302178859710693359e-01) (11, -4.77434128522872924805e-01) (12, -2.59384870529174804688e-01) (13, -1.20546162128448486328e-01) (14, -1.89076566696166992188e+00) (15, -2.18897119164466857910e-01) (16, 3.45844507217407226562e-01) (17, 1.02727580070495605469e+00) (18, 1.15937161445617675781e+00) (19, 2.07096433639526367188e+00) (20, 2.20594644546508789062e+00) (21, 1.11303389072418212891e+00) (22, 1.48156809806823730469e+00) (23, -3.64379584789276123047e-03) (24, -1.48335671424865722656e+00) (25, 1.93675756454467773438e-01) (26, 2.38114476203918457031e+00) (27, -8.84267747402191162109e-01) (28, 2.94741719961166381836e-01) (29, 6.10581099987030029297e-01) (30, -5.80576121807098388672e-01) (31, 9.82564210891723632812e-01) (32, 2.72808164358139038086e-01) (33, 6.88363611698150634766e-01) (34, 2.94761210680007934570e-01) (35, 1.49421632289886474609e+00) (0, 1.18329727649688720703e+00) (1, -5.97282588481903076172e-01) (2, 5.98874926567077636719e-01) (3, 1.30214199423789978027e-01) (4, -7.74348437786102294922e-01) (5, 8.46124410629272460938e-01) (6, 1.73823416233062744141e-01) (7, -2.03672975301742553711e-01) (8, -7.99691617488861083984e-01) (9, -5.98592460155487060547e-01) (10, 1.10261738300323486328e+00) (11, -2.98500508069992065430e-01) (12, 8.93122076988220214844e-01) (13, -3.84365804493427276611e-02) (14, 1.61229893565177917480e-01) (15, 1.35398042201995849609e+00) (16, 2.58828818798065185547e-01) (17, -4.62640792131423950195e-01) (18, 2.47422233223915100098e-01) (19, -1.43976509571075439453e+00) (20, 2.42991566658020019531e+00) (21, 2.04911184310913085938e+00) (22, 2.95612961053848266602e-01) (23, -6.07535064220428466797e-01) (24, 1.21981453895568847656e+00) (25, -5.14998078346252441406e-01) (26, 3.48874187469482421875e+00) (27, -1.56180632114410400391e+00) (28, 3.08224201202392578125e-01) (29, 2.77461004257202148438e+00) (30, -1.61842393875122070312e+00) (31, 1.60171306133270263672e+00) (32, -1.49818432331085205078e+00) (33, 2.90214514732360839844e+00) (34, -4.91824716329574584961e-01) (35, -1.16549050807952880859e+00) (36, 8.70304405689239501953e-01) (0, 1.24871909618377685547e+00) (1, 2.31589809060096740723e-01) (2, -2.39252731204032897949e-01) (3, 7.04541683197021484375e-01) (4, -1.33811965584754943848e-01) (5, 2.30328202247619628906e-01) (6, 5.34919872879981994629e-02) (7, -5.88131785392761230469e-01) (8, 3.05259287357330322266e-01) (9, -9.64263677597045898438e-01) (10, 6.07593417167663574219e-01) (11, -3.29792052507400512695e-02) (12, 5.07989883422851562500e-01) (13, -5.63631534576416015625e-01) (14, -9.31286215782165527344e-01) (15, 3.47468912601470947266e-01) (16, 7.37439513206481933594e-01) (17, 8.67278575897216796875e-01) (18, -2.21885949373245239258e-01) (19, 3.00219617784023284912e-02) (20, 2.21346545219421386719e+00) (21, 1.85895764827728271484e+00) (22, -2.61975824832916259766e-01) (23, -1.12645077705383300781e+00) (24, 6.42706394195556640625e-01) (25, -2.62748169898986816406e+00) (26, 1.53700244426727294922e+00) (27, -3.03288531303405761719e+00) (28, 4.36385482549667358398e-01) (29, 4.26265478134155273438e+00) (30, -4.30196952819824218750e+00) (31, 6.55436456203460693359e-01) (32, -2.37658455967903137207e-01) (33, 1.55728447437286376953e+00) (34, 2.84892201423645019531e-01) (35, 8.98902058601379394531e-01) (36, -9.88625228404998779297e-01) (37, -4.99572944641113281250e+00) (0, -1.17812477052211761475e-01) (1, -6.48188948631286621094e-01) (2, -4.01968121528625488281e-01) (3, 1.26151120662689208984e+00) (4, -6.44014179706573486328e-01) (5, -6.51182770729064941406e-01) (6, -1.37976694107055664062e+00) (7, 1.15901911258697509766e+00) (8, -6.01999834179878234863e-02) (9, 7.89629459381103515625e-01) (10, 8.10812354087829589844e-01) (11, -2.97241270542144775391e-01) (12, -3.45181137323379516602e-01) (13, 1.12573802471160888672e+00) (14, -1.24351596832275390625e+00) (15, 1.61666572093963623047e+00) (16, -9.72196877002716064453e-01) (17, 8.08714687824249267578e-01) (18, 3.35788637399673461914e-01) (19, -1.73186612129211425781e+00) (20, -6.32704675197601318359e-01) (21, 2.51228785514831542969e+00) (22, 7.37525224685668945312e-01) (23, 3.15644860267639160156e-01) (24, -4.01394665241241455078e-01) (25, -4.33112531900405883789e-01) (26, 3.70205664634704589844e+00) (27, -1.30293059349060058594e+00) (28, 2.69865107536315917969e+00) (29, 1.79521381855010986328e+00) (30, 1.37503254413604736328e+00) (31, 2.05388203263282775879e-01) (32, -4.24161404371261596680e-01) (33, 1.31557238101959228516e+00) (34, -2.87180638313293457031e+00) (35, -1.74157774448394775391e+00) (36, -7.55411982536315917969e-01) (37, -1.03122150897979736328e+00) (38, -4.42129731178283691406e-01) (0, 7.85683751106262207031e-01) (1, -2.77386307716369628906e-01) (2, -8.70528519153594970703e-01) (3, -1.26102173328399658203e+00) (4, 1.32657968997955322266e+00) (5, 3.29793006181716918945e-01) (6, -2.56866395473480224609e-01) (7, -6.79665267467498779297e-01) (8, 7.29633748531341552734e-01) (9, -4.20186281204223632812e-01) (10, 4.54071462154388427734e-01) (11, 5.07697403430938720703e-01) (12, 1.49570643901824951172e-01) (13, 8.19911658763885498047e-01) (14, -4.31740581989288330078e-01) (15, 1.18244206905364990234e+00) (16, -1.50655746459960937500e+00) (17, -1.32724845409393310547e+00) (18, 9.30628359317779541016e-01) (19, 1.36875554919242858887e-01) (20, 3.27485966682434082031e+00) (21, 2.11078929901123046875e+00) (22, -8.22268426418304443359e-01) (23, -3.26838821172714233398e-01) (24, -8.20527791976928710938e-01) (25, -6.24661684036254882812e-01) (26, 1.44958496093750000000e-01) (27, -1.79160451889038085938e+00) (28, 4.62881231307983398438e+00) (29, 8.99308204650878906250e-01) (30, -2.42189192771911621094e+00) (31, 2.20424938201904296875e+00) (32, 1.22763335704803466797e+00) (33, 6.84121012687683105469e-01) (34, -2.19230785965919494629e-01) (35, -2.04036283493041992188e+00) (36, 4.15457636117935180664e-01) (37, -3.42344903945922851562e+00) (38, -3.77288311719894409180e-01) (39, 1.64872980117797851562e+00) (0, -3.51294904947280883789e-01) (1, 2.74554956704378128052e-02) (2, -1.33347302675247192383e-01) (3, -4.78896349668502807617e-01) (4, 1.27028548717498779297e+00) (5, 4.73235875368118286133e-01) (6, -8.40675175189971923828e-01) (7, 4.94891583919525146484e-01) (8, 1.49507299065589904785e-01) (9, -1.47039383649826049805e-01) (10, -1.66750177741050720215e-02) (11, 5.90981662273406982422e-01) (12, 6.03433430194854736328e-01) (13, -6.01877808570861816406e-01) (14, -1.96405780315399169922e+00) (15, 1.95350718498229980469e+00) (16, 1.22428202629089355469e+00) (17, -2.55720019340515136719e-01) (18, -1.39844453334808349609e+00) (19, 2.61887669563293457031e+00) (20, 4.12031364440917968750e+00) (21, 3.96030366420745849609e-01) (22, 7.11119472980499267578e-01) (23, -1.13178634643554687500e+00) (24, -5.28595876693725585938e+00) (25, -2.82225751876831054688e+00) (26, 1.95372974872589111328e+00) (27, 1.18758749961853027344e+00) (28, 2.26745033264160156250e+00) (29, 1.34977650642395019531e+00) (30, -5.95946133136749267578e-01) (31, 1.62186169624328613281e+00) (32, 8.70076298713684082031e-01) (33, 2.10157775878906250000e+00) (34, 5.55003702640533447266e-01) (35, -6.63322508335113525391e-01) (36, -1.34552085399627685547e+00) (37, -3.71693491935729980469e+00) (38, 6.69139504432678222656e-01) (39, 1.88734078407287597656e+00) (40, -2.58635330200195312500e+00) (0, 2.14617438614368438721e-02) (1, 4.01998102664947509766e-01) (2, -1.96501210331916809082e-01) (3, -6.22925639152526855469e-01) (4, -8.98483812808990478516e-01) (5, -1.10331159085035324097e-02) (6, -1.53614699840545654297e-01) (7, 1.40605151653289794922e+00) (8, 7.83133149147033691406e-01) (9, -9.19407606124877929688e-01) (10, 8.08986008167266845703e-01) (11, 4.34862732887268066406e-01) (12, -2.65140861272811889648e-01) (13, 6.42761468887329101562e-01) (14, 7.24332273006439208984e-01) (15, -5.43613314628601074219e-01) (16, -1.21523678302764892578e+00) (17, -1.51232302188873291016e+00) (18, -1.80440619587898254395e-02) (19, 6.67631685733795166016e-01) (20, 3.21027851104736328125e+00) (21, 2.50646829605102539062e+00) (22, 5.84207594394683837891e-01) (23, -1.46683573722839355469e+00) (24, -4.48584020137786865234e-01) (25, -1.89371120929718017578e+00) (26, 2.09132242202758789062e+00) (27, -4.85836684703826904297e-01) (28, 7.00471639633178710938e-01) (29, -1.41963326930999755859e+00) (30, -1.50299751758575439453e+00) (31, 1.78421068191528320312e+00) (32, -8.13653647899627685547e-01) (33, 2.92243957519531250000e+00) (34, 1.33855140209197998047e+00) (35, -1.55508804321289062500e+00) (36, 1.46296334266662597656e+00) (37, -2.67923414707183837891e-01) (38, 1.91273498535156250000e+00) (39, 4.77719396352767944336e-01) (40, 1.42234921455383300781e+00) (41, -7.79877245426177978516e-01) (0, 9.15202856063842773438e-01) (1, -5.08758127689361572266e-01) (2, -2.71768689155578613281e-01) (3, -1.22301256656646728516e+00) (4, 5.33810853958129882812e-01) (5, 3.85612040758132934570e-01) (6, 3.40822279453277587891e-01) (7, -5.01418650150299072266e-01) (8, 1.82645097374916076660e-01) (9, -3.05992364883422851562e-01) (10, 5.38677513599395751953e-01) (11, -3.53451699018478393555e-01) (12, 1.18897521495819091797e+00) (13, -2.50389248132705688477e-01) (14, 4.29781585931777954102e-01) (15, 8.43602418899536132812e-01) (16, -3.40641409158706665039e-01) (17, 1.19134753942489624023e-01) (18, 1.79640007019042968750e+00) (19, 6.30291163921356201172e-01) (20, 3.58457064628601074219e+00) (21, -3.29834759235382080078e-01) (22, 1.33438241481781005859e+00) (23, 3.72779183089733123779e-02) (24, 5.93545019626617431641e-01) (25, -3.29384088516235351562e-01) (26, 1.38807034492492675781e+00) (27, -1.38536453247070312500e+00) (28, 2.66387677192687988281e+00) (29, 5.43607950210571289062e-01) (30, 1.45810067653656005859e-01) (31, 9.34225320816040039062e-01) (32, 2.22767218947410583496e-02) (33, 1.09251630306243896484e+00) (34, 1.77744233608245849609e+00) (35, -2.51842236518859863281e+00) (36, -1.68217003345489501953e-01) (37, -1.17608702182769775391e+00) (38, 5.67270159721374511719e-01) (39, 9.78407382965087890625e-01) (40, -2.77195096015930175781e+00) (41, 1.42253267765045166016e+00) (42, 1.27211034297943115234e+00) (0, 1.07758605480194091797e+00) (1, -1.06780207157135009766e+00) (2, -8.17822635173797607422e-01) (3, 5.18408715724945068359e-01) (4, 3.15153777599334716797e-01) (5, 9.82141792774200439453e-02) (6, 9.00882422924041748047e-01) (7, 3.07191405445337295532e-02) (8, 2.23396062850952148438e-01) (9, 7.11704790592193603516e-02) (10, -2.53891766071319580078e-01) (11, 1.23673737049102783203e+00) (12, -8.77387583255767822266e-01) (13, -4.84587252140045166016e-01) (14, -4.96373660862445831299e-02) (15, 4.75470758974552154541e-02) (16, -1.13172221183776855469e+00) (17, -1.95307314395904541016e+00) (18, -4.31792259216308593750e+00) (19, 5.18042325973510742188e-01) (20, 3.28707003593444824219e+00) (21, 1.51986324787139892578e+00) (22, 6.46667897701263427734e-01) (23, 6.08606576919555664062e-01) (24, 5.01756332814693450928e-02) (25, -3.48661684989929199219e+00) (26, 3.42343807220458984375e+00) (27, -8.26199911534786224365e-03) (28, 3.04625821113586425781e+00) (29, 1.46717321872711181641e+00) (30, 1.78941860795021057129e-01) (31, -1.40806838870048522949e-01) (32, 8.17005753517150878906e-01) (33, -9.59060192108154296875e-01) (34, 1.00382721424102783203e+00) (35, 1.02708792686462402344e+00) (36, 1.46069347858428955078e-01) (37, -1.63334798812866210938e+00) (38, -1.14038264751434326172e+00) (39, 4.67465490102767944336e-01) (40, -2.38213157653808593750e+00) (41, 1.76691687107086181641e+00) (42, -1.07392144203186035156e+00) (43, 8.31514358520507812500e-01) (0, 2.20304057002067565918e-01) (1, -4.69581991434097290039e-01) (2, -4.90856133401393890381e-02) (3, -9.34935450553894042969e-01) (4, 7.60939061641693115234e-01) (5, 4.13627833127975463867e-01) (6, -3.58022332191467285156e-01) (7, -8.67229923605918884277e-02) (8, 2.80947595834732055664e-01) (9, -5.08220009505748748779e-02) (10, 7.35600769519805908203e-01) (11, 8.02544414997100830078e-01) (12, 2.41030916571617126465e-01) (13, -2.14764267206192016602e-01) (14, -1.28378474712371826172e+00) (15, 1.20989978313446044922e+00) (16, -2.22588872909545898438e+00) (17, -2.81031668186187744141e-01) (18, 6.58173859119415283203e-01) (19, 7.99064576625823974609e-01) (20, 1.20172762870788574219e+00) (21, 1.75386250019073486328e+00) (22, -1.23957288265228271484e+00) (23, -1.27102375030517578125e+00) (24, -8.19824039936065673828e-01) (25, 8.18603038787841796875e-02) (26, 1.05699372291564941406e+00) (27, -1.75120204687118530273e-01) (28, 2.99276685714721679688e+00) (29, 2.96020054817199707031e+00) (30, -1.17582607269287109375e+00) (31, 2.02649068832397460938e+00) (32, -6.83681011199951171875e-01) (33, 7.82192707061767578125e-01) (34, 9.55688357353210449219e-01) (35, -1.64243912696838378906e+00) (36, 1.50791263580322265625e+00) (37, -2.25321745872497558594e+00) (38, -2.20335674285888671875e+00) (39, 1.32692325115203857422e+00) (40, -1.30042779445648193359e+00) (41, 1.40359747409820556641e+00) (42, 1.09067308902740478516e+00) (43, -1.29831135272979736328e+00) (44, -1.26446604728698730469e+00) (0, 2.55167335271835327148e-01) (1, 1.97578564286231994629e-01) (2, -2.52756088972091674805e-01) (3, -4.89774882793426513672e-01) (4, 5.83081483840942382812e-01) (5, 2.06664934754371643066e-01) (6, 1.41830873489379882812e+00) (7, 6.41953408718109130859e-01) (8, -5.61272621154785156250e-01) (9, -1.13014853000640869141e+00) (10, -3.53468537330627441406e-01) (11, -2.62020319700241088867e-01) (12, 4.86445844173431396484e-01) (13, 1.27357888221740722656e+00) (14, 2.65252053737640380859e-01) (15, 3.85202360153198242188e+00) (16, 2.55329298973083496094e+00) (17, -1.08158135414123535156e+00) (18, -2.31734609603881835938e+00) (19, -1.51816666126251220703e+00) (20, 3.22643470764160156250e+00) (21, 6.00459456443786621094e-01) (22, 6.24082326889038085938e-01) (23, -1.61678683757781982422e+00) (24, 2.46747881174087524414e-01) (25, -5.90605497360229492188e-01) (26, 9.88352358341217041016e-01) (27, -2.17806005477905273438e+00) (28, 2.62143158912658691406e+00) (29, 8.16093683242797851562e-01) (30, -3.13574481010437011719e+00) (31, 7.92474508285522460938e-01) (32, -1.31301772594451904297e+00) (33, 3.19269871711730957031e+00) (34, 1.60121604800224304199e-01) (35, -9.34311032295227050781e-01) (36, 1.47793841361999511719e+00) (37, -2.05612206459045410156e+00) (38, -4.49218869209289550781e-01) (39, 7.03504145145416259766e-01) (40, -7.35086262226104736328e-01) (41, -3.87242376804351806641e-01) (42, -2.86597061157226562500e+00) (43, -5.14671742916107177734e-01) (44, 1.25028896331787109375e+00) (45, 1.74736273288726806641e+00) (0, 6.04416787624359130859e-01) (1, -6.57025754451751708984e-01) (2, 2.64570385217666625977e-01) (3, 2.13244616985321044922e-01) (4, -1.10934272408485412598e-01) (5, 9.24539327621459960938e-01) (6, 1.14818312227725982666e-01) (7, 1.03435099124908447266e-01) (8, -6.26598775386810302734e-01) (9, 2.64024704694747924805e-01) (10, 4.84997749328613281250e-01) (11, 8.40589880943298339844e-01) (12, 2.22023487091064453125e-01) (13, -7.63778924942016601562e-01) (14, -3.04963493347167968750e+00) (15, -9.56722721457481384277e-02) (16, 7.15833187103271484375e-01) (17, 1.57646310329437255859e+00) (18, -1.35637128353118896484e+00) (19, 1.18581891059875488281e+00) (20, 1.78032195568084716797e+00) (21, 2.90677857398986816406e+00) (22, 7.04368293285369873047e-01) (23, 3.11379700899124145508e-01) (24, 6.56966924667358398438e-01) (25, 4.31989803910255432129e-02) (26, -2.71839946508407592773e-01) (27, 1.61353886127471923828e+00) (28, 1.39723229408264160156e+00) (29, -6.53948247432708740234e-01) (30, 7.74890244007110595703e-01) (31, 1.60484671592712402344e+00) (32, 1.57218664884567260742e-01) (33, 1.03467740118503570557e-01) (34, 1.68536841869354248047e-01) (35, -4.76670730859041213989e-03) (36, 2.51145982742309570312e+00) (37, -5.85907125473022460938e+00) (38, -4.26060378551483154297e-01) (39, 8.16006302833557128906e-01) (40, -1.79760885238647460938e+00) (41, 2.31953072547912597656e+00) (42, -1.66665673255920410156e+00) (43, -1.40861225128173828125e+00) (44, -9.29526865482330322266e-01) (45, -1.44001293182373046875e+00) (46, 7.66861677169799804688e-01) (0, 1.73502579331398010254e-01) (1, 4.69489954411983489990e-02) (2, 1.31106585264205932617e-01) (3, 1.27503657341003417969e+00) (4, 9.79929089546203613281e-01) (5, -7.88992762565612792969e-01) (6, -7.56325423717498779297e-01) (7, 9.94316935539245605469e-01) (8, 1.22748279571533203125e+00) (9, -2.40176245570182800293e-01) (10, 1.01910352706909179688e+00) (11, -1.61484017968177795410e-01) (12, -1.04479238390922546387e-01) (13, -2.73892134428024291992e-01) (14, -1.38173699378967285156e+00) (15, -2.28502607345581054688e+00) (16, -4.08317416906356811523e-01) (17, -5.13688564300537109375e+00) (18, 9.56650555133819580078e-01) (19, 5.24744212627410888672e-01) (20, 2.27045917510986328125e+00) (21, 1.43995916843414306641e+00) (22, -1.83204579353332519531e+00) (23, -1.17608654499053955078e+00) (24, 1.19866037368774414062e+00) (25, -2.30529546737670898438e+00) (26, 1.97423315048217773438e+00) (27, -1.56636643409729003906e+00) (28, -7.84814417362213134766e-01) (29, 1.20233440399169921875e+00) (30, 9.42979514598846435547e-01) (31, 2.83482503890991210938e+00) (32, -1.22193098068237304688e-02) (33, 2.43363690376281738281e+00) (34, -3.65622639656066894531e+00) (35, -1.91179537773132324219e+00) (36, -6.72927379608154296875e-01) (37, -1.06156134605407714844e+00) (38, -4.09774589538574218750e+00) (39, 8.66669118404388427734e-01) (40, -4.16040807962417602539e-01) (41, 3.00088024139404296875e+00) (42, -2.38587975502014160156e+00) (43, 9.20120179653167724609e-01) (44, -7.29208648204803466797e-01) (45, 1.49383866786956787109e+00) (46, -1.61788392066955566406e+00) (47, -1.11404597759246826172e+00) (0, 1.89786612987518310547e+00) (1, -9.94013726711273193359e-01) (2, 4.22588735818862915039e-01) (3, 1.75670549273490905762e-01) (4, -2.66323611140251159668e-02) (5, -2.09896922111511230469e-01) (6, -9.08740162849426269531e-01) (7, 4.46115374565124511719e-01) (8, 5.50307214260101318359e-01) (9, 2.28843510150909423828e-01) (10, 8.94592106342315673828e-01) (11, -1.35972082614898681641e-01) (12, 2.27927565574645996094e-01) (13, -4.80210989713668823242e-01) (14, -3.50183272361755371094e+00) (15, -1.14707934856414794922e+00) (16, -6.28250598907470703125e-01) (17, -4.59463238716125488281e-01) (18, 1.54988443851470947266e+00) (19, 5.04288077354431152344e-01) (20, 1.82137358188629150391e+00) (21, 1.63626527786254882812e+00) (22, 3.46628737449645996094e+00) (23, 5.04719793796539306641e-01) (24, 1.15518820285797119141e+00) (25, -1.48314189910888671875e+00) (26, 1.54471683502197265625e+00) (27, -9.18018341064453125000e-01) (28, 1.23417782783508300781e+00) (29, 1.84601020812988281250e+00) (30, 1.25147163867950439453e+00) (31, -9.21476602554321289062e-01) (32, 1.57298517227172851562e+00) (33, 1.56852972507476806641e+00) (34, -8.90756487846374511719e-01) (35, -1.04895746707916259766e+00) (36, 2.61987447738647460938e-01) (37, -1.14364802837371826172e+00) (38, -1.11284935474395751953e+00) (39, 2.51749110221862792969e+00) (40, -8.20873454213142395020e-02) (41, 1.94055736064910888672e+00) (42, -3.74781060218811035156e+00) (43, -1.84202358126640319824e-01) (44, -1.14987421035766601562e+00) (45, 3.53586345911026000977e-01) (46, -1.84098288416862487793e-01) (47, -1.38895142078399658203e+00) (48, -2.66346246004104614258e-01) (0, 2.55552381277084350586e-01) (1, 6.51889622211456298828e-01) (2, -1.37072190642356872559e-01) (3, -6.81658625602722167969e-01) (4, 9.33888375759124755859e-01) (5, 3.62985521554946899414e-01) (6, 2.95562416315078735352e-01) (7, -5.32430708408355712891e-01) (8, 7.93441236019134521484e-01) (9, 7.66079872846603393555e-02) (10, 4.99052226543426513672e-01) (11, -3.88134345412254333496e-02) (12, 8.23099493980407714844e-01) (13, -9.75185811519622802734e-01) (14, -1.85754227638244628906e+00) (15, 3.04512083530426025391e-01) (16, -9.35868501663208007812e-01) (17, -6.06489777565002441406e-01) (18, -7.87892043590545654297e-01) (19, 7.64521420001983642578e-01) (20, 4.00711476802825927734e-01) (21, 2.49138259887695312500e+00) (22, -8.26547071337699890137e-02) (23, 1.69836476445198059082e-01) (24, 1.31020152568817138672e+00) (25, -8.99257540702819824219e-01) (26, 2.43696808815002441406e+00) (27, -3.00253421068191528320e-01) (28, 1.89907324314117431641e+00) (29, 2.97377324104309082031e+00) (30, -1.78435552120208740234e+00) (31, 1.12511348724365234375e+00) (32, -9.12759780883789062500e-01) (33, 1.50555801391601562500e+00) (34, 2.32405209541320800781e+00) (35, -8.49339604377746582031e-01) (36, 6.35576128959655761719e-01) (37, -3.35966873168945312500e+00) (38, 7.64748871326446533203e-01) (39, 1.12096405029296875000e+00) (40, 1.67132854461669921875e+00) (41, -3.25840592384338378906e-01) (42, 1.22693300247192382812e-01) (43, -2.85339426994323730469e+00) (44, -1.93338131904602050781e+00) (45, -3.04297494888305664062e+00) (46, -1.53214955329895019531e+00) (47, 3.08854103088378906250e-01) (48, -3.06619119644165039062e+00) (49, 1.70037806034088134766e-01) (0, 6.13781213760375976562e-01) (1, 9.77306425571441650391e-01) (2, 9.90584120154380798340e-02) (3, -2.49135285615921020508e-01) (4, -2.91003644466400146484e-01) (5, 4.13791507482528686523e-01) (6, -2.61848449707031250000e-01) (7, -7.76980102062225341797e-01) (8, 3.36080461740493774414e-01) (9, -2.19377234578132629395e-01) (10, 4.36545580625534057617e-01) (11, -4.88571643829345703125e-01) (12, -5.28685331344604492188e-01) (13, 8.24250876903533935547e-01) (14, 3.85545015335083007812e-01) (15, -6.06353282928466796875e-01) (16, -4.59756880998611450195e-01) (17, -1.72859001159667968750e+00) (18, -2.41066247224807739258e-01) (19, 1.04825091361999511719e+00) (20, -5.37541389465332031250e-01) (21, 1.37892782688140869141e+00) (22, -9.10049319267272949219e-01) (23, -3.90458792448043823242e-01) (24, 1.66595494747161865234e+00) (25, 1.48589134216308593750e+00) (26, 1.47059202194213867188e+00) (27, -1.40321791172027587891e+00) (28, 2.63027453422546386719e+00) (29, 2.22795769572257995605e-01) (30, -1.06594228744506835938e+00) (31, 1.53250539302825927734e+00) (32, -4.35568094253540039062e+00) (33, 1.25687777996063232422e+00) (34, 1.55464279651641845703e+00) (35, -2.26607084274291992188e+00) (36, 8.53121399879455566406e-01) (37, 1.05180991813540458679e-02) (38, -3.49842131137847900391e-01) (39, 5.23356378078460693359e-01) (40, -8.65449190139770507812e-01) (41, 2.26771664619445800781e+00) (42, -3.21312093734741210938e+00) (43, -3.31975013017654418945e-01) (44, 4.23177219927310943604e-02) (45, -4.79463398456573486328e-01) (46, 3.45477342605590820312e-01) (47, 6.40471756458282470703e-01) (48, 2.16275870800018310547e-01) (49, 1.18099701404571533203e+00) (50, 2.17340350151062011719e-01) (0, 1.53141748905181884766e+00) (1, -2.17296585440635681152e-01) (2, 7.94032514095306396484e-01) (3, -6.94755077362060546875e-01) (4, -1.52694210410118103027e-01) (5, -2.41207793354988098145e-01) (6, 2.60819718241691589355e-02) (7, 5.61953961849212646484e-01) (8, -2.21057787537574768066e-01) (9, -1.07057735323905944824e-01) (10, 6.04371011257171630859e-01) (11, -6.83140397071838378906e-01) (12, 7.04688191413879394531e-01) (13, -6.36137068271636962891e-01) (14, -1.89492046833038330078e+00) (15, 1.10509252548217773438e+00) (16, -1.04385644197463989258e-01) (17, 1.24719488620758056641e+00) (18, -3.92258241772651672363e-02) (19, 1.62788957357406616211e-01) (20, 4.21147203445434570312e+00) (21, 4.82696294784545898438e+00) (22, -8.05955648422241210938e-01) (23, 1.17678090929985046387e-01) (24, 8.70195865631103515625e-01) (25, 7.46733725070953369141e-01) (26, 1.67049801349639892578e+00) (27, -1.26870557665824890137e-01) (28, 6.11674129962921142578e-01) (29, -6.85882091522216796875e-01) (30, 1.12471187114715576172e+00) (31, 2.86249804496765136719e+00) (32, 3.68832349777221679688e-01) (33, -1.51563489437103271484e+00) (34, -5.67826986312866210938e-01) (35, 1.28052735328674316406e+00) (36, 1.72400736808776855469e+00) (37, -6.77118349075317382812e+00) (38, 1.18217670917510986328e+00) (39, 1.41895246505737304688e+00) (40, -3.06585717201232910156e+00) (41, 8.03487420082092285156e-01) (42, -2.70365566015243530273e-01) (43, -2.82163548469543457031e+00) (44, -6.34313702583312988281e-01) (45, 1.29944550991058349609e+00) (46, -1.54146626591682434082e-01) (47, -1.44062459468841552734e+00) (48, 3.74808400869369506836e-01) (49, 1.09645450115203857422e+00) (50, -4.36596661806106567383e-01) (51, 5.35886645317077636719e-01) (0, 9.51721131801605224609e-01) (1, 4.80048745870590209961e-01) (2, 1.57731458544731140137e-01) (3, -7.24645704030990600586e-02) (4, 1.73398200422525405884e-02) (5, 8.04869011044502258301e-02) (6, 1.07834053039550781250e+00) (7, 2.21014678478240966797e-01) (8, -7.02288150787353515625e-01) (9, 1.51892375946044921875e+00) (10, -5.32015800476074218750e-01) (11, -9.32515978813171386719e-01) (12, -3.12081068754196166992e-01) (13, 1.98771119117736816406e-01) (14, -2.87525248527526855469e+00) (15, 1.76500308513641357422e+00) (16, 7.30657160282135009766e-01) (17, -1.82560944557189941406e+00) (18, -2.76714295148849487305e-01) (19, -5.02469837665557861328e-01) (20, 1.35168623924255371094e+00) (21, -1.41592574119567871094e+00) (22, 5.75815916061401367188e-01) (23, -5.56106269359588623047e-01) (24, 3.73945325613021850586e-01) (25, -1.23771452903747558594e+00) (26, 1.03111267089843750000e+00) (27, -2.22064685821533203125e+00) (28, 1.05454421043395996094e+00) (29, -4.58278119564056396484e-01) (30, 3.84753704071044921875e-01) (31, 2.53313922882080078125e+00) (32, -1.86492264270782470703e-01) (33, 2.40070462226867675781e+00) (34, -1.03848791122436523438e+00) (35, -2.14238315820693969727e-01) (36, 6.62479639053344726562e-01) (37, -1.62062728404998779297e+00) (38, 2.84123063087463378906e-01) (39, 2.02710533142089843750e+00) (40, 1.28900897502899169922e+00) (41, -9.54981029033660888672e-01) (42, -6.13314449787139892578e-01) (43, -9.66315150260925292969e-01) (44, -1.02048647403717041016e+00) (45, 2.93102860450744628906e+00) (46, -1.90502417087554931641e+00) (47, -7.45740346610546112061e-03) (48, -2.49336123466491699219e+00) (49, -1.80467918515205383301e-01) (50, -1.01303589344024658203e+00) (51, 1.32269656658172607422e+00) (52, -2.60151839256286621094e+00) (0, 9.44447576999664306641e-01) (1, 6.86508119106292724609e-02) (2, -5.42463660240173339844e-01) (3, 4.15552049875259399414e-01) (4, -4.01374608278274536133e-01) (5, -4.96401339769363403320e-01) (6, -1.83301210403442382812e-01) (7, -5.24259865283966064453e-01) (8, 6.15666568279266357422e-01) (9, 6.20159924030303955078e-01) (10, -3.84961962699890136719e-01) (11, 7.00476706027984619141e-01) (12, -3.02500635385513305664e-01) (13, 3.56930077075958251953e-01) (14, -5.50883375108242034912e-02) (15, 9.15371060371398925781e-01) (16, -1.82040953636169433594e+00) (17, -2.64624929428100585938e+00) (18, 1.31112003326416015625e+00) (19, 2.40361586213111877441e-01) (20, 3.68785619735717773438e-01) (21, 1.67508625984191894531e+00) (22, 1.61979603767395019531e+00) (23, 1.05246078968048095703e+00) (24, 1.50374102592468261719e+00) (25, -3.90419028699398040771e-02) (26, 1.74093592166900634766e+00) (27, -1.27453398704528808594e+00) (28, 3.01401662826538085938e+00) (29, -1.41078650951385498047e+00) (30, 2.96364426612854003906e-01) (31, 2.43994280695915222168e-01) (32, 2.91990995407104492188e-01) (33, 1.04276335239410400391e+00) (34, -5.84064543247222900391e-01) (35, -2.07096481323242187500e+00) (36, 1.69546854496002197266e+00) (37, -2.93540167808532714844e+00) (38, 6.95822760462760925293e-02) (39, 1.84053945541381835938e+00) (40, -1.34594643115997314453e+00) (41, 1.93349409103393554688e+00) (42, -1.63812923431396484375e+00) (43, 1.12350784242153167725e-01) (44, 2.53057144582271575928e-02) (45, 6.32444024085998535156e-01) (46, 3.02413672208786010742e-01) (47, -5.34025192260742187500e-01) (48, -5.63947498798370361328e-01) (49, 6.54267013072967529297e-01) (50, -1.29042565822601318359e+00) (51, -8.03609311580657958984e-01) (52, -2.11113944649696350098e-01) (53, -1.69899284839630126953e+00) (0, 2.30084583163261413574e-01) (1, 7.41813540458679199219e-01) (2, 5.85388064384460449219e-01) (3, 6.66553497314453125000e-01) (4, 6.00559413433074951172e-02) (5, -7.49807894229888916016e-01) (6, 1.03749144077301025391e+00) (7, 4.70437318086624145508e-01) (8, -8.62859845161437988281e-01) (9, -1.12933754920959472656e+00) (10, 2.86514222621917724609e-01) (11, 2.72770464420318603516e-01) (12, 2.37820312380790710449e-01) (13, -5.25818228721618652344e-01) (14, -3.68670773506164550781e+00) (15, -3.07990461587905883789e-01) (16, -4.48892712593078613281e-01) (17, -1.49776950478553771973e-01) (18, -6.89642369747161865234e-01) (19, 1.37708640098571777344e+00) (20, 1.70162761211395263672e+00) (21, 1.78818237781524658203e+00) (22, 9.34046804904937744141e-02) (23, 3.04571539163589477539e-01) (24, 4.47685599327087402344e-01) (25, -3.12759518623352050781e+00) (26, 7.56168961524963378906e-01) (27, 1.08238077163696289062e+00) (28, -1.14278459548950195312e+00) (29, -1.64102479815483093262e-01) (30, -8.23399782180786132812e-01) (31, 7.74732708930969238281e-01) (32, -2.35589623451232910156e+00) (33, 1.45536661148071289062e+00) (34, -3.83965998888015747070e-01) (35, -7.69210338592529296875e-01) (36, 1.76621317863464355469e+00) (37, 6.48415386676788330078e-01) (38, -7.33532488346099853516e-01) (39, 1.36276423931121826172e+00) (40, 8.27124536037445068359e-01) (41, 2.26737260818481445312e+00) (42, -2.25627049803733825684e-02) (43, 1.05062104761600494385e-01) (44, -2.41333208978176116943e-02) (45, -1.22303915023803710938e+00) (46, -1.62441265583038330078e+00) (47, -1.85639345645904541016e+00) (48, -1.45770281553268432617e-01) (49, 1.33767795562744140625e+00) (50, 4.82496559619903564453e-01) (51, 2.08442687988281250000e+00) (52, 1.45617616176605224609e+00) (53, -1.36584803462028503418e-01) (54, 9.38635289669036865234e-01) (0, 1.59771353006362915039e-01) (1, -7.86330282688140869141e-01) (2, 7.28316366672515869141e-01) (3, -1.18076598644256591797e+00) (4, 4.61751312017440795898e-01) (5, -1.04715597629547119141e+00) (6, 1.52281820774078369141e+00) (7, 2.17753365635871887207e-01) (8, -1.44859567284584045410e-01) (9, -1.07718780636787414551e-02) (10, 4.56712618470191955566e-02) (11, 5.59997558593750000000e-01) (12, -1.28126159310340881348e-01) (13, 1.23106634616851806641e+00) (14, 1.03013324737548828125e+00) (15, 1.85771179199218750000e+00) (16, -4.19570088386535644531e-01) (17, 5.26369810104370117188e-01) (18, -4.92025971412658691406e-01) (19, -1.81632582098245620728e-02) (20, 2.64844322204589843750e+00) (21, 1.46477544307708740234e+00) (22, 1.63439953327178955078e+00) (23, 1.85811072587966918945e-01) (24, 2.88778364658355712891e-01) (25, -1.94581910967826843262e-01) (26, 2.00252223014831542969e+00) (27, 8.39490711688995361328e-01) (28, 1.68774521350860595703e+00) (29, 1.31163346767425537109e+00) (30, -4.07026863098144531250e+00) (31, 6.90963983535766601562e-01) (32, -2.41595816612243652344e+00) (33, 1.44690847396850585938e+00) (34, -1.69751060009002685547e+00) (35, -3.38782143592834472656e+00) (36, 2.10690999031066894531e+00) (37, 8.86873781681060791016e-01) (38, -1.42872091382741928101e-02) (39, 1.74175822734832763672e+00) (40, -8.86745095252990722656e-01) (41, 1.07510757446289062500e+00) (42, -3.50606620311737060547e-01) (43, -7.38096475601196289062e-01) (44, -6.56212508678436279297e-01) (45, -1.91873872280120849609e+00) (46, -8.46189618110656738281e-01) (47, -1.45136690139770507812e+00) (48, -5.81132650375366210938e-01) (49, 8.88717710971832275391e-01) (50, 1.90781235694885253906e+00) (51, -3.55700343847274780273e-01) (52, 4.58492875099182128906e-01) (53, -2.87725657224655151367e-01) (54, -1.38853877782821655273e-01) (55, 1.07539129257202148438e+00) (0, 1.87102332711219787598e-01) (1, 5.23041307926177978516e-01) (2, -3.19738447666168212891e-01) (3, -8.34308445453643798828e-01) (4, 2.40404710173606872559e-01) (5, -6.63728475570678710938e-01) (6, 3.97866040468215942383e-01) (7, -7.06984922289848327637e-02) (8, -1.60523220896720886230e-01) (9, 2.72946208715438842773e-01) (10, 7.90488421916961669922e-01) (11, 8.11983585357666015625e-01) (12, -4.77567389607429504395e-02) (13, 9.81164515018463134766e-01) (14, -8.66230249404907226562e-01) (15, -1.88975498080253601074e-01) (16, -2.56325364112854003906e+00) (17, -1.23291623592376708984e+00) (18, 2.35097587108612060547e-01) (19, 7.80918955802917480469e-01) (20, 2.23145484924316406250e+00) (21, 1.70252776145935058594e+00) (22, 7.93350338935852050781e-01) (23, -1.78049933910369873047e+00) (24, 4.58339393138885498047e-01) (25, 3.00965905189514160156e-01) (26, 3.55329728126525878906e+00) (27, -3.00146842002868652344e+00) (28, 2.26749372482299804688e+00) (29, 6.86760425567626953125e-01) (30, -1.09244978427886962891e+00) (31, 1.52495577931404113770e-01) (32, -1.06504940986633300781e+00) (33, 1.48428249359130859375e+00) (34, -1.33613049983978271484e+00) (35, -1.94661176204681396484e+00) (36, 1.11436843872070312500e+00) (37, 7.24536895751953125000e-01) (38, -1.44430100917816162109e+00) (39, 2.99738887697458267212e-02) (40, -1.18756973743438720703e+00) (41, 2.73014688491821289062e+00) (42, -1.45438230037689208984e+00) (43, -1.29050457477569580078e+00) (44, -2.70213937759399414062e+00) (45, -5.21393716335296630859e-01) (46, 1.63861930370330810547e-01) (47, -7.87544608116149902344e-01) (48, -1.03778815269470214844e+00) (49, -1.08828864991664886475e-01) (50, 1.22855794429779052734e+00) (51, 1.18926441669464111328e+00) (52, 3.13184469938278198242e-01) (53, -9.78326797485351562500e-01) (54, 1.68186056613922119141e+00) (55, 2.06922316551208496094e+00) (56, -3.14894223213195800781e+00) (0, -3.38447451591491699219e-01) (1, 5.32813966274261474609e-01) (2, 2.00676023960113525391e-01) (3, 2.72594746202230453491e-02) (4, -6.62227153778076171875e-01) (5, -7.32562482357025146484e-01) (6, 6.85689091682434082031e-01) (7, -8.01296055316925048828e-01) (8, 8.18005263805389404297e-01) (9, 6.37033045291900634766e-01) (10, 1.98101639747619628906e-01) (11, 8.89623880386352539062e-01) (12, 1.04202902317047119141e+00) (13, -6.31685256958007812500e-01) (14, -1.70237553119659423828e+00) (15, 5.00357925891876220703e-01) (16, 2.84817740321159362793e-02) (17, -1.43308401107788085938e+00) (18, 9.81569364666938781738e-02) (19, 1.76958429813385009766e+00) (20, 1.11743772029876708984e+00) (21, 2.78100824356079101562e+00) (22, 1.93576323986053466797e+00) (23, 1.10200271010398864746e-01) (24, -1.70747113227844238281e+00) (25, -2.66782140731811523438e+00) (26, 2.27006077766418457031e+00) (27, -2.28352403640747070312e+00) (28, -9.61981341242790222168e-02) (29, 7.77280628681182861328e-01) (30, -1.48069369792938232422e+00) (31, 3.08564752340316772461e-01) (32, -1.07900571823120117188e+00) (33, 8.01837682723999023438e-01) (34, 1.99477660655975341797e+00) (35, -9.66342091560363769531e-01) (36, 2.70705556869506835938e+00) (37, -1.16521108150482177734e+00) (38, 1.55032145977020263672e+00) (39, 2.24405717849731445312e+00) (40, 1.82818174362182617188e+00) (41, 3.08043313026428222656e+00) (42, -3.25593876838684082031e+00) (43, 5.39088368415832519531e-01) (44, -1.04200363159179687500e+00) (45, 2.81903207302093505859e-01) (46, -1.14550910890102386475e-01) (47, 2.47672617435455322266e-01) (48, -3.67661905288696289062e+00) (49, -1.81047666072845458984e+00) (50, -2.58622002601623535156e+00) (51, 2.58321046829223632812e+00) (52, -3.74807454645633697510e-02) (53, -2.45473480224609375000e+00) (54, -2.04369761049747467041e-02) (55, 1.04416370391845703125e+00) (56, -1.59540069103240966797e+00) (57, -5.50971150398254394531e-01) (0, -1.47343242168426513672e+00) (1, 3.53211671113967895508e-01) (2, 4.45136547088623046875e-01) (3, 6.06040954589843750000e-01) (4, 5.79592287540435791016e-01) (5, -3.93499642610549926758e-01) (6, -1.47931799292564392090e-01) (7, -4.17996078729629516602e-01) (8, 1.33967554569244384766e+00) (9, 6.69584842398762702942e-03) (10, 1.62142410874366760254e-01) (11, 1.00224769115447998047e+00) (12, 4.57735687494277954102e-01) (13, -5.57646989822387695312e-01) (14, -1.95197120308876037598e-01) (15, -1.27376645803451538086e-01) (16, 9.75807130336761474609e-01) (17, 1.48629474639892578125e+00) (18, 1.15841913223266601562e+00) (19, 2.36293530464172363281e+00) (20, 2.09901666641235351562e+00) (21, 2.25051236152648925781e+00) (22, -3.82845938205718994141e-01) (23, 7.89066135883331298828e-01) (24, -2.86321669816970825195e-01) (25, -1.21280634403228759766e+00) (26, 2.97860789299011230469e+00) (27, -2.51004517078399658203e-01) (28, -1.27147841453552246094e+00) (29, 1.52808994054794311523e-01) (30, 5.01261688768863677979e-02) (31, 3.42390203475952148438e+00) (32, -3.53724300861358642578e-01) (33, 1.44591772556304931641e+00) (34, -1.74029159545898437500e+00) (35, -3.57555210590362548828e-01) (36, 5.98118543624877929688e-01) (37, -1.49327874183654785156e+00) (38, -2.31388235092163085938e+00) (39, 2.21091091632843017578e-01) (40, -1.63792550563812255859e+00) (41, 3.04541134834289550781e+00) (42, -7.13911533355712890625e-01) (43, 2.47264932841062545776e-02) (44, -1.22234225273132324219e+00) (45, 9.85013604164123535156e-01) (46, 1.02643895149230957031e+00) (47, -2.06357932090759277344e+00) (48, -3.01965165138244628906e+00) (49, -7.40099370479583740234e-01) (50, -1.00723826885223388672e+00) (51, 3.36247229576110839844e+00) (52, 8.90464127063751220703e-01) (53, -2.45513170957565307617e-01) (54, -2.97471344470977783203e-01) (55, 8.13345551490783691406e-01) (56, -1.21464741230010986328e+00) (57, -2.23924541473388671875e+00) (58, -3.13231468200683593750e-01) (0, 1.43482875823974609375e+00) (1, -5.55857598781585693359e-01) (2, 8.51558268070220947266e-01) (3, 8.62665355205535888672e-01) (4, -9.15400922298431396484e-01) (5, -2.37537860870361328125e-01) (6, 1.58671629428863525391e+00) (7, -3.60755383968353271484e-01) (8, 7.96161830425262451172e-01) (9, -8.30647110939025878906e-01) (10, 2.91680008172988891602e-01) (11, -2.77638942003250122070e-01) (12, -3.52234482765197753906e-01) (13, 7.64538720250129699707e-02) (14, -1.68439909815788269043e-01) (15, -1.31534719467163085938e+00) (16, 7.20253944396972656250e-01) (17, -7.70299658179283142090e-02) (18, -6.79571032524108886719e-01) (19, 1.75142371654510498047e+00) (20, 3.89904904365539550781e+00) (21, -1.44683563709259033203e+00) (22, 1.27659940719604492188e+00) (23, -1.42823231220245361328e+00) (24, 2.17552447319030761719e+00) (25, -6.56407415866851806641e-01) (26, 3.99990439414978027344e-01) (27, 2.23140314221382141113e-01) (28, 3.61538469791412353516e-01) (29, 1.63536638021469116211e-01) (30, 9.60087776184082031250e-01) (31, 7.36871659755706787109e-02) (32, -7.48538494110107421875e-01) (33, 1.19902634620666503906e+00) (34, 2.67334151268005371094e+00) (35, -1.31115412712097167969e+00) (36, 1.25077342987060546875e+00) (37, -2.75723886489868164062e+00) (38, -7.12516546249389648438e-01) (39, 2.23562002182006835938e+00) (40, 2.04669252038002014160e-01) (41, 3.52854394912719726562e+00) (42, -3.52250069379806518555e-01) (43, 1.43852770328521728516e+00) (44, -4.20462942123413085938e+00) (45, 2.48355722427368164062e+00) (46, -8.35799098014831542969e-01) (47, -2.15653896331787109375e+00) (48, 1.75922811031341552734e-01) (49, -6.19043469429016113281e-01) (50, 9.69475388526916503906e-01) (51, -7.17475235462188720703e-01) (52, 2.18987867236137390137e-01) (53, -1.84901797771453857422e+00) (54, 9.02979254722595214844e-01) (55, 1.42062771320343017578e+00) (56, -1.00837814807891845703e+00) (57, 3.04901272058486938477e-01) (58, 2.23716926574707031250e+00) (59, -2.87633180618286132812e+00) (0, 9.14831936359405517578e-01) (1, -8.80986601114273071289e-02) (2, 3.02328735589981079102e-01) (3, -3.01010161638259887695e-01) (4, -3.13087880611419677734e-01) (5, 2.34807103872299194336e-01) (6, -6.53391238301992416382e-03) (7, -2.48014897108078002930e-01) (8, 2.80612856149673461914e-02) (9, 1.23611724376678466797e+00) (10, 4.34062570333480834961e-01) (11, -4.92413580417633056641e-01) (12, -4.70925450325012207031e-01) (13, 4.69537079334259033203e-01) (14, -8.88525426387786865234e-01) (15, 1.30841112136840820312e+00) (16, -7.60200977325439453125e-01) (17, -1.07875454425811767578e+00) (18, 2.11170601844787597656e+00) (19, 1.00355935096740722656e+00) (20, 2.92581987380981445312e+00) (21, 7.44582295417785644531e-01) (22, -2.21416741609573364258e-01) (23, -6.56160295009613037109e-01) (24, 8.45519602298736572266e-01) (25, 1.64432454109191894531e+00) (26, 7.91451513767242431641e-01) (27, -4.51503872871398925781e-01) (28, 7.11457848548889160156e-01) (29, 3.02776718139648437500e+00) (30, 1.56105148792266845703e+00) (31, 2.86208939552307128906e+00) (32, 1.72210276126861572266e-01) (33, -9.09851770848035812378e-03) (34, 1.61271616816520690918e-01) (35, -1.66570067405700683594e+00) (36, -1.25117897987365722656e+00) (37, -2.83125758171081542969e+00) (38, 1.75046658515930175781e+00) (39, 6.71954095363616943359e-01) (40, -1.82373678684234619141e+00) (41, 1.49300229549407958984e+00) (42, -1.25061881542205810547e+00) (43, -4.26045942306518554688e+00) (44, -1.15372860431671142578e+00) (45, 2.45423793792724609375e+00) (46, 2.05098271369934082031e+00) (47, -1.69550347328186035156e+00) (48, 1.42628490924835205078e-01) (49, -2.17945531010627746582e-01) (50, -1.00692793726921081543e-01) (51, 7.34807252883911132812e-01) (52, -4.04901951551437377930e-02) (53, 3.88944953680038452148e-01) (54, -2.57897168397903442383e-01) (55, 2.61460399627685546875e+00) (56, -7.87957668304443359375e-01) (57, -6.35621905326843261719e-01) (58, 1.49434423446655273438e+00) (59, -2.41536998748779296875e+00) (60, 7.82037526369094848633e-02) (0, 1.49384820461273193359e+00) (1, 2.42906868457794189453e-01) (2, 5.57654798030853271484e-02) (3, -1.96906685829162597656e+00) (4, 1.00417172908782958984e+00) (5, -2.62766093015670776367e-01) (6, 6.47819876670837402344e-01) (7, -4.40533220767974853516e-01) (8, 3.54050606489181518555e-01) (9, 8.25670003890991210938e-01) (10, -1.65645688772201538086e-01) (11, -1.68186292052268981934e-01) (12, 7.96723067760467529297e-01) (13, -1.40191409736871719360e-02) (14, -2.19189786911010742188e+00) (15, 4.35170829296112060547e-02) (16, 6.13205194473266601562e-01) (17, 3.74016255140304565430e-01) (18, -4.28856700658798217773e-01) (19, 6.30130589008331298828e-01) (20, 3.38231515884399414062e+00) (21, -3.65329086780548095703e-01) (22, 6.69821500778198242188e-01) (23, -3.81611496210098266602e-01) (24, -2.36298769712448120117e-01) (25, 2.28571340441703796387e-01) (26, 4.43994492292404174805e-01) (27, -5.01287269592285156250e+00) (28, 2.77069687843322753906e+00) (29, 1.20532798767089843750e+00) (30, 1.60784259438514709473e-01) (31, 2.49293804168701171875e+00) (32, -4.98289987444877624512e-02) (33, 8.18326592445373535156e-01) (34, 1.16256952285766601562e+00) (35, -1.19817459583282470703e+00) (36, -5.05922257900238037109e-01) (37, -2.43002343177795410156e+00) (38, -3.10900628566741943359e-01) (39, 2.63895869255065917969e+00) (40, -1.74831092357635498047e-01) (41, 1.93444406986236572266e+00) (42, -4.61701422929763793945e-01) (43, -2.44351267814636230469e+00) (44, -9.99053657054901123047e-01) (45, 9.14845705032348632812e-01) (46, 8.37457999587059020996e-02) (47, 1.53544098138809204102e-02) (48, -8.37944626808166503906e-01) (49, -3.20342242717742919922e-01) (50, 8.48557472229003906250e-01) (51, 2.87539243698120117188e+00) (52, 1.06584034860134124756e-01) (53, -6.58203184604644775391e-01) (54, 1.35741972923278808594e+00) (55, -1.06345653533935546875e+00) (56, -4.60730075836181640625e-01) (57, 1.20842254161834716797e+00) (58, 6.31364941596984863281e-01) (59, -2.45087051391601562500e+00) (60, -1.66831886768341064453e+00) (61, -2.50341176986694335938e+00) (0, 9.54460978507995605469e-01) (1, -4.72700625658035278320e-01) (2, 1.33136463165283203125e+00) (3, -4.39894914627075195312e-01) (4, 8.50142955780029296875e-01) (5, -1.00380444526672363281e+00) (6, 1.39975762367248535156e+00) (7, -2.94500291347503662109e-01) (8, -6.45087897777557373047e-01) (9, -4.50221627950668334961e-01) (10, -4.64720791205763816833e-03) (11, 3.87777537107467651367e-01) (12, 1.10810804367065429688e+00) (13, -3.66132825613021850586e-01) (14, -7.77939617633819580078e-01) (15, 3.17275238037109375000e+00) (16, 1.78680732846260070801e-01) (17, -1.22718894481658935547e+00) (18, -9.71037596464157104492e-02) (19, 2.74391889572143554688e-01) (20, 4.64119100570678710938e+00) (21, 2.43240475654602050781e+00) (22, -1.64277374744415283203e-01) (23, 8.01030993461608886719e-02) (24, -8.11124593019485473633e-02) (25, 1.61633253097534179688e-01) (26, 9.39431965351104736328e-01) (27, 6.73834025859832763672e-01) (28, 5.04206001758575439453e-01) (29, 1.44907176494598388672e+00) (30, 4.25813078880310058594e-01) (31, 2.28376698493957519531e+00) (32, -1.62726044654846191406e-02) (33, 1.24697709083557128906e+00) (34, 4.16016615927219390869e-02) (35, -2.02785491943359375000e+00) (36, 2.51959228515625000000e+00) (37, -4.06849479675292968750e+00) (38, -7.73449361324310302734e-01) (39, 2.29065537452697753906e+00) (40, -2.32696557044982910156e+00) (41, 5.62440872192382812500e-01) (42, -1.54678130149841308594e+00) (43, -2.82414257526397705078e-04) (44, -1.30227297544479370117e-01) (45, 3.16728305816650390625e+00) (46, -1.98607742786407470703e+00) (47, -2.99382948875427246094e+00) (48, -1.53025949001312255859e+00) (49, -1.11817884445190429688e+00) (50, -5.73972225189208984375e-01) (51, 2.31609630584716796875e+00) (52, -5.36281406879425048828e-01) (53, 4.16359007358551025391e-01) (54, 1.86489546298980712891e+00) (55, 2.52089977264404296875e+00) (56, -8.41867446899414062500e-01) (57, -6.76344275474548339844e-01) (58, -1.48849642276763916016e+00) (59, -2.50091123580932617188e+00) (60, -1.71925580501556396484e+00) (61, -6.60163283348083496094e-01) (62, -1.38109016418457031250e+00) (0, -7.44782537221908569336e-02) (1, 1.09712076187133789062e+00) (2, -7.79769942164421081543e-02) (3, 3.70803654193878173828e-01) (4, -4.80615973472595214844e-01) (5, -1.22329860925674438477e-01) (6, 6.51671469211578369141e-01) (7, -2.90158748626708984375e-01) (8, 7.83071160316467285156e-01) (9, 1.17567181587219238281e+00) (10, -5.45172035694122314453e-01) (11, 4.87433150410652160645e-02) (12, -5.10518729686737060547e-01) (13, 8.33901882171630859375e-01) (14, -1.36771869659423828125e+00) (15, 1.01767313480377197266e+00) (16, 1.10817456245422363281e+00) (17, -9.78017151355743408203e-01) (18, -4.89542186260223388672e-01) (19, -4.11097943782806396484e-01) (20, -5.67882597446441650391e-01) (21, -3.50827604532241821289e-01) (22, 1.09068787097930908203e+00) (23, -1.18330395221710205078e+00) (24, -4.70396190881729125977e-01) (25, 1.54043698310852050781e+00) (26, 5.23056685924530029297e-01) (27, -1.51061952114105224609e+00) (28, 1.57878661155700683594e+00) (29, 1.38050699234008789062e+00) (30, -1.81387774646282196045e-02) (31, 6.75776302814483642578e-01) (32, -9.01149392127990722656e-01) (33, 1.41271615028381347656e+00) (34, -7.02184736728668212891e-01) (35, -1.62258350849151611328e+00) (36, -3.96205514669418334961e-01) (37, -2.84896159172058105469e+00) (38, -4.29443903267383575439e-02) (39, 1.45628273487091064453e+00) (40, -4.19096238911151885986e-02) (41, 2.08415865898132324219e-01) (42, -4.44867849349975585938e+00) (43, 1.36904287338256835938e+00) (44, -1.45708489418029785156e+00) (45, 1.25491118431091308594e+00) (46, -1.05257844924926757812e+00) (47, -5.60722649097442626953e-01) (48, -1.19316744804382324219e+00) (49, 2.97249853610992431641e-01) (50, -6.22963964939117431641e-01) (51, 3.22903573513031005859e-01) (52, 8.59813272953033447266e-01) (53, -2.54618215560913085938e+00) (54, 1.74876734614372253418e-01) (55, 2.68423485755920410156e+00) (56, -1.66030883789062500000e+00) (57, -3.79563659429550170898e-01) (58, 1.09927344322204589844e+00) (59, -2.39758396148681640625e+00) (60, -4.08828169107437133789e-01) (61, -2.95879483222961425781e+00) (62, 2.14416360855102539062e+00) (63, 4.75766330957412719727e-01) (0, -3.16624522209167480469e-01) (1, -4.15870100259780883789e-01) (2, -8.74041974544525146484e-01) (3, -4.72007870674133300781e-01) (4, -6.66901171207427978516e-02) (5, 7.02221035957336425781e-01) (6, 9.65378522872924804688e-01) (7, 4.57404926419258117676e-02) (8, -3.10038387775421142578e-01) (9, 5.94070374965667724609e-01) (10, -7.04842582345008850098e-02) (11, 8.36646497249603271484e-01) (12, -1.77086237818002700806e-02) (13, -1.46819308400154113770e-01) (14, -2.46515369415283203125e+00) (15, -4.85055655241012573242e-01) (16, -6.59131526947021484375e-01) (17, -1.95807683467864990234e+00) (18, 2.79877483844757080078e-01) (19, 1.14788246154785156250e+00) (20, 8.98719131946563720703e-01) (21, 3.71064752340316772461e-01) (22, 1.81220996379852294922e+00) (23, 6.98032319545745849609e-01) (24, -5.98147988319396972656e-01) (25, 3.11090707778930664062e-01) (26, 1.42416644096374511719e+00) (27, 2.31130257248878479004e-01) (28, 2.58982491493225097656e+00) (29, -7.46838271617889404297e-01) (30, -2.10983657836914062500e+00) (31, 1.53406763076782226562e+00) (32, 1.99751049280166625977e-01) (33, 4.79870855808258056641e-01) (34, 4.95100229978561401367e-01) (35, 6.83317601680755615234e-01) (36, -1.59612238407135009766e-01) (37, -1.41337800025939941406e+00) (38, 2.25367856025695800781e+00) (39, 4.12299126386642456055e-01) (40, -3.31534099578857421875e+00) (41, -1.57140851020812988281e+00) (42, 1.07343173027038574219e+00) (43, -3.64399939775466918945e-01) (44, 6.66400045156478881836e-02) (45, -2.99413418769836425781e+00) (46, -5.62727570533752441406e-01) (47, 2.35045198351144790649e-02) (48, -3.56776654720306396484e-01) (49, 7.58135616779327392578e-01) (50, 7.06956624984741210938e-01) (51, -5.58863393962383270264e-02) (52, 1.74889671802520751953e+00) (53, -1.55067646503448486328e+00) (54, 7.15923029929399490356e-03) (55, 2.97278076410293579102e-01) (56, -1.71868696808815002441e-01) (57, -3.21618586778640747070e-01) (58, 1.08468222618103027344e+00) (59, -2.16299340128898620605e-01) (60, -1.01255929470062255859e+00) (61, -6.69196963310241699219e-01) (62, -1.59541759639978408813e-02) (63, 9.04377400875091552734e-01) (64, 1.74243521690368652344e+00) (0, 2.64623314142227172852e-01) (1, -5.03177046775817871094e-01) (2, -8.59850943088531494141e-01) (3, 7.18373954296112060547e-01) (4, 9.48873758316040039062e-01) (5, 7.57236897945404052734e-01) (6, 5.15933215618133544922e-01) (7, 2.94305294752120971680e-01) (8, 1.44428908824920654297e-01) (9, -3.97129088640213012695e-01) (10, -1.15305030345916748047e+00) (11, 6.06244862079620361328e-01) (12, 7.97360420227050781250e-01) (13, -1.18162482976913452148e-02) (14, -8.32821249961853027344e-01) (15, 1.95945441722869873047e+00) (16, 1.85840010643005371094e-01) (17, -3.08601677417755126953e-01) (18, -2.99720835685729980469e+00) (19, 2.17173337936401367188e+00) (20, 2.48754477500915527344e+00) (21, -8.01800906658172607422e-01) (22, 6.45640373229980468750e-01) (23, -7.85336866974830627441e-02) (24, -2.71779716014862060547e-01) (25, -6.87984824180603027344e-01) (26, 1.42737579345703125000e+00) (27, -1.64534044265747070312e+00) (28, 2.64933300018310546875e+00) (29, 2.14209461212158203125e+00) (30, -5.12332737445831298828e-01) (31, 2.86728525161743164062e+00) (32, 1.34104382991790771484e+00) (33, 1.52269518375396728516e+00) (34, -1.38881170749664306641e+00) (35, 1.76089689135551452637e-01) (36, 2.41191625595092773438e+00) (37, -4.27059412002563476562e+00) (38, -6.65374517440795898438e-01) (39, 2.41478943824768066406e+00) (40, -9.76936101913452148438e-01) (41, 1.12431836128234863281e+00) (42, -7.17666372656822204590e-02) (43, 6.55868411064147949219e-01) (44, -3.76663160324096679688e+00) (45, 1.26086580753326416016e+00) (46, -4.23735022544860839844e-01) (47, -1.66239488124847412109e+00) (48, -1.65878212451934814453e+00) (49, -6.63352966308593750000e-01) (50, -7.09798276424407958984e-01) (51, 3.24767827987670898438e-01) (52, 1.91576445102691650391e+00) (53, 8.58353197574615478516e-01) (54, 1.31156408786773681641e+00) (55, 1.86144948005676269531e+00) (56, -5.12149989604949951172e-01) (57, 3.80042403936386108398e-01) (58, -5.05229353904724121094e-01) (59, -3.71955680847167968750e+00) (60, 1.27559697628021240234e+00) (61, -2.76734757423400878906e+00) (62, 3.27291816473007202148e-01) (63, 1.30254924297332763672e+00) (64, 1.06709754467010498047e+00) (65, 2.11740422248840332031e+00) (0, 1.06626188755035400391e+00) (1, 5.93403339385986328125e-01) (2, 1.15172874927520751953e+00) (3, -1.04371833801269531250e+00) (4, -2.59867221117019653320e-01) (5, 4.24606084823608398438e-01) (6, 3.18825185298919677734e-01) (7, -6.39489293098449707031e-01) (8, -1.93396657705307006836e-01) (9, 3.87628555297851562500e-01) (10, 4.17532660067081451416e-02) (11, -7.55253136157989501953e-02) (12, -2.40284368395805358887e-01) (13, 6.59990966320037841797e-01) (14, -1.70318341255187988281e+00) (15, -2.37298421561717987061e-02) (16, -4.25354987382888793945e-01) (17, -1.46469339728355407715e-01) (18, -3.43256306648254394531e+00) (19, -6.15720868110656738281e-01) (20, 2.20157384872436523438e+00) (21, 1.63159847259521484375e+00) (22, 2.89654314517974853516e-01) (23, 1.18213415145874023438e+00) (24, -1.85793709754943847656e+00) (25, -2.99656271934509277344e-01) (26, 2.29506111145019531250e+00) (27, -3.01419347524642944336e-01) (28, 1.25635728240013122559e-01) (29, 1.09120178222656250000e+00) (30, 2.03046258538961410522e-02) (31, 2.25692987442016601562e+00) (32, -8.13233256340026855469e-01) (33, 1.64250147342681884766e+00) (34, 1.37735521793365478516e+00) (35, -1.55260336399078369141e+00) (36, 1.08505856990814208984e+00) (37, -3.65075635910034179688e+00) (38, 3.80523204803466796875e-01) (39, 2.38707929849624633789e-01) (40, -1.28711533546447753906e+00) (41, 5.96644103527069091797e-01) (42, 6.73544406890869140625e-01) (43, -2.47560098767280578613e-01) (44, -3.06272953748703002930e-01) (45, 4.13376927375793457031e-01) (46, 1.29419639706611633301e-01) (47, 6.69900655746459960938e-01) (48, 1.50648832321166992188e+00) (49, -3.59117656946182250977e-01) (50, -4.28800970315933227539e-01) (51, 2.14257192611694335938e+00) (52, -6.58258497714996337891e-01) (53, -9.06400442123413085938e-01) (54, 1.69870519638061523438e+00) (55, -9.12306427955627441406e-01) (56, 1.46226263046264648438e+00) (57, 2.38193845748901367188e+00) (58, 1.44188344478607177734e+00) (59, -1.95378708839416503906e+00) (60, -1.76558089256286621094e+00) (61, -5.07186174392700195312e+00) (62, 7.18282461166381835938e-01) (63, -7.16069161891937255859e-01) (64, -9.52687084674835205078e-01) (65, 4.51498359441757202148e-01) (66, -1.25712001323699951172e+00) (0, 1.16457450389862060547e+00) (1, -2.95046150684356689453e-01) (2, -3.40122222900390625000e-01) (3, -3.82937282323837280273e-01) (4, -7.39729642868041992188e-01) (5, 3.64714860916137695312e-01) (6, 2.46150061488151550293e-01) (7, -3.78219708800315856934e-02) (8, 1.07215233147144317627e-01) (9, -1.62459596991539001465e-01) (10, 1.04637777805328369141e+00) (11, 1.23673737049102783203e+00) (12, 4.18437093496322631836e-01) (13, -6.60659909248352050781e-01) (14, -1.28037571907043457031e+00) (15, 3.15890967845916748047e-01) (16, -6.65409564971923828125e-02) (17, -7.87970703095197677612e-03) (18, -1.15426695346832275391e+00) (19, -8.39945733547210693359e-01) (20, 2.89090180397033691406e+00) (21, 3.16916108131408691406e+00) (22, 1.94709229469299316406e+00) (23, -1.77648890018463134766e+00) (24, 5.46172745525836944580e-02) (25, -1.91492664813995361328e+00) (26, 2.90248322486877441406e+00) (27, -7.46542453765869140625e-01) (28, 1.06136167049407958984e+00) (29, 1.24711680412292480469e+00) (30, -2.19386410713195800781e+00) (31, 1.71566021442413330078e+00) (32, 4.76312488317489624023e-01) (33, 1.35902786254882812500e+00) (34, -7.63277113437652587891e-01) (35, 1.02801358699798583984e+00) (36, -1.44995403289794921875e+00) (37, -1.16130840778350830078e+00) (38, -2.78018093109130859375e+00) (39, 1.77412807941436767578e+00) (40, 1.13346493244171142578e+00) (41, 7.09476351737976074219e-01) (42, -9.85298216342926025391e-01) (43, -3.07058602571487426758e-01) (44, -4.72835302352905273438e+00) (45, 2.80970454216003417969e+00) (46, 7.16921269893646240234e-01) (47, 7.62911200523376464844e-01) (48, -1.89056205749511718750e+00) (49, -1.94341337680816650391e+00) (50, -1.42963266372680664062e+00) (51, -2.86089158058166503906e+00) (52, 1.64815831184387207031e+00) (53, 4.13715124130249023438e-01) (54, 2.19045686721801757812e+00) (55, 1.48552691936492919922e+00) (56, 4.58903878927230834961e-01) (57, 1.54211127758026123047e+00) (58, 2.43692088127136230469e+00) (59, -1.05901873111724853516e+00) (60, 1.98279488086700439453e+00) (61, -5.38900279998779296875e+00) (62, -6.16029262542724609375e-01) (63, -1.75156816840171813965e-01) (64, 2.41011217236518859863e-01) (65, 1.30751097202301025391e+00) (66, -2.04642796516418457031e+00) (67, 8.60544443130493164062e-02) (0, -2.25451856851577758789e-01) (1, -1.50828108191490173340e-01) (2, 9.42800462245941162109e-01) (3, -1.62913942337036132812e+00) (4, -7.94848978519439697266e-01) (5, 2.35460013151168823242e-01) (6, 1.69388294219970703125e+00) (7, 8.32281470298767089844e-01) (8, 1.08675527572631835938e+00) (9, 1.21670983731746673584e-01) (10, 5.62073349952697753906e-01) (11, -4.57956969738006591797e-01) (12, -1.49140805006027221680e-01) (13, 4.47615891695022583008e-01) (14, -3.30971574783325195312e+00) (15, -2.43752098083496093750e+00) (16, 2.97422170639038085938e-01) (17, 3.15663278102874755859e-01) (18, 1.10297814011573791504e-01) (19, -4.27261441946029663086e-01) (20, 1.97849631309509277344e+00) (21, -1.62498188018798828125e+00) (22, 2.33035042881965637207e-01) (23, -1.35431790351867675781e+00) (24, -1.16700339317321777344e+00) (25, -9.98469412326812744141e-01) (26, 2.05310678482055664062e+00) (27, -1.79975044727325439453e+00) (28, 2.38664484024047851562e+00) (29, 2.10767698287963867188e+00) (30, -6.35196506977081298828e-01) (31, 1.02982318401336669922e+00) (32, -1.52727854251861572266e+00) (33, -8.17601263523101806641e-01) (34, 9.09281373023986816406e-01) (35, 4.19356435537338256836e-01) (36, -9.26231086254119873047e-01) (37, -2.55264806747436523438e+00) (38, -1.84557855129241943359e-01) (39, 2.00774812698364257812e+00) (40, 1.06858623027801513672e+00) (41, 1.62090849876403808594e+00) (42, -1.74672353267669677734e+00) (43, -3.73855495452880859375e+00) (44, -7.55553662776947021484e-01) (45, -2.60015487670898437500e-01) (46, -6.62613749504089355469e-01) (47, -1.08318293094635009766e+00) (48, 4.67738270759582519531e-01) (49, 6.01121842861175537109e-01) (50, 3.77073943614959716797e-01) (51, 1.22701120376586914062e+00) (52, 1.79892349243164062500e+00) (53, -3.18702280521392822266e-01) (54, 1.41377747058868408203e+00) (55, 2.34848380088806152344e+00) (56, -2.39150810241699218750e+00) (57, 1.07325637340545654297e+00) (58, 2.10364389419555664062e+00) (59, -1.41459751129150390625e+00) (60, -1.14220416545867919922e+00) (61, -2.22969007492065429688e+00) (62, -1.05170547962188720703e+00) (63, 1.03993928432464599609e+00) (64, 7.06466734409332275391e-01) (65, 1.57187426090240478516e+00) (66, 9.25643324851989746094e-01) (67, -1.23290550708770751953e+00) (68, 1.23607683181762695312e+00) (0, 2.40629106760025024414e-01) (1, 7.19746410846710205078e-01) (2, -7.57950901985168457031e-01) (3, -3.41587439179420471191e-02) (4, -3.92205208539962768555e-01) (5, 8.25742304325103759766e-01) (6, -4.46629673242568969727e-01) (7, -7.32538998126983642578e-02) (8, 6.42146527767181396484e-01) (9, 5.30624866485595703125e-01) (10, -7.63102233409881591797e-01) (11, -3.97047996520996093750e-02) (12, 4.64639633893966674805e-01) (13, 1.10333457589149475098e-01) (14, 7.52827465534210205078e-01) (15, -7.46639966964721679688e-01) (16, -8.04876804351806640625e-01) (17, 4.27251756191253662109e-01) (18, -1.01395595073699951172e+00) (19, 1.81949722766876220703e+00) (20, -3.96809242665767669678e-02) (21, 4.20741021633148193359e-01) (22, 7.31716334819793701172e-01) (23, -6.25889420509338378906e-01) (24, -3.87618929147720336914e-01) (25, 2.57718896865844726562e+00) (26, 1.78636622428894042969e+00) (27, -2.49071860313415527344e+00) (28, 1.77374911308288574219e+00) (29, 9.08440113067626953125e-01) (30, 3.99854809045791625977e-01) (31, 7.97475159168243408203e-01) (32, -1.23714041709899902344e+00) (33, 1.62891185283660888672e+00) (34, 1.38640952110290527344e+00) (35, 1.27171680331230163574e-01) (36, -2.29176819324493408203e-01) (37, -3.01626586914062500000e+00) (38, -5.30872523784637451172e-01) (39, 8.70853900909423828125e-01) (40, 7.66387760639190673828e-01) (41, 1.30898678302764892578e+00) (42, 1.29136428236961364746e-01) (43, 6.24898910522460937500e-01) (44, -1.33741092681884765625e+00) (45, 2.22825384140014648438e+00) (46, 7.36559703946113586426e-02) (47, 1.04061031341552734375e+00) (48, -1.32560694217681884766e+00) (49, 7.08151385188102722168e-02) (50, 8.86458218097686767578e-01) (51, 8.28591525554656982422e-01) (52, 1.49384832382202148438e+00) (53, -2.18645191192626953125e+00) (54, 1.14947724342346191406e+00) (55, 6.85838639736175537109e-01) (56, -2.96832591295242309570e-01) (57, 8.91400277614593505859e-01) (58, 4.72756445407867431641e-01) (59, -1.51156663894653320312e+00) (60, 4.95296359062194824219e-01) (61, -1.94056928157806396484e+00) (62, 6.16678297519683837891e-01) (63, 1.11345601081848144531e+00) (64, -3.25335621833801269531e+00) (65, 2.43942999839782714844e+00) (66, -3.26636338233947753906e+00) (67, 9.52240452170372009277e-02) (68, 1.34425151348114013672e+00) (69, 1.69412696361541748047e+00) (0, 6.62568926811218261719e-01) (1, 7.52795219421386718750e-01) (2, 3.95502805709838867188e-01) (3, 3.44753414392471313477e-01) (4, -2.18827694654464721680e-01) (5, 2.71684769541025161743e-03) (6, -7.55750596523284912109e-01) (7, -4.44032043218612670898e-01) (8, -5.12998521327972412109e-01) (9, 5.36021113395690917969e-01) (10, 3.88367086648941040039e-01) (11, -5.31445741653442382812e-01) (12, 1.69575184583663940430e-01) (13, 1.20049107074737548828e+00) (14, -8.34808707237243652344e-01) (15, 9.47677969932556152344e-01) (16, -9.50004637241363525391e-01) (17, 1.12107551097869873047e+00) (18, 5.43103441596031188965e-02) (19, 9.11570787429809570312e-01) (20, 1.68958187103271484375e+00) (21, 1.90808260440826416016e+00) (22, 2.54443590529263019562e-03) (23, 1.30408263206481933594e+00) (24, 6.37011677026748657227e-02) (25, 8.90333771705627441406e-01) (26, 2.20021057128906250000e+00) (27, -1.81960475444793701172e+00) (28, 1.27723705768585205078e+00) (29, 1.31015837192535400391e+00) (30, -1.75757503509521484375e+00) (31, 2.56851944141089916229e-03) (32, -6.90600156784057617188e-01) (33, 5.08742749691009521484e-01) (34, 1.06233119964599609375e+00) (35, -1.86800873279571533203e+00) (36, 6.07701539993286132812e-01) (37, 5.00798225402832031250e-01) (38, -9.05639290809631347656e-01) (39, 3.26565533876419067383e-01) (40, 1.25154709815979003906e+00) (41, 2.01397776603698730469e+00) (42, -3.87439894676208496094e+00) (43, -1.07605326175689697266e+00) (44, -2.34433174133300781250e+00) (45, 1.67540991306304931641e+00) (46, 7.27920353412628173828e-01) (47, 1.85748830437660217285e-01) (48, -1.04911708831787109375e+00) (49, -2.23772093653678894043e-01) (50, 1.71377635002136230469e+00) (51, 8.95628094673156738281e-01) (52, -1.04962062835693359375e+00) (53, 9.36798572540283203125e-01) (54, 1.67038059234619140625e+00) (55, 3.55567902326583862305e-01) (56, -4.28008645772933959961e-01) (57, 1.71335327625274658203e+00) (58, -1.20473258197307586670e-01) (59, -3.35172271728515625000e+00) (60, 5.05852818489074707031e-01) (61, -3.62462425231933593750e+00) (62, 1.43375027179718017578e+00) (63, -9.91783022880554199219e-01) (64, -3.60663458704948425293e-02) (65, 3.23101210594177246094e+00) (66, -9.84332323074340820312e-01) (67, 3.17589849233627319336e-01) (68, -5.55586338043212890625e-01) (69, 1.70896613597869873047e+00) (70, -4.89981055259704589844e-01) (0, 8.29004943370819091797e-02) (1, 4.09938097000122070312e-02) (2, 8.37834835052490234375e-01) (3, -6.01909101009368896484e-01) (4, -2.02679082751274108887e-01) (5, 6.15119218826293945312e-01) (6, 5.51479279994964599609e-01) (7, 1.69900983572006225586e-01) (8, 4.70301479101181030273e-01) (9, -4.60466407239437103271e-02) (10, 1.25737082958221435547e+00) (11, 1.39720756560564041138e-02) (12, -2.68059641122817993164e-01) (13, 4.37534391880035400391e-01) (14, -2.60473632812500000000e+00) (15, 9.49903249740600585938e-01) (16, -1.06740236282348632812e+00) (17, -2.69579887390136718750e+00) (18, 1.48199892044067382812e+00) (19, 6.05193376541137695312e-01) (20, 3.50746512413024902344e+00) (21, 1.76693964004516601562e+00) (22, -1.04356980323791503906e+00) (23, 9.48741495609283447266e-01) (24, -1.23374271392822265625e+00) (25, -2.56173229217529296875e+00) (26, 1.39148139953613281250e+00) (27, -1.75549924373626708984e+00) (28, 1.14083743095397949219e+00) (29, 2.06186890602111816406e-01) (30, -1.37684154510498046875e+00) (31, 1.83523523807525634766e+00) (32, -1.85043430328369140625e+00) (33, 2.15934801101684570312e+00) (34, -1.52501031756401062012e-01) (35, -1.30812597274780273438e+00) (36, 1.41255393624305725098e-01) (37, -2.47130846977233886719e+00) (38, 8.18906545639038085938e-01) (39, 1.04894340038299560547e+00) (40, -4.02537196874618530273e-01) (41, 2.25180292129516601562e+00) (42, -1.33154022693634033203e+00) (43, -7.71288216114044189453e-01) (44, -3.28789740800857543945e-01) (45, 1.53425836563110351562e+00) (46, 9.47243154048919677734e-01) (47, -1.51899313926696777344e+00) (48, 1.19390733540058135986e-01) (49, 8.12356173992156982422e-01) (50, 1.30622136592864990234e+00) (51, 8.07604849338531494141e-01) (52, 1.18681061267852783203e+00) (53, -1.11948215961456298828e+00) (54, 1.08783209323883056641e+00) (55, 8.60512197017669677734e-01) (56, -9.99973654747009277344e-01) (57, 1.62835514545440673828e+00) (58, 2.82824683189392089844e+00) (59, -3.42773580551147460938e+00) (60, -4.32576084136962890625e+00) (61, -2.36964178085327148438e+00) (62, -7.54635512828826904297e-01) (63, 9.03925001621246337891e-01) (64, 2.44240069389343261719e+00) (65, 9.60620492696762084961e-02) (66, 8.01149606704711914062e-01) (67, -8.83888065814971923828e-01) (68, -6.15521669387817382812e-01) (69, -1.96609568595886230469e+00) (70, 1.89916992187500000000e+00) (71, -8.84216427803039550781e-01) (0, -7.09698021411895751953e-01) (1, -1.61416977643966674805e-01) (2, 6.37686491012573242188e-01) (3, -8.22064638137817382812e-01) (4, 1.68039822578430175781e+00) (5, -2.14157089591026306152e-01) (6, 4.28644180297851562500e-01) (7, -3.27658951282501220703e-02) (8, -4.00586515665054321289e-01) (9, 8.68448987603187561035e-02) (10, 1.63889515399932861328e+00) (11, -5.27591705322265625000e-01) (12, -5.21559834480285644531e-01) (13, 5.74150204658508300781e-01) (14, -3.30013537406921386719e+00) (15, 4.08288717269897460938e-01) (16, 1.50573217868804931641e+00) (17, -3.03105533123016357422e-01) (18, 1.22506213188171386719e+00) (19, -4.04341846704483032227e-01) (20, 1.21382847428321838379e-01) (21, 2.01565575599670410156e+00) (22, -2.24858093261718750000e+00) (23, 2.20254119485616683960e-02) (24, -8.85067880153656005859e-01) (25, -1.38755941390991210938e+00) (26, 1.40999686717987060547e+00) (27, -1.31595417857170104980e-01) (28, 2.32351160049438476562e+00) (29, 1.84757709503173828125e+00) (30, -8.78444254398345947266e-01) (31, 1.38426470756530761719e+00) (32, 9.87699687480926513672e-01) (33, 1.77067920565605163574e-01) (34, 9.28584694862365722656e-01) (35, -8.80210161209106445312e-01) (36, -9.51325893402099609375e-01) (37, 1.96793247014284133911e-02) (38, 7.97401070594787597656e-01) (39, -3.63982081413269042969e-01) (40, -1.41168522834777832031e+00) (41, -2.11470976471900939941e-01) (42, -6.08159840106964111328e-01) (43, -1.90727508068084716797e+00) (44, -1.69050145149230957031e+00) (45, 8.32053840160369873047e-01) (46, 1.51713931560516357422e+00) (47, 1.20555341243743896484e+00) (48, -2.45509400963783264160e-01) (49, -9.47980284690856933594e-01) (50, -9.62487816810607910156e-01) (51, 1.72881913185119628906e+00) (52, -6.75349295139312744141e-01) (53, 3.13672751188278198242e-01) (54, -8.42712074518203735352e-02) (55, -2.57390081882476806641e-01) (56, -5.07782220840454101562e-01) (57, 6.62877976894378662109e-01) (58, 8.25576901435852050781e-01) (59, 3.15307706594467163086e-01) (60, 7.45019614696502685547e-02) (61, -2.02126717567443847656e+00) (62, 2.88286030292510986328e-01) (63, 6.35279297828674316406e-01) (64, 4.78704810142517089844e-01) (65, 1.16366910934448242188e+00) (66, -2.46707797050476074219e+00) (67, -2.48689341545104980469e+00) (68, 1.03292608261108398438e+00) (69, 2.76220470666885375977e-01) (70, 3.19208359718322753906e+00) (71, -1.13598370552062988281e+00) (72, -2.68590784072875976562e+00) (0, -4.29300546646118164062e-01) (1, 5.37674464285373687744e-02) (2, -2.88166880607604980469e-01) (3, -6.76444232463836669922e-01) (4, 1.54635608196258544922e-01) (5, -5.07781095802783966064e-02) (6, 1.25394403934478759766e-01) (7, 9.58454906940460205078e-01) (8, 1.15476822853088378906e+00) (9, 7.23745524883270263672e-02) (10, 1.58851832151412963867e-01) (11, 4.31147634983062744141e-01) (12, 5.14195322990417480469e-01) (13, 1.51043522357940673828e+00) (14, -2.37474131584167480469e+00) (15, 2.17954203486442565918e-01) (16, -3.83939266204833984375e+00) (17, -1.44810721278190612793e-01) (18, 5.73724150657653808594e-01) (19, -4.26686525344848632812e-01) (20, 1.19353401660919189453e+00) (21, 1.34329223632812500000e+00) (22, -1.67289465665817260742e-01) (23, -3.20467567443847656250e+00) (24, -2.62478613853454589844e+00) (25, -1.33919155597686767578e+00) (26, 1.78516578674316406250e+00) (27, -2.98892354965209960938e+00) (28, 1.35675862431526184082e-01) (29, 1.27964127063751220703e+00) (30, -1.82834476232528686523e-01) (31, 1.55675798654556274414e-01) (32, -1.76790440082550048828e+00) (33, 9.00624573230743408203e-01) (34, -6.19408547878265380859e-01) (35, -1.13111782073974609375e+00) (36, 1.21315801143646240234e+00) (37, -1.31005275249481201172e+00) (38, 7.40121901035308837891e-01) (39, 4.44600015878677368164e-01) (40, -2.14597314596176147461e-01) (41, 1.19590187072753906250e+00) (42, -1.68844676017761230469e+00) (43, 5.27189373970031738281e-01) (44, -1.83270037174224853516e+00) (45, 3.56028854846954345703e-01) (46, -1.98137569427490234375e+00) (47, -1.18479001522064208984e+00) (48, 3.36582630872726440430e-01) (49, 4.96591292321681976318e-02) (50, -6.47042989730834960938e-01) (51, 2.09007430076599121094e+00) (52, 2.60499739646911621094e+00) (53, -9.79815423488616943359e-02) (54, 1.09238553047180175781e+00) (55, 1.22447991371154785156e+00) (56, -1.01908636093139648438e+00) (57, 1.46051108837127685547e+00) (58, 1.72321510314941406250e+00) (59, -1.08066892623901367188e+00) (60, 3.78693342208862304688e-02) (61, -5.85580945014953613281e-01) (62, -1.01762938499450683594e+00) (63, 1.46354842185974121094e+00) (64, 5.26162087917327880859e-01) (65, 3.24876117706298828125e+00) (66, -1.53085446357727050781e+00) (67, 1.24573636054992675781e+00) (68, -2.83301651477813720703e-01) (69, -4.13396209478378295898e-01) (70, -5.65563440322875976562e-01) (71, -1.40960669517517089844e+00) (72, -2.16785836219787597656e+00) (73, -3.41985315084457397461e-01) (0, 8.48865985870361328125e-01) (1, -1.85395345091819763184e-01) (2, -2.28535115718841552734e-01) (3, 2.13974967598915100098e-01) (4, 3.00631254911422729492e-01) (5, 4.45518046617507934570e-01) (6, -9.99167919158935546875e-01) (7, -1.28852754831314086914e-01) (8, 9.26607251167297363281e-01) (9, -9.05108571052551269531e-01) (10, 6.92110836505889892578e-01) (11, 4.29901152849197387695e-01) (12, 1.04974520206451416016e+00) (13, -1.13981807231903076172e+00) (14, 9.22600328922271728516e-01) (15, 3.42679828405380249023e-01) (16, -9.95109140872955322266e-01) (17, 1.31459081172943115234e+00) (18, 5.87891101837158203125e-01) (19, 1.22302198410034179688e+00) (20, 2.70609545707702636719e+00) (21, 3.06926321983337402344e+00) (22, -1.16317558288574218750e+00) (23, -1.22367635369300842285e-01) (24, 1.91202914714813232422e+00) (25, -2.32910543680191040039e-01) (26, 1.57344555854797363281e+00) (27, -7.62089610099792480469e-01) (28, 1.82624709606170654297e+00) (29, 2.00351452827453613281e+00) (30, 9.22167539596557617188e-01) (31, 7.09337055683135986328e-01) (32, -3.01467031240463256836e-01) (33, 2.67541098594665527344e+00) (34, 7.27960348129272460938e-01) (35, -4.99903410673141479492e-01) (36, 1.13588869571685791016e+00) (37, -3.97566938400268554688e+00) (38, -1.65688025951385498047e+00) (39, 4.03714150190353393555e-01) (40, -3.44868397712707519531e+00) (41, 2.32449936866760253906e+00) (42, 1.40040695667266845703e+00) (43, -1.28389632701873779297e+00) (44, -1.08640837669372558594e+00) (45, 1.34897828102111816406e+00) (46, 4.54859852790832519531e-01) (47, -2.12720441818237304688e+00) (48, -1.95625770092010498047e+00) (49, 3.71247172355651855469e-01) (50, -1.40598464012145996094e+00) (51, 9.19665217399597167969e-01) (52, 8.03515851497650146484e-01) (53, 1.15494406223297119141e+00) (54, -1.29603052139282226562e+00) (55, 1.83937335014343261719e+00) (56, 1.56635618209838867188e+00) (57, 1.31725943088531494141e+00) (58, 5.93056857585906982422e-01) (59, -2.52311730384826660156e+00) (60, -1.38956606388092041016e-01) (61, -1.26168336719274520874e-02) (62, 9.07478749752044677734e-01) (63, 1.46594858169555664062e+00) (64, 5.46735703945159912109e-01) (65, 9.14914488792419433594e-01) (66, -1.10828030109405517578e+00) (67, 6.59237265586853027344e-01) (68, 8.64002466201782226562e-01) (69, 8.94379973411560058594e-01) (70, -6.67582690715789794922e-01) (71, -1.56483244895935058594e+00) (72, -7.42552518844604492188e-01) (73, 6.21732696890830993652e-02) (74, 4.78666037321090698242e-01) (0, -2.38663688302040100098e-01) (1, -8.71871784329414367676e-02) (2, 1.04738199710845947266e+00) (3, -2.60213047266006469727e-01) (4, -8.25927853584289550781e-01) (5, 1.02140150964260101318e-01) (6, -1.20898163318634033203e+00) (7, -9.06611502170562744141e-01) (8, 4.99383598566055297852e-01) (9, 5.46892583370208740234e-01) (10, 1.95658951997756958008e-01) (11, 1.50817549228668212891e+00) (12, 8.57151091098785400391e-01) (13, 3.94231259822845458984e-01) (14, 1.65261089801788330078e-01) (15, -3.85855138301849365234e-01) (16, -4.59941208362579345703e-01) (17, 8.95967841148376464844e-01) (18, 2.35531902313232421875e+00) (19, 2.07757845520973205566e-01) (20, 2.00624346733093261719e-01) (21, 3.41685581207275390625e+00) (22, 7.23566161468625068665e-04) (23, -8.55982303619384765625e-01) (24, -1.40544044971466064453e+00) (25, -3.46017956733703613281e-01) (26, 1.29546213150024414062e+00) (27, -1.60120379924774169922e+00) (28, -1.83747267723083496094e+00) (29, 1.30900657176971435547e+00) (30, -4.44011300802230834961e-01) (31, -1.08293485641479492188e+00) (32, 1.02289569377899169922e+00) (33, 1.49655520915985107422e+00) (34, -6.11203253269195556641e-01) (35, -3.63651931285858154297e-01) (36, 5.63972294330596923828e-01) (37, -3.84802889823913574219e+00) (38, -5.52818119525909423828e-01) (39, 1.52331864833831787109e+00) (40, 8.88035774230957031250e-01) (41, 4.00478029251098632812e+00) (42, 3.63282412290573120117e-01) (43, -1.30497384071350097656e+00) (44, -2.10597062110900878906e+00) (45, -1.61589071154594421387e-01) (46, -9.11734402179718017578e-01) (47, -2.36425828933715820312e+00) (48, -4.20389771461486816406e-01) (49, -1.14855098724365234375e+00) (50, 1.26545000076293945312e+00) (51, 7.18003451824188232422e-01) (52, 1.22331690788269042969e+00) (53, -5.19151799380779266357e-02) (54, 1.38214743137359619141e+00) (55, 2.58819389343261718750e+00) (56, -4.16469901800155639648e-01) (57, 