FANN_FLO_2.1
num_layers=3
learning_rate=0.700000
connection_rate=1.000000
network_type=0
learning_momentum=0.000000
training_algorithm=2
train_error_function=0
train_stop_function=0
cascade_output_change_fraction=0.010000
quickprop_decay=-0.000100
quickprop_mu=1.750000
rprop_increase_factor=1.200000
rprop_decrease_factor=0.500000
rprop_delta_min=0.000000
rprop_delta_max=50.000000
rprop_delta_zero=0.100000
cascade_output_stagnation_epochs=12
cascade_candidate_change_fraction=0.010000
cascade_candidate_stagnation_epochs=12
cascade_max_out_epochs=150
cascade_max_cand_epochs=150
cascade_num_candidate_groups=8
bit_fail_limit=8.99999976158142089844e-01
cascade_candidate_limit=1.00000000000000000000e+03
cascade_weight_multiplier=4.00000005960464477539e-01
cascade_activation_functions_count=1
cascade_activation_functions=5 
cascade_activation_steepnesses_count=1
cascade_activation_steepnesses=1.00000000000000000000e+00 
layer_sizes=11 202 157 
scale_included=0
neurons (num_inputs, activation_function, activation_steepness)=(0, 0, 0.00000000000000000000e+00) (0, 0, 0.00000000000000000000e+00) (0, 0, 0.00000000000000000000e+00) (0, 0, 0.00000000000000000000e+00) (0, 0, 0.00000000000000000000e+00) (0, 0, 0.00000000000000000000e+00) (0, 0, 0.00000000000000000000e+00) (0, 0, 0.00000000000000000000e+00) (0, 0, 0.00000000000000000000e+00) (0, 0, 0.00000000000000000000e+00) (0, 0, 0.00000000000000000000e+00) (11, 5, 5.00000000000000000000e-01) (11, 5, 5.00000000000000000000e-01) (11, 5, 5.00000000000000000000e-01) (11, 5, 5.00000000000000000000e-01) (11, 5, 5.00000000000000000000e-01) (11, 5, 5.00000000000000000000e-01) (11, 5, 5.00000000000000000000e-01) (11, 5, 5.00000000000000000000e-01) (11, 5, 5.00000000000000000000e-01) (11, 5, 5.00000000000000000000e-01) (11, 5, 5.00000000000000000000e-01) (11, 5, 5.00000000000000000000e-01) (11, 5, 5.00000000000000000000e-01) (11, 5, 5.00000000000000000000e-01) (11, 5, 5.00000000000000000000e-01) (11, 5, 5.00000000000000000000e-01) (11, 5, 5.00000000000000000000e-01) (11, 5, 5.00000000000000000000e-01) (11, 5, 5.00000000000000000000e-01) (11, 5, 5.00000000000000000000e-01) (11, 5, 5.00000000000000000000e-01) (11, 5, 5.00000000000000000000e-01) (11, 5, 5.00000000000000000000e-01) (11, 5, 5.00000000000000000000e-01) (11, 5, 5.00000000000000000000e-01) (11, 5, 5.00000000000000000000e-01) (11, 5, 5.00000000000000000000e-01) (11, 5, 5.00000000000000000000e-01) (11, 5, 5.00000000000000000000e-01) (11, 5, 5.00000000000000000000e-01) (11, 5, 5.00000000000000000000e-01) (11, 5, 5.00000000000000000000e-01) (11, 5, 5.00000000000000000000e-01) (11, 5, 5.00000000000000000000e-01) (11, 5, 5.00000000000000000000e-01) (11, 5, 5.00000000000000000000e-01) (11, 5, 5.00000000000000000000e-01) (11, 5, 5.00000000000000000000e-01) (11, 5, 5.00000000000000000000e-01) (11, 5, 5.00000000000000000000e-01) (11, 5, 5.00000000000000000000e-01) (11, 5, 5.00000000000000000000e-01) (11, 5, 5.00000000000000000000e-01) (11, 5, 5.00000000000000000000e-01) (11, 5, 5.00000000000000000000e-01) (11, 5, 5.00000000000000000000e-01) (11, 5, 5.00000000000000000000e-01) (11, 5, 5.00000000000000000000e-01) (11, 5, 5.00000000000000000000e-01) (11, 5, 5.00000000000000000000e-01) (11, 5, 5.00000000000000000000e-01) (11, 5, 5.00000000000000000000e-01) (11, 5, 5.00000000000000000000e-01) (11, 5, 5.00000000000000000000e-01) (11, 5, 5.00000000000000000000e-01) (11, 5, 5.00000000000000000000e-01) (11, 5, 5.00000000000000000000e-01) (11, 5, 5.00000000000000000000e-01) (11, 5, 5.00000000000000000000e-01) (11, 5, 5.00000000000000000000e-01) (11, 5, 5.00000000000000000000e-01) (11, 5, 5.00000000000000000000e-01) (11, 5, 5.00000000000000000000e-01) (11, 5, 5.00000000000000000000e-01) (11, 5, 5.00000000000000000000e-01) (11, 5, 5.00000000000000000000e-01) (11, 5, 5.00000000000000000000e-01) (11, 5, 5.00000000000000000000e-01) (11, 5, 5.00000000000000000000e-01) (11, 5, 5.00000000000000000000e-01) (11, 5, 5.00000000000000000000e-01) (11, 5, 5.00000000000000000000e-01) (11, 5, 5.00000000000000000000e-01) (11, 5, 5.00000000000000000000e-01) (11, 5, 5.00000000000000000000e-01) (11, 5, 5.00000000000000000000e-01) (11, 5, 5.00000000000000000000e-01) (11, 5, 5.00000000000000000000e-01) (11, 5, 5.00000000000000000000e-01) (11, 5, 5.00000000000000000000e-01) (11, 5, 5.00000000000000000000e-01) (11, 5, 5.00000000000000000000e-01) (11, 5, 5.00000000000000000000e-01) (11, 5, 5.00000000000000000000e-01) (11, 5, 5.00000000000000000000e-01) (11, 5, 5.00000000000000000000e-01) (11, 5, 5.00000000000000000000e-01) (11, 5, 5.00000000000000000000e-01) (11, 5, 5.00000000000000000000e-01) (11, 5, 5.00000000000000000000e-01) (11, 5, 5.00000000000000000000e-01) (11, 5, 5.00000000000000000000e-01) (11, 5, 5.00000000000000000000e-01) (11, 5, 5.00000000000000000000e-01) (11, 5, 5.00000000000000000000e-01) (11, 5, 5.00000000000000000000e-01) (11, 5, 5.00000000000000000000e-01) (11, 5, 5.00000000000000000000e-01) (11, 5, 5.00000000000000000000e-01) (11, 5, 5.00000000000000000000e-01) (11, 5, 5.00000000000000000000e-01) (11, 5, 5.00000000000000000000e-01) (11, 5, 5.00000000000000000000e-01) (11, 5, 5.00000000000000000000e-01) (11, 5, 5.00000000000000000000e-01) (11, 5, 5.00000000000000000000e-01) (11, 5, 5.00000000000000000000e-01) (11, 5, 5.00000000000000000000e-01) (11, 5, 5.00000000000000000000e-01) (11, 5, 5.00000000000000000000e-01) (11, 5, 5.00000000000000000000e-01) (11, 5, 5.00000000000000000000e-01) (11, 5, 5.00000000000000000000e-01) (11, 5, 5.00000000000000000000e-01) (11, 5, 5.00000000000000000000e-01) (11, 5, 5.00000000000000000000e-01) (11, 5, 5.00000000000000000000e-01) (11, 5, 5.00000000000000000000e-01) (11, 5, 5.00000000000000000000e-01) (11, 5, 5.00000000000000000000e-01) (11, 5, 5.00000000000000000000e-01) (11, 5, 5.00000000000000000000e-01) (11, 5, 5.00000000000000000000e-01) (11, 5, 5.00000000000000000000e-01) (11, 5, 5.00000000000000000000e-01) (11, 5, 5.00000000000000000000e-01) (11, 5, 5.00000000000000000000e-01) (11, 5, 5.00000000000000000000e-01) (11, 5, 5.00000000000000000000e-01) (11, 5, 5.00000000000000000000e-01) (11, 5, 5.00000000000000000000e-01) (11, 5, 5.00000000000000000000e-01) (11, 5, 5.00000000000000000000e-01) (11, 5, 5.00000000000000000000e-01) (11, 5, 5.00000000000000000000e-01) (11, 5, 5.00000000000000000000e-01) (11, 5, 5.00000000000000000000e-01) (11, 5, 5.00000000000000000000e-01) (11, 5, 5.00000000000000000000e-01) (11, 5, 5.00000000000000000000e-01) (11, 5, 5.00000000000000000000e-01) (11, 5, 5.00000000000000000000e-01) (11, 5, 5.00000000000000000000e-01) (11, 5, 5.00000000000000000000e-01) (11, 5, 5.00000000000000000000e-01) (11, 5, 5.00000000000000000000e-01) (11, 5, 5.00000000000000000000e-01) (11, 5, 5.00000000000000000000e-01) (11, 5, 5.00000000000000000000e-01) (11, 5, 5.00000000000000000000e-01) (11, 5, 5.00000000000000000000e-01) (11, 5, 5.00000000000000000000e-01) (11, 5, 5.00000000000000000000e-01) (11, 5, 5.00000000000000000000e-01) (11, 5, 5.00000000000000000000e-01) (11, 5, 5.00000000000000000000e-01) (11, 5, 5.00000000000000000000e-01) (11, 5, 5.00000000000000000000e-01) (11, 5, 5.00000000000000000000e-01) (11, 5, 5.00000000000000000000e-01) (11, 5, 5.00000000000000000000e-01) (11, 5, 5.00000000000000000000e-01) (11, 5, 5.00000000000000000000e-01) (11, 5, 5.00000000000000000000e-01) (11, 5, 5.00000000000000000000e-01) (11, 5, 5.00000000000000000000e-01) (11, 5, 5.00000000000000000000e-01) (11, 5, 5.00000000000000000000e-01) (11, 5, 5.00000000000000000000e-01) (11, 5, 5.00000000000000000000e-01) (11, 5, 5.00000000000000000000e-01) (11, 5, 5.00000000000000000000e-01) (11, 5, 5.00000000000000000000e-01) (11, 5, 5.00000000000000000000e-01) (11, 5, 5.00000000000000000000e-01) (11, 5, 5.00000000000000000000e-01) (11, 5, 5.00000000000000000000e-01) (11, 5, 5.00000000000000000000e-01) (11, 5, 5.00000000000000000000e-01) (11, 5, 5.00000000000000000000e-01) (11, 5, 5.00000000000000000000e-01) (11, 5, 5.00000000000000000000e-01) (11, 5, 5.00000000000000000000e-01) (11, 5, 5.00000000000000000000e-01) (11, 5, 5.00000000000000000000e-01) (11, 5, 5.00000000000000000000e-01) (11, 5, 5.00000000000000000000e-01) (11, 5, 5.00000000000000000000e-01) (11, 5, 5.00000000000000000000e-01) (11, 5, 5.00000000000000000000e-01) (11, 5, 5.00000000000000000000e-01) (11, 5, 5.00000000000000000000e-01) (11, 5, 5.00000000000000000000e-01) (11, 5, 5.00000000000000000000e-01) (11, 5, 5.00000000000000000000e-01) (11, 5, 5.00000000000000000000e-01) (11, 5, 5.00000000000000000000e-01) (11, 5, 5.00000000000000000000e-01) (11, 5, 5.00000000000000000000e-01) (11, 5, 5.00000000000000000000e-01) (11, 5, 5.00000000000000000000e-01) (0, 5, 0.00000000000000000000e+00) (202, 0, 5.00000000000000000000e-01) (202, 0, 5.00000000000000000000e-01) (202, 0, 5.00000000000000000000e-01) (202, 0, 5.00000000000000000000e-01) (202, 0, 5.00000000000000000000e-01) (202, 0, 5.00000000000000000000e-01) (202, 0, 5.00000000000000000000e-01) (202, 0, 5.00000000000000000000e-01) (202, 0, 5.00000000000000000000e-01) (202, 0, 5.00000000000000000000e-01) (202, 0, 5.00000000000000000000e-01) (202, 0, 5.00000000000000000000e-01) (202, 0, 5.00000000000000000000e-01) (202, 0, 5.00000000000000000000e-01) (202, 0, 5.00000000000000000000e-01) (202, 0, 5.00000000000000000000e-01) (202, 0, 5.00000000000000000000e-01) (202, 0, 5.00000000000000000000e-01) (202, 0, 5.00000000000000000000e-01) (202, 0, 5.00000000000000000000e-01) (202, 0, 5.00000000000000000000e-01) (202, 0, 5.00000000000000000000e-01) (202, 0, 5.00000000000000000000e-01) (202, 0, 5.00000000000000000000e-01) (202, 0, 5.00000000000000000000e-01) (202, 0, 5.00000000000000000000e-01) (202, 0, 5.00000000000000000000e-01) (202, 0, 5.00000000000000000000e-01) (202, 0, 5.00000000000000000000e-01) (202, 0, 5.00000000000000000000e-01) (202, 0, 5.00000000000000000000e-01) (202, 0, 5.00000000000000000000e-01) (202, 0, 5.00000000000000000000e-01) (202, 0, 5.00000000000000000000e-01) (202, 0, 5.00000000000000000000e-01) (202, 0, 5.00000000000000000000e-01) (202, 0, 5.00000000000000000000e-01) (202, 0, 5.00000000000000000000e-01) (202, 0, 5.00000000000000000000e-01) (202, 0, 5.00000000000000000000e-01) (202, 0, 5.00000000000000000000e-01) (202, 0, 5.00000000000000000000e-01) (202, 0, 5.00000000000000000000e-01) (202, 0, 5.00000000000000000000e-01) (202, 0, 5.00000000000000000000e-01) (202, 0, 5.00000000000000000000e-01) (202, 0, 5.00000000000000000000e-01) (202, 0, 5.00000000000000000000e-01) (202, 0, 5.00000000000000000000e-01) (202, 0, 5.00000000000000000000e-01) (202, 0, 5.00000000000000000000e-01) (202, 0, 5.00000000000000000000e-01) (202, 0, 5.00000000000000000000e-01) (202, 0, 5.00000000000000000000e-01) (202, 0, 5.00000000000000000000e-01) (202, 0, 5.00000000000000000000e-01) (202, 0, 5.00000000000000000000e-01) (202, 0, 5.00000000000000000000e-01) (202, 0, 5.00000000000000000000e-01) (202, 0, 5.00000000000000000000e-01) (202, 0, 5.00000000000000000000e-01) (202, 0, 5.00000000000000000000e-01) (202, 0, 5.00000000000000000000e-01) (202, 0, 5.00000000000000000000e-01) (202, 0, 5.00000000000000000000e-01) (202, 0, 5.00000000000000000000e-01) (202, 0, 5.00000000000000000000e-01) (202, 0, 5.00000000000000000000e-01) (202, 0, 5.00000000000000000000e-01) (202, 0, 5.00000000000000000000e-01) (202, 0, 5.00000000000000000000e-01) (202, 0, 5.00000000000000000000e-01) (202, 0, 5.00000000000000000000e-01) (202, 0, 5.00000000000000000000e-01) (202, 0, 5.00000000000000000000e-01) (202, 0, 5.00000000000000000000e-01) (202, 0, 5.00000000000000000000e-01) (202, 0, 5.00000000000000000000e-01) (202, 0, 5.00000000000000000000e-01) (202, 0, 5.00000000000000000000e-01) (202, 0, 5.00000000000000000000e-01) (202, 0, 5.00000000000000000000e-01) (202, 0, 5.00000000000000000000e-01) (202, 0, 5.00000000000000000000e-01) (202, 0, 5.00000000000000000000e-01) (202, 0, 5.00000000000000000000e-01) (202, 0, 5.00000000000000000000e-01) (202, 0, 5.00000000000000000000e-01) (202, 0, 5.00000000000000000000e-01) (202, 0, 5.00000000000000000000e-01) (202, 0, 5.00000000000000000000e-01) (202, 0, 5.00000000000000000000e-01) (202, 0, 5.00000000000000000000e-01) (202, 0, 5.00000000000000000000e-01) (202, 0, 5.00000000000000000000e-01) (202, 0, 5.00000000000000000000e-01) (202, 0, 5.00000000000000000000e-01) (202, 0, 5.00000000000000000000e-01) (202, 0, 5.00000000000000000000e-01) (202, 0, 5.00000000000000000000e-01) (202, 0, 5.00000000000000000000e-01) (202, 0, 5.00000000000000000000e-01) (202, 0, 5.00000000000000000000e-01) (202, 0, 5.00000000000000000000e-01) (202, 0, 5.00000000000000000000e-01) (202, 0, 5.00000000000000000000e-01) (202, 0, 5.00000000000000000000e-01) (202, 0, 5.00000000000000000000e-01) (202, 0, 5.00000000000000000000e-01) (202, 0, 5.00000000000000000000e-01) (202, 0, 5.00000000000000000000e-01) (202, 0, 5.00000000000000000000e-01) (202, 0, 5.00000000000000000000e-01) (202, 0, 5.00000000000000000000e-01) (202, 0, 5.00000000000000000000e-01) (202, 0, 5.00000000000000000000e-01) (202, 0, 5.00000000000000000000e-01) (202, 0, 5.00000000000000000000e-01) (202, 0, 5.00000000000000000000e-01) (202, 0, 5.00000000000000000000e-01) (202, 0, 5.00000000000000000000e-01) (202, 0, 5.00000000000000000000e-01) (202, 0, 5.00000000000000000000e-01) (202, 0, 5.00000000000000000000e-01) (202, 0, 5.00000000000000000000e-01) (202, 0, 5.00000000000000000000e-01) (202, 0, 5.00000000000000000000e-01) (202, 0, 5.00000000000000000000e-01) (202, 0, 5.00000000000000000000e-01) (202, 0, 5.00000000000000000000e-01) (202, 0, 5.00000000000000000000e-01) (202, 0, 5.00000000000000000000e-01) (202, 0, 5.00000000000000000000e-01) (202, 0, 5.00000000000000000000e-01) (202, 0, 5.00000000000000000000e-01) (202, 0, 5.00000000000000000000e-01) (202, 0, 5.00000000000000000000e-01) (202, 0, 5.00000000000000000000e-01) (202, 0, 5.00000000000000000000e-01) (202, 0, 5.00000000000000000000e-01) (202, 0, 5.00000000000000000000e-01) (202, 0, 5.00000000000000000000e-01) (202, 0, 5.00000000000000000000e-01) (202, 0, 5.00000000000000000000e-01) (202, 0, 5.00000000000000000000e-01) (202, 0, 5.00000000000000000000e-01) (202, 0, 5.00000000000000000000e-01) (202, 0, 5.00000000000000000000e-01) (202, 0, 5.00000000000000000000e-01) (202, 0, 5.00000000000000000000e-01) (202, 0, 5.00000000000000000000e-01) (202, 0, 5.00000000000000000000e-01) (202, 0, 5.00000000000000000000e-01) (202, 0, 5.00000000000000000000e-01) (202, 0, 5.00000000000000000000e-01) (202, 0, 5.00000000000000000000e-01) (0, 0, 0.00000000000000000000e+00) 
connections (connected_to_neuron, weight)=(0, -2.01000618934631347656e+00) (1, 3.33908581733703613281e+00) (2, 2.44572758674621582031e+00) (3, -2.55303144454956054688e-01) (4, -7.80807924270629882812e+00) (5, 2.15683293342590332031e+00) (6, -2.32492065429687500000e+00) (7, -9.11863803863525390625e+00) (8, -4.08103990554809570312e+00) (9, 5.23102760314941406250e-01) (10, -5.79074621200561523438e+00) (0, 1.50772273540496826172e+00) (1, -2.92105007171630859375e+00) (2, 5.28820419311523437500e+00) (3, 6.96976661682128906250e+00) (4, 2.13957309722900390625e+00) (5, -2.69773101806640625000e+00) (6, 2.80160975456237792969e+00) (7, 6.11629247665405273438e+00) (8, -7.81481409072875976562e+00) (9, -2.66742897033691406250e+00) (10, -8.52514684200286865234e-01) (0, 7.88522720336914062500e+00) (1, 2.35201311111450195312e+00) (2, 3.56162452697753906250e+00) (3, -7.62303113937377929688e+00) (4, -1.30531620979309082031e+00) (5, -4.50402641296386718750e+00) (6, 1.91595780849456787109e+00) (7, 2.33224773406982421875e+00) (8, -5.46721649169921875000e+00) (9, -5.49548482894897460938e+00) (10, 1.61564707756042480469e-01) (0, 7.30274629592895507812e+00) (1, 1.50000000000000000000e+03) (2, 2.68735885620117187500e+00) (3, 1.19610214233398437500e+00) (4, -9.44378566741943359375e+00) (5, 2.23080801963806152344e+00) (6, 1.50000000000000000000e+03) (7, 4.91618967056274414062e+00) (8, 5.43228340148925781250e+00) (9, -1.01721084117889404297e+00) (10, 9.51768112182617187500e+00) (0, 1.61532664299011230469e+00) (1, -5.05069875717163085938e+00) (2, 5.15585958957672119141e-01) (3, 7.52089977264404296875e+00) (4, 6.00583219528198242188e+00) (5, -2.65693449974060058594e+00) (6, 1.50000000000000000000e+03) (7, -5.12279701232910156250e+00) (8, 4.58603048324584960938e+00) (9, 7.25286579132080078125e+00) (10, 6.60847759246826171875e+00) (0, 1.28149366378784179688e+00) (1, 1.40167760848999023438e+00) (2, -3.54498457908630371094e+00) (3, 2.90583944320678710938e+00) (4, 1.65471124649047851562e+00) (5, 8.31253826618194580078e-01) (6, 4.32714080810546875000e+00) (7, 1.92737817764282226562e+00) (8, -1.49651813507080078125e+00) (9, 3.61715102195739746094e+00) (10, -4.65939283370971679688e+00) (0, -7.74862098693847656250e+00) (1, -4.75242567062377929688e+00) (2, -3.00079751014709472656e+00) (3, 2.97364497184753417969e+00) (4, 9.39924430847167968750e+00) (5, 8.23753356933593750000e+00) (6, -3.28062236309051513672e-01) (7, -2.30865859985351562500e+00) (8, 8.64788055419921875000e+00) (9, -9.00809955596923828125e+00) (10, 2.17973709106445312500e+00) (0, 2.91768312454223632812e+00) (1, -2.75168061256408691406e+00) (2, -5.36500275135040283203e-01) (3, 7.27784585952758789062e+00) (4, 5.88629770278930664062e+00) (5, 5.99044971168041229248e-02) (6, 2.54295277595520019531e+00) (7, 1.01056241989135742188e+01) (8, 1.12485003471374511719e+00) (9, -6.87190818786621093750e+00) (10, 4.83459615707397460938e+00) (0, 6.54867506027221679688e+00) (1, 3.05878829956054687500e+00) (2, -3.22537040710449218750e+00) (3, 6.29176855087280273438e+00) (4, 1.90546572208404541016e+00) (5, 8.33402061462402343750e+00) (6, -3.49669408798217773438e+00) (7, -3.78404092788696289062e+00) (8, -5.86982870101928710938e+00) (9, -2.70056080818176269531e+00) (10, -1.26196011900901794434e-01) (0, -2.34181785583496093750e+01) (1, 1.18399581909179687500e+01) (2, -1.11455452442169189453e+00) (3, -2.49047309160232543945e-01) (4, 6.92813158035278320312e-01) (5, 8.49262619018554687500e+00) (6, -5.45906759798526763916e-02) (7, 1.49854797363281250000e+03) (8, -1.06695699691772460938e+00) (9, 8.61092948913574218750e+00) (10, -2.85455495119094848633e-01) (0, 7.29092502593994140625e+00) (1, 7.16790056228637695312e+00) (2, -7.62181758880615234375e-01) (3, 1.12289369106292724609e+00) (4, 7.52223610877990722656e-01) (5, -2.33067584037780761719e+00) (6, -5.98685455322265625000e+00) (7, 3.04569005966186523438e+00) (8, -7.07684326171875000000e+00) (9, -7.71938276290893554688e+00) (10, 2.90499180555343627930e-02) (0, -3.40097808837890625000e+00) (1, 5.77065896987915039062e+00) (2, -7.78362560272216796875e+00) (3, -3.22187089920043945312e+00) (4, -5.97915029525756835938e+00) (5, -2.60979413986206054688e+00) (6, -1.71707659959793090820e-01) (7, 3.86801660060882568359e-01) (8, 5.94469070434570312500e+00) (9, -7.92086505889892578125e+00) (10, -3.69147509336471557617e-01) (0, -1.78579902648925781250e+00) (1, 1.16005706787109375000e+00) (2, -8.66139411926269531250e+00) (3, -4.26820802688598632812e+00) (4, -8.91796970367431640625e+00) (5, 1.21423594653606414795e-01) (6, 2.26112914085388183594e+00) (7, -9.05657196044921875000e+00) (8, 8.30634498596191406250e+00) (9, -1.47304117679595947266e-01) (10, 3.18809342384338378906e+00) (0, 2.08229088783264160156e+00) (1, -6.97022724151611328125e+00) (2, 1.51244425773620605469e+00) (3, 4.53343820571899414062e+00) (4, -6.57674074172973632812e+00) (5, -5.68257188796997070312e+00) (6, 5.97537469863891601562e+00) (7, -4.90649080276489257812e+00) (8, 1.28630089759826660156e+00) (9, -4.18269300460815429688e+00) (10, -7.49698877334594726562e+00) (0, 3.26904845237731933594e+00) (1, -1.04517370462417602539e-01) (2, -4.63889932632446289062e+00) (3, -7.58910369873046875000e+00) (4, -5.39099121093750000000e+00) (5, 5.71305751800537109375e+00) (6, 6.61785221099853515625e+00) (7, -4.42094373703002929688e+00) (8, -2.08074808120727539062e+00) (9, -2.55963087081909179688e+00) (10, 4.98166179656982421875e+00) (0, 1.49288354492187500000e+03) (1, 2.20605835318565368652e-01) (2, 5.82939958572387695312e+00) (3, 6.59041070938110351562e+00) (4, -5.30815362930297851562e+00) (5, 6.11940431594848632812e+00) (6, -1.27029085159301757812e+00) (7, 2.23261070251464843750e+00) (8, 1.03180809020996093750e+01) (9, -2.43264889717102050781e+00) (10, 3.86138081550598144531e+00) (0, -6.30169200897216796875e+00) (1, -9.48470211029052734375e+00) (2, 6.60094022750854492188e+00) (3, -4.37744903564453125000e+00) (4, 5.92615032196044921875e+00) (5, -8.99477291107177734375e+00) (6, 5.94559621810913085938e+00) (7, -7.31304740905761718750e+00) (8, -7.72668695449829101562e+00) (9, 1.08706784248352050781e+00) (10, 2.49314236640930175781e+00) (0, -1.01971805095672607422e+00) (1, 6.71116781234741210938e+00) (2, 9.79506015777587890625e+00) (3, -2.79675579071044921875e+00) (4, 5.10299777984619140625e+00) (5, -3.51559901237487792969e+00) (6, 2.25702524185180664062e+00) (7, -6.89210605621337890625e+00) (8, 6.84492540359497070312e+00) (9, 9.05275344848632812500e+00) (10, 2.77737593650817871094e+00) (0, 3.79772043228149414062e+00) (1, 4.91952228546142578125e+00) (2, 3.70059490203857421875e+00) (3, 3.11353415250778198242e-01) (4, 3.00925469398498535156e+00) (5, -3.03089690208435058594e+00) (6, -3.57563829421997070312e+00) (7, -9.23601341247558593750e+00) (8, -6.15060234069824218750e+00) (9, -1.35404992103576660156e+00) (10, -8.95407676696777343750e+00) (0, -7.06691122055053710938e+00) (1, 5.03095436096191406250e+00) (2, 7.99984836578369140625e+00) (3, -7.37673950195312500000e+00) (4, 3.64828014373779296875e+00) (5, -8.00106906890869140625e+00) (6, -4.11241579055786132812e+00) (7, -2.56406259536743164062e+00) (8, 4.72041988372802734375e+00) (9, 2.54763865470886230469e+00) (10, 9.28827953338623046875e+00) (0, 2.88284969329833984375e+00) (1, 4.86813163757324218750e+00) (2, 2.63244557380676269531e+00) (3, 1.47448043823242187500e+01) (4, -1.62571012973785400391e+00) (5, 3.44383931159973144531e+00) (6, 5.64788293838500976562e+00) (7, -2.08955144882202148438e+00) (8, -5.03894186019897460938e+00) (9, 1.95009636878967285156e+00) (10, -4.46210432052612304688e+00) (0, -1.47500000000000000000e+03) (1, -5.11856555938720703125e+00) (2, -1.49251220703125000000e+03) (3, -1.48796325683593750000e+03) (4, -1.48330944824218750000e+03) (5, -1.29045446777343750000e+03) (6, -9.96844726562500000000e+02) (7, -1.37036755371093750000e+03) (8, -1.47843505859375000000e+03) (9, -1.47500000000000000000e+03) (10, 6.58029890060424804688e+00) (0, -6.20155096054077148438e+00) (1, 1.28919816017150878906e+00) (2, -1.12238848209381103516e+00) (3, -4.42921400070190429688e+00) (4, 5.07307577133178710938e+00) (5, 7.95905685424804687500e+00) (6, 7.87677192687988281250e+00) (7, -2.12227687239646911621e-01) (8, 4.38268184661865234375e+00) (9, 2.25650525093078613281e+00) (10, -2.96865153312683105469e+00) (0, -3.49635392427444458008e-01) (1, -1.46890497207641601562e+00) (2, 4.86655902862548828125e+00) (3, -3.06628704071044921875e+00) (4, -2.49059772491455078125e+00) (5, -5.15978097915649414062e+00) (6, -2.91045260429382324219e+00) (7, 5.46798944473266601562e+00) (8, -9.77725505828857421875e-01) (9, -2.58148694038391113281e+00) (10, -6.21079874038696289062e+00) (0, -1.44042503833770751953e+00) (1, 3.42710781097412109375e+00) (2, 1.77260959148406982422e+00) (3, -3.16973924636840820312e-01) (4, -4.57389640808105468750e+00) (5, 1.22377181053161621094e+00) (6, 2.20621299743652343750e+00) (7, 5.45275402069091796875e+00) (8, -2.12212014198303222656e+00) (9, 4.09082126617431640625e+00) (10, -1.42735767364501953125e+00) (0, 1.02183959960937500000e+03) (1, 4.73403120040893554688e+00) (2, -3.24573111534118652344e+00) (3, 3.70758509635925292969e+00) (4, 8.92533493041992187500e+00) (5, 5.98204231262207031250e+00) (6, 2.67112684249877929688e+00) (7, -4.87629324197769165039e-01) (8, -6.68860960006713867188e+00) (9, 7.75250577926635742188e+00) (10, 6.00253009796142578125e+00) (0, 2.03651332855224609375e+00) (1, -8.46920204162597656250e+00) (2, -8.90757560729980468750e+00) (3, 7.86963844299316406250e+00) (4, -2.24278974533081054688e+00) (5, 8.02355575561523437500e+00) (6, -2.51938772201538085938e+00) (7, 3.37700366973876953125e+00) (8, -9.00975131988525390625e+00) (9, 5.16206550598144531250e+00) (10, -2.48025918006896972656e+00) (0, 1.16573950195312500000e+03) (1, -7.76880621910095214844e-01) (2, 3.43036174774169921875e+00) (3, -2.31702494621276855469e+00) (4, 7.80934810638427734375e+00) (5, 2.67358601093292236328e-01) (6, 3.17712736129760742188e+00) (7, 1.21611464023590087891e+00) (8, 5.95554637908935546875e+00) (9, 2.77781772613525390625e+00) (10, 1.32147955894470214844e+00) (0, -9.15208625793457031250e+00) (1, -4.01508378982543945312e+00) (2, -4.01232957839965820312e+00) (3, 6.91803741455078125000e+00) (4, 5.42733192443847656250e+00) (5, 2.61437296867370605469e+00) (6, 8.43163490295410156250e+00) (7, 4.40049409866333007812e+00) (8, -8.76632332801818847656e-01) (9, 5.32465219497680664062e+00) (10, 5.08315801620483398438e+00) (0, -4.15482759475708007812e-01) (1, 3.98442959785461425781e+00) (2, -6.66273832321166992188e+00) (3, -6.68069720268249511719e-01) (4, -6.67634201049804687500e+00) (5, 5.10529899597167968750e+00) (6, -5.19814193248748779297e-01) (7, 7.77708339691162109375e+00) (8, -6.29589939117431640625e+00) (9, -6.00645875930786132812e+00) (10, -4.89199590682983398438e+00) (0, 4.97658348083496093750e+00) (1, -1.37061572074890136719e+00) (2, -4.63703203201293945312e+00) (3, -4.48211431503295898438e+00) (4, -6.15980195999145507812e+00) (5, 6.58509635925292968750e+00) (6, 9.19755363464355468750e+00) (7, 3.69219684600830078125e+00) (8, -2.63692378997802734375e+00) (9, -6.97332096099853515625e+00) (10, 9.68329334259033203125e+00) (0, 2.95318412780761718750e+00) (1, 7.41552305221557617188e+00) (2, 5.29532718658447265625e+00) (3, -4.15394306182861328125e+00) (4, 7.06772232055664062500e+00) (5, 2.33025357127189636230e-01) (6, 1.92894983291625976562e+00) (7, 2.53268384933471679688e+00) (8, -4.71503591537475585938e+00) (9, -5.38493251800537109375e+00) (10, -3.03919434547424316406e-01) (0, -3.21961116790771484375e+00) (1, 2.07832241058349609375e+00) (2, 2.16057300567626953125e+00) (3, -5.00840997695922851562e+00) (4, -5.57772636413574218750e+00) (5, 1.67124187946319580078e+00) (6, -2.12163543701171875000e+00) (7, -3.03837895393371582031e+00) (8, 7.09245586395263671875e+00) (9, -5.53987312316894531250e+00) (10, 2.36910367012023925781e+00) (0, -5.21815681457519531250e+00) (1, -2.72154474258422851562e+00) (2, 5.35993671417236328125e+00) (3, 5.12572956085205078125e+00) (4, -3.57371544837951660156e+00) (5, 3.61137628555297851562e-01) (6, -2.59263586997985839844e+00) (7, -7.95825541019439697266e-01) (8, 1.58306196331977844238e-01) (9, 7.51806926727294921875e+00) (10, -2.44292640686035156250e+00) (0, -4.41318178176879882812e+00) (1, -6.36641788482666015625e+00) (2, -4.52045202255249023438e+00) (3, 4.73224163055419921875e+00) (4, 6.60374307632446289062e+00) (5, 8.46544265747070312500e+00) (6, -7.65839481353759765625e+00) (7, -7.38043022155761718750e+00) (8, -2.82661944627761840820e-01) (9, -4.56383198499679565430e-01) (10, 4.98617124557495117188e+00) (0, -5.64760160446166992188e+00) (1, 4.35233736038208007812e+00) (2, 8.29697227478027343750e+00) (3, 5.94042587280273437500e+00) (4, -7.63758754730224609375e+00) (5, -2.80228948593139648438e+00) (6, 5.05681610107421875000e+00) (7, -3.69055700302124023438e+00) (8, -8.76272201538085937500e+00) (9, 7.06827878952026367188e+00) (10, 6.97379529476165771484e-01) (0, 6.02103710174560546875e+00) (1, 6.10306358337402343750e+00) (2, 5.35441780090332031250e+00) (3, -3.30338883399963378906e+00) (4, -4.56752347946166992188e+00) (5, -4.67877769470214843750e+00) (6, 5.70725870132446289062e+00) (7, -6.43456554412841796875e+00) (8, 5.27312874794006347656e-01) (9, -7.60642290115356445312e+00) (10, -4.06261062622070312500e+00) (0, 5.93441438674926757812e+00) (1, 5.73944473266601562500e+00) (2, -5.87085962295532226562e+00) (3, 6.09290838241577148438e+00) (4, 7.01021003723144531250e+00) (5, -3.45100712776184082031e+00) (6, -4.17583036422729492188e+00) (7, -1.09358346462249755859e+00) (8, -6.06451129913330078125e+00) (9, -5.42392492294311523438e-01) (10, -7.99690532684326171875e+00) (0, -7.80709028244018554688e+00) (1, -3.01654911041259765625e+00) (2, -6.10844230651855468750e+00) (3, -9.58176708221435546875e+00) (4, -7.38872432708740234375e+00) (5, -1.35802316665649414062e+00) (6, -6.37122917175292968750e+00) (7, 8.06670093536376953125e+00) (8, 7.86745405197143554688e+00) (9, -6.63520622253417968750e+00) (10, 6.49987030029296875000e+00) (0, 3.89038705825805664062e+00) (1, -1.55669236183166503906e+00) (2, 8.68381023406982421875e+00) (3, 6.85265302658081054688e+00) (4, -5.87680149078369140625e+00) (5, -7.83135414123535156250e+00) (6, -1.99805343151092529297e+00) (7, -5.14184713363647460938e+00) (8, -3.77861428260803222656e+00) (9, -5.68902301788330078125e+00) (10, 9.00924587249755859375e+00) (0, 4.13653738796710968018e-02) (1, 6.80969333648681640625e+00) (2, 6.23282337188720703125e+00) (3, 1.75824391841888427734e+00) (4, -4.17373943328857421875e+00) (5, -5.49304485321044921875e+00) (6, 3.54653167724609375000e+00) (7, 2.29419207572937011719e+00) (8, -4.58778333663940429688e+00) (9, 3.46700859069824218750e+00) (10, 8.34351158142089843750e+00) (0, -4.68355953693389892578e-01) (1, 6.51541900634765625000e+00) (2, -8.07873153686523437500e+00) (3, 3.44536352157592773438e+00) (4, -3.90875601768493652344e+00) (5, 9.11451911926269531250e+00) (6, 2.49510788917541503906e+00) (7, -1.43124055862426757812e+00) (8, 5.83463716506958007812e+00) (9, -3.13803100585937500000e+00) (10, 5.11350202560424804688e+00) (0, 5.47437334060668945312e+00) (1, -6.52777433395385742188e+00) (2, 7.18174886703491210938e+00) (3, 5.56633949279785156250e+00) (4, -9.14980947971343994141e-01) (5, -1.28108034133911132812e+01) (6, -7.82498645782470703125e+00) (7, 1.58147335052490234375e+00) (8, -7.86530208587646484375e+00) (9, -1.77188169956207275391e+00) (10, 5.28110682964324951172e-01) (0, 6.19151782989501953125e+00) (1, -7.31641292572021484375e+00) (2, 3.09058332443237304688e+00) (3, -7.63927364349365234375e+00) (4, 3.80620265007019042969e+00) (5, -3.82381057739257812500e+00) (6, -2.62945556640625000000e+00) (7, -2.69148898124694824219e+00) (8, -3.44265007972717285156e+00) (9, 3.04803276062011718750e+00) (10, -2.71417593955993652344e+00) (0, -1.96607446670532226562e+00) (1, -1.08357524871826171875e+00) (2, 2.48744559288024902344e+00) (3, -2.79952955245971679688e+00) (4, 8.61556053161621093750e+00) (5, -6.87476491928100585938e+00) (6, -5.57017135620117187500e+00) (7, -5.03631258010864257812e+00) (8, 5.44081926345825195312e+00) (9, 8.48961830139160156250e+00) (10, -3.30324649810791015625e+00) (0, -5.67902040481567382812e+00) (1, 9.20469951629638671875e+00) (2, 3.91030097007751464844e+00) (3, 5.23234081268310546875e+00) (4, 6.82871150970458984375e+00) (5, -3.67891502380371093750e+00) (6, 1.50000000000000000000e+03) (7, 9.95386779785156250000e+02) (8, 6.90916395187377929688e+00) (9, 3.30677580833435058594e+00) (10, -1.97643721103668212891e+00) (0, 3.13263463973999023438e+00) (1, 6.27074003219604492188e+00) (2, -6.13352537155151367188e+00) (3, -6.96803903579711914062e+00) (4, -5.57369852066040039062e+00) (5, 4.38808560371398925781e-01) (6, -2.57650136947631835938e+00) (7, 7.24656105041503906250e+00) (8, 8.48775672912597656250e+00) (9, 4.66395092010498046875e+00) (10, -3.53784418106079101562e+00) (0, 4.53071546554565429688e+00) (1, -7.33460474014282226562e+00) (2, -4.41185903549194335938e+00) (3, 3.20838928222656250000e+00) (4, -3.60578417778015136719e+00) (5, -1.77650034427642822266e-01) (6, -5.58895468711853027344e-01) (7, -4.15506649017333984375e+00) (8, 5.59212207794189453125e+00) (9, -5.71519708633422851562e+00) (10, -7.71507883071899414062e+00) (0, 9.17380809783935546875e-01) (1, 4.15203857421875000000e+00) (2, 7.32295846939086914062e+00) (3, 8.95699596405029296875e+00) (4, 3.89029812812805175781e+00) (5, -3.62242579460144042969e+00) (6, 6.39561414718627929688e+00) (7, -3.15429115295410156250e+00) (8, 3.57457756996154785156e+00) (9, 8.84570702910423278809e-02) (10, -4.62089824676513671875e+00) (0, 6.84062099456787109375e+00) (1, 7.43720158934593200684e-02) (2, 1.19373083114624023438e+00) (3, -6.33745715022087097168e-02) (4, 6.30676031112670898438e+00) (5, -1.04675638675689697266e+00) (6, -1.37259900569915771484e+00) (7, 2.30043840408325195312e+00) (8, 3.88213109970092773438e+00) (9, -7.38804864883422851562e+00) (10, 4.24220323562622070312e+00) (0, 8.76604747772216796875e+00) (1, 5.46125125885009765625e+00) (2, -8.71241950988769531250e+00) (3, -4.90491837263107299805e-01) (4, -4.08768892288208007812e+00) (5, -3.37325406074523925781e+00) (6, -4.11976146697998046875e+00) (7, -1.76286077499389648438e+00) (8, -2.10868787765502929688e+00) (9, 6.59701490402221679688e+00) (10, -3.05569553375244140625e+00) (0, -3.39509820938110351562e+00) (1, 5.27589368820190429688e+00) (2, -5.37680196762084960938e+00) (3, 6.68878912925720214844e-01) (4, 2.95732021331787109375e+00) (5, 1.86288237571716308594e+00) (6, -5.74244689941406250000e+00) (7, -5.40087175369262695312e+00) (8, 7.99883842468261718750e+00) (9, -6.66531753540039062500e+00) (10, 3.82476973533630371094e+00) (0, -4.31783288717269897461e-01) (1, 5.73101222515106201172e-01) (2, 1.40726363658905029297e+00) (3, 6.45174455642700195312e+00) (4, -8.34534835815429687500e+00) (5, -5.21906375885009765625e+00) (6, 1.79434263706207275391e+00) (7, -6.03550148010253906250e+00) (8, 6.80981397628784179688e+00) (9, 1.13431763648986816406e+00) (10, 7.12607002258300781250e+00) (0, 7.80715274810791015625e+00) (1, 7.13507318496704101562e+00) (2, -5.75228452682495117188e+00) (3, -3.16482806205749511719e+00) (4, -5.58580970764160156250e+00) (5, 2.20932617783546447754e-01) (6, 1.01103127002716064453e+00) (7, -8.02536582946777343750e+00) (8, 5.99840688705444335938e+00) (9, 6.78781843185424804688e+00) (10, 6.61824369430541992188e+00) (0, 7.94104003906250000000e+00) (1, -2.55526924133300781250e+00) (2, 5.05122542381286621094e-01) (3, 1.03442060947418212891e+00) (4, 3.23818922042846679688e+00) (5, 3.36470055580139160156e+00) (6, 1.62282094359397888184e-01) (7, 5.43709135055541992188e+00) (8, -1.49489557743072509766e+00) (9, -8.07295322418212890625e+00) (10, -1.68881332874298095703e+00) (0, -7.16068172454833984375e+00) (1, 7.90739631652832031250e+00) (2, 4.73848313093185424805e-01) (3, -3.80467104911804199219e+00) (4, 5.90768575668334960938e-01) (5, 2.89490723609924316406e+00) (6, -4.60283803939819335938e+00) (7, -6.93266391754150390625e+00) (8, 2.02777767181396484375e+00) (9, -6.64911651611328125000e+00) (10, -8.10720443725585937500e+00) (0, 3.94707822799682617188e+00) (1, -2.21282720565795898438e+00) (2, -4.09974670410156250000e+00) (3, -2.60003662109375000000e+00) (4, 7.29480314254760742188e+00) (5, -2.67916321754455566406e+00) (6, -7.81319665908813476562e+00) (7, 5.85685539245605468750e+00) (8, -5.21429967880249023438e+00) (9, -8.29751682281494140625e+00) (10, -3.98976874351501464844e+00) (0, 4.92866516113281250000e+00) (1, 2.64228606224060058594e+00) (2, 7.67584896087646484375e+00) (3, -3.19571971893310546875e-01) (4, -6.07619953155517578125e+00) (5, 5.53229522705078125000e+00) (6, 8.00867176055908203125e+00) (7, -5.57339954376220703125e+00) (8, -4.82179355621337890625e+00) (9, 8.55392074584960937500e+00) (10, -7.06923675537109375000e+00) (0, 2.40563201904296875000e+00) (1, -4.99411869049072265625e+00) (2, 3.03094649314880371094e+00) (3, -1.88421857357025146484e+00) (4, -1.34538066387176513672e+00) (5, 2.87874770164489746094e+00) (6, 5.87400436401367187500e+00) (7, -1.82965323328971862793e-02) (8, 2.37015986442565917969e+00) (9, 2.38561773300170898438e+00) (10, 6.11306238174438476562e+00) (0, 7.68847513198852539062e+00) (1, 4.32204389572143554688e+00) (2, 2.02015304565429687500e+00) (3, -4.54927778244018554688e+00) (4, 6.58508157730102539062e+00) (5, 4.89742636680603027344e-01) (6, -1.10849964618682861328e+00) (7, 6.73166799545288085938e+00) (8, 5.27062463760375976562e+00) (9, -5.82822179794311523438e+00) (10, 6.39035165309906005859e-01) (0, 1.65800048828125000000e+02) (1, 2.86146712303161621094e+00) (2, 6.02371826171875000000e+02) (3, 1.17968127441406250000e+03) (4, -2.18699386596679687500e+02) (5, 3.05462336540222167969e+00) (6, 2.80846252441406250000e+01) (7, 1.11156634986400604248e-01) (8, 4.80061340332031250000e+02) (9, -4.56158142089843750000e+02) (10, 6.49797725677490234375e+00) (0, 2.19488525390625000000e+00) (1, 7.54795217514038085938e+00) (2, -6.35252189636230468750e+00) (3, -4.00598669052124023438e+00) (4, 7.12498283386230468750e+00) (5, 3.08304762840270996094e+00) (6, 1.25504331588745117188e+01) (7, -5.38753032684326171875e-01) (8, 1.11903801560401916504e-01) (9, 6.56039667129516601562e+00) (10, -3.43978476524353027344e+00) (0, -3.89126157760620117188e+00) (1, -7.00873041152954101562e+00) (2, -5.35256147384643554688e+00) (3, 6.32818841934204101562e+00) (4, 1.13988645374774932861e-01) (5, -6.47287225723266601562e+00) (6, 2.83504748344421386719e+00) (7, 3.30254149436950683594e+00) (8, 1.93739962577819824219e+00) (9, -7.03276872634887695312e-01) (10, -2.68493485450744628906e+00) (0, -2.78405427932739257812e+00) (1, 8.86652851104736328125e+00) (2, 7.65373849868774414062e+00) (3, -4.09155130386352539062e+00) (4, 4.48082685470581054688e+00) (5, -6.27139866352081298828e-01) (6, -3.95173788070678710938e+00) (7, -2.82338070869445800781e+00) (8, -2.14143466949462890625e+00) (9, 6.85784053802490234375e+00) (10, -3.92904424667358398438e+00) (0, -1.43964306640625000000e+03) (1, -6.21522766113281250000e+02) (2, -4.74981784820556640625e+00) (3, -3.54546809196472167969e+00) (4, -4.24810647964477539062e+00) (5, 4.39823246002197265625e+00) (6, 4.84507894515991210938e+00) (7, -6.41634464263916015625e+00) (8, 3.13280754089355468750e+01) (9, -7.13023710250854492188e+00) (10, -4.21869802474975585938e+00) (0, 1.49987438964843750000e+03) (1, 7.29023313522338867188e+00) (2, 4.53206968307495117188e+00) (3, -2.27045178413391113281e+00) (4, 3.15757662057876586914e-01) (5, 1.49902966308593750000e+03) (6, 1.09766259765625000000e+03) (7, 7.98204374313354492188e+00) (8, 5.90566730499267578125e+00) (9, -2.19189977645874023438e+00) (10, 7.91305398941040039062e+00) (0, 3.71035265922546386719e+00) (1, 2.12465572357177734375e+00) (2, 3.80144596099853515625e+00) (3, -4.80695104598999023438e+00) (4, 4.70078754425048828125e+00) (5, -6.91400098800659179688e+00) (6, 8.38850975036621093750e-01) (7, 4.15625715255737304688e+00) (8, -4.28286361694335937500e+00) (9, -8.25926113128662109375e+00) (10, -1.00208911895751953125e+01) (0, 1.09268579483032226562e+01) (1, -1.35462561035156250000e+03) (2, -1.16890270996093750000e+03) (3, -3.54041004180908203125e+00) (4, -4.96703815460205078125e+00) (5, -2.35816502571105957031e+00) (6, -1.25721484375000000000e+03) (7, -1.18762097167968750000e+03) (8, -5.81280395507812500000e+02) (9, -1.14258050918579101562e+00) (10, -7.64081335067749023438e+00) (0, -5.93703413009643554688e+00) (1, 3.43802833557128906250e+00) (2, -7.17043220996856689453e-01) (3, 1.17587161064147949219e+00) (4, 3.67872619628906250000e+00) (5, -1.09059596061706542969e+00) (6, -1.89700973033905029297e+00) (7, -8.08729743957519531250e+00) (8, -1.82703936100006103516e+00) (9, -6.42236137390136718750e+00) (10, 1.88676798343658447266e+00) (0, -7.43040943145751953125e+00) (1, -1.21717584133148193359e+00) (2, 1.16270519793033599854e-01) (3, -3.93604373931884765625e+00) (4, -6.63918209075927734375e+00) (5, -3.54478359222412109375e+00) (6, 1.20556268692016601562e+01) (7, -6.01925802230834960938e+00) (8, -2.71034646034240722656e+00) (9, -6.38806772232055664062e+00) (10, -2.72207468748092651367e-01) (0, 1.47175192832946777344e-01) (1, -3.61082029342651367188e+00) (2, 2.16964340209960937500e+00) (3, 5.21494293212890625000e+00) (4, -1.00725555419921875000e+00) (5, 4.03376293182373046875e+00) (6, -4.71773910522460937500e+00) (7, 6.50424051284790039062e+00) (8, 3.89953804016113281250e+00) (9, -1.99906659126281738281e+00) (10, 2.01165795326232910156e+00) (0, -4.58642530441284179688e+00) (1, -8.93134021759033203125e+00) (2, -1.95079648494720458984e+00) (3, 5.59336900711059570312e+00) (4, -1.22853517532348632812e+00) (5, -2.09232330322265625000e+00) (6, -2.73098325729370117188e+00) (7, 2.89068174362182617188e+00) (8, -8.73326587677001953125e+00) (9, -1.77964702248573303223e-01) (10, -8.09286117553710937500e+00) (0, 5.57962298393249511719e-01) (1, 4.62296819686889648438e+00) (2, -7.41902112960815429688e+00) (3, 6.83274698257446289062e+00) (4, -1.43667900562286376953e+00) (5, -4.37748670578002929688e+00) (6, -4.41269588470458984375e+00) (7, -4.56383287906646728516e-01) (8, 4.64963817596435546875e+00) (9, 4.04897499084472656250e+00) (10, 4.67445468902587890625e+00) (0, -1.95104861259460449219e+00) (1, 1.23230755329132080078e+00) (2, -4.07186794281005859375e+00) (3, -5.66753387451171875000e+00) (4, 3.76777911186218261719e+00) (5, -6.69010353088378906250e+00) (6, 6.36723232269287109375e+00) (7, -5.89462041854858398438e+00) (8, 3.47576928138732910156e+00) (9, -6.15592813491821289062e+00) (10, -5.93343877792358398438e+00) (0, 5.32715940475463867188e+00) (1, 1.03681449890136718750e+01) (2, 1.98794126510620117188e+00) (3, -6.53454184532165527344e-01) (4, -2.80536937713623046875e+00) (5, -4.27288389205932617188e+00) (6, 1.23322439193725585938e+00) (7, 4.21525621414184570312e+00) (8, -3.37701177597045898438e+00) (9, 1.05463056564331054688e+01) (10, 2.28120231628417968750e+00) (0, -2.12162423133850097656e+00) (1, 6.86379194259643554688e+00) (2, 6.47103595733642578125e+00) (3, 1.85653340816497802734e+00) (4, -7.18994235992431640625e+00) (5, -2.32132244110107421875e+00) (6, -2.65280795097351074219e+00) (7, 6.03542423248291015625e+00) (8, -6.61205005645751953125e+00) (9, 4.29778861999511718750e+00) (10, -3.03266835212707519531e+00) (0, -1.61212289333343505859e+00) (1, 5.18042612075805664062e+00) (2, -6.39724111557006835938e+00) (3, -8.89297604560852050781e-01) (4, 4.16477966308593750000e+00) (5, -5.79008293151855468750e+00) (6, -5.61501312255859375000e+00) (7, 4.80169248580932617188e+00) (8, -2.10912132263183593750e+00) (9, -6.84675455093383789062e+00) (10, 5.94852352142333984375e+00) (0, 4.13242244720458984375e+00) (1, -1.37662410736083984375e+00) (2, -7.75863933563232421875e+00) (3, 8.81651687622070312500e+00) (4, 5.70443105697631835938e+00) (5, 5.99748039245605468750e+00) (6, -5.55407524108886718750e+00) (7, 5.07230806350708007812e+00) (8, -3.18297648429870605469e+00) (9, -3.13495635986328125000e-01) (10, 2.93661618232727050781e+00) (0, -5.41253328323364257812e+00) (1, -8.22059440612792968750e+00) (2, 2.30298972129821777344e+00) (3, -5.22442832589149475098e-02) (4, -1.30782008171081542969e+00) (5, 1.59392237663269042969e+00) (6, 3.28044152259826660156e+00) (7, -6.75990438461303710938e+00) (8, 6.23964452743530273438e+00) (9, -7.09222793579101562500e+00) (10, -9.54086112976074218750e+00) (0, 7.63708543777465820312e+00) (1, 1.68948972225189208984e+00) (2, 5.47694778442382812500e+00) (3, -5.86228418350219726562e+00) (4, 2.79154872894287109375e+00) (5, 1.96128177642822265625e+00) (6, -1.18494033813476562500e+00) (7, 3.90939855575561523438e+00) (8, -1.97380220890045166016e+00) (9, -4.95443010330200195312e+00) (10, -7.04856395721435546875e+00) (0, 1.04708433151245117188e+01) (1, -6.86269760131835937500e-01) (2, 6.33874988555908203125e+00) (3, -9.56491053104400634766e-01) (4, -2.15870928764343261719e+00) (5, -9.67998218536376953125e+00) (6, 4.51273298263549804688e+00) (7, 8.11795425415039062500e+00) (8, 4.70926713943481445312e+00) (9, 2.73719048500061035156e+00) (10, 1.55457725524902343750e+01) (0, -2.09911394119262695312e+00) (1, 1.47214174270629882812e-01) (2, -2.15206742286682128906e+00) (3, 5.73632717132568359375e+00) (4, -4.41898632049560546875e+00) (5, 2.45750367641448974609e-01) (6, 5.08280849456787109375e+00) (7, -2.29029822349548339844e+00) (8, 1.26644957065582275391e+00) (9, 4.86813497543334960938e+00) (10, 7.61895895004272460938e+00) (0, -3.95277619361877441406e+00) (1, 6.60178136825561523438e+00) (2, 1.26491144299507141113e-01) (3, 5.58300876617431640625e+00) (4, -3.45221376419067382812e+00) (5, -5.49897289276123046875e+00) (6, -4.77115154266357421875e+00) (7, -9.82115626335144042969e-01) (8, -3.80492496490478515625e+00) (9, 3.48769140243530273438e+00) (10, 3.11393165588378906250e+00) (0, -3.82559990882873535156e+00) (1, 9.12549877166748046875e+00) (2, -7.12802886962890625000e+00) (3, 9.10021591186523437500e+00) (4, 8.49910601973533630371e-02) (5, 7.88987445831298828125e+00) (6, -1.97761464118957519531e+00) (7, -5.89691579341888427734e-01) (8, 6.69117975234985351562e+00) (9, 7.81728804111480712891e-01) (10, 7.88216352462768554688e+00) (0, -1.32792272949218750000e+03) (1, -3.45780110359191894531e+00) (2, -4.71836242675781250000e+02) (3, 3.83017611503601074219e+00) (4, -8.29895687103271484375e+00) (5, -1.53576135635375976562e+00) (6, 7.87798833847045898438e+00) (7, 4.32148885726928710938e+00) (8, -1.06200646972656250000e+03) (9, -1.54204040765762329102e-01) (10, 1.68444204330444335938e+00) (0, 5.00749778747558593750e+00) (1, -2.23757791519165039062e+00) (2, 7.56866979598999023438e+00) (3, 7.89561319351196289062e+00) (4, 1.22092223167419433594e+00) (5, -1.00982761383056640625e+00) (6, -3.73624515533447265625e+00) (7, -5.75620651245117187500e+00) (8, -6.79708623886108398438e+00) (9, -4.98648911714553833008e-01) (10, -6.56185388565063476562e+00) (0, -3.99085950851440429688e+00) (1, -1.27559077739715576172e+00) (2, 3.68360376358032226562e+00) (3, -6.98884487152099609375e+00) (4, 5.89238595962524414062e+00) (5, -7.24801301956176757812e+00) (6, 7.07812738418579101562e+00) (7, -4.27262687683105468750e+00) (8, -9.28232574462890625000e+00) (9, -7.75766515731811523438e+00) (10, 2.12202429771423339844e+00) (0, -7.22924375534057617188e+00) (1, 3.08106970787048339844e+00) (2, 1.74702978134155273438e+00) (3, -6.99412003159523010254e-02) (4, 6.45488739013671875000e+00) (5, -2.82299065589904785156e+00) (6, 4.34514856338500976562e+00) (7, -1.49904906749725341797e+00) (8, -9.18077564239501953125e+00) (9, 1.24609291553497314453e+00) (10, 3.93093395233154296875e+00) (0, 7.16442251205444335938e+00) (1, 7.32020497322082519531e-01) (2, -4.78643608093261718750e+00) (3, -2.51156568527221679688e+00) (4, 6.03167772293090820312e+00) (5, -1.11819779872894287109e+00) (6, -4.68961685895919799805e-01) (7, -3.25740289688110351562e+00) (8, 1.09162890911102294922e+00) (9, 1.97695648670196533203e+00) (10, 5.45022201538085937500e+00) (0, -3.94756007194519042969e+00) (1, 1.72138965129852294922e+00) (2, 6.64630651473999023438e-01) (3, -1.73193156719207763672e+00) (4, -1.20765960216522216797e+00) (5, 6.49988698959350585938e+00) (6, -1.36442828178405761719e+00) (7, 3.76948803663253784180e-01) (8, -5.41151881217956542969e-01) (9, 2.56218165159225463867e-01) (10, -4.14225149154663085938e+00) (0, -6.61524391174316406250e+00) (1, -7.82466936111450195312e+00) (2, -3.06470704078674316406e+00) (3, -3.25608551502227783203e-01) (4, 6.06315898895263671875e+00) (5, 3.87198638916015625000e+00) (6, -3.07076096534729003906e-01) (7, -1.67460751533508300781e+00) (8, -1.71951103210449218750e+00) (9, -7.47087001800537109375e-01) (10, 8.04399394989013671875e+00) (0, 5.99513626098632812500e+00) (1, 4.24781703948974609375e+00) (2, 5.12388467788696289062e+00) (3, -6.89597129821777343750e+00) (4, -5.07596492767333984375e+00) (5, -6.53840637207031250000e+00) (6, 3.34246110916137695312e+00) (7, 6.22713994979858398438e+00) (8, 6.71566915512084960938e+00) (9, 8.87111186981201171875e+00) (10, 5.28394162654876708984e-01) (0, -1.25120961666107177734e+00) (1, -1.90846860408782958984e+00) (2, -5.32693767547607421875e+00) (3, -2.49000453948974609375e+00) (4, 5.22892856597900390625e+00) (5, 1.06784164905548095703e+00) (6, 6.74528217315673828125e+00) (7, -3.40284037590026855469e+00) (8, 6.45065832138061523438e+00) (9, 6.09842729568481445312e+00) (10, -3.67562031745910644531e+00) (0, -7.55338573455810546875e+00) (1, -1.95085179805755615234e+00) (2, -5.13071250915527343750e+00) (3, 4.84303617477416992188e+00) (4, 5.23785114288330078125e+00) (5, -3.07708883285522460938e+00) (6, -5.14951276779174804688e+00) (7, -5.09918689727783203125e+00) (8, -3.28752326965332031250e+00) (9, 6.96756553649902343750e+00) (10, 7.15900325775146484375e+00) (0, -4.53098392486572265625e+00) (1, 9.33486843109130859375e+00) (2, -6.72928094863891601562e+00) (3, -4.02302169799804687500e+00) (4, 2.21650791168212890625e+00) (5, 7.92513942718505859375e+00) (6, -6.69931077957153320312e+00) (7, 2.11147689819335937500e+00) (8, -2.37194132804870605469e+00) (9, 1.53687739372253417969e+00) (10, 8.46485710144042968750e+00) (0, -6.56755387783050537109e-01) (1, 7.78840875625610351562e+00) (2, 4.67014217376708984375e+00) (3, 8.59383487701416015625e+00) (4, 5.69669961929321289062e+00) (5, -6.58164691925048828125e+00) (6, 7.26703834533691406250e+00) (7, 6.04414939880371093750e+00) (8, -2.62924218177795410156e+00) (9, -7.61110162734985351562e+00) (10, -5.99264574050903320312e+00) (0, -1.63767325878143310547e+00) (1, 7.22557210922241210938e+00) (2, 7.49356985092163085938e+00) (3, 7.21752882003784179688e+00) (4, -5.87963438034057617188e+00) (5, -5.50111150741577148438e+00) (6, -3.75702476501464843750e+00) (7, 9.57242965698242187500e+00) (8, -6.61091947555541992188e+00) (9, -2.98121047019958496094e+00) (10, 1.07336158752441406250e+01) (0, -3.19572353363037109375e+01) (1, -1.23434221744537353516e+00) (2, 2.85505557060241699219e+00) (3, -6.93190145492553710938e+00) (4, -2.92185693979263305664e-02) (5, -4.31718254089355468750e+00) (6, -6.12012207508087158203e-01) (7, -7.61392498016357421875e+00) (8, -4.18462800979614257812e+00) (9, 6.52469301223754882812e+00) (10, 8.79119682312011718750e+00) (0, 8.86510753631591796875e+00) (1, 5.53979253768920898438e+00) (2, 3.16581225395202636719e+00) (3, 7.58734035491943359375e+00) (4, 3.33878731727600097656e+00) (5, -5.38476645946502685547e-01) (6, 1.47201220703125000000e+03) (7, 1.50000000000000000000e+03) (8, 1.50000000000000000000e+03) (9, 2.36465930938720703125e+00) (10, 1.99708056449890136719e+00) (0, 7.21029043197631835938e+00) (1, -9.03677761554718017578e-01) (2, -2.24918389320373535156e+00) (3, 3.35008651018142700195e-01) (4, 2.02970480918884277344e+00) (5, 2.47514557838439941406e+00) (6, 3.24520349502563476562e+00) (7, 3.42255026102066040039e-01) (8, 1.54130935668945312500e+00) (9, 5.94554042816162109375e+00) (10, -3.97317123413085937500e+00) (0, 1.10266494750976562500e+01) (1, 7.00988197326660156250e+00) (2, 5.03709840774536132812e+00) (3, -8.96673500537872314453e-01) (4, -1.62194323539733886719e+00) (5, 3.97568845748901367188e+00) (6, 4.14806461334228515625e+00) (7, -3.85873961448669433594e+00) (8, 5.31232309341430664062e+00) (9, 2.71259808540344238281e+00) (10, -6.68827390670776367188e+00) (0, 3.31844955682754516602e-01) (1, 1.89541840553283691406e+00) (2, 4.48826694488525390625e+00) (3, 7.75896406173706054688e+00) (4, 6.20845222473144531250e+00) (5, 1.17056369781494140625e+00) (6, 1.16550648212432861328e+00) (7, -1.00631043314933776855e-02) (8, -6.41705083847045898438e+00) (9, -7.47589635848999023438e+00) (10, -8.88243198394775390625e+00) (0, 6.32997131347656250000e+00) (1, 5.54723119735717773438e+00) (2, 3.66276502609252929688e+00) (3, 4.99643981456756591797e-01) (4, -4.40378040075302124023e-02) (5, 1.38001370429992675781e+00) (6, -5.32457208633422851562e+00) (7, -1.28164899349212646484e+00) (8, 6.38930320739746093750e+00) (9, -7.95813143253326416016e-01) (10, -3.22300481796264648438e+00) (0, 2.10254430770874023438e+00) (1, 8.08420085906982421875e+00) (2, 3.55110526084899902344e+00) (3, -2.49114418029785156250e+00) (4, 3.42708086967468261719e+00) (5, 8.30694103240966796875e+00) (6, -6.67218255996704101562e+00) (7, -1.19959902763366699219e+00) (8, -7.71556997299194335938e+00) (9, 1.79217231273651123047e+00) (10, 8.59655094146728515625e+00) (0, 6.55312299728393554688e+00) (1, 2.20381999015808105469e+00) (2, 5.91561698913574218750e+00) (3, -5.54248392581939697266e-01) (4, -4.11288595199584960938e+00) (5, -1.95677745342254638672e+00) (6, 1.67006075382232666016e+00) (7, -4.31030321121215820312e+00) (8, -1.81556677818298339844e+00) (9, -1.85168147087097167969e+00) (10, -8.89917945861816406250e+00) (0, -7.94953060150146484375e+00) (1, 7.83687305450439453125e+00) (2, -1.51097908616065979004e-01) (3, 7.55539834499359130859e-01) (4, -8.12232685089111328125e+00) (5, 5.38260555267333984375e+00) (6, -1.84125339984893798828e+00) (7, -1.66132998466491699219e+00) (8, -7.58176040649414062500e+00) (9, 7.72008848190307617188e+00) (10, -2.20814990997314453125e+00) (0, 3.67946791648864746094e+00) (1, -3.67600107192993164062e+00) (2, -8.61839580535888671875e+00) (3, 2.74232530593872070312e+00) (4, -2.62885022163391113281e+00) (5, -2.52166771888732910156e+00) (6, 4.32805585861206054688e+00) (7, -8.81145763397216796875e+00) (8, -2.46235752105712890625e+00) (9, 1.93555319309234619141e+00) (10, 1.12613594532012939453e+00) (0, -5.63198328018188476562e+00) (1, -9.09470081329345703125e+00) (2, 3.96422696113586425781e+00) (3, -5.32254517078399658203e-01) (4, 1.05887436866760253906e+00) (5, -7.20305728912353515625e+00) (6, 5.67637586593627929688e+00) (7, -8.61893749237060546875e+00) (8, -8.35742855072021484375e+00) (9, 6.62206077575683593750e+00) (10, 6.38056850433349609375e+00) (0, 2.02897119522094726562e+00) (1, -1.93443931639194488525e-02) (2, 7.62738466262817382812e+00) (3, -2.28637528419494628906e+00) (4, 6.37919425964355468750e+00) (5, -2.36868262290954589844e+00) (6, 8.43906104564666748047e-02) (7, 3.80559897422790527344e+00) (8, 4.00921726226806640625e+00) (9, -6.47481870651245117188e+00) (10, 9.45404148101806640625e+00) (0, 3.86799240112304687500e+00) (1, 4.68389511108398437500e+00) (2, -1.59031009674072265625e+00) (3, -7.23603010177612304688e+00) (4, -5.53063452243804931641e-01) (5, -6.76014661788940429688e-01) (6, -1.82633090019226074219e+00) (7, -6.58204078674316406250e+00) (8, 9.80567359924316406250e+00) (9, 4.85516965389251708984e-01) (10, -6.84274959564208984375e+00) (0, 1.18776025772094726562e+01) (1, -8.27007198333740234375e+00) (2, 5.48031234741210937500e+00) (3, 6.27117967605590820312e+00) (4, 9.75807666778564453125e+00) (5, 5.99902296066284179688e+00) (6, -1.13417387008666992188e+01) (7, 6.75678253173828125000e+00) (8, 7.51503610610961914062e+00) (9, -6.33826136589050292969e-01) (10, -2.99619102478027343750e+00) (0, 1.07211828231811523438e+00) (1, 3.51600193977355957031e+00) (2, -6.69221544265747070312e+00) (3, -7.34358119964599609375e+00) (4, -7.42664432525634765625e+00) (5, 4.28995704650878906250e+00) (6, 4.93181705474853515625e+00) (7, -6.38492202758789062500e+00) (8, 4.71939849853515625000e+00) (9, 5.30041575431823730469e-01) (10, 6.22408151626586914062e+00) (0, -5.06351661682128906250e+00) (1, 3.07141184806823730469e-01) (2, -3.16739463806152343750e+00) (3, 1.06442356109619140625e+00) (4, 7.93475866317749023438e+00) (5, -2.84038996696472167969e+00) (6, 5.24744093418121337891e-01) (7, -4.64565485715866088867e-01) (8, -8.35242867469787597656e-01) (9, -3.10540461540222167969e+00) (10, 6.20996296405792236328e-01) (0, -4.32904577255249023438e+00) (1, -4.92562675476074218750e+00) (2, 1.43964648246765136719e+00) (3, -7.69132375717163085938e+00) (4, -6.56024742126464843750e+00) (5, -1.19380378723144531250e+00) (6, 4.81598567962646484375e+00) (7, 1.41695487499237060547e+00) (8, 4.38181829452514648438e+00) (9, 1.30945479869842529297e+00) (10, -2.46511769294738769531e+00) (0, 4.03700828552246093750e+00) (1, 1.50000000000000000000e+03) (2, -1.84425818920135498047e+00) (3, 1.48612329101562500000e+03) (4, 1.43725292968750000000e+03) (5, 1.49960998535156250000e+03) (6, 1.50000000000000000000e+03) (7, 1.37336645507812500000e+03) (8, 2.09502160549163818359e-01) (9, 1.22686218261718750000e+03) (10, 3.86130586266517639160e-02) (0, 6.65812301635742187500e+00) (1, -4.86735296249389648438e+00) (2, -6.68885171413421630859e-01) (3, -3.69254899024963378906e+00) (4, 5.87470674514770507812e+00) (5, 8.09151172637939453125e+00) (6, 3.61877346038818359375e+00) (7, -5.54786825180053710938e+00) (8, 1.22137951850891113281e+00) (9, 8.38834381103515625000e+00) (10, -2.59424924850463867188e+00) (0, 5.86049346923828125000e+01) (1, 9.37467288970947265625e+00) (2, 6.58971667289733886719e-01) (3, 3.95350120961666107178e-02) (4, 5.91468667984008789062e+00) (5, -1.26432638168334960938e+01) (6, 2.01511263847351074219e+00) (7, -2.87449359893798828125e-01) (8, 1.82692420482635498047e+00) (9, 9.46092319488525390625e+00) (10, 1.23405513763427734375e+01) (0, 4.83016586303710937500e+00) (1, 2.59374952316284179688e+00) (2, -1.92906439304351806641e+00) (3, -2.04459953308105468750e+00) (4, -7.04874420166015625000e+00) (5, -3.49308681488037109375e+00) (6, 7.61572122573852539062e+00) (7, 5.15500783920288085938e+00) (8, 5.94271707534790039062e+00) (9, 5.69672775268554687500e+00) (10, -8.10891914367675781250e+00) (0, -9.06536042690277099609e-01) (1, -7.68625259399414062500e+00) (2, 6.42383289337158203125e+00) (3, -4.24536228179931640625e+00) (4, 4.58390855789184570312e+00) (5, -8.56555080413818359375e+00) (6, 5.46481513977050781250e+00) (7, 3.22719216346740722656e+00) (8, -1.50925576686859130859e+00) (9, 6.64891386032104492188e+00) (10, 2.35798072814941406250e+00) (0, 1.03003173828125000000e+02) (1, -7.72405147552490234375e-01) (2, -8.47597301006317138672e-01) (3, 6.38730239868164062500e+00) (4, 1.95805478096008300781e+00) (5, 5.93582820892333984375e+00) (6, -6.83267164230346679688e+00) (7, 7.41098556518554687500e+01) (8, 3.03262996673583984375e+00) (9, 8.99787616729736328125e+00) (10, -4.66178846359252929688e+00) (0, 4.23849975585937500000e+02) (1, -8.04802734375000000000e+02) (2, -5.69973802566528320312e+00) (3, -2.15239953994750976562e+00) (4, -3.87476754188537597656e+00) (5, -7.58069324493408203125e+00) (6, -6.13810539245605468750e+00) (7, -1.50000000000000000000e+03) (8, -6.92730379104614257812e+00) (9, 1.23146921396255493164e-01) (10, -5.81265068054199218750e+00) (0, 8.11721134185791015625e+00) (1, 5.06612014770507812500e+00) (2, 7.22259902954101562500e+00) (3, -8.61153984069824218750e+00) (4, 2.17477679252624511719e+00) (5, 1.94467806816101074219e+00) (6, -1.06482648849487304688e+00) (7, 1.54633796215057373047e+00) (8, -4.34981393814086914062e+00) (9, -3.43589258193969726562e+00) (10, 8.68896865844726562500e+00) (0, 6.62459707260131835938e+00) (1, -4.54828071594238281250e+01) (2, 3.97866034507751464844e+00) (3, -1.39651167392730712891e+00) (4, 1.86984920501708984375e+01) (5, -5.33992862701416015625e+00) (6, -9.74952220916748046875e+00) (7, -3.03574204444885253906e+00) (8, 2.30275049805641174316e-01) (9, -5.67041683197021484375e+00) (10, 8.64318847656250000000e+00) (0, -7.30599451065063476562e+00) (1, -2.86524105072021484375e+00) (2, 7.76753234863281250000e+00) (3, 9.39813256263732910156e-01) (4, -7.67526850104331970215e-02) (5, 8.60501575469970703125e+00) (6, 2.81266307830810546875e+00) (7, 8.63282585144042968750e+00) (8, -6.27202129364013671875e+00) (9, 2.32631182670593261719e+00) (10, 4.67303133010864257812e+00) (0, 7.52191209793090820312e+00) (1, 1.69334554672241210938e+00) (2, -1.41121077537536621094e+00) (3, 1.74747979640960693359e+00) (4, -7.28231382369995117188e+00) (5, -8.79306697845458984375e+00) (6, 6.19109773635864257812e+00) (7, -1.58884298801422119141e+00) (8, 7.90147876739501953125e+00) (9, 1.47704970836639404297e+00) (10, 1.80273211002349853516e+00) (0, 2.46176719665527343750e-01) (1, 1.50000000000000000000e+03) (2, 1.01491613388061523438e+01) (3, 2.09752464294433593750e+00) (4, 5.36641407012939453125e+00) (5, 1.49482434082031250000e+03) (6, 5.69917106628417968750e+01) (7, 1.02645139694213867188e+01) (8, 8.59729766845703125000e+00) (9, -3.14966392517089843750e+00) (10, -3.54474520683288574219e+00) (0, 5.11220169067382812500e+00) (1, 4.06442022323608398438e+00) (2, 5.26044893264770507812e+00) (3, 1.88322508335113525391e+00) (4, -1.73226344585418701172e+00) (5, 4.63273239135742187500e+00) (6, 4.51244115829467773438e+00) (7, -8.12174129486083984375e+00) (8, -6.81947842240333557129e-02) (9, 1.33622908592224121094e+00) (10, 2.71892666816711425781e+00) (0, 4.76403474807739257812e+00) (1, -2.67175555229187011719e+00) (2, 4.47370910644531250000e+00) (3, 5.13810348510742187500e+00) (4, -5.01170635223388671875e+00) (5, -6.53231716156005859375e+00) (6, 6.96362733840942382812e+00) (7, 5.32251882553100585938e+00) (8, 4.35066127777099609375e+00) (9, -5.89454472064971923828e-01) (10, 8.03212928771972656250e+00) (0, 4.37767791748046875000e+00) (1, -6.13562154769897460938e+00) (2, 6.18673706054687500000e+00) (3, 8.72584056854248046875e+00) (4, 5.82774925231933593750e+00) (5, 4.47691583633422851562e+00) (6, 6.74639749526977539062e+00) (7, -6.35744762420654296875e+00) (8, -7.14934206008911132812e+00) (9, 2.81114101409912109375e+00) (10, 8.21616649627685546875e+00) (0, 6.08285331726074218750e+00) (1, -1.25540002441406250000e+03) (2, -1.17382507324218750000e+03) (3, 2.03970980644226074219e+00) (4, -4.88263610839843750000e+02) (5, -4.35700893402099609375e+00) (6, -6.39551019668579101562e+00) (7, -5.15557193756103515625e+00) (8, -5.69721460342407226562e+00) (9, -8.29424858093261718750e+00) (10, -4.23144960403442382812e+00) (0, 5.18301486968994140625e+00) (1, 7.75385904312133789062e+00) (2, 5.47435998916625976562e-01) (3, 7.48745822906494140625e+00) (4, 7.66165924072265625000e+00) (5, -2.10883188247680664062e+00) (6, 3.11009478569030761719e+00) (7, -2.94344925880432128906e+00) (8, -6.92586326599121093750e+00) (9, -2.01867413520812988281e+00) (10, -1.80124664306640625000e+00) (0, -1.38708438873291015625e+01) (1, -2.64323353767395019531e+00) (2, -4.94206523895263671875e+00) (3, -2.76343047618865966797e-01) (4, -5.48439264297485351562e+00) (5, -3.07989406585693359375e+00) (6, 3.96272003650665283203e-01) (7, 1.02947702407836914062e+01) (8, -5.66517782211303710938e+00) (9, -3.35793781280517578125e+00) (10, -6.40121507644653320312e+00) (0, -5.33447074890136718750e+00) (1, 4.07627868652343750000e+00) (2, -4.17819499969482421875e+00) (3, 9.16837501525878906250e+00) (4, 6.47679615020751953125e+00) (5, -5.82947492599487304688e+00) (6, 2.92948126792907714844e+00) (7, 5.85275983810424804688e+00) (8, -1.96448898315429687500e+00) (9, 9.88215625286102294922e-01) (10, 1.06977729797363281250e+01) (0, -1.49996643066406250000e+03) (1, -1.39604370117187500000e+03) (2, 5.07675933837890625000e+00) (3, -4.48065996170043945312e+00) (4, -6.56244421005249023438e+00) (5, -7.94799232482910156250e+00) (6, -3.83776824951171875000e+02) (7, 5.64469635486602783203e-01) (8, -6.55613660812377929688e-01) (9, -7.37885379791259765625e+00) (10, 4.32368612289428710938e+00) (0, 8.01235496997833251953e-01) (1, 6.16295002400875091553e-02) (2, 6.26395511627197265625e+00) (3, 5.77352046966552734375e+00) (4, 9.08544635772705078125e+00) (5, 4.18768739700317382812e+00) (6, 8.66032600402832031250e+00) (7, -1.25844955444335937500e+01) (8, 5.15911912918090820312e+00) (9, 6.20931945741176605225e-03) (10, -6.67625188827514648438e+00) (0, -6.72548198699951171875e+00) (1, -8.50265808105468750000e+02) (2, -8.26358032226562500000e+00) (3, -5.56900739669799804688e+00) (4, -1.42364465332031250000e+03) (5, -1.11882486343383789062e+01) (6, 1.24412322998046875000e+02) (7, 4.28091716766357421875e+00) (8, 7.68145799636840820312e+00) (9, -1.46156802773475646973e-01) (10, -4.53026294708251953125e+00) (0, 2.36937665939331054688e+00) (1, 5.09783172607421875000e+00) (2, -2.49197602272033691406e+00) (3, 2.80345177650451660156e+00) (4, -8.23474407196044921875e+00) (5, 4.24664020538330078125e+00) (6, -7.46401119232177734375e+00) (7, -6.42202138900756835938e+00) (8, -1.53914904594421386719e+00) (9, 1.50846374034881591797e+00) (10, 2.00776052474975585938e+00) (0, -2.77628511190414428711e-01) (1, 3.68427872657775878906e+00) (2, 2.56223988533020019531e+00) (3, 2.06399841308593750000e+01) (4, -1.55165219306945800781e+00) (5, 8.09298801422119140625e+00) (6, -1.41294455528259277344e+00) (7, 7.82273292541503906250e+00) (8, -8.11055374145507812500e+00) (9, 4.73911428451538085938e+00) (10, -5.19391679763793945312e+00) (0, -7.26902341842651367188e+00) (1, 7.70679330825805664062e+00) (2, -3.59154844284057617188e+00) (3, -6.80914640426635742188e+00) (4, 3.38354110717773437500e-02) (5, -8.63129043579101562500e+00) (6, 7.64894485473632812500e+00) (7, -9.62943649291992187500e+00) (8, -3.53699302673339843750e+00) (9, 1.41254591941833496094e+00) (10, 4.58430624008178710938e+00) (0, 2.36779379844665527344e+00) (1, -4.54879140853881835938e+00) (2, 5.07480001449584960938e+00) (3, -4.09265136718750000000e+00) (4, -2.80396580696105957031e+00) (5, 6.99901628494262695312e+00) (6, 5.22018766403198242188e+00) (7, 6.74856805801391601562e+00) (8, 7.82309100031852722168e-02) (9, -6.35841751098632812500e+00) (10, -4.19451045989990234375e+00) (0, -7.88444566726684570312e+00) (1, -5.23636531829833984375e+00) (2, 2.68915987014770507812e+00) (3, 9.45470809936523437500e+00) (4, 5.91554021835327148438e+00) (5, 7.95701071619987487793e-02) (6, 8.44422245025634765625e+00) (7, 1.79645216464996337891e+00) (8, 2.86837911605834960938e+00) (9, -7.78262853622436523438e+00) (10, 9.87588167190551757812e-02) (0, 9.57900238037109375000e+00) (1, -3.56627917289733886719e+00) (2, -7.80771160125732421875e+00) (3, -6.89599514007568359375e+00) (4, -5.31421566009521484375e+00) (5, -6.88621902465820312500e+00) (6, -1.66948783397674560547e+00) (7, 5.43263244628906250000e+00) (8, 6.82865810394287109375e+00) (9, 9.23130989074707031250e+00) (10, -7.09870100021362304688e+00) (0, 4.49779701232910156250e+00) (1, -2.57270075380802154541e-02) (2, -1.50911152362823486328e-01) (3, 2.81203818321228027344e+00) (4, -6.16788721084594726562e+00) (5, -3.66448092460632324219e+00) (6, -3.83294820785522460938e+00) (7, -1.91497623920440673828e+00) (8, 1.54739069938659667969e+00) (9, -4.40653753280639648438e+00) (10, -8.41109871864318847656e-01) (0, -1.69620037078857421875e+00) (1, -1.55233466625213623047e+00) (2, -5.60266542434692382812e+00) (3, 4.20556688308715820312e+00) (4, -9.49113965034484863281e-01) (5, 4.98134613037109375000e+00) (6, -6.04833297729492187500e+01) (7, -8.47099426269531250000e+02) (8, -2.61259150505065917969e+00) (9, -2.89623284339904785156e+00) (10, 4.57828903198242187500e+01) (0, 2.41061568260192871094e+00) (1, 1.11962997913360595703e+00) (2, 4.02770662307739257812e+00) (3, -1.74437284469604492188e+00) (4, 8.13543605804443359375e+00) (5, -2.09985542297363281250e+00) (6, -5.01836013793945312500e+00) (7, 6.27873468399047851562e+00) (8, -1.31231987476348876953e+00) (9, 7.30175113677978515625e+00) (10, -3.01697063446044921875e+00) (0, -1.70904338359832763672e+00) (1, 1.07359981536865234375e+00) (2, -5.31227588653564453125e+00) (3, -5.65875053405761718750e+00) (4, 1.85994768142700195312e+00) (5, 5.83312213420867919922e-01) (6, 3.78117132186889648438e+00) (7, 7.28931474685668945312e+00) (8, 5.64635276794433593750e+00) (9, 7.49343109130859375000e+00) (10, -7.90218544006347656250e+00) (0, 6.77303314208984375000e+00) (1, 2.30694866180419921875e+00) (2, -3.51336050033569335938e+00) (3, 3.42092514038085937500e+00) (4, -8.73836708068847656250e+00) (5, 9.91536259651184082031e-01) (6, 6.17609977722167968750e+00) (7, -1.35362422466278076172e+00) (8, -8.71101856231689453125e+00) (9, -4.87027406692504882812e+00) (10, 4.41646242141723632812e+00) (0, 2.21857309341430664062e+00) (1, 6.76353573799133300781e-01) (2, 2.09195876121520996094e+00) (3, -6.73273277282714843750e+00) (4, 3.76072525978088378906e+00) (5, -5.40139973163604736328e-01) (6, 6.26893341541290283203e-02) (7, 8.62768709659576416016e-01) (8, -6.46689487621188163757e-03) (9, -2.21343851089477539062e+00) (10, -8.35079574584960937500e+00) (0, 1.61259078979492187500e+00) (1, 8.81869673728942871094e-01) (2, 1.71581709384918212891e+00) (3, -6.63317584991455078125e+00) (4, -3.87124586105346679688e+00) (5, -7.22371101379394531250e-01) (6, 7.00123500823974609375e+00) (7, -4.23840713500976562500e+00) (8, 5.70542275905609130859e-01) (9, 7.30270767211914062500e+00) (10, 7.32011604309082031250e+00) (0, 5.53049278259277343750e+00) (1, -1.89380049705505371094e-01) (2, 6.05852270126342773438e+00) (3, -2.86921572685241699219e+00) (4, 1.64780184626579284668e-01) (5, -3.32897329330444335938e+00) (6, -3.14120483398437500000e+00) (7, 3.51628017425537109375e+00) (8, -5.16177415847778320312e+00) (9, -8.64238548278808593750e+00) (10, -6.27013826370239257812e+00) (0, 1.44179582595825195312e+01) (1, -7.27231121063232421875e+00) (2, 8.96245002746582031250e+00) (3, 7.29452758789062500000e+02) (4, 1.19555330276489257812e+00) (5, 1.49484851074218750000e+03) (6, 6.68199920654296875000e+00) (7, 1.08386812210083007812e+01) (8, 1.16529297828674316406e+00) (9, -5.20037746429443359375e+00) (10, -2.56770163774490356445e-01) (0, -6.31809759140014648438e+00) (1, 2.47387862205505371094e+00) (2, 5.08118724822998046875e+00) (3, 2.61128640174865722656e+00) (4, 1.97882783412933349609e+00) (5, -8.43682956695556640625e+00) (6, -5.48002195358276367188e+00) (7, -2.79472589492797851562e-01) (8, 7.81279802322387695312e+00) (9, -8.55884456634521484375e+00) (10, -7.20834255218505859375e+00) (0, 1.83983551025390625000e+02) (1, 2.98540163785219192505e-02) (2, 3.01186275482177734375e+00) (3, -2.74803352355957031250e+00) (4, 4.43739271163940429688e+00) (5, -1.10911190509796142578e+00) (6, -6.25227451324462890625e+00) (7, 9.37836170196533203125e+00) (8, 3.88541007041931152344e+00) (9, -1.15235102176666259766e+00) (10, 8.20969200134277343750e+00) (0, 3.74573290348052978516e-01) (1, 2.66780281066894531250e+00) (2, -7.80011773109436035156e-01) (3, -8.40937709808349609375e+00) (4, -9.83049571514129638672e-01) (5, -3.07040452957153320312e+00) (6, 6.04684174060821533203e-01) (7, 7.39075899124145507812e+00) (8, 5.05006265640258789062e+00) (9, 2.60145354270935058594e+00) (10, 6.30412399768829345703e-01) (0, 1.12484025955200195312e+00) (1, -4.41299057006835937500e+00) (2, -7.09706544876098632812e+00) (3, 2.93612211942672729492e-01) (4, -1.76574742794036865234e+00) (5, 1.01332473754882812500e+00) (6, -5.12416064739227294922e-01) (7, -1.08247756958007812500e+00) (8, 2.61193442344665527344e+00) (9, -2.33135938644409179688e+00) (10, 6.88795232772827148438e+00) (0, -2.39823436737060546875e+00) (1, 2.92513370513916015625e+00) (2, 4.66691303253173828125e+00) (3, 3.09882903099060058594e+00) (4, -6.11323165893554687500e+00) (5, 2.69976353645324707031e+00) (6, -4.11839056015014648438e+00) (7, 6.61279261112213134766e-01) (8, 2.15280246734619140625e+00) (9, 4.91682243347167968750e+00) (10, -5.44314193725585937500e+00) (0, -9.35301589965820312500e+00) (1, 6.29476356506347656250e+00) (2, 2.18610858917236328125e+00) (3, -2.57287383079528808594e+00) (4, -4.21856880187988281250e-01) (5, 1.02196127176284790039e-01) (6, -5.33266639709472656250e+00) (7, -7.90517807006835937500e+00) (8, -1.07477836608886718750e+01) (9, 5.70771265029907226562e+00) (10, -3.40680623054504394531e+00) (0, -4.53762578964233398438e+00) (1, -2.91996765136718750000e+00) (2, 5.05835628509521484375e+00) (3, 5.15033292770385742188e+00) (4, 6.02788972854614257812e+00) (5, -3.85921812057495117188e+00) (6, 1.27623621374368667603e-02) (7, -4.42933464050292968750e+00) (8, -5.16141510009765625000e+00) (9, 5.20843076705932617188e+00) (10, 7.59011983871459960938e+00) (0, 7.11014223098754882812e+00) (1, -1.73717010021209716797e+00) (2, -8.59148025512695312500e+00) (3, 1.12303328514099121094e+00) (4, 3.32773447036743164062e+00) (5, 1.95855510234832763672e+00) (6, -6.42747926712036132812e+00) (7, 8.41800391674041748047e-01) (8, 4.35236692428588867188e+00) (9, -5.29315376281738281250e+00) (10, -1.51182472705841064453e+00) (0, -1.43755763769149780273e-01) (1, 4.35205078125000000000e+00) (2, 7.28028869628906250000e+00) (3, -8.32697486877441406250e+00) (4, 6.13617181777954101562e+00) (5, 7.69716024398803710938e+00) (6, -5.28702926635742187500e+00) (7, 2.86106920242309570312e+00) (8, -3.46946144104003906250e+00) (9, -1.57218778133392333984e+00) (10, 8.71208858489990234375e+00) (0, -7.73831605911254882812e+00) (1, -6.06657934188842773438e+00) (2, 6.20015621185302734375e+00) (3, -2.76845216751098632812e+00) (4, 3.34511280059814453125e+00) (5, -7.04132509231567382812e+00) (6, 5.13812899589538574219e-01) (7, -1.14698851108551025391e+00) (8, 8.72462368011474609375e+00) (9, -6.94548308849334716797e-01) (10, 6.40003204345703125000e+00) (0, -1.90422177314758300781e+00) (1, -1.44428125000000000000e+03) (2, -1.83740985393524169922e+00) (3, 2.56862306594848632812e+00) (4, -3.37970886230468750000e+01) (5, -6.90239667892456054688e+00) (6, -6.85880243778228759766e-01) (7, -1.65991950035095214844e+00) (8, -5.21268129348754882812e-01) (9, 7.21932888031005859375e+00) (10, -8.67792701721191406250e+00) (0, -1.93676185607910156250e+00) (1, 6.79689264297485351562e+00) (2, 5.77910137176513671875e+00) (3, -3.03999590873718261719e+00) (4, -7.20910835266113281250e+00) (5, 1.45919397473335266113e-01) (6, 2.47887325286865234375e+00) (7, -1.55228710174560546875e+00) (8, 6.94014271721243858337e-03) (9, 4.64857864379882812500e+00) (10, 1.82186019420623779297e+00) (0, 1.81824600696563720703e+00) (1, -9.98601150512695312500e+00) (2, -2.19121530652046203613e-01) (3, -5.15723705291748046875e+00) (4, 2.26585865020751953125e+00) (5, 5.35412549972534179688e+00) (6, -2.98506984710693359375e+01) (7, -6.71472024917602539062e+00) (8, 2.86593049764633178711e-01) (9, -3.45965698361396789551e-02) (10, -4.92905187606811523438e+00) (0, -5.90878343582153320312e+00) (1, -6.79502248764038085938e+00) (2, -3.91706061363220214844e+00) (3, -3.72030234336853027344e+00) (4, 1.11083006858825683594e+00) (5, 3.49164223670959472656e+00) (6, 4.30522108078002929688e+00) (7, -3.58389943838119506836e-01) (8, 3.86678528785705566406e+00) (9, -5.89895534515380859375e+00) (10, -1.81265473365783691406e+00) (0, 1.26020228862762451172e+00) (1, -1.08935630321502685547e+00) (2, -2.95518219470977783203e-01) (3, -8.32817745208740234375e+00) (4, -7.11945390701293945312e+00) (5, 6.85036516189575195312e+00) (6, 3.76147329807281494141e-01) (7, 5.69657039642333984375e+00) (8, -2.63640969991683959961e-01) (9, 5.36706590652465820312e+00) (10, 8.02164173126220703125e+00) (0, 5.33642053604125976562e+00) (1, -4.79046869277954101562e+00) (2, 1.20226991176605224609e+00) (3, -1.18411004543304443359e+00) (4, 2.07886838912963867188e+00) (5, 2.30906295776367187500e+00) (6, 8.43676853179931640625e+00) (7, -8.00330543518066406250e+00) (8, 3.80693912506103515625e+00) (9, -8.38084125518798828125e+00) (10, -6.25531482696533203125e+00) (0, 8.60167217254638671875e+00) (1, -5.15828227996826171875e+00) (2, 4.04957103729248046875e+00) (3, 2.80764126777648925781e+00) (4, 5.59632778167724609375e+00) (5, -6.04935884475708007812e+00) (6, -2.73346042633056640625e+00) (7, -7.95779800415039062500e+00) (8, 8.75240206718444824219e-01) (9, 6.72840499877929687500e+00) (10, -5.28114855289459228516e-01) (0, 8.81480216979980468750e+00) (1, 7.24230957031250000000e+00) (2, 9.53161299228668212891e-01) (3, 5.97483444213867187500e+00) (4, -1.53493905067443847656e+00) (5, -1.48509883880615234375e+00) (6, -3.65566921234130859375e+00) (7, -5.42745256423950195312e+00) (8, -2.41045475006103515625e+00) (9, -7.79119682312011718750e+00) (10, -2.24450898170471191406e+00) (0, 7.67794990539550781250e+00) (1, -1.61151719093322753906e+00) (2, 8.30287456512451171875e+00) (3, 5.30586242675781250000e-01) (4, -1.81755828857421875000e+00) (5, 8.57930469512939453125e+00) (6, -5.61013936996459960938e+00) (7, -1.59045708179473876953e+00) (8, -6.82223510742187500000e+00) (9, -6.10177087783813476562e+00) (10, 1.47185313701629638672e+00) (0, 1.50000000000000000000e+03) (1, 8.52062988281250000000e+00) (2, -4.15365934371948242188e-01) (3, 7.96472311019897460938e+00) (4, -7.10481786727905273438e+00) (5, 4.52340655028820037842e-02) (6, -1.04382288455963134766e+00) (7, 8.40533638000488281250e+00) (8, 6.87745141983032226562e+00) (9, -1.97974300384521484375e+00) (10, 6.54493999481201171875e+00) (0, 1.21861195564270019531e+00) (1, -5.84010982513427734375e+00) (2, -4.50210905075073242188e+00) (3, 6.45363521575927734375e+00) (4, -2.14769616723060607910e-01) (5, -2.07458639144897460938e+00) (6, -3.52325415611267089844e+00) (7, 1.18356561660766601562e+00) (8, 4.51946353912353515625e+00) (9, -5.93516111373901367188e+00) (10, -9.49051570892333984375e+00) (0, -1.99769961833953857422e+00) (1, 3.11085414886474609375e+00) (2, -8.13763380050659179688e-01) (3, 4.63393402099609375000e+00) (4, 7.49074983596801757812e+00) (5, 8.94348335266113281250e+00) (6, 6.60263967514038085938e+00) (7, -7.36464309692382812500e+00) (8, -1.57257080078125000000e+00) (9, 2.40295410156250000000e+00) (10, 5.26197385787963867188e+00) (0, -8.58400821685791015625e+00) (1, 1.02227282524108886719e+00) (2, 7.47640705108642578125e+00) (3, -2.57407999038696289062e+00) (4, 9.05705356597900390625e+00) (5, 7.00539684295654296875e+00) (6, -3.15822935104370117188e+00) (7, -1.59288144111633300781e+00) (8, 4.37198972702026367188e+00) (9, 6.30960655212402343750e+00) (10, 3.15055990219116210938e+00) (0, 8.25718688964843750000e+00) (1, 4.90783262252807617188e+00) (2, -4.79533433914184570312e+00) (3, -1.81350600719451904297e+00) (4, -6.66102790832519531250e+00) (5, 4.57051801681518554688e+00) (6, -5.35801362991333007812e+00) (7, -4.81856489181518554688e+00) (8, 5.56266641616821289062e+00) (9, 7.93887233734130859375e+00) (10, 7.35881948471069335938e+00) (0, -3.67087674140930175781e+00) (1, 3.37857246398925781250e+00) (2, 4.62600708007812500000e+00) (3, -7.91624307632446289062e+00) (4, 2.35188901424407958984e-02) (5, 4.24794578552246093750e+00) (6, -6.56696021556854248047e-01) (7, -6.72222232818603515625e+00) (8, 1.04148161411285400391e+00) (9, -3.39302372932434082031e+00) (10, 2.78688716888427734375e+00) (0, -6.80752694606781005859e-01) (1, 3.14700078964233398438e+00) (2, 2.68722581863403320312e+00) (3, -3.19534778594970703125e+00) (4, 9.09512901306152343750e+00) (5, -7.76409196853637695312e+00) (6, -6.91590738296508789062e+00) (7, 2.98706555366516113281e+00) (8, 2.76701450347900390625e+00) (9, -8.04235553741455078125e+00) (10, 8.40942323207855224609e-01) (0, 1.47980517578125000000e+03) (1, -6.81536102294921875000e+00) (2, 1.14008259773254394531e+00) (3, 2.63849496841430664062e+00) (4, 7.85381615161895751953e-01) (5, 6.87650823593139648438e+00) (6, -2.06554830074310302734e-01) (7, 7.06931799650192260742e-02) (8, 3.73100185394287109375e+00) (9, 5.59768581390380859375e+00) (10, -6.66485309600830078125e+00) (0, 4.82182836532592773438e+00) (1, 7.25685501098632812500e+00) (2, 4.50758552551269531250e+00) (3, -2.66866993904113769531e+00) (4, -2.16560661792755126953e-01) (5, 7.17951822280883789062e+00) (6, 1.54370748996734619141e+00) (7, 4.61259794235229492188e+00) (8, -3.50798106193542480469e+00) (9, -2.45799851417541503906e+00) (10, -7.19427466392517089844e-01) (0, -6.71268033981323242188e+00) (1, 1.16946280002593994141e+00) (2, -4.72540855407714843750e+00) (3, -7.44706106185913085938e+00) (4, 2.62928438186645507812e+00) (5, 9.23467159271240234375e+00) (6, 4.00157117843627929688e+00) (7, 1.93317079544067382812e+00) (8, 1.25847673416137695312e+00) (9, 2.08637905120849609375e+00) (10, -7.83016681671142578125e+00) (0, -5.84182929992675781250e+00) (1, -4.00525951385498046875e+00) (2, 2.58238315582275390625e+00) (3, 7.84837198257446289062e+00) (4, 5.54260778427124023438e+00) (5, -4.36550951004028320312e+00) (6, 9.91470575332641601562e-01) (7, 1.60830959677696228027e-01) (8, 6.08642339706420898438e-01) (9, -5.84974813461303710938e+00) (10, 4.13520663976669311523e-01) (0, -5.79422473907470703125e+00) (1, -8.14577519893646240234e-01) (2, 6.83676719665527343750e+00) (3, 6.63926839828491210938e+00) (4, -3.74604654312133789062e+00) (5, 7.24076867103576660156e-01) (6, -7.28503465652465820312e-01) (7, 2.01509624719619750977e-01) (8, 6.47930860519409179688e+00) (9, -4.45455849170684814453e-01) (10, -7.46301317214965820312e+00) (0, -5.46757316589355468750e+00) (1, 6.31513357162475585938e-01) (2, 2.83727717399597167969e+00) (3, -8.03162193298339843750e+00) (4, -4.02537775039672851562e+00) (5, -3.39707231521606445312e+00) (6, 1.03175282478332519531e+00) (7, 6.14519548416137695312e+00) (8, -2.26863288879394531250e+00) (9, 3.29449725151062011719e+00) (10, -6.81273460388183593750e+00) (0, 7.56637763977050781250e+00) (1, 2.43212628364562988281e+00) (2, 5.59779214859008789062e+00) (3, -6.08343839645385742188e+00) (4, -4.53697347640991210938e+00) (5, -1.32421016693115234375e+00) (6, 7.17962682247161865234e-01) (7, -1.27405333518981933594e+00) (8, 8.21487522125244140625e+00) (9, 3.43512082099914550781e+00) (10, 6.97539520263671875000e+00) (0, 6.32486534118652343750e+00) (1, 4.10709476470947265625e+00) (2, -6.39793586730957031250e+00) (3, -5.24279642105102539062e+00) (4, -7.29251194000244140625e+00) (5, 2.09835910797119140625e+00) (6, -3.95136594772338867188e+00) (7, 1.02286189794540405273e-01) (8, 3.24746394157409667969e+00) (9, -4.38553047180175781250e+00) (10, -8.39131546020507812500e+00) (0, -4.97276020050048828125e+00) (1, -5.76156473159790039062e+00) (2, -5.05869340896606445312e+00) (3, 3.06433588266372680664e-01) (4, 4.55237865447998046875e+00) (5, -7.53328514099121093750e+00) (6, 5.86055088043212890625e+00) (7, -1.65247929096221923828e+00) (8, -6.21860742568969726562e+00) (9, 5.74422788619995117188e+00) (10, -8.17953681945800781250e+00) (0, -6.60908794403076171875e+00) (1, -8.26499462127685546875e+00) (2, -2.53942823410034179688e+00) (3, 6.76460683345794677734e-01) (4, 2.78987979888916015625e+00) (5, 5.57365036010742187500e+00) (6, -2.05333441495895385742e-01) (7, -1.95790255069732666016e+00) (8, 3.99572706222534179688e+00) (9, -3.78382301330566406250e+00) (10, 9.25337505340576171875e+00) (0, 5.60302019119262695312e+00) (1, 2.48306322097778320312e+00) (2, -8.35129165649414062500e+00) (3, -1.39826619625091552734e+00) (4, 5.35156631469726562500e+00) (5, 3.69143068790435791016e-01) (6, -7.20486879348754882812e+00) (7, 9.21620464324951171875e+00) (8, 1.30319118499755859375e-01) (9, -1.78874123096466064453e+00) (10, -4.90781545639038085938e+00) (0, 5.75216674804687500000e+00) (1, 9.38315582275390625000e+00) (2, -5.47666358947753906250e+00) (3, 7.22709989547729492188e+00) (4, 7.86892080307006835938e+00) (5, 2.57723712921142578125e+00) (6, -7.85285472869873046875e+00) (7, 4.78306388854980468750e+00) (8, 4.33305692672729492188e+00) (9, -6.26082229614257812500e+00) (10, 6.54210758209228515625e+00) (0, -8.28088569641113281250e+00) (1, 1.07747495174407958984e+00) (2, -2.63035893440246582031e+00) (3, 8.63162231445312500000e+00) (4, -7.68770742416381835938e+00) (5, 3.60886883735656738281e+00) (6, 1.70308232307434082031e+00) (7, -2.69879412651062011719e+00) (8, 4.15992307662963867188e+00) (9, -1.01382684707641601562e+00) (10, 5.95830774307250976562e+00) (0, 7.44445739746093750000e+02) (1, 1.37072070312500000000e+03) (2, 4.58031225204467773438e+00) (3, -4.60568094253540039062e+00) (4, 1.50000000000000000000e+03) (5, 1.50000000000000000000e+03) (6, 1.06275842285156250000e+03) (7, 1.50000000000000000000e+03) (8, 8.72573947906494140625e+00) (9, 4.41220313310623168945e-01) (10, -4.76924943923950195312e+00) (0, -7.25872993469238281250e+00) (1, -1.57162022590637207031e+00) (2, -5.36429357528686523438e+00) (3, 2.73284316062927246094e+00) (4, -4.31324928998947143555e-01) (5, 5.10041570663452148438e+00) (6, -2.63684749603271484375e+00) (7, 4.43282574415206909180e-01) (8, 6.44941627979278564453e-01) (9, -9.67514753341674804688e-01) (10, -7.19823503494262695312e+00) (0, 7.86981344223022460938e+00) (1, -1.78502190113067626953e+00) (2, -5.44925165176391601562e+00) (3, 4.85257959365844726562e+00) (4, 8.72162437438964843750e+00) (5, -2.27673694491386413574e-01) (6, 7.89281427860260009766e-01) (7, -1.30575752258300781250e+00) (8, 1.95863410830497741699e-01) (9, -4.68802595138549804688e+00) (10, -3.05316996574401855469e+00) (0, -4.48521041870117187500e+00) (1, 7.11248755455017089844e-01) (2, -3.15838789939880371094e+00) (3, 7.70371913909912109375e+00) (4, -2.87438845634460449219e+00) (5, 1.36762511730194091797e+00) (6, 6.97839832305908203125e+00) (7, 5.50423860549926757812e+00) (8, 8.15945053100585937500e+00) (9, -6.85188436508178710938e+00) (10, -5.37854814529418945312e+00) (0, 8.61275672912597656250e+00) (1, 2.17120361328125000000e+00) (2, 2.15866231918334960938e+00) (3, 4.40425586700439453125e+00) (4, 9.07880592346191406250e+00) (5, -5.97530460357666015625e+00) (6, -3.29904437065124511719e+00) (7, -6.92758560180664062500e-01) (8, -3.82994413375854492188e+00) (9, -2.00174021720886230469e+00) (10, 4.21517562866210937500e+00) (0, -2.49826502799987792969e+00) (1, -8.80696392059326171875e+00) (2, 2.88971877098083496094e+00) (3, 6.15877437591552734375e+00) (4, -2.27403014898300170898e-01) (5, -6.60071420669555664062e+00) (6, -2.79826259613037109375e+00) (7, 2.87075328826904296875e+00) (8, -2.16998791694641113281e+00) (9, 1.81381177902221679688e+00) (10, -5.91559600830078125000e+00) (0, 2.78320717811584472656e+00) (1, 4.06771957874298095703e-01) (2, 1.19213059544563293457e-01) (3, -4.60338640213012695312e+00) (4, 8.61509591341018676758e-02) (5, -3.08072042465209960938e+00) (6, -8.01610755920410156250e+00) (7, -3.30572962760925292969e-01) (8, 3.77143710851669311523e-01) (9, 8.96743202209472656250e+00) (10, -6.53120899200439453125e+00) (0, -4.06390047073364257812e+00) (1, 4.30904006958007812500e+00) (2, -6.78876543045043945312e+00) (3, -4.64078950881958007812e+00) (4, -7.29564285278320312500e+00) (5, -1.03757209777832031250e+02) (6, 3.79886627197265625000e-01) (7, -1.03185522460937500000e+03) (8, -1.66355192661285400391e+00) (9, -1.77881362915039062500e+02) (10, -2.69313812255859375000e+00) (0, 7.22596549987792968750e+00) (1, 4.49197435379028320312e+00) (2, 5.74646472930908203125e+00) (3, -7.58080196380615234375e+00) (4, -6.43653345108032226562e+00) (5, 7.18763768672943115234e-01) (6, -9.11580920219421386719e-01) (7, 3.81643915176391601562e+00) (8, 4.10912847518920898438e+00) (9, -6.54374027252197265625e+00) (10, -4.29639244079589843750e+00) (0, -4.73612022399902343750e+00) (1, -6.31567565917968750000e+02) (2, 8.20631530761718750000e+02) (3, 1.15725493431091308594e+00) (4, -5.59419677734375000000e+02) (5, -4.95146608352661132812e+00) (6, -5.40303283691406250000e+02) (7, -5.23146911621093750000e+02) (8, -2.56718111038208007812e+00) (9, -5.17300415039062500000e+00) (10, -7.13154602050781250000e+00) (0, -6.04415059089660644531e-01) (1, -1.03352749347686767578e+00) (2, -6.91576433181762695312e+00) (3, 7.97387790679931640625e+00) (4, 6.91531991958618164062e+00) (5, -1.10905432701110839844e+00) (6, -6.93195962905883789062e+00) (7, 5.22671270370483398438e+00) (8, 4.67086744308471679688e+00) (9, -8.55624485015869140625e+00) (10, 9.11617815494537353516e-01) (11, 2.00823593139648437500e+00) (12, -2.12661099433898925781e+00) (13, 1.67399036884307861328e+00) (14, -7.21542882919311523438e+00) (15, 1.33781999349594116211e-01) (16, -1.41831064224243164062e+00) (17, 3.21973037719726562500e+00) (18, 1.69207489490509033203e+00) (19, -1.99081552028656005859e+00) (20, -7.52425765991210937500e+00) (21, -9.77114379405975341797e-01) (22, -2.57765316963195800781e+00) (23, 5.00933361053466796875e+00) (24, -9.15967643260955810547e-01) (25, 1.66856205463409423828e+00) (26, 3.03505373001098632812e+00) (27, 2.54321503639221191406e+00) (28, 5.43746471405029296875e+00) (29, 3.10328197479248046875e+00) (30, 2.06406101584434509277e-01) (31, -1.11548638343811035156e+00) (32, -2.87396526336669921875e+00) (33, 6.31050825119018554688e+00) (34, 6.11783564090728759766e-01) (35, -1.34937286376953125000e+00) (36, -3.61429047584533691406e+00) (37, 3.26003479957580566406e+00) (38, -7.74340677261352539062e+00) (39, -7.69052219390869140625e+00) (40, 7.00173854827880859375e-01) (41, 6.05264008045196533203e-01) (42, 4.36342477798461914062e+00) (43, 5.99273741245269775391e-01) (44, -1.91450023651123046875e+00) (45, -6.19586348533630371094e-01) (46, 8.19580078125000000000e+00) (47, -1.43132257461547851562e+00) (48, 2.82920813560485839844e+00) (49, 2.32020878791809082031e+00) (50, -3.39488339424133300781e+00) (51, 2.51786375045776367188e+00) (52, 3.15708726644515991211e-01) (53, 1.28120315074920654297e+00) (54, -3.73801016807556152344e+00) (55, 2.11225867271423339844e+00) (56, -2.28529071807861328125e+00) (57, -3.71180200576782226562e+00) (58, -7.09375739097595214844e-01) (59, -3.59140205383300781250e+00) (60, -7.46589541435241699219e-01) (61, -3.77452993392944335938e+00) (62, 1.11250400543212890625e+00) (63, -7.98374176025390625000e-01) (64, 5.77525758743286132812e+00) (65, 8.96334886550903320312e-01) (66, -2.08731961250305175781e+00) (67, -4.06759834289550781250e+00) (68, 2.31768369674682617188e+00) (69, -6.63773894309997558594e-01) (70, -1.86222755908966064453e+00) (71, 5.05737447738647460938e+00) (72, -7.80510807037353515625e+00) (73, 1.50027632713317871094e+00) (74, -2.92665052413940429688e+00) (75, -1.62299191951751708984e+00) (76, 4.46247768402099609375e+00) (77, -1.86873388290405273438e+00) (78, -6.26211977005004882812e+00) (79, -3.37734627723693847656e+00) (80, 6.57192993164062500000e+00) (81, -1.17517486214637756348e-01) (82, 9.04458332061767578125e+00) (83, 5.61137378215789794922e-01) (84, -1.82721972465515136719e+00) (85, -4.37367963790893554688e+00) (86, -3.36641287803649902344e+00) (87, 3.65723228454589843750e+00) (88, -4.59057664871215820312e+00) (89, 7.38275647163391113281e-01) (90, -2.89643377065658569336e-01) (91, 8.76150131225585937500e+00) (92, -3.31771802902221679688e+00) (93, -2.77512383460998535156e+00) (94, -7.24757099151611328125e+00) (95, 2.59969782829284667969e+00) (96, -7.58349239826202392578e-01) (97, 1.24839091300964355469e+00) (98, -2.98353981971740722656e+00) (99, -1.09948146343231201172e+00) (100, 5.39661121368408203125e+00) (101, -3.15549349784851074219e+00) (102, 3.86486351490020751953e-01) (103, 8.36702060699462890625e+00) (104, -6.49161040782928466797e-01) (105, 4.83597421646118164062e+00) (106, -9.17740345001220703125e-01) (107, -3.01266503334045410156e+00) (108, -4.06035661697387695312e+00) (109, -1.07961237430572509766e+00) (110, -3.71786832809448242188e+00) (111, -6.96093273162841796875e+00) (112, 4.43190240859985351562e+00) (113, -4.78138351440429687500e+00) (114, 8.26964974403381347656e-01) (115, 2.24873256683349609375e+00) (116, 2.06564500927925109863e-01) (117, 1.21512436866760253906e+00) (118, -1.57044112682342529297e-01) (119, 1.16032683849334716797e+00) (120, -3.62502694129943847656e+00) (121, 7.81173753738403320312e+00) (122, -3.03019380569458007812e+00) (123, 1.95299297571182250977e-01) (124, -1.07885384559631347656e+00) (125, 5.82223796844482421875e+00) (126, -2.02047824859619140625e+00) (127, -5.66569328308105468750e+00) (128, -1.20995998382568359375e+00) (129, -4.37218606472015380859e-01) (130, -7.28993558883666992188e+00) (131, -4.28140735626220703125e+00) (132, -1.64379501342773437500e+00) (133, 6.01076126098632812500e+00) (134, -7.34071683883666992188e+00) (135, 1.36547172069549560547e+00) (136, 5.41972446441650390625e+00) (137, -8.16698312759399414062e-01) (138, 2.57101202011108398438e+00) (139, -7.42232322692871093750e-01) (140, 6.74283504486083984375e+00) (141, 4.79950952529907226562e+00) (142, -5.98390960693359375000e+00) (143, 5.75632190704345703125e+00) (144, -4.71688795089721679688e+00) (145, 1.15884244441986083984e+00) (146, -7.20138740539550781250e+00) (147, 4.67644786834716796875e+00) (148, -4.07182693481445312500e+00) (149, -4.06648969650268554688e+00) (150, 4.62666094303131103516e-01) (151, -4.33352804183959960938e+00) (152, 1.40934336185455322266e+00) (153, -4.47175121307373046875e+00) (154, 7.84028196334838867188e+00) (155, -5.67160546779632568359e-01) (156, -7.38987588882446289062e+00) (157, -6.34657144546508789062e-01) (158, 2.10230970382690429688e+00) (159, -2.21340179443359375000e+00) (160, 3.49467366933822631836e-01) (161, 5.58629035949707031250e+00) (162, -1.68925869464874267578e+00) (163, 8.85407638549804687500e+00) (164, 4.28268194198608398438e+00) (165, 4.92954206466674804688e+00) (166, 9.72306013107299804688e-01) (167, -1.95397889614105224609e+00) (168, 4.47135543823242187500e+00) (169, 2.59062719345092773438e+00) (170, 4.02108287811279296875e+00) (171, 2.50757813453674316406e-01) (172, -3.68941617012023925781e+00) (173, -2.30406403541564941406e+00) (174, 3.24037480354309082031e+00) (175, -1.74142599105834960938e+00) (176, 1.80253267288208007812e+00) (177, -2.42419266700744628906e+00) (178, 1.08577072620391845703e+00) (179, -1.40513443946838378906e+00) (180, 9.20704662799835205078e-01) (181, 3.31334590911865234375e+00) (182, 8.56220051646232604980e-02) (183, 4.58510875701904296875e+00) (184, 7.38079404830932617188e+00) (185, -1.27971982955932617188e+00) (186, 2.98703265190124511719e+00) (187, -2.29858565330505371094e+00) (188, 2.47238969802856445312e+00) (189, -8.60322856903076171875e+00) (190, -6.76972770690917968750e+00) (191, 4.89320182800292968750e+00) (192, 1.40686845779418945312e+00) (193, -1.41266250610351562500e+00) (194, 7.67001211643218994141e-01) (195, -5.20237147808074951172e-01) (196, -3.62133073806762695312e+00) (197, 4.81802368164062500000e+00) (198, 2.22518610954284667969e+00) (199, -9.03953313827514648438e-01) (200, -5.84179222583770751953e-01) (201, -2.60921573638916015625e+00) (202, -4.58097934722900390625e+00) (203, -2.11400699615478515625e+00) (204, 7.69484567642211914062e+00) (205, -1.53606426715850830078e+00) (206, 7.49113142490386962891e-01) (207, 6.98794603347778320312e-01) (208, 2.23515129089355468750e+00) (209, 3.51866340637207031250e+00) (210, -5.80327272415161132812e-01) (211, -2.91273450851440429688e+00) (212, 2.75196743011474609375e+00) (11, 9.16614437103271484375e+00) (12, -2.26229810714721679688e+00) (13, 3.72024917602539062500e+00) (14, -4.24726104736328125000e+00) (15, -4.96057629585266113281e-01) (16, 9.67100322246551513672e-01) (17, 8.12333583831787109375e+00) (18, -2.73328602313995361328e-01) (19, -2.13640317320823669434e-01) (20, -7.65412378311157226562e+00) (21, 1.05816316604614257812e+00) (22, 5.53882658481597900391e-01) (23, -5.15584754943847656250e+00) (24, 2.21470999717712402344e+00) (25, 5.77890729904174804688e+00) (26, -7.86550331115722656250e+00) (27, 3.38768839836120605469e+00) (28, -2.93071842193603515625e+00) (29, -6.76585626602172851562e+00) (30, 4.20393848419189453125e+00) (31, -4.07837182283401489258e-01) (32, 2.26802583783864974976e-02) (33, 8.33382701873779296875e+00) (34, -1.69122922420501708984e+00) (35, -2.13037323951721191406e+00) (36, -6.58685731887817382812e+00) (37, 8.55400848388671875000e+00) (38, -4.11185073852539062500e+00) (39, 1.47911787033081054688e+00) (40, -3.79540085792541503906e+00) (41, 3.13681411743164062500e+00) (42, -6.71881139278411865234e-01) (43, -5.26357269287109375000e+00) (44, -6.58355093002319335938e+00) (45, 1.61318212747573852539e-01) (46, 2.76307249069213867188e+00) (47, 3.38497495651245117188e+00) (48, -2.05343675613403320312e+00) (49, -2.01584911346435546875e+00) (50, 1.31458282470703125000e+00) (51, -2.16170835494995117188e+00) (52, 7.16923773288726806641e-01) (53, -2.75659227371215820312e+00) (54, 8.16828060150146484375e+00) (55, -4.24471998214721679688e+00) (56, -2.70644211769104003906e+00) (57, -4.12244844436645507812e+00) (58, -7.89049243927001953125e+00) (59, 2.87880158424377441406e+00) (60, -3.77804923057556152344e+00) (61, -6.19352674484252929688e+00) (62, 2.41027832031250000000e+00) (63, -3.26678603887557983398e-01) (64, 1.99187602847814559937e-02) (65, -4.60168695449829101562e+00) (66, 1.31556481122970581055e-01) (67, -3.69712233543395996094e+00) (68, -1.17743360996246337891e+00) (69, 3.21030020713806152344e+00) (70, -9.79487538337707519531e-01) (71, 6.13898086547851562500e+00) (72, -6.28357410430908203125e+00) (73, 3.01676392555236816406e+00) (74, 9.42432820796966552734e-01) (75, -6.32757127285003662109e-01) (76, 7.34774732589721679688e+00) (77, -9.38553619384765625000e+00) (78, -1.05651164054870605469e+00) (79, -2.94748246669769287109e-01) (80, 1.92641210556030273438e+00) (81, 3.48227405548095703125e+00) (82, -3.49746823310852050781e+00) (83, 5.40842628479003906250e+00) (84, 2.29463148117065429688e+00) (85, -5.81771087646484375000e+00) (86, 3.27265572547912597656e+00) (87, 4.50733137130737304688e+00) (88, -4.79824209213256835938e+00) (89, 4.74607276916503906250e+00) (90, -3.25787544250488281250e+00) (91, -5.80795335769653320312e+00) (92, 1.26925635337829589844e+00) (93, 1.77568399906158447266e+00) (94, 5.32536554336547851562e+00) (95, 6.49719762802124023438e+00) (96, 1.05742573738098144531e+00) (97, 4.41580963134765625000e+00) (98, -7.57786321640014648438e+00) (99, 4.10514497756958007812e+00) (100, 5.28170108795166015625e+00) (101, -3.81734514236450195312e+00) (102, -2.54082620143890380859e-01) (103, 5.39397478103637695312e+00) (104, 3.54237747192382812500e+00) (105, 2.91353297233581542969e+00) (106, -1.20864593982696533203e+00) (107, -2.20009803771972656250e+00) (108, -7.70963096618652343750e+00) (109, 3.81372332572937011719e+00) (110, -3.57457613945007324219e+00) (111, 2.90763878822326660156e+00) (112, -3.99487066268920898438e+00) (113, -2.21217942237854003906e+00) (114, 4.68686676025390625000e+00) (115, 8.25639188289642333984e-01) (116, 1.13527309894561767578e+00) (117, 3.04091215133666992188e+00) (118, 9.50995802879333496094e-01) (119, 1.60670530796051025391e+00) (120, -6.74720859527587890625e+00) (121, 9.19316005706787109375e+00) (122, -6.37952852249145507812e+00) (123, 5.60025051236152648926e-02) (124, -4.88088093698024749756e-02) (125, 3.02364420890808105469e+00) (126, -1.30511951446533203125e+00) (127, 7.59517383575439453125e+00) (128, 3.60375499725341796875e+00) (129, -1.67207705974578857422e+00) (130, 1.95496559143066406250e+00) (131, -5.77800989151000976562e+00) (132, 4.14877128601074218750e+00) (133, -7.03329086303710937500e+00) (134, 6.55811977386474609375e+00) (135, 5.89277267456054687500e+00) (136, 7.76602792739868164062e+00) (137, -6.25207567214965820312e+00) (138, 2.15917038917541503906e+00) (139, 5.88649988174438476562e+00) (140, 5.76231193542480468750e+00) (141, 6.04829788208007812500e+00) (142, 1.35555720329284667969e+00) (143, -6.62364959716796875000e+00) (144, -3.18919730186462402344e+00) (145, -1.77489072084426879883e-01) (146, -4.13085937500000000000e+00) (147, 7.11011314392089843750e+00) (148, -7.93227434158325195312e+00) (149, 1.57420194149017333984e+00) (150, 4.12194490432739257812e+00) (151, -5.66979217529296875000e+00) (152, -2.45981431007385253906e+00) (153, -7.11865961551666259766e-01) (154, 5.80126142501831054688e+00) (155, -1.90032553672790527344e+00) (156, -5.02741479873657226562e+00) (157, -8.01440906524658203125e+00) (158, 4.43102455139160156250e+00) (159, -4.71045970916748046875e+00) (160, -3.32958984375000000000e+00) (161, 6.83821725845336914062e+00) (162, 2.41956257820129394531e+00) (163, -6.56257724761962890625e+00) (164, 1.63313996791839599609e+00) (165, -2.51252341270446777344e+00) (166, -1.52888774871826171875e+00) (167, 4.46355342864990234375e+00) (168, 6.47680139541625976562e+00) (169, -1.99042725563049316406e+00) (170, -1.73885595798492431641e+00) (171, -4.74979066848754882812e+00) (172, -2.59895563125610351562e+00) (173, -8.38072872161865234375e+00) (174, -2.19194674491882324219e+00) (175, 1.91608679294586181641e+00) (176, 7.47461557388305664062e+00) (177, 1.03174388408660888672e+00) (178, 2.04493641853332519531e+00) (179, -2.09046626091003417969e+00) (180, -3.38274335861206054688e+00) (181, -5.84021663665771484375e+00) (182, -1.51389718055725097656e+00) (183, 2.14638090133666992188e+00) (184, 2.22547340393066406250e+00) (185, -4.13144731521606445312e+00) (186, 2.04496574401855468750e+00) (187, 4.62321662902832031250e+00) (188, -3.61962532997131347656e+00) (189, -5.36784458160400390625e+00) (190, -8.43383312225341796875e+00) (191, 1.03368272781372070312e+01) (192, 2.95906925201416015625e+00) (193, 6.91993355751037597656e-01) (194, 5.77283763885498046875e+00) (195, 8.86648559570312500000e+00) (196, -1.77647769451141357422e+00) (197, -1.48640990257263183594e+00) (198, 1.34342706203460693359e+00) (199, 5.01923382282257080078e-01) (200, 1.17911624908447265625e+00) (201, 2.94894504547119140625e+00) (202, -3.63190722465515136719e+00) (203, 