FANN_FLO_2.1
num_layers=102
learning_rate=0.025000
connection_rate=1.000000
network_type=1
learning_momentum=0.000000
training_algorithm=2
train_error_function=1
train_stop_function=0
cascade_output_change_fraction=0.010000
quickprop_decay=-0.000100
quickprop_mu=1.750000
rprop_increase_factor=1.200000
rprop_decrease_factor=0.500000
rprop_delta_min=0.000000
rprop_delta_max=50.000000
rprop_delta_zero=0.100000
cascade_output_stagnation_epochs=4
cascade_candidate_change_fraction=0.010000
cascade_candidate_stagnation_epochs=4
cascade_max_out_epochs=100
cascade_max_cand_epochs=100
cascade_num_candidate_groups=2
bit_fail_limit=3.49999994039535522461e-01
cascade_candidate_limit=1.00000000000000000000e+02
cascade_weight_multiplier=4.00000005960464477539e-01
cascade_activation_functions_count=1
cascade_activation_functions=10 
cascade_activation_steepnesses_count=4
cascade_activation_steepnesses=2.50000000000000000000e-01 5.00000000000000000000e-01 7.50000000000000000000e-01 1.00000000000000000000e+00 
layer_sizes=157 1 1 1 1 1 1 1 1 1 1 1 1 1 1 1 1 1 1 1 1 1 1 1 1 1 1 1 1 1 1 1 1 1 1 1 1 1 1 1 1 1 1 1 1 1 1 1 1 1 1 1 1 1 1 1 1 1 1 1 1 1 1 1 1 1 1 1 1 1 1 1 1 1 1 1 1 1 1 1 1 1 1 1 1 1 1 1 1 1 1 1 1 1 1 1 1 1 1 1 1 10 
scale_included=1
scale_mean_in=0.197000 3.803000 4.449000 4.529000 4.546000 4.608000 4.448000 4.568000 4.449000 4.371000 4.456000 4.434000 4.457000 4.588000 4.372000 4.523000 4.441000 4.535000 4.532000 4.402000 4.453000 4.420000 4.589000 4.471000 4.443000 4.496000 4.400000 4.534000 4.540000 4.531000 4.550000 4.367000 4.501000 4.427000 4.631000 4.421000 4.418000 4.522000 4.531000 4.636000 4.503000 4.487000 4.466000 4.526000 4.620000 4.538000 4.287000 4.454000 4.629000 4.526000 4.467000 4.595000 4.523000 4.491000 4.620000 4.415000 4.560000 4.588000 4.640000 0.134000 3.961000 4.426000 4.378000 4.490000 4.629000 4.408000 4.447000 4.628000 4.505000 4.502000 4.449000 4.501000 4.544000 4.500000 4.505000 4.411000 4.570000 4.351000 4.488000 4.560000 4.556000 4.377000 4.474000 4.368000 4.445000 4.430000 4.358000 4.485000 4.601000 4.544000 4.570000 4.427000 4.635000 4.504000 4.451000 4.496000 4.523000 4.483000 4.359000 4.582000 4.603000 4.530000 4.599000 4.418000 4.446000 4.479000 4.552000 4.418000 4.604000 4.548000 4.652000 4.474000 4.299000 4.484000 4.567000 4.386000 4.529000 4.485000 4.456000 4.535000 4.605000 4.464000 4.517000 4.584000 4.499000 4.432000 4.574000 4.446000 4.463000 4.474000 4.244000 4.520000 4.598000 4.478000 4.643000 4.456000 4.557000 1.000000 3.000000 9.000000 0.965000 2.148000 4.452000 4.696000 4.629000 4.496000 4.633000 4.000000 1.000000 9.000000 5.000000 5.000000 8.000000 7.000000 0.000000 0.000000 
scale_deviation_in=0.397732 3.018640 2.907816 2.865162 2.824514 2.839425 2.968046 2.865900 2.834678 2.851205 2.844306 2.868731 2.979284 2.843637 2.880908 2.849119 2.816831 2.897374 2.900514 2.887282 2.836159 2.823052 2.817459 2.907775 2.862995 2.869143 2.885132 2.887706 2.844015 2.868281 2.828341 2.862225 2.854820 2.891123 2.902215 2.860028 2.892277 2.881232 2.843769 2.812023 2.888249 2.892370 2.811201 2.924608 2.794566 2.862962 2.880387 2.890998 2.835730 2.831490 2.930339 2.850786 2.842091 2.880608 2.870123 2.854605 2.875132 2.894868 2.854542 0.340654 3.019184 2.924128 2.832509 2.889632 2.960298 2.867321 2.887417 2.834719 2.866700 2.885133 2.844186 2.880278 2.864625 2.843238 2.897235 2.848170 2.841675 2.831572 2.872948 2.861186 2.916649 2.806934 2.804521 2.817194 2.890497 2.879082 2.848830 2.836504 2.837569 2.929177 2.826149 2.927899 2.889605 2.857616 2.894062 2.850961 2.903356 2.840372 2.951970 2.933473 2.864505 2.888447 2.869878 2.921517 2.901222 2.913348 2.853643 2.892275 2.798773 2.833671 2.848313 2.889522 2.859649 2.874673 2.828341 2.890152 2.886027 2.836857 2.875079 2.900822 2.914958 2.848278 2.923989 2.901883 2.841126 2.892296 2.882104 2.824019 2.885243 2.844176 2.841564 2.885415 2.841197 2.949830 2.858942 2.883414 2.907704 0.000000 0.000000 0.000000 0.183780 1.839049 2.908553 2.885064 2.897131 2.817797 2.883806 0.000000 0.000000 0.000000 0.000000 0.000000 0.000000 0.000000 0.000000 0.000000 
scale_new_min_in=0.000000 0.000000 0.000000 0.000000 0.000000 0.000000 0.000000 0.000000 0.000000 0.000000 0.000000 0.000000 0.000000 0.000000 0.000000 0.000000 0.000000 0.000000 0.000000 0.000000 0.000000 0.000000 0.000000 0.000000 0.000000 0.000000 0.000000 0.000000 0.000000 0.000000 0.000000 0.000000 0.000000 0.000000 0.000000 0.000000 0.000000 0.000000 0.000000 0.000000 0.000000 0.000000 0.000000 0.000000 0.000000 0.000000 0.000000 0.000000 0.000000 0.000000 0.000000 0.000000 0.000000 0.000000 0.000000 0.000000 0.000000 0.000000 0.000000 0.000000 0.000000 0.000000 0.000000 0.000000 0.000000 0.000000 0.000000 0.000000 0.000000 0.000000 0.000000 0.000000 0.000000 0.000000 0.000000 0.000000 0.000000 0.000000 0.000000 0.000000 0.000000 0.000000 0.000000 0.000000 0.000000 0.000000 0.000000 0.000000 0.000000 0.000000 0.000000 0.000000 0.000000 0.000000 0.000000 0.000000 0.000000 0.000000 0.000000 0.000000 0.000000 0.000000 0.000000 0.000000 0.000000 0.000000 0.000000 0.000000 0.000000 0.000000 0.000000 0.000000 0.000000 0.000000 0.000000 0.000000 0.000000 0.000000 0.000000 0.000000 0.000000 0.000000 0.000000 0.000000 0.000000 0.000000 0.000000 0.000000 0.000000 0.000000 0.000000 0.000000 0.000000 0.000000 0.000000 0.000000 0.000000 0.000000 0.000000 0.000000 0.000000 0.000000 0.000000 0.000000 0.000000 0.000000 0.000000 0.000000 0.000000 0.000000 0.000000 0.000000 0.000000 0.000000 0.000000 0.000000 
scale_factor_in=0.500000 0.500000 0.500000 0.500000 0.500000 0.500000 0.500000 0.500000 0.500000 0.500000 0.500000 0.500000 0.500000 0.500000 0.500000 0.500000 0.500000 0.500000 0.500000 0.500000 0.500000 0.500000 0.500000 0.500000 0.500000 0.500000 0.500000 0.500000 0.500000 0.500000 0.500000 0.500000 0.500000 0.500000 0.500000 0.500000 0.500000 0.500000 0.500000 0.500000 0.500000 0.500000 0.500000 0.500000 0.500000 0.500000 0.500000 0.500000 0.500000 0.500000 0.500000 0.500000 0.500000 0.500000 0.500000 0.500000 0.500000 0.500000 0.500000 0.500000 0.500000 0.500000 0.500000 0.500000 0.500000 0.500000 0.500000 0.500000 0.500000 0.500000 0.500000 0.500000 0.500000 0.500000 0.500000 0.500000 0.500000 0.500000 0.500000 0.500000 0.500000 0.500000 0.500000 0.500000 0.500000 0.500000 0.500000 0.500000 0.500000 0.500000 0.500000 0.500000 0.500000 0.500000 0.500000 0.500000 0.500000 0.500000 0.500000 0.500000 0.500000 0.500000 0.500000 0.500000 0.500000 0.500000 0.500000 0.500000 0.500000 0.500000 0.500000 0.500000 0.500000 0.500000 0.500000 0.500000 0.500000 0.500000 0.500000 0.500000 0.500000 0.500000 0.500000 0.500000 0.500000 0.500000 0.500000 0.500000 0.500000 0.500000 0.500000 0.500000 0.500000 0.500000 0.500000 0.500000 0.500000 0.500000 0.500000 0.500000 0.500000 0.500000 0.500000 0.500000 0.500000 0.500000 0.500000 0.500000 0.500000 0.500000 0.500000 0.500000 0.500000 0.500000 0.500000 0.500000 
scale_mean_out=1.642000 4.214000 4.486000 4.631000 4.472000 4.573000 4.610000 4.519000 4.660000 4.492000 
scale_deviation_out=1.242511 2.839048 2.834040 2.790492 2.864828 2.813999 2.904462 2.850549 2.840140 2.840415 
scale_new_min_out=0.000000 0.000000 0.000000 0.000000 0.000000 0.000000 0.000000 0.000000 0.000000 0.000000 
scale_factor_out=0.500000 0.500000 0.500000 0.500000 0.500000 0.500000 0.500000 0.500000 0.500000 0.500000 
neurons (num_inputs, activation_function, activation_steepness)=(0, 0, 0.00000000000000000000e+00) (0, 0, 0.00000000000000000000e+00) (0, 0, 0.00000000000000000000e+00) (0, 0, 0.00000000000000000000e+00) (0, 0, 0.00000000000000000000e+00) (0, 0, 0.00000000000000000000e+00) (0, 0, 0.00000000000000000000e+00) (0, 0, 0.00000000000000000000e+00) (0, 0, 0.00000000000000000000e+00) (0, 0, 0.00000000000000000000e+00) (0, 0, 0.00000000000000000000e+00) (0, 0, 0.00000000000000000000e+00) (0, 0, 0.00000000000000000000e+00) (0, 0, 0.00000000000000000000e+00) (0, 0, 0.00000000000000000000e+00) (0, 0, 0.00000000000000000000e+00) (0, 0, 0.00000000000000000000e+00) (0, 0, 0.00000000000000000000e+00) (0, 0, 0.00000000000000000000e+00) (0, 0, 0.00000000000000000000e+00) (0, 0, 0.00000000000000000000e+00) (0, 0, 0.00000000000000000000e+00) (0, 0, 0.00000000000000000000e+00) (0, 0, 0.00000000000000000000e+00) (0, 0, 0.00000000000000000000e+00) (0, 0, 0.00000000000000000000e+00) (0, 0, 0.00000000000000000000e+00) (0, 0, 0.00000000000000000000e+00) (0, 0, 0.00000000000000000000e+00) (0, 0, 0.00000000000000000000e+00) (0, 0, 0.00000000000000000000e+00) (0, 0, 0.00000000000000000000e+00) (0, 0, 0.00000000000000000000e+00) (0, 0, 0.00000000000000000000e+00) (0, 0, 0.00000000000000000000e+00) (0, 0, 0.00000000000000000000e+00) (0, 0, 0.00000000000000000000e+00) (0, 0, 0.00000000000000000000e+00) (0, 0, 0.00000000000000000000e+00) (0, 0, 0.00000000000000000000e+00) (0, 0, 0.00000000000000000000e+00) (0, 0, 0.00000000000000000000e+00) (0, 0, 0.00000000000000000000e+00) (0, 0, 0.00000000000000000000e+00) (0, 0, 0.00000000000000000000e+00) (0, 0, 0.00000000000000000000e+00) (0, 0, 0.00000000000000000000e+00) (0, 0, 0.00000000000000000000e+00) (0, 0, 0.00000000000000000000e+00) (0, 0, 0.00000000000000000000e+00) (0, 0, 0.00000000000000000000e+00) (0, 0, 0.00000000000000000000e+00) (0, 0, 0.00000000000000000000e+00) (0, 0, 0.00000000000000000000e+00) (0, 0, 0.00000000000000000000e+00) (0, 0, 0.00000000000000000000e+00) (0, 0, 0.00000000000000000000e+00) (0, 0, 0.00000000000000000000e+00) (0, 0, 0.00000000000000000000e+00) (0, 0, 0.00000000000000000000e+00) (0, 0, 0.00000000000000000000e+00) (0, 0, 0.00000000000000000000e+00) (0, 0, 0.00000000000000000000e+00) (0, 0, 0.00000000000000000000e+00) (0, 0, 0.00000000000000000000e+00) (0, 0, 0.00000000000000000000e+00) (0, 0, 0.00000000000000000000e+00) (0, 0, 0.00000000000000000000e+00) (0, 0, 0.00000000000000000000e+00) (0, 0, 0.00000000000000000000e+00) (0, 0, 0.00000000000000000000e+00) (0, 0, 0.00000000000000000000e+00) (0, 0, 0.00000000000000000000e+00) (0, 0, 0.00000000000000000000e+00) (0, 0, 0.00000000000000000000e+00) (0, 0, 0.00000000000000000000e+00) (0, 0, 0.00000000000000000000e+00) (0, 0, 0.00000000000000000000e+00) (0, 0, 0.00000000000000000000e+00) (0, 0, 0.00000000000000000000e+00) (0, 0, 0.00000000000000000000e+00) (0, 0, 0.00000000000000000000e+00) (0, 0, 0.00000000000000000000e+00) (0, 0, 0.00000000000000000000e+00) (0, 0, 0.00000000000000000000e+00) (0, 0, 0.00000000000000000000e+00) (0, 0, 0.00000000000000000000e+00) (0, 0, 0.00000000000000000000e+00) (0, 0, 0.00000000000000000000e+00) (0, 0, 0.00000000000000000000e+00) (0, 0, 0.00000000000000000000e+00) (0, 0, 0.00000000000000000000e+00) (0, 0, 0.00000000000000000000e+00) (0, 0, 0.00000000000000000000e+00) (0, 0, 0.00000000000000000000e+00) (0, 0, 0.00000000000000000000e+00) (0, 0, 0.00000000000000000000e+00) (0, 0, 0.00000000000000000000e+00) (0, 0, 0.00000000000000000000e+00) (0, 0, 0.00000000000000000000e+00) (0, 0, 0.00000000000000000000e+00) (0, 0, 0.00000000000000000000e+00) (0, 0, 0.00000000000000000000e+00) (0, 0, 0.00000000000000000000e+00) (0, 0, 0.00000000000000000000e+00) (0, 0, 0.00000000000000000000e+00) (0, 0, 0.00000000000000000000e+00) (0, 0, 0.00000000000000000000e+00) (0, 0, 0.00000000000000000000e+00) (0, 0, 0.00000000000000000000e+00) (0, 0, 0.00000000000000000000e+00) (0, 0, 0.00000000000000000000e+00) (0, 0, 0.00000000000000000000e+00) (0, 0, 0.00000000000000000000e+00) (0, 0, 0.00000000000000000000e+00) (0, 0, 0.00000000000000000000e+00) (0, 0, 0.00000000000000000000e+00) (0, 0, 0.00000000000000000000e+00) (0, 0, 0.00000000000000000000e+00) (0, 0, 0.00000000000000000000e+00) (0, 0, 0.00000000000000000000e+00) (0, 0, 0.00000000000000000000e+00) (0, 0, 0.00000000000000000000e+00) (0, 0, 0.00000000000000000000e+00) (0, 0, 0.00000000000000000000e+00) (0, 0, 0.00000000000000000000e+00) (0, 0, 0.00000000000000000000e+00) (0, 0, 0.00000000000000000000e+00) (0, 0, 0.00000000000000000000e+00) (0, 0, 0.00000000000000000000e+00) (0, 0, 0.00000000000000000000e+00) (0, 0, 0.00000000000000000000e+00) (0, 0, 0.00000000000000000000e+00) (0, 0, 0.00000000000000000000e+00) (0, 0, 0.00000000000000000000e+00) (0, 0, 0.00000000000000000000e+00) (0, 0, 0.00000000000000000000e+00) (0, 0, 0.00000000000000000000e+00) (0, 0, 0.00000000000000000000e+00) (0, 0, 0.00000000000000000000e+00) (0, 0, 0.00000000000000000000e+00) (0, 0, 0.00000000000000000000e+00) (0, 0, 0.00000000000000000000e+00) (0, 0, 0.00000000000000000000e+00) (0, 0, 0.00000000000000000000e+00) (0, 0, 0.00000000000000000000e+00) (0, 0, 0.00000000000000000000e+00) (0, 0, 0.00000000000000000000e+00) (0, 0, 0.00000000000000000000e+00) (0, 0, 0.00000000000000000000e+00) (0, 0, 0.00000000000000000000e+00) (0, 0, 0.00000000000000000000e+00) (0, 0, 0.00000000000000000000e+00) (0, 0, 0.00000000000000000000e+00) (0, 0, 0.00000000000000000000e+00) (0, 0, 0.00000000000000000000e+00) (0, 0, 0.00000000000000000000e+00) (157, 10, 2.50000000000000000000e-01) (158, 10, 2.50000000000000000000e-01) (159, 10, 2.50000000000000000000e-01) (160, 10, 2.50000000000000000000e-01) (161, 10, 2.50000000000000000000e-01) (162, 10, 2.50000000000000000000e-01) (163, 10, 2.50000000000000000000e-01) (164, 10, 2.50000000000000000000e-01) (165, 10, 2.50000000000000000000e-01) (166, 10, 2.50000000000000000000e-01) (167, 10, 2.50000000000000000000e-01) (168, 10, 2.50000000000000000000e-01) (169, 10, 2.50000000000000000000e-01) (170, 10, 2.50000000000000000000e-01) (171, 10, 2.50000000000000000000e-01) (172, 10, 2.50000000000000000000e-01) (173, 10, 2.50000000000000000000e-01) (174, 10, 2.50000000000000000000e-01) (175, 10, 2.50000000000000000000e-01) (176, 10, 2.50000000000000000000e-01) (177, 10, 2.50000000000000000000e-01) (178, 10, 2.50000000000000000000e-01) (179, 10, 2.50000000000000000000e-01) (180, 10, 2.50000000000000000000e-01) (181, 10, 2.50000000000000000000e-01) (182, 10, 2.50000000000000000000e-01) (183, 10, 2.50000000000000000000e-01) (184, 10, 2.50000000000000000000e-01) (185, 10, 2.50000000000000000000e-01) (186, 10, 2.50000000000000000000e-01) (187, 10, 2.50000000000000000000e-01) (188, 10, 2.50000000000000000000e-01) (189, 10, 2.50000000000000000000e-01) (190, 10, 2.50000000000000000000e-01) (191, 10, 2.50000000000000000000e-01) (192, 10, 2.50000000000000000000e-01) (193, 10, 2.50000000000000000000e-01) (194, 10, 2.50000000000000000000e-01) (195, 10, 2.50000000000000000000e-01) (196, 10, 2.50000000000000000000e-01) (197, 10, 2.50000000000000000000e-01) (198, 10, 2.50000000000000000000e-01) (199, 10, 2.50000000000000000000e-01) (200, 10, 2.50000000000000000000e-01) (201, 10, 2.50000000000000000000e-01) (202, 10, 2.50000000000000000000e-01) (203, 10, 2.50000000000000000000e-01) (204, 10, 2.50000000000000000000e-01) (205, 10, 2.50000000000000000000e-01) (206, 10, 2.50000000000000000000e-01) (207, 10, 2.50000000000000000000e-01) (208, 10, 2.50000000000000000000e-01) (209, 10, 2.50000000000000000000e-01) (210, 10, 2.50000000000000000000e-01) (211, 10, 2.50000000000000000000e-01) (212, 10, 2.50000000000000000000e-01) (213, 10, 2.50000000000000000000e-01) (214, 10, 2.50000000000000000000e-01) (215, 10, 2.50000000000000000000e-01) (216, 10, 2.50000000000000000000e-01) (217, 10, 2.50000000000000000000e-01) (218, 10, 2.50000000000000000000e-01) (219, 10, 2.50000000000000000000e-01) (220, 10, 2.50000000000000000000e-01) (221, 10, 2.50000000000000000000e-01) (222, 10, 2.50000000000000000000e-01) (223, 10, 2.50000000000000000000e-01) (224, 10, 2.50000000000000000000e-01) (225, 10, 2.50000000000000000000e-01) (226, 10, 2.50000000000000000000e-01) (227, 10, 2.50000000000000000000e-01) (228, 10, 2.50000000000000000000e-01) (229, 10, 2.50000000000000000000e-01) (230, 10, 2.50000000000000000000e-01) (231, 10, 2.50000000000000000000e-01) (232, 10, 2.50000000000000000000e-01) (233, 10, 2.50000000000000000000e-01) (234, 10, 2.50000000000000000000e-01) (235, 10, 2.50000000000000000000e-01) (236, 10, 2.50000000000000000000e-01) (237, 10, 2.50000000000000000000e-01) (238, 10, 2.50000000000000000000e-01) (239, 10, 2.50000000000000000000e-01) (240, 10, 2.50000000000000000000e-01) (241, 10, 2.50000000000000000000e-01) (242, 10, 2.50000000000000000000e-01) (243, 10, 2.50000000000000000000e-01) (244, 10, 2.50000000000000000000e-01) (245, 10, 2.50000000000000000000e-01) (246, 10, 2.50000000000000000000e-01) (247, 10, 2.50000000000000000000e-01) (248, 10, 2.50000000000000000000e-01) (249, 10, 2.50000000000000000000e-01) (250, 10, 2.50000000000000000000e-01) (251, 10, 2.50000000000000000000e-01) (252, 10, 2.50000000000000000000e-01) (253, 10, 2.50000000000000000000e-01) (254, 10, 2.50000000000000000000e-01) (255, 10, 2.50000000000000000000e-01) (256, 10, 2.50000000000000000000e-01) (257, 4, 5.00000000000000000000e-01) (257, 4, 5.00000000000000000000e-01) (257, 4, 5.00000000000000000000e-01) (257, 4, 5.00000000000000000000e-01) (257, 4, 5.00000000000000000000e-01) (257, 4, 5.00000000000000000000e-01) (257, 4, 5.00000000000000000000e-01) (257, 4, 5.00000000000000000000e-01) (257, 4, 5.00000000000000000000e-01) (257, 4, 5.00000000000000000000e-01) 
connections (connected_to_neuron, weight)=(0, 1.81419098377227783203e+00) (1, 1.81020164489746093750e+00) (2, 1.44525527954101562500e+00) (3, 1.01493716239929199219e+00) (4, 7.12799847126007080078e-01) (5, 1.77284836769104003906e+00) (6, 1.90903022885322570801e-01) (7, 8.20289254188537597656e-01) (8, 1.39191377162933349609e+00) (9, 1.82150125503540039062e+00) (10, 1.76545965671539306641e+00) (11, 1.63334739208221435547e+00) (12, 1.38355922698974609375e+00) (13, 7.59553074836730957031e-01) (14, 1.76961898803710937500e+00) (15, 3.26601505279541015625e-01) (16, 1.67877006530761718750e+00) (17, 8.86599600315093994141e-01) (18, 1.78952980041503906250e+00) (19, 1.48510253429412841797e+00) (20, 1.77810335159301757812e+00) (21, 5.17230391502380371094e-01) (22, 2.04118704795837402344e+00) (23, 2.66275495290756225586e-01) (24, 1.81793117523193359375e+00) (25, 9.64061081409454345703e-01) (26, 2.39468589425086975098e-01) (27, 8.61059725284576416016e-01) (28, 1.49746966361999511719e+00) (29, 6.91975116729736328125e-01) (30, 2.68764048814773559570e-01) (31, 1.21183037757873535156e+00) (32, 4.02346640825271606445e-01) (33, 1.60961627960205078125e+00) (34, 1.26941874623298645020e-01) (35, 1.01073789596557617188e+00) (36, 1.28263449668884277344e+00) (37, 2.13442757725715637207e-01) (38, 1.72662413120269775391e+00) (39, 5.74723541736602783203e-01) (40, 1.93054234981536865234e+00) (41, 1.39225363731384277344e+00) (42, 1.08240105211734771729e-01) (43, 1.21427142620086669922e+00) (44, 2.04741454124450683594e+00) (45, 1.77345657348632812500e+00) (46, 1.43646979331970214844e+00) (47, 1.62634360790252685547e+00) (48, 5.60225963592529296875e-01) (49, 1.12616956233978271484e+00) (50, 1.01161587238311767578e+00) (51, 2.38497838377952575684e-01) (52, 1.53899669647216796875e+00) (53, 9.52967464923858642578e-01) (54, 4.00371581315994262695e-01) (55, 1.25709784030914306641e+00) (56, 1.81262004375457763672e+00) (57, 5.35438418388366699219e-01) (58, 2.01376509666442871094e+00) (59, 1.21025943756103515625e+00) (60, 1.12300491333007812500e+00) (61, 1.82686954736709594727e-01) (62, 3.22265177965164184570e-01) (63, 1.42094838619232177734e+00) (64, 1.68790149688720703125e+00) (65, 3.44804912805557250977e-01) (66, 3.31861764192581176758e-01) (67, 8.70711207389831542969e-01) (68, 4.53845918178558349609e-01) (69, 1.95408284664154052734e+00) (70, 1.34102618694305419922e+00) (71, 2.84558087587356567383e-01) (72, 1.24650633335113525391e+00) (73, 1.34486389160156250000e+00) (74, 1.39442646503448486328e+00) (75, 1.19407975673675537109e+00) (76, 1.01849031448364257812e+00) (77, 7.31071531772613525391e-01) (78, 7.20598578453063964844e-01) (79, 1.47431325912475585938e+00) (80, 1.75283801555633544922e+00) (81, 1.62781131267547607422e+00) (82, 1.60840940475463867188e+00) (83, 1.19200444221496582031e+00) (84, 4.80948716402053833008e-01) (85, 1.90437781810760498047e+00) (86, 3.49277526140213012695e-01) (87, 1.93737193942070007324e-01) (88, 3.39986085891723632812e-01) (89, 2.63201773166656494141e-01) (90, 1.29959499835968017578e+00) (91, 1.35858798027038574219e+00) (92, 3.41486930847167968750e-01) (93, 1.51745688915252685547e+00) (94, 6.79711759090423583984e-01) (95, 1.92498528957366943359e+00) (96, 1.75785875320434570312e+00) (97, 9.07170414924621582031e-01) (98, 6.95866346359252929688e-01) (99, 1.11873865127563476562e-01) (100, 7.61423051357269287109e-01) (101, 1.93248951435089111328e+00) (102, 2.92029529809951782227e-01) (103, 1.90352618694305419922e+00) (104, 1.17752325534820556641e+00) (105, 1.58205282688140869141e+00) (106, 9.97781276702880859375e-01) (107, 2.09162688255310058594e+00) (108, 2.13292941451072692871e-01) (109, 1.61397135257720947266e+00) (110, 1.46609902381896972656e+00) (111, 1.86172914505004882812e+00) (112, 1.14195263385772705078e+00) (113, 9.74683701992034912109e-01) (114, 9.53908920288085937500e-01) (115, 1.51849818229675292969e+00) (116, 7.79231429100036621094e-01) (117, 1.19877779483795166016e+00) (118, 1.60783362388610839844e+00) (119, 1.01480889320373535156e+00) (120, 1.35757648944854736328e+00) (121, 8.07603836059570312500e-01) (122, 2.73572206497192382812e-01) (123, 1.59466040134429931641e+00) (124, 2.25229352712631225586e-01) (125, 8.48880827426910400391e-01) (126, 1.41981554031372070312e+00) (127, 1.87868630886077880859e+00) (128, 1.65164268016815185547e+00) (129, 2.01128959655761718750e+00) (130, 1.88615787029266357422e+00) (131, 3.13235580921173095703e-01) (132, 1.84393811225891113281e+00) (133, 2.07379508018493652344e+00) (134, 1.16930954158306121826e-01) (135, 9.21636641025543212891e-01) (136, 1.55600690841674804688e+00) (137, 1.01030445098876953125e+00) (138, 9.13422405719757080078e-01) (139, 1.66489815711975097656e+00) (140, 5.24451017379760742188e-01) (141, 2.79691368341445922852e-01) (142, 1.42679715156555175781e+00) (143, 1.56200051307678222656e+00) (144, 1.14996659755706787109e+00) (145, 2.80875861644744873047e-01) (146, 9.80674028396606445312e-01) (147, 1.82479488849639892578e+00) (148, 1.37525069713592529297e+00) (149, 4.88677561283111572266e-01) (150, 7.39779174327850341797e-01) (151, 6.33002400398254394531e-01) (152, 1.19187283515930175781e+00) (153, 9.08948242664337158203e-01) (154, 1.27831563353538513184e-01) (155, 1.31270051002502441406e+00) (156, 1.20701098442077636719e+00) (0, 6.07625007629394531250e-01) (1, 9.51292097568511962891e-01) (2, 2.08399796485900878906e+00) (3, 1.68712913990020751953e+00) (4, 6.64236605167388916016e-01) (5, 5.99546670913696289062e-01) (6, 1.76789915561676025391e+00) (7, 1.13093304634094238281e+00) (8, 3.46468687057495117188e-01) (9, 6.96678519248962402344e-01) (10, 2.03258109092712402344e+00) (11, 8.21927011013031005859e-01) (12, 1.29715013504028320312e+00) (13, 1.84466052055358886719e+00) (14, 7.21213996410369873047e-01) (15, 9.24029231071472167969e-01) (16, 1.99656820297241210938e+00) (17, 1.21442735195159912109e+00) (18, 1.04160654544830322266e+00) (19, 1.75158047676086425781e+00) (20, 8.20219814777374267578e-01) (21, 1.68429696559906005859e+00) (22, 1.93334376811981201172e+00) (23, 1.98374569416046142578e+00) (24, 1.43053233623504638672e+00) (25, 1.22749376296997070312e+00) (26, 1.45682477951049804688e+00) (27, 1.45907357335090637207e-01) (28, 4.91432726383209228516e-01) (29, 1.07860422134399414062e+00) (30, 1.47477447986602783203e+00) (31, 9.94654655456542968750e-01) (32, 1.92549312114715576172e+00) (33, 1.45004546642303466797e+00) (34, 5.73067665100097656250e-01) (35, 4.81013685464859008789e-01) (36, 1.94518899917602539062e+00) (37, 2.32249349355697631836e-01) (38, 1.50754344463348388672e+00) (39, 1.82940289378166198730e-01) (40, 8.24526071548461914062e-01) (41, 1.43139767646789550781e+00) (42, 9.00465548038482666016e-01) (43, 2.01728367805480957031e+00) (44, 1.16734218597412109375e+00) (45, 1.51727104187011718750e+00) (46, 8.32586169242858886719e-01) (47, 1.05519425868988037109e+00) (48, 6.22987687587738037109e-01) (49, 1.76978945732116699219e+00) (50, 6.98064088821411132812e-01) (51, 1.33879911899566650391e+00) (52, 1.34537029266357421875e+00) (53, 5.22691726684570312500e-01) (54, 1.21382868289947509766e+00) (55, 6.67191922664642333984e-01) (56, 1.64578235149383544922e+00) (57, 5.61942577362060546875e-01) (58, 7.08697557449340820312e-01) (59, 2.03282284736633300781e+00) (60, 1.53614366054534912109e+00) (61, 2.07907986640930175781e+00) (62, 9.18750524520874023438e-01) (63, 1.35292077064514160156e+00) (64, 1.42039823532104492188e+00) (65, 1.38740968704223632812e+00) (66, 1.72953140735626220703e+00) (67, 1.25687134265899658203e+00) (68, 1.51525723934173583984e+00) (69, 1.12835872173309326172e+00) (70, 1.33540976047515869141e+00) (71, 2.31065869331359863281e-01) (72, 4.51045811176300048828e-01) (73, 1.27158209681510925293e-01) (74, 1.39622852206230163574e-01) (75, 1.51398479938507080078e+00) (76, 1.54002726078033447266e+00) (77, 8.67807269096374511719e-01) (78, 4.60468351840972900391e-01) (79, 2.05862259864807128906e+00) (80, 5.28880774974822998047e-01) (81, 1.05412399768829345703e+00) (82, 1.28869473934173583984e+00) (83, 1.76984786987304687500e+00) (84, 1.47241246700286865234e+00) (85, 3.93812626600265502930e-01) (86, 3.28323781490325927734e-01) (87, 1.00947880744934082031e+00) (88, 8.51352155208587646484e-01) (89, 9.32618200778961181641e-01) (90, 9.33579981327056884766e-01) (91, 2.78779685497283935547e-01) (92, 9.02971029281616210938e-01) (93, 1.74792194366455078125e+00) (94, 1.52729737758636474609e+00) (95, 2.14651882648468017578e-01) (96, 1.02661550045013427734e+00) (97, 1.14811265468597412109e+00) (98, 1.36712133884429931641e+00) (99, 4.33162093162536621094e-01) (100, 1.67759358882904052734e-01) (101, 5.93820452690124511719e-01) (102, 5.59826135635375976562e-01) (103, 5.14403402805328369141e-01) (104, 6.16576552391052246094e-01) (105, 5.95047295093536376953e-01) (106, 1.92398500442504882812e+00) (107, 2.05221152305603027344e+00) (108, 1.35844612121582031250e+00) (109, 2.75737315416336059570e-01) (110, 2.00210118293762207031e+00) (111, 1.78292369842529296875e+00) (112, 1.22545814514160156250e+00) (113, 1.18207490444183349609e+00) (114, 1.44405555725097656250e+00) (115, 5.89159846305847167969e-01) (116, 1.47148442268371582031e+00) (117, 1.66797614097595214844e+00) (118, 1.49423551559448242188e+00) (119, 2.14119032025337219238e-01) (120, 4.91878300905227661133e-01) (121, 3.19099426269531250000e-01) (122, 3.88496994972229003906e-01) (123, 1.29044091701507568359e+00) (124, 1.96261823177337646484e+00) (125, 1.81139123439788818359e+00) (126, 1.40069091320037841797e+00) (127, 8.80523145198822021484e-01) (128, 8.50793123245239257812e-01) (129, 6.59101545810699462891e-01) (130, 1.20927679538726806641e+00) (131, 9.14150774478912353516e-01) (132, 1.14851355552673339844e+00) (133, 1.66469979286193847656e+00) (134, 1.32414567470550537109e+00) (135, 1.66068696975708007812e+00) (136, 1.51029601693153381348e-01) (137, 1.13941454887390136719e+00) (138, 1.60417151451110839844e+00) (139, 1.40507388114929199219e+00) (140, 1.31074881553649902344e+00) (141, 1.49755167961120605469e+00) (142, 1.07928144931793212891e+00) (143, 4.27496194839477539062e-01) (144, 5.70915818214416503906e-01) (145, 4.14626330137252807617e-01) (146, 9.12252962589263916016e-01) (147, 1.93799710273742675781e+00) (148, 1.97819936275482177734e+00) (149, 2.97772377729415893555e-01) (150, 2.04772520065307617188e+00) (151, 3.61361593008041381836e-01) (152, 5.12468695640563964844e-01) (153, 3.27495306730270385742e-01) (154, 1.54739928245544433594e+00) (155, 3.66370916366577148438e-01) (156, 1.96025073528289794922e+00) (157, 8.39379489421844482422e-01) (0, 3.30010741949081420898e-01) (1, 1.38513243198394775391e+00) (2, 8.55919182300567626953e-01) (3, 2.08296537399291992188e+00) (4, 7.80718147754669189453e-01) (5, 2.61760026216506958008e-01) (6, 5.67287266254425048828e-01) (7, 1.85789585113525390625e+00) (8, 8.82930397987365722656e-01) (9, 1.06349265575408935547e+00) (10, 1.40220686793327331543e-01) (11, 4.53263819217681884766e-01) (12, 4.50557976961135864258e-01) (13, 1.11604547500610351562e+00) (14, 2.92154133319854736328e-01) (15, 1.55489659309387207031e+00) (16, 1.39038717746734619141e+00) (17, 8.47623586654663085938e-01) (18, 1.04413104057312011719e+00) (19, 2.53003090620040893555e-01) (20, 5.11249542236328125000e-01) (21, 1.88678538799285888672e+00) (22, 1.69587373733520507812e+00) (23, 1.66345524787902832031e+00) (24, 1.05681276321411132812e+00) (25, 7.91546702384948730469e-01) (26, 8.25796067714691162109e-01) (27, 3.33362191915512084961e-01) (28, 1.62084054946899414062e+00) (29, 9.82721030712127685547e-01) (30, 1.40711450576782226562e+00) (31, 1.84644830226898193359e+00) (32, 2.53921061754226684570e-01) (33, 1.49100095033645629883e-01) (34, 1.81547045707702636719e+00) (35, 9.30236339569091796875e-01) (36, 3.06458353996276855469e-01) (37, 2.68825441598892211914e-01) (38, 6.74199938774108886719e-01) (39, 1.08498024940490722656e+00) (40, 1.22791492938995361328e+00) (41, 7.10018932819366455078e-01) (42, 1.43384099006652832031e+00) (43, 1.57406985759735107422e+00) (44, 1.72166121006011962891e+00) (45, 1.62159204483032226562e+00) (46, 1.01503419876098632812e+00) (47, 9.98121619224548339844e-01) (48, 3.55283409357070922852e-01) (49, 1.95476746559143066406e+00) (50, 1.14671671390533447266e+00) (51, 7.62129843235015869141e-01) (52, 1.72762060165405273438e+00) (53, 7.28663623332977294922e-01) (54, 3.11652898788452148438e-01) (55, 6.70506477355957031250e-01) (56, 1.41580188274383544922e+00) (57, 1.03304052352905273438e+00) (58, 8.99465560913085937500e-01) (59, 9.22715604305267333984e-01) (60, 1.91135835647583007812e+00) (61, 1.92646488547325134277e-01) (62, 6.55231535434722900391e-01) (63, 2.06088757514953613281e+00) (64, 2.37344846129417419434e-01) (65, 3.56769740581512451172e-01) (66, 8.77180695533752441406e-01) (67, 4.39401447772979736328e-01) (68, 5.21192073822021484375e-01) (69, 1.44697213172912597656e+00) (70, 1.41997861862182617188e+00) (71, 1.64470398426055908203e+00) (72, 2.05259871482849121094e+00) (73, 7.39892780780792236328e-01) (74, 1.10484158992767333984e+00) (75, 1.66031706333160400391e+00) (76, 2.47551172971725463867e-01) (77, 2.01548886299133300781e+00) (78, 5.44506490230560302734e-01) (79, 4.98432844877243041992e-01) (80, 1.85631334781646728516e+00) (81, 1.58682000637054443359e+00) (82, 1.15615415573120117188e+00) (83, 1.47000193595886230469e+00) (84, 2.01550036668777465820e-01) (85, 1.36340391635894775391e+00) (86, 2.03611612319946289062e+00) (87, 1.51295006275177001953e+00) (88, 2.82517582178115844727e-01) (89, 8.21638584136962890625e-01) (90, 3.21733415126800537109e-01) (91, 2.08948373794555664062e+00) (92, 9.09883320331573486328e-01) (93, 8.72561872005462646484e-01) (94, 2.03642821311950683594e+00) (95, 1.04282104969024658203e+00) (96, 1.12492311000823974609e+00) (97, 7.99665749073028564453e-01) (98, 1.37781941890716552734e+00) (99, 1.54171204566955566406e+00) (100, 1.32704347372055053711e-01) (101, 6.83871090412139892578e-01) (102, 1.07248389720916748047e+00) (103, 2.08090162277221679688e+00) (104, 1.31935536861419677734e+00) (105, 2.07293868064880371094e+00) (106, 1.62727534770965576172e+00) (107, 1.46250474452972412109e+00) (108, 1.97447371482849121094e+00) (109, 2.06738972663879394531e+00) (110, 1.85653448104858398438e+00) (111, 1.71685492992401123047e+00) (112, 1.54026651382446289062e+00) (113, 8.98761808872222900391e-01) (114, 1.07292449474334716797e+00) (115, 1.63741481304168701172e+00) (116, 1.48232161998748779297e-01) (117, 9.95102941989898681641e-01) (118, 1.03643274307250976562e+00) (119, 3.26348006725311279297e-01) (120, 1.71233308315277099609e+00) (121, 1.25376296043395996094e+00) (122, 3.01888704299926757812e-01) (123, 5.08284091949462890625e-01) (124, 2.02193260192871093750e+00) (125, 2.24372446537017822266e-01) (126, 1.44670200347900390625e+00) (127, 1.03291273117065429688e+00) (128, 9.19636428356170654297e-01) (129, 7.10594534873962402344e-01) (130, 4.60697948932647705078e-01) (131, 9.47939038276672363281e-01) (132, 1.29005718231201171875e+00) (133, 1.42877864837646484375e+00) (134, 9.14897382259368896484e-01) (135, 4.95485663414001464844e-01) (136, 1.38777422904968261719e+00) (137, 4.28240567445755004883e-01) (138, 1.85358726978302001953e+00) (139, 1.24831569194793701172e+00) (140, 3.81687074899673461914e-01) (141, 1.59618949890136718750e+00) (142, 8.51243793964385986328e-01) (143, 1.81755053997039794922e+00) (144, 3.81019115447998046875e-01) (145, 1.81976532936096191406e+00) (146, 1.34103310108184814453e+00) (147, 4.24849539995193481445e-01) (148, 7.00935959815979003906e-01) (149, 2.63538926839828491211e-01) (150, 6.46794438362121582031e-01) (151, 2.99336761236190795898e-01) (152, 1.41289877891540527344e+00) (153, 8.44280064105987548828e-01) (154, 7.03217744827270507812e-01) (155, 1.32088840007781982422e+00) (156, -1.85437515377998352051e-01) (157, 2.04552745819091796875e+00) (158, 2.39872843027114868164e-01) (0, 4.68828499317169189453e-01) (1, 1.75830185413360595703e+00) (2, 1.70287561416625976562e+00) (3, 1.33769822120666503906e+00) (4, 3.80510181188583374023e-01) (5, 1.53321075439453125000e+00) (6, 6.78408622741699218750e-01) (7, 7.62606561183929443359e-01) (8, 2.11323595046997070312e+00) (9, 1.98566317558288574219e+00) (10, 3.82013887166976928711e-01) (11, 1.51970613002777099609e+00) (12, 5.74006319046020507812e-01) (13, 1.76145327091217041016e+00) (14, 1.75303220748901367188e+00) (15, 1.48784852027893066406e+00) (16, 1.07824468612670898438e+00) (17, 1.73424315452575683594e+00) (18, 9.28751289844512939453e-01) (19, 2.00730967521667480469e+00) (20, 1.15544247627258300781e+00) (21, 1.11322736740112304688e+00) (22, 2.07562851905822753906e+00) (23, 1.56647697091102600098e-01) (24, 1.68420422077178955078e+00) (25, 4.78821665048599243164e-01) (26, 1.31975150108337402344e+00) (27, 1.81680262088775634766e+00) (28, 2.04618072509765625000e+00) (29, 9.43259239196777343750e-01) (30, 1.12808322906494140625e+00) (31, 3.97356957197189331055e-01) (32, 5.83919584751129150391e-01) (33, 7.13322639465332031250e-01) (34, 1.63065207004547119141e+00) (35, 8.60026717185974121094e-01) (36, 1.28890559077262878418e-01) (37, 1.91417813301086425781e-01) (38, 1.51822471618652343750e+00) (39, 1.24474756419658660889e-01) (40, 2.07269024848937988281e+00) (41, 1.79583561420440673828e+00) (42, 1.53977835178375244141e+00) (43, 5.29044091701507568359e-01) (44, 1.43964731693267822266e+00) (45, 1.17516899108886718750e+00) (46, 1.91248941421508789062e+00) (47, 4.00255769491195678711e-01) (48, 7.91775941848754882812e-01) (49, 7.23599195480346679688e-01) (50, 2.89912939071655273438e-01) (51, 1.84281539916992187500e+00) (52, 1.73242342472076416016e+00) (53, 2.47887730598449707031e-01) (54, 1.89506137371063232422e+00) (55, 1.29898619651794433594e+00) (56, 6.22307598590850830078e-01) (57, 1.09717130661010742188e+00) (58, 9.98152613639831542969e-01) (59, 5.50836086273193359375e-01) (60, 1.93602740764617919922e+00) (61, 2.02184343338012695312e+00) (62, 8.43789935111999511719e-01) (63, 4.02305483818054199219e-01) (64, 6.17513835430145263672e-01) (65, 3.56800466775894165039e-01) (66, 1.15792357921600341797e+00) (67, 6.42002463340759277344e-01) (68, 4.43816512823104858398e-01) (69, 5.58512210845947265625e-01) (70, 6.62074863910675048828e-01) (71, 3.98854196071624755859e-01) (72, 2.36704915761947631836e-01) (73, 2.09746098518371582031e+00) (74, 8.23495149612426757812e-01) (75, 1.57195043563842773438e+00) (76, 1.15497756004333496094e+00) (77, 6.18342995643615722656e-01) (78, 1.86780309677124023438e+00) (79, 1.84235036373138427734e+00) (80, 1.23753356933593750000e+00) (81, 2.05332374572753906250e+00) (82, 1.56752431392669677734e+00) (83, 8.52321028709411621094e-01) (84, 1.83559104800224304199e-01) (85, 1.34494411945343017578e+00) (86, 2.04691481590270996094e+00) (87, 7.01464951038360595703e-01) (88, 3.24479252099990844727e-01) (89, 9.27415072917938232422e-01) (90, 1.14789259433746337891e+00) (91, 1.42863750457763671875e-01) (92, 8.31606209278106689453e-01) (93, 1.88727939128875732422e+00) (94, 4.40767496824264526367e-01) (95, 1.34471154212951660156e+00) (96, 1.26437366008758544922e-01) (97, 1.49428808689117431641e+00) (98, 1.88231098651885986328e+00) (99, 4.65851664543151855469e-01) (100, 1.94839715957641601562e+00) (101, 4.26744282245635986328e-01) (102, 7.60302782058715820312e-01) (103, 2.08071112632751464844e+00) (104, 4.06552851200103759766e-01) (105, 1.47938942909240722656e+00) (106, 1.53500926494598388672e+00) (107, 1.45712721347808837891e+00) (108, 1.99332928657531738281e+00) (109, 1.28517079353332519531e+00) (110, 1.18183624744415283203e+00) (111, 1.11322128772735595703e+00) (112, 1.22084212303161621094e+00) (113, 6.31724357604980468750e-01) (114, 1.86113929748535156250e+00) (115, 1.29999959468841552734e+00) (116, 1.87226533889770507812e+00) (117, 1.79040181636810302734e+00) (118, 1.89706146717071533203e+00) (119, 2.09235239028930664062e+00) (120, 6.00175321102142333984e-01) (121, 9.27317798137664794922e-01) (122, 1.17564335465431213379e-01) (123, 1.32737302780151367188e+00) (124, 6.96955561637878417969e-01) (125, 4.53929394483566284180e-01) (126, 5.54448425769805908203e-01) (127, 7.18990683555603027344e-01) (128, 1.84381437301635742188e+00) (129, 3.19117844104766845703e-01) (130, 1.08043384552001953125e+00) (131, 1.67457008361816406250e+00) (132, 6.41458928585052490234e-01) (133, 1.73633348941802978516e+00) (134, 1.63762879371643066406e+00) (135, 9.43608701229095458984e-01) (136, 1.09808135032653808594e+00) (137, 1.05499649047851562500e+00) (138, 2.83094465732574462891e-01) (139, 9.73774492740631103516e-01) (140, 2.22529813647270202637e-01) (141, 1.36052763462066650391e+00) (142, 1.98259282112121582031e+00) (143, 1.33897018432617187500e+00) (144, 1.88784873485565185547e+00) (145, 1.72609055042266845703e+00) (146, 5.21333634853363037109e-01) (147, 1.64247250556945800781e+00) (148, 1.39885079860687255859e+00) (149, 3.00753384828567504883e-01) (150, 1.61717247962951660156e+00) (151, 1.89462304115295410156e+00) (152, 1.12366271018981933594e+00) (153, 1.63033449649810791016e+00) (154, 1.10435450077056884766e+00) (155, 1.71621513366699218750e+00) (156, 1.84207999706268310547e+00) (157, 1.55439984798431396484e+00) (158, 3.17564278841018676758e-01) (159, 1.70603346824645996094e+00) (0, 1.47188770771026611328e+00) (1, 1.73002338409423828125e+00) (2, 6.86940729618072509766e-01) (3, 1.54063093662261962891e+00) (4, 5.47392964363098144531e-01) (5, 5.91805696487426757812e-01) (6, 1.75615489482879638672e+00) (7, 2.07013535499572753906e+00) (8, 2.10687923431396484375e+00) (9, 1.63528525829315185547e+00) (10, 2.62477636337280273438e-01) (11, 4.60680335760116577148e-01) (12, 1.83403980731964111328e+00) (13, 1.50396600365638732910e-01) (14, 7.79014945030212402344e-01) (15, 5.22197008132934570312e-01) (16, 6.91453397274017333984e-01) (17, 9.96519625186920166016e-01) (18, 5.82849264144897460938e-01) (19, 9.41210389137268066406e-01) (20, 1.93308031558990478516e+00) (21, 1.69364824891090393066e-01) (22, 1.44080448150634765625e+00) (23, 1.27362155914306640625e+00) (24, 1.31211709976196289062e+00) (25, 9.91732716560363769531e-01) (26, 1.70471274852752685547e+00) (27, 3.14888447523117065430e-01) (28, 1.45350873470306396484e+00) (29, 7.45828807353973388672e-01) (30, 1.87451064586639404297e+00) (31, 8.04878413677215576172e-01) (32, 3.55328917503356933594e-01) (33, 4.40928101539611816406e-01) (34, 2.24984675645828247070e-01) (35, 7.98318803310394287109e-01) (36, 9.28330719470977783203e-01) (37, 1.87673771381378173828e+00) (38, 7.47919857501983642578e-01) (39, 9.14675772190093994141e-01) (40, 1.39149963855743408203e+00) (41, 9.05994355678558349609e-01) (42, 1.27094757556915283203e+00) (43, 1.10501623153686523438e+00) (44, 9.51989233493804931641e-01) (45, 1.94555938243865966797e+00) (46, 1.52280998229980468750e+00) (47, 1.53903412818908691406e+00) (48, 8.21555733680725097656e-01) (49, 2.00125932693481445312e+00) (50, 3.59721213579177856445e-01) (51, 6.34112596511840820312e-01) (52, 2.06623029708862304688e+00) (53, 1.69612264633178710938e+00) (54, 1.80333113670349121094e+00) (55, 1.25781297683715820312e+00) (56, 5.67331969738006591797e-01) (57, 1.38752055168151855469e+00) (58, 1.46829843521118164062e+00) (59, 1.91643762588500976562e+00) (60, 2.02895689010620117188e+00) (61, 1.22228586673736572266e+00) (62, 6.00792646408081054688e-01) (63, 2.63751834630966186523e-01) (64, 1.55881083011627197266e+00) (65, 7.21375584602355957031e-01) (66, 9.57667529582977294922e-01) (67, 3.66618216037750244141e-01) (68, 4.77589994668960571289e-01) (69, 1.60117888450622558594e+00) (70, 1.17688548564910888672e+00) (71, 1.76468658447265625000e+00) (72, 3.86649906635284423828e-01) (73, 3.27315032482147216797e-01) (74, 7.49184846878051757812e-01) (75, 1.23423051834106445312e+00) (76, 1.52349740266799926758e-01) (77, 1.51470258831977844238e-01) (78, 6.52746796607971191406e-01) (79, 8.69503736495971679688e-01) (80, 2.04833555221557617188e+00) (81, 9.08064901828765869141e-01) (82, 1.39920771121978759766e+00) (83, 1.99402081966400146484e+00) (84, 4.83664214611053466797e-01) (85, 1.08201563358306884766e+00) (86, 1.13131058216094970703e+00) (87, 9.46593105792999267578e-01) (88, 3.49018216133117675781e-01) (89, 4.79091137647628784180e-01) (90, 7.42507278919219970703e-01) (91, 2.57441103458404541016e-01) (92, 1.59697377681732177734e+00) (93, 1.23889148235321044922e+00) (94, 4.16789829730987548828e-01) (95, 1.03526139259338378906e+00) (96, 1.85586392879486083984e+00) (97, 1.27004873752593994141e+00) (98, 1.29747641086578369141e+00) (99, 2.12929248809814453125e-01) (100, 7.50709772109985351562e-01) (101, 3.53843867778778076172e-01) (102, 1.87321412563323974609e+00) (103, 1.03295123577117919922e+00) (104, 5.76755762100219726562e-01) (105, 5.01875579357147216797e-01) (106, 1.46662488579750061035e-01) (107, 6.24703764915466308594e-01) (108, 5.48944115638732910156e-01) (109, 6.95007562637329101562e-01) (110, 1.38979899883270263672e+00) (111, 4.76745575666427612305e-01) (112, 1.49866390228271484375e+00) (113, 6.68488860130310058594e-01) (114, 3.50243091583251953125e-01) (115, 1.87792503833770751953e+00) (116, 1.64610135555267333984e+00) (117, 1.37715053558349609375e+00) (118, 7.03994810581207275391e-01) (119, 1.89071643352508544922e+00) (120, 1.75183856487274169922e+00) (121, 1.34209358692169189453e+00) (122, 2.04376530647277832031e+00) (123, 1.22828912734985351562e+00) (124, 4.60467219352722167969e-01) (125, 3.40020984411239624023e-01) (126, 1.43031090497970581055e-01) (127, 1.95806443691253662109e-01) (128, 1.50566673278808593750e+00) (129, 1.33610558509826660156e+00) (130, 3.04335266351699829102e-01) (131, 1.35851845145225524902e-01) (132, 1.58554649353027343750e+00) (133, 2.07315707206726074219e+00) (134, 1.06440126895904541016e+00) (135, 2.05790996551513671875e+00) (136, 4.54498529434204101562e-01) (137, 1.10666191577911376953e+00) (138, 5.62079608440399169922e-01) (139, 8.99039447307586669922e-01) (140, 1.69726645946502685547e+00) (141, 1.84747552871704101562e+00) (142, 1.27137649059295654297e+00) (143, 1.07540714740753173828e+00) (144, 3.95441055297851562500e-01) (145, 1.51721656322479248047e+00) (146, 8.32814276218414306641e-01) (147, 1.93713927268981933594e+00) (148, 7.73849189281463623047e-01) (149, 1.43240046501159667969e+00) (150, 1.70733249187469482422e+00) (151, 4.05164480209350585938e-01) (152, 6.53976261615753173828e-01) (153, 1.63056361675262451172e+00) (154, 1.52905046939849853516e+00) (155, 1.01003503799438476562e+00) (156, 1.61183965206146240234e+00) (157, 1.56767976284027099609e+00) (158, 1.10143971443176269531e+00) (159, 1.25132489204406738281e+00) (160, 7.83267617225646972656e-01) (0, 1.28885722160339355469e+00) (1, 1.19257843494415283203e+00) (2, 5.58885574340820312500e-01) (3, 4.33784067630767822266e-01) (4, 1.71294260025024414062e+00) (5, 1.89716529846191406250e+00) (6, 3.03865462541580200195e-01) (7, 1.87618136405944824219e+00) (8, 1.06798148155212402344e+00) (9, 1.59284436702728271484e+00) (10, 1.66706538200378417969e+00) (11, 1.34070682525634765625e+00) (12, 1.80619239807128906250e+00) (13, 1.76831066608428955078e+00) (14, 1.02214097976684570312e+00) (15, 6.56671643257141113281e-01) (16, 1.56513524055480957031e+00) (17, 4.46040213108062744141e-01) (18, 3.75433683395385742188e-01) (19, 1.94280505180358886719e+00) (20, 1.49735760688781738281e+00) (21, 1.44677317142486572266e+00) (22, 3.65357071161270141602e-01) (23, 1.15746662020683288574e-01) (24, 2.01646828651428222656e+00) (25, 3.15422832965850830078e-01) (26, 1.97126686573028564453e+00) (27, 1.18473494052886962891e+00) (28, 1.34133625030517578125e+00) (29, 3.16067725419998168945e-01) (30, 3.82017254829406738281e-01) (31, 5.07317900657653808594e-01) (32, 1.40424311161041259766e+00) (33, 8.36499750614166259766e-01) (34, 8.36698830127716064453e-01) (35, 9.94309961795806884766e-01) (36, 6.10783874988555908203e-01) (37, 1.03615581989288330078e+00) (38, 7.47610270977020263672e-01) (39, 1.57436215877532958984e+00) (40, 5.06124496459960937500e-01) (41, 2.91794657707214355469e-01) (42, 7.92193412780761718750e-01) (43, 1.89434468746185302734e-01) (44, 1.95570218563079833984e+00) (45, 1.70993125438690185547e+00) (46, 7.41704404354095458984e-01) (47, 1.39795625209808349609e+00) (48, 2.05157923698425292969e+00) (49, 1.01272952556610107422e+00) (50, 1.21788036823272705078e+00) (51, 1.42604494094848632812e+00) (52, 3.36627006530761718750e-01) (53, 1.47883427143096923828e+00) (54, 1.43738925457000732422e+00) (55, 2.30202183127403259277e-01) (56, 1.68985402584075927734e+00) (57, 1.28577506542205810547e+00) (58, 1.31053555011749267578e+00) (59, 9.08314585685729980469e-01) (60, 1.49743962287902832031e+00) (61, 1.58814966678619384766e+00) (62, 1.31122386455535888672e+00) (63, 7.78807044029235839844e-01) (64, 3.01768273115158081055e-01) (65, 2.04353046417236328125e+00) (66, 1.66870856285095214844e+00) (67, 8.08149099349975585938e-01) (68, 9.56799864768981933594e-01) (69, 2.93437659740447998047e-01) (70, 2.59630233049392700195e-01) (71, 1.35851573944091796875e+00) (72, 4.80829268693923950195e-01) (73, 9.47420597076416015625e-01) (74, 1.44354856014251708984e+00) (75, 3.13650399446487426758e-01) (76, 5.34470856189727783203e-01) (77, 2.08086061477661132812e+00) (78, 1.60720360279083251953e+00) (79, 4.63158160448074340820e-01) (80, 9.70703721046447753906e-01) (81, 7.02208280563354492188e-01) (82, 1.78480005264282226562e+00) (83, 1.20292222499847412109e+00) (84, 2.07665038108825683594e+00) (85, 1.09930825233459472656e+00) (86, 1.32872271537780761719e+00) (87, 1.64361250400543212891e+00) (88, 2.62207627296447753906e-01) (89, 5.16382455825805664062e-01) (90, 4.29046094417572021484e-01) (91, 1.65524411201477050781e+00) (92, 2.00012922286987304688e+00) (93, 1.63586688041687011719e+00) (94, 3.11170160770416259766e-01) (95, 1.79014861583709716797e-01) (96, 1.55650556087493896484e+00) (97, 1.87547552585601806641e+00) (98, 8.82762134075164794922e-01) (99, 3.90424400568008422852e-01) (100, 2.06452107429504394531e+00) (101, 1.03798401355743408203e+00) (102, 1.64453709125518798828e+00) (103, 4.22458320856094360352e-01) (104, 1.88100135326385498047e+00) (105, 9.65210020542144775391e-01) (106, 6.31705641746520996094e-01) (107, 2.92591154575347900391e-01) (108, 9.23178791999816894531e-01) (109, 1.16027474403381347656e-01) (110, 6.51346206665039062500e-01) (111, 1.78947389125823974609e+00) (112, 7.13833332061767578125e-01) (113, 3.13265234231948852539e-01) (114, 8.69520545005798339844e-01) (115, 6.67591810226440429688e-01) (116, 1.30817043781280517578e+00) (117, 2.09385108947753906250e+00) (118, 1.88321948051452636719e-01) (119, 1.46597492694854736328e+00) (120, 4.87341552972793579102e-01) (121, 5.12966275215148925781e-01) (122, 9.98343408107757568359e-01) (123, 3.64589452743530273438e-01) (124, 2.04444098472595214844e+00) (125, 1.20510506629943847656e+00) (126, 4.39202576875686645508e-01) (127, 1.47805464267730712891e+00) (128, 9.57704901695251464844e-01) (129, 1.21755611896514892578e+00) (130, 1.76407587528228759766e+00) (131, 8.99333953857421875000e-01) (132, 1.32663115859031677246e-01) (133, 1.28573191165924072266e+00) (134, 1.21738374233245849609e+00) (135, 1.90926277637481689453e+00) (136, 1.28059774637222290039e-01) (137, 1.74468624591827392578e+00) (138, 2.09746170043945312500e+00) (139, 9.46836531162261962891e-01) (140, 1.75631129741668701172e+00) (141, 6.25915944576263427734e-01) (142, 6.13429486751556396484e-01) (143, 3.47263664007186889648e-01) (144, 8.34778070449829101562e-01) (145, 1.37854146957397460938e+00) (146, 9.10452425479888916016e-01) (147, 2.03855609893798828125e+00) (148, 1.34950065612792968750e+00) (149, 9.94372546672821044922e-01) (150, 1.38163912296295166016e+00) (151, 1.73243892192840576172e+00) (152, 1.40293025970458984375e+00) (153, 2.57101565599441528320e-01) (154, 1.99262523651123046875e+00) (155, 1.32447934150695800781e+00) (156, 5.92731297016143798828e-01) (157, 3.08946818113327026367e-01) (158, 6.79658353328704833984e-01) (159, 1.92626073956489562988e-01) (160, 1.42209982872009277344e+00) (161, 3.20853203535079956055e-01) (0, 1.45420861244201660156e+00) (1, 1.28902927041053771973e-01) (2, 1.17654073238372802734e+00) (3, 5.77530562877655029297e-01) (4, 6.21654093265533447266e-01) (5, 1.25403940677642822266e+00) (6, 1.09593413770198822021e-01) (7, 3.19893538951873779297e-01) (8, 1.39992082118988037109e+00) (9, 1.91218149662017822266e+00) (10, 4.29914265871047973633e-01) (11, 1.35727739334106445312e+00) (12, 1.48598861694335937500e+00) (13, 1.21644663810729980469e+00) (14, 2.09531068801879882812e+00) (15, 6.62075936794281005859e-01) (16, 4.64493691921234130859e-01) (17, 1.89725232124328613281e+00) (18, 1.55499827861785888672e+00) (19, 1.60924041271209716797e+00) (20, 4.10872787237167358398e-01) (21, 4.63426798582077026367e-01) (22, 5.47635495662689208984e-01) (23, 9.07084643840789794922e-01) (24, 1.09851431846618652344e+00) (25, 1.27773630619049072266e+00) (26, 1.57502174377441406250e+00) (27, 1.91000533103942871094e+00) (28, 1.15448200702667236328e+00) (29, 1.78216016292572021484e+00) (30, 8.16322088241577148438e-01) (31, 4.83819365501403808594e-01) (32, 1.80666124820709228516e+00) (33, 1.88845980167388916016e+00) (34, 9.56946790218353271484e-01) (35, 3.03438723087310791016e-01) (36, 1.01762259006500244141e+00) (37, 9.62137818336486816406e-01) (38, 5.18929183483123779297e-01) (39, 2.92672216892242431641e-01) (40, 7.49442577362060546875e-01) (41, 8.44440221786499023438e-01) (42, 1.54554653167724609375e+00) (43, 1.10553905367851257324e-01) (44, 1.95648396015167236328e+00) (45, 1.51596963405609130859e+00) (46, 6.68227434158325195312e-01) (47, 2.96100914478302001953e-01) (48, 1.28834533691406250000e+00) (49, 2.11883354187011718750e+00) (50, 1.80093824863433837891e+00) (51, 1.59481513500213623047e+00) (52, 4.57372814416885375977e-01) (53, 2.23695859313011169434e-01) (54, 3.77023100852966308594e-01) (55, 1.45148396492004394531e+00) (56, 1.39703047275543212891e+00) (57, 1.84764170646667480469e+00) (58, 1.23661267757415771484e+00) (59, 4.26641255617141723633e-01) (60, 1.50492525100708007812e+00) (61, 1.94853162765502929688e+00) (62, 8.06057453155517578125e-01) (63, 1.18670988082885742188e+00) (64, 1.71211493015289306641e+00) (65, 1.65859580039978027344e+00) (66, 1.38574552536010742188e+00) (67, 6.04866266250610351562e-01) (68, 4.95857000350952148438e-01) (69, 1.80027163028717041016e+00) (70, 7.93135344982147216797e-01) (71, 1.14089107513427734375e+00) (72, 5.19835233688354492188e-01) (73, 2.13803961873054504395e-01) (74, 1.14704251289367675781e+00) (75, 3.51442456245422363281e-01) (76, 1.62537181377410888672e+00) (77, 1.71086680889129638672e+00) (78, 5.43140232563018798828e-01) (79, 7.88846015930175781250e-01) (80, 1.70481276512145996094e+00) (81, 2.19200596213340759277e-01) (82, 2.58784472942352294922e-01) (83, 2.05779337882995605469e+00) (84, 3.38496029376983642578e-01) (85, 5.31404495239257812500e-01) (86, 1.38438999652862548828e+00) (87, 1.63112342357635498047e+00) (88, 2.54169464111328125000e-01) (89, 4.96131420135498046875e-01) (90, 1.95336163043975830078e+00) (91, 1.65469169616699218750e+00) (92, 3.19786489009857177734e-01) (93, 6.34542465209960937500e-01) (94, 7.16530382633209228516e-01) (95, 1.92749822139739990234e+00) (96, 1.68260276317596435547e-01) (97, 1.99787282943725585938e+00) (98, 4.07487928867340087891e-01) (99, 5.59715449810028076172e-01) (100, 1.67326760292053222656e+00) (101, 1.09621477127075195312e+00) (102, 1.59620344638824462891e+00) (103, 2.08871078491210937500e+00) (104, 1.20561707019805908203e+00) (105, 6.18374764919281005859e-01) (106, 3.15265625715255737305e-01) (107, 7.06117630004882812500e-01) (108, 2.04363703727722167969e-01) (109, 7.54002809524536132812e-01) (110, 1.39055514335632324219e+00) (111, 1.80477488040924072266e+00) (112, 8.68801653385162353516e-01) (113, 1.54493653774261474609e+00) (114, 1.73768079280853271484e+00) (115, 1.10288918018341064453e+00) (116, 1.97193789482116699219e+00) (117, 9.97199475765228271484e-01) (118, 6.09141409397125244141e-01) (119, 2.12171530723571777344e+00) (120, 1.38892233371734619141e+00) (121, 4.37626391649246215820e-01) (122, 1.65151941776275634766e+00) (123, 1.60430574417114257812e+00) (124, 9.67765748500823974609e-01) (125, 2.43171870708465576172e-01) (126, 1.40692746639251708984e+00) (127, 1.03161895275115966797e+00) (128, 1.16168685257434844971e-01) (129, 1.71001219749450683594e+00) (130, 1.48693120479583740234e+00) (131, 1.68503403663635253906e+00) (132, 6.81355774402618408203e-01) (133, 9.58263456821441650391e-01) (134, 1.64885711669921875000e+00) (135, 1.78256976604461669922e+00) (136, 1.47222971916198730469e+00) (137, 1.85971963405609130859e+00) (138, 3.63810718059539794922e-01) (139, 1.57219171524047851562e+00) (140, 4.88845854997634887695e-01) (141, 1.64996278285980224609e+00) (142, 1.25208985805511474609e+00) (143, 1.25323903560638427734e+00) (144, 1.07002258300781250000e+00) (145, 8.64899396896362304688e-01) (146, 2.31255576014518737793e-01) (147, 9.17089343070983886719e-01) (148, 1.75769031047821044922e+00) (149, 7.35995173454284667969e-01) (150, 9.13917124271392822266e-01) (151, 1.02173614501953125000e+00) (152, 1.06921315193176269531e+00) (153, 4.40559953451156616211e-01) (154, 5.01170694828033447266e-01) (155, 1.93257570266723632812e+00) (156, -9.66221928596496582031e-01) (157, 1.80369508266448974609e+00) (158, 8.39323341846466064453e-01) (159, 5.91096282005310058594e-01) (160, 1.38883066177368164062e+00) (161, 2.01376631855964660645e-01) (162, 1.51252314448356628418e-01) (0, 8.09279203414916992188e-01) (1, 8.72258365154266357422e-01) (2, 1.88206446170806884766e+00) (3, 3.33070814609527587891e-01) (4, 1.26385056972503662109e+00) (5, 1.41456305980682373047e+00) (6, 5.76464593410491943359e-01) (7, 1.01497507095336914062e+00) (8, 8.26021969318389892578e-01) (9, 7.30470418930053710938e-01) (10, 1.54668569564819335938e+00) (11, 2.21392318606376647949e-01) (12, 8.82991313934326171875e-01) (13, 1.47224533557891845703e+00) (14, 8.62528681755065917969e-01) (15, 1.57373142242431640625e+00) (16, 1.13526403903961181641e+00) (17, 7.15438187122344970703e-01) (18, 2.13121086359024047852e-01) (19, 1.67475771903991699219e+00) (20, 1.20559215545654296875e+00) (21, 1.52310752868652343750e+00) (22, 3.56571316719055175781e-01) (23, 1.97723567485809326172e-01) (24, 1.68743121623992919922e+00) (25, 2.96820312738418579102e-01) (26, 2.95808017253875732422e-01) (27, 6.89965844154357910156e-01) (28, 1.53683543205261230469e+00) (29, 8.37608993053436279297e-01) (30, 8.84944438934326171875e-01) (31, 2.19506517052650451660e-01) (32, 1.60545885562896728516e+00) (33, 6.40402078628540039062e-01) (34, 4.48175579309463500977e-01) (35, 7.42708146572113037109e-01) (36, 1.95056211948394775391e+00) (37, 9.20237123966217041016e-01) (38, 1.65328013896942138672e+00) (39, 6.49977207183837890625e-01) (40, 1.54629898071289062500e+00) (41, 1.07335913181304931641e+00) (42, 7.66967833042144775391e-01) (43, 3.02683472633361816406e-01) (44, 4.19003069400787353516e-01) (45, 1.52508795261383056641e+00) (46, 1.77201199531555175781e+00) (47, 1.44986391067504882812e+00) (48, 1.13918684422969818115e-01) (49, 1.88073122501373291016e+00) (50, 9.98020231723785400391e-01) (51, 1.21510839462280273438e+00) (52, 1.27723193168640136719e+00) (53, 1.25018298625946044922e+00) (54, 1.30843019485473632812e+00) (55, 8.38061809539794921875e-01) (56, 1.44260025024414062500e+00) (57, 1.49983513355255126953e+00) (58, 1.42361915111541748047e+00) (59, 8.52834284305572509766e-01) (60, 2.10835993289947509766e-01) (61, 1.81955486536026000977e-01) (62, 9.67939019203186035156e-01) (63, 1.71189320087432861328e+00) (64, 7.17955768108367919922e-01) (65, 1.31170606613159179688e+00) (66, 3.27994465827941894531e-01) (67, 5.41911065578460693359e-01) (68, 1.05335704982280731201e-01) (69, 1.87687146663665771484e+00) (70, 1.08747982978820800781e+00) (71, 1.54723227024078369141e+00) (72, 8.23629260063171386719e-01) (73, 1.75004458427429199219e+00) (74, 1.74551260471343994141e+00) (75, 1.13822376728057861328e+00) (76, 1.14852559566497802734e+00) (77, 1.39091777801513671875e+00) (78, 4.61486428976058959961e-01) (79, 1.15804195404052734375e+00) (80, 1.14504206180572509766e+00) (81, 1.35509812831878662109e+00) (82, 2.46547564864158630371e-01) (83, 2.95672684907913208008e-01) (84, 4.78679805994033813477e-01) (85, 1.45057594776153564453e+00) (86, 1.02932608127593994141e+00) (87, 1.81687700748443603516e+00) (88, 8.23809683322906494141e-01) (89, 3.26343804597854614258e-01) (90, 5.43104410171508789062e-01) (91, 9.30243968963623046875e-01) (92, 4.03897553682327270508e-01) (93, 1.40663504600524902344e+00) (94, 5.15530288219451904297e-01) (95, 1.01744484901428222656e+00) (96, 5.91739654541015625000e-01) (97, 7.39121675491333007812e-01) (98, 1.45495271682739257812e+00) (99, 5.92672944068908691406e-01) (100, 4.89386379718780517578e-01) (101, 4.15831208229064941406e-01) (102, 2.03551292419433593750e+00) (103, 1.20860719680786132812e+00) (104, 2.06148362159729003906e+00) (105, 1.65440797805786132812e+00) (106, 2.20228165388107299805e-01) (107, 1.08339154720306396484e+00) (108, 9.18724298477172851562e-01) (109, 5.77312767505645751953e-01) (110, 1.14831343293190002441e-01) (111, 1.95936334133148193359e+00) (112, 1.82800781726837158203e+00) (113, 2.56977826356887817383e-01) (114, 1.28428056836128234863e-01) (115, 1.80079489946365356445e-01) (116, 1.60315084457397460938e+00) (117, 1.05335223674774169922e+00) (118, 1.89255464076995849609e+00) (119, 3.00353646278381347656e-01) (120, 1.27529287338256835938e+00) (121, 3.09052318334579467773e-01) (122, 1.12618911266326904297e+00) (123, 1.57478725910186767578e+00) (124, 1.61128425598144531250e+00) (125, 1.53731632232666015625e+00) (126, 4.65630769729614257812e-01) (127, 2.09863162040710449219e+00) (128, 1.49829789996147155762e-01) (129, 1.81618046760559082031e+00) (130, 5.64686894416809082031e-01) (131, 5.34814417362213134766e-01) (132, 1.05404183268547058105e-01) (133, 4.73582237958908081055e-01) (134, 1.63901841640472412109e+00) (135, 2.06248545646667480469e+00) (136, 2.02359771728515625000e+00) (137, 1.75484478473663330078e+00) (138, 1.01925909519195556641e+00) (139, 8.15704643726348876953e-01) (140, 2.05549493432044982910e-01) (141, 1.02968811988830566406e+00) (142, 6.48461163043975830078e-01) (143, 1.92915558815002441406e+00) (144, 1.18226277828216552734e+00) (145, 6.72487318515777587891e-01) (146, 2.00484418869018554688e+00) (147, 6.58812046051025390625e-01) (148, 1.62143635749816894531e+00) (149, 1.77078115940093994141e+00) (150, 8.54762673377990722656e-01) (151, 7.70127832889556884766e-01) (152, 1.97543036937713623047e+00) (153, 1.87654864788055419922e+00) (154, 2.18307048082351684570e-01) (155, 1.46010780334472656250e+00) (156, 4.47914928197860717773e-01) (157, 5.79536020755767822266e-01) (158, 1.43212175369262695312e+00) (159, 1.33268618583679199219e+00) (160, 2.69109696149826049805e-01) (161, 1.89240550994873046875e+00) (162, 1.76309752464294433594e+00) (163, 2.70111471414566040039e-01) (0, 8.77991616725921630859e-01) (1, 1.11288726329803466797e+00) (2, 1.96956789493560791016e+00) (3, 4.49323087930679321289e-01) (4, 1.53646945953369140625e+00) (5, 1.59089648723602294922e+00) (6, 1.44263887405395507812e+00) (7, 1.14567720890045166016e+00) (8, 1.60695469379425048828e+00) (9, 1.07953095436096191406e+00) (10, 1.36487329006195068359e+00) (11, 1.24550151824951171875e+00) (12, 1.31271493434906005859e+00) (13, 1.44481837749481201172e-01) (14, 1.49680685997009277344e+00) (15, 2.74261683225631713867e-01) (16, 2.02462887763977050781e+00) (17, 1.79156363010406494141e+00) (18, 1.94869470596313476562e+00) (19, 1.80109584331512451172e+00) (20, 1.89495623111724853516e+00) (21, 4.08169120550155639648e-01) (22, 4.35806125402450561523e-01) (23, 1.33051264286041259766e+00) (24, 1.77453982830047607422e+00) (25, 7.07238793373107910156e-01) (26, 1.00376451015472412109e+00) (27, 1.75832974910736083984e+00) (28, 2.44271770119667053223e-01) (29, 2.01625490188598632812e+00) (30, 1.08915448188781738281e+00) (31, 1.01785624027252197266e+00) (32, 1.00100135803222656250e+00) (33, 9.30593550205230712891e-01) (34, 1.36277616024017333984e+00) (35, 4.09337937831878662109e-01) (36, 3.93355995416641235352e-01) (37, 6.77286386489868164062e-01) (38, 1.45061206817626953125e+00) (39, 1.89590764045715332031e+00) (40, 1.65241420269012451172e+00) (41, 6.87356591224670410156e-01) (42, 1.01327490806579589844e+00) (43, 8.37000370025634765625e-01) (44, 7.27436661720275878906e-01) (45, 3.81953150033950805664e-01) (46, 1.00685369968414306641e+00) (47, 6.23920798301696777344e-01) (48, 2.06912446022033691406e+00) (49, 8.27419519424438476562e-01) (50, 2.96882450580596923828e-01) (51, 1.83593571186065673828e+00) (52, 1.13118004798889160156e+00) (53, 6.28285467624664306641e-01) (54, 1.03831434249877929688e+00) (55, 7.77591168880462646484e-01) (56, 1.23111581802368164062e+00) (57, 1.93768012523651123047e+00) (58, 4.07786786556243896484e-01) (59, 1.37098586559295654297e+00) (60, 1.82579004764556884766e+00) (61, 1.39253818988800048828e+00) (62, 2.60713368654251098633e-01) (63, 6.98658525943756103516e-01) (64, 1.94996252655982971191e-01) (65, 1.51908648014068603516e+00) (66, 1.00358915328979492188e+00) (67, 4.83950465917587280273e-01) (68, 2.09198069572448730469e+00) (69, 3.26071321964263916016e-01) (70, 2.51723140478134155273e-01) (71, 1.61624991893768310547e+00) (72, 9.09024775028228759766e-01) (73, 1.16059589385986328125e+00) (74, 3.25116097927093505859e-01) (75, 1.53205287456512451172e+00) (76, 1.43814587593078613281e+00) (77, 1.22756659984588623047e+00) (78, 2.05158138275146484375e+00) (79, 1.37912535667419433594e+00) (80, 1.95058298110961914062e+00) (81, 2.20317661762237548828e-01) (82, 1.08692705631256103516e+00) (83, 9.53634381294250488281e-01) (84, 7.44201362133026123047e-01) (85, 2.02085423469543457031e+00) (86, 1.62681698799133300781e+00) (87, 1.87091410160064697266e+00) (88, 1.83038949966430664062e+00) (89, 1.93020069599151611328e+00) (90, 1.11376583576202392578e+00) (91, 1.52804541587829589844e+00) (92, 1.19460475444793701172e+00) (93, 1.27007603645324707031e+00) (94, 2.12231183052062988281e+00) (95, 1.28519916534423828125e+00) (96, 6.61033809185028076172e-01) (97, 9.97760117053985595703e-01) (98, 1.66474652290344238281e+00) (99, 6.24869406223297119141e-01) (100, 1.21942293643951416016e+00) (101, 1.81206738948822021484e+00) (102, 1.12984456121921539307e-01) (103, 2.02405524253845214844e+00) (104, 8.44534516334533691406e-01) (105, 3.33698123693466186523e-01) (106, 1.42796337604522705078e+00) (107, 1.54544979333877563477e-01) (108, 1.45686149597167968750e+00) (109, 1.35140001773834228516e+00) (110, 1.42926859855651855469e+00) (111, 1.27931034564971923828e+00) (112, 1.46731591224670410156e+00) (113, 3.88066887855529785156e-01) (114, 1.04809954762458801270e-01) (115, 2.10712504386901855469e+00) (116, 2.80776262283325195312e-01) (117, 1.62722456455230712891e+00) (118, 1.84989416599273681641e+00) (119, 2.00677347183227539062e+00) (120, 1.42929112911224365234e+00) (121, 8.35531175136566162109e-01) (122, 1.40667402744293212891e+00) (123, 4.95767176151275634766e-01) (124, 2.00120711326599121094e+00) (125, 1.40084075927734375000e+00) (126, 1.67656326293945312500e+00) (127, 5.34103810787200927734e-01) (128, 2.70466774702072143555e-01) (129, 1.21317565441131591797e+00) (130, 1.05456471443176269531e+00) (131, 1.38548660278320312500e+00) (132, 8.97114336490631103516e-01) (133, 1.06314671039581298828e+00) (134, 1.28139698505401611328e+00) (135, 1.63724040985107421875e+00) (136, 1.29244172573089599609e+00) (137, 5.81231713294982910156e-01) (138, 1.68738353252410888672e+00) (139, 6.21174633502960205078e-01) (140, 1.82822859287261962891e+00) (141, 9.88523542881011962891e-01) (142, 1.79608190059661865234e+00) (143, 1.16741037368774414062e+00) (144, 1.27218198776245117188e+00) (145, 1.79648935794830322266e+00) (146, 1.14639043807983398438e+00) (147, 1.44855511188507080078e+00) (148, 1.29557991027832031250e+00) (149, 8.68155777454376220703e-01) (150, 1.32718360424041748047e+00) (151, 5.96742331981658935547e-01) (152, 1.59927845001220703125e+00) (153, 6.05728983879089355469e-01) (154, 9.88106369972229003906e-01) (155, 1.47234845161437988281e+00) (156, 1.67619931697845458984e+00) (157, 5.36535501480102539062e-01) (158, 1.90204918384552001953e+00) (159, 2.06824135780334472656e+00) (160, 1.64530801773071289062e+00) (161, 8.28485190868377685547e-01) (162, 1.32558286190032958984e+00) (163, 4.14288282394409179688e-01) (164, 1.78722882270812988281e+00) (0, 1.36213219165802001953e+00) (1, 8.40192139148712158203e-01) (2, 2.64154344797134399414e-01) (3, 1.25919604301452636719e+00) (4, 1.80273497104644775391e+00) (5, 6.34445965290069580078e-01) (6, 9.73997235298156738281e-01) (7, 1.92096185684204101562e+00) (8, 3.87236267328262329102e-01) (9, 2.09213614463806152344e+00) (10, 7.55119144916534423828e-01) (11, 2.25496321916580200195e-01) (12, 4.33485358953475952148e-01) (13, 7.43785917758941650391e-01) (14, 4.61037188768386840820e-01) (15, 1.36833047866821289062e+00) (16, 1.96452009677886962891e+00) (17, 6.19663298130035400391e-01) (18, 6.74033939838409423828e-01) (19, 2.11546707153320312500e+00) (20, 8.33444058895111083984e-01) (21, 1.92140555381774902344e+00) (22, 1.99701619148254394531e+00) (23, 1.82659161090850830078e+00) (24, 1.08675003051757812500e+00) (25, 1.82850229740142822266e+00) (26, 1.92566561698913574219e+00) (27, 1.01492857933044433594e+00) (28, 1.76659631729125976562e+00) (29, 9.68069016933441162109e-01) (30, 1.55928885936737060547e+00) (31, 9.99232411384582519531e-01) (32, 1.70385277271270751953e+00) (33, 1.71904003620147705078e+00) (34, 1.28925755620002746582e-01) (35, 1.37708628177642822266e+00) (36, 2.23983198404312133789e-01) (37, 9.98521208763122558594e-01) (38, 1.16854655742645263672e+00) (39, 5.06817698478698730469e-01) (40, 9.61145043373107910156e-01) (41, 1.81926274299621582031e+00) (42, 6.27912223339080810547e-01) (43, 1.29022192955017089844e+00) (44, 4.33547168970108032227e-01) (45, 9.84546303749084472656e-01) (46, 5.29056310653686523438e-01) (47, 2.68565803766250610352e-01) (48, 1.49980103969573974609e+00) (49, 1.09868180751800537109e+00) (50, 2.54520654678344726562e-01) (51, 2.03742310404777526855e-01) (52, 8.90591144561767578125e-01) (53, 1.22034735977649688721e-01) (54, 1.92593216896057128906e+00) (55, 1.87293803691864013672e+00) (56, 1.84613454341888427734e+00) (57, 1.72209632396697998047e+00) (58, 7.58370578289031982422e-01) (59, 1.48322951793670654297e+00) (60, 5.60663878917694091797e-01) (61, 1.88156574964523315430e-01) (62, 3.52960407733917236328e-01) (63, 1.35013788938522338867e-01) (64, 1.80279493331909179688e+00) (65, 3.77484321594238281250e-01) (66, 1.40769827365875244141e+00) (67, 1.92237639427185058594e+00) (68, 1.27159690856933593750e+00) (69, 4.46748912334442138672e-01) (70, 2.99692511558532714844e-01) (71, 2.12834978103637695312e+00) (72, 1.36508777737617492676e-01) (73, 8.23201715946197509766e-01) (74, 1.28905940055847167969e+00) (75, 4.65654194355010986328e-01) (76, 1.70333945751190185547e+00) (77, 1.71371257305145263672e+00) (78, 6.29816889762878417969e-01) (79, 1.07363903522491455078e+00) (80, 6.82898283004760742188e-01) (81, 7.79934465885162353516e-01) (82, 1.17297959327697753906e+00) (83, 1.46908080577850341797e+00) (84, 7.97566771507263183594e-01) (85, 9.69415783882141113281e-01) (86, 1.21251749992370605469e+00) (87, 5.14199912548065185547e-01) (88, 5.62010645866394042969e-01) (89, 1.86648499965667724609e+00) (90, 1.89302623271942138672e+00) (91, 1.01826608180999755859e+00) (92, 1.95023977756500244141e+00) (93, 1.16484507918357849121e-01) (94, 1.04887819290161132812e+00) (95, 1.62353312969207763672e+00) (96, 3.89566421508789062500e-01) (97, 3.27080368995666503906e-01) (98, 1.41640794277191162109e+00) (99, 1.55676031112670898438e+00) (100, 6.69426143169403076172e-01) (101, 1.61169743537902832031e+00) (102, 1.55559778213500976562e+00) (103, 7.01533138751983642578e-01) (104, 3.05397629737854003906e-01) (105, 7.15161144733428955078e-01) (106, 1.06277883052825927734e+00) (107, 1.90433394908905029297e+00) (108, 2.99372225999832153320e-01) (109, 1.58819270133972167969e+00) (110, 8.48477065563201904297e-01) (111, 8.77867400646209716797e-01) (112, 2.38624274730682373047e-01) (113, 1.91705358028411865234e+00) (114, 2.17445492744445800781e-01) (115, 9.31789278984069824219e-01) (116, 7.56967961788177490234e-01) (117, 1.32556116580963134766e+00) (118, 1.34158074855804443359e+00) (119, 1.21457004547119140625e+00) (120, 1.06254470348358154297e+00) (121, 1.10510540008544921875e+00) (122, 2.12844944000244140625e+00) (123, 8.83288323879241943359e-01) (124, 1.11718761920928955078e+00) (125, 1.04781520366668701172e+00) (126, 3.77320051193237304688e-01) (127, 1.40235078334808349609e+00) (128, 1.27049243450164794922e+00) (129, 1.68932485580444335938e+00) (130, 8.29615056514739990234e-01) (131, 1.83551537990570068359e+00) (132, 1.17152082920074462891e+00) (133, 2.55711406469345092773e-01) (134, 4.07547146081924438477e-01) (135, 1.37251543998718261719e+00) (136, 8.66469442844390869141e-01) (137, 1.36592280864715576172e+00) (138, 1.14734792709350585938e+00) (139, 1.06143319606781005859e+00) (140, 8.24619412422180175781e-01) (141, 1.89142191410064697266e+00) (142, 1.83489751815795898438e+00) (143, 9.58841919898986816406e-01) (144, 1.67897403240203857422e+00) (145, 1.94794118404388427734e+00) (146, 1.78622269630432128906e+00) (147, 3.06440532207489013672e-01) (148, 1.14400088787078857422e+00) (149, 9.98307406902313232422e-01) (150, 1.41660761833190917969e+00) (151, 2.10215878486633300781e+00) (152, 1.99900972843170166016e+00) (153, 1.41554450988769531250e+00) (154, 8.55934798717498779297e-01) (155, 9.86701250076293945312e-01) (156, -1.46178495883941650391e+00) (157, 1.12884628772735595703e+00) (158, 2.59550690650939941406e-01) (159, 1.49995303153991699219e+00) (160, 6.88675165176391601562e-01) (161, 9.84762668609619140625e-01) (162, 1.20596694946289062500e+00) (163, 1.75579297542572021484e+00) (164, 1.13606560230255126953e+00) (165, 1.50911104679107666016e+00) (0, 2.33823731541633605957e-01) (1, 2.01623940467834472656e+00) (2, 1.62322854995727539062e+00) (3, 1.60796654224395751953e+00) (4, 1.42388701438903808594e+00) (5, 4.82848823070526123047e-01) (6, 1.33212614059448242188e+00) (7, 1.51629447937011718750e+00) (8, 1.60116875171661376953e+00) (9, 1.41369163990020751953e+00) (10, 2.03800058364868164062e+00) (11, 1.06521427631378173828e+00) (12, 1.30461871623992919922e+00) (13, 6.49351716041564941406e-01) (14, 9.25880551338195800781e-01) (15, 7.47958481311798095703e-01) (16, 1.42718106508255004883e-01) (17, 1.82215893268585205078e+00) (18, 1.42803645133972167969e+00) (19, 8.93995702266693115234e-01) (20, 4.51958119869232177734e-01) (21, 6.03412747383117675781e-01) (22, 5.13013541698455810547e-01) (23, 1.10631275177001953125e+00) (24, 1.19763648509979248047e+00) (25, 1.36757194995880126953e+00) (26, 1.65014624595642089844e+00) (27, 1.40921020507812500000e+00) (28, 7.60199069976806640625e-01) (29, 1.50066602230072021484e+00) (30, 1.74418032169342041016e+00) (31, 8.89621078968048095703e-01) (32, 1.38615560531616210938e+00) (33, 1.23666989803314208984e+00) (34, 3.66848558187484741211e-01) (35, 6.79308950901031494141e-01) (36, 1.61511552333831787109e+00) (37, 1.59457159042358398438e+00) (38, 2.09121131896972656250e+00) (39, 1.08554506301879882812e+00) (40, 8.77529442310333251953e-01) (41, 1.99845099449157714844e+00) (42, 2.04637241363525390625e+00) (43, 2.07775592803955078125e+00) (44, 5.17063677310943603516e-01) (45, 8.41503024101257324219e-01) (46, 6.94964528083801269531e-01) (47, 5.55379986763000488281e-01) (48, 5.32922923564910888672e-01) (49, 2.01860857009887695312e+00) (50, 1.34496712684631347656e+00) (51, 8.80477845668792724609e-01) (52, 4.91271555423736572266e-01) (53, 1.75357758998870849609e+00) (54, 1.88238763809204101562e+00) (55, 1.58450496196746826172e+00) (56, 9.90415990352630615234e-01) (57, 1.40179479122161865234e+00) (58, 8.62981557846069335938e-01) (59, 1.64620661735534667969e+00) (60, 7.71727085113525390625e-01) (61, 4.76422816514968872070e-01) (62, 4.05088573694229125977e-01) (63, 2.05349040031433105469e+00) (64, 1.60868954658508300781e+00) (65, 6.67533993721008300781e-01) (66, 6.02049469947814941406e-01) (67, 1.09306597709655761719e+00) (68, 1.31365180015563964844e-01) (69, 5.62510728836059570312e-01) (70, 2.07422423362731933594e+00) (71, 9.04492914676666259766e-01) (72, 4.30222690105438232422e-01) (73, 1.98983597755432128906e+00) (74, 8.51498901844024658203e-01) (75, 8.42883229255676269531e-01) (76, 7.00599849224090576172e-01) (77, 1.44205498695373535156e+00) (78, 1.29385483264923095703e+00) (79, 1.12911427021026611328e+00) (80, 1.32991373538970947266e+00) (81, 5.08088231086730957031e-01) (82, 1.90518903732299804688e+00) (83, 1.71678209304809570312e+00) (84, 1.30925461649894714355e-01) (85, 1.65683758258819580078e+00) (86, 1.17054796218872070312e+00) (87, 1.01693427562713623047e+00) (88, 9.27898705005645751953e-01) (89, 1.92912650108337402344e+00) (90, 5.32407224178314208984e-01) (91, 1.59521734714508056641e+00) (92, 2.74810165166854858398e-01) (93, 8.33092689514160156250e-01) (94, 1.51795792579650878906e+00) (95, 1.77909660339355468750e+00) (96, 1.39621818065643310547e+00) (97, 2.01561498641967773438e+00) (98, 7.41428792476654052734e-01) (99, 1.42318153381347656250e+00) (100, 4.47375923395156860352e-01) (101, 6.84903085231781005859e-01) (102, 1.96934089064598083496e-01) (103, 7.73195505142211914062e-01) (104, 5.43999910354614257812e-01) (105, 9.44031238555908203125e-01) (106, 1.51167023181915283203e+00) (107, 1.14019131660461425781e+00) (108, 2.55347132682800292969e-01) (109, 6.74791216850280761719e-01) (110, 1.38570487499237060547e-01) (111, 1.48085772991180419922e+00) (112, 1.07847106456756591797e+00) (113, 1.93935775756835937500e+00) (114, 1.06690084934234619141e+00) (115, 1.10499477386474609375e+00) (116, 1.46545624732971191406e+00) (117, 1.06714449822902679443e-01) (118, 2.01754212379455566406e+00) (119, 2.62615889310836791992e-01) (120, 1.93143856525421142578e+00) (121, 4.19199526309967041016e-01) (122, 1.75343012809753417969e+00) (123, 2.10185647010803222656e+00) (124, 1.14788377285003662109e+00) (125, 1.14064884185791015625e+00) (126, 1.75020301342010498047e+00) (127, 4.13368254899978637695e-01) (128, 1.02551400661468505859e+00) (129, 3.60892862081527709961e-01) (130, 1.73214673995971679688e+00) (131, 1.36848676204681396484e+00) (132, 9.41392838954925537109e-01) (133, 1.82467913627624511719e+00) (134, 2.03728985786437988281e+00) (135, 1.38098430633544921875e+00) (136, 6.37971282005310058594e-01) (137, 1.41821026802062988281e+00) (138, 3.90441894531250000000e-01) (139, 7.88915276527404785156e-01) (140, 1.98859846591949462891e+00) (141, 4.24610614776611328125e-01) (142, 1.39032557606697082520e-01) (143, 9.36335802078247070312e-01) (144, 2.33227938413619995117e-01) (145, 1.10153150558471679688e+00) (146, 1.93692743778228759766e+00) (147, 1.59428250789642333984e+00) (148, 1.10384368896484375000e+00) (149, 1.82371973991394042969e+00) (150, 1.75249516963958740234e+00) (151, 9.04548406600952148438e-01) (152, 1.12179532647132873535e-01) (153, 1.37518632411956787109e+00) (154, 8.75654935836791992188e-01) (155, 1.15566086769104003906e+00) (156, -1.36054706573486328125e+00) (157, 4.95118916034698486328e-01) (158, 1.46462595462799072266e+00) (159, 1.30621230602264404297e+00) (160, 7.51608610153198242188e-01) (161, 1.06603360176086425781e+00) (162, 5.43965518474578857422e-01) (163, 1.58859288692474365234e+00) (164, 7.59979009628295898438e-01) (165, 4.50505644083023071289e-01) (166, 8.38843524456024169922e-01) (0, 1.58759152889251708984e+00) (1, 1.63295769691467285156e+00) (2, 2.05128765106201171875e+00) (3, 5.27108192443847656250e-01) (4, 6.62817716598510742188e-01) (5, 6.72719955444335937500e-01) (6, 1.08053708076477050781e+00) (7, 1.65706634521484375000e+00) (8, 1.23126733303070068359e+00) (9, 1.92982947826385498047e+00) (10, 3.68640601634979248047e-01) (11, 1.85585129261016845703e+00) (12, 7.85301566123962402344e-01) (13, 5.04455506801605224609e-01) (14, 7.19899177551269531250e-01) (15, 7.46827185153961181641e-01) (16, 1.71609938144683837891e+00) (17, 1.12367677688598632812e+00) (18, 3.40885788202285766602e-01) (19, 2.57513642311096191406e-01) (20, 2.02334403991699218750e+00) (21, 8.88686597347259521484e-01) (22, 1.59745430946350097656e+00) (23, 4.37571465969085693359e-01) (24, 1.53090608119964599609e+00) (25, 1.81771624088287353516e+00) (26, 1.43661808967590332031e+00) (27, 1.70443445444107055664e-01) (28, 1.05585050582885742188e+00) (29, 3.74377489089965820312e-01) (30, 3.75525504350662231445e-01) (31, 5.11577725410461425781e-01) (32, 1.90293204784393310547e+00) (33, 2.94932752847671508789e-01) (34, 9.34282779693603515625e-01) (35, 4.33880180120468139648e-01) (36, 8.63249599933624267578e-01) (37, 1.91041684150695800781e+00) (38, 1.98654341697692871094e+00) (39, 1.99011385440826416016e+00) (40, 1.70837664604187011719e+00) (41, 2.23312973976135253906e-01) (42, 1.71409559249877929688e+00) (43, 3.61808538436889648438e-01) (44, 6.23366773128509521484e-01) (45, 3.02125096321105957031e-01) (46, 1.00422751903533935547e+00) (47, 2.07595124840736389160e-01) (48, 1.32139873504638671875e+00) (49, 1.24070990085601806641e+00) (50, 3.60707044601440429688e-01) (51, 1.21286237239837646484e+00) (52, 2.02500414848327636719e+00) (53, 1.85375833511352539062e+00) (54, 1.54603087902069091797e+00) (55, 1.42402970790863037109e+00) (56, 1.53960466384887695312e+00) (57, 8.50784718990325927734e-01) (58, 1.49007141590118408203e+00) (59, 4.63590979576110839844e-01) (60, 1.12075376510620117188e+00) (61, 1.76119375228881835938e+00) (62, 8.70765626430511474609e-01) (63, 8.91821503639221191406e-01) (64, 1.95172345638275146484e+00) (65, 1.70063984394073486328e+00) (66, 1.22129321098327636719e+00) (67, 6.83103442192077636719e-01) (68, 1.47918689250946044922e+00) (69, 1.07596695423126220703e+00) (70, 5.41347622871398925781e-01) (71, 1.05569398403167724609e+00) (72, 1.19487810134887695312e+00) (73, 1.23572878539562225342e-01) (74, 1.31309926509857177734e+00) (75, 1.71384179592132568359e+00) (76, 3.21295589208602905273e-01) (77, 1.85460880398750305176e-01) (78, 1.81703507900238037109e+00) (79, 1.53829121589660644531e+00) (80, 1.32176899909973144531e+00) (81, 2.07334995269775390625e+00) (82, 6.19289457798004150391e-01) (83, 1.21489262580871582031e+00) (84, 1.79522764682769775391e+00) (85, 2.06092810630798339844e+00) (86, 5.07058143615722656250e-01) (87, 1.20296263694763183594e+00) (88, 7.79832243919372558594e-01) (89, 1.89272642135620117188e+00) (90, 1.56215047836303710938e+00) (91, 1.79618287086486816406e+00) (92, 1.52205061912536621094e+00) (93, 3.01046460866928100586e-01) (94, 5.56134700775146484375e-01) (95, 1.34190440177917480469e+00) (96, 1.89728331565856933594e+00) (97, 1.67302489280700683594e+00) (98, 1.92060470581054687500e+00) (99, 1.24460053443908691406e+00) (100, 6.17127418518066406250e-01) (101, 3.30082684755325317383e-01) (102, 1.68428853154182434082e-01) (103, 1.70760250091552734375e+00) (104, 3.49253147840499877930e-01) (105, 1.37712633609771728516e+00) (106, 1.28957462310791015625e+00) (107, 5.66145598888397216797e-01) (108, 1.45818555355072021484e+00) (109, 9.74745452404022216797e-01) (110, 2.00003385543823242188e+00) (111, 6.48090243339538574219e-01) (112, 9.16214883327484130859e-01) (113, 4.87453579902648925781e-01) (114, 1.75857985019683837891e+00) (115, 5.79572737216949462891e-01) (116, 4.16501075029373168945e-01) (117, 1.33766949176788330078e-01) (118, 1.67813241481781005859e+00) (119, 1.09192478656768798828e+00) (120, 1.92209172248840332031e+00) (121, 1.10841321945190429688e+00) (122, 7.56243348121643066406e-01) (123, 1.31227266788482666016e+00) (124, 1.30505669116973876953e+00) (125, 1.20796966552734375000e+00) (126, 5.22312760353088378906e-01) (127, 1.07047021389007568359e+00) (128, 7.49130189418792724609e-01) (129, 3.11047792434692382812e-01) (130, 1.83205202221870422363e-01) (131, 1.26184916496276855469e+00) (132, 5.36727368831634521484e-01) (133, 2.47232288122177124023e-01) (134, 8.37587416172027587891e-01) (135, 7.81577408313751220703e-01) (136, 1.51995694637298583984e+00) (137, 2.02276968955993652344e+00) (138, 1.24331450462341308594e+00) (139, 8.46278131008148193359e-01) (140, 8.65634739398956298828e-01) (141, 1.11147856712341308594e+00) (142, 1.38995993137359619141e+00) (143, 1.67744112014770507812e+00) (144, 1.49452912807464599609e+00) (145, 1.01666998863220214844e+00) (146, 1.25143498182296752930e-01) (147, 1.80662703514099121094e+00) (148, 1.04603528976440429688e+00) (149, 1.69887351989746093750e+00) (150, 7.66687572002410888672e-01) (151, 8.36262643337249755859e-01) (152, 6.75422430038452148438e-01) (153, 1.41852247714996337891e+00) (154, 2.04414296150207519531e+00) (155, 1.87607598304748535156e+00) (156, -1.14262485504150390625e+00) (157, 4.34575229883193969727e-01) (158, 8.14681947231292724609e-01) (159, 1.13934946060180664062e+00) (160, 6.41219854354858398438e-01) (161, 8.93485426902770996094e-01) (162, 2.69334465265274047852e-01) (163, 1.07353878021240234375e+00) (164, 1.03631067276000976562e+00) (165, 1.00251579284667968750e+00) (166, 1.75071299076080322266e+00) (167, 4.24403250217437744141e-01) (0, 1.43299847841262817383e-01) (1, 1.06424653530120849609e+00) (2, 9.59546566009521484375e-01) (3, 4.25495833158493041992e-01) (4, 7.14075207710266113281e-01) (5, 1.07469761371612548828e+00) (6, 6.83093130588531494141e-01) (7, 1.81650257110595703125e+00) (8, 1.18086361885070800781e+00) (9, 7.89105772972106933594e-01) (10, 2.05166196823120117188e+00) (11, 6.58631145954132080078e-01) (12, 1.88619458675384521484e+00) (13, 4.23515170812606811523e-01) (14, 6.30249023437500000000e-01) (15, 1.97123467922210693359e-01) (16, 1.01614487171173095703e+00) (17, 1.86285585165023803711e-01) (18, 1.95883119106292724609e+00) (19, 2.08807396888732910156e+00) (20, 5.57484626770019531250e-01) (21, 1.29496979713439941406e+00) (22, 2.11641025543212890625e+00) (23, 1.66513252258300781250e+00) (24, 1.67566192150115966797e+00) (25, 2.06096753478050231934e-01) (26, 9.64916288852691650391e-01) (27, 1.43054425716400146484e+00) (28, 7.59066104888916015625e-01) (29, 1.25321817398071289062e+00) (30, 5.92008352279663085938e-01) (31, 7.97964215278625488281e-01) (32, 1.84558674693107604980e-01) (33, 1.44714641571044921875e+00) (34, 1.11905157566070556641e+00) (35, 7.94232070446014404297e-01) (36, 3.88939440250396728516e-01) (37, 1.69774162769317626953e+00) (38, 4.77824568748474121094e-01) (39, 1.46539986133575439453e+00) (40, 3.53937238454818725586e-01) (41, 3.96565645933151245117e-01) (42, 2.01963853836059570312e+00) (43, 1.07221022248268127441e-01) (44, 7.15677678585052490234e-01) (45, 5.16966879367828369141e-01) (46, 1.99942067265510559082e-01) (47, 1.62741947174072265625e+00) (48, 5.98850667476654052734e-01) (49, 2.05438232421875000000e+00) (50, 1.58257234096527099609e+00) (51, 1.05192697048187255859e+00) (52, 1.21643114089965820312e+00) (53, 1.56606149673461914062e+00) (54, 5.84154605865478515625e-01) (55, 7.59188354015350341797e-01) (56, 1.66775655746459960938e+00) (57, 1.44466233253479003906e+00) (58, 2.08534049987792968750e+00) (59, 2.93912500143051147461e-01) (60, 5.64975857734680175781e-01) (61, 5.44427871704101562500e-01) (62, 9.87473666667938232422e-01) (63, 6.45132780075073242188e-01) (64, 1.88717114925384521484e+00) (65, 2.00212717056274414062e+00) (66, 1.33495640754699707031e+00) (67, 1.43199130892753601074e-01) (68, 1.56695353984832763672e+00) (69, 1.70837783813476562500e+00) (70, 1.50419735908508300781e+00) (71, 1.81648755073547363281e+00) (72, 2.00054168701171875000e+00) (73, 1.39091515541076660156e+00) (74, 1.81930613517761230469e+00) (75, 5.83307921886444091797e-01) (76, 1.80347895622253417969e+00) (77, 1.91484642028808593750e+00) (78, 2.10633516311645507812e+00) (79, 2.69419521093368530273e-01) (80, 1.83630776405334472656e+00) (81, 1.55598640441894531250e+00) (82, 1.21694326400756835938e+00) (83, 9.19834196567535400391e-01) (84, 9.89143311977386474609e-01) (85, 1.69669473171234130859e+00) (86, 1.57461404800415039062e+00) (87, 5.23989737033843994141e-01) (88, 1.00844705104827880859e+00) (89, 1.52703356742858886719e+00) (90, 7.13499128818511962891e-01) (91, 1.46901977062225341797e+00) (92, 1.96705830097198486328e+00) (93, 1.59656429290771484375e+00) (94, 2.00976037979125976562e+00) (95, 1.72131931781768798828e+00) (96, 1.46577620506286621094e+00) (97, 1.21179568767547607422e+00) (98, 1.76011669635772705078e+00) (99, 8.99824976921081542969e-01) (100, 7.87268877029418945312e-01) (101, 1.13140380382537841797e+00) (102, 5.83402395248413085938e-01) (103, 6.54899179935455322266e-01) (104, 3.89414370059967041016e-01) (105, 2.69798517227172851562e-01) (106, 1.13379871845245361328e+00) (107, 2.08850097656250000000e+00) (108, 2.08025288581848144531e+00) (109, 1.10721278190612792969e+00) (110, 2.24998235702514648438e-01) (111, 1.78363955020904541016e+00) (112, 5.30294597148895263672e-01) (113, 1.33753979206085205078e+00) (114, 5.70563614368438720703e-01) (115, 1.41502940654754638672e+00) (116, 9.01329815387725830078e-01) (117, 2.04078531265258789062e+00) (118, 1.83461606502532958984e+00) (119, 1.80537366867065429688e+00) (120, 1.43489801883697509766e+00) (121, 4.15205150842666625977e-01) (122, 1.14148342609405517578e+00) (123, 1.26904618740081787109e+00) (124, 1.90736627578735351562e+00) (125, 1.01832270622253417969e+00) (126, 8.57460737228393554688e-01) (127, 1.24023234844207763672e+00) (128, 2.12573170661926269531e+00) (129, 4.84667271375656127930e-01) (130, 2.03566503524780273438e+00) (131, 7.80079662799835205078e-01) (132, 1.51166808605194091797e+00) (133, 4.86146628856658935547e-01) (134, 1.33057034015655517578e+00) (135, 1.79667925834655761719e+00) (136, 6.51542007923126220703e-01) (137, 3.31464260816574096680e-01) (138, 1.75225937366485595703e+00) (139, 5.98873794078826904297e-01) (140, 1.33427405357360839844e+00) (141, 1.87285578250885009766e+00) (142, 2.49601930379867553711e-01) (143, 1.76016545295715332031e+00) (144, 1.07748556137084960938e+00) (145, 7.15763866901397705078e-01) (146, 1.04228484630584716797e+00) (147, 1.87441217899322509766e+00) (148, 6.23628377914428710938e-01) (149, 7.43996202945709228516e-01) (150, 1.54687571525573730469e+00) (151, 1.95412325859069824219e+00) (152, 1.05479276180267333984e+00) (153, 5.55454373359680175781e-01) (154, 1.09025931358337402344e+00) (155, 8.29254329204559326172e-01) (156, 8.05843412876129150391e-01) (157, 1.84331679344177246094e+00) (158, 1.96508371829986572266e+00) (159, 1.46218478679656982422e+00) (160, 1.95072650909423828125e-01) (161, 1.86782777309417724609e+00) (162, 1.09353624284267425537e-01) (163, 1.60233902931213378906e+00) (164, 2.21062973141670227051e-01) (165, 1.33552157878875732422e+00) (166, 1.26610815525054931641e+00) (167, 7.68203198909759521484e-01) (168, 1.56258261203765869141e+00) (0, 5.13355612754821777344e-01) (1, 2.04339790344238281250e+00) (2, 1.50619173049926757812e+00) (3, 1.26179385185241699219e+00) (4, 1.47086286544799804688e+00) (5, 1.78778970241546630859e+00) (6, 1.01666915416717529297e+00) (7, 1.84251868724822998047e+00) (8, 4.19223248958587646484e-01) (9, 1.84053266048431396484e+00) (10, 1.80937504768371582031e+00) (11, 7.68565595149993896484e-01) (12, 2.03364849090576171875e+00) (13, 2.04624557495117187500e+00) (14, 9.64318215847015380859e-01) (15, 2.44448333978652954102e-01) (16, 6.67110264301300048828e-01) (17, 1.27078568935394287109e+00) (18, 9.80414628982543945312e-01) (19, 5.32493650913238525391e-01) (20, 4.82380807399749755859e-01) (21, 5.96639454364776611328e-01) (22, 4.99637395143508911133e-01) (23, 2.00150966644287109375e+00) (24, 6.63192391395568847656e-01) (25, 1.12406158447265625000e+00) (26, 1.94354355335235595703e+00) (27, 7.40510880947113037109e-01) (28, 2.88459688425064086914e-01) (29, 8.73544752597808837891e-01) (30, 1.72156012058258056641e+00) (31, 6.97412192821502685547e-01) (32, 7.83057808876037597656e-01) (33, 1.09387767314910888672e+00) (34, 1.85480308532714843750e+00) (35, 1.20046027004718780518e-01) (36, 7.47798681259155273438e-01) (37, 7.37603604793548583984e-01) (38, 1.85816228389739990234e+00) (39, 1.06261348724365234375e+00) (40, 4.44262236356735229492e-01) (41, 1.53366339206695556641e+00) (42, 1.72677588462829589844e+00) (43, 3.44025850296020507812e-01) (44, 1.44602406024932861328e+00) (45, 5.57220041751861572266e-01) (46, 4.84072476625442504883e-01) (47, 2.00874209403991699219e+00) (48, 1.72360265254974365234e+00) (49, 1.36007857322692871094e+00) (50, 4.07350838184356689453e-01) (51, 2.10159134864807128906e+00) (52, 1.85231506824493408203e+00) (53, 8.02585124969482421875e-01) (54, 1.96921241283416748047e+00) (55, 3.81633341312408447266e-01) (56, 1.82224357128143310547e+00) (57, 1.77888190746307373047e+00) (58, 1.01773571968078613281e+00) (59, 2.00631093978881835938e+00) (60, 5.18552541732788085938e-01) (61, 6.05427145957946777344e-01) (62, 5.69838285446166992188e-01) (63, 1.19720184803009033203e+00) (64, 1.59490180015563964844e+00) (65, 2.90767252445220947266e-01) (66, 1.21284544467926025391e+00) (67, 2.08825111389160156250e-01) (68, 9.23967778682708740234e-01) (69, 9.37139153480529785156e-01) (70, 1.16703677177429199219e+00) (71, 1.26382148265838623047e+00) (72, 3.36928486824035644531e-01) (73, 7.59944081306457519531e-01) (74, 1.50344419479370117188e+00) (75, 1.67854940891265869141e+00) (76, 1.21275556087493896484e+00) (77, 1.88311362266540527344e+00) (78, 1.55340659618377685547e+00) (79, 8.02489697933197021484e-01) (80, 1.10931813716888427734e+00) (81, 1.85635435581207275391e+00) (82, 7.70196020603179931641e-01) (83, 8.27764451503753662109e-01) (84, 5.25065481662750244141e-01) (85, 6.05534315109252929688e-01) (86, 1.10498917102813720703e+00) (87, 2.13433608412742614746e-01) (88, 2.50540912151336669922e-01) (89, 2.01833796501159667969e+00) (90, 2.11534285545349121094e+00) (91, 6.64691507816314697266e-01) (92, 4.89880442619323730469e-01) (93, 5.51296293735504150391e-01) (94, 1.75749027729034423828e+00) (95, 1.98037922382354736328e+00) (96, 7.37660467624664306641e-01) (97, 8.36467087268829345703e-01) (98, 2.08481335639953613281e+00) (99, 1.55721974372863769531e+00) (100, 1.66919767856597900391e+00) (101, 1.11796522140502929688e+00) (102, 6.87172591686248779297e-01) (103, 1.90172302722930908203e+00) (104, 1.77350616455078125000e+00) (105, 2.08622455596923828125e+00) (106, 1.44639849662780761719e+00) (107, 8.52393209934234619141e-01) (108, 1.83545327186584472656e+00) (109, 8.65936398506164550781e-01) (110, 1.55047440528869628906e+00) (111, 8.10902714729309082031e-01) (112, 5.88416695594787597656e-01) (113, 1.86795011162757873535e-01) (114, 1.53425860404968261719e+00) (115, 1.00907361507415771484e+00) (116, 6.87927544116973876953e-01) (117, 5.05379319190979003906e-01) (118, 1.11810541152954101562e+00) (119, 8.34066629409790039062e-01) (120, 3.89832586050033569336e-01) (121, 1.09956347942352294922e+00) (122, 1.39434957504272460938e+00) (123, 7.75309920310974121094e-01) (124, 1.54645669460296630859e+00) (125, 1.01796579360961914062e+00) (126, 6.21814966201782226562e-01) (127, 1.50241687893867492676e-01) (128, 1.75002980232238769531e+00) (129, 5.72743356227874755859e-01) (130, 1.60305964946746826172e+00) (131, 1.28535354137420654297e+00) (132, 1.58630549907684326172e+00) (133, 1.56356900930404663086e-01) (134, 1.05320262908935546875e+00) (135, 1.22593760490417480469e+00) (136, 1.08697257936000823975e-01) (137, 3.65732401609420776367e-01) (138, 1.97392773628234863281e+00) (139, 1.83974802494049072266e+00) (140, 1.12726032733917236328e+00) (141, 1.39052808284759521484e+00) (142, 5.16776800155639648438e-01) (143, 1.61127388477325439453e+00) (144, 1.47292125225067138672e+00) (145, 1.94663238525390625000e+00) (146, 4.86478894948959350586e-01) (147, 2.05645656585693359375e+00) (148, 3.18137645721435546875e-01) (149, 1.50018131732940673828e+00) (150, 7.56638288497924804688e-01) (151, 6.03567063808441162109e-01) (152, 4.65876102447509765625e-01) (153, 2.04659557342529296875e+00) (154, 1.27446842193603515625e+00) (155, 1.90792965888977050781e+00) (156, -2.72515445947647094727e-01) (157, 1.79188036918640136719e+00) (158, 1.95376956462860107422e+00) (159, 5.46837747097015380859e-01) (160, 2.30748370289802551270e-01) (161, 1.42295527458190917969e+00) (162, 1.72778820991516113281e+00) (163, 1.71265208721160888672e+00) (164, 1.47491037845611572266e+00) (165, 6.47122085094451904297e-01) (166, 8.04721117019653320312e-01) (167, 1.47920513153076171875e+00) (168, 9.08451318740844726562e-01) (169, 6.44774794578552246094e-01) (0, 1.41216528415679931641e+00) (1, 1.24495971202850341797e+00) (2, 1.47902476787567138672e+00) (3, 1.45197057723999023438e+00) (4, 3.36301267147064208984e-01) (5, 5.88145911693572998047e-01) (6, 1.69105470180511474609e+00) (7, 7.00173139572143554688e-01) (8, 2.76980757713317871094e-01) (9, 2.07591915130615234375e+00) (10, 1.09080302715301513672e+00) (11, 1.05897831916809082031e+00) (12, 7.71539092063903808594e-01) (13, 1.51373660564422607422e+00) (14, 1.96997988224029541016e+00) (15, 1.21543860435485839844e+00) (16, 1.54505360126495361328e+00) (17, 1.20497655868530273438e+00) (18, 4.14823889732360839844e-01) (19, 1.82662785053253173828e+00) (20, 6.76439344882965087891e-01) (21, 1.30206739902496337891e+00) (22, 1.74714863300323486328e+00) (23, 1.39485967159271240234e+00) (24, 1.63993716239929199219e+00) (25, 3.01248550415039062500e-01) (26, 7.47557938098907470703e-01) (27, 1.27226185798645019531e+00) (28, 3.57517153024673461914e-01) (29, 1.47685718536376953125e+00) (30, 1.75156688690185546875e+00) (31, 1.66527938842773437500e+00) (32, 5.87050318717956542969e-01) (33, 1.09581983089447021484e+00) (34, 9.82483386993408203125e-01) (35, 8.18948447704315185547e-01) (36, 1.57956266403198242188e+00) (37, 5.38766086101531982422e-01) (38, 1.41471314430236816406e+00) (39, 1.75214028358459472656e+00) (40, 4.79902386665344238281e-01) (41, 3.70749652385711669922e-01) (42, 6.76352083683013916016e-01) (43, 1.14703309535980224609e+00) (44, 1.78008317947387695312e+00) (45, 5.11560082435607910156e-01) (46, 2.27703720331192016602e-01) (47, 1.19036495685577392578e+00) (48, 1.61213350296020507812e+00) (49, 5.38125813007354736328e-01) (50, 8.82226288318634033203e-01) (51, 1.53799623250961303711e-01) (52, 1.73579025268554687500e+00) (53, 4.94603037834167480469e-01) (54, 1.44425749778747558594e+00) (55, 1.24095535278320312500e+00) (56, 6.91448450088500976562e-01) (57, 2.08742332458496093750e+00) (58, 3.78450691699981689453e-01) (59, 9.44562494754791259766e-01) (60, 1.42949771881103515625e+00) (61, 2.02562522888183593750e+00) (62, 4.75069969892501831055e-01) (63, 1.91214489936828613281e+00) (64, 9.86667871475219726562e-01) (65, 1.35314476490020751953e+00) (66, 5.96321403980255126953e-01) (67, 4.31458652019500732422e-01) (68, 1.78750789165496826172e+00) (69, 1.90663146972656250000e+00) (70, 2.07920670509338378906e+00) (71, 1.32636949419975280762e-01) (72, 1.42607837915420532227e-01) (73, 6.20776057243347167969e-01) (74, 1.17526817321777343750e+00) (75, 1.81828939914703369141e+00) (76, 1.02792763710021972656e+00) (77, 1.29857003688812255859e+00) (78, 8.73887777328491210938e-01) (79, 5.05294740200042724609e-01) (80, 1.73229289054870605469e+00) (81, 1.65170550346374511719e+00) (82, 5.54692506790161132812e-01) (83, 1.33331108093261718750e+00) (84, 2.04191637039184570312e+00) (85, 1.89454698562622070312e+00) (86, 4.39500004053115844727e-01) (87, 5.98582029342651367188e-01) (88, 1.84718751907348632812e+00) (89, 7.13547587394714355469e-01) (90, 1.43873596191406250000e+00) (91, 1.14191329479217529297e+00) (92, 6.04390203952789306641e-01) (93, 1.80940282344818115234e+00) (94, 9.19291675090789794922e-01) (95, 1.48664963245391845703e+00) (96, 1.02777576446533203125e+00) (97, 1.41120457649230957031e+00) (98, 1.81370508670806884766e+00) (99, 6.80517077445983886719e-01) (100, 1.18306410312652587891e+00) (101, 1.75812911987304687500e+00) (102, 7.08752214908599853516e-01) (103, 1.22127032279968261719e+00) (104, 2.44131848216056823730e-01) (105, 1.77961742877960205078e+00) (106, 9.04793083667755126953e-01) (107, 1.16765773296356201172e+00) (108, 9.43420946598052978516e-01) (109, 1.67427229881286621094e+00) (110, 1.56854927539825439453e+00) (111, 5.40941894054412841797e-01) (112, 1.19120597839355468750e+00) (113, 2.01884937286376953125e+00) (114, 1.76985001564025878906e+00) (115, 1.09833955764770507812e+00) (116, 1.77861392498016357422e+00) (117, 2.10495781898498535156e+00) (118, 1.59251856803894042969e+00) (119, 1.49102950096130371094e+00) (120, 6.83722496032714843750e-01) (121, 8.96488010883331298828e-01) (122, 4.98176187276840209961e-01) (123, 1.18370425701141357422e+00) (124, 5.71119010448455810547e-01) (125, 1.31305932998657226562e+00) (126, 5.35587370395660400391e-01) (127, 1.49449157714843750000e+00) (128, 5.89497387409210205078e-01) (129, 2.14519247412681579590e-01) (130, 2.07061672210693359375e+00) (131, 1.66815841197967529297e+00) (132, 1.86824655532836914062e+00) (133, 6.44585967063903808594e-01) (134, 7.54662215709686279297e-01) (135, 2.00798749923706054688e+00) (136, 2.89431393146514892578e-01) (137, 1.55504679679870605469e+00) (138, 1.04086256027221679688e+00) (139, 1.12844383716583251953e+00) (140, 1.09454727172851562500e+00) (141, 4.74645256996154785156e-01) (142, 1.56498265266418457031e+00) (143, 1.50985389947891235352e-01) (144, 3.58712047338485717773e-01) (145, 1.20006060600280761719e+00) (146, 1.14492321014404296875e+00) (147, 2.03293371200561523438e+00) (148, 1.17023551464080810547e+00) (149, 6.02675199508666992188e-01) (150, 1.38918018341064453125e+00) (151, 1.74955499172210693359e+00) (152, 1.39475476741790771484e+00) (153, 1.78295326232910156250e+00) (154, 7.98492729663848876953e-01) (155, 1.86147069931030273438e+00) (156, -2.12286412715911865234e-01) (157, 1.22967159748077392578e+00) (158, 1.22119033336639404297e+00) (159, 1.44633507728576660156e+00) (160, 1.33978903293609619141e+00) (161, 1.15702402591705322266e+00) (162, 9.79726970195770263672e-01) (163, 1.07326376438140869141e+00) (164, 1.69720697402954101562e+00) (165, 1.62998068332672119141e+00) (166, 9.46473836898803710938e-01) (167, 1.88223516941070556641e+00) (168, 1.05025565624237060547e+00) (169, 1.88293325901031494141e+00) (170, 8.75912547111511230469e-01) (0, 1.56555783748626708984e+00) (1, 4.04211997985839843750e-01) (2, 4.09849047660827636719e-01) (3, 8.55705738067626953125e-01) (4, 6.70909821987152099609e-01) (5, 2.04723405838012695312e+00) (6, 1.19293594360351562500e+00) (7, 3.00604522228240966797e-01) (8, 7.07858681678771972656e-01) (9, 1.41056084632873535156e+00) (10, 1.81996345520019531250e+00) (11, 3.37360113859176635742e-01) (12, 1.79819786548614501953e+00) (13, 8.49514603614807128906e-01) (14, 5.39636194705963134766e-01) (15, 1.14002811908721923828e+00) (16, 1.58109068870544433594e+00) (17, 1.87999904155731201172e+00) (18, 7.01947987079620361328e-01) (19, 1.18057465553283691406e+00) (20, 9.48230624198913574219e-01) (21, 5.36067366600036621094e-01) (22, 1.37747600674629211426e-01) (23, 5.18664836883544921875e-01) (24, 4.91002589464187622070e-01) (25, 1.43978357315063476562e+00) (26, 